~o
<STREAMINFO> 1 39
<VECSIZE> 39<NULLD><MFCC_D_A_0><DIAGC>
~s "silst"
<MEAN> 39
 -1.257234e+01 1.446716e+00 -4.147417e-01 1.609855e+00 3.148292e+00 3.142811e+00 2.011358e-01 2.236408e+00 1.536178e+00 1.391599e+00 1.908781e+00 6.866637e-01 5.022100e+01 -2.791169e-01 -1.539695e-01 -7.182650e-02 4.331201e-03 -7.142469e-03 5.627551e-02 4.418326e-02 6.682177e-02 8.654592e-02 9.855576e-02 5.528856e-02 3.915579e-02 -1.821428e-01 3.237374e-02 -1.070624e-03 3.066479e-02 -1.777482e-02 1.439804e-02 -1.354848e-02 2.512338e-03 -1.756102e-03 -2.873282e-02 -9.581466e-03 1.561792e-02 2.220695e-03 6.635243e-02
<VARIANCE> 39
 7.658653e+00 2.522638e+01 1.786053e+01 1.538189e+01 1.041724e+01 1.485472e+01 2.087853e+01 1.850017e+01 1.738719e+01 1.724915e+01 1.680417e+01 1.353502e+01 5.420441e+00 2.519934e-01 7.953600e-01 7.762744e-01 9.245806e-01 9.157427e-01 1.153903e+00 1.435459e+00 1.423793e+00 1.408482e+00 1.396366e+00 1.347093e+00 1.188637e+00 2.895255e-01 4.924109e-02 1.190246e-01 1.385369e-01 1.828032e-01 1.894172e-01 2.380133e-01 2.694498e-01 2.910335e-01 2.841746e-01 2.812133e-01 2.670563e-01 2.392051e-01 5.481794e-02
<GCONST> 8.247256e+01
~h "a"
<BEGINHMM>
<NUMSTATES> 5
<STATE> 2
<MEAN> 39
 -3.609686e+00 1.011468e+00 -1.763465e+00 -7.147786e+00 1.709656e+00 -8.365909e-01 3.517267e-01 1.323851e+00 -4.938419e+00 2.993310e+00 3.834242e+00 9.975639e-01 6.240228e+01 1.428653e+00 1.683213e-01 -7.528272e-01 -1.279044e+00 5.739062e-02 -9.321438e-02 -6.719735e-02 5.390432e-01 -8.229016e-01 9.169227e-02 5.445609e-02 2.034664e-01 1.126099e+00 -3.726698e-01 1.944858e-01 3.957771e-01 3.837753e-01 1.607755e-02 1.749038e-02 1.475078e-02 -2.653573e-02 -1.093162e-01 -3.235086e-01 3.337674e-02 -8.790526e-02 -3.794329e-01
<VARIANCE> 39
 5.028164e+01 2.248133e+01 1.742967e+01 4.915872e+01 3.248618e+01 2.931011e+01 3.344546e+01 3.806969e+01 3.692971e+01 2.678845e+01 2.104196e+01 1.978032e+01 4.084969e+01 3.584597e+00 2.342825e+00 2.290940e+00 4.233489e+00 3.222880e+00 2.271208e+00 2.768078e+00 3.486309e+00 3.267098e+00 2.688428e+00 2.929324e+00 2.363519e+00 2.902805e+00 7.163490e-01 4.623070e-01 3.981047e-01 7.001500e-01 5.012456e-01 4.237689e-01 4.251723e-01 5.652761e-01 5.456252e-01 4.970813e-01 4.951858e-01 4.199429e-01 5.438861e-01
<GCONST> 1.210961e+02
<STATE> 3
<MEAN> 39
 1.173189e-01 3.114393e+00 -2.537868e+00 -1.041099e+01 1.658164e+00 -1.207468e+00 4.164733e-01 2.850527e+00 -8.190185e+00 2.110012e+00 4.792722e+00 1.020831e+00 6.448140e+01 -2.575383e-01 7.154417e-01 6.178146e-01 5.874810e-01 4.425083e-02 3.435100e-01 2.232059e-01 -1.644664e-02 -3.978117e-01 -6.326082e-01 4.051507e-02 -4.665187e-02 -8.051961e-01 -5.476467e-01 6.801595e-02 4.091684e-01 7.188630e-01 -1.444591e-01 5.976792e-02 1.513125e-01 -2.860452e-01 2.052688e-01 -2.905958e-01 -1.496127e-01 -1.304084e-01 -5.412187e-01
<VARIANCE> 39
 8.715234e+00 1.500076e+01 1.743119e+01 4.157557e+01 2.831472e+01 1.888261e+01 3.686502e+01 3.878614e+01 3.534212e+01 2.229021e+01 2.260399e+01 2.072881e+01 1.235610e+01 1.181813e+00 1.295397e+00 1.635335e+00 3.251566e+00 2.491163e+00 2.089377e+00 2.105467e+00 3.108141e+00 2.602861e+00 2.195480e+00 1.914234e+00 1.471847e+00 1.571104e+00 3.323456e-01 2.381109e-01 3.585958e-01 5.492423e-01 4.489017e-01 3.453521e-01 4.328347e-01 5.535068e-01 5.289844e-01 3.850382e-01 4.290412e-01 3.228072e-01 2.305741e-01
<GCONST> 1.083821e+02
<STATE> 4
<MEAN> 39
 -3.456007e+00 5.142617e+00 2.147382e-01 -4.959313e+00 1.947749e+00 1.799031e+00 1.385500e+00 1.367073e+00 -6.559585e+00 -8.286494e-01 3.807060e+00 9.527173e-01 5.878866e+01 -1.067748e+00 4.061430e-01 5.982213e-01 1.143310e+00 -2.938016e-01 2.111808e-01 3.185377e-01 -4.145018e-01 2.746202e-01 -7.081525e-01 -3.419119e-01 -1.744961e-01 -1.277934e+00 -1.903377e-01 -2.378761e-01 -8.574814e-02 -1.250910e-01 -7.813921e-02 -2.550797e-01 -5.982945e-02 -2.146755e-02 1.323140e-01 1.587685e-01 -2.111673e-03 -7.604018e-02 1.640163e-01
<VARIANCE> 39
 1.784611e+01 1.406730e+01 2.205838e+01 3.196128e+01 3.622293e+01 3.210648e+01 3.959856e+01 2.896412e+01 3.016788e+01 2.227542e+01 1.923813e+01 1.699872e+01 1.978162e+01 1.740872e+00 1.360257e+00 1.936635e+00 2.954934e+00 3.148463e+00 2.305340e+00 1.850508e+00 2.435855e+00 2.948709e+00 2.113154e+00 2.252565e+00 1.456842e+00 1.631103e+00 3.294733e-01 2.025491e-01 3.616330e-01 4.526687e-01 4.488177e-01 4.262221e-01 3.882478e-01 5.067413e-01 3.784637e-01 4.086564e-01 3.521065e-01 2.764237e-01 2.511903e-01
<GCONST> 1.093770e+02
<TRANSP> 5
 0.000000e+00 1.000000e+00 0.000000e+00 0.000000e+00 0.000000e+00
 0.000000e+00 4.452742e-01 5.547258e-01 0.000000e+00 0.000000e+00
 0.000000e+00 0.000000e+00 5.179510e-01 4.820490e-01 0.000000e+00
 0.000000e+00 0.000000e+00 0.000000e+00 4.801457e-01 5.198544e-01
 0.000000e+00 0.000000e+00 0.000000e+00 0.000000e+00 0.000000e+00
<ENDHMM>
~h "b"
<BEGINHMM>
<NUMSTATES> 5
<STATE> 2
<MEAN> 39
 -3.439999e+00 1.165709e+01 5.155579e+00 3.414881e+00 1.609495e+00 6.596318e-01 -1.664275e+00 -2.979539e+00 -5.854634e+00 -5.194424e+00 -1.714958e+00 4.827276e-01 5.397529e+01 -5.256240e-01 7.692412e-01 7.183138e-01 5.843919e-01 6.477353e-02 1.461419e-01 -5.483269e-02 1.241936e-01 1.241473e-01 -3.958260e-01 -4.387215e-01 -4.345393e-01 -8.346482e-01 -1.410653e-01 -6.703900e-01 -2.363688e-01 -2.385941e-01 -9.400430e-02 -1.825105e-01 -7.873611e-03 -5.611719e-02 1.323531e-01 4.269528e-01 2.843176e-01 -5.469130e-02 3.448570e-01
<VARIANCE> 39
 1.424440e+01 9.755312e+00 1.558641e+01 1.731308e+01 1.310459e+01 1.312473e+01 2.042524e+01 2.048771e+01 1.805368e+01 1.105992e+01 1.168244e+01 1.192711e+01 6.495207e+00 1.340179e+00 1.035382e+00 9.502821e-01 1.088660e+00 1.382905e+00 1.331945e+00 1.201031e+00 1.568883e+00 1.666094e+00 1.386644e+00 1.294423e+00 1.414294e+00 8.019794e-01 1.107189e-01 2.768918e-01 1.744316e-01 2.741498e-01 2.421502e-01 2.783176e-01 2.606801e-01 2.843223e-01 3.425131e-01 2.860607e-01 2.637950e-01 2.830186e-01 1.048965e-01
<GCONST> 8.932815e+01
<STATE> 3
<MEAN> 39
 -5.310532e+00 1.058292e+01 4.961875e+00 4.173562e+00 1.321467e+00 8.213298e-01 -1.938992e+00 -4.812829e+00 -5.830212e+00 -4.375621e+00 -1.718879e+00 1.259119e-01 5.263211e+01 -9.613504e-01 -1.450592e+00 -2.068339e-01 -4.613060e-01 1.417499e-01 -3.759722e-02 -1.535134e-01 3.657774e-01 2.429251e-01 7.507538e-01 9.476873e-01 -3.977109e-01 2.718301e-01 3.504009e-01 -8.071902e-01 -3.558084e-01 -5.233141e-01 -2.784205e-02 -1.914026e-01 9.605679e-02 1.329191e-01 -2.327106e-01 3.636741e-01 5.281733e-01 2.316586e-01 8.971425e-01
<VARIANCE> 39
 9.929098e+00 1.209009e+01 1.583314e+01 1.659272e+01 1.128472e+01 1.226176e+01 1.838194e+01 2.002149e+01 1.901662e+01 1.688584e+01 1.656549e+01 1.443866e+01 3.895651e+00 7.405037e-01 1.714303e+00 8.735210e-01 1.375135e+00 1.157236e+00 1.545188e+00 1.697805e+00 1.585279e+00 1.772006e+00 1.490314e+00 1.707146e+00 1.330416e+00 1.129378e+00 1.445633e-01 2.455295e-01 2.737992e-01 2.981997e-01 2.514987e-01 3.619854e-01 3.902315e-01 2.848469e-01 3.648359e-01 3.670426e-01 3.828245e-01 3.617760e-01 7.592566e-02
<GCONST> 9.238687e+01
<STATE> 4
<MEAN> 39
 -7.125766e+00 4.049567e+00 3.684677e+00 1.145805e+00 2.419406e+00 1.049725e+00 -1.772717e+00 -1.850482e+00 -5.933562e+00 -1.925689e+00 2.968375e+00 -2.788128e-02 5.624361e+01 1.038412e+00 -2.071578e+00 -9.014990e-01 -1.355984e+00 -1.341684e-01 -6.549959e-01 3.892971e-01 2.441185e-01 -7.060377e-01 9.681610e-01 1.236063e+00 4.767202e-01 2.427540e+00 7.553867e-01 4.224283e-01 -5.592673e-02 6.863933e-02 -3.482800e-01 -3.997806e-01 1.130150e-01 -3.844362e-01 -2.929662e-01 -1.482712e-02 -4.348841e-01 1.755445e-01 2.993831e-01
<VARIANCE> 39
 1.199808e+01 2.625041e+01 1.207503e+01 2.505555e+01 1.667708e+01 1.627801e+01 1.998709e+01 2.189042e+01 1.700211e+01 1.795637e+01 2.235121e+01 1.293291e+01 2.147699e+01 2.264376e+00 3.286335e+00 2.405681e+00 4.226970e+00 2.796336e+00 3.093150e+00 3.738771e+00 2.957801e+00 3.807882e+00 2.762224e+00 3.373546e+00 2.003876e+00 1.140470e+00 2.085461e-01 5.466583e-01 2.951255e-01 5.753490e-01 3.483438e-01 4.291022e-01 5.380254e-01 4.547110e-01 5.595973e-01 3.103968e-01 5.895071e-01 3.936785e-01 3.231168e-01
<GCONST> 1.109704e+02
<TRANSP> 5
 0.000000e+00 1.000000e+00 0.000000e+00 0.000000e+00 0.000000e+00
 0.000000e+00 6.033694e-01 3.966306e-01 0.000000e+00 0.000000e+00
 0.000000e+00 0.000000e+00 5.202919e-01 4.797081e-01 0.000000e+00
 0.000000e+00 0.000000e+00 0.000000e+00 5.365095e-01 4.634905e-01
 0.000000e+00 0.000000e+00 0.000000e+00 0.000000e+00 0.000000e+00
<ENDHMM>
~h "c"
<BEGINHMM>
<NUMSTATES> 5
<STATE> 2
<MEAN> 39
 -1.488332e+01 8.579252e+00 4.972700e+00 -7.273247e+00 5.899118e+00 -1.306298e+00 -2.808913e+00 9.791362e-01 -7.087093e+00 -3.452092e+00 2.176044e+00 -2.250327e+00 5.775264e+01 -3.864546e+00 3.763186e-01 5.139011e-01 -1.921118e+00 1.257846e+00 -4.554766e-01 -7.581184e-01 5.387467e-02 2.587293e-01 -4.592522e-02 1.491067e-01 -7.451991e-01 1.222399e+00 -1.477588e-02 -1.886360e-01 2.875681e-02 -8.855999e-04 3.877254e-02 -2.034160e-01 5.741243e-03 2.768526e-02 6.714685e-02 1.579208e-01 2.329400e-01 1.172741e-01 3.969667e-01
<VARIANCE> 39
 4.618422e+01 2.197814e+01 2.741582e+01 3.619180e+01 2.649204e+01 2.464004e+01 3.448633e+01 2.278573e+01 1.975690e+01 2.291490e+01 1.641282e+01 1.530925e+01 1.553758e+01 1.949364e+00 2.381579e+00 1.957773e+00 3.227495e+00 2.320759e+00 2.691731e+00 1.843790e+00 2.442251e+00 2.641562e+00 2.285768e+00 1.960065e+00 1.399763e+00 1.957769e+00 6.916977e-01 5.587421e-01 3.736788e-01 8.906229e-01 5.514535e-01 4.950888e-01 3.493320e-01 3.599400e-01 5.178130e-01 4.597303e-01 3.184185e-01 2.933532e-01 3.810745e-01
<GCONST> 1.130342e+02
<STATE> 3
<MEAN> 39
 -2.582961e+01 6.408283e+00 7.217484e+00 -1.093264e+01 1.022230e+01 -4.386280e+00 -4.622096e+00 1.814760e+00 -5.751726e+00 -2.764291e+00 4.558592e+00 -4.023856e+00 6.316217e+01 1.637118e-01 -1.504371e+00 2.178701e-02 5.436714e-01 1.948266e-01 -5.478546e-01 2.907107e-01 3.815475e-01 3.610967e-01 3.178845e-01 7.728749e-01 -6.747262e-02 1.595261e-02 1.183539e+00 -4.483448e-02 -1.982870e-01 5.834163e-01 -3.338689e-01 2.361230e-01 2.082776e-01 -1.760636e-01 -1.169679e-02 9.396633e-02 -5.134255e-02 1.682198e-01 -5.758658e-01
<VARIANCE> 39
 1.461095e+01 2.834173e+01 2.288578e+01 2.222794e+01 2.143656e+01 2.700490e+01 2.563656e+01 2.570688e+01 2.145654e+01 1.489006e+01 1.980939e+01 1.509569e+01 5.497611e+00 3.793728e+00 1.859236e+00 1.218730e+00 2.300744e+00 2.500820e+00 1.799257e+00 1.739091e+00 1.584863e+00 1.729836e+00 1.564055e+00 1.415226e+00 1.398281e+00 1.475950e+00 3.560450e-01 5.552351e-01 2.356328e-01 3.666283e-01 3.719380e-01 3.918968e-01 2.997367e-01 4.509645e-01 3.531369e-01 3.104191e-01 3.422051e-01 2.747452e-01 1.574931e-01
<GCONST> 1.031079e+02
<STATE> 4
<MEAN> 39
 -1.635044e+01 2.180644e+00 5.504550e+00 -4.936893e+00 8.644456e+00 -2.592105e+00 -1.478937e+00 9.109224e-01 -4.360577e+00 -3.251042e-01 6.822886e+00 -2.422204e+00 5.843194e+01 3.230881e+00 1.005518e+00 -1.699287e-01 1.443394e+00 -9.106442e-01 7.772294e-01 4.150971e-01 -1.110199e+00 5.540675e-02 3.566743e-01 -4.652590e-01 6.796339e-01 -9.478838e-01 5.613633e-02 5.178235e-01 4.236056e-02 -2.774421e-01 -2.510491e-01 -1.093423e-01 -2.462443e-01 -2.193445e-01 -9.299912e-02 -1.468589e-01 -3.579108e-01 7.432215e-02 4.032594e-01
<VARIANCE> 39
 2.940641e+01 3.099630e+01 2.727547e+01 2.402349e+01 3.484594e+01 4.205537e+01 3.832239e+01 2.899616e+01 2.066869e+01 1.727072e+01 1.623114e+01 1.768365e+01 1.197857e+01 3.327177e+00 2.553929e+00 2.248848e+00 2.625775e+00 2.158215e+00 2.470613e+00 1.936853e+00 3.271648e+00 2.140428e+00 1.904997e+00 1.671606e+00 1.640313e+00 1.901957e+00 4.259091e-01 6.610358e-01 3.815812e-01 4.107255e-01 4.510044e-01 5.945256e-01 3.973273e-01 5.918147e-01 4.430878e-01 3.305393e-01 3.424999e-01 3.065780e-01 2.834406e-01
<GCONST> 1.124733e+02
<TRANSP> 5
 0.000000e+00 1.000000e+00 0.000000e+00 0.000000e+00 0.000000e+00
 0.000000e+00 7.237259e-01 2.762741e-01 0.000000e+00 0.000000e+00
 0.000000e+00 0.000000e+00 7.700204e-01 2.299796e-01 0.000000e+00
 0.000000e+00 0.000000e+00 0.000000e+00 6.634234e-01 3.365766e-01
 0.000000e+00 0.000000e+00 0.000000e+00 0.000000e+00 0.000000e+00
<ENDHMM>
~h "d"
<BEGINHMM>
<NUMSTATES> 5
<STATE> 2
<MEAN> 39
 -4.728269e+00 6.450430e+00 4.647653e+00 4.016426e+00 6.188841e-01 -1.110140e+00 -2.111167e+00 -4.971290e+00 -6.263312e+00 -1.825375e+00 3.363208e-01 1.420627e-01 5.569494e+01 -7.649790e-01 -1.581345e+00 2.048377e-01 2.307957e-01 -7.251216e-01 -2.723784e-01 6.999618e-01 4.903356e-01 2.739797e-01 2.314025e-01 5.894697e-02 -7.855831e-01 2.241045e-01 1.953603e-01 -7.161303e-01 -1.462092e-01 -3.297012e-01 -1.248918e-01 -2.827546e-01 -1.237719e-02 -5.971168e-02 1.382547e-01 4.926922e-01 3.369142e-01 5.059188e-02 9.167326e-01
<VARIANCE> 39
 1.214350e+01 2.444536e+01 3.014577e+01 2.743798e+01 2.160261e+01 2.378648e+01 2.970102e+01 2.054453e+01 2.047528e+01 2.186582e+01 1.710704e+01 1.491013e+01 1.517578e+01 1.478470e+00 6.015104e+00 2.956678e+00 3.952185e+00 2.702305e+00 3.302717e+00 2.790345e+00 2.587372e+00 2.391587e+00 3.160755e+00 2.904877e+00 1.504610e+00 3.578578e+00 2.643330e-01 7.497890e-01 4.432401e-01 5.157205e-01 5.400270e-01 5.469664e-01 6.000656e-01 7.283787e-01 5.082995e-01 5.400611e-01 4.335136e-01 3.515199e-01 3.807449e-01
<GCONST> 1.154102e+02
<STATE> 3
<MEAN> 39
 -6.845610e+00 -5.198653e+00 5.093546e+00 2.928950e+00 -3.048018e+00 -4.368312e+00 1.156751e+00 -3.257299e+00 -5.014412e+00 1.991978e+00 2.878347e+00 -2.786439e+00 6.246125e+01 3.260626e-01 -1.189120e+00 6.012325e-02 -9.901650e-02 -4.073660e-01 -3.534887e-01 5.927655e-03 -4.220167e-01 5.330540e-01 9.828628e-01 8.279929e-01 1.071932e-01 1.508971e+00 7.297504e-01 1.163601e+00 -4.316429e-01 -1.774192e-01 4.334061e-01 1.811412e-01 -3.977763e-01 -3.547069e-01 -7.586136e-02 -9.049404e-02 -9.922687e-02 5.987913e-01 -1.079421e-01
<VARIANCE> 39
 1.617488e+01 3.415985e+01 4.426993e+01 4.170915e+01 3.576416e+01 3.804491e+01 3.845333e+01 3.009279e+01 2.680941e+01 2.127231e+01 2.743337e+01 1.660363e+01 1.362991e+01 2.064404e+00 4.611193e+00 2.865928e+00 2.888917e+00 2.379517e+00 3.496740e+00 3.747769e+00 3.665902e+00 3.114686e+00 3.915686e+00 2.549945e+00 2.102174e+00 3.257037e+00 3.663272e-01 8.054145e-01 9.761373e-01 1.046820e+00 7.855679e-01 9.073337e-01 7.540950e-01 8.846726e-01 6.557581e-01 6.136246e-01 5.814444e-01 4.532867e-01 4.673378e-01
<GCONST> 1.243821e+02
<STATE> 4
<MEAN> 39
 -3.141371e+00 -3.974995e-01 3.326691e+00 3.356067e+00 -1.959609e+00 -3.702405e+00 3.057671e-01 -7.338623e+00 -5.139229e+00 3.063889e+00 3.732665e+00 3.045564e-01 6.287562e+01 1.538458e+00 1.378114e+00 -8.553286e-01 -3.990802e-01 2.511180e-01 3.501145e-01 -3.633033e-01 -7.383900e-01 4.387444e-02 8.751591e-02 -2.117402e-01 9.102093e-01 4.016452e-01 5.938856e-02 5.048925e-01 -1.743445e-01 -1.784670e-01 2.185984e-01 1.118232e-01 -1.176928e-01 3.759218e-01 -1.532968e-01 -4.809136e-01 -3.090185e-01 3.954586e-02 -3.747530e-01
<VARIANCE> 39
 2.950788e+01 2.401434e+01 4.039499e+01 2.897174e+01 2.704187e+01 2.995658e+01 5.162130e+01 4.633856e+01 3.085245e+01 2.827828e+01 2.987125e+01 1.839087e+01 2.173178e+01 1.996078e+00 3.340024e+00 4.120543e+00 3.266071e+00 3.356482e+00 4.057683e+00 4.472773e+00 5.345668e+00 3.215706e+00 3.846438e+00 2.522758e+00 2.454307e+00 1.582919e+00 4.163468e-01 7.331589e-01 5.819803e-01 3.883639e-01 5.476429e-01 5.655300e-01 7.001693e-01 8.686355e-01 6.012086e-01 6.750694e-01 5.918332e-01 3.669931e-01 5.457748e-01
<GCONST> 1.236442e+02
<TRANSP> 5
 0.000000e+00 1.000000e+00 0.000000e+00 0.000000e+00 0.000000e+00
 0.000000e+00 5.101307e-01 4.898693e-01 0.000000e+00 0.000000e+00
 0.000000e+00 0.000000e+00 3.515596e-01 6.484404e-01 0.000000e+00
 0.000000e+00 0.000000e+00 0.000000e+00 3.578545e-01 6.421455e-01
 0.000000e+00 0.000000e+00 0.000000e+00 0.000000e+00 0.000000e+00
<ENDHMM>
~h "e"
<BEGINHMM>
<NUMSTATES> 5
<STATE> 2
<MEAN> 39
 -2.732485e+00 2.108190e+00 3.913805e+00 4.225748e-02 1.043771e+00 -6.342047e+00 -4.167933e+00 -3.188094e+00 -2.413997e+00 2.939418e+00 1.158648e+00 -1.499043e-01 6.349908e+01 1.846309e+00 5.608171e-01 -8.682546e-01 2.508113e-01 -4.596893e-01 8.582755e-02 -6.288318e-01 -8.987638e-01 -6.953504e-03 3.414296e-01 -5.309135e-01 5.664092e-01 4.654547e-01 -8.793657e-01 -6.315910e-03 3.460289e-01 -1.803045e-01 1.831365e-01 2.800812e-01 3.160943e-01 2.213081e-01 -2.902437e-01 -3.436698e-01 2.765869e-01 -1.091312e-01 -3.557934e-01
<VARIANCE> 39
 2.184199e+01 1.592408e+01 3.754941e+01 4.878031e+01 3.004589e+01 2.964989e+01 2.788257e+01 2.571971e+01 3.040145e+01 2.151378e+01 3.090412e+01 1.354934e+01 1.366151e+01 3.677878e+00 2.177269e+00 2.503620e+00 2.425905e+00 4.121433e+00 2.772825e+00 3.118459e+00 2.769344e+00 3.123376e+00 2.059724e+00 2.601679e+00 2.152845e+00 1.789875e+00 5.609289e-01 4.432730e-01 3.813154e-01 5.004731e-01 5.082206e-01 5.135788e-01 4.344422e-01 4.733916e-01 5.272927e-01 4.336733e-01 4.274943e-01 2.871772e-01 3.430628e-01
<GCONST> 1.155717e+02
<STATE> 3
<MEAN> 39
 -1.925535e+00 2.121421e+00 2.511975e+00 -7.727780e-01 9.058135e-01 -5.300457e+00 -4.581788e+00 -3.938855e+00 -2.587031e+00 3.371370e+00 1.597493e+00 3.702640e-01 6.369078e+01 -9.626552e-02 7.287604e-01 2.548978e-01 1.253507e-01 2.746049e-01 6.682984e-01 1.021499e-01 2.454322e-02 -5.713673e-01 -5.549133e-01 3.220139e-01 1.280735e-01 -7.039843e-01 -8.025686e-01 5.987326e-02 4.169035e-01 -2.568928e-02 2.007279e-01 1.420954e-01 3.477853e-01 3.389859e-01 -2.154400e-01 -4.270392e-01 1.896603e-01 -2.008742e-01 -4.089444e-01
<VARIANCE> 39
 1.845542e+01 1.442773e+01 3.604361e+01 4.592683e+01 2.739693e+01 2.850224e+01 3.119407e+01 3.281924e+01 3.903841e+01 2.300395e+01 3.286611e+01 2.051092e+01 1.341511e+01 1.865235e+00 1.347093e+00 1.976256e+00 2.110180e+00 3.547416e+00 2.156170e+00 2.160289e+00 2.097281e+00 2.444908e+00 1.734578e+00 1.922913e+00 1.374289e+00 1.436687e+00 6.192665e-01 3.472146e-01 4.115656e-01 4.868247e-01 6.089259e-01 4.554509e-01 4.965835e-01 5.362665e-01 6.084722e-01 4.097409e-01 4.142447e-01 4.108339e-01 2.636541e-01
<GCONST> 1.126055e+02
<STATE> 4
<MEAN> 39
 -4.018114e+00 4.518349e+00 4.146057e+00 -2.024965e-01 2.457365e+00 -2.778932e+00 -3.314298e+00 -2.974201e+00 -4.304668e+00 1.320215e+00 2.849868e+00 5.885996e-01 5.999840e+01 -1.025378e+00 7.541314e-01 5.490478e-01 1.964286e-01 3.729148e-01 7.099433e-01 5.656084e-01 3.910587e-01 -4.570836e-01 -9.994545e-01 1.146346e-01 -1.597454e-01 -1.197819e+00 -4.205717e-01 -2.413309e-01 4.026419e-02 -1.397653e-01 -8.403897e-02 -2.056389e-01 1.029954e-01 1.449784e-01 7.455128e-02 -4.339349e-02 -3.627766e-02 -1.541339e-01 1.209404e-01
<VARIANCE> 39
 2.095257e+01 1.544336e+01 3.397673e+01 4.054589e+01 3.270294e+01 2.766474e+01 3.087942e+01 2.794947e+01 3.447797e+01 1.822699e+01 2.850662e+01 1.652206e+01 1.776042e+01 2.386752e+00 1.375616e+00 2.009868e+00 2.568701e+00 3.747763e+00 2.039660e+00 1.886260e+00 2.318452e+00 2.974518e+00 2.114533e+00 2.217410e+00 1.602536e+00 1.513869e+00 4.489111e-01 2.276533e-01 3.134765e-01 3.863624e-01 5.323102e-01 3.885854e-01 4.054101e-01 3.907020e-01 4.559351e-01 3.110802e-01 3.514648e-01 2.641225e-01 2.128669e-01
<GCONST> 1.099016e+02
<TRANSP> 5
 0.000000e+00 1.000000e+00 0.000000e+00 0.000000e+00 0.000000e+00
 0.000000e+00 2.592763e-01 7.407237e-01 0.000000e+00 0.000000e+00
 0.000000e+00 0.000000e+00 2.665882e-01 7.334118e-01 0.000000e+00
 0.000000e+00 0.000000e+00 0.000000e+00 3.038960e-01 6.961041e-01
 0.000000e+00 0.000000e+00 0.000000e+00 0.000000e+00 0.000000e+00
<ENDHMM>
~h "f"
<BEGINHMM>
<NUMSTATES> 5
<STATE> 2
<MEAN> 39
 -9.690013e+00 4.812241e+00 3.035758e+00 3.049474e-02 3.452193e+00 2.153656e+00 3.659342e-01 -1.270079e+00 -3.612771e+00 -1.431951e+00 3.050918e+00 1.455619e-01 5.504353e+01 -1.497970e+00 -6.286228e-01 1.798639e-01 2.413832e-01 2.230242e-01 -5.664494e-01 -8.213383e-01 -2.835529e-01 4.421966e-01 -1.674412e-01 2.924168e-01 -5.992269e-01 -1.666385e-01 7.901166e-02 -3.274432e-01 -1.109234e-01 -2.994412e-01 -9.166341e-02 -4.119229e-01 -2.146303e-01 -1.290862e-01 -9.616771e-02 1.686629e-01 1.207118e-01 -1.009266e-02 4.084036e-01
<VARIANCE> 39
 1.835992e+01 1.396839e+01 9.167690e+00 3.071077e+01 1.363349e+01 1.845694e+01 2.174193e+01 2.782737e+01 1.904383e+01 1.602676e+01 1.761348e+01 1.329883e+01 1.173660e+01 2.237044e+00 9.503925e-01 1.103677e+00 1.609581e+00 2.201249e+00 1.656382e+00 2.250098e+00 2.348641e+00 1.980887e+00 1.916921e+00 2.372264e+00 1.497283e+00 1.136453e+00 1.944625e-01 2.055013e-01 1.899928e-01 3.253745e-01 2.496695e-01 3.426440e-01 3.107418e-01 3.358443e-01 3.142770e-01 3.902954e-01 3.066613e-01 2.658143e-01 9.531701e-02
<GCONST> 9.777701e+01
<STATE> 3
<MEAN> 39
 -1.296886e+01 1.189387e+00 2.638250e+00 -7.842861e-01 3.717624e+00 -1.452338e+00 -3.288335e+00 -2.525354e+00 -3.650431e+00 -6.928120e-01 4.605649e+00 -1.456989e+00 5.699623e+01 -7.417993e-01 -1.175493e+00 -1.245587e-01 -4.339228e-01 4.883776e-01 -4.006680e-01 -7.540982e-01 -3.093751e-01 7.148623e-02 3.400067e-01 7.595856e-01 -2.443796e-01 5.649594e-01 4.082765e-01 1.249598e-01 -1.644312e-02 -1.729244e-01 -9.776042e-03 2.532435e-01 3.173322e-01 1.412753e-01 -1.105216e-01 7.345533e-03 -3.581504e-02 2.647917e-01 6.941929e-02
<VARIANCE> 39
 1.648405e+01 2.115346e+01 1.405472e+01 2.650766e+01 1.476768e+01 2.092515e+01 1.887232e+01 1.961013e+01 1.833177e+01 2.089996e+01 2.198268e+01 1.060210e+01 1.144454e+01 2.509993e+00 1.423275e+00 9.865152e-01 2.520713e+00 1.804740e+00 2.451672e+00 2.268882e+00 2.286066e+00 1.719951e+00 1.395358e+00 1.426549e+00 1.399546e+00 1.217560e+00 3.357888e-01 4.056476e-01 2.421543e-01 2.866023e-01 3.063992e-01 5.597440e-01 3.071078e-01 2.925185e-01 3.323544e-01 4.345607e-01 4.533728e-01 2.471532e-01 2.334848e-01
<GCONST> 1.016047e+02
<STATE> 4
<MEAN> 39
 -1.308965e+01 -1.014529e+00 2.727890e+00 -1.475896e+00 4.866547e+00 1.005070e+00 -2.071751e+00 -2.513985e+00 -3.176527e+00 -3.769424e-01 6.503624e+00 1.336942e-01 5.727367e+01 7.284974e-01 7.000777e-01 8.326071e-02 -1.864157e-01 -3.683923e-01 2.096514e-01 2.870903e-01 1.298057e-01 -1.290260e-01 -2.448811e-01 -6.057360e-01 1.030772e-01 -1.844729e-01 2.145658e-01 3.192733e-01 1.130855e-01 1.599962e-01 -2.366311e-01 -1.070484e-01 2.361020e-01 1.234559e-01 -7.962973e-02 5.131629e-02 -3.901518e-01 9.302932e-03 -2.034445e-02
<VARIANCE> 39
 2.329253e+01 2.192115e+01 2.554721e+01 4.427718e+01 2.137821e+01 3.036635e+01 2.707900e+01 3.493997e+01 3.850516e+01 2.043600e+01 1.760598e+01 1.568650e+01 1.803413e+01 3.990282e+00 3.646034e+00 1.896358e+00 3.534285e+00 2.678113e+00 4.296843e+00 2.603978e+00 2.596069e+00 2.774947e+00 2.025002e+00 2.257483e+00 1.571591e+00 3.452503e+00 4.028835e-01 5.459555e-01 3.667758e-01 5.945926e-01 4.508579e-01 7.527652e-01 4.831361e-01 6.162878e-01 5.153915e-01 4.254603e-01 3.965441e-01 3.632883e-01 5.013945e-01
<GCONST> 1.171443e+02
<TRANSP> 5
 0.000000e+00 1.000000e+00 0.000000e+00 0.000000e+00 0.000000e+00
 0.000000e+00 5.363234e-01 4.636766e-01 0.000000e+00 0.000000e+00
 0.000000e+00 0.000000e+00 4.950610e-01 5.049390e-01 0.000000e+00
 0.000000e+00 0.000000e+00 0.000000e+00 5.887637e-01 4.112364e-01
 0.000000e+00 0.000000e+00 0.000000e+00 0.000000e+00 0.000000e+00
<ENDHMM>
~h "g"
<BEGINHMM>
<NUMSTATES> 5
<STATE> 2
<MEAN> 39
 -6.731758e+00 3.610908e+00 2.851065e+00 4.254373e+00 3.948927e+00 -1.948213e+00 -7.399723e+00 3.064347e+00 -1.560763e+00 -4.000216e+00 3.572937e+00 -4.543785e-01 5.774597e+01 -8.883949e-01 -6.455423e-01 1.041736e+00 -2.279357e-01 3.259673e-01 6.218126e-01 -7.065501e-01 9.159352e-01 -1.897169e-01 -1.145047e-01 9.929681e-01 -3.009606e-01 4.619249e-01 3.348275e-01 4.997918e-02 3.164106e-01 9.532338e-02 -8.543656e-02 -4.638676e-01 2.293564e-01 -5.932451e-01 -1.619598e-01 2.930489e-01 -4.113690e-01 -1.166322e-01 3.711941e-01
<VARIANCE> 39
 2.316512e+01 2.826230e+01 2.655484e+01 1.883453e+01 2.350668e+01 3.192394e+01 5.602307e+01 3.519935e+01 4.046451e+01 2.734688e+01 3.887109e+01 2.832149e+01 2.191158e+01 1.324476e+00 3.161227e+00 2.395599e+00 2.709578e+00 3.639181e+00 2.660600e+00 7.434009e+00 3.975991e+00 2.421128e+00 2.868939e+00 3.859215e+00 1.799098e+00 2.636555e+00 6.095067e-01 5.608062e-01 5.629071e-01 9.675101e-01 8.514154e-01 6.205209e-01 1.920589e+00 6.587983e-01 1.000399e+00 6.654962e-01 1.302629e+00 4.005723e-01 4.340864e-01
<GCONST> 1.255123e+02
<STATE> 3
<MEAN> 39
 -6.753530e+00 5.093609e+00 5.882413e+00 4.601480e+00 4.391309e+00 -2.181217e+00 -7.884976e+00 3.947039e-02 -1.481718e+00 -3.407056e+00 2.413157e+00 -6.494722e-01 5.671542e+01 1.271570e+00 1.816789e-02 9.762310e-02 5.301808e-01 2.198345e-01 -1.958499e+00 4.470710e-01 -9.651179e-01 2.480754e-01 6.405887e-01 -1.928994e+00 -3.070024e-01 1.070378e+00 3.401792e-01 -3.793948e-01 -5.427051e-01 -1.156637e-01 -2.638347e-01 -3.668099e-01 4.174815e-01 -3.495272e-01 -9.420739e-02 4.230780e-01 -2.765649e-01 3.357326e-02 4.276148e-01
<VARIANCE> 39
 1.445559e+01 2.313880e+01 4.889374e+01 9.620275e+00 2.354174e+01 2.167725e+01 2.441000e+01 8.979448e+00 2.644764e+01 2.045050e+01 2.981911e+01 2.136438e+01 1.765246e+01 3.095797e+00 3.716508e+00 2.612566e+00 2.508346e+00 3.393407e+00 4.315664e+00 7.281826e+00 2.557437e+00 4.137258e+00 4.893254e+00 5.510619e+00 1.951909e+00 1.471398e+00 4.013801e-01 6.858045e-01 8.062932e-01 3.555611e-01 6.381370e-01 6.482046e-01 6.804081e-01 3.321794e-01 3.459778e-01 4.756275e-01 1.173851e+00 3.280728e-01 4.916100e-01
<GCONST> 1.182120e+02
<STATE> 4
<MEAN> 39
 -4.039557e+00 1.704195e+00 2.418716e+00 4.524692e+00 4.685007e+00 -6.434950e+00 -4.327818e+00 -2.561857e+00 -1.421601e+00 1.252112e+00 -1.839413e+00 -1.087612e+00 6.151265e+01 6.229128e-01 -1.202242e+00 -4.295115e-01 -2.795655e-01 -5.131208e-01 -1.002682e+00 8.432105e-01 -7.806970e-01 -6.736953e-01 1.461282e+00 -5.310416e-01 -6.730143e-02 1.532009e+00 -2.416940e-01 1.308549e-03 8.984064e-02 -2.442852e-01 -3.092330e-01 6.798596e-01 -2.232800e-01 3.007176e-01 -2.813262e-01 -2.955230e-01 8.741385e-01 7.274756e-02 -2.326397e-01
<VARIANCE> 39
 9.741427e+00 2.694078e+01 3.611319e+01 2.171747e+01 3.852557e+01 7.444466e+01 4.534163e+01 2.534709e+01 2.273081e+01 4.638158e+01 3.694706e+01 1.265823e+01 3.666618e+01 3.074470e+00 2.537008e+00 3.622345e+00 3.263464e+00 3.510010e+00 3.482678e+00 2.176464e+00 2.372663e+00 2.930069e+00 3.275323e+00 4.349957e+00 1.656691e+00 2.290071e+00 3.133623e-01 9.103027e-01 6.926607e-01 3.609199e-01 4.728004e-01 1.327416e+00 9.914057e-01 5.319552e-01 3.774402e-01 7.305054e-01 6.711051e-01 2.724474e-01 6.516102e-01
<GCONST> 1.222026e+02
<TRANSP> 5
 0.000000e+00 1.000000e+00 0.000000e+00 0.000000e+00 0.000000e+00
 0.000000e+00 5.608733e-01 4.391267e-01 0.000000e+00 0.000000e+00
 0.000000e+00 0.000000e+00 3.692343e-01 6.307658e-01 0.000000e+00
 0.000000e+00 0.000000e+00 0.000000e+00 2.759086e-01 7.240914e-01
 0.000000e+00 0.000000e+00 0.000000e+00 0.000000e+00 0.000000e+00
<ENDHMM>
~h "h"
<BEGINHMM>
<NUMSTATES> 5
<STATE> 2
<MEAN> 39
 -2.252583e+00 5.596293e+00 1.929268e+00 7.432900e-01 3.420629e+00 3.411566e+00 1.861624e+00 -2.801367e+00 -1.565136e+00 1.082059e+00 2.226285e+00 2.317032e+00 6.029238e+01 -8.781100e-02 2.242975e-01 -1.838848e-01 -2.106486e-01 4.158675e-01 1.462867e+00 1.025002e+00 1.873230e-01 -8.514501e-01 -5.507316e-01 3.044297e-01 1.064700e+00 -5.748611e-01 8.074050e-02 -1.487613e-01 -4.608474e-02 -1.773951e-01 -3.293552e-01 -2.619278e-01 -9.318527e-02 1.781400e-01 -2.102544e-01 -9.391760e-02 -1.409256e-01 5.943314e-02 1.540317e-01
<VARIANCE> 39
 1.526520e+01 9.071272e+00 1.304529e+01 2.874220e+01 2.883219e+01 2.564682e+01 3.495457e+01 2.912317e+01 2.305895e+01 2.300116e+01 1.981581e+01 2.002630e+01 1.224699e+01 6.206273e-01 5.438081e-01 1.164500e+00 1.831848e+00 1.943459e+00 1.701918e+00 1.590508e+00 1.874000e+00 3.105197e+00 2.082224e+00 1.523850e+00 1.561328e+00 5.117453e-01 8.681758e-02 1.036637e-01 1.948794e-01 1.835389e-01 2.885937e-01 2.787753e-01 3.410990e-01 3.491896e-01 3.043474e-01 3.725087e-01 4.026611e-01 2.566348e-01 9.622521e-02
<GCONST> 9.537476e+01
<STATE> 3
<MEAN> 39
 -2.426249e+00 5.595194e+00 5.435898e-01 -1.648785e+00 4.166713e+00 6.316995e+00 5.061688e+00 3.055058e-01 -4.282927e+00 -2.104197e+00 3.394717e+00 5.927641e+00 5.944519e+01 8.151431e-02 2.161815e-01 -3.985436e-02 -1.643125e-01 -2.366215e-01 1.032341e-01 2.647335e-01 2.519659e-01 -4.427181e-01 -5.039701e-01 -2.167218e-01 3.101506e-01 -2.269616e-01 5.960280e-02 1.811632e-03 3.987027e-02 4.865959e-03 -1.482739e-01 -3.842117e-01 -2.742590e-01 -1.652294e-01 1.727220e-01 1.545660e-01 -1.426875e-01 -2.811366e-01 1.244048e-01
<VARIANCE> 39
 9.816223e+00 7.394408e+00 9.288079e+00 1.628347e+01 1.899002e+01 1.814630e+01 2.151919e+01 2.585615e+01 1.991352e+01 2.719402e+01 1.703387e+01 1.645817e+01 8.487774e+00 4.668617e-01 5.603685e-01 8.482835e-01 9.924059e-01 1.236769e+00 1.512987e+00 1.171831e+00 1.531037e+00 1.641236e+00 1.534582e+00 1.398583e+00 1.348103e+00 3.856731e-01 8.889511e-02 1.000184e-01 1.517715e-01 1.393194e-01 2.253315e-01 2.361803e-01 2.107260e-01 2.506874e-01 2.704305e-01 3.046665e-01 2.426035e-01 2.001140e-01 6.198958e-02
<GCONST> 8.476153e+01
<STATE> 4
<MEAN> 39
 -2.212452e+00 7.228113e+00 2.370058e+00 -4.238901e-01 1.443714e+00 3.353200e+00 3.904497e+00 -7.544909e-01 -3.069401e+00 -1.878458e+00 -3.602376e-01 4.244102e+00 5.869273e+01 -8.403315e-02 6.469609e-03 3.449742e-01 8.042789e-02 -3.916284e-01 -5.571169e-01 -4.518342e-01 -2.010741e-01 2.199138e-01 3.439773e-01 -2.346138e-01 -7.160324e-01 -5.505874e-02 -1.712832e-01 -9.526644e-02 1.362199e-01 9.804805e-02 1.005108e-01 -5.587923e-03 -1.515305e-01 -9.505973e-03 -5.217862e-02 -8.283792e-04 1.368924e-01 -1.899067e-01 -5.782523e-02
<VARIANCE> 39
 1.083532e+01 1.065304e+01 1.128455e+01 3.088055e+01 3.971726e+01 2.433567e+01 2.746585e+01 2.849634e+01 2.144534e+01 2.521645e+01 2.898162e+01 1.966946e+01 9.288112e+00 5.045691e-01 5.598197e-01 1.298770e+00 1.898969e+00 1.490556e+00 1.652377e+00 2.271782e+00 1.321571e+00 1.787601e+00 1.521670e+00 1.227081e+00 1.566903e+00 5.642447e-01 1.027890e-01 1.244791e-01 2.257892e-01 2.572759e-01 3.178992e-01 2.925107e-01 4.131401e-01 3.456288e-01 3.769864e-01 3.603351e-01 2.695586e-01 3.624171e-01 8.879697e-02
<GCONST> 9.513509e+01
<TRANSP> 5
 0.000000e+00 1.000000e+00 0.000000e+00 0.000000e+00 0.000000e+00
 0.000000e+00 2.750601e-01 7.249399e-01 0.000000e+00 0.000000e+00
 0.000000e+00 0.000000e+00 6.506572e-01 3.493428e-01 0.000000e+00
 0.000000e+00 0.000000e+00 0.000000e+00 5.414225e-01 4.585775e-01
 0.000000e+00 0.000000e+00 0.000000e+00 0.000000e+00 0.000000e+00
<ENDHMM>
~h "i"
<BEGINHMM>
<NUMSTATES> 5
<STATE> 2
<MEAN> 39
 -2.692015e+00 1.500136e+00 5.143304e+00 4.491154e+00 -1.550739e-01 -7.442364e+00 -5.433095e+00 -6.293565e+00 -9.155177e-01 2.806706e+00 -4.869092e-01 -1.663675e+00 6.321264e+01 9.902846e-01 2.014622e-01 -6.277553e-01 3.903758e-01 -6.782860e-02 -7.112023e-01 -6.404747e-01 -5.222113e-01 3.646244e-01 2.193576e-01 -6.938607e-01 2.668726e-01 3.126099e-01 -5.077286e-01 2.226772e-01 1.699377e-01 -3.650352e-01 1.542780e-01 5.312856e-01 3.336242e-01 3.943716e-01 -5.573461e-01 -4.750046e-01 3.695875e-01 1.707616e-01 -4.736844e-01
<VARIANCE> 39
 2.197108e+01 1.807738e+01 3.934793e+01 3.258487e+01 3.389555e+01 2.759291e+01 3.436406e+01 3.893024e+01 2.830378e+01 2.286170e+01 2.535912e+01 2.031511e+01 1.593789e+01 2.562207e+00 1.917576e+00 2.257606e+00 2.281179e+00 3.309950e+00 3.321562e+00 2.577815e+00 3.253763e+00 3.585232e+00 2.101976e+00 2.909651e+00 1.835443e+00 1.944582e+00 5.134341e-01 4.198138e-01 4.353894e-01 4.255471e-01 6.028222e-01 6.483539e-01 4.578664e-01 5.908358e-01 5.090839e-01 4.191543e-01 4.502862e-01 3.228775e-01 2.641936e-01
<GCONST> 1.161869e+02
<STATE> 3
<MEAN> 39
 -2.281203e+00 2.941193e+00 4.545585e+00 4.887344e+00 5.044404e-01 -6.688323e+00 -5.752695e+00 -4.881331e+00 -1.708733e-01 1.717939e+00 -9.103591e-01 -3.078266e-01 6.155214e+01 -3.392041e-01 8.893297e-01 1.715499e-01 -2.049506e-01 6.111708e-01 8.939329e-01 7.996295e-02 5.458174e-01 -7.335639e-01 -7.640315e-01 3.148514e-01 4.102133e-01 -1.072558e+00 -4.353744e-01 6.900436e-02 1.315888e-01 -2.491332e-01 3.822143e-02 3.674682e-01 3.318058e-01 1.662584e-01 -3.747587e-01 -2.137895e-01 2.736904e-01 -1.076896e-01 -2.718092e-01
<VARIANCE> 39
 1.467253e+01 1.238863e+01 2.842299e+01 3.256272e+01 2.788385e+01 2.288564e+01 3.478938e+01 3.558557e+01 3.933330e+01 2.261642e+01 2.643370e+01 1.566630e+01 1.129396e+01 1.580658e+00 1.283654e+00 1.925357e+00 1.885576e+00 2.494160e+00 2.179350e+00 1.937092e+00 2.240665e+00 2.690196e+00 1.736939e+00 2.103079e+00 1.381733e+00 1.460441e+00 3.520279e-01 2.248610e-01 3.334224e-01 4.154563e-01 4.807733e-01 4.185186e-01 4.244268e-01 4.732942e-01 5.440204e-01 3.314372e-01 4.424808e-01 2.784078e-01 1.772200e-01
<GCONST> 1.074174e+02
<STATE> 4
<MEAN> 39
 -5.885653e+00 6.018171e+00 5.664021e+00 3.050364e+00 2.339831e+00 -3.131695e+00 -5.307686e+00 -3.697427e+00 -4.463843e+00 -1.632664e+00 8.389583e-01 8.301230e-02 5.657804e+01 -7.989374e-01 4.478870e-01 -1.904647e-01 -5.784134e-01 5.609408e-02 8.069447e-01 6.375155e-01 2.156920e-01 -8.763785e-01 -5.689430e-01 3.743284e-01 2.645654e-02 -9.980249e-01 -9.629931e-02 -3.273243e-01 -6.683076e-02 -9.133677e-02 -2.232717e-01 -1.706974e-01 1.695759e-01 -2.013875e-02 1.827892e-01 1.906658e-01 -4.313163e-02 -1.212627e-01 2.936445e-01
<VARIANCE> 39
 2.016162e+01 1.305360e+01 2.935264e+01 2.921134e+01 2.555965e+01 2.399625e+01 3.568691e+01 2.855081e+01 3.413836e+01 2.316227e+01 2.646737e+01 1.623903e+01 1.774383e+01 2.200060e+00 1.612960e+00 2.367926e+00 2.384692e+00 3.144295e+00 2.157694e+00 2.251240e+00 2.548463e+00 2.497835e+00 2.312294e+00 2.280201e+00 1.557810e+00 1.688117e+00 3.622155e-01 2.671955e-01 3.193298e-01 4.311937e-01 4.398150e-01 4.179633e-01 4.189059e-01 4.624101e-01 4.223430e-01 3.778923e-01 4.179338e-01 3.192132e-01 2.298618e-01
<GCONST> 1.101929e+02
<TRANSP> 5
 0.000000e+00 1.000000e+00 0.000000e+00 0.000000e+00 0.000000e+00
 0.000000e+00 4.106643e-01 5.893357e-01 0.000000e+00 0.000000e+00
 0.000000e+00 0.000000e+00 4.583831e-01 5.416169e-01 0.000000e+00
 0.000000e+00 0.000000e+00 0.000000e+00 4.734901e-01 5.265098e-01
 0.000000e+00 0.000000e+00 0.000000e+00 0.000000e+00 0.000000e+00
<ENDHMM>
~h "j"
<BEGINHMM>
<NUMSTATES> 5
<STATE> 2
<MEAN> 39
 -3.203183e+00 2.175628e+00 4.989328e+00 6.289051e+00 4.224621e-01 -7.767565e+00 -6.751271e+00 -4.806219e+00 6.995281e-01 1.544370e+00 -1.446822e+00 -2.610549e+00 6.220168e+01 9.421527e-01 -3.200071e-01 2.410994e-01 9.049425e-01 -7.678387e-01 -1.848713e+00 -6.917032e-01 -1.078485e-01 3.506067e-01 -1.998560e-02 -1.018711e+00 -1.768308e-01 1.035952e+00 -2.083316e-01 6.238921e-02 -2.392540e-02 -3.744769e-01 -8.308778e-03 2.831129e-01 4.226848e-01 2.416481e-01 -3.990864e-01 -1.160970e-01 1.955604e-01 2.413551e-01 -1.769217e-01
<VARIANCE> 39
 2.529787e+01 1.701400e+01 4.420582e+01 2.369259e+01 3.413414e+01 3.096679e+01 2.839761e+01 4.161506e+01 2.501621e+01 2.703741e+01 1.749314e+01 1.732859e+01 2.204010e+01 2.885372e+00 1.407968e+00 2.803936e+00 2.228311e+00 2.477011e+00 3.324429e+00 2.760695e+00 3.451441e+00 2.306877e+00 2.308724e+00 2.005710e+00 1.846986e+00 2.729891e+00 3.301296e-01 2.854124e-01 3.434801e-01 2.561958e-01 4.960224e-01 5.687025e-01 5.518844e-01 5.914713e-01 4.616981e-01 4.433103e-01 4.060621e-01 2.928904e-01 2.151333e-01
<GCONST> 1.132112e+02
<STATE> 3
<MEAN> 39
 -1.608397e+00 1.114518e+00 4.847701e+00 6.413712e+00 -2.411277e+00 -1.024428e+01 -5.516011e+00 -3.682338e+00 1.009251e+00 1.489584e+00 -2.623625e+00 -2.069615e+00 6.422900e+01 7.518791e-02 4.239310e-02 8.565726e-02 -7.965942e-02 -9.655210e-02 -2.882020e-01 -4.149464e-02 4.103254e-01 -2.052525e-01 -1.823810e-02 -1.767929e-01 2.546090e-01 5.876850e-02 -1.822531e-01 2.440156e-01 -1.196947e-02 -3.374936e-01 4.175972e-01 5.029919e-01 2.471751e-02 2.144239e-02 -2.337945e-01 -1.528801e-02 3.041992e-01 1.075502e-01 -3.045284e-01
<VARIANCE> 39
 9.772728e+00 1.057557e+01 3.864216e+01 2.841900e+01 2.429177e+01 2.058319e+01 2.680681e+01 3.356342e+01 1.902038e+01 4.250063e+01 1.605621e+01 1.311998e+01 1.308586e+01 6.378954e-01 7.870023e-01 1.370205e+00 1.552626e+00 2.656002e+00 1.435776e+00 2.084586e+00 1.787562e+00 1.272522e+00 1.678444e+00 1.316851e+00 9.481946e-01 9.047301e-01 1.622622e-01 1.193073e-01 2.182566e-01 2.268233e-01 3.044151e-01 3.277482e-01 3.702326e-01 3.910687e-01 3.621359e-01 3.113957e-01 2.929556e-01 2.006824e-01 1.797874e-01
<GCONST> 9.663099e+01
<STATE> 4
<MEAN> 39
 -2.146910e+00 2.514227e+00 5.719983e+00 6.341049e+00 -9.025801e-01 -8.738594e+00 -6.314395e+00 -3.153477e+00 2.151465e-01 3.527049e-01 -2.195178e+00 -6.611056e-01 6.242652e+01 -2.828304e-01 5.293893e-01 -8.193491e-02 -8.575357e-01 8.527020e-01 9.125176e-01 -5.899555e-03 -7.396147e-02 -8.964609e-01 1.489243e-01 7.091842e-01 2.990957e-01 -5.849108e-01 -2.772921e-01 1.834028e-01 1.156781e-01 -2.513211e-01 1.967203e-01 3.582266e-01 9.539501e-02 -1.965287e-01 -3.002900e-01 -3.268187e-02 3.102949e-01 -6.434114e-02 -2.368834e-01
<VARIANCE> 39
 1.230173e+01 1.199260e+01 3.653133e+01 3.114230e+01 2.369198e+01 3.155389e+01 2.737663e+01 3.306004e+01 1.777368e+01 3.826105e+01 1.703359e+01 1.437774e+01 1.962664e+01 9.241590e-01 1.222078e+00 1.698020e+00 1.462095e+00 2.674242e+00 1.843771e+00 2.443242e+00 2.725140e+00 2.163373e+00 2.242297e+00 1.372465e+00 1.423616e+00 1.592893e+00 2.097732e-01 2.728780e-01 4.399603e-01 3.506978e-01 5.582698e-01 5.384068e-01 5.057239e-01 4.635010e-01 3.590769e-01 4.631740e-01 2.610359e-01 3.433177e-01 3.984453e-01
<GCONST> 1.068613e+02
<TRANSP> 5
 0.000000e+00 1.000000e+00 0.000000e+00 0.000000e+00 0.000000e+00
 0.000000e+00 3.402906e-01 6.597093e-01 0.000000e+00 0.000000e+00
 0.000000e+00 0.000000e+00 5.766686e-01 4.233314e-01 0.000000e+00
 0.000000e+00 0.000000e+00 0.000000e+00 2.970256e-01 7.029744e-01
 0.000000e+00 0.000000e+00 0.000000e+00 0.000000e+00 0.000000e+00
<ENDHMM>
~h "k"
<BEGINHMM>
<NUMSTATES> 5
<STATE> 2
<MEAN> 39
 -1.275880e+01 4.840657e+00 3.423520e+00 5.261520e-01 4.732280e+00 -7.534174e-01 -3.017385e+00 -1.244560e+00 -2.865159e+00 -1.363599e+00 2.026910e+00 1.030290e-02 5.176212e+01 -6.319290e-03 -1.313661e+00 -1.022839e+00 -8.437573e-01 -3.862115e-01 6.444425e-02 -4.051526e-02 5.087414e-01 2.788824e-01 -1.052502e-02 6.088653e-01 -3.029073e-01 6.445443e-01 1.597609e-02 -6.526183e-01 -1.963687e-01 -5.406997e-01 2.365784e-01 -4.427770e-03 -2.970727e-01 1.409206e-01 -2.039175e-02 -5.672332e-03 4.013693e-01 -1.010252e-01 8.210038e-01
<VARIANCE> 39
 1.907924e+01 1.287265e+01 1.721679e+01 2.769069e+01 2.627516e+01 2.666923e+01 2.795630e+01 2.286151e+01 2.048776e+01 2.086605e+01 1.977224e+01 1.628603e+01 5.295232e+00 1.164314e+00 3.751592e+00 3.340044e+00 4.246042e+00 4.035591e+00 3.213537e+00 3.679992e+00 3.148912e+00 2.810188e+00 2.620637e+00 3.198877e+00 1.734466e+00 2.979663e+00 1.844020e-01 4.422562e-01 4.397858e-01 5.254577e-01 4.892115e-01 4.604134e-01 5.278857e-01 4.818824e-01 4.687117e-01 3.930731e-01 5.100089e-01 3.743018e-01 2.983021e-01
<GCONST> 1.124121e+02
<STATE> 3
<MEAN> 39
 -1.233918e+01 -3.358444e+00 -2.321846e+00 -7.864404e+00 5.038799e+00 3.302751e-01 -4.817319e+00 7.652464e-01 -2.817021e+00 -2.191597e+00 7.513283e+00 -1.047882e+00 5.891608e+01 3.063335e-01 -6.026682e-01 1.774833e-01 -5.823193e-01 -1.695240e-01 1.210503e-01 -3.537413e-01 4.929625e-01 -6.749022e-02 -5.630375e-02 5.913818e-01 -1.654730e-02 7.986103e-01 3.816391e-01 1.014620e+00 8.040963e-01 1.023732e+00 -7.544979e-02 -1.222341e-01 1.642233e-01 -2.577745e-01 1.690774e-02 2.162382e-01 -8.135362e-01 1.524306e-01 -4.871066e-01
<VARIANCE> 39
 1.733983e+01 2.346985e+01 4.497192e+01 5.064713e+01 5.518556e+01 4.450515e+01 4.435086e+01 4.109185e+01 3.414005e+01 4.074707e+01 2.711491e+01 2.774335e+01 1.820886e+01 1.256300e+00 3.712616e+00 4.503296e+00 6.614677e+00 3.667903e+00 3.087499e+00 3.819139e+00 2.970104e+00 2.537654e+00 2.673196e+00 3.231591e+00 2.127530e+00 2.452560e+00 3.239944e-01 5.581332e-01 6.017075e-01 9.655324e-01 9.038929e-01 7.240681e-01 8.352144e-01 8.348842e-01 5.471399e-01 6.731749e-01 6.866482e-01 4.141486e-01 4.023091e-01
<GCONST> 1.258186e+02
<STATE> 4
<MEAN> 39
 -1.144578e+01 9.426569e-01 3.823887e+00 -1.371283e+00 5.291327e+00 4.930868e-01 -3.864953e+00 2.007680e+00 -1.773877e+00 -7.513409e-01 4.428333e+00 -1.180303e+00 5.565327e+01 2.355622e+00 1.583503e+00 8.408850e-01 1.580987e+00 -6.611086e-01 -3.401370e-01 2.394536e-01 -7.946634e-01 3.050410e-01 7.355282e-01 -1.993765e+00 2.639319e-01 5.140195e-01 5.117739e-01 2.374535e-02 -3.762039e-01 -1.522262e-01 -3.137466e-01 -3.137581e-01 -7.879615e-04 -4.451586e-01 -6.075341e-02 1.136022e-01 -3.297206e-01 8.915801e-02 4.667053e-01
<VARIANCE> 39
 2.818114e+01 1.599098e+01 4.512165e+01 3.692707e+01 2.957952e+01 3.907436e+01 4.068132e+01 2.993521e+01 3.143207e+01 2.857520e+01 2.210651e+01 2.489070e+01 1.164696e+01 2.693532e+00 2.089739e+00 2.897475e+00 3.717335e+00 2.979178e+00 2.889152e+00 2.977140e+00 3.567600e+00 2.467559e+00 3.179890e+00 2.629545e+00 1.900187e+00 2.603500e+00 3.630803e-01 4.800258e-01 4.423542e-01 8.205968e-01 4.863464e-01 4.479618e-01 4.791973e-01 5.868074e-01 4.547059e-01 5.060175e-01 5.516534e-01 3.495244e-01 2.712213e-01
<GCONST> 1.182021e+02
<TRANSP> 5
 0.000000e+00 1.000000e+00 0.000000e+00 0.000000e+00 0.000000e+00
 0.000000e+00 6.512863e-01 3.487137e-01 0.000000e+00 0.000000e+00
 0.000000e+00 0.000000e+00 5.940438e-01 4.059562e-01 0.000000e+00
 0.000000e+00 0.000000e+00 0.000000e+00 5.183734e-01 4.816267e-01
 0.000000e+00 0.000000e+00 0.000000e+00 0.000000e+00 0.000000e+00
<ENDHMM>
~h "l"
<BEGINHMM>
<NUMSTATES> 5
<STATE> 2
<MEAN> 39
 1.365770e+00 2.703767e+00 -1.111550e-01 -5.397061e+00 -5.858649e+00 -2.615403e+00 5.093799e+00 -3.599327e-01 -1.074404e+01 -8.229355e-01 3.851878e+00 3.448145e+00 6.361373e+01 1.438288e+00 4.242854e-02 -9.074478e-01 -2.407632e-01 -1.212771e+00 -5.033839e-01 8.447888e-01 3.180991e-01 -1.066155e+00 -2.257948e-01 1.016294e-01 2.602529e-01 6.008543e-01 -5.956338e-01 -1.254560e-01 1.407661e-01 7.431228e-02 5.512356e-01 7.287811e-02 -4.015082e-01 -6.293786e-02 3.334399e-01 1.264265e-01 -1.956185e-03 -2.312444e-01 -1.863496e-01
<VARIANCE> 39
 9.615536e+00 1.657879e+01 1.761524e+01 4.617358e+01 3.435830e+01 2.117647e+01 2.928528e+01 4.696024e+01 2.683878e+01 2.594785e+01 2.830844e+01 2.087621e+01 9.752103e+00 1.974026e+00 1.525465e+00 1.208714e+00 4.310960e+00 2.726476e+00 2.127706e+00 2.659108e+00 2.936686e+00 2.621298e+00 2.623304e+00 2.780336e+00 1.802370e+00 1.788841e+00 2.234768e-01 3.682996e-01 3.034663e-01 4.764169e-01 4.815568e-01 4.959605e-01 4.815120e-01 5.254051e-01 5.533825e-01 4.456738e-01 4.869312e-01 2.763719e-01 2.065083e-01
<GCONST> 1.109384e+02
<STATE> 3
<MEAN> 39
 2.873943e+00 3.440070e+00 -2.221581e+00 -6.266116e+00 -7.659056e+00 -2.832515e+00 6.716558e+00 2.195988e+00 -1.144369e+01 -1.840256e+00 4.698161e+00 2.918522e+00 6.354557e+01 -9.431086e-02 1.281433e-01 -8.215552e-03 -5.972607e-02 3.723145e-01 2.707703e-01 -3.702856e-01 -1.685472e-01 1.843492e-01 -8.897514e-03 6.426104e-03 8.122961e-02 -9.845763e-02 -2.942213e-01 2.077321e-02 1.885196e-01 3.302390e-02 4.167089e-01 1.811382e-01 -3.880457e-01 -2.331952e-01 3.750754e-01 1.240231e-01 -9.552541e-02 -5.501048e-02 -7.741948e-02
<VARIANCE> 39
 4.837367e+00 1.574474e+01 1.146357e+01 4.093985e+01 2.950689e+01 1.944953e+01 2.400677e+01 4.715464e+01 2.746509e+01 2.775163e+01 2.780193e+01 1.772273e+01 6.703340e+00 3.437680e-01 8.071136e-01 8.117294e-01 2.367152e+00 2.046244e+00 1.569535e+00 1.638694e+00 2.507600e+00 1.829296e+00 1.896778e+00 1.303915e+00 9.981031e-01 4.822754e-01 1.207881e-01 1.602243e-01 1.520898e-01 3.611909e-01 3.733131e-01 2.956990e-01 3.119245e-01 3.707446e-01 4.093413e-01 3.342946e-01 3.029706e-01 2.700754e-01 1.356583e-01
<GCONST> 9.531644e+01
<STATE> 4
<MEAN> 39
 8.691619e-01 2.254076e+00 -6.688615e-01 -4.282762e+00 -3.165869e+00 -8.173909e-01 1.756126e+00 -2.826131e+00 -8.910913e+00 6.636394e-01 4.146981e+00 3.733992e+00 6.339093e+01 -7.508907e-01 1.745378e-01 3.879139e-01 3.424275e-01 1.265144e+00 2.594739e-01 -1.476912e+00 -6.131608e-01 1.353928e+00 5.249377e-01 -5.136439e-01 -5.794218e-01 -3.225200e-01 -2.218695e-01 1.278919e-01 1.697585e-01 1.497764e-01 3.963891e-02 -1.632582e-01 2.180474e-02 1.983123e-01 2.852430e-02 -1.528869e-01 -1.026320e-01 -2.261861e-01 -2.297754e-01
<VARIANCE> 39
 7.592362e+00 2.049250e+01 1.556995e+01 5.825476e+01 2.911874e+01 2.486455e+01 3.053288e+01 4.988254e+01 2.657493e+01 3.635946e+01 2.634697e+01 2.206433e+01 1.583179e+01 6.884835e-01 1.300296e+00 1.492212e+00 2.521446e+00 2.657217e+00 2.113223e+00 2.619340e+00 3.658691e+00 3.010290e+00 2.593325e+00 2.229242e+00 1.911084e+00 9.609472e-01 1.749465e-01 2.629252e-01 2.892328e-01 4.696199e-01 4.643496e-01 4.150383e-01 3.805776e-01 4.716301e-01 4.396087e-01 5.385886e-01 3.223259e-01 3.277761e-01 2.115491e-01
<GCONST> 1.084318e+02
<TRANSP> 5
 0.000000e+00 1.000000e+00 0.000000e+00 0.000000e+00 0.000000e+00
 0.000000e+00 3.788059e-01 6.211941e-01 0.000000e+00 0.000000e+00
 0.000000e+00 0.000000e+00 6.777757e-01 3.222243e-01 0.000000e+00
 0.000000e+00 0.000000e+00 0.000000e+00 4.581183e-01 5.418817e-01
 0.000000e+00 0.000000e+00 0.000000e+00 0.000000e+00 0.000000e+00
<ENDHMM>
~h "m"
<BEGINHMM>
<NUMSTATES> 5
<STATE> 2
<MEAN> 39
 -5.301397e-01 9.179252e+00 3.204621e+00 4.046878e+00 4.072477e+00 -2.268699e+00 -1.969621e+00 -1.754016e+00 -7.388058e+00 -3.352752e+00 9.076481e-01 1.529342e+00 5.825907e+01 -1.044027e-01 4.927842e-01 6.752223e-01 6.593641e-01 1.412190e-01 -1.714790e-01 1.863792e-02 1.267887e-01 -7.984730e-01 -5.540661e-01 6.735034e-02 5.081525e-02 -3.468862e-01 -4.674399e-02 -3.068275e-01 -1.144665e-01 -1.279904e-01 -2.451702e-01 -6.944789e-02 1.071543e-01 -8.795772e-02 3.258989e-01 2.469696e-01 -6.138578e-02 -1.577145e-01 1.970559e-01
<VARIANCE> 39
 4.852319e+00 4.492103e+00 1.045282e+01 1.124580e+01 9.373942e+00 1.335521e+01 1.763349e+01 1.259148e+01 1.751095e+01 1.559677e+01 1.311518e+01 1.307160e+01 4.891911e+00 4.833785e-01 5.062535e-01 1.051996e+00 1.079730e+00 8.756302e-01 1.042361e+00 9.182091e-01 1.111656e+00 1.879065e+00 1.276679e+00 8.468126e-01 9.913922e-01 4.177071e-01 6.878925e-02 1.262380e-01 2.166628e-01 2.135009e-01 1.773071e-01 2.239985e-01 2.050169e-01 2.319326e-01 3.405933e-01 2.947344e-01 1.896483e-01 2.210625e-01 5.334973e-02
<GCONST> 7.808296e+01
<STATE> 3
<MEAN> 39
 -7.467698e-01 9.171353e+00 4.395762e+00 3.566636e+00 1.831565e+00 -3.391372e+00 2.143841e+00 1.517012e-02 -1.040242e+01 -4.609233e+00 1.699029e+00 6.412837e-01 5.866547e+01 6.820716e-03 1.254251e-03 -1.366721e-01 -3.182656e-01 -3.963377e-01 2.242670e-01 2.449479e-01 6.954310e-02 4.143810e-01 2.091149e-01 -9.343254e-02 -6.647055e-02 -2.573897e-02 -8.666621e-02 -1.795806e-01 -1.943511e-01 -3.813613e-01 -5.833606e-02 2.173765e-01 -6.869292e-02 -1.981513e-02 4.374142e-01 2.113047e-01 -1.291028e-02 -1.048260e-03 7.397547e-02
<VARIANCE> 39
 5.858531e+00 6.986236e+00 1.209481e+01 1.463866e+01 1.785212e+01 1.572778e+01 2.423000e+01 1.214545e+01 2.240595e+01 1.591336e+01 1.330487e+01 1.349545e+01 8.037905e+00 4.628168e-01 5.448489e-01 1.129022e+00 1.679470e+00 1.185868e+00 1.039145e+00 1.019529e+00 8.647783e-01 1.628478e+00 1.311246e+00 7.231590e-01 1.161594e+00 4.862731e-01 1.146846e-01 1.695016e-01 2.272020e-01 4.170328e-01 2.720804e-01 2.674068e-01 2.267572e-01 2.014542e-01 3.629983e-01 2.940482e-01 1.458336e-01 2.463005e-01 8.739280e-02
<GCONST> 8.424224e+01
<STATE> 4
<MEAN> 39
 -1.921038e+00 8.958389e+00 3.840676e+00 2.373494e+00 2.107462e+00 -6.463641e-01 1.795674e-02 -8.802580e-01 -6.142015e+00 -2.449388e+00 1.047312e+00 9.245035e-02 5.745521e+01 -5.502524e-01 -7.294759e-01 -4.296593e-02 -8.569238e-01 -1.948830e-01 6.285203e-01 1.507016e-02 7.128824e-02 7.986480e-01 4.266171e-01 1.844846e-02 -2.929711e-01 2.231948e-01 -2.452696e-01 -2.453789e-01 9.509567e-02 -9.891117e-02 4.435163e-02 -1.460159e-01 2.292779e-02 -4.938314e-02 -7.229093e-02 -5.332055e-02 6.872048e-02 -1.010154e-01 1.853071e-01
<VARIANCE> 39
 1.311743e+01 1.023463e+01 2.123064e+01 2.549163e+01 1.802900e+01 2.389450e+01 2.454148e+01 1.978006e+01 1.556946e+01 1.936778e+01 1.307404e+01 1.785394e+01 1.654086e+01 1.482966e+00 1.336196e+00 2.758136e+00 4.237150e+00 2.569473e+00 2.255427e+00 2.682248e+00 1.642899e+00 2.449131e+00 2.769639e+00 1.630391e+00 1.666236e+00 1.134666e+00 2.441717e-01 3.155158e-01 3.491465e-01 4.784751e-01 5.512733e-01 4.312243e-01 4.327526e-01 3.738641e-01 3.010501e-01 3.721926e-01 2.373867e-01 2.976021e-01 1.591398e-01
<GCONST> 1.042238e+02
<TRANSP> 5
 0.000000e+00 1.000000e+00 0.000000e+00 0.000000e+00 0.000000e+00
 0.000000e+00 6.599159e-01 3.400841e-01 0.000000e+00 0.000000e+00
 0.000000e+00 0.000000e+00 6.289927e-01 3.710072e-01 0.000000e+00
 0.000000e+00 0.000000e+00 0.000000e+00 4.167846e-01 5.832154e-01
 0.000000e+00 0.000000e+00 0.000000e+00 0.000000e+00 0.000000e+00
<ENDHMM>
~h "n"
<BEGINHMM>
<NUMSTATES> 5
<STATE> 2
<MEAN> 39
 -2.140712e+00 8.063769e+00 4.778147e+00 2.992680e+00 5.391589e-01 -2.084695e+00 2.414982e+00 2.738642e-01 -7.892252e+00 -2.413605e+00 3.535859e+00 -4.020141e-02 5.848464e+01 3.718048e-01 7.012283e-01 4.311064e-01 6.112670e-01 -1.905086e-01 -2.410938e-01 9.977771e-02 1.418302e-01 -6.436579e-01 -3.866821e-01 1.323697e-01 -1.361796e-01 -2.369767e-01 -9.398819e-02 -3.338067e-01 -2.334234e-01 -3.708987e-01 -2.106522e-02 2.548701e-02 -1.664879e-02 -1.249138e-01 4.128081e-01 2.083461e-01 -1.580417e-01 -1.526475e-02 2.723584e-01
<VARIANCE> 39
 1.002818e+01 1.061612e+01 1.612812e+01 2.565681e+01 1.532727e+01 1.579562e+01 1.969618e+01 1.476853e+01 2.623557e+01 1.427598e+01 1.472069e+01 1.235124e+01 9.718585e+00 1.859690e+00 1.106686e+00 1.673775e+00 1.640688e+00 1.526741e+00 1.686106e+00 1.679420e+00 1.595352e+00 2.339617e+00 1.534512e+00 1.517573e+00 1.288159e+00 1.105217e+00 1.394057e-01 2.788164e-01 3.072023e-01 3.350954e-01 4.029156e-01 3.326579e-01 3.081399e-01 3.246360e-01 4.997574e-01 3.164814e-01 3.302794e-01 2.686518e-01 1.700937e-01
<GCONST> 9.677628e+01
<STATE> 3
<MEAN> 39
 -1.315846e+00 8.802032e+00 5.136892e+00 3.004681e+00 1.688977e-01 -3.778182e+00 2.122835e+00 7.859213e-01 -9.012520e+00 -2.485764e+00 3.728949e+00 -3.824585e-01 5.912975e+01 3.375922e-01 -1.037907e+00 -5.672987e-01 -5.977066e-01 -6.763758e-01 4.620094e-01 2.331948e-01 -7.941511e-01 7.994427e-01 6.817604e-01 -2.325271e-01 -2.141672e-01 9.728247e-01 -2.875245e-01 -5.274490e-01 -4.602587e-01 -6.443325e-01 1.147380e-01 2.553673e-01 2.088660e-02 -3.012151e-01 7.396328e-01 3.984627e-01 -1.803982e-01 -2.388026e-02 3.518901e-01
<VARIANCE> 39
 4.782564e+00 1.075542e+01 1.381074e+01 2.380302e+01 1.193651e+01 1.464061e+01 1.437389e+01 1.266355e+01 2.408119e+01 1.246452e+01 1.207899e+01 1.428499e+01 8.277103e+00 1.803102e+00 1.949711e+00 2.322682e+00 1.949530e+00 2.494998e+00 2.170763e+00 1.929402e+00 2.015748e+00 3.108006e+00 1.920173e+00 1.997539e+00 1.500435e+00 1.533882e+00 2.930093e-01 2.878000e-01 3.888434e-01 3.959515e-01 3.938388e-01 4.036799e-01 3.070040e-01 3.679866e-01 5.934942e-01 3.542296e-01 2.503091e-01 2.639773e-01 1.470273e-01
<GCONST> 9.931857e+01
<STATE> 4
<MEAN> 39
 -8.005347e-01 3.964704e+00 2.464137e+00 6.211022e-01 -2.307866e+00 -7.081251e-01 3.208603e+00 -2.976027e+00 -4.361281e+00 7.573668e-01 2.888813e+00 -1.363873e+00 6.250370e+01 -2.224566e-02 -9.166751e-01 -1.525383e+00 -1.759641e+00 3.323877e-01 5.033159e-01 1.237759e-01 -7.069374e-01 1.653945e+00 9.262482e-01 -4.594661e-01 -4.640361e-02 1.087271e+00 -2.774198e-01 3.670998e-01 1.070440e-02 -2.388734e-01 6.009806e-01 -2.243718e-01 -1.912193e-01 4.315233e-01 -2.398833e-01 -1.950901e-01 -1.752269e-02 6.556246e-02 -2.414859e-01
<VARIANCE> 39
 8.382825e+00 1.838048e+01 3.134916e+01 3.315150e+01 2.429320e+01 2.084168e+01 2.171372e+01 1.985175e+01 3.430233e+01 1.639526e+01 2.035244e+01 1.729650e+01 1.522111e+01 1.595858e+00 1.698812e+00 2.667212e+00 3.216487e+00 3.263121e+00 2.239026e+00 2.002720e+00 2.267640e+00 3.069095e+00 1.672645e+00 1.850412e+00 1.622026e+00 1.104259e+00 2.506513e-01 3.210254e-01 4.204548e-01 4.683569e-01 4.237558e-01 4.051440e-01 3.572243e-01 4.190564e-01 6.184914e-01 3.786843e-01 3.257603e-01 2.998484e-01 2.112809e-01
<GCONST> 1.072173e+02
<TRANSP> 5
 0.000000e+00 1.000000e+00 0.000000e+00 0.000000e+00 0.000000e+00
 0.000000e+00 5.611649e-01 4.388351e-01 0.000000e+00 0.000000e+00
 0.000000e+00 0.000000e+00 3.909805e-01 6.090195e-01 0.000000e+00
 0.000000e+00 0.000000e+00 0.000000e+00 3.535923e-01 6.464077e-01
 0.000000e+00 0.000000e+00 0.000000e+00 0.000000e+00 0.000000e+00
<ENDHMM>
~h "o"
<BEGINHMM>
<NUMSTATES> 5
<STATE> 2
<MEAN> 39
 -4.442892e-01 4.010132e+00 7.605013e-03 -4.144031e+00 -2.480453e+00 -7.929962e-01 1.700438e+00 -4.453555e+00 -7.382787e+00 -3.684269e-01 1.649285e+00 3.351249e+00 6.201872e+01 1.358758e+00 8.564520e-01 -2.060234e-01 -4.944285e-01 -1.004217e+00 1.326676e-01 4.030999e-01 -4.870673e-01 -5.131887e-01 -3.474312e-01 -6.610954e-01 7.288480e-01 4.302099e-01 -6.062942e-01 -3.254166e-02 2.508464e-01 3.109244e-01 4.611642e-01 6.192988e-02 -2.967151e-01 2.383848e-01 1.288780e-01 -2.781662e-01 1.012057e-01 -1.665110e-01 -4.061217e-01
<VARIANCE> 39
 1.739110e+01 1.667844e+01 2.037309e+01 4.055786e+01 3.649221e+01 2.386976e+01 3.687287e+01 4.247803e+01 3.189661e+01 2.550734e+01 2.385580e+01 1.853337e+01 1.877984e+01 2.983636e+00 2.096819e+00 2.079209e+00 3.085881e+00 4.157068e+00 3.330000e+00 3.174576e+00 3.942387e+00 2.936222e+00 2.693801e+00 3.017627e+00 2.209563e+00 2.476266e+00 3.799115e-01 4.021759e-01 4.225884e-01 5.916961e-01 6.776757e-01 4.315834e-01 5.587741e-01 6.876402e-01 4.958568e-01 5.171529e-01 5.367016e-01 3.557273e-01 2.997450e-01
<GCONST> 1.179632e+02
<STATE> 3
<MEAN> 39
 6.538393e-01 4.840343e+00 -2.087446e-01 -4.485971e+00 -3.842910e+00 -2.503303e-01 2.617418e+00 -4.326719e+00 -8.040175e+00 -1.603784e+00 1.024623e+00 4.570518e+00 6.201410e+01 -4.020781e-01 6.200111e-01 4.645234e-01 4.631661e-01 6.805049e-01 5.982740e-01 -5.656714e-01 6.218264e-02 1.653487e-01 -7.776400e-01 -5.209524e-02 -7.390776e-02 -7.309420e-01 -7.328895e-01 -1.580353e-01 3.146265e-01 3.017622e-01 6.474013e-01 -6.122533e-03 -3.285470e-01 2.186089e-01 1.870596e-01 -7.633565e-02 2.220794e-01 -4.331344e-01 -2.949557e-01
<VARIANCE> 39
 1.193367e+01 1.215264e+01 1.709118e+01 3.458998e+01 3.632003e+01 2.055879e+01 3.468742e+01 3.693754e+01 2.832650e+01 2.047247e+01 2.620878e+01 2.266253e+01 1.315117e+01 1.463632e+00 1.622090e+00 1.586784e+00 2.470744e+00 3.422670e+00 2.048666e+00 2.836121e+00 2.710413e+00 2.074405e+00 2.242784e+00 2.045520e+00 1.815254e+00 1.636405e+00 4.230547e-01 2.660279e-01 3.047853e-01 4.295185e-01 6.772318e-01 4.036157e-01 4.690480e-01 5.253273e-01 4.263230e-01 4.088019e-01 4.941861e-01 4.516604e-01 2.194796e-01
<GCONST> 1.100148e+02
<STATE> 4
<MEAN> 39
 -2.239872e+00 6.055141e+00 1.471673e+00 -2.304693e+00 -4.159566e-01 1.896843e+00 6.223092e-01 -3.905910e+00 -6.737109e+00 -3.157497e+00 1.637967e+00 3.511753e+00 5.871787e+01 -1.474650e+00 1.869168e-01 9.637554e-01 6.459540e-01 1.477549e+00 2.842468e-01 -7.498764e-01 5.012005e-01 4.157741e-01 -5.216085e-01 3.161968e-01 -7.798361e-01 -8.230594e-01 -4.439733e-01 -3.353175e-01 9.522496e-02 -1.323345e-01 8.416738e-02 -3.589572e-01 -1.023068e-02 9.317482e-02 6.959732e-02 1.884490e-01 1.426966e-01 -1.984031e-01 2.250923e-01
<VARIANCE> 39
 1.597769e+01 1.266931e+01 1.888127e+01 3.272652e+01 3.214605e+01 2.488238e+01 3.631680e+01 3.493149e+01 2.356196e+01 2.543704e+01 2.232589e+01 1.704369e+01 1.658667e+01 2.452881e+00 1.793687e+00 2.151830e+00 3.064920e+00 4.117340e+00 2.185942e+00 2.650641e+00 2.511996e+00 2.706458e+00 2.428357e+00 2.541871e+00 2.156571e+00 1.720520e+00 4.366136e-01 2.642231e-01 3.178174e-01 3.621259e-01 4.914179e-01 4.844512e-01 5.198596e-01 5.557157e-01 4.088444e-01 4.341560e-01 3.482674e-01 3.913263e-01 2.836398e-01
<GCONST> 1.119975e+02
<TRANSP> 5
 0.000000e+00 1.000000e+00 0.000000e+00 0.000000e+00 0.000000e+00
 0.000000e+00 3.314596e-01 6.685404e-01 0.000000e+00 0.000000e+00
 0.000000e+00 0.000000e+00 3.568039e-01 6.431962e-01 0.000000e+00
 0.000000e+00 0.000000e+00 0.000000e+00 2.646039e-01 7.353961e-01
 0.000000e+00 0.000000e+00 0.000000e+00 0.000000e+00 0.000000e+00
<ENDHMM>
~h "p"
<BEGINHMM>
<NUMSTATES> 5
<STATE> 2
<MEAN> 39
 -9.510845e+00 7.196532e+00 2.328408e+00 5.439290e-01 7.062801e-01 8.906706e-02 -2.352706e+00 -3.269456e+00 -5.418123e+00 -3.243270e+00 -5.169719e-02 8.161274e-01 5.107066e+01 -6.226123e-01 -2.300698e-01 -2.871384e-02 2.333164e-01 -1.292852e-01 -9.913240e-02 -1.604418e-01 2.424610e-02 2.002761e-01 2.070905e-01 1.293335e-01 4.538971e-02 -5.469339e-01 1.680494e-01 -3.565601e-01 -1.248172e-02 -2.200235e-01 4.304421e-02 8.213507e-04 4.518335e-02 9.884674e-02 9.759727e-02 2.497184e-01 3.357257e-01 6.350012e-02 5.352392e-01
<VARIANCE> 39
 1.446814e+01 5.391510e+00 1.712897e+01 1.700996e+01 1.973279e+01 1.544956e+01 1.761056e+01 2.140793e+01 1.998262e+01 2.136926e+01 1.816705e+01 1.370605e+01 3.698574e+00 4.220242e-01 4.628033e-01 6.554117e-01 7.992609e-01 8.593139e-01 9.386932e-01 9.571899e-01 1.330218e+00 1.173000e+00 1.453436e+00 1.341136e+00 1.182494e+00 3.417235e-01 9.150831e-02 1.740297e-01 1.707318e-01 2.263314e-01 2.133337e-01 2.107993e-01 2.418553e-01 3.039589e-01 2.541561e-01 3.479643e-01 3.792893e-01 2.881413e-01 1.483457e-01
<GCONST> 8.425803e+01
<STATE> 3
<MEAN> 39
 -1.142796e+01 5.830915e+00 2.571623e+00 1.281290e+00 1.163736e+00 5.450150e-01 -2.148149e+00 -2.260318e+00 -3.642619e+00 -1.445673e+00 1.412852e+00 1.304674e+00 5.000814e+01 2.240459e-01 -2.049779e+00 -4.184891e-01 -1.261538e+00 2.397942e-01 1.894299e-01 7.676928e-02 5.420964e-01 2.736700e-01 1.076244e+00 1.820262e+00 1.567549e-01 2.113652e+00 5.662013e-01 -2.787956e-01 -1.134860e-01 -4.718014e-01 -5.133585e-03 1.495426e-02 2.513079e-01 1.609968e-01 -2.274396e-01 9.147702e-02 8.770251e-02 5.627880e-04 8.847906e-01
<VARIANCE> 39
 1.291729e+01 7.434626e+00 1.038190e+01 1.311620e+01 1.552214e+01 1.240139e+01 2.029273e+01 2.614676e+01 2.600888e+01 1.992756e+01 1.500562e+01 1.552247e+01 4.616323e+00 1.448914e+00 1.338106e+00 1.936078e+00 1.889076e+00 1.971056e+00 1.852573e+00 3.106282e+00 2.818231e+00 2.215507e+00 1.738841e+00 2.424613e+00 1.660027e+00 1.058667e+00 2.847490e-01 2.558131e-01 3.108051e-01 2.983697e-01 3.671198e-01 3.299312e-01 4.509268e-01 4.913184e-01 3.360974e-01 3.634117e-01 4.329023e-01 2.740813e-01 1.494311e-01
<GCONST> 9.939188e+01
<STATE> 4
<MEAN> 39
 -9.704633e+00 -1.041146e+00 7.184638e-01 -3.407242e+00 2.250052e+00 2.362514e+00 -5.348060e-01 -1.419649e-01 -3.933646e+00 1.173017e+00 6.776949e+00 1.282412e+00 5.794972e+01 1.977120e+00 -6.484226e-01 -2.686530e-01 -1.222825e+00 -3.681443e-01 -1.620541e-01 7.341596e-01 2.523114e-01 -7.693368e-01 5.140907e-01 1.766771e-01 8.702621e-02 2.522866e+00 4.766035e-01 6.991310e-01 1.150391e-01 3.631001e-01 -3.741222e-01 -5.151068e-01 6.154100e-02 -3.308222e-01 -2.792247e-01 -3.125356e-01 -8.937163e-01 3.165693e-02 -1.709708e-01
<VARIANCE> 39
 8.238447e+00 1.494847e+01 1.426361e+01 1.809732e+01 1.764894e+01 1.895155e+01 2.826593e+01 2.342875e+01 2.496973e+01 2.269829e+01 1.926936e+01 1.330377e+01 1.482092e+01 4.141696e+00 3.754471e+00 3.402716e+00 3.677964e+00 4.398249e+00 3.027343e+00 3.779255e+00 3.872481e+00 3.466767e+00 3.356273e+00 3.751124e+00 1.661227e+00 2.436365e+00 3.505882e-01 4.145916e-01 5.461029e-01 4.620165e-01 5.598503e-01 5.096870e-01 7.232270e-01 8.656458e-01 5.416587e-01 4.838448e-01 4.952361e-01 2.926216e-01 3.053491e-01
<GCONST> 1.151673e+02
<TRANSP> 5
 0.000000e+00 1.000000e+00 0.000000e+00 0.000000e+00 0.000000e+00
 0.000000e+00 7.489628e-01 2.510372e-01 0.000000e+00 0.000000e+00
 0.000000e+00 0.000000e+00 4.460888e-01 5.539112e-01 0.000000e+00
 0.000000e+00 0.000000e+00 0.000000e+00 5.047649e-01 4.952351e-01
 0.000000e+00 0.000000e+00 0.000000e+00 0.000000e+00 0.000000e+00
<ENDHMM>
~h "r"
<BEGINHMM>
<NUMSTATES> 5
<STATE> 2
<MEAN> 39
 -3.578107e+00 4.748853e-01 1.944040e+00 -2.733886e+00 1.516051e+00 -2.229478e+00 -1.936075e+00 -2.423009e+00 -7.464144e+00 2.414470e+00 4.306500e+00 1.303558e+00 6.331967e+01 1.628023e-01 -1.118160e+00 -2.664966e-01 1.350456e+00 -7.822745e-02 -1.224362e+00 2.522400e-01 -7.470936e-01 -4.715236e-01 -8.073305e-02 -3.541574e-01 -2.483220e-01 3.735605e-01 -2.599386e-01 -2.115618e-02 -1.211122e-01 2.408456e-01 1.392747e-02 1.187105e-01 1.302894e-01 6.036522e-02 2.414092e-01 -3.739725e-02 -1.190379e-01 -5.762069e-03 -2.945932e-01
<VARIANCE> 39
 2.014304e+01 1.465993e+01 3.115388e+01 3.525953e+01 2.643914e+01 2.608459e+01 2.731083e+01 2.689349e+01 4.368274e+01 2.174852e+01 1.849860e+01 1.898974e+01 1.653942e+01 3.886499e+00 2.842849e+00 3.478965e+00 4.762506e+00 4.596169e+00 3.915361e+00 3.284356e+00 2.863990e+00 3.188521e+00 3.562417e+00 3.279980e+00 2.277560e+00 2.716543e+00 5.691851e-01 3.438389e-01 5.781090e-01 9.311500e-01 7.218425e-01 5.096603e-01 4.685301e-01 5.582749e-01 7.141436e-01 5.443236e-01 5.637361e-01 3.640441e-01 4.686691e-01
<GCONST> 1.209298e+02
<STATE> 3
<MEAN> 39
 -4.642179e+00 -3.088424e+00 -4.380750e-01 1.386102e+00 2.622275e+00 -5.424326e+00 -1.833338e+00 -3.624156e+00 -7.592999e+00 1.870252e+00 2.863527e+00 2.826146e-01 6.319627e+01 -6.475031e-01 -1.277621e+00 3.336888e-01 1.286754e+00 -6.393491e-01 7.445978e-02 6.240514e-01 -4.529558e-01 3.237441e-01 6.133407e-02 5.987757e-02 -3.398679e-01 -8.100071e-02 2.959777e-01 6.415451e-01 1.138510e-01 -6.086037e-01 -2.023318e-01 5.663544e-01 2.126901e-02 1.143556e-01 1.908683e-01 5.554982e-02 1.926166e-01 2.115916e-01 2.953639e-02
<VARIANCE> 39
 2.400038e+01 2.520241e+01 4.240106e+01 3.021963e+01 4.402782e+01 3.014625e+01 2.923300e+01 3.184237e+01 3.014735e+01 3.299468e+01 2.287592e+01 2.551058e+01 1.794094e+01 2.204580e+00 1.818270e+00 4.035734e+00 2.940836e+00 2.991740e+00 3.288109e+00 2.505925e+00 2.637237e+00 2.690851e+00 2.852087e+00 2.115333e+00 1.268723e+00 1.154970e+00 7.275504e-01 5.806497e-01 1.031676e+00 6.225354e-01 1.101229e+00 7.200003e-01 6.814196e-01 7.791707e-01 6.666737e-01 9.257461e-01 5.863533e-01 5.600403e-01 4.220430e-01
<GCONST> 1.220012e+02
<STATE> 4
<MEAN> 39
 -5.450565e+00 -3.581193e+00 3.058446e+00 2.001972e+00 -4.604696e-01 -2.397640e+00 4.524229e-02 -3.881998e+00 -5.368574e+00 3.792143e+00 4.618811e+00 -2.275219e-01 6.308500e+01 1.321308e+00 1.400720e+00 -5.655911e-01 -4.804347e-01 -2.629095e-01 5.689760e-01 9.185702e-02 -2.588836e-01 2.914160e-01 1.561931e-01 5.819791e-04 4.899385e-01 1.756935e-01 3.754585e-01 7.198081e-01 -2.823152e-01 -5.930348e-01 3.268016e-01 -2.805422e-02 -2.682164e-01 2.511378e-01 -1.166843e-01 -2.389595e-01 -8.328152e-02 1.986255e-01 2.231632e-02
<VARIANCE> 39
 2.808029e+01 2.714024e+01 3.668083e+01 1.787077e+01 3.844115e+01 2.850046e+01 3.524227e+01 3.808110e+01 3.552526e+01 2.306171e+01 2.462932e+01 1.839807e+01 1.482868e+01 2.880813e+00 2.294302e+00 5.117530e+00 2.144138e+00 3.716283e+00 2.686926e+00 3.495308e+00 3.916452e+00 3.779232e+00 3.176577e+00 2.862380e+00 2.281062e+00 1.619015e+00 6.169928e-01 6.254105e-01 8.437433e-01 5.036691e-01 7.336226e-01 6.182767e-01 7.001241e-01 7.951236e-01 7.412912e-01 6.629669e-01 5.488478e-01 3.324099e-01 2.916884e-01
<GCONST> 1.217379e+02
<TRANSP> 5
 0.000000e+00 1.000000e+00 0.000000e+00 0.000000e+00 0.000000e+00
 0.000000e+00 3.566279e-01 6.433721e-01 0.000000e+00 0.000000e+00
 0.000000e+00 0.000000e+00 3.614223e-01 6.385777e-01 0.000000e+00
 0.000000e+00 0.000000e+00 0.000000e+00 5.232517e-01 4.767484e-01
 0.000000e+00 0.000000e+00 0.000000e+00 0.000000e+00 0.000000e+00
<ENDHMM>
~h "s"
<BEGINHMM>
<NUMSTATES> 5
<STATE> 2
<MEAN> 39
 -1.755689e+01 3.556419e+00 1.002969e+01 -7.626574e+00 1.149730e+01 -6.596731e-01 -2.961629e+00 8.967806e-01 -2.886228e+00 -2.365863e+00 6.652685e+00 -8.011367e-01 6.274837e+01 -4.352565e+00 1.861384e-01 6.129932e-01 -2.328627e+00 1.579837e+00 -7.542042e-01 -6.327577e-01 2.445932e-01 2.342904e-01 -4.199193e-01 8.438118e-02 -8.491942e-01 1.171357e+00 3.802102e-01 1.393830e-01 -4.791359e-01 7.297033e-02 -7.706967e-01 -6.867518e-02 8.883916e-03 -2.097237e-01 -2.437538e-01 1.673912e-01 -2.839316e-01 1.895470e-02 -1.477681e-01
<VARIANCE> 39
 3.697443e+01 1.787371e+01 2.113474e+01 2.772151e+01 2.031670e+01 3.733340e+01 2.691489e+01 3.824520e+01 2.553186e+01 2.420114e+01 2.154919e+01 2.292236e+01 1.040816e+01 2.030265e+00 1.549104e+00 2.165479e+00 2.111069e+00 3.194642e+00 2.439806e+00 2.227003e+00 2.822197e+00 1.986396e+00 2.211563e+00 2.114498e+00 1.587433e+00 6.609464e-01 7.498742e-01 3.451755e-01 3.121952e-01 5.641716e-01 3.889478e-01 5.284503e-01 4.478723e-01 5.203444e-01 4.174334e-01 4.242181e-01 4.191335e-01 3.210334e-01 2.239685e-01
<GCONST> 1.105576e+02
<STATE> 3
<MEAN> 39
 -2.614146e+01 4.373039e+00 8.311890e+00 -1.239612e+01 1.166358e+01 -2.850856e+00 -5.158849e+00 1.095162e+00 -3.822879e+00 -1.491652e+00 6.007618e+00 -2.845290e+00 6.428229e+01 3.133474e-02 -1.936597e-01 -5.552464e-01 2.458974e-01 4.630297e-02 7.125545e-02 -1.061598e-01 -1.112463e-01 -2.023918e-01 2.833728e-01 2.005929e-01 8.641332e-02 -6.058100e-01 1.106273e+00 -1.299727e-01 -7.746096e-02 7.142425e-01 -2.457919e-01 1.699803e-01 2.578286e-01 -1.090761e-01 1.231250e-02 -6.797894e-03 4.697652e-03 2.376637e-01 -5.071071e-01
<VARIANCE> 39
 7.761367e+00 2.042202e+01 1.683193e+01 2.240603e+01 2.493192e+01 3.011598e+01 2.221713e+01 3.045971e+01 2.740660e+01 2.142613e+01 2.291021e+01 2.440989e+01 5.731948e+00 3.057276e+00 2.198944e+00 1.153383e+00 2.349514e+00 1.866541e+00 2.038828e+00 1.889854e+00 2.268924e+00 1.918571e+00 1.785571e+00 1.910859e+00 1.630211e+00 8.952935e-01 2.647099e-01 3.572466e-01 2.379687e-01 2.838026e-01 3.396077e-01 3.897994e-01 3.424528e-01 4.324930e-01 3.822261e-01 3.846928e-01 3.885108e-01 3.033955e-01 1.258525e-01
<GCONST> 1.031004e+02
<STATE> 4
<MEAN> 39
 -1.857782e+01 3.348058e+00 6.110402e+00 -6.305527e+00 1.005246e+01 -8.399575e-01 -2.619684e+00 -3.898595e-01 -3.990417e+00 -1.117651e+00 6.276245e+00 -6.917292e-01 5.764724e+01 2.550869e+00 6.318529e-01 -3.734045e-01 1.444121e+00 -1.100321e+00 3.545583e-01 8.099943e-01 -3.633920e-01 5.132116e-02 -4.834286e-02 -6.477975e-01 4.833146e-01 -1.739164e+00 -2.617185e-02 1.175989e-01 4.283681e-02 -2.685010e-01 -2.398028e-01 -1.541607e-01 -5.756506e-02 1.229893e-01 8.522004e-03 2.643445e-02 -1.666716e-01 -6.905130e-02 3.839216e-01
<VARIANCE> 39
 1.782815e+01 3.207764e+01 1.831392e+01 2.383427e+01 3.560526e+01 3.089400e+01 3.413110e+01 3.203623e+01 2.902196e+01 2.389375e+01 2.546108e+01 1.958900e+01 1.603721e+01 1.850461e+00 2.081380e+00 1.259603e+00 1.698268e+00 2.126306e+00 1.840817e+00 2.187780e+00 2.686167e+00 2.405486e+00 1.878415e+00 2.064182e+00 1.567517e+00 1.509454e+00 3.701688e-01 6.777785e-01 3.172734e-01 3.270833e-01 5.636153e-01 4.185232e-01 5.123881e-01 5.546610e-01 5.421756e-01 4.286873e-01 4.688509e-01 3.712985e-01 3.300456e-01
<GCONST> 1.113057e+02
<TRANSP> 5
 0.000000e+00 1.000000e+00 0.000000e+00 0.000000e+00 0.000000e+00
 0.000000e+00 6.107542e-01 3.892458e-01 0.000000e+00 0.000000e+00
 0.000000e+00 0.000000e+00 7.710054e-01 2.289946e-01 0.000000e+00
 0.000000e+00 0.000000e+00 0.000000e+00 6.676668e-01 3.323331e-01
 0.000000e+00 0.000000e+00 0.000000e+00 0.000000e+00 0.000000e+00
<ENDHMM>
~h "t"
<BEGINHMM>
<NUMSTATES> 5
<STATE> 2
<MEAN> 39
 -1.092365e+01 6.981639e+00 2.485485e+00 -1.586720e+00 1.920199e+00 -6.714254e-03 -1.664564e+00 -1.746633e+00 -4.329670e+00 -2.285654e+00 8.436015e-01 1.571609e-01 5.206651e+01 -3.998128e-01 -1.007407e+00 -2.238928e-01 -3.031422e-01 -6.336523e-01 -1.361815e-01 -2.437141e-02 3.861794e-03 3.159485e-01 3.464023e-01 3.243251e-02 -3.357624e-01 -2.515046e-02 -1.472080e-01 -5.805499e-01 2.649949e-01 -7.387810e-01 2.117532e-01 -1.859575e-01 -2.831659e-01 2.981689e-01 -7.452698e-02 3.818140e-01 5.610894e-01 -9.503543e-02 1.026121e+00
<VARIANCE> 39
 2.688883e+01 9.367400e+00 2.091805e+01 2.511317e+01 3.076608e+01 1.917704e+01 3.184505e+01 2.895733e+01 2.164059e+01 2.173130e+01 1.598497e+01 1.246520e+01 7.071581e+00 1.784620e+00 2.165234e+00 1.625969e+00 3.103886e+00 2.072960e+00 1.755778e+00 2.012011e+00 2.057604e+00 1.715345e+00 1.532355e+00 2.039596e+00 1.365964e+00 2.475106e+00 2.007111e-01 2.791789e-01 3.125894e-01 3.892349e-01 4.357258e-01 4.162449e-01 4.203687e-01 4.269975e-01 3.361072e-01 3.281642e-01 2.702819e-01 2.829596e-01 2.015325e-01
<GCONST> 1.038712e+02
<STATE> 3
<MEAN> 39
 -1.325107e+01 2.751522e+00 4.056355e+00 -5.558147e+00 1.963634e+00 -3.416625e-01 -2.482824e+00 -1.793418e-01 -4.160428e+00 -2.338127e-01 3.269565e+00 -1.664852e+00 5.532965e+01 -8.775029e-01 -2.226386e+00 6.006588e-01 -2.186511e+00 6.219799e-02 -8.520975e-01 -8.612249e-01 6.823752e-01 2.053520e-01 1.153917e+00 1.533880e+00 -6.130155e-01 2.632574e+00 3.893968e-01 3.045836e-01 7.017537e-02 2.093263e-01 3.060445e-01 -1.023200e-01 -4.061848e-02 -1.024391e-01 -1.173783e-01 3.090355e-02 8.866253e-02 2.589460e-01 3.378456e-01
<VARIANCE> 39
 2.412548e+01 2.933570e+01 2.425447e+01 3.193627e+01 3.718164e+01 2.463887e+01 2.818680e+01 2.785165e+01 2.128164e+01 1.638103e+01 1.592426e+01 1.582946e+01 1.880769e+01 3.582511e+00 3.055212e+00 2.537178e+00 4.062824e+00 4.375464e+00 3.341954e+00 3.576524e+00 3.215294e+00 2.134444e+00 2.552114e+00 1.996980e+00 1.649731e+00 2.214928e+00 4.357800e-01 4.914010e-01 3.324476e-01 5.982686e-01 4.592116e-01 5.240419e-01 4.364128e-01 4.140447e-01 3.844800e-01 3.209901e-01 3.375146e-01 2.921975e-01 3.092108e-01
<GCONST> 1.143549e+02
<STATE> 4
<MEAN> 39
 -1.356788e+01 -6.354258e-01 4.749039e+00 -8.358623e+00 3.108208e+00 -1.885136e+00 -4.412648e+00 -1.159718e-01 -3.873412e+00 1.824716e+00 6.988757e+00 -1.084854e+00 6.042511e+01 1.433128e+00 2.800703e-01 5.391382e-02 3.041732e-01 2.973261e-01 8.611911e-02 7.366198e-02 -2.765398e-01 -3.202628e-01 2.593148e-01 2.287072e-01 5.261080e-01 1.011979e+00 7.198245e-01 7.200129e-01 -2.444003e-01 6.606174e-01 -1.457618e-01 1.081109e-01 3.530846e-01 -2.111994e-01 -1.800999e-01 -2.811839e-01 -6.125799e-01 2.678573e-01 -4.240726e-01
<VARIANCE> 39
 1.982615e+01 2.777894e+01 2.170546e+01 2.667161e+01 3.778399e+01 4.154075e+01 2.910924e+01 3.324559e+01 2.244324e+01 2.270227e+01 2.137407e+01 1.975741e+01 1.759590e+01 5.424413e+00 3.661356e+00 2.306720e+00 4.491744e+00 3.143057e+00 3.685860e+00 3.535393e+00 2.861150e+00 2.482384e+00 2.230974e+00 3.085168e+00 1.913570e+00 3.138786e+00 5.153752e-01 7.050225e-01 3.880076e-01 8.360205e-01 7.418822e-01 6.786560e-01 6.313794e-01 7.044616e-01 4.628155e-01 4.754524e-01 5.192179e-01 4.004687e-01 4.748788e-01
<GCONST> 1.209879e+02
<TRANSP> 5
 0.000000e+00 1.000000e+00 0.000000e+00 0.000000e+00 0.000000e+00
 0.000000e+00 6.376256e-01 3.623744e-01 0.000000e+00 0.000000e+00
 0.000000e+00 0.000000e+00 2.030197e-01 7.969802e-01 0.000000e+00
 0.000000e+00 0.000000e+00 0.000000e+00 6.071137e-01 3.928863e-01
 0.000000e+00 0.000000e+00 0.000000e+00 0.000000e+00 0.000000e+00
<ENDHMM>
~h "u"
<BEGINHMM>
<NUMSTATES> 5
<STATE> 2
<MEAN> 39
 -2.036058e+00 6.641571e+00 8.833750e-01 -2.447620e+00 -2.612027e+00 1.372317e+00 1.438642e+00 -5.107150e+00 -7.388204e+00 -6.040022e+00 -1.436266e+00 2.923122e+00 5.788670e+01 5.482045e-01 7.264564e-01 1.510230e-01 4.189298e-01 -2.169878e-01 -1.805953e-01 2.624364e-01 -7.192425e-03 -3.523115e-01 -2.991318e-01 -6.440737e-01 1.744822e-01 -2.180971e-01 -2.657467e-01 -1.745147e-01 6.155384e-02 1.080996e-01 2.733756e-01 -3.225618e-02 -2.109661e-01 -2.853714e-02 1.141961e-01 1.560360e-01 1.201011e-01 -9.347089e-02 -2.912124e-02
<VARIANCE> 39
 2.091885e+01 1.323178e+01 1.824265e+01 2.729975e+01 3.170558e+01 2.121657e+01 2.056413e+01 2.592692e+01 2.303475e+01 2.467898e+01 3.066055e+01 1.989025e+01 1.492773e+01 2.884499e+00 1.486556e+00 1.930419e+00 1.936881e+00 2.961495e+00 2.481947e+00 2.147523e+00 3.242052e+00 2.004802e+00 2.022698e+00 2.280422e+00 1.846677e+00 1.534542e+00 3.250767e-01 2.654072e-01 3.137125e-01 4.637584e-01 4.565449e-01 3.747929e-01 3.474127e-01 4.402991e-01 2.794517e-01 3.231900e-01 4.810523e-01 3.160536e-01 2.135763e-01
<GCONST> 1.078838e+02
<STATE> 3
<MEAN> 39
 -1.901381e+00 7.131178e+00 1.901809e+00 -6.161411e-01 -6.848966e-01 7.950678e-01 2.787289e-01 -5.220746e+00 -8.734544e+00 -5.541408e+00 -1.084070e+00 3.589713e+00 5.806787e+01 3.653842e-02 -2.335074e-02 2.393984e-01 8.292686e-01 1.039863e+00 2.069064e-01 -7.915490e-01 -8.440576e-01 -1.016710e-01 6.501611e-01 2.825153e-01 7.834025e-02 1.343923e-02 -6.156176e-01 -5.106328e-01 2.281142e-01 1.615198e-01 3.851883e-01 -2.479430e-02 -3.262198e-01 -7.080056e-02 3.154233e-01 3.342275e-01 2.117676e-01 -4.032707e-01 1.285751e-02
<VARIANCE> 39
 1.471290e+01 1.249946e+01 1.335978e+01 2.468184e+01 2.225010e+01 3.055982e+01 2.917122e+01 3.419891e+01 2.840938e+01 2.651116e+01 2.023216e+01 1.880221e+01 2.051384e+01 2.466982e+00 1.221906e+00 1.885984e+00 2.764155e+00 3.119240e+00 2.976413e+00 2.757189e+00 3.394399e+00 2.632862e+00 3.113971e+00 2.748333e+00 1.826353e+00 1.699001e+00 4.618676e-01 3.383859e-01 3.365667e-01 6.676782e-01 6.448972e-01 6.247449e-01 4.621741e-01 6.458621e-01 5.465828e-01 4.674682e-01 4.661739e-01 3.573494e-01 2.700861e-01
<GCONST> 1.132378e+02
<STATE> 4
<MEAN> 39
 -3.744676e+00 5.605036e+00 3.098244e+00 3.316918e+00 3.719887e+00 1.493010e+00 -4.051425e+00 -8.794999e+00 -7.446809e+00 -1.983022e+00 -1.230249e-01 1.335258e+00 5.709277e+01 -1.111723e+00 -7.305897e-01 6.085246e-01 6.765081e-01 7.023627e-01 -4.385480e-01 -6.080120e-01 6.083942e-02 3.845360e-01 3.213253e-01 -6.735659e-03 -7.488908e-01 -1.446864e-01 -3.967013e-01 -3.014229e-01 7.051563e-02 -4.175783e-01 -3.850867e-01 -3.375459e-01 2.553752e-01 3.546729e-01 1.463049e-01 -2.069713e-01 -4.100023e-02 -1.454697e-01 1.443012e-01
<VARIANCE> 39
 1.790577e+01 1.202429e+01 1.305978e+01 2.236318e+01 2.573295e+01 3.497896e+01 3.871801e+01 4.340807e+01 2.624506e+01 2.303716e+01 2.741743e+01 2.572371e+01 2.063408e+01 2.274774e+00 2.379656e+00 1.849439e+00 4.092752e+00 4.671405e+00 2.635074e+00 3.039769e+00 2.664610e+00 3.084587e+00 3.783668e+00 2.304277e+00 2.197081e+00 1.601074e+00 3.352360e-01 3.003243e-01 3.132561e-01 5.173678e-01 6.627569e-01 6.599416e-01 5.729011e-01 6.670226e-01 5.564247e-01 6.308066e-01 5.110488e-01 4.373987e-01 3.185760e-01
<GCONST> 1.162171e+02
<TRANSP> 5
 0.000000e+00 1.000000e+00 0.000000e+00 0.000000e+00 0.000000e+00
 0.000000e+00 6.095689e-01 3.904311e-01 0.000000e+00 0.000000e+00
 0.000000e+00 0.000000e+00 3.272903e-01 6.727096e-01 0.000000e+00
 0.000000e+00 0.000000e+00 0.000000e+00 4.128965e-01 5.871035e-01
 0.000000e+00 0.000000e+00 0.000000e+00 0.000000e+00 0.000000e+00
<ENDHMM>
~h "v"
<BEGINHMM>
<NUMSTATES> 5
<STATE> 2
<MEAN> 39
 -5.264559e+00 6.139625e+00 2.693361e+00 3.663235e-01 2.971285e+00 5.149438e-01 -4.642347e-01 -3.397705e+00 -5.707017e+00 -2.726313e+00 1.817951e+00 8.955693e-01 5.720199e+01 -3.412551e-01 1.850828e-01 2.826807e-01 1.730272e-01 1.844723e-01 3.465716e-01 2.217510e-01 5.048340e-01 1.463446e-01 -7.379196e-02 4.926467e-02 -4.199781e-01 -3.660775e-01 3.845393e-01 -3.038427e-01 -1.506932e-01 -2.639470e-01 -1.970260e-01 -5.122225e-01 -2.623944e-01 4.849763e-02 1.027250e-01 3.835779e-01 1.124633e-01 -4.982994e-02 6.236160e-01
<VARIANCE> 39
 2.899233e+01 1.475450e+01 1.736956e+01 3.152294e+01 2.017373e+01 1.288243e+01 2.461557e+01 2.431428e+01 1.681706e+01 1.860300e+01 1.593311e+01 1.259917e+01 1.331727e+01 1.970425e+00 1.289821e+00 1.384042e+00 1.700616e+00 1.533250e+00 1.409894e+00 1.639805e+00 1.841904e+00 1.460912e+00 1.634736e+00 1.406275e+00 1.308462e+00 7.897230e-01 3.453129e-01 2.752653e-01 3.204336e-01 3.340167e-01 3.307995e-01 2.910927e-01 3.434763e-01 3.918850e-01 3.162588e-01 4.260989e-01 2.684359e-01 2.969578e-01 1.632847e-01
<GCONST> 9.926241e+01
<STATE> 3
<MEAN> 39
 -5.507846e+00 5.854803e+00 2.984946e+00 1.962236e-01 3.344767e+00 7.554543e-01 -3.265769e-01 -2.233704e+00 -4.728896e+00 -1.680181e+00 2.953564e+00 1.238243e-01 5.736828e+01 9.956883e-01 -2.749843e-01 -2.943023e-01 -5.821967e-01 -3.667065e-01 -8.533308e-01 -4.746413e-01 4.225783e-01 1.089217e-01 6.091490e-01 7.672208e-02 -2.875242e-01 1.040828e+00 4.045640e-01 -2.976195e-01 -2.149620e-01 -2.547505e-01 -2.490336e-01 -5.888792e-01 -2.185948e-01 -8.962061e-02 -4.868108e-02 2.720548e-01 -6.820145e-02 1.082420e-01 6.027184e-01
<VARIANCE> 39
 2.777822e+01 1.186010e+01 1.926216e+01 3.574102e+01 2.427475e+01 1.713697e+01 2.355562e+01 2.704786e+01 1.615770e+01 1.728183e+01 1.679714e+01 1.315136e+01 1.384190e+01 3.521152e+00 2.051544e+00 2.296131e+00 2.870334e+00 2.200194e+00 1.533923e+00 2.407583e+00 3.069959e+00 2.002144e+00 2.209635e+00 1.925648e+00 1.694702e+00 9.917557e-01 4.291463e-01 2.229979e-01 3.614631e-01 3.813152e-01 3.416725e-01 3.419912e-01 3.624345e-01 4.315102e-01 3.754980e-01 3.352498e-01 2.775761e-01 2.329260e-01 1.437940e-01
<GCONST> 1.048145e+02
<STATE> 4
<MEAN> 39
 -2.556852e+00 4.952481e+00 1.483511e+00 -2.329688e+00 1.314813e+00 -1.798645e+00 -9.386336e-01 -1.512545e+00 -4.722857e+00 -5.361189e-01 2.762749e+00 6.094186e-02 6.055500e+01 1.167773e+00 -5.679355e-01 -4.709311e-01 -7.564886e-01 -4.850421e-01 -1.342409e+00 -6.212067e-01 1.756634e-01 4.065323e-02 8.113630e-01 -6.849448e-02 -8.142494e-02 1.495629e+00 -4.059947e-02 -3.698501e-02 8.206039e-02 6.109574e-02 3.136596e-02 -8.452860e-02 -3.231448e-02 -1.422238e-01 -1.142266e-01 1.742329e-03 -7.206599e-02 5.540331e-02 8.358749e-02
<VARIANCE> 39
 2.640638e+01 1.292874e+01 2.595850e+01 4.700279e+01 2.261413e+01 1.394413e+01 3.524421e+01 3.198049e+01 1.721845e+01 1.791622e+01 2.048830e+01 2.055534e+01 1.099768e+01 2.855220e+00 1.808712e+00 3.443066e+00 3.535581e+00 2.671446e+00 2.180897e+00 2.504009e+00 2.791622e+00 2.133137e+00 2.365288e+00 1.657711e+00 1.689270e+00 1.212852e+00 4.561523e-01 2.907391e-01 3.561529e-01 3.798466e-01 3.811234e-01 2.790879e-01 3.436274e-01 5.000892e-01 3.160892e-01 3.379613e-01 3.845497e-01 2.514109e-01 1.661088e-01
<GCONST> 1.078688e+02
<TRANSP> 5
 0.000000e+00 1.000000e+00 0.000000e+00 0.000000e+00 0.000000e+00
 0.000000e+00 4.078747e-01 5.921253e-01 0.000000e+00 0.000000e+00
 0.000000e+00 0.000000e+00 2.266391e-01 7.733609e-01 0.000000e+00
 0.000000e+00 0.000000e+00 0.000000e+00 2.213765e-01 7.786235e-01
 0.000000e+00 0.000000e+00 0.000000e+00 0.000000e+00 0.000000e+00
<ENDHMM>
~h "x"
<BEGINHMM>
<NUMSTATES> 5
<STATE> 2
<MEAN> 39
 -1.253866e+01 -1.252909e+00 9.445622e+00 -3.833686e-01 3.889644e+00 -9.540817e-02 -4.129401e+00 1.883715e-01 -4.852748e+00 -2.254988e+00 6.131622e+00 -3.965784e+00 5.810526e+01 -7.450905e-01 -9.040224e-01 -9.149157e-01 -7.728117e-01 1.614020e-01 -4.436388e-01 -5.106379e-01 2.158158e-01 7.553145e-03 -2.053436e-01 6.339605e-01 -8.857136e-02 -3.085379e-02 2.395563e-01 1.789186e-01 -1.543629e-01 2.533248e-01 -2.878465e-02 -1.580177e-01 -7.283083e-02 -1.642403e-01 2.178440e-01 2.479735e-01 -3.118003e-01 1.152508e-01 7.088629e-03
<VARIANCE> 39
 2.183408e+01 1.771213e+01 1.476505e+02 4.269798e+01 3.139826e+01 4.693315e+01 3.866780e+01 2.762749e+01 4.836131e+01 2.835249e+01 2.286984e+01 2.469520e+01 6.278349e+00 1.031696e+00 9.575379e-01 2.452554e+00 2.823897e+00 1.818031e+00 2.744760e+00 2.994577e+00 2.790960e+00 2.684736e+00 2.359620e+00 2.167341e+00 1.974221e+00 3.098685e-01 1.103799e-01 1.509484e-01 4.767404e-01 3.970722e-01 3.713453e-01 4.728050e-01 5.566047e-01 5.154683e-01 4.760982e-01 5.061867e-01 3.348939e-01 3.321510e-01 6.851573e-02
<GCONST> 1.087849e+02
<STATE> 3
<MEAN> 39
 -1.232068e+01 -3.138504e+00 4.946708e+00 3.314475e-01 6.090159e+00 -2.045336e+00 -6.862383e+00 -1.071751e+00 -3.087111e+00 -4.135255e-01 6.839599e+00 -1.851187e+00 5.808425e+01 3.369665e-01 6.684662e-01 -1.039609e+00 2.906887e-01 7.346770e-01 5.551119e-01 3.640596e-01 -2.895332e-01 3.337272e-01 8.192195e-01 -9.080988e-01 4.112069e-01 -4.331841e-01 2.947346e-01 5.747839e-01 1.918660e-01 -2.559420e-02 -2.646677e-01 1.795562e-01 3.375381e-01 5.737115e-02 -1.010430e-01 -6.362262e-02 -4.352312e-01 -5.974714e-04 1.496496e-02
<VARIANCE> 39
 1.991802e+01 2.334752e+01 8.944999e+01 5.361576e+01 2.579688e+01 4.688012e+01 3.803592e+01 4.355209e+01 3.807215e+01 3.194310e+01 3.992233e+01 2.438318e+01 7.753751e+00 1.722174e+00 1.638220e+00 2.992878e+00 2.481351e+00 2.360943e+00 3.505705e+00 4.801519e+00 4.694906e+00 2.710246e+00 2.927339e+00 2.629957e+00 1.796562e+00 8.143263e-01 3.432857e-01 2.180569e-01 3.984247e-01 4.233286e-01 4.851903e-01 6.643929e-01 7.224129e-01 7.857556e-01 4.966180e-01 5.776680e-01 6.514521e-01 4.327851e-01 1.551397e-01
<GCONST> 1.180787e+02
<STATE> 4
<MEAN> 39
 -1.050504e+01 2.359051e+00 4.257108e+00 1.905470e+00 5.614098e+00 -3.522370e-01 -4.543551e+00 1.423561e-02 -1.438399e+00 1.712137e-01 1.534245e+00 -1.727211e+00 5.534738e+01 7.960574e-01 1.174864e+00 -4.247073e-01 -3.025982e-01 -2.146596e-01 -9.023778e-02 3.662850e-01 1.873218e-01 1.374568e-01 4.540708e-01 -1.056907e+00 4.212127e-01 2.524073e-01 1.926759e-02 -1.744776e-01 8.245332e-02 -3.651482e-01 -1.859854e-01 -2.694534e-01 -3.939675e-02 9.606034e-02 -2.956279e-01 -5.604495e-02 3.027180e-01 1.074956e-02 3.987592e-01
<VARIANCE> 39
 2.948011e+01 2.247156e+01 4.501689e+01 2.880875e+01 2.169352e+01 4.967536e+01 2.189970e+01 3.698180e+01 3.152383e+01 2.108434e+01 2.345070e+01 1.815977e+01 1.691366e+01 3.624055e+00 1.992460e+00 2.156179e+00 2.705512e+00 2.227077e+00 2.980985e+00 2.713301e+00 2.537594e+00 2.734243e+00 2.682784e+00 4.088307e+00 2.212155e+00 2.312612e+00 3.176121e-01 3.505293e-01 3.327901e-01 4.498801e-01 2.914871e-01 7.213457e-01 5.931864e-01 5.353368e-01 5.130279e-01 4.489057e-01 4.680363e-01 3.274261e-01 2.370058e-01
<GCONST> 1.154134e+02
<TRANSP> 5
 0.000000e+00 1.000000e+00 0.000000e+00 0.000000e+00 0.000000e+00
 0.000000e+00 7.705800e-01 2.294201e-01 0.000000e+00 0.000000e+00
 0.000000e+00 0.000000e+00 5.467967e-01 4.532033e-01 0.000000e+00
 0.000000e+00 0.000000e+00 0.000000e+00 4.882894e-01 5.117106e-01
 0.000000e+00 0.000000e+00 0.000000e+00 0.000000e+00 0.000000e+00
<ENDHMM>
~h "z"
<BEGINHMM>
<NUMSTATES> 5
<STATE> 2
<MEAN> 39
 -9.087228e+00 8.332481e+00 1.028439e+01 -7.576120e+00 9.458169e+00 -3.505879e+00 -5.644972e+00 -1.482119e+00 -7.073382e+00 -4.118689e+00 6.753389e+00 1.523642e+00 6.229568e+01 -3.610723e+00 9.905976e-01 2.183305e+00 -1.591365e+00 2.651999e+00 -2.797171e-01 -1.651972e-01 2.299465e-01 9.972443e-02 -6.192486e-01 5.830607e-01 -9.119915e-01 4.723893e-01 -1.037584e-01 -2.892497e-01 -4.119132e-01 3.155909e-01 -5.529378e-01 -1.769811e-03 3.609490e-01 1.671998e-01 1.658353e-01 3.966446e-01 -3.190533e-01 -1.757202e-01 5.169065e-02
<VARIANCE> 39
 2.367824e+01 8.382442e+00 2.482549e+01 4.103543e+01 2.538589e+01 3.956260e+01 1.928457e+01 3.262727e+01 2.084309e+01 2.891599e+01 2.134659e+01 2.145321e+01 1.213881e+01 2.169829e+00 1.316439e+00 2.030975e+00 2.561108e+00 2.378092e+00 2.899745e+00 2.285772e+00 2.386577e+00 3.435010e+00 2.648204e+00 2.292338e+00 1.470086e+00 1.089986e+00 5.482999e-01 2.301214e-01 4.024101e-01 3.736145e-01 6.041985e-01 3.913739e-01 3.817118e-01 3.786775e-01 5.214844e-01 4.868731e-01 4.225420e-01 3.098424e-01 1.213178e-01
<GCONST> 1.092560e+02
<STATE> 3
<MEAN> 39
 -1.841286e+01 9.481895e+00 1.237808e+01 -8.875520e+00 1.301708e+01 -5.250948e+00 -4.308624e+00 6.939173e-01 -6.209942e+00 -3.168386e+00 6.145117e+00 -2.019750e+00 6.387489e+01 -7.169865e-01 -4.426190e-01 -2.738275e-01 3.065871e-01 -2.407707e-01 1.559719e-01 3.811058e-01 2.254670e-01 1.638174e-01 5.031040e-01 4.291086e-02 -3.549703e-01 -7.993147e-02 1.329393e+00 -3.842293e-01 -4.980007e-01 5.482948e-01 -8.009492e-01 2.566221e-02 -6.074349e-02 -1.910948e-01 3.436900e-02 1.732166e-01 -7.866384e-02 3.045234e-01 -1.664582e-01
<VARIANCE> 39
 2.026232e+01 1.029185e+01 1.827692e+01 3.257898e+01 1.840141e+01 4.069228e+01 2.006535e+01 2.263480e+01 2.107164e+01 2.581950e+01 2.351374e+01 1.835014e+01 4.659012e+00 4.162374e+00 1.212160e+00 1.284180e+00 1.975247e+00 1.794459e+00 1.632424e+00 1.761664e+00 1.889328e+00 2.010916e+00 1.785131e+00 1.593978e+00 1.254621e+00 4.501998e-01 2.426652e-01 2.099529e-01 3.691617e-01 3.332737e-01 3.611975e-01 3.837571e-01 4.037943e-01 3.473974e-01 4.847404e-01 4.692511e-01 3.845124e-01 2.262845e-01 8.232512e-02
<GCONST> 1.006162e+02
<STATE> 4
<MEAN> 39
 -1.236415e+01 5.978046e+00 9.618501e+00 -5.270431e+00 8.204042e+00 -3.639443e+00 -3.925106e+00 -5.732992e-01 -5.490250e+00 -1.373157e+00 6.942068e+00 -4.592285e-01 6.217563e+01 3.025306e+00 -6.886798e-01 -1.221828e+00 1.129174e+00 -1.860542e+00 6.799714e-02 -2.547959e-01 -6.861395e-01 2.726359e-01 5.885189e-01 -4.324520e-01 6.035442e-01 -3.029534e-01 2.450607e-01 1.252868e-01 -1.262703e-01 -7.964857e-02 -1.042245e-01 -2.953239e-02 -8.393673e-02 -6.205156e-02 -6.698638e-03 -5.089509e-02 -3.577158e-01 5.784700e-02 9.673241e-02
<VARIANCE> 39
 3.415785e+01 1.583950e+01 2.133639e+01 2.868335e+01 2.450306e+01 4.232099e+01 2.575115e+01 2.773775e+01 2.167599e+01 2.453350e+01 2.055932e+01 1.789788e+01 8.861456e+00 2.821831e+00 1.693316e+00 2.682950e+00 2.214346e+00 2.247525e+00 2.018962e+00 2.866930e+00 2.316775e+00 2.266561e+00 2.311111e+00 2.497310e+00 1.627823e+00 1.026658e+00 7.421054e-01 3.335198e-01 3.931119e-01 2.879866e-01 4.225358e-01 3.202433e-01 4.016517e-01 3.999592e-01 3.773892e-01 4.066971e-01 3.648877e-01 3.304848e-01 1.496267e-01
<GCONST> 1.088126e+02
<TRANSP> 5
 0.000000e+00 1.000000e+00 0.000000e+00 0.000000e+00 0.000000e+00
 0.000000e+00 5.462316e-01 4.537683e-01 0.000000e+00 0.000000e+00
 0.000000e+00 0.000000e+00 6.985894e-01 3.014106e-01 0.000000e+00
 0.000000e+00 0.000000e+00 0.000000e+00 6.332188e-01 3.667812e-01
 0.000000e+00 0.000000e+00 0.000000e+00 0.000000e+00 0.000000e+00
<ENDHMM>
~h "aa"
<BEGINHMM>
<NUMSTATES> 5
<STATE> 2
<MEAN> 39
 2.318210e-01 1.534795e+00 -4.643743e+00 -1.081402e+01 3.280426e+00 -2.318758e+00 8.493026e-02 3.155279e+00 -5.403024e+00 3.161574e+00 4.070548e+00 -2.307304e-01 6.705391e+01 6.766490e-01 -1.366054e-01 -1.227247e+00 -2.090800e+00 7.103599e-01 -2.284653e-02 1.450314e-01 1.529056e+00 -1.136732e+00 -1.052821e-01 2.353463e-01 -3.976488e-02 7.595061e-01 -4.520712e-01 5.341002e-02 4.668746e-01 3.427773e-01 5.588048e-02 2.553203e-02 -1.282505e-02 5.050419e-02 -1.734378e-01 -2.969788e-01 1.025774e-01 -1.018391e-01 -4.180348e-01
<VARIANCE> 39
 5.061444e+00 1.533931e+01 1.366921e+01 2.735390e+01 2.594122e+01 1.954825e+01 2.984490e+01 3.300652e+01 2.843150e+01 1.930421e+01 2.153438e+01 2.238230e+01 9.565157e+00 1.505654e+00 1.202477e+00 1.626581e+00 2.455209e+00 3.020048e+00 1.699599e+00 1.805833e+00 1.894415e+00 2.315364e+00 1.581751e+00 1.714361e+00 1.147348e+00 9.996451e-01 2.534816e-01 2.592117e-01 2.436518e-01 3.936957e-01 4.857506e-01 2.946247e-01 3.378908e-01 4.456369e-01 4.734715e-01 2.962485e-01 3.883723e-01 2.229571e-01 1.070036e-01
<GCONST> 1.010868e+02
<STATE> 3
<MEAN> 39
 3.603199e-01 3.783841e+00 -5.345781e+00 -1.469665e+01 5.542097e+00 -2.088528e-01 2.007769e+00 8.098170e+00 -9.569405e+00 5.371144e-01 5.417094e+00 -6.688956e-01 6.514668e+01 -6.246716e-03 2.354982e-01 1.251943e-01 -4.423810e-02 1.639630e-01 5.484395e-02 -7.427056e-02 3.249483e-01 -2.304908e-01 -1.816884e-01 1.271530e-01 4.512301e-02 -2.392271e-01 -7.726570e-02 3.630662e-02 2.234318e-01 4.405452e-01 -1.927518e-01 -7.983593e-03 -6.251233e-03 -2.993073e-01 2.012808e-01 1.041538e-02 -7.780373e-02 6.803195e-02 -1.371604e-01
<VARIANCE> 39
 3.425216e+00 9.559615e+00 9.671061e+00 1.271458e+01 1.733706e+01 1.637732e+01 1.802800e+01 2.592637e+01 2.249231e+01 1.788119e+01 1.529508e+01 1.664020e+01 7.172289e+00 1.667076e-01 4.486260e-01 6.424112e-01 1.218508e+00 1.289092e+00 9.386026e-01 9.821718e-01 1.482859e+00 1.377936e+00 1.059841e+00 9.800197e-01 9.080663e-01 1.918080e-01 4.472355e-02 8.044035e-02 1.019584e-01 1.690557e-01 2.071656e-01 1.734462e-01 1.715782e-01 2.411225e-01 2.098604e-01 1.768560e-01 1.714168e-01 1.523931e-01 4.258507e-02
<GCONST> 7.532521e+01
<STATE> 4
<MEAN> 39
 -8.684409e-01 4.569361e+00 -2.593239e+00 -1.008442e+01 4.493263e+00 -2.669461e-01 5.001507e-01 5.581827e+00 -7.657886e+00 5.506755e-01 4.912809e+00 3.015639e-01 6.303932e+01 -9.479562e-01 4.669842e-01 1.231930e+00 1.850182e+00 -5.971091e-01 2.139619e-01 4.136053e-01 -1.137205e+00 6.542556e-01 -4.007075e-01 -5.259947e-01 1.089153e-01 -1.251121e+00 -3.280005e-01 -1.031301e-01 9.713721e-02 4.031187e-02 -1.568177e-02 4.322754e-04 4.016920e-02 -1.510778e-01 3.417147e-02 -4.109920e-02 -8.258598e-02 -1.374158e-01 -5.221354e-02
<VARIANCE> 39
 6.708019e+00 1.297372e+01 1.514989e+01 2.744201e+01 2.977374e+01 2.718114e+01 2.833141e+01 2.681215e+01 3.291504e+01 2.075244e+01 1.976297e+01 1.924511e+01 1.878175e+01 9.269426e-01 1.229934e+00 1.830191e+00 1.813474e+00 2.965729e+00 1.803437e+00 1.776203e+00 2.049182e+00 2.432683e+00 1.765972e+00 2.013344e+00 1.518727e+00 6.534693e-01 2.316380e-01 2.175723e-01 3.540439e-01 5.121960e-01 4.306222e-01 3.918249e-01 3.507722e-01 4.052903e-01 5.048185e-01 3.439235e-01 3.515797e-01 2.592377e-01 1.725089e-01
<GCONST> 1.030235e+02
<TRANSP> 5
 0.000000e+00 1.000000e+00 0.000000e+00 0.000000e+00 0.000000e+00
 0.000000e+00 6.520742e-01 3.479258e-01 0.000000e+00 0.000000e+00
 0.000000e+00 0.000000e+00 8.276439e-01 1.723561e-01 0.000000e+00
 0.000000e+00 0.000000e+00 0.000000e+00 6.889510e-01 3.110490e-01
 0.000000e+00 0.000000e+00 0.000000e+00 0.000000e+00 0.000000e+00
<ENDHMM>
~h "aw"
<BEGINHMM>
<NUMSTATES> 5
<STATE> 2
<MEAN> 39
 -1.047350e+01 -4.237524e+00 -6.063742e+00 -3.548856e+00 5.205105e+00 4.910213e+00 -1.409374e+00 1.113411e+00 -9.692865e-01 -3.410000e-01 4.693820e+00 1.677681e+00 5.394843e+01 -3.674778e-01 -1.782419e-01 3.978908e-02 -4.406511e-02 -2.809886e-01 1.460211e-01 -4.447301e-02 8.329424e-03 2.998542e-01 1.456387e-01 8.796863e-02 -1.713603e-01 -2.735635e-01 -1.056370e-02 1.147905e-01 9.651414e-02 3.958066e-02 -1.378955e-01 -2.496882e-01 1.247624e-02 -5.510251e-02 -1.060396e-02 9.338362e-03 -1.035291e-01 -1.037483e-01 -2.329731e-02
<VARIANCE> 39
 6.589868e+00 3.007704e+01 2.015406e+01 1.034852e+01 1.618267e+01 2.973743e+01 2.753376e+01 2.125373e+01 1.081631e+01 1.045618e+01 6.319366e+00 2.078045e+01 5.789065e+00 4.663289e-01 1.660626e+00 1.588296e+00 1.003590e+00 1.550184e+00 2.429449e+00 1.746084e+00 2.280332e+00 1.449586e+00 1.987581e+00 8.047485e-01 1.391719e+00 6.664079e-01 6.250401e-02 1.564480e-01 3.530871e-01 2.179462e-01 2.475913e-01 4.566118e-01 3.831459e-01 4.954154e-01 2.519642e-01 2.628487e-01 1.934399e-01 4.186940e-01 5.740142e-02
<GCONST> 9.078144e+01
<STATE> 3
<MEAN> 39
 -1.486303e+01 2.911107e+00 1.822833e-01 1.857180e+00 2.322384e+00 4.905280e+00 3.012977e+00 2.277503e+00 1.223130e+00 2.362574e+00 2.504852e+00 1.740749e+00 4.759554e+01 -1.880471e-01 -1.963672e-02 1.196560e-01 1.861361e-01 1.275834e-01 -4.422084e-02 1.861397e-01 2.238464e-01 1.021623e-01 5.897825e-03 -3.194816e-02 9.928633e-02 -1.421099e-01 8.496884e-02 -1.135257e-02 -1.548118e-02 -1.188678e-01 -2.655737e-03 3.031688e-02 -7.531213e-03 4.875785e-02 -4.578382e-02 -6.803739e-02 1.928390e-02 7.324666e-03 1.042290e-01
<VARIANCE> 39
 5.231231e+00 3.482999e+00 3.730909e+00 8.344683e+00 7.780190e+00 9.126266e+00 1.056301e+01 1.495198e+01 9.382059e+00 1.243754e+01 1.296633e+01 1.246414e+01 2.324373e+00 2.151458e-01 3.558156e-01 4.220232e-01 1.177664e+00 7.608937e-01 9.227339e-01 9.067730e-01 1.387691e+00 8.641907e-01 1.476601e+00 1.257387e+00 1.528298e+00 1.959216e-01 6.417027e-02 9.346118e-02 8.606558e-02 3.520502e-01 1.688170e-01 1.902523e-01 1.561923e-01 2.744493e-01 1.398320e-01 3.119026e-01 3.217116e-01 3.328982e-01 1.052170e-01
<GCONST> 7.108607e+01
<STATE> 4
<MEAN> 39
 -5.440158e+00 8.265573e-01 1.184135e+00 -8.739182e+00 -4.577158e+00 4.697712e+00 6.898762e+00 6.186188e+00 -5.354064e+00 8.625720e-02 1.426747e+00 3.442694e+00 5.826446e+01 1.644939e+00 5.112278e-01 4.617611e-01 -1.194130e+00 -1.032080e+00 -6.020221e-01 -1.141082e-01 5.343932e-02 -1.268402e+00 -9.907648e-01 -3.158605e-01 -6.290136e-01 1.423807e+00 4.566883e-02 4.306903e-02 3.107644e-02 1.447657e-01 1.852274e-01 -3.824339e-02 -3.208534e-01 -2.832502e-01 1.722327e-03 -1.366883e-01 4.134879e-02 -8.306337e-02 1.337939e-01
<VARIANCE> 39
 6.491426e+01 1.856696e+01 5.850075e+00 7.566900e+01 5.553497e+01 1.336195e+01 1.913470e+01 1.164373e+01 5.093652e+01 7.960216e+00 7.252680e+00 3.432023e+00 8.663261e+01 3.216326e+00 3.282195e+00 9.285213e-01 7.376335e+00 5.798170e+00 2.089412e+00 3.053605e+00 3.386766e+00 3.306845e+00 1.611686e+00 1.332394e+00 9.235094e-01 6.545769e+00 6.981323e-01 5.653750e-01 1.410256e-01 9.300870e-01 7.998273e-01 6.635631e-01 3.819575e-01 3.545401e-01 8.727722e-01 4.802872e-01 2.580867e-01 8.336286e-02 1.335327e+00
<GCONST> 1.134193e+02
<TRANSP> 5
 0.000000e+00 1.000000e+00 0.000000e+00 0.000000e+00 0.000000e+00
 0.000000e+00 8.932660e-01 1.067341e-01 0.000000e+00 0.000000e+00
 0.000000e+00 0.000000e+00 9.335300e-01 6.647005e-02 0.000000e+00
 0.000000e+00 0.000000e+00 0.000000e+00 7.417830e-01 2.582170e-01
 0.000000e+00 0.000000e+00 0.000000e+00 0.000000e+00 0.000000e+00
<ENDHMM>
~h "ch"
<BEGINHMM>
<NUMSTATES> 5
<STATE> 2
<MEAN> 39
 -1.230970e+01 -2.239302e-01 8.377125e+00 5.387656e-01 -1.544825e+00 -1.354983e+00 1.880210e+00 -5.280316e+00 -5.134450e+00 -1.164734e+00 1.642684e+00 -1.845947e+00 5.719382e+01 -2.777100e+00 -2.722731e+00 1.953856e+00 -6.510037e-01 -8.686138e-01 -1.961932e+00 1.935561e+00 -2.226610e-01 -2.922797e-01 -1.618404e-01 4.582053e-01 -5.590054e-01 1.826551e+00 -3.096865e-01 -2.609076e-01 4.100826e-01 2.564867e-01 3.534012e-01 -7.423685e-01 -9.797305e-02 2.344813e-01 1.558076e-01 1.927960e-02 8.596443e-02 6.117580e-02 5.278199e-01
<VARIANCE> 39
 2.237714e+01 4.002634e+01 3.251399e+01 3.202307e+01 3.648182e+01 3.529512e+01 3.853288e+01 2.845271e+01 2.659112e+01 2.337570e+01 1.544811e+01 1.525143e+01 2.099569e+01 2.012965e+00 2.446650e+00 3.071599e+00 2.922595e+00 3.314690e+00 4.198765e+00 2.215178e+00 2.921370e+00 2.050196e+00 2.188215e+00 1.459394e+00 1.174416e+00 1.970088e+00 3.426576e-01 8.120363e-01 5.584305e-01 6.459218e-01 8.003092e-01 5.905146e-01 7.483835e-01 5.903496e-01 5.223138e-01 4.792071e-01 3.298064e-01 2.731501e-01 5.257009e-01
<GCONST> 1.172290e+02
<STATE> 3
<MEAN> 39
 -2.347387e+01 -8.817929e+00 1.689962e+01 2.470379e+00 1.056536e-01 -1.250680e+01 5.534501e+00 -3.428275e+00 -4.889331e+00 -2.797480e+00 3.426754e+00 -2.361539e+00 6.457476e+01 -7.171134e-01 -1.004915e+00 3.268800e-01 4.253719e-01 8.852528e-01 -1.645485e+00 -5.038777e-01 1.202002e+00 9.084163e-01 -9.235507e-02 2.041252e-01 3.585718e-01 4.881390e-01 1.334777e+00 8.617521e-01 -8.705899e-01 -6.291445e-02 2.605758e-02 9.828348e-01 -6.063523e-01 4.409158e-02 2.356699e-01 2.519939e-01 -1.906078e-01 1.321805e-01 -7.755207e-01
<VARIANCE> 39
 8.055663e+00 1.158631e+01 1.413662e+01 1.868287e+01 2.072402e+01 2.059611e+01 2.079411e+01 2.284831e+01 1.886267e+01 2.295319e+01 1.793580e+01 1.511286e+01 5.603995e+00 4.027712e+00 2.018230e+00 2.822761e+00 2.013739e+00 2.198563e+00 4.175438e+00 2.201981e+00 1.913035e+00 2.097792e+00 2.075586e+00 1.371196e+00 1.356907e+00 1.555261e+00 3.621601e-01 3.002418e-01 3.661866e-01 3.173291e-01 4.095193e-01 4.573997e-01 3.706267e-01 4.504814e-01 3.417836e-01 3.474365e-01 2.937573e-01 2.807834e-01 1.268215e-01
<GCONST> 1.029009e+02
<STATE> 4
<MEAN> 39
 -1.725178e+01 -6.881783e+00 1.214387e+01 2.432585e+00 2.173360e+00 -1.002448e+01 1.575344e+00 5.179937e-01 -4.413255e-01 -4.287131e-01 2.891072e+00 -7.350338e-01 6.078836e+01 3.185704e+00 2.256738e+00 -1.237961e+00 4.672493e-01 4.453333e-02 2.039111e+00 -1.122448e+00 4.373764e-02 4.556938e-01 7.444130e-01 -4.599614e-01 3.493613e-01 -1.140536e+00 3.347590e-01 4.209446e-01 -1.502682e-02 1.017918e-02 -2.258694e-01 3.142501e-01 8.841494e-02 -4.289593e-01 -4.447528e-01 1.884027e-02 -2.481871e-02 1.983206e-03 2.012923e-01
<VARIANCE> 39
 2.444509e+01 1.901025e+01 1.681829e+01 1.679424e+01 2.353186e+01 4.186676e+01 2.624590e+01 2.609930e+01 1.724942e+01 2.452553e+01 1.951202e+01 1.287078e+01 1.061739e+01 2.898409e+00 1.587688e+00 1.844019e+00 1.758662e+00 1.722812e+00 2.422988e+00 2.751276e+00 2.666705e+00 1.621352e+00 1.990661e+00 1.874968e+00 1.474310e+00 1.014326e+00 5.692294e-01 4.191842e-01 2.809997e-01 3.246752e-01 4.006921e-01 8.201842e-01 4.682972e-01 4.638951e-01 3.204692e-01 3.886182e-01 4.003854e-01 3.307362e-01 2.957049e-01
<GCONST> 1.073578e+02
<TRANSP> 5
 0.000000e+00 1.000000e+00 0.000000e+00 0.000000e+00 0.000000e+00
 0.000000e+00 7.274361e-01 2.725639e-01 0.000000e+00 0.000000e+00
 0.000000e+00 0.000000e+00 7.261298e-01 2.738702e-01 0.000000e+00
 0.000000e+00 0.000000e+00 0.000000e+00 6.808780e-01 3.191220e-01
 0.000000e+00 0.000000e+00 0.000000e+00 0.000000e+00 0.000000e+00
<ENDHMM>
~h "dj"
<BEGINHMM>
<NUMSTATES> 5
<STATE> 2
<MEAN> 39
 -5.375232e+00 7.513896e+00 8.546406e+00 4.619691e+00 1.174752e+00 1.366678e-01 -5.525949e+00 -6.701401e+00 -5.183671e+00 -3.722349e-01 -1.798159e+00 -3.292053e+00 5.654455e+01 -1.253620e+00 -3.814944e-01 1.783486e+00 -4.251996e-01 -1.082135e+00 1.008234e+00 2.455324e-01 1.397357e-02 -1.052999e-01 -2.742492e-01 3.805544e-01 -5.109246e-01 2.139325e-02 -3.086245e-01 -4.265828e-01 2.825983e-01 -4.879366e-01 -1.857569e-01 3.995281e-02 2.608604e-01 1.027553e-01 -3.371125e-02 -4.227778e-02 3.685827e-01 1.595616e-01 4.861612e-01
<VARIANCE> 39
 1.850435e+01 2.137827e+01 3.206638e+01 3.941021e+01 3.052455e+01 2.631457e+01 4.014221e+01 3.669810e+01 2.147574e+01 3.171657e+01 1.526938e+01 3.109291e+01 2.107064e+01 2.663868e+00 3.112772e+00 2.772212e+00 4.947371e+00 3.236832e+00 4.201271e+00 3.733409e+00 4.202163e+00 2.557958e+00 3.938924e+00 2.379190e+00 2.445993e+00 2.333753e+00 3.799748e-01 5.396302e-01 6.926889e-01 7.731587e-01 7.979828e-01 1.128193e+00 1.041907e+00 8.623425e-01 4.994463e-01 8.671942e-01 3.637038e-01 6.322955e-01 5.058105e-01
<GCONST> 1.241240e+02
<STATE> 3
<MEAN> 39
 -1.430585e+01 1.200258e+00 1.664335e+01 -2.245114e+00 -3.279034e+00 3.691972e+00 -2.215706e+00 -4.938934e+00 -6.215725e+00 -2.411087e+00 3.452055e+00 -3.176101e+00 6.006628e+01 -3.144906e-01 -8.800471e-01 1.847157e+00 9.633998e-01 1.558841e-01 -1.592183e+00 9.879594e-02 1.258922e-01 9.161510e-02 3.143779e-01 2.521060e-01 -6.577299e-01 1.142263e+00 1.193421e+00 4.206291e-01 -7.996342e-01 9.698423e-01 3.825141e-01 -9.362919e-01 -4.732252e-01 -2.127316e-01 2.136454e-01 2.011884e-01 -5.256705e-01 9.144173e-03 -7.212906e-02
<VARIANCE> 39
 2.183983e+01 1.319967e+01 1.678097e+01 3.077009e+01 2.850832e+01 3.021420e+01 2.718484e+01 3.360414e+01 1.465782e+01 1.682269e+01 1.828173e+01 1.935356e+01 8.862716e+00 5.564044e+00 2.272037e+00 2.426418e+00 5.796176e+00 4.084891e+00 3.949502e+00 3.163805e+00 3.499523e+00 1.468435e+00 1.825384e+00 2.264131e+00 1.902780e+00 1.231410e+00 4.766607e-01 3.223286e-01 6.257870e-01 6.428203e-01 7.996278e-01 1.065732e+00 7.005909e-01 7.079189e-01 3.194885e-01 5.342594e-01 3.447446e-01 3.892831e-01 2.636006e-01
<GCONST> 1.149880e+02
<STATE> 4
<MEAN> 39
 -6.621855e+00 2.273438e+00 1.685489e+01 7.251817e+00 -2.626711e+00 -5.221298e+00 -6.247557e+00 -7.577414e+00 -5.113539e+00 6.301510e-01 -2.640809e-01 -6.712986e+00 6.258488e+01 2.305542e+00 -4.275458e-01 -2.148399e+00 1.793161e+00 1.321898e-01 -2.823827e+00 -1.137536e+00 -6.433578e-01 8.786110e-01 4.680377e-01 -8.087229e-01 1.896526e-01 9.303038e-01 -6.275232e-02 1.530334e-01 -9.222206e-01 -6.666697e-01 2.015576e-01 7.002081e-01 8.531471e-02 -4.237895e-02 1.062541e-01 -2.388229e-01 1.823072e-01 5.172113e-01 -4.053786e-01
<VARIANCE> 39
 1.845475e+01 6.704473e+00 2.707077e+01 2.697113e+01 2.866878e+01 2.476933e+01 1.581098e+01 2.840552e+01 1.091566e+01 1.623289e+01 1.432940e+01 1.436516e+01 6.359154e+00 2.963844e+00 1.058602e+00 3.736055e+00 3.680519e+00 3.276073e+00 4.390822e+00 3.411135e+00 3.844585e+00 1.593228e+00 2.316843e+00 1.586103e+00 2.261333e+00 8.383083e-01 6.400031e-01 3.244428e-01 7.848814e-01 4.516724e-01 9.482670e-01 9.260450e-01 4.210325e-01 5.983734e-01 2.643131e-01 2.987700e-01 2.840807e-01 2.479197e-01 1.987154e-01
<GCONST> 1.086015e+02
<TRANSP> 5
 0.000000e+00 1.000000e+00 0.000000e+00 0.000000e+00 0.000000e+00
 0.000000e+00 7.268544e-01 2.731455e-01 0.000000e+00 0.000000e+00
 0.000000e+00 0.000000e+00 6.547854e-01 3.452146e-01 0.000000e+00
 0.000000e+00 0.000000e+00 0.000000e+00 4.998215e-01 5.001785e-01
 0.000000e+00 0.000000e+00 0.000000e+00 0.000000e+00 0.000000e+00
<ENDHMM>
~h "ee"
<BEGINHMM>
<NUMSTATES> 5
<STATE> 2
<MEAN> 39
