~o
<STREAMINFO> 1 39
<VECSIZE> 39<NULLD><MFCC_D_A_0><DIAGC>
~s "silst"
<MEAN> 39
 -1.323946e+01 2.283216e+00 2.698222e-01 2.598552e+00 3.273117e+00 3.435524e+00 9.322233e-01 2.462638e+00 1.637423e+00 1.315753e+00 1.722042e+00 9.973226e-01 4.928473e+01 -2.389230e-01 -1.511860e-01 -6.195902e-02 -2.537023e-02 -1.566331e-02 1.483530e-02 2.402642e-02 6.217473e-02 7.363006e-02 8.564850e-02 5.687308e-02 3.271919e-02 -1.346635e-01 4.644902e-02 -1.835965e-02 4.827761e-02 -6.843328e-02 -2.543776e-02 -5.609382e-02 -5.267533e-02 -5.150722e-02 -5.155708e-02 -2.832882e-02 2.652434e-02 3.163526e-03 1.191366e-01
<VARIANCE> 39
 6.943567e+00 1.634902e+01 1.363932e+01 1.058333e+01 9.048836e+00 1.234752e+01 1.756194e+01 1.759913e+01 1.675167e+01 1.791461e+01 1.572616e+01 1.268702e+01 3.906397e+00 2.483272e-01 5.999451e-01 6.850863e-01 8.171862e-01 8.159186e-01 1.057879e+00 1.406768e+00 1.402329e+00 1.386878e+00 1.453657e+00 1.334028e+00 1.213671e+00 2.375363e-01 5.687435e-02 1.055026e-01 1.372799e-01 1.848888e-01 1.900023e-01 2.274164e-01 2.853669e-01 3.082221e-01 2.714569e-01 3.050404e-01 2.764582e-01 2.554725e-01 6.607243e-02
<GCONST> 7.976666e+01
~h "a"
<BEGINHMM>
<NUMSTATES> 5
<STATE> 2
<MEAN> 39
 -2.465740e+00 1.645026e+00 -1.582026e+00 -7.442117e+00 1.750008e+00 -1.592474e+00 -1.123505e-01 8.649220e-01 -5.146949e+00 2.833219e+00 3.572986e+00 9.564028e-01 6.318714e+01 1.114121e+00 2.284421e-01 -7.478586e-01 -1.173560e+00 1.904666e-01 1.408875e-01 2.289705e-02 6.155058e-01 -6.360419e-01 1.466835e-01 5.009685e-02 2.068785e-01 7.533906e-01 -4.442342e-01 1.606375e-01 3.936637e-01 4.104550e-01 3.333233e-02 3.427209e-02 3.699662e-02 -4.170618e-02 -1.178437e-01 -3.486907e-01 4.637268e-02 -1.021779e-01 -4.228191e-01
<VARIANCE> 39
 3.764318e+01 2.172215e+01 2.047703e+01 4.506743e+01 2.882812e+01 2.097960e+01 3.487362e+01 3.540931e+01 3.548530e+01 2.906765e+01 2.041714e+01 2.008384e+01 2.932115e+01 3.434196e+00 2.264024e+00 2.503960e+00 4.439847e+00 2.739870e+00 2.232303e+00 2.563427e+00 3.516840e+00 3.205090e+00 2.756958e+00 2.811210e+00 2.310428e+00 2.505502e+00 5.658917e-01 4.461972e-01 4.247236e-01 6.650665e-01 4.832713e-01 3.785362e-01 4.576141e-01 5.792499e-01 5.618787e-01 5.382713e-01 4.777471e-01 4.247102e-01 4.127152e-01
<GCONST> 1.191630e+02
<STATE> 3
<MEAN> 39
 -3.755624e-01 3.409989e+00 -2.227270e+00 -9.758517e+00 1.915643e+00 -9.904079e-01 2.306142e-01 2.562506e+00 -7.821393e+00 1.808007e+00 4.666740e+00 1.068842e+00 6.374098e+01 -3.307569e-01 6.777637e-01 5.490537e-01 6.573781e-01 1.006763e-02 4.158723e-01 2.725960e-01 -9.166671e-02 -2.882418e-01 -6.974008e-01 -4.800690e-03 -6.243698e-02 -8.803021e-01 -5.044939e-01 3.037144e-02 3.526679e-01 6.582301e-01 -1.539322e-01 -2.421623e-03 1.318614e-01 -2.859111e-01 2.111933e-01 -2.387066e-01 -1.376393e-01 -1.231750e-01 -4.655190e-01
<VARIANCE> 39
 1.157583e+01 1.491552e+01 1.897388e+01 4.049610e+01 2.522365e+01 1.957009e+01 3.574362e+01 3.676225e+01 3.379336e+01 2.335894e+01 2.258183e+01 2.034224e+01 1.540302e+01 1.390136e+00 1.299232e+00 1.629511e+00 3.217584e+00 2.435189e+00 2.085258e+00 2.072428e+00 2.887222e+00 2.674206e+00 2.225947e+00 1.991903e+00 1.585000e+00 1.673993e+00 3.297616e-01 2.588507e-01 4.044965e-01 5.907726e-01 4.579926e-01 3.608181e-01 4.335048e-01 5.788311e-01 5.219346e-01 4.292974e-01 4.404760e-01 3.231025e-01 2.731368e-01
<GCONST> 1.096833e+02
<STATE> 4
<MEAN> 39
 -7.004410e+00 2.569867e+00 -1.570575e+00 -3.634704e+00 2.676335e+00 2.899282e+00 1.179149e+00 1.496012e+00 -2.911621e+00 6.228206e-01 3.368062e+00 7.990916e-01 5.591248e+01 -6.379608e-01 1.987965e-01 3.358822e-01 6.017445e-01 -2.424871e-01 1.224502e-01 2.114676e-01 -1.921311e-01 1.215512e-01 -3.516112e-01 -1.199333e-01 -7.276324e-02 -7.161545e-01 -7.643198e-02 -1.052833e-01 2.787067e-03 -5.442760e-02 -4.371973e-02 -1.697841e-01 -5.883573e-02 1.866890e-04 2.825308e-02 6.700689e-02 1.472831e-02 -4.156917e-02 1.166270e-01
<VARIANCE> 39
 3.239378e+01 3.034901e+01 2.123897e+01 2.702440e+01 2.624156e+01 2.852581e+01 2.951593e+01 2.271175e+01 3.671346e+01 2.115334e+01 1.802788e+01 1.586824e+01 2.723487e+01 1.615419e+00 1.217208e+00 1.795390e+00 2.683306e+00 2.445925e+00 1.815697e+00 1.663048e+00 2.176366e+00 2.661888e+00 1.866741e+00 1.844933e+00 1.328453e+00 1.535226e+00 2.859142e-01 2.134423e-01 2.929972e-01 4.172663e-01 3.767025e-01 3.840695e-01 2.926180e-01 4.128090e-01 3.820009e-01 3.563936e-01 3.075185e-01 2.533483e-01 2.254707e-01
<GCONST> 1.066353e+02
<TRANSP> 5
 0.000000e+00 1.000000e+00 0.000000e+00 0.000000e+00 0.000000e+00
 0.000000e+00 3.958775e-01 6.041225e-01 0.000000e+00 0.000000e+00
 0.000000e+00 0.000000e+00 4.808623e-01 5.191377e-01 0.000000e+00
 0.000000e+00 0.000000e+00 0.000000e+00 6.425179e-01 3.574822e-01
 0.000000e+00 0.000000e+00 0.000000e+00 0.000000e+00 0.000000e+00
<ENDHMM>
~h "b"
<BEGINHMM>
<NUMSTATES> 5
<STATE> 2
<MEAN> 39
 -3.295338e+00 1.135041e+01 4.916737e+00 3.158089e+00 1.456076e+00 4.834385e-01 -1.835722e+00 -3.219594e+00 -5.933968e+00 -5.094531e+00 -1.803362e+00 5.165048e-01 5.421072e+01 -5.093259e-01 9.340990e-01 7.780415e-01 6.571164e-01 1.670481e-01 2.291856e-01 -6.411196e-02 1.545135e-01 7.611346e-02 -5.162099e-01 -4.602965e-01 -3.816254e-01 -9.217384e-01 -1.626671e-01 -6.144217e-01 -1.871262e-01 -1.811759e-01 -9.615675e-02 -1.973660e-01 -3.337238e-02 -4.612192e-02 1.784072e-01 4.185326e-01 2.751299e-01 -5.518793e-02 3.054125e-01
<VARIANCE> 39
 1.563469e+01 9.670888e+00 1.603954e+01 1.659949e+01 1.377969e+01 1.288696e+01 1.952282e+01 2.118185e+01 1.811695e+01 1.152502e+01 1.134772e+01 1.088283e+01 7.648499e+00 1.274683e+00 1.061309e+00 1.007818e+00 1.160759e+00 1.619156e+00 1.475966e+00 1.271300e+00 1.615625e+00 1.678152e+00 1.425564e+00 1.300824e+00 1.460649e+00 8.621692e-01 1.162456e-01 2.466435e-01 1.658490e-01 2.633536e-01 2.367103e-01 2.508387e-01 2.651933e-01 2.879617e-01 3.237872e-01 2.774090e-01 2.520764e-01 2.534708e-01 9.904423e-02
<GCONST> 8.954082e+01
<STATE> 3
<MEAN> 39
 -4.896630e+00 1.093661e+01 4.992000e+00 3.978115e+00 1.349411e+00 8.535866e-01 -1.908216e+00 -4.653253e+00 -5.904877e+00 -4.724168e+00 -1.751554e+00 4.697645e-01 5.287374e+01 -9.191667e-01 -1.004460e+00 -5.487532e-02 -1.322579e-01 9.747748e-02 -2.213226e-02 -1.543060e-01 3.284059e-01 3.301426e-01 5.544073e-01 5.905901e-01 -4.514481e-01 -7.866315e-02 2.157381e-01 -8.815719e-01 -3.532868e-01 -4.918526e-01 -7.296603e-03 -1.627843e-01 6.769036e-02 1.342681e-01 -1.542396e-01 4.023568e-01 5.176593e-01 1.390805e-01 8.241124e-01
<VARIANCE> 39
 1.053032e+01 1.224482e+01 1.572127e+01 1.710582e+01 1.137391e+01 1.276202e+01 1.857748e+01 2.060697e+01 1.957314e+01 1.644056e+01 1.644230e+01 1.400896e+01 4.180473e+00 6.922815e-01 1.443573e+00 7.246800e-01 1.077829e+00 1.052743e+00 1.230490e+00 1.352828e+00 1.516632e+00 1.445861e+00 1.408043e+00 1.572096e+00 1.302791e+00 8.567854e-01 1.353285e-01 2.525721e-01 2.570615e-01 3.080984e-01 2.487154e-01 3.823178e-01 3.617993e-01 2.671082e-01 3.714967e-01 3.377908e-01 3.730442e-01 3.529078e-01 9.583789e-02
<GCONST> 9.065345e+01
<STATE> 4
<MEAN> 39
 -7.013536e+00 5.383578e+00 3.977045e+00 2.064872e+00 2.070992e+00 9.719889e-01 -1.863679e+00 -1.838981e+00 -5.691423e+00 -2.452923e+00 2.058983e+00 -3.880560e-01 5.509461e+01 5.494605e-01 -2.239494e+00 -7.471608e-01 -1.247035e+00 -2.153739e-02 -5.805776e-01 3.053236e-01 4.047509e-01 -3.664142e-01 1.079630e+00 1.311093e+00 2.414848e-01 2.223809e+00 7.404525e-01 2.200505e-01 -1.239740e-01 -1.073138e-01 -2.895529e-01 -3.481083e-01 1.727536e-01 -3.538679e-01 -3.183687e-01 4.542903e-02 -2.840295e-01 2.223669e-01 4.679737e-01
<VARIANCE> 39
 1.142757e+01 2.942478e+01 1.303037e+01 2.491907e+01 1.449390e+01 1.427543e+01 2.063105e+01 2.120395e+01 1.566787e+01 1.868539e+01 2.596800e+01 1.345144e+01 1.886069e+01 2.417058e+00 2.942825e+00 2.333051e+00 3.898612e+00 2.319832e+00 3.063081e+00 3.510923e+00 2.602941e+00 3.573692e+00 2.528277e+00 3.269279e+00 1.800946e+00 1.175075e+00 1.802571e-01 6.350580e-01 3.138193e-01 5.950071e-01 2.978189e-01 3.731200e-01 4.917528e-01 4.700299e-01 5.720634e-01 3.521059e-01 6.948242e-01 4.292094e-01 3.039714e-01
<GCONST> 1.101317e+02
<TRANSP> 5
 0.000000e+00 1.000000e+00 0.000000e+00 0.000000e+00 0.000000e+00
 0.000000e+00 5.708324e-01 4.291676e-01 0.000000e+00 0.000000e+00
 0.000000e+00 0.000000e+00 5.156326e-01 4.843674e-01 0.000000e+00
 0.000000e+00 0.000000e+00 0.000000e+00 5.392479e-01 4.607522e-01
 0.000000e+00 0.000000e+00 0.000000e+00 0.000000e+00 0.000000e+00
<ENDHMM>
~h "c"
<BEGINHMM>
<NUMSTATES> 5
<STATE> 2
<MEAN> 39
 -1.602194e+01 8.824384e+00 5.282914e+00 -7.914691e+00 6.256578e+00 -1.418875e+00 -3.092820e+00 9.758831e-01 -7.141583e+00 -3.492886e+00 2.376749e+00 -2.318316e+00 5.835386e+01 -3.870450e+00 3.488830e-01 5.418020e-01 -1.860088e+00 1.252437e+00 -4.569024e-01 -7.736332e-01 2.465674e-02 3.108350e-01 -7.290726e-03 1.404317e-01 -6.867969e-01 1.295472e+00 1.349502e-01 -2.388801e-01 5.029673e-04 1.134385e-01 -1.339952e-02 -1.914615e-01 5.128703e-02 2.152121e-02 6.090168e-02 1.414440e-01 2.095991e-01 1.168028e-01 2.972214e-01
<VARIANCE> 39
 4.970355e+01 2.253217e+01 2.857519e+01 3.613914e+01 2.669110e+01 2.456178e+01 3.459147e+01 2.203337e+01 1.954056e+01 2.179400e+01 1.670829e+01 1.538689e+01 1.496344e+01 1.929865e+00 2.429002e+00 1.850625e+00 3.083996e+00 2.308629e+00 2.644694e+00 1.805804e+00 2.289232e+00 2.497703e+00 2.277706e+00 1.956388e+00 1.364960e+00 1.812366e+00 7.724984e-01 5.751019e-01 3.682909e-01 8.677385e-01 5.308654e-01 4.932086e-01 3.573606e-01 3.701641e-01 5.114733e-01 4.448925e-01 3.100653e-01 2.829866e-01 3.883156e-01
<GCONST> 1.127249e+02
<STATE> 3
<MEAN> 39
 -2.583649e+01 5.866474e+00 7.403996e+00 -1.097707e+01 1.051949e+01 -4.563746e+00 -4.648153e+00 1.966113e+00 -5.639462e+00 -2.699783e+00 4.811708e+00 -4.109335e+00 6.318111e+01 5.225043e-01 -1.532579e+00 -4.513498e-02 7.003499e-01 1.513958e-01 -5.050551e-01 3.301356e-01 3.656831e-01 3.571520e-01 3.231860e-01 7.903541e-01 4.060182e-04 -1.644543e-01 1.167166e+00 4.479005e-02 -2.155051e-01 5.510420e-01 -3.526530e-01 2.600814e-01 1.940534e-01 -2.055771e-01 -1.484708e-02 9.660114e-02 -9.073383e-02 1.794754e-01 -5.700344e-01
<VARIANCE> 39
 1.484375e+01 2.889018e+01 2.003740e+01 2.250639e+01 2.107080e+01 2.683848e+01 2.475198e+01 2.529677e+01 2.165613e+01 1.517597e+01 1.949941e+01 1.467581e+01 5.444066e+00 3.434864e+00 1.790385e+00 1.239762e+00 2.342294e+00 2.432109e+00 1.858403e+00 1.676179e+00 1.645992e+00 1.692598e+00 1.536139e+00 1.406204e+00 1.432521e+00 1.432290e+00 3.641961e-01 5.816532e-01 2.170087e-01 3.638630e-01 3.844181e-01 3.866063e-01 2.854136e-01 4.472389e-01 3.529997e-01 3.156393e-01 3.393314e-01 2.753101e-01 1.701862e-01
<GCONST> 1.028025e+02
<STATE> 4
<MEAN> 39
 -1.544621e+01 1.794397e+00 3.282585e+00 -4.693243e+00 7.881101e+00 -1.261181e+00 -1.595980e+00 1.872312e+00 -2.862524e+00 1.995697e-01 6.127481e+00 -1.671403e+00 5.679206e+01 2.336890e+00 5.957995e-01 -2.615726e-01 1.063031e+00 -7.405803e-01 6.204450e-01 4.112592e-01 -7.161655e-01 1.220141e-01 2.973457e-01 -2.601073e-01 5.630873e-01 -7.630885e-01 -1.864500e-02 3.647971e-01 7.729503e-02 -2.361733e-01 -1.687558e-01 -7.722043e-02 -1.549626e-01 -1.482838e-01 -1.074249e-01 -9.927451e-02 -2.516194e-01 2.165467e-02 3.061301e-01
<VARIANCE> 39
 2.837455e+01 3.417356e+01 2.571233e+01 2.072248e+01 2.971658e+01 4.013541e+01 2.815150e+01 2.707883e+01 2.143872e+01 1.608365e+01 1.635374e+01 1.414467e+01 1.934813e+01 4.416409e+00 2.483366e+00 1.688009e+00 2.369975e+00 2.103172e+00 2.259361e+00 1.650676e+00 2.719289e+00 1.768624e+00 1.504498e+00 1.494920e+00 1.494582e+00 1.655292e+00 3.161865e-01 5.430632e-01 3.269617e-01 3.635634e-01 4.238458e-01 5.459908e-01 3.080160e-01 4.844726e-01 3.482768e-01 2.779557e-01 3.462826e-01 2.774824e-01 2.704819e-01
<GCONST> 1.086875e+02
<TRANSP> 5
 0.000000e+00 1.000000e+00 0.000000e+00 0.000000e+00 0.000000e+00
 0.000000e+00 7.355151e-01 2.644849e-01 0.000000e+00 0.000000e+00
 0.000000e+00 0.000000e+00 7.618477e-01 2.381522e-01 0.000000e+00
 0.000000e+00 0.000000e+00 0.000000e+00 7.211202e-01 2.788797e-01
 0.000000e+00 0.000000e+00 0.000000e+00 0.000000e+00 0.000000e+00
<ENDHMM>
~h "d"
<BEGINHMM>
<NUMSTATES> 5
<STATE> 2
<MEAN> 39
 -4.190670e+00 5.568885e+00 4.507907e+00 3.706157e+00 2.046973e-02 -1.413932e+00 -1.483760e+00 -5.190818e+00 -7.055842e+00 -1.442568e+00 1.226215e+00 2.972697e-01 5.689050e+01 -7.445863e-01 -1.574021e+00 4.013498e-01 6.630023e-01 -6.897126e-01 -4.049441e-01 7.082759e-01 3.236863e-01 2.620459e-01 1.900758e-01 -7.153356e-02 -8.089194e-01 1.547770e-01 1.092299e-01 -5.819732e-01 -1.694651e-01 -3.071585e-01 -4.405416e-02 -2.052609e-01 -3.208324e-02 1.440201e-02 2.112142e-01 4.141053e-01 2.120541e-01 4.463774e-02 7.361200e-01
<VARIANCE> 39
 1.264417e+01 2.903341e+01 3.074896e+01 2.889903e+01 2.373424e+01 2.736690e+01 2.911241e+01 2.471000e+01 2.054986e+01 2.443738e+01 2.092182e+01 1.580433e+01 2.124803e+01 1.726986e+00 5.738568e+00 2.866368e+00 4.468959e+00 2.850952e+00 3.583088e+00 2.888139e+00 2.827189e+00 2.470169e+00 3.413381e+00 3.036064e+00 1.652813e+00 3.864692e+00 3.405302e-01 8.020012e-01 4.383674e-01 6.059752e-01 5.682864e-01 6.140924e-01 5.740634e-01 8.266723e-01 5.057912e-01 6.444140e-01 5.376835e-01 3.816740e-01 6.157562e-01
<GCONST> 1.192567e+02
<STATE> 3
<MEAN> 39
 -6.657380e+00 -4.701812e+00 5.335394e+00 3.864933e+00 -2.797712e+00 -4.706623e+00 1.366725e+00 -3.702377e+00 -5.261760e+00 1.841431e+00 2.553686e+00 -2.704984e+00 6.220457e+01 2.868901e-01 -1.259462e+00 3.183617e-02 -7.498106e-02 -4.434697e-01 -2.044959e-01 5.910422e-02 -5.426086e-01 6.340533e-01 9.990082e-01 6.582858e-01 9.793171e-02 1.425635e+00 7.094718e-01 1.110362e+00 -4.489556e-01 -3.250990e-01 4.036409e-01 2.608107e-01 -4.860831e-01 -2.984131e-01 -7.316153e-03 -7.384588e-02 -6.016959e-02 5.862965e-01 -8.380231e-02
<VARIANCE> 39
 1.568489e+01 3.813282e+01 4.327734e+01 3.484647e+01 3.608353e+01 4.098590e+01 3.824663e+01 2.895143e+01 2.571600e+01 2.044386e+01 2.516795e+01 1.703105e+01 1.652575e+01 2.145025e+00 4.604978e+00 2.979208e+00 3.266773e+00 2.491886e+00 4.020966e+00 3.459239e+00 4.387233e+00 3.016568e+00 3.890784e+00 2.922738e+00 2.187954e+00 3.261130e+00 3.590108e-01 8.173182e-01 8.976588e-01 9.751582e-01 7.678167e-01 1.006488e+00 6.531951e-01 8.749441e-01 6.189659e-01 6.093526e-01 5.870833e-01 4.441638e-01 5.292498e-01
<GCONST> 1.247870e+02
<STATE> 4
<MEAN> 39
 -3.103389e+00 -6.695076e-01 3.179820e+00 3.049107e+00 -2.160766e+00 -3.573280e+00 1.351007e-02 -7.655737e+00 -4.812244e+00 3.182338e+00 3.297966e+00 3.482644e-01 6.313099e+01 1.439306e+00 1.344115e+00 -8.951769e-01 -6.548198e-01 3.745499e-01 4.129401e-01 -5.162152e-01 -4.579592e-01 9.712449e-02 -1.923914e-02 -7.344469e-02 8.807028e-01 3.960019e-01 4.278541e-02 5.389556e-01 -1.533209e-01 -1.869470e-01 2.647819e-01 7.803560e-02 -8.475852e-02 4.489552e-01 -2.132273e-01 -5.105374e-01 -2.141760e-01 4.946705e-02 -3.881229e-01
<VARIANCE> 39
 3.025131e+01 2.322931e+01 4.130238e+01 3.185334e+01 2.671874e+01 3.039775e+01 4.850925e+01 4.595258e+01 3.242954e+01 2.715161e+01 2.822459e+01 1.951236e+01 2.133174e+01 1.994732e+00 3.321985e+00 4.032370e+00 3.058793e+00 3.299005e+00 4.109036e+00 4.119598e+00 5.193988e+00 3.117548e+00 3.876229e+00 2.561702e+00 2.574634e+00 1.942972e+00 4.541401e-01 7.458681e-01 6.399127e-01 4.231477e-01 5.731920e-01 5.518547e-01 6.422067e-01 8.866126e-01 6.318607e-01 6.379737e-01 6.002730e-01 4.014822e-01 5.041859e-01
<GCONST> 1.239718e+02
<TRANSP> 5
 0.000000e+00 1.000000e+00 0.000000e+00 0.000000e+00 0.000000e+00
 0.000000e+00 4.869221e-01 5.130779e-01 0.000000e+00 0.000000e+00
 0.000000e+00 0.000000e+00 3.535851e-01 6.464149e-01 0.000000e+00
 0.000000e+00 0.000000e+00 0.000000e+00 3.875058e-01 6.124942e-01
 0.000000e+00 0.000000e+00 0.000000e+00 0.000000e+00 0.000000e+00
<ENDHMM>
~h "e"
<BEGINHMM>
<NUMSTATES> 5
<STATE> 2
<MEAN> 39
 -3.655236e+00 1.846419e+00 3.901537e+00 1.487486e-01 1.533528e+00 -5.626498e+00 -4.480034e+00 -2.992748e+00 -2.093457e+00 2.980016e+00 1.322929e+00 -3.090729e-01 6.268581e+01 1.699000e+00 6.661140e-01 -7.305321e-01 3.352480e-01 -3.821397e-01 1.204548e-01 -6.317062e-01 -8.600695e-01 3.115640e-02 1.907540e-01 -4.820762e-01 5.901701e-01 2.771935e-01 -7.627933e-01 2.412033e-02 3.001887e-01 -1.705113e-01 1.158912e-01 2.109326e-01 3.476042e-01 1.845420e-01 -2.995932e-01 -3.502146e-01 2.247172e-01 -7.802909e-02 -2.905662e-01
<VARIANCE> 39
 2.919692e+01 1.868415e+01 3.525602e+01 4.496001e+01 3.147781e+01 3.260250e+01 2.803230e+01 2.515614e+01 3.088852e+01 1.896214e+01 3.095172e+01 1.410730e+01 2.048286e+01 4.082076e+00 2.232632e+00 2.646602e+00 2.320043e+00 3.713474e+00 2.626640e+00 2.882858e+00 2.896027e+00 3.098735e+00 2.136781e+00 2.719669e+00 2.079183e+00 2.023532e+00 7.037396e-01 4.834858e-01 4.060837e-01 5.447146e-01 5.767211e-01 5.665532e-01 4.020394e-01 4.809706e-01 5.513325e-01 4.059595e-01 4.670026e-01 3.065554e-01 4.052429e-01
<GCONST> 1.173706e+02
<STATE> 3
<MEAN> 39
 -2.512071e+00 2.722197e+00 3.255905e+00 -3.705924e-01 1.341250e+00 -4.803554e+00 -4.850256e+00 -3.788755e+00 -2.649115e+00 2.837847e+00 1.827161e+00 5.281448e-01 6.267686e+01 3.261667e-02 8.100824e-01 1.359006e-01 8.595132e-02 1.309690e-01 6.070663e-01 1.941215e-01 -1.122395e-01 -5.774371e-01 -6.131909e-01 1.957253e-01 2.021173e-01 -6.445860e-01 -8.408767e-01 -9.225024e-02 3.736595e-01 -1.066097e-01 1.462116e-01 5.248446e-02 3.999166e-01 3.331580e-01 -2.179504e-01 -3.379039e-01 1.688819e-01 -2.437146e-01 -2.535767e-01
<VARIANCE> 39
 2.088244e+01 1.471456e+01 3.672665e+01 4.379807e+01 2.731160e+01 2.762859e+01 2.915969e+01 3.015628e+01 3.807956e+01 2.111436e+01 3.119771e+01 1.923300e+01 1.664070e+01 2.852187e+00 1.517543e+00 2.119701e+00 2.259336e+00 3.987598e+00 2.427168e+00 2.165500e+00 2.363811e+00 2.635175e+00 1.946221e+00 2.297024e+00 1.592649e+00 1.883493e+00 6.622519e-01 3.645978e-01 4.544356e-01 4.911406e-01 6.048502e-01 4.670338e-01 4.422026e-01 5.197992e-01 6.095962e-01 3.880501e-01 4.308155e-01 3.811042e-01 3.099779e-01
<GCONST> 1.145164e+02
<STATE> 4
<MEAN> 39
 -4.178526e+00 4.406106e+00 4.169277e+00 -3.751790e-02 2.108380e+00 -3.354134e+00 -3.798302e+00 -3.318603e+00 -4.193030e+00 1.057899e+00 2.428046e+00 6.256221e-01 6.003980e+01 -9.636412e-01 5.520846e-01 5.277330e-01 5.684073e-03 2.585042e-01 5.335076e-01 6.525049e-01 3.444255e-01 -5.968714e-01 -9.254978e-01 1.496554e-01 -1.811723e-01 -8.231471e-01 -4.958736e-01 -2.922697e-01 1.097302e-01 -1.678320e-01 -2.328202e-02 -1.723590e-01 1.304874e-01 1.839553e-01 4.780130e-02 -1.364049e-02 2.559527e-03 -1.926727e-01 1.624229e-01
<VARIANCE> 39
 2.351506e+01 1.602043e+01 3.572961e+01 3.901529e+01 2.950475e+01 2.744548e+01 2.935711e+01 2.626094e+01 3.386661e+01 2.087398e+01 2.792002e+01 1.668740e+01 2.153047e+01 3.181859e+00 1.704522e+00 2.234679e+00 2.745902e+00 4.317751e+00 2.610416e+00 1.916952e+00 2.426235e+00 3.037294e+00 2.042756e+00 2.373873e+00 1.677068e+00 1.816895e+00 4.720495e-01 2.680073e-01 3.634163e-01 3.794856e-01 5.034515e-01 4.129184e-01 4.497035e-01 4.023362e-01 4.701526e-01 3.744097e-01 3.911888e-01 2.804047e-01 2.884777e-01
<GCONST> 1.127164e+02
<TRANSP> 5
 0.000000e+00 1.000000e+00 0.000000e+00 0.000000e+00 0.000000e+00
 0.000000e+00 2.725327e-01 7.274673e-01 0.000000e+00 0.000000e+00
 0.000000e+00 0.000000e+00 1.785198e-01 8.214801e-01 0.000000e+00
 0.000000e+00 0.000000e+00 0.000000e+00 2.169606e-01 7.830393e-01
 0.000000e+00 0.000000e+00 0.000000e+00 0.000000e+00 0.000000e+00
<ENDHMM>
~h "f"
<BEGINHMM>
<NUMSTATES> 5
<STATE> 2
<MEAN> 39
 -1.122207e+01 1.619835e+00 -6.374899e-01 -2.810825e-01 2.237978e+00 2.475625e+00 -1.956970e-01 3.753957e-01 -3.006866e-01 -2.827060e-02 1.844705e+00 2.448766e-01 5.252328e+01 -7.073145e-01 -3.142420e-01 5.540118e-03 7.721688e-02 6.929562e-02 -1.223647e-01 -1.806579e-01 -1.900780e-02 1.835865e-01 -3.375643e-02 1.185142e-01 -1.935476e-01 -1.855205e-01 6.055553e-02 -1.031338e-01 -1.472304e-02 -1.270969e-01 -6.984420e-03 -1.167655e-01 -4.424819e-02 -4.480505e-02 -7.389933e-02 5.201548e-02 4.785830e-02 1.957254e-02 1.769028e-01
<VARIANCE> 39
 1.383293e+01 2.468141e+01 1.894080e+01 1.547595e+01 1.194872e+01 1.737348e+01 1.906529e+01 2.160009e+01 2.256378e+01 1.673129e+01 1.714573e+01 1.014382e+01 1.127459e+01 1.342623e+00 9.717205e-01 8.479869e-01 1.136418e+00 1.599838e+00 1.578900e+00 1.849522e+00 1.751277e+00 1.672723e+00 1.364213e+00 1.687558e+00 1.136136e+00 6.869304e-01 9.616648e-02 1.301465e-01 1.358082e-01 2.441663e-01 2.339770e-01 3.430955e-01 2.708621e-01 2.796479e-01 2.963505e-01 2.940544e-01 2.648619e-01 2.016068e-01 9.133101e-02
<GCONST> 9.083984e+01
<STATE> 3
<MEAN> 39
 -1.298089e+01 1.121759e+00 2.420022e+00 -3.581825e-01 3.823268e+00 -4.365912e-01 -2.834198e+00 -2.801931e+00 -3.507908e+00 -1.225598e+00 4.158815e+00 -1.060508e+00 5.643557e+01 -8.456898e-01 -1.015341e+00 1.247767e-02 -3.946172e-01 4.754182e-01 -3.929296e-01 -6.675827e-01 -2.874462e-02 9.460735e-02 2.649737e-01 6.154814e-01 -2.237161e-01 4.573956e-01 3.612617e-01 6.561058e-02 2.552360e-02 -1.911489e-01 2.296827e-02 1.572464e-01 2.782354e-01 1.627126e-01 -9.737597e-02 1.096569e-01 -9.294325e-03 2.196035e-01 1.186258e-01
<VARIANCE> 39
 1.421915e+01 2.079379e+01 1.590392e+01 2.623364e+01 1.351662e+01 1.906997e+01 2.172030e+01 2.359768e+01 1.616134e+01 1.809969e+01 2.027585e+01 1.322017e+01 1.486038e+01 2.253412e+00 1.850044e+00 1.144017e+00 2.491136e+00 1.628028e+00 2.265141e+00 2.196796e+00 2.973630e+00 1.636160e+00 1.548358e+00 1.765393e+00 1.464365e+00 1.313973e+00 3.629008e-01 4.732939e-01 3.115067e-01 3.133889e-01 2.644987e-01 5.288777e-01 3.800797e-01 4.888215e-01 3.562887e-01 4.407277e-01 4.897701e-01 2.791949e-01 2.759809e-01
<GCONST> 1.041022e+02
<STATE> 4
<MEAN> 39
 -1.216996e+01 -2.936952e-01 1.249614e+00 -2.956040e+00 3.586283e+00 1.802114e+00 -2.457146e-01 -3.865575e-01 -3.415322e+00 7.709485e-01 5.856551e+00 8.903734e-02 5.715860e+01 5.936936e-01 4.909752e-01 2.591229e-01 -2.125052e-01 -2.665669e-01 1.099746e-02 1.708995e-01 -7.121547e-02 -1.993538e-01 -1.292124e-01 -3.489356e-01 1.598949e-02 1.277304e-01 1.632807e-01 1.835176e-01 8.307199e-02 9.008872e-02 -2.271644e-01 -1.319699e-01 1.657200e-01 3.826199e-02 -5.762655e-02 1.366536e-02 -2.726365e-01 -2.236164e-02 5.202024e-02
<VARIANCE> 39
 3.091844e+01 2.362274e+01 3.013452e+01 5.006973e+01 2.961797e+01 3.422771e+01 3.789515e+01 2.813569e+01 3.592367e+01 2.082856e+01 1.630366e+01 1.430558e+01 3.094556e+01 4.022310e+00 3.213168e+00 1.641442e+00 2.996495e+00 2.753786e+00 4.008670e+00 2.883388e+00 2.056039e+00 2.972582e+00 2.117646e+00 1.988548e+00 1.566443e+00 3.894872e+00 4.883282e-01 5.530519e-01 3.307535e-01 5.146664e-01 4.099406e-01 7.382982e-01 4.643212e-01 4.363298e-01 5.202231e-01 4.012870e-01 3.995667e-01 3.291979e-01 6.156584e-01
<GCONST> 1.177026e+02
<TRANSP> 5
 0.000000e+00 1.000000e+00 0.000000e+00 0.000000e+00 0.000000e+00
 0.000000e+00 7.545582e-01 2.454418e-01 0.000000e+00 0.000000e+00
 0.000000e+00 0.000000e+00 5.084307e-01 4.915694e-01 0.000000e+00
 0.000000e+00 0.000000e+00 0.000000e+00 6.643102e-01 3.356898e-01
 0.000000e+00 0.000000e+00 0.000000e+00 0.000000e+00 0.000000e+00
<ENDHMM>
~h "g"
<BEGINHMM>
<NUMSTATES> 5
<STATE> 2
<MEAN> 39
 -6.208999e+00 2.772224e+00 2.515903e+00 4.459726e+00 4.038283e+00 -3.141549e+00 -6.950562e+00 3.181993e+00 -8.383394e-01 -4.035002e+00 2.166963e+00 -2.523051e-01 5.926292e+01 -7.139688e-01 -3.370932e-01 1.301108e+00 -1.660770e-01 2.269499e-01 7.243631e-01 -1.039721e+00 8.687685e-01 -2.591750e-01 -8.128803e-02 6.153567e-01 -4.351310e-01 1.952964e-01 2.623959e-01 1.795723e-01 3.051462e-01 2.842790e-02 -1.344248e-01 -2.241181e-01 1.950714e-01 -6.382821e-01 -2.236374e-01 2.921545e-01 -1.546522e-01 -9.931894e-02 1.201058e-01
<VARIANCE> 39
 2.566159e+01 3.005498e+01 2.895805e+01 2.112184e+01 2.934871e+01 4.149186e+01 6.709341e+01 3.535365e+01 4.408688e+01 2.730787e+01 5.477959e+01 2.596323e+01 2.484564e+01 1.417178e+00 3.206766e+00 2.180229e+00 2.468077e+00 2.957372e+00 3.296171e+00 8.451748e+00 4.370896e+00 2.642614e+00 2.957128e+00 4.137744e+00 1.620621e+00 2.917398e+00 6.622642e-01 5.520428e-01 6.916607e-01 1.006554e+00 9.006159e-01 8.256011e-01 2.244117e+00 6.358576e-01 8.824764e-01 6.666040e-01 1.495878e+00 4.210258e-01 5.177156e-01
<GCONST> 1.283361e+02
<STATE> 3
<MEAN> 39
 -6.050140e+00 4.553606e+00 5.597159e+00 4.743308e+00 3.735378e+00 -3.391930e+00 -7.200231e+00 -1.497588e-01 -9.424280e-01 -3.413955e+00 6.924913e-01 -4.338020e-01 5.787457e+01 1.055661e+00 3.249428e-02 -6.789698e-02 2.876435e-01 6.379049e-02 -1.713602e+00 4.055268e-01 -9.831443e-01 2.847897e-01 7.644638e-01 -1.494470e+00 -4.387062e-01 8.975620e-01 2.853488e-01 -3.576031e-01 -6.040486e-01 -1.619224e-01 -1.983797e-01 -2.486248e-01 3.598715e-01 -3.221443e-01 -1.047617e-01 4.819196e-01 -1.663804e-02 2.013749e-03 3.495037e-01
<VARIANCE> 39
 1.458738e+01 2.210279e+01 4.096167e+01 8.853909e+00 2.228080e+01 3.441107e+01 2.551762e+01 1.142895e+01 2.764609e+01 2.063010e+01 3.660452e+01 1.747385e+01 2.150416e+01 3.060696e+00 3.052312e+00 2.786282e+00 2.261169e+00 3.351867e+00 6.059511e+00 6.343245e+00 1.881222e+00 3.638935e+00 4.416659e+00 7.257120e+00 1.908848e+00 2.249327e+00 3.782529e-01 7.201883e-01 6.929341e-01 3.341467e-01 6.217005e-01 9.845132e-01 6.907898e-01 3.631484e-01 3.701014e-01 3.648568e-01 1.327900e+00 3.420933e-01 6.132485e-01
<GCONST> 1.194038e+02
<STATE> 4
<MEAN> 39
 -3.413777e+00 1.089206e+00 1.749807e+00 3.947058e+00 3.875840e+00 -6.340625e+00 -5.839638e+00 -2.706135e+00 -1.873741e+00 3.220407e+00 -8.152589e-01 -1.083628e+00 6.177983e+01 4.435474e-01 -1.062534e+00 -2.353140e-01 -4.131193e-01 -7.358266e-01 -4.737762e-01 4.006877e-01 -5.322936e-01 -7.556082e-01 1.223686e+00 4.316837e-01 -2.441784e-02 1.140360e+00 -3.394072e-01 1.087872e-02 1.499328e-01 -1.142188e-01 -1.307121e-01 6.447555e-01 -3.348488e-02 2.955588e-01 -2.211628e-01 -5.033979e-01 8.147914e-01 6.204515e-02 -2.622428e-01
<VARIANCE> 39
 9.972835e+00 3.452996e+01 3.446040e+01 2.523892e+01 3.754166e+01 5.787756e+01 4.221066e+01 2.644383e+01 2.268122e+01 5.158855e+01 3.548946e+01 1.241309e+01 3.816467e+01 3.339435e+00 3.242530e+00 3.736631e+00 3.344975e+00 3.718219e+00 2.176061e+00 2.445373e+00 3.042186e+00 2.588561e+00 3.443791e+00 3.161952e+00 2.015718e+00 3.036316e+00 3.302610e-01 8.816673e-01 7.324190e-01 4.340824e-01 5.032991e-01 1.145505e+00 9.162173e-01 6.283949e-01 4.760543e-01 9.282510e-01 6.690801e-01 2.790473e-01 7.227006e-01
<GCONST> 1.236369e+02
<TRANSP> 5
 0.000000e+00 1.000000e+00 0.000000e+00 0.000000e+00 0.000000e+00
 0.000000e+00 5.510144e-01 4.489856e-01 0.000000e+00 0.000000e+00
 0.000000e+00 0.000000e+00 4.642148e-01 5.357852e-01 0.000000e+00
 0.000000e+00 0.000000e+00 0.000000e+00 2.862697e-01 7.137303e-01
 0.000000e+00 0.000000e+00 0.000000e+00 0.000000e+00 0.000000e+00
<ENDHMM>
~h "h"
<BEGINHMM>
<NUMSTATES> 5
<STATE> 2
<MEAN> 39
 -2.032280e+00 5.593153e+00 1.740518e+00 -1.011645e-01 3.284312e+00 3.108170e+00 1.812227e+00 -2.343325e+00 -2.143752e+00 8.466461e-01 2.759792e+00 2.347513e+00 6.057403e+01 -4.445760e-02 3.686063e-01 -5.917102e-02 -1.666616e-01 2.098725e-01 1.427186e+00 1.032945e+00 1.242874e-01 -8.463163e-01 -5.611302e-01 2.729585e-01 1.018295e+00 -6.213054e-01 3.155486e-02 -1.272116e-01 -5.407354e-03 -9.535431e-02 -2.582592e-01 -2.315415e-01 -7.649381e-02 1.365454e-01 -1.473831e-01 -4.135868e-02 -1.986603e-01 4.244333e-02 9.788874e-02
<VARIANCE> 39
 1.276603e+01 1.006919e+01 1.386488e+01 2.957047e+01 3.061117e+01 2.625953e+01 3.331340e+01 3.163512e+01 2.412741e+01 2.221732e+01 2.412878e+01 2.035102e+01 9.692464e+00 6.833498e-01 5.590123e-01 1.272724e+00 2.126137e+00 2.083938e+00 1.722906e+00 1.574209e+00 2.054249e+00 2.910740e+00 2.109159e+00 1.928860e+00 1.521202e+00 5.466138e-01 9.557758e-02 1.042123e-01 1.983249e-01 1.801650e-01 3.141374e-01 2.969284e-01 3.163649e-01 3.653529e-01 2.715637e-01 3.850223e-01 4.226776e-01 2.380351e-01 8.888695e-02
<GCONST> 9.627784e+01
<STATE> 3
<MEAN> 39
 -2.212333e+00 5.751693e+00 7.437217e-01 -1.845983e+00 3.668053e+00 6.138505e+00 5.009071e+00 1.627453e-01 -4.368900e+00 -2.110775e+00 3.326855e+00 5.994867e+00 5.964405e+01 6.091329e-02 2.264190e-01 -5.372214e-02 -1.450406e-01 -1.960711e-01 2.239174e-01 3.467511e-01 2.424837e-01 -4.426509e-01 -5.170577e-01 -2.614015e-01 3.528365e-01 -2.818480e-01 2.692955e-02 -2.897628e-02 1.520437e-02 2.564704e-02 -9.357353e-02 -3.531606e-01 -2.794840e-01 -1.730717e-01 1.923126e-01 1.533898e-01 -1.459914e-01 -2.862770e-01 1.119100e-01
<VARIANCE> 39
 8.750746e+00 7.368164e+00 9.506729e+00 1.528116e+01 1.980945e+01 1.918348e+01 2.357980e+01 2.904497e+01 2.110120e+01 2.596287e+01 1.751913e+01 1.566868e+01 7.173303e+00 4.791573e-01 5.242807e-01 8.163469e-01 9.199125e-01 1.406135e+00 1.506339e+00 1.035926e+00 1.476716e+00 1.523557e+00 1.624898e+00 1.325249e+00 1.285887e+00 3.337752e-01 9.725378e-02 1.113899e-01 1.494231e-01 1.473427e-01 2.331790e-01 2.502710e-01 2.043877e-01 2.797782e-01 2.645443e-01 3.035729e-01 2.379406e-01 2.050239e-01 6.419927e-02
<GCONST> 8.470119e+01
<STATE> 4
<MEAN> 39
 -2.147506e+00 7.359605e+00 1.926150e+00 -1.342544e+00 1.443770e+00 4.224092e+00 4.642844e+00 -4.181723e-01 -3.734480e+00 -1.912867e+00 4.152514e-01 4.186315e+00 5.863434e+01 -1.873615e-01 -2.897241e-02 3.139823e-01 2.027578e-01 -2.325887e-01 -4.836545e-01 -5.616802e-01 -3.362682e-01 2.037178e-01 4.166936e-01 -2.583987e-01 -7.080081e-01 -1.433408e-01 -1.925218e-01 -1.205637e-01 1.350215e-01 7.358512e-02 8.071531e-02 -8.830745e-02 -2.073161e-01 7.910698e-03 -1.877417e-02 6.710397e-03 1.568912e-01 -1.799615e-01 -4.019729e-02
<VARIANCE> 39
 9.796556e+00 1.029705e+01 1.081971e+01 2.212932e+01 4.033001e+01 2.120926e+01 2.559494e+01 2.985073e+01 2.664109e+01 2.672927e+01 3.152652e+01 1.989813e+01 1.008518e+01 4.796312e-01 5.913850e-01 1.168230e+00 1.602521e+00 1.477564e+00 1.845270e+00 2.173129e+00 1.273898e+00 1.596980e+00 1.477057e+00 1.209972e+00 1.462499e+00 5.159125e-01 9.572943e-02 1.044628e-01 2.121426e-01 2.638125e-01 3.472897e-01 3.200528e-01 4.190991e-01 3.273822e-01 3.715387e-01 3.697578e-01 2.680004e-01 3.622406e-01 9.142771e-02
<GCONST> 9.425490e+01
<TRANSP> 5
 0.000000e+00 1.000000e+00 0.000000e+00 0.000000e+00 0.000000e+00
 0.000000e+00 3.256621e-01 6.743379e-01 0.000000e+00 0.000000e+00
 0.000000e+00 0.000000e+00 6.379654e-01 3.620347e-01 0.000000e+00
 0.000000e+00 0.000000e+00 0.000000e+00 5.934738e-01 4.065262e-01
 0.000000e+00 0.000000e+00 0.000000e+00 0.000000e+00 0.000000e+00
<ENDHMM>
~h "i"
<BEGINHMM>
<NUMSTATES> 5
<STATE> 2
<MEAN> 39
 -2.734501e+00 1.822949e+00 4.944052e+00 4.827474e+00 -3.910308e-02 -7.177460e+00 -5.784826e+00 -6.149587e+00 -4.888311e-01 2.728654e+00 -6.357822e-01 -1.705848e+00 6.261172e+01 8.165227e-01 1.991130e-01 -4.748063e-01 4.829835e-01 -3.445270e-02 -6.053424e-01 -6.340624e-01 -4.652224e-01 5.242613e-01 1.479383e-01 -7.702088e-01 2.441751e-01 2.252717e-01 -4.403600e-01 1.715378e-01 1.451718e-01 -3.597856e-01 1.264453e-01 4.482090e-01 3.376867e-01 3.513287e-01 -5.534065e-01 -4.239129e-01 3.493208e-01 1.709644e-01 -3.751206e-01
<VARIANCE> 39
 2.033846e+01 1.773664e+01 3.431443e+01 2.827003e+01 3.259051e+01 2.699840e+01 3.134309e+01 3.677341e+01 2.670939e+01 2.243184e+01 2.406775e+01 1.886999e+01 1.782326e+01 2.607279e+00 1.968044e+00 2.334365e+00 2.267352e+00 2.842758e+00 3.341794e+00 2.313775e+00 3.197317e+00 3.318867e+00 2.262138e+00 2.793769e+00 1.738390e+00 2.036232e+00 5.133051e-01 3.985671e-01 3.921259e-01 3.877983e-01 5.591767e-01 5.833969e-01 4.498373e-01 5.515260e-01 4.758972e-01 4.113227e-01 4.241112e-01 3.123813e-01 2.922771e-01
<GCONST> 1.146617e+02
<STATE> 3
<MEAN> 39
 -2.967197e+00 3.152259e+00 4.988456e+00 5.012137e+00 9.352530e-01 -6.424833e+00 -6.019634e+00 -4.911857e+00 -2.720506e-01 1.377201e+00 -1.021713e+00 -2.156067e-01 6.108727e+01 -3.028698e-01 8.287261e-01 7.811578e-02 -3.568673e-01 5.398948e-01 9.086042e-01 1.975976e-01 4.340371e-01 -9.425621e-01 -7.166210e-01 4.464190e-01 4.072942e-01 -1.000381e+00 -4.272763e-01 3.797465e-02 1.243194e-01 -3.194129e-01 -3.665537e-03 3.249283e-01 3.665648e-01 2.113510e-01 -4.216805e-01 -2.063176e-01 3.181249e-01 -1.143893e-01 -2.290180e-01
<VARIANCE> 39
 1.673804e+01 1.412403e+01 2.884926e+01 3.239359e+01 2.850413e+01 2.715308e+01 3.351491e+01 3.781301e+01 3.931339e+01 2.381947e+01 2.645150e+01 1.502785e+01 1.486972e+01 2.027998e+00 1.528143e+00 2.212884e+00 1.872617e+00 2.677556e+00 2.346722e+00 2.217199e+00 2.367798e+00 2.596913e+00 1.880335e+00 2.032197e+00 1.462204e+00 1.954634e+00 4.331447e-01 2.878264e-01 3.603806e-01 4.112300e-01 5.301911e-01 5.038054e-01 4.258334e-01 5.225760e-01 5.406466e-01 3.589676e-01 4.712485e-01 2.952041e-01 2.395265e-01
<GCONST> 1.108444e+02
<STATE> 4
<MEAN> 39
 -6.257447e+00 5.666272e+00 5.365494e+00 3.194673e+00 2.135001e+00 -3.116817e+00 -5.340048e+00 -3.667856e+00 -3.573698e+00 -1.083814e+00 6.848087e-01 -1.576146e-01 5.617484e+01 -7.445043e-01 2.562239e-01 -1.474947e-01 -6.696236e-01 6.232915e-02 7.098286e-01 6.173344e-01 3.021595e-01 -8.713337e-01 -4.923471e-01 4.515345e-01 3.182176e-02 -7.601328e-01 -8.141020e-02 -2.959019e-01 -4.487909e-02 -1.031683e-01 -1.442554e-01 -1.253275e-01 1.369283e-01 2.630587e-02 1.405974e-01 1.572428e-01 -6.601146e-03 -9.558506e-02 2.903800e-01
<VARIANCE> 39
 1.949735e+01 1.604363e+01 2.669167e+01 2.655363e+01 2.290354e+01 2.380649e+01 3.252848e+01 3.107336e+01 3.450087e+01 2.379696e+01 2.543155e+01 1.564618e+01 1.908976e+01 2.143979e+00 1.845820e+00 2.029101e+00 2.205722e+00 2.908075e+00 2.091221e+00 2.144335e+00 2.607101e+00 2.496834e+00 2.126244e+00 2.272678e+00 1.578324e+00 1.752114e+00 3.454674e-01 3.247203e-01 3.274392e-01 4.310856e-01 4.427281e-01 4.301899e-01 4.112945e-01 5.029415e-01 4.355765e-01 4.082377e-01 4.360353e-01 3.027104e-01 2.736801e-01
<GCONST> 1.103326e+02
<TRANSP> 5
 0.000000e+00 1.000000e+00 0.000000e+00 0.000000e+00 0.000000e+00
 0.000000e+00 4.679537e-01 5.320463e-01 0.000000e+00 0.000000e+00
 0.000000e+00 0.000000e+00 3.558332e-01 6.441668e-01 0.000000e+00
 0.000000e+00 0.000000e+00 0.000000e+00 5.421607e-01 4.578393e-01
 0.000000e+00 0.000000e+00 0.000000e+00 0.000000e+00 0.000000e+00
<ENDHMM>
~h "j"
<BEGINHMM>
<NUMSTATES> 5
<STATE> 2
<MEAN> 39
 -3.012301e+00 1.885532e+00 4.115248e+00 5.654458e+00 8.053457e-01 -7.507236e+00 -6.473242e+00 -4.787861e+00 7.829854e-01 2.246811e+00 -8.992690e-01 -2.676835e+00 6.233087e+01 8.160033e-01 -4.199963e-01 2.887621e-01 8.397616e-01 -7.845812e-01 -1.789820e+00 -6.801791e-01 -1.556988e-01 4.087515e-01 2.474665e-02 -9.737214e-01 -2.576770e-01 1.110434e+00 -2.050765e-01 9.525840e-02 2.905010e-02 -3.388427e-01 -2.440751e-02 3.001136e-01 3.697807e-01 2.263151e-01 -4.253524e-01 -1.981892e-01 1.461895e-01 2.385999e-01 -1.989037e-01
<VARIANCE> 39
 2.786307e+01 1.516005e+01 4.007689e+01 2.606203e+01 3.110153e+01 3.066787e+01 3.147657e+01 4.538697e+01 2.456793e+01 2.654778e+01 1.702407e+01 1.693159e+01 2.370152e+01 2.522191e+00 1.297951e+00 2.679559e+00 2.124434e+00 2.434785e+00 2.518309e+00 2.406340e+00 3.015350e+00 2.203095e+00 2.088309e+00 1.892670e+00 1.696982e+00 2.500672e+00 3.346904e-01 2.550792e-01 2.823904e-01 2.442308e-01 4.476575e-01 5.065713e-01 5.690261e-01 5.928988e-01 4.444208e-01 4.248224e-01 3.956993e-01 2.752515e-01 2.471202e-01
<GCONST> 1.114517e+02
<STATE> 3
<MEAN> 39
 -1.843956e+00 9.964651e-01 5.359228e+00 6.935193e+00 -2.820805e+00 -1.058267e+01 -5.360432e+00 -3.529175e+00 1.081544e+00 1.125888e+00 -2.982670e+00 -1.901046e+00 6.434880e+01 1.738743e-02 1.285819e-01 1.179681e-01 -8.897289e-02 -5.699284e-03 -1.411950e-01 -5.996069e-02 4.179089e-01 -1.929699e-01 -1.145421e-01 -1.199952e-01 2.738379e-01 -5.351683e-02 -1.754535e-01 2.796670e-01 -8.542008e-03 -3.378707e-01 4.300949e-01 5.287259e-01 1.059309e-02 4.119309e-03 -2.472171e-01 -4.988792e-03 3.152523e-01 7.484160e-02 -3.474770e-01
<VARIANCE> 39
 9.876005e+00 1.059010e+01 3.808295e+01 2.813077e+01 2.439848e+01 2.104964e+01 2.621973e+01 3.402541e+01 1.966226e+01 4.185662e+01 1.675628e+01 1.315835e+01 1.451275e+01 6.261381e-01 8.007450e-01 1.453323e+00 1.657492e+00 2.678385e+00 1.419136e+00 2.109206e+00 2.027818e+00 1.245117e+00 1.800308e+00 1.253502e+00 1.016903e+00 8.707078e-01 1.574243e-01 1.237448e-01 2.444884e-01 2.411266e-01 3.332907e-01 3.297255e-01 3.620559e-01 3.926367e-01 3.457954e-01 2.986963e-01 3.047270e-01 1.968741e-01 2.003859e-01
<GCONST> 9.739174e+01
<STATE> 4
<MEAN> 39
 -2.460860e+00 2.936212e+00 5.591662e+00 6.011375e+00 -3.190486e-01 -8.350571e+00 -6.568996e+00 -3.136435e+00 -1.798245e-01 4.413495e-01 -1.741878e+00 -5.169442e-01 6.167813e+01 -4.392408e-01 7.014461e-01 2.982374e-02 -9.375394e-01 8.647010e-01 1.043343e+00 -4.784876e-02 -2.176511e-02 -8.968003e-01 5.880352e-02 7.435439e-01 2.423941e-01 -8.378724e-01 -2.388029e-01 9.806037e-02 6.746815e-02 -1.828695e-01 8.604693e-02 2.437917e-01 1.280912e-01 -1.945931e-01 -2.704080e-01 -3.096893e-02 2.408075e-01 -8.057743e-02 -1.687127e-01
<VARIANCE> 39
 1.559829e+01 1.146157e+01 3.534151e+01 2.971522e+01 2.099649e+01 2.657294e+01 2.623698e+01 3.463980e+01 2.007751e+01 3.373031e+01 1.851908e+01 1.395807e+01 2.098246e+01 9.766186e-01 1.227747e+00 1.788265e+00 1.409739e+00 2.551277e+00 1.791963e+00 2.403143e+00 2.643945e+00 1.956101e+00 2.098908e+00 1.483978e+00 1.262742e+00 1.666137e+00 2.305916e-01 2.845182e-01 4.217805e-01 3.478636e-01 5.195992e-01 4.431948e-01 4.551571e-01 5.014566e-01 3.509036e-01 4.196473e-01 2.999424e-01 3.369396e-01 3.935478e-01
<GCONST> 1.063698e+02
<TRANSP> 5
 0.000000e+00 1.000000e+00 0.000000e+00 0.000000e+00 0.000000e+00
 0.000000e+00 4.119639e-01 5.880361e-01 0.000000e+00 0.000000e+00
 0.000000e+00 0.000000e+00 6.115099e-01 3.884901e-01 0.000000e+00
 0.000000e+00 0.000000e+00 0.000000e+00 3.554982e-01 6.445019e-01
 0.000000e+00 0.000000e+00 0.000000e+00 0.000000e+00 0.000000e+00
<ENDHMM>
~h "k"
<BEGINHMM>
<NUMSTATES> 5
<STATE> 2
<MEAN> 39
 -1.284125e+01 4.559578e+00 3.306853e+00 4.900150e-01 4.934907e+00 -7.620265e-01 -3.093650e+00 -1.022758e+00 -2.848870e+00 -1.296770e+00 2.222968e+00 -2.479462e-02 5.187170e+01 3.466186e-02 -1.489827e+00 -1.119285e+00 -9.041979e-01 -3.687115e-01 8.519008e-02 -9.341766e-02 4.923223e-01 3.240521e-01 -1.237087e-02 6.183428e-01 -3.366570e-01 7.810195e-01 2.352458e-02 -6.054186e-01 -1.671657e-01 -5.048668e-01 1.907369e-01 -2.087639e-02 -2.575515e-01 1.353219e-01 -5.680541e-03 -1.177294e-02 3.439444e-01 -9.287312e-02 7.730755e-01
<VARIANCE> 39
 1.798630e+01 1.423066e+01 1.840962e+01 2.852090e+01 2.669587e+01 2.598012e+01 2.873515e+01 2.314221e+01 2.083346e+01 2.201343e+01 2.055188e+01 1.592126e+01 6.241390e+00 1.124184e+00 3.728782e+00 3.365630e+00 4.351926e+00 4.134833e+00 3.321153e+00 3.840242e+00 3.226496e+00 2.847577e+00 2.607730e+00 3.246178e+00 1.795222e+00 2.963228e+00 1.873696e-01 4.872595e-01 4.808183e-01 5.771904e-01 5.042753e-01 4.449291e-01 5.597894e-01 4.872951e-01 4.649937e-01 4.106592e-01 5.682129e-01 3.869748e-01 3.304640e-01
<GCONST> 1.136386e+02
<STATE> 3
<MEAN> 39
 -1.257710e+01 -3.471819e+00 -1.717149e+00 -7.447592e+00 5.078209e+00 -1.760043e-01 -5.326508e+00 1.230857e+00 -2.480346e+00 -2.251981e+00 7.341032e+00 -1.247327e+00 5.883110e+01 5.042337e-01 -2.951291e-01 4.047063e-01 -2.708024e-01 -2.418377e-01 5.954588e-02 -3.065011e-01 4.342015e-01 7.588982e-02 4.999613e-02 2.791450e-01 1.435405e-02 6.931494e-01 4.650577e-01 1.004476e+00 6.933469e-01 9.370094e-01 -1.005743e-01 -1.117989e-01 2.038716e-01 -3.353153e-01 -1.715199e-02 2.511484e-01 -8.175879e-01 1.731279e-01 -3.969625e-01
<VARIANCE> 39
 1.582538e+01 2.226878e+01 4.701939e+01 5.134767e+01 5.152184e+01 4.305142e+01 4.250356e+01 4.070354e+01 3.317796e+01 3.806872e+01 2.601020e+01 2.663910e+01 1.707274e+01 1.613635e+00 4.435989e+00 4.580858e+00 6.951167e+00 3.538984e+00 3.099649e+00 3.664315e+00 3.114608e+00 2.539818e+00 2.675380e+00 3.693384e+00 2.037061e+00 2.538574e+00 3.523774e-01 5.567063e-01 6.920229e-01 1.027215e+00 8.762482e-01 7.099321e-01 7.953105e-01 8.577359e-01 5.127810e-01 6.563423e-01 6.777661e-01 3.990488e-01 4.559743e-01
<GCONST> 1.261267e+02
<STATE> 4
<MEAN> 39
 -1.108868e+01 4.548410e-01 2.523812e+00 -1.018790e+00 5.357225e+00 7.245409e-01 -3.692064e+00 2.381258e+00 -5.933031e-01 3.521042e-01 4.131064e+00 -6.119447e-01 5.534320e+01 1.981980e+00 1.113643e+00 4.313537e-01 9.928318e-01 -4.523587e-01 -2.251411e-01 3.058914e-01 -6.727898e-01 8.468024e-02 6.803517e-01 -1.549611e+00 2.455066e-01 6.512389e-01 3.095691e-01 -5.254039e-02 -2.909394e-01 -2.015392e-01 -1.962548e-01 -2.321632e-01 -1.209450e-02 -3.106883e-01 -8.276875e-02 6.504743e-02 -1.621542e-01 6.157213e-02 3.881790e-01
<VARIANCE> 39
 2.941218e+01 1.979141e+01 3.283846e+01 3.208902e+01 2.961499e+01 3.629221e+01 3.821626e+01 3.047151e+01 3.087983e+01 2.783044e+01 2.253361e+01 2.233468e+01 1.514467e+01 3.595962e+00 2.229703e+00 2.758293e+00 4.391680e+00 3.033333e+00 2.839894e+00 2.879273e+00 3.232149e+00 2.329148e+00 3.221400e+00 3.498954e+00 1.990030e+00 2.558650e+00 3.748214e-01 4.117602e-01 4.604543e-01 7.806925e-01 5.010158e-01 4.320827e-01 4.410941e-01 5.510249e-01 4.665309e-01 4.465652e-01 4.985092e-01 3.287561e-01 3.186302e-01
<GCONST> 1.182371e+02
<TRANSP> 5
 0.000000e+00 1.000000e+00 0.000000e+00 0.000000e+00 0.000000e+00
 0.000000e+00 6.309718e-01 3.690282e-01 0.000000e+00 0.000000e+00
 0.000000e+00 0.000000e+00 6.116179e-01 3.883821e-01 0.000000e+00
 0.000000e+00 0.000000e+00 0.000000e+00 5.124456e-01 4.875544e-01
 0.000000e+00 0.000000e+00 0.000000e+00 0.000000e+00 0.000000e+00
<ENDHMM>
~h "l"
<BEGINHMM>
<NUMSTATES> 5
<STATE> 2
<MEAN> 39
 1.671927e+00 2.422777e+00 -3.538870e-01 -5.466746e+00 -6.508910e+00 -2.796178e+00 5.495759e+00 -3.378113e-02 -1.112412e+01 -8.734283e-01 4.031199e+00 3.360514e+00 6.384613e+01 1.320468e+00 -1.288429e-01 -8.304800e-01 -1.326118e-01 -1.353212e+00 -4.840285e-01 9.424316e-01 2.591828e-01 -1.126145e+00 -2.083274e-01 1.700297e-01 2.047735e-01 5.836806e-01 -6.153355e-01 -4.819589e-02 1.660952e-01 9.710174e-02 6.076130e-01 1.332153e-01 -4.017001e-01 -5.899322e-02 3.562938e-01 1.004320e-01 -1.845924e-02 -1.984122e-01 -2.540480e-01
<VARIANCE> 39
 9.023428e+00 1.593474e+01 1.615672e+01 4.581933e+01 3.254965e+01 2.206017e+01 2.752557e+01 4.877207e+01 2.574571e+01 2.557801e+01 2.791512e+01 2.001652e+01 9.079048e+00 1.833146e+00 1.317442e+00 1.287637e+00 4.176235e+00 2.567599e+00 2.157017e+00 2.355549e+00 2.789947e+00 2.444341e+00 2.445980e+00 2.475484e+00 1.680707e+00 1.851607e+00 2.340085e-01 3.489000e-01 2.964752e-01 5.143148e-01 4.957470e-01 5.014556e-01 4.583673e-01 5.388660e-01 4.937167e-01 4.566679e-01 4.663414e-01 2.731978e-01 2.192461e-01
<GCONST> 1.097975e+02
<STATE> 3
<MEAN> 39
 2.785372e+00 3.025722e+00 -2.317187e+00 -6.607560e+00 -7.231255e+00 -2.725651e+00 6.366213e+00 1.843170e+00 -1.158211e+01 -1.508669e+00 4.786322e+00 3.094105e+00 6.387400e+01 -1.976183e-01 2.049454e-01 4.334312e-02 -7.252169e-02 6.359342e-01 3.285311e-01 -5.674934e-01 -2.883488e-01 3.430653e-01 1.208836e-01 -6.363522e-02 9.553201e-02 -1.610948e-01 -2.853408e-01 6.368508e-02 2.058041e-01 9.352033e-02 3.842422e-01 1.572439e-01 -3.853914e-01 -1.983307e-01 3.886742e-01 8.418574e-02 -1.188718e-01 -9.657519e-02 -1.194340e-01
<VARIANCE> 39
 5.081792e+00 1.647884e+01 1.187563e+01 4.585652e+01 2.996358e+01 1.998800e+01 2.458045e+01 5.208960e+01 2.766843e+01 2.784334e+01 2.745118e+01 1.865973e+01 7.244152e+00 3.223031e-01 8.777707e-01 8.078364e-01 2.471967e+00 2.175103e+00 1.615115e+00 1.837551e+00 2.966870e+00 1.931644e+00 2.117321e+00 1.431858e+00 1.058295e+00 5.147316e-01 1.177160e-01 1.669157e-01 1.656765e-01 3.804794e-01 3.729057e-01 2.879047e-01 3.041212e-01 3.931166e-01 4.293247e-01 3.557236e-01 3.140275e-01 2.843946e-01 1.482279e-01
<GCONST> 9.710916e+01
<STATE> 4
<MEAN> 39
 9.969074e-02 3.125316e+00 -5.599709e-01 -4.735290e+00 -2.569665e+00 -6.298448e-01 1.411055e+00 -2.636005e+00 -8.619384e+00 2.885655e-01 3.858166e+00 3.362796e+00 6.238897e+01 -8.588623e-01 3.489264e-01 3.972507e-01 5.048098e-01 1.118350e+00 2.983910e-01 -1.175312e+00 -4.624575e-01 1.165895e+00 1.748048e-01 -5.133404e-01 -5.527145e-01 -6.368773e-01 -1.774624e-01 4.903331e-02 1.205086e-01 1.046169e-01 -6.146907e-02 -1.443086e-01 1.093386e-01 2.040674e-01 -2.661018e-02 -1.641150e-01 -5.950519e-02 -1.552975e-01 -1.509264e-01
<VARIANCE> 39
 1.043376e+01 2.105358e+01 1.601115e+01 5.739231e+01 2.927576e+01 2.176860e+01 3.307522e+01 5.150031e+01 2.484371e+01 3.701954e+01 2.879529e+01 2.284172e+01 1.915419e+01 7.680352e-01 1.199799e+00 1.493514e+00 2.131736e+00 2.579564e+00 1.919483e+00 2.648058e+00 3.179434e+00 2.716807e+00 2.437251e+00 2.233638e+00 1.845293e+00 1.113039e+00 1.682603e-01 2.540229e-01 2.771494e-01 4.887588e-01 4.147785e-01 3.713209e-01 3.599073e-01 4.797488e-01 3.832389e-01 5.502147e-01 3.481487e-01 3.366669e-01 2.234915e-01
<GCONST> 1.082982e+02
<TRANSP> 5
 0.000000e+00 1.000000e+00 0.000000e+00 0.000000e+00 0.000000e+00
 0.000000e+00 5.274583e-01 4.725417e-01 0.000000e+00 0.000000e+00
 0.000000e+00 0.000000e+00 6.926213e-01 3.073787e-01 0.000000e+00
 0.000000e+00 0.000000e+00 0.000000e+00 5.128798e-01 4.871202e-01
 0.000000e+00 0.000000e+00 0.000000e+00 0.000000e+00 0.000000e+00
<ENDHMM>
~h "m"
<BEGINHMM>
<NUMSTATES> 5
<STATE> 2
<MEAN> 39
 -3.931368e-01 8.900150e+00 3.046352e+00 3.457546e+00 3.618217e+00 -2.655009e+00 -1.072753e+00 -1.211268e+00 -7.987284e+00 -3.572542e+00 1.163947e+00 1.361427e+00 5.865218e+01 -8.733643e-02 4.704516e-01 6.569715e-01 6.816826e-01 1.099481e-01 -1.434993e-01 4.754700e-02 1.436802e-01 -8.264878e-01 -5.377631e-01 5.797125e-02 5.980736e-02 -3.459437e-01 -6.660178e-02 -2.819439e-01 -1.137951e-01 -1.543022e-01 -2.100060e-01 -2.517699e-02 6.780936e-02 -1.021898e-01 3.505014e-01 2.598886e-01 -4.152684e-02 -1.404970e-01 1.684952e-01
<VARIANCE> 39
 4.151387e+00 4.570899e+00 1.090942e+01 1.259495e+01 1.113360e+01 1.421409e+01 2.150166e+01 1.329104e+01 2.167519e+01 1.713885e+01 1.390581e+01 1.397386e+01 4.724164e+00 5.445822e-01 5.295894e-01 1.127659e+00 1.086562e+00 9.567009e-01 1.181855e+00 9.754958e-01 1.197661e+00 1.923284e+00 1.414056e+00 9.138814e-01 1.023598e+00 4.821462e-01 8.485504e-02 1.376790e-01 2.285187e-01 2.465023e-01 1.931564e-01 2.349843e-01 2.061162e-01 2.268186e-01 3.407881e-01 2.998292e-01 1.971904e-01 2.416849e-01 5.649344e-02
<GCONST> 8.076485e+01
<STATE> 3
<MEAN> 39
 -1.218025e+00 9.533837e+00 4.972404e+00 4.441467e+00 2.049272e+00 -2.824273e+00 1.272987e+00 -7.221223e-01 -9.272298e+00 -3.829370e+00 1.241905e+00 5.281779e-01 5.791694e+01 -8.767316e-02 -6.373545e-02 -1.153780e-01 -3.132593e-01 -3.512588e-01 2.563772e-01 1.988811e-01 1.390488e-02 5.654668e-01 3.293051e-01 -1.011646e-01 -1.298063e-01 -4.053634e-02 -9.746552e-02 -1.899643e-01 -1.447007e-01 -3.103478e-01 -2.670634e-02 1.827248e-01 -3.339447e-02 4.223421e-03 3.396809e-01 1.350755e-01 -2.135341e-02 -1.392387e-02 8.541955e-02
<VARIANCE> 39
 7.045765e+00 6.484797e+00 1.329998e+01 1.663957e+01 1.974061e+01 1.431920e+01 2.721100e+01 1.315862e+01 1.977736e+01 1.510473e+01 1.266770e+01 1.367255e+01 8.011292e+00 4.265524e-01 6.038884e-01 1.084942e+00 1.518568e+00 1.320634e+00 1.140157e+00 1.259229e+00 9.351363e-01 1.473554e+00 1.258702e+00 8.252885e-01 1.199112e+00 4.727691e-01 1.091494e-01 1.602873e-01 2.296394e-01 3.666101e-01 3.161828e-01 2.520027e-01 2.860008e-01 1.997447e-01 3.503346e-01 2.677507e-01 1.359914e-01 2.343952e-01 7.465452e-02
<GCONST> 8.461213e+01
<STATE> 4
<MEAN> 39
 -5.027555e+00 6.492312e+00 2.533392e+00 2.031796e+00 2.988141e+00 1.009698e+00 -1.978214e-01 -5.317651e-01 -4.045960e+00 -1.169172e+00 9.983064e-01 -8.864179e-01 5.559572e+01 -4.287094e-01 -5.823083e-01 -1.389695e-01 -5.417523e-01 -1.606598e-01 3.234417e-01 1.952744e-02 1.403749e-01 6.104373e-01 2.136962e-01 -4.862928e-02 -1.945100e-01 1.056998e-01 -1.182893e-01 -1.257930e-01 5.243527e-02 -5.891088e-02 1.705124e-02 -1.049167e-01 5.024277e-03 -1.905672e-02 -5.205592e-02 -6.856951e-02 6.394695e-02 -3.263228e-02 1.272002e-01
<VARIANCE> 39
 2.820002e+01 3.070080e+01 3.123167e+01 3.048026e+01 1.543214e+01 2.384171e+01 2.385438e+01 1.841454e+01 2.285067e+01 2.209175e+01 1.509034e+01 1.377216e+01 2.527293e+01 1.026765e+00 1.320936e+00 2.013444e+00 2.829429e+00 1.760009e+00 1.885320e+00 1.994816e+00 1.582951e+00 2.055562e+00 2.003052e+00 1.367270e+00 1.314306e+00 7.275768e-01 1.910036e-01 2.686984e-01 2.877391e-01 3.405690e-01 3.544946e-01 3.438349e-01 3.715532e-01 3.608412e-01 2.910011e-01 3.187420e-01 2.388603e-01 2.262965e-01 1.275058e-01
<GCONST> 1.013985e+02
<TRANSP> 5
 0.000000e+00 1.000000e+00 0.000000e+00 0.000000e+00 0.000000e+00
 0.000000e+00 7.066026e-01 2.933974e-01 0.000000e+00 0.000000e+00
 0.000000e+00 0.000000e+00 6.467915e-01 3.532085e-01 0.000000e+00
 0.000000e+00 0.000000e+00 0.000000e+00 5.530301e-01 4.469698e-01
 0.000000e+00 0.000000e+00 0.000000e+00 0.000000e+00 0.000000e+00
<ENDHMM>
~h "n"
<BEGINHMM>
<NUMSTATES> 5
<STATE> 2
<MEAN> 39
 -2.167789e+00 7.520409e+00 4.378554e+00 2.656669e+00 3.895077e-01 -2.111920e+00 2.418066e+00 1.040649e-01 -7.419337e+00 -2.043519e+00 3.147761e+00 1.067112e-01 5.871465e+01 3.730109e-01 7.199769e-01 5.197313e-01 7.556063e-01 -2.747455e-01 -2.043618e-01 2.319891e-01 1.648520e-01 -9.048318e-01 -4.730852e-01 1.715420e-01 -1.633960e-01 -2.909531e-01 -9.592934e-02 -2.777731e-01 -1.847962e-01 -3.437306e-01 -5.762882e-03 -1.224141e-02 -4.135997e-02 -9.009554e-02 3.835283e-01 1.710555e-01 -1.254076e-01 -3.862143e-02 2.511972e-01
<VARIANCE> 39
 1.183435e+01 1.196287e+01 1.720985e+01 2.742352e+01 1.493982e+01 1.760741e+01 2.139248e+01 1.606896e+01 2.928529e+01 1.430825e+01 1.617222e+01 1.172639e+01 1.132432e+01 1.839781e+00 1.219816e+00 1.947197e+00 1.994144e+00 1.674610e+00 1.868755e+00 1.754050e+00 1.847296e+00 2.494136e+00 1.608887e+00 1.677702e+00 1.284518e+00 1.225779e+00 1.533752e-01 3.052419e-01 3.159837e-01 3.696899e-01 4.027739e-01 3.815606e-01 3.205275e-01 3.309681e-01 5.271372e-01 3.467686e-01 3.195074e-01 2.747073e-01 1.979038e-01
<GCONST> 9.967406e+01
<STATE> 3
<MEAN> 39
 -1.331730e+00 8.470054e+00 5.040812e+00 2.959439e+00 -4.887278e-01 -3.251232e+00 2.715519e+00 4.458624e-01 -9.037142e+00 -2.284689e+00 3.706911e+00 -6.574522e-01 5.919233e+01 2.356460e-01 -7.397888e-01 -5.207918e-01 -5.459285e-01 -4.152874e-01 4.238134e-01 1.162942e-01 -5.648007e-01 7.483062e-01 5.824190e-01 -1.712219e-01 -2.008984e-01 6.986026e-01 -2.287561e-01 -4.293620e-01 -4.227022e-01 -6.020572e-01 2.243645e-01 2.123797e-01 -6.984708e-02 -2.077932e-01 6.810631e-01 3.133131e-01 -1.571379e-01 2.233892e-02 2.984109e-01
<VARIANCE> 39
 5.722569e+00 1.195278e+01 1.424179e+01 2.519431e+01 1.495777e+01 1.576225e+01 1.659200e+01 1.433672e+01 2.571372e+01 1.337883e+01 1.344985e+01 1.373966e+01 8.986554e+00 1.364055e+00 2.149972e+00 2.098588e+00 1.939524e+00 2.151240e+00 2.056822e+00 1.624805e+00 1.932159e+00 2.622450e+00 1.848498e+00 1.447754e+00 1.411063e+00 1.576210e+00 2.539324e-01 3.073599e-01 3.878731e-01 3.851643e-01 4.372962e-01 3.824995e-01 3.005880e-01 3.722007e-01 5.873586e-01 3.463402e-01 2.641264e-01 2.532277e-01 1.543252e-01
<GCONST> 9.923837e+01
<STATE> 4
<MEAN> 39
 -2.062808e+00 4.996268e+00 2.698609e+00 1.151566e+00 -3.013933e-01 -4.759769e-01 2.479107e+00 -1.584237e+00 -4.259851e+00 4.964459e-02 2.625191e+00 -1.197550e+00 6.051234e+01 -2.159902e-01 -7.033332e-01 -1.066409e+00 -1.377179e+00 5.360553e-01 4.684207e-01 -1.105692e-01 -4.765085e-01 1.310457e+00 7.237037e-01 -3.233327e-01 -6.298249e-02 7.125619e-01 -2.545990e-01 2.009662e-01 2.908757e-02 -1.911750e-01 3.529268e-01 -1.660120e-01 -1.025202e-01 2.422352e-01 -1.680707e-01 -1.142993e-01 -2.864336e-02 1.523330e-02 -1.285236e-01
<VARIANCE> 39
 1.610814e+01 1.965289e+01 2.708310e+01 3.042323e+01 2.713013e+01 2.113447e+01 1.987528e+01 2.135467e+01 2.962175e+01 1.701756e+01 2.063829e+01 1.842833e+01 2.439961e+01 1.526062e+00 1.725369e+00 2.752241e+00 3.040090e+00 2.987200e+00 1.955532e+00 1.877528e+00 2.251062e+00 3.295290e+00 1.819489e+00 1.742228e+00 1.538274e+00 1.467886e+00 2.421963e-01 3.237223e-01 3.471979e-01 3.919119e-01 4.971490e-01 3.865532e-01 3.633182e-01 4.558351e-01 5.559744e-01 3.382149e-01 3.033333e-01 3.049026e-01 2.080413e-01
<GCONST> 1.077593e+02
<TRANSP> 5
 0.000000e+00 1.000000e+00 0.000000e+00 0.000000e+00 0.000000e+00
 0.000000e+00 5.432352e-01 4.567648e-01 0.000000e+00 0.000000e+00
 0.000000e+00 0.000000e+00 4.963832e-01 5.036168e-01 0.000000e+00
 0.000000e+00 0.000000e+00 0.000000e+00 3.619380e-01 6.380620e-01
 0.000000e+00 0.000000e+00 0.000000e+00 0.000000e+00 0.000000e+00
<ENDHMM>
~h "o"
<BEGINHMM>
<NUMSTATES> 5
<STATE> 2
<MEAN> 39
 -5.461953e-01 3.804693e+00 -1.656040e-01 -4.154457e+00 -2.280037e+00 -5.169854e-01 1.996489e+00 -4.519034e+00 -7.544660e+00 -3.212821e-01 2.000200e+00 3.396046e+00 6.204018e+01 1.114285e+00 8.961608e-01 -1.475129e-01 -5.385831e-01 -8.743826e-01 2.569751e-01 4.083527e-01 -3.010899e-01 -4.001085e-01 -5.268160e-01 -5.959805e-01 7.221684e-01 2.404547e-01 -5.602587e-01 6.818598e-03 2.697702e-01 2.594675e-01 4.013932e-01 2.664581e-02 -2.809050e-01 2.753921e-01 1.107054e-01 -2.796388e-01 7.441314e-02 -1.678900e-01 -3.752254e-01
<VARIANCE> 39
 1.924485e+01 1.658975e+01 1.857399e+01 4.139932e+01 3.694444e+01 2.486673e+01 3.884060e+01 4.269612e+01 3.368513e+01 2.283933e+01 2.553573e+01 1.889964e+01 1.936772e+01 2.980330e+00 2.061281e+00 1.855978e+00 3.233376e+00 3.909909e+00 3.133377e+00 3.005538e+00 3.200471e+00 2.769782e+00 2.363911e+00 2.656149e+00 2.027187e+00 2.580613e+00 4.127949e-01 4.002176e-01 3.882190e-01 5.842286e-01 6.785291e-01 4.577676e-01 5.700344e-01 6.777605e-01 5.214067e-01 4.873152e-01 5.452878e-01 3.745128e-01 2.960534e-01
<GCONST> 1.174202e+02
<STATE> 3
<MEAN> 39
 1.031058e-01 5.218330e+00 9.462356e-02 -4.463240e+00 -3.391203e+00 3.075248e-01 2.387223e+00 -4.044995e+00 -7.688953e+00 -2.012675e+00 9.987373e-01 4.636862e+00 6.130331e+01 -4.153929e-01 6.327454e-01 5.261486e-01 4.137363e-01 6.309299e-01 5.085562e-01 -5.259692e-01 1.876871e-01 1.024866e-01 -7.809374e-01 -5.504641e-02 -1.351895e-01 -7.171528e-01 -7.056346e-01 -2.446590e-01 2.694964e-01 2.731719e-01 6.046264e-01 -9.781422e-02 -3.293262e-01 1.629449e-01 1.651506e-01 2.155885e-03 2.473393e-01 -4.498155e-01 -1.928207e-01
<VARIANCE> 39
 1.373581e+01 1.120714e+01 1.653493e+01 3.552887e+01 3.894879e+01 2.050805e+01 3.137140e+01 3.486132e+01 2.716040e+01 1.956493e+01 2.468871e+01 2.152631e+01 1.507625e+01 2.052858e+00 1.645965e+00 1.614163e+00 2.389408e+00 3.738447e+00 2.020049e+00 2.837988e+00 2.915269e+00 2.281142e+00 2.425445e+00 2.324839e+00 1.808331e+00 1.888117e+00 4.493423e-01 2.743006e-01 3.068254e-01 4.733500e-01 7.513101e-01 4.356532e-01 4.661030e-01 4.901004e-01 4.175270e-01 3.735582e-01 4.621702e-01 4.310532e-01 2.512841e-01
<GCONST> 1.110499e+02
<STATE> 4
<MEAN> 39
 -2.951577e+00 6.247868e+00 1.521937e+00 -2.380563e+00 -4.347045e-01 1.870218e+00 5.331593e-01 -3.468291e+00 -6.629627e+00 -3.562940e+00 1.512802e+00 3.263898e+00 5.803295e+01 -1.352141e+00 9.769967e-03 7.989919e-01 5.400877e-01 1.282157e+00 9.765230e-02 -7.192463e-01 3.737348e-01 4.143825e-01 -3.788758e-01 3.117048e-01 -7.562728e-01 -5.839370e-01 -3.576901e-01 -3.544056e-01 7.683384e-02 -1.387056e-01 5.567679e-02 -3.197680e-01 -8.259401e-03 3.625197e-02 6.883068e-02 2.186912e-01 1.441147e-01 -1.635597e-01 2.959245e-01
<VARIANCE> 39
 1.897598e+01 1.211902e+01 1.841220e+01 2.987691e+01 3.252487e+01 2.165673e+01 3.078514e+01 3.021934e+01 2.315883e+01 2.279558e+01 2.225811e+01 1.675535e+01 1.891973e+01 2.880446e+00 1.805888e+00 2.153270e+00 3.009107e+00 4.289529e+00 2.147896e+00 2.742986e+00 2.491331e+00 2.693270e+00 2.420023e+00 2.602829e+00 2.125640e+00 1.867424e+00 4.854775e-01 2.654183e-01 3.388167e-01 4.185921e-01 5.467147e-01 4.520609e-01 4.656502e-01 5.035252e-01 4.173694e-01 3.988361e-01 3.611533e-01 3.884985e-01 3.275687e-01
<GCONST> 1.120952e+02
<TRANSP> 5
 0.000000e+00 1.000000e+00 0.000000e+00 0.000000e+00 0.000000e+00
 0.000000e+00 3.769982e-01 6.230018e-01 0.000000e+00 0.000000e+00
 0.000000e+00 0.000000e+00 3.046196e-01 6.953804e-01 0.000000e+00
 0.000000e+00 0.000000e+00 0.000000e+00 3.383335e-01 6.616666e-01
 0.000000e+00 0.000000e+00 0.000000e+00 0.000000e+00 0.000000e+00
<ENDHMM>
~h "p"
<BEGINHMM>
<NUMSTATES> 5
<STATE> 2
<MEAN> 39
 -9.858678e+00 6.889228e+00 2.365416e+00 7.322825e-01 9.394100e-01 1.597212e-01 -2.369269e+00 -2.996692e+00 -4.903382e+00 -2.878146e+00 2.821041e-01 9.974916e-01 5.093420e+01 -5.470524e-01 -2.928285e-01 -3.465366e-02 1.669854e-01 -9.841705e-02 -3.298642e-02 -1.143864e-01 6.092718e-02 2.262301e-01 2.969365e-01 2.319845e-01 5.897924e-02 -4.065992e-01 1.787595e-01 -3.521444e-01 -3.665752e-02 -2.464658e-01 4.852455e-02 2.719102e-02 6.404909e-02 9.626753e-02 6.542652e-02 2.416873e-01 3.167527e-01 3.592178e-02 5.463001e-01
<VARIANCE> 39
 1.547735e+01 7.870541e+00 1.557389e+01 1.741985e+01 1.943122e+01 1.466538e+01 1.687230e+01 2.290705e+01 2.315774e+01 2.176258e+01 1.798300e+01 1.341969e+01 3.864125e+00 4.638415e-01 7.629097e-01 6.888632e-01 9.814185e-01 8.891435e-01 1.008586e+00 1.114995e+00 1.365006e+00 1.162084e+00 1.507316e+00 1.542685e+00 1.150167e+00 6.494840e-01 1.025610e-01 1.984501e-01 1.712271e-01 2.365533e-01 2.228181e-01 2.273976e-01 2.852834e-01 3.173417e-01 2.569561e-01 3.537684e-01 3.712863e-01 2.777278e-01 1.642106e-01
<GCONST> 8.737417e+01
<STATE> 3
<MEAN> 39
 -1.151880e+01 4.982687e+00 2.598145e+00 9.915197e-01 1.425158e+00 8.600794e-01 -1.791493e+00 -1.731853e+00 -3.685246e+00 -1.128136e+00 2.064918e+00 1.115248e+00 5.068212e+01 4.584175e-01 -2.150637e+00 -5.750922e-01 -1.488808e+00 2.294548e-01 3.732620e-01 3.104123e-01 5.673731e-01 1.355368e-01 1.042425e+00 1.791368e+00 1.464712e-01 2.416430e+00 6.366700e-01 -1.021505e-01 -1.148184e-01 -4.303339e-01 -7.710373e-02 -1.095642e-01 1.999098e-01 6.886188e-02 -2.799350e-01 -2.296228e-03 -9.498233e-02 1.704434e-02 7.956168e-01
<VARIANCE> 39
 1.207423e+01 1.074564e+01 9.493672e+00 1.312525e+01 1.464427e+01 1.297799e+01 2.138057e+01 2.679675e+01 2.663867e+01 1.965246e+01 1.638853e+01 1.706396e+01 7.625017e+00 1.998504e+00 1.425260e+00 2.199725e+00 1.921284e+00 2.456832e+00 2.151290e+00 3.451942e+00 2.816437e+00 2.414446e+00 1.947723e+00 2.847412e+00 1.800420e+00 1.074253e+00 3.010736e-01 3.330049e-01 3.096349e-01 3.269413e-01 4.026859e-01 3.552986e-01 4.336473e-01 5.247836e-01 3.512541e-01 3.943029e-01 4.900441e-01 2.896010e-01 2.136671e-01
<GCONST> 1.030854e+02
<STATE> 4
<MEAN> 39
 -9.272061e+00 -9.959033e-01 3.753953e-01 -3.838143e+00 2.152006e+00 2.387407e+00 -4.320823e-01 -1.590705e-01 -3.857459e+00 1.235317e+00 6.666296e+00 1.409140e+00 5.830266e+01 2.099845e+00 -5.131335e-01 -2.420252e-01 -1.272159e+00 -4.634656e-01 -3.637755e-01 5.001603e-01 1.408414e-01 -8.497370e-01 4.658169e-01 2.036575e-02 9.124261e-02 2.555071e+00 3.874056e-01 7.029956e-01 1.949040e-01 4.435403e-01 -3.378514e-01 -4.872440e-01 3.265302e-02 -3.565302e-01 -2.473197e-01 -2.616811e-01 -8.595213e-01 2.685321e-02 -2.346809e-01
<VARIANCE> 39
 1.181642e+01 1.724804e+01 1.486660e+01 1.864953e+01 1.809919e+01 2.181852e+01 2.924823e+01 2.528668e+01 2.587594e+01 2.419704e+01 2.130913e+01 1.229288e+01 1.419704e+01 4.447045e+00 3.887852e+00 3.444046e+00 3.983832e+00 4.228549e+00 2.836551e+00 3.940463e+00 4.765266e+00 3.890273e+00 3.421433e+00 4.011492e+00 1.766489e+00 2.435769e+00 4.079367e-01 4.491679e-01 5.517079e-01 4.283682e-01 5.831776e-01 5.424828e-01 7.491056e-01 8.952711e-01 6.133686e-01 5.177506e-01 5.710963e-01 2.939681e-01 2.903584e-01
<GCONST> 1.173298e+02
<TRANSP> 5
 0.000000e+00 1.000000e+00 0.000000e+00 0.000000e+00 0.000000e+00
 0.000000e+00 7.691873e-01 2.308127e-01 0.000000e+00 0.000000e+00
 0.000000e+00 0.000000e+00 3.963549e-01 6.036451e-01 0.000000e+00
 0.000000e+00 0.000000e+00 0.000000e+00 4.426802e-01 5.573198e-01
 0.000000e+00 0.000000e+00 0.000000e+00 0.000000e+00 0.000000e+00
<ENDHMM>
~h "r"
<BEGINHMM>
<NUMSTATES> 5
<STATE> 2
<MEAN> 39
 -5.314821e+00 -8.613845e-01 2.742007e+00 -2.876746e+00 1.101341e+00 -1.481551e+00 -1.505797e+00 -1.373576e+00 -6.111907e+00 2.385718e+00 4.589525e+00 6.815731e-01 6.293596e+01 7.327441e-01 -7.856674e-01 -3.159364e-01 7.928418e-01 -7.626227e-02 -1.180601e+00 5.796266e-02 -7.438537e-01 -8.115117e-01 4.564905e-01 -9.488883e-02 -9.012865e-02 8.961112e-01 -4.608517e-02 2.170213e-01 -2.255808e-01 2.532772e-01 1.215072e-01 -1.286759e-02 4.415492e-02 -6.086557e-02 8.841198e-02 -2.883536e-02 -2.424698e-01 3.854140e-02 -2.834887e-01
<VARIANCE> 39
 2.713286e+01 2.323662e+01 3.029265e+01 4.414596e+01 2.895212e+01 3.068698e+01 3.164830e+01 2.835056e+01 4.246502e+01 2.888802e+01 2.432209e+01 2.047831e+01 1.779988e+01 4.138140e+00 3.162672e+00 3.554480e+00 5.232978e+00 4.684539e+00 3.803914e+00 3.558839e+00 2.887809e+00 3.535899e+00 3.576643e+00 3.643530e+00 1.967001e+00 2.730094e+00 8.020927e-01 5.443521e-01 6.694196e-01 1.126089e+00 8.492732e-01 5.756211e-01 6.191109e-01 6.753380e-01 7.884382e-01 7.072989e-01 6.924865e-01 4.376353e-01 5.031688e-01
<GCONST> 1.261656e+02
<STATE> 3
<MEAN> 39
 -3.188203e+00 -1.976591e+00 -5.253517e-01 -4.934860e-01 2.281176e+00 -5.436823e+00 -1.908334e+00 -3.435755e+00 -8.582694e+00 3.909180e+00 3.616024e+00 9.162355e-01 6.447414e+01 -1.528763e-01 -8.497949e-01 -2.154495e-01 1.429406e+00 -3.165939e-01 -4.201793e-01 3.256533e-01 -7.816654e-01 1.499446e-01 1.030359e-01 -2.231833e-01 -2.624320e-01 -7.789219e-02 -6.843738e-02 4.110239e-01 1.989006e-01 -2.610755e-01 -1.197883e-01 6.142951e-01 5.383702e-02 1.252445e-01 3.526973e-01 -2.798662e-01 8.062119e-02 8.823206e-02 -2.668945e-01
<VARIANCE> 39
 2.134388e+01 2.249022e+01 3.671748e+01 3.006733e+01 3.686895e+01 2.915524e+01 3.102472e+01 2.671305e+01 3.723900e+01 3.307115e+01 2.475610e+01 2.500343e+01 1.592580e+01 3.204778e+00 2.469692e+00 4.167779e+00 3.659432e+00 4.165859e+00 3.499713e+00 2.998033e+00 3.071382e+00 2.791491e+00 3.279519e+00 2.270846e+00 1.549725e+00 1.464753e+00 7.409115e-01 6.547811e-01 8.756625e-01 7.274923e-01 9.436170e-01 6.803271e-01 6.900816e-01 6.664889e-01 6.316540e-01 8.231961e-01 6.166541e-01 5.234498e-01 4.231953e-01
<GCONST> 1.233782e+02
<STATE> 4
<MEAN> 39
 -4.569011e+00 -2.783399e+00 1.722097e+00 1.934598e+00 9.407310e-02 -2.777959e+00 -4.849359e-01 -4.400405e+00 -6.000338e+00 3.110523e+00 4.258334e+00 4.308970e-02 6.302950e+01 7.442136e-01 9.617778e-01 -2.344793e-01 -2.540073e-01 -2.314704e-01 6.811195e-01 2.317815e-01 -8.883151e-02 3.805686e-01 -2.027048e-01 -3.521841e-03 3.705346e-01 -5.128787e-02 2.615756e-01 6.423587e-01 -1.072135e-01 -6.154048e-01 2.090440e-01 8.221265e-02 -1.577265e-01 3.166517e-01 -7.605841e-02 -1.511367e-01 -1.486610e-02 2.126199e-01 3.973671e-03
<VARIANCE> 39
 2.626975e+01 2.376972e+01 4.150210e+01 1.949744e+01 3.872263e+01 2.826738e+01 3.234675e+01 3.598262e+01 3.299966e+01 2.616353e+01 2.273375e+01 1.817762e+01 1.587281e+01 3.318709e+00 3.199091e+00 4.882551e+00 2.621724e+00 3.443664e+00 2.483943e+00 3.240854e+00 3.446232e+00 3.485697e+00 3.394408e+00 2.505687e+00 2.200610e+00 1.587439e+00 6.643029e-01 5.843149e-01 9.406582e-01 5.216990e-01 7.776446e-01 5.955527e-01 6.673959e-01 7.101715e-01 7.493222e-01 7.776352e-01 5.118619e-01 3.368541e-01 3.400230e-01
<GCONST> 1.219778e+02
<TRANSP> 5
 0.000000e+00 1.000000e+00 0.000000e+00 0.000000e+00 0.000000e+00
 0.000000e+00 3.441705e-01 6.558295e-01 0.000000e+00 0.000000e+00
 0.000000e+00 0.000000e+00 3.751110e-01 6.248890e-01 0.000000e+00
 0.000000e+00 0.000000e+00 0.000000e+00 5.895488e-01 4.104512e-01
 0.000000e+00 0.000000e+00 0.000000e+00 0.000000e+00 0.000000e+00
<ENDHMM>
~h "s"
<BEGINHMM>
<NUMSTATES> 5
<STATE> 2
<MEAN> 39
 -1.923902e+01 3.761989e+00 1.005191e+01 -8.735996e+00 1.169604e+01 -1.100019e+00 -3.393111e+00 7.780663e-01 -3.011225e+00 -2.465866e+00 6.657701e+00 -1.090472e+00 6.331102e+01 -3.975242e+00 2.788721e-01 3.973919e-01 -2.199725e+00 1.229486e+00 -6.388686e-01 -6.487508e-01 1.810943e-01 1.024515e-01 -3.105489e-01 6.607832e-03 -8.070106e-01 1.004447e+00 6.094851e-01 8.104455e-02 -4.731049e-01 2.565283e-01 -7.021397e-01 1.458558e-02 3.366446e-02 -1.901603e-01 -2.193153e-01 1.924043e-01 -2.289122e-01 6.777873e-02 -2.535537e-01
<VARIANCE> 39
 3.711436e+01 1.865277e+01 2.004265e+01 2.736102e+01 1.931072e+01 3.426944e+01 2.554877e+01 3.769461e+01 2.473723e+01 2.241858e+01 2.177604e+01 2.419908e+01 8.503406e+00 2.683581e+00 1.519089e+00 2.256543e+00 2.018833e+00 3.264980e+00 2.345070e+00 2.215598e+00 2.798415e+00 1.918080e+00 2.195429e+00 2.048731e+00 1.609995e+00 7.549129e-01 7.707191e-01 3.594469e-01 2.938879e-01 5.748306e-01 4.191734e-01 5.175236e-01 4.162693e-01 5.140947e-01 4.219578e-01 4.155014e-01 4.264844e-01 3.351056e-01 2.112297e-01
<GCONST> 1.103736e+02
<STATE> 3
<MEAN> 39
 -2.615963e+01 4.300482e+00 8.128965e+00 -1.236713e+01 1.176887e+01 -2.888992e+00 -5.224541e+00 1.148690e+00 -3.951607e+00 -1.307840e+00 6.148664e+00 -2.895085e+00 6.415823e+01 4.600241e-01 -3.032383e-01 -5.785633e-01 5.659606e-01 1.666905e-02 1.120672e-01 1.056846e-02 -1.390699e-01 -1.785180e-01 2.819844e-01 2.358995e-01 2.073289e-01 -7.914243e-01 1.049979e+00 -1.039954e-01 -4.213760e-02 6.837150e-01 -2.378759e-01 1.460379e-01 2.723529e-01 -1.012722e-01 4.305517e-02 -4.101964e-02 -2.293720e-02 2.290682e-01 -4.931519e-01
<VARIANCE> 39
 9.301650e+00 2.134610e+01 1.671850e+01 2.288573e+01 2.644435e+01 2.965552e+01 2.265072e+01 3.006708e+01 2.800983e+01 2.181549e+01 2.293698e+01 2.404810e+01 6.033787e+00 2.605193e+00 2.101784e+00 1.061563e+00 2.003560e+00 1.883172e+00 2.032162e+00 1.810251e+00 2.235865e+00 1.978076e+00 1.798273e+00 1.867931e+00 1.583272e+00 9.173117e-01 2.601421e-01 3.833775e-01 2.303452e-01 2.853155e-01 3.470795e-01 3.720877e-01 3.544617e-01 4.384925e-01 3.858370e-01 3.730374e-01 4.025235e-01 2.977921e-01 1.334535e-01
<GCONST> 1.030813e+02
<STATE> 4
<MEAN> 39
 -1.824128e+01 3.637619e+00 6.028557e+00 -6.050215e+00 9.861022e+00 -6.932312e-01 -2.471689e+00 -4.165262e-01 -4.010718e+00 -1.202508e+00 5.956914e+00 -7.086607e-01 5.713340e+01 2.436137e+00 6.338722e-01 -3.487805e-01 1.393129e+00 -1.122501e+00 3.123700e-01 8.049410e-01 -2.820543e-01 9.040471e-02 -2.012891e-02 -6.659462e-01 4.561605e-01 -1.674971e+00 -8.621458e-02 4.360667e-02 5.188634e-02 -2.937948e-01 -2.196344e-01 -1.717427e-01 -8.826096e-02 1.249360e-01 1.642977e-03 4.430670e-02 -1.116692e-01 -8.053620e-02 4.454494e-01
<VARIANCE> 39
 1.794404e+01 3.112722e+01 1.780285e+01 2.302560e+01 3.508824e+01 2.919367e+01 3.186637e+01 3.094185e+01 2.818331e+01 2.379095e+01 2.551520e+01 1.910431e+01 1.675772e+01 1.998221e+00 2.125761e+00 1.245407e+00 1.731227e+00 2.114971e+00 1.817471e+00 2.170325e+00 2.596410e+00 2.423034e+00 1.859498e+00 2.117497e+00 1.580540e+00 1.622581e+00 3.640577e-01 6.822382e-01 3.095398e-01 3.200662e-01 5.593795e-01 3.942812e-01 4.956528e-01 5.421423e-01 5.331721e-01 4.228850e-01 4.787899e-01 3.710233e-01 3.379587e-01
<GCONST> 1.110147e+02
<TRANSP> 5
 0.000000e+00 1.000000e+00 0.000000e+00 0.000000e+00 0.000000e+00
 0.000000e+00 6.609850e-01 3.390150e-01 0.000000e+00 0.000000e+00
 0.000000e+00 0.000000e+00 7.460158e-01 2.539842e-01 0.000000e+00
 0.000000e+00 0.000000e+00 0.000000e+00 6.640807e-01 3.359193e-01
 0.000000e+00 0.000000e+00 0.000000e+00 0.000000e+00 0.000000e+00
<ENDHMM>
~h "t"
<BEGINHMM>
<NUMSTATES> 5
<STATE> 2
<MEAN> 39
 -1.114383e+01 6.757403e+00 2.889970e+00 -2.244860e+00 2.105757e+00 3.869173e-01 -1.439590e+00 -1.421986e+00 -4.222538e+00 -2.134534e+00 1.234253e+00 2.270430e-01 5.254414e+01 -4.251530e-01 -1.005356e+00 -1.884532e-01 -3.638069e-01 -5.864751e-01 -1.395111e-01 -6.994394e-02 4.811296e-02 3.123706e-01 3.750743e-01 3.952733e-02 -3.507089e-01 3.961043e-02 -1.071918e-01 -5.473084e-01 1.996644e-01 -6.783504e-01 1.749380e-01 -2.151181e-01 -2.878295e-01 2.508396e-01 -8.258650e-02 3.482028e-01 5.167950e-01 -8.915556e-02 9.793730e-01
<VARIANCE> 39
 2.934221e+01 1.014551e+01 2.165981e+01 2.835780e+01 3.115495e+01 2.047373e+01 3.164070e+01 2.796780e+01 2.125303e+01 2.143204e+01 1.523859e+01 1.203044e+01 1.170312e+01 2.038434e+00 2.313943e+00 1.722338e+00 3.505299e+00 2.299161e+00 1.827173e+00 2.080161e+00 2.254666e+00 1.731149e+00 1.629336e+00 2.096447e+00 1.344839e+00 2.840106e+00 2.478617e-01 3.029519e-01 3.339745e-01 4.680012e-01 4.669651e-01 4.295118e-01 4.426365e-01 4.335913e-01 3.325256e-01 3.384666e-01 2.959793e-01 2.782085e-01 2.661241e-01
<GCONST> 1.065696e+02
<STATE> 3
<MEAN> 39
 -1.315459e+01 2.213932e+00 4.023538e+00 -6.096920e+00 1.968141e+00 -6.302654e-01 -2.727415e+00 -5.508245e-02 -4.091916e+00 -3.945665e-02 3.507780e+00 -1.680845e+00 5.595519e+01 -7.200246e-01 -2.183675e+00 5.430083e-01 -2.048617e+00 3.732053e-02 -7.728232e-01 -8.143954e-01 6.487018e-01 1.550622e-01 1.129218e+00 1.463775e+00 -5.738377e-01 2.596069e+00 4.403388e-01 3.751296e-01 3.674458e-02 2.695666e-01 2.908080e-01 -6.129246e-02 -3.162018e-03 -1.377122e-01 -1.315179e-01 5.532172e-03 5.352564e-02 2.720911e-01 2.674075e-01
<VARIANCE> 39
 2.173760e+01 2.940510e+01 2.630951e+01 3.230253e+01 3.775637e+01 2.674653e+01 2.801284e+01 2.762570e+01 2.041389e+01 1.640077e+01 1.670089e+01 1.595242e+01 1.903256e+01 3.864673e+00 3.194364e+00 2.447573e+00 4.108334e+00 4.236377e+00 3.177016e+00 3.254489e+00 3.107170e+00 2.194972e+00 2.547507e+00 2.108125e+00 1.651227e+00 2.154870e+00 4.689933e-01 5.322126e-01 4.037002e-01 6.722061e-01 5.375760e-01 5.408697e-01 4.612682e-01 4.465519e-01 3.893104e-01 3.275784e-01 3.544402e-01 3.047316e-01 3.650646e-01
<GCONST> 1.154673e+02
<STATE> 4
<MEAN> 39
 -1.335518e+01 -6.385306e-01 4.666137e+00 -8.449405e+00 3.003426e+00 -1.989641e+00 -4.388903e+00 -3.777149e-02 -3.896825e+00 1.931856e+00 6.894477e+00 -1.171772e+00 6.056769e+01 1.433507e+00 3.003893e-01 4.032143e-02 3.851654e-01 3.185430e-01 8.440945e-02 4.214575e-02 -3.349452e-01 -3.235996e-01 2.614646e-01 1.950665e-01 5.385730e-01 9.962376e-01 6.814423e-01 7.209030e-01 -2.418736e-01 6.644984e-01 -1.112912e-01 1.167028e-01 3.416758e-01 -2.165802e-01 -1.710877e-01 -3.014623e-01 -5.949815e-01 2.808007e-01 -4.437942e-01
<VARIANCE> 39
 2.206299e+01 2.997727e+01 2.072209e+01 2.663945e+01 3.857479e+01 4.146054e+01 2.900874e+01 3.263784e+01 2.255408e+01 2.351010e+01 2.267367e+01 1.821506e+01 1.819439e+01 5.663678e+00 3.464380e+00 2.368807e+00 4.490078e+00 3.120708e+00 3.716793e+00 3.696612e+00 2.762732e+00 2.473627e+00 2.134106e+00 3.022733e+00 1.987714e+00 3.218346e+00 5.870461e-01 7.497584e-01 3.904266e-01 8.321697e-01 7.201539e-01 6.901024e-01 6.282951e-01 7.074569e-01 4.630344e-01 4.911537e-01 5.305930e-01 3.962866e-01 4.857472e-01
<GCONST> 1.214373e+02
<TRANSP> 5
 0.000000e+00 1.000000e+00 0.000000e+00 0.000000e+00 0.000000e+00
 0.000000e+00 6.255133e-01 3.744867e-01 0.000000e+00 0.000000e+00
 0.000000e+00 0.000000e+00 2.272390e-01 7.727609e-01 0.000000e+00
 0.000000e+00 0.000000e+00 0.000000e+00 5.731749e-01 4.268251e-01
 0.000000e+00 0.000000e+00 0.000000e+00 0.000000e+00 0.000000e+00
<ENDHMM>
~h "u"
<BEGINHMM>
<NUMSTATES> 5
<STATE> 2
<MEAN> 39
 -2.613191e+00 6.261166e+00 1.105895e+00 -2.312033e+00 -1.881316e+00 1.805133e+00 8.836849e-01 -5.702329e+00 -7.199470e+00 -5.733983e+00 -1.083776e+00 2.923275e+00 5.785723e+01 6.212406e-01 7.993513e-01 1.505376e-01 3.973884e-01 -1.659198e-01 -1.621148e-01 3.235675e-01 -1.255982e-03 -4.090970e-01 -3.928659e-01 -6.296477e-01 2.227667e-01 -1.667641e-01 -2.446611e-01 -1.638842e-01 5.764126e-02 8.522768e-02 2.078288e-01 -7.676703e-02 -1.664259e-01 -3.847809e-03 9.491131e-02 1.381787e-01 9.445784e-02 -1.398800e-01 -1.168256e-02
<VARIANCE> 39
 2.387795e+01 1.494864e+01 1.831711e+01 2.799101e+01 3.178063e+01 2.553624e+01 2.274916e+01 2.991548e+01 2.343049e+01 2.591523e+01 3.111374e+01 2.006376e+01 1.557341e+01 2.927658e+00 1.820631e+00 2.060644e+00 2.438543e+00 2.941904e+00 2.480296e+00 2.159840e+00 3.240650e+00 2.013951e+00 1.936466e+00 2.486092e+00 1.875411e+00 1.446129e+00 3.801200e-01 3.075610e-01 3.138087e-01 5.058849e-01 4.691766e-01 4.250959e-01 3.601244e-01 5.059900e-01 2.927980e-01 2.967082e-01 4.938371e-01 3.224493e-01 2.298638e-01
<GCONST> 1.100454e+02
<STATE> 3
<MEAN> 39
 -2.839321e+00 7.232569e+00 2.101870e+00 3.267135e-01 -4.167877e-01 1.184025e+00 -2.552687e-01 -6.213902e+00 -8.012937e+00 -5.634799e+00 -1.494748e+00 3.348903e+00 5.686378e+01 -8.890868e-02 9.719123e-02 2.485737e-01 5.982091e-01 8.129323e-01 1.206923e-01 -6.186747e-01 -5.884051e-01 -1.227907e-01 3.347725e-01 3.217544e-01 3.005261e-02 -8.048273e-02 -4.759558e-01 -4.703104e-01 1.368250e-01 1.780745e-02 3.220085e-01 -3.239418e-02 -2.828892e-01 -3.159475e-03 2.702374e-01 3.233251e-01 2.673215e-01 -3.151058e-01 1.063861e-01
<VARIANCE> 39
 1.649062e+01 1.151654e+01 1.337235e+01 2.165295e+01 2.391878e+01 2.976314e+01 3.250727e+01 3.891087e+01 2.322883e+01 2.403157e+01 2.303501e+01 1.939624e+01 1.953176e+01 2.863261e+00 1.389148e+00 1.864995e+00 2.838400e+00 3.092642e+00 2.729185e+00 2.229555e+00 3.504029e+00 2.405222e+00 3.100096e+00 2.419628e+00 1.585833e+00 1.965729e+00 4.464858e-01 3.480018e-01 3.083390e-01 6.120709e-01 5.895739e-01 6.445597e-01 5.458354e-01 6.138734e-01 4.765730e-01 4.390860e-01 4.777273e-01 3.623927e-01 3.028102e-01
<GCONST> 1.128643e+02
<STATE> 4
<MEAN> 39
 -4.693880e+00 5.795524e+00 3.535813e+00 2.410494e+00 3.604606e+00 2.210987e+00 -3.209953e+00 -7.530812e+00 -7.344656e+00 -3.195446e+00 6.757018e-02 1.165591e+00 5.667365e+01 -1.097951e+00 -9.729038e-01 4.578868e-01 2.563017e-01 6.727701e-01 -4.494958e-01 -5.387617e-01 7.480882e-02 2.309399e-01 3.539818e-01 3.085663e-01 -7.579961e-01 1.911438e-01 -3.704547e-01 -3.656350e-01 7.010807e-02 -3.504925e-01 -3.644031e-01 -4.045668e-01 1.498919e-01 2.688649e-01 1.706631e-01 -3.296645e-02 -7.114539e-02 -1.649639e-01 2.261145e-01
<VARIANCE> 39
 1.953960e+01 1.308493e+01 1.365714e+01 2.605122e+01 2.591653e+01 3.373557e+01 3.429003e+01 3.810057e+01 2.184859e+01 2.545967e+01 2.771089e+01 2.354845e+01 2.304160e+01 2.989788e+00 2.434474e+00 1.994268e+00 4.886496e+00 5.696478e+00 2.980424e+00 3.659144e+00 2.608353e+00 3.391443e+00 3.384315e+00 2.552916e+00 2.186380e+00 1.952781e+00 3.299955e-01 3.275502e-01 3.516105e-01 6.742799e-01 7.083396e-01 6.190737e-01 5.767464e-01 6.507353e-01 5.432798e-01 7.456170e-01 5.590329e-01 4.530685e-01 3.891578e-01
<GCONST> 1.184729e+02
<TRANSP> 5
 0.000000e+00 1.000000e+00 0.000000e+00 0.000000e+00 0.000000e+00
 0.000000e+00 5.992607e-01 4.007393e-01 0.000000e+00 0.000000e+00
 0.000000e+00 0.000000e+00 4.049205e-01 5.950794e-01 0.000000e+00
 0.000000e+00 0.000000e+00 0.000000e+00 3.865662e-01 6.134339e-01
 0.000000e+00 0.000000e+00 0.000000e+00 0.000000e+00 0.000000e+00
<ENDHMM>
~h "v"
<BEGINHMM>
<NUMSTATES> 5
<STATE> 2
<MEAN> 39
 -5.428348e+00 5.696892e+00 2.455909e+00 1.187207e-01 3.111239e+00 5.935244e-01 -6.372116e-01 -3.362625e+00 -5.347857e+00 -2.185527e+00 2.572138e+00 9.383078e-01 5.742365e+01 2.454989e-02 2.940295e-01 1.802435e-01 1.103751e-01 7.085880e-02 2.497859e-01 1.574755e-01 4.600921e-01 2.539718e-02 -1.177034e-01 2.681426e-02 -1.925383e-01 -2.157950e-01 4.048788e-01 -2.704989e-01 -1.338874e-01 -2.251555e-01 -2.026357e-01 -5.376641e-01 -2.338323e-01 5.864799e-02 6.805155e-02 3.151478e-01 1.030945e-02 -5.873145e-02 6.025762e-01
<VARIANCE> 39
 3.185252e+01 1.500732e+01 1.733642e+01 3.284851e+01 2.050252e+01 1.517304e+01 2.744680e+01 2.814081e+01 1.803388e+01 1.835730e+01 1.679819e+01 1.270407e+01 1.552834e+01 2.741748e+00 1.545428e+00 1.510143e+00 1.961047e+00 1.694174e+00 1.613907e+00 1.985787e+00 2.131580e+00 1.790432e+00 2.035865e+00 1.454744e+00 1.412955e+00 1.129318e+00 3.960555e-01 2.786999e-01 3.307952e-01 3.882774e-01 3.328188e-01 3.298953e-01 3.626446e-01 4.513652e-01 3.325145e-01 4.494145e-01 2.773960e-01 3.032480e-01 1.816377e-01
<GCONST> 1.032459e+02
<STATE> 3
<MEAN> 39
 -4.488728e+00 6.057811e+00 2.497463e+00 -5.990452e-02 2.948833e+00 4.581567e-01 -6.731203e-01 -2.513202e+00 -4.925431e+00 -1.850016e+00 2.628491e+00 6.769361e-01 5.782952e+01 9.973795e-01 -2.801857e-01 -3.120884e-01 -4.674074e-01 -3.470217e-01 -9.049820e-01 -4.052931e-01 3.755416e-01 1.080943e-01 5.512947e-01 -3.585702e-02 -1.768311e-01 9.936058e-01 2.841385e-01 -3.241369e-01 -1.406419e-01 -2.166340e-01 -2.105023e-01 -5.398475e-01 -1.945655e-01 -7.138564e-02 -1.056550e-02 3.011933e-01 -3.692278e-02 2.435613e-02 5.546392e-01
<VARIANCE> 39
 2.531927e+01 1.139381e+01 1.884910e+01 3.535714e+01 2.318728e+01 1.473901e+01 2.396677e+01 2.621244e+01 1.648550e+01 1.906823e+01 1.729572e+01 1.401703e+01 1.377223e+01 3.423380e+00 1.808493e+00 2.193116e+00 2.945524e+00 2.045437e+00 1.774948e+00 2.488698e+00 2.806621e+00 2.026939e+00 2.404921e+00 1.820717e+00 1.662529e+00 1.216030e+00 4.107803e-01 2.081867e-01 3.575417e-01 3.671135e-01 3.298278e-01 3.281642e-01 3.814613e-01 4.603295e-01 3.480449e-01 3.681202e-01 2.695039e-01 2.397054e-01 1.593003e-01
<GCONST> 1.047099e+02
<STATE> 4
<MEAN> 39
 -2.095434e+00 4.861559e+00 1.165080e+00 -1.831646e+00 1.466082e+00 -2.113492e+00 -1.160296e+00 -2.200846e+00 -4.500465e+00 -3.788708e-01 2.443163e+00 3.077774e-01 6.077520e+01 9.711537e-01 -6.330128e-01 -3.280211e-01 -5.867058e-01 -4.816548e-01 -1.358716e+00 -5.300688e-01 2.000334e-01 7.804675e-02 7.415727e-01 -1.138443e-01 -1.453985e-01 1.418105e+00 -1.096373e-01 -4.818533e-02 1.649517e-01 4.123719e-02 -6.590026e-03 -4.622092e-02 -2.017608e-02 -9.178433e-02 -1.087465e-01 2.283662e-02 -4.395762e-02 -6.836623e-03 5.698213e-02
<VARIANCE> 39
 2.514789e+01 1.328338e+01 2.903914e+01 4.811127e+01 2.252133e+01 1.555964e+01 3.472024e+01 3.430373e+01 1.824272e+01 2.012939e+01 1.797214e+01 2.085917e+01 1.426515e+01 2.589679e+00 1.504723e+00 3.369078e+00 3.438779e+00 2.562389e+00 1.979482e+00 2.643804e+00 2.828357e+00 2.081112e+00 2.364218e+00 1.680210e+00 1.612730e+00 1.167093e+00 4.658827e-01 2.585365e-01 3.572475e-01 3.739513e-01 4.166574e-01 3.159046e-01 3.407803e-01 4.553419e-01 3.131911e-01 3.158224e-01 3.291470e-01 2.636098e-01 2.018915e-01
<GCONST> 1.079745e+02
<TRANSP> 5
 0.000000e+00 1.000000e+00 0.000000e+00 0.000000e+00 0.000000e+00
 0.000000e+00 3.391244e-01 6.608757e-01 0.000000e+00 0.000000e+00
 0.000000e+00 0.000000e+00 2.198042e-01 7.801958e-01 0.000000e+00
 0.000000e+00 0.000000e+00 0.000000e+00 2.415212e-01 7.584788e-01
 0.000000e+00 0.000000e+00 0.000000e+00 0.000000e+00 0.000000e+00
<ENDHMM>
~h "x"
<BEGINHMM>
<NUMSTATES> 5
<STATE> 2
<MEAN> 39
 -1.183866e+01 -1.829691e+00 6.371691e+00 -6.375168e-01 5.143252e+00 7.971743e-02 -5.392266e+00 2.882828e-01 -3.158413e+00 -1.444998e+00 6.109958e+00 -3.496283e+00 5.793441e+01 -7.398542e-01 -6.986886e-01 -8.256282e-01 -8.521212e-01 1.250996e-01 -1.306602e-01 -5.823677e-01 -2.143455e-01 -7.602198e-03 -7.730512e-02 6.145636e-01 -1.801177e-01 -7.831369e-02 1.843138e-01 2.144541e-01 1.169201e-02 1.794798e-01 -1.249129e-01 -9.228544e-02 8.597758e-02 -5.915694e-02 4.838086e-02 2.106877e-01 -2.132570e-01 8.325809e-02 1.681776e-03
<VARIANCE> 39
 2.238017e+01 1.764205e+01 1.116376e+02 4.465386e+01 3.089053e+01 4.736370e+01 3.830634e+01 3.039640e+01 4.905008e+01 2.733192e+01 2.451027e+01 2.323663e+01 6.876184e+00 8.063561e-01 1.003606e+00 2.170248e+00 2.609953e+00 1.871165e+00 2.638761e+00 2.896958e+00 2.984102e+00 2.853646e+00 2.331563e+00 1.813972e+00 1.615782e+00 3.700282e-01 1.010561e-01 1.871385e-01 3.746321e-01 4.330049e-01 3.800151e-01 4.823606e-01 5.351980e-01 4.984463e-01 5.015629e-01 4.922890e-01 3.090954e-01 2.617773e-01 6.896586e-02
<GCONST> 1.078526e+02
<STATE> 3
<MEAN> 39
 -1.307902e+01 -2.383503e+00 4.824263e+00 -6.939927e-01 6.151769e+00 -1.033997e+00 -6.144024e+00 -1.359892e+00 -3.654406e+00 -2.443459e-01 6.914967e+00 -2.642018e+00 5.785875e+01 3.631258e-01 9.709842e-01 -7.776705e-01 1.963748e-01 2.314585e-01 5.122927e-01 6.331777e-01 5.187323e-02 3.491710e-01 5.830380e-01 -1.034331e+00 3.455068e-01 -5.372798e-01 3.948098e-01 4.769029e-01 1.162785e-01 9.535985e-02 -2.565500e-01 -9.298928e-03 2.261958e-01 1.101857e-01 7.511770e-03 -9.856267e-02 -4.889758e-01 1.287875e-01 3.543927e-02
<VARIANCE> 39
 2.315761e+01 2.670053e+01 9.669247e+01 4.185448e+01 2.823313e+01 4.262254e+01 3.714343e+01 4.513625e+01 4.261018e+01 2.864687e+01 3.860138e+01 2.612514e+01 1.115762e+01 1.781312e+00 1.324146e+00 2.134939e+00 2.643835e+00 1.596210e+00 3.297329e+00 3.792479e+00 3.723473e+00 2.002757e+00 2.394037e+00 2.530001e+00 1.768503e+00 9.341107e-01 2.876374e-01 2.808504e-01 3.752240e-01 2.830195e-01 4.525543e-01 5.757855e-01 6.893731e-01 7.681000e-01 4.691021e-01 4.181190e-01 6.156005e-01 3.749686e-01 1.856710e-01
<GCONST> 1.157398e+02
<STATE> 4
<MEAN> 39
 -1.125372e+01 1.494343e+00 1.573660e+00 8.100840e-01 5.538948e+00 9.242885e-01 -3.760397e+00 1.193820e+00 -2.155597e-01 6.701148e-01 3.198988e+00 -1.478740e+00 5.427807e+01 5.470965e-01 9.028928e-01 -1.533923e-01 -2.456119e-01 -3.682552e-01 -3.653108e-02 4.945583e-01 1.992611e-01 -4.619028e-02 3.110763e-01 -6.860104e-01 4.504475e-01 1.389016e-01 7.093093e-02 -1.061003e-01 1.085105e-01 -2.016076e-01 -1.411747e-01 -2.139098e-01 -1.085441e-01 1.521519e-02 -2.265939e-01 -6.186375e-02 1.790411e-01 -2.849211e-02 2.793335e-01
<VARIANCE> 39
 2.491588e+01 1.553165e+01 3.675728e+01 2.612914e+01 1.953271e+01 3.605790e+01 2.607513e+01 2.890439e+01 2.636053e+01 1.886987e+01 2.472080e+01 1.464088e+01 1.947615e+01 2.878907e+00 1.876793e+00 1.720607e+00 2.303593e+00 1.597916e+00 2.266950e+00 2.114032e+00 2.345710e+00 2.376965e+00 1.963553e+00 3.874413e+00 1.783616e+00 1.561877e+00 2.463271e-01 2.934772e-01 2.248022e-01 4.630562e-01 2.627471e-01 5.549495e-01 4.808244e-01 4.458697e-01 4.193144e-01 3.560554e-01 3.933157e-01 3.145134e-01 2.255631e-01
<GCONST> 1.087915e+02
<TRANSP> 5
 0.000000e+00 1.000000e+00 0.000000e+00 0.000000e+00 0.000000e+00
 0.000000e+00 7.648271e-01 2.351729e-01 0.000000e+00 0.000000e+00
 0.000000e+00 0.000000e+00 5.065344e-01 4.934656e-01 0.000000e+00
 0.000000e+00 0.000000e+00 0.000000e+00 5.921395e-01 4.078605e-01
 0.000000e+00 0.000000e+00 0.000000e+00 0.000000e+00 0.000000e+00
<ENDHMM>
~h "z"
<BEGINHMM>
<NUMSTATES> 5
<STATE> 2
<MEAN> 39
 -8.792554e+00 8.229882e+00 1.009761e+01 -7.534876e+00 9.232618e+00 -3.570096e+00 -5.656109e+00 -1.410545e+00 -7.084965e+00 -4.066074e+00 6.759688e+00 1.645476e+00 6.251249e+01 -3.543797e+00 9.937387e-01 2.174413e+00 -1.602675e+00 2.634907e+00 -2.902760e-01 -1.893734e-01 2.658370e-01 4.919425e-02 -6.611102e-01 6.467724e-01 -8.613201e-01 4.675194e-01 -1.313668e-01 -2.659514e-01 -3.875090e-01 3.015138e-01 -5.253447e-01 -1.290488e-02 3.650948e-01 1.479294e-01 1.601472e-01 3.992334e-01 -3.338150e-01 -1.971480e-01 3.886271e-02
<VARIANCE> 39
 2.664415e+01 8.442801e+00 2.533847e+01 4.029214e+01 2.714383e+01 3.960071e+01 1.869449e+01 3.099776e+01 2.080093e+01 2.841157e+01 2.186746e+01 2.261282e+01 9.944010e+00 2.302428e+00 1.343083e+00 2.005387e+00 2.482308e+00 2.454024e+00 2.829204e+00 2.410337e+00 2.339117e+00 3.213491e+00 2.657781e+00 2.179210e+00 1.508672e+00 1.046223e+00 5.950449e-01 2.290952e-01 4.175334e-01 3.700632e-01 6.254323e-01 4.008806e-01 3.799975e-01 3.610577e-01 5.058447e-01 4.623080e-01 4.329666e-01 3.383692e-01 1.212938e-01
<GCONST> 1.093142e+02
<STATE> 3
<MEAN> 39
 -1.828945e+01 9.489974e+00 1.240493e+01 -9.120266e+00 1.308308e+01 -5.131493e+00 -4.294094e+00 7.345888e-01 -6.241888e+00 -3.110543e+00 6.411046e+00 -1.879725e+00 6.386730e+01 -6.246393e-01 -4.419490e-01 -2.663990e-01 3.595368e-01 -2.727153e-01 1.407931e-01 3.442713e-01 2.238509e-01 1.644439e-01 5.162045e-01 4.621885e-02 -3.320231e-01 -9.668821e-02 1.334809e+00 -3.878268e-01 -5.081488e-01 5.644114e-01 -8.125914e-01 3.598124e-02 -7.551642e-02 -2.051458e-01 4.287381e-02 1.695625e-01 -9.998953e-02 3.005357e-01 -1.676442e-01
<VARIANCE> 39
 2.103282e+01 1.039172e+01 1.816821e+01 3.062131e+01 1.823787e+01 3.992152e+01 2.038024e+01 2.246216e+01 2.104127e+01 2.644008e+01 2.221249e+01 1.730644e+01 4.047838e+00 4.311679e+00 1.177119e+00 1.290929e+00 1.944898e+00 1.805384e+00 1.640564e+00 1.762647e+00 1.855142e+00 2.068717e+00 1.823292e+00 1.603512e+00 1.255269e+00 4.733560e-01 2.635844e-01 2.128104e-01 3.634622e-01 3.233179e-01 3.565468e-01 3.702120e-01 4.033287e-01 3.483425e-01 4.960217e-01 4.702884e-01 3.830061e-01 2.270273e-01 8.236502e-02
<GCONST> 1.004645e+02
<STATE> 4
<MEAN> 39
 -1.218213e+01 6.067876e+00 9.584986e+00 -5.221263e+00 8.229272e+00 -3.950467e+00 -3.982714e+00 -5.216264e-01 -5.588894e+00 -1.263522e+00 6.841949e+00 -5.291407e-01 6.231746e+01 2.939639e+00 -7.743113e-01 -1.180348e+00 1.087449e+00 -1.893447e+00 1.885693e-02 -2.493371e-01 -6.752461e-01 3.133624e-01 6.323855e-01 -4.484493e-01 5.486861e-01 -2.495735e-01 2.069992e-01 1.147088e-01 -1.015117e-01 -7.672014e-02 -1.004414e-01 -1.107828e-02 -6.322713e-02 -6.226899e-02 -5.893700e-03 -5.424593e-02 -3.461038e-01 5.769857e-02 8.149305e-02
<VARIANCE> 39
 3.506663e+01 1.555688e+01 2.131418e+01 2.929082e+01 2.393456e+01 4.159941e+01 2.611987e+01 2.707146e+01 2.127565e+01 2.377876e+01 2.085324e+01 1.821208e+01 8.131500e+00 3.104542e+00 1.551226e+00 2.898338e+00 2.202642e+00 2.166014e+00 1.901558e+00 2.935926e+00 2.319551e+00 2.276301e+00 2.389288e+00 2.475147e+00 1.641826e+00 9.968702e-01 7.875944e-01 3.219702e-01 3.973354e-01 2.947316e-01 4.143184e-01 3.262369e-01 4.036145e-01 4.043021e-01 3.618085e-01 4.036892e-01 3.702312e-01 3.247514e-01 1.523920e-01
<GCONST> 1.087398e+02
<TRANSP> 5
 0.000000e+00 1.000000e+00 0.000000e+00 0.000000e+00 0.000000e+00
 0.000000e+00 5.769650e-01 4.230350e-01 0.000000e+00 0.000000e+00
 0.000000e+00 0.000000e+00 6.902258e-01 3.097742e-01 0.000000e+00
 0.000000e+00 0.000000e+00 0.000000e+00 6.361938e-01 3.638062e-01
 0.000000e+00 0.000000e+00 0.000000e+00 0.000000e+00 0.000000e+00
<ENDHMM>
~h "aa"
<BEGINHMM>
<NUMSTATES> 5
<STATE> 2
<MEAN> 39
 2.642833e-01 1.680986e+00 -4.613844e+00 -1.093096e+01 3.355332e+00 -2.073175e+00 3.461249e-01 3.250016e+00 -5.828156e+00 3.079070e+00 4.139765e+00 -3.361587e-01 6.690554e+01 5.826211e-01 -1.576411e-01 -1.193210e+00 -2.124934e+00 7.466425e-01 -8.195125e-03 1.268645e-01 1.550957e+00 -1.114457e+00 -1.336651e-01 2.281001e-01 -4.567222e-02 7.349505e-01 -4.163951e-01 8.334079e-02 4.456661e-01 3.674599e-01 2.567441e-02 2.196114e-02 -7.650747e-03 2.500316e-02 -1.449358e-01 -2.969087e-01 9.896555e-02 -7.693922e-02 -4.160833e-01
<VARIANCE> 39
 4.739168e+00 1.486491e+01 1.299057e+01 2.555711e+01 2.578005e+01 1.937926e+01 2.949427e+01 3.171507e+01 2.752066e+01 1.881416e+01 2.084685e+01 2.263878e+01 9.633976e+00 1.270086e+00 1.169150e+00 1.524902e+00 2.473539e+00 2.845276e+00 1.739435e+00 1.848587e+00 1.824516e+00 2.364470e+00 1.419804e+00 1.695645e+00 1.160435e+00 9.844743e-01 2.449268e-01 2.481723e-01 2.445338e-01 3.717461e-01 4.788226e-01 2.823434e-01 3.296940e-01 4.170441e-01 4.419111e-01 2.725222e-01 3.766871e-01 2.207691e-01 1.021159e-01
<GCONST> 9.980499e+01
<STATE> 3
<MEAN> 39
 3.728557e-01 3.726109e+00 -5.336894e+00 -1.472965e+01 5.509014e+00 -3.220372e-01 1.889485e+00 8.197780e+00 -9.581435e+00 5.296773e-01 5.428754e+00 -6.133752e-01 6.521912e+01 -1.806801e-02 2.464943e-01 1.772876e-01 4.797621e-02 9.640566e-02 7.093438e-02 -6.954075e-02 2.411759e-01 -1.669200e-01 -1.869184e-01 1.210146e-01 6.358214e-02 -2.724987e-01 -9.003417e-02 4.024282e-02 2.306992e-01 4.390763e-01 -1.810440e-01 1.834600e-03 -4.174848e-03 -3.137127e-01 2.076296e-01 1.475608e-02 -8.478259e-02 5.723862e-02 -1.469130e-01
<VARIANCE> 39
 3.396405e+00 1.006356e+01 9.840528e+00 1.320752e+01 1.807162e+01 1.667010e+01 1.910020e+01 2.534567e+01 2.308130e+01 1.778809e+01 1.554991e+01 1.668728e+01 7.480096e+00 1.736141e-01 4.898559e-01 6.435756e-01 1.228345e+00 1.312986e+00 9.384192e-01 9.991530e-01 1.506997e+00 1.370687e+00 1.090283e+00 9.998225e-01 9.228162e-01 2.257561e-01 4.920553e-02 8.866732e-02 1.114599e-01 1.743548e-01 2.163648e-01 1.786915e-01 1.778667e-01 2.469038e-01 2.152282e-01 1.812744e-01 1.773178e-01 1.532288e-01 4.685773e-02
<GCONST> 7.664245e+01
<STATE> 4
<MEAN> 39
 -1.095154e+00 4.888933e+00 -2.445934e+00 -9.591693e+00 4.157706e+00 3.681334e-02 9.157037e-01 5.317590e+00 -7.695686e+00 1.038872e-01 4.827615e+00 6.089181e-01 6.235561e+01 -1.099734e+00 3.744065e-01 1.211141e+00 1.850256e+00 -5.478234e-01 2.070572e-01 4.288262e-01 -1.195948e+00 7.175522e-01 -3.847105e-01 -5.721055e-01 4.841496e-02 -1.255360e+00 -3.482486e-01 -1.320012e-01 7.514988e-02 -4.527156e-02 2.061420e-02 -2.970441e-02 -8.906890e-05 -9.884670e-02 3.108368e-02 -6.192238e-03 -7.391620e-02 -1.559740e-01 1.482429e-02
<VARIANCE> 39
 7.337425e+00 1.237513e+01 1.543074e+01 2.462619e+01 3.193675e+01 2.835621e+01 2.727820e+01 2.593178e+01 2.983397e+01 2.262716e+01 1.909953e+01 1.946426e+01 1.975352e+01 1.140244e+00 1.296726e+00 2.090191e+00 1.900445e+00 3.077529e+00 1.892570e+00 1.791219e+00 2.010849e+00 2.447845e+00 1.777627e+00 1.976714e+00 1.428212e+00 6.811054e-01 2.476123e-01 2.016534e-01 3.501441e-01 5.036594e-01 4.349411e-01 3.908643e-01 3.594161e-01 4.089411e-01 4.662212e-01 3.515062e-01 3.418815e-01 2.613564e-01 1.795696e-01
<GCONST> 1.034881e+02
<TRANSP> 5
 0.000000e+00 1.000000e+00 0.000000e+00 0.000000e+00 0.000000e+00
 0.000000e+00 6.602187e-01 3.397814e-01 0.000000e+00 0.000000e+00
 0.000000e+00 0.000000e+00 8.337338e-01 1.662662e-01 0.000000e+00
 0.000000e+00 0.000000e+00 0.000000e+00 6.761995e-01 3.238005e-01
 0.000000e+00 0.000000e+00 0.000000e+00 0.000000e+00 0.000000e+00
<ENDHMM>
~h "aw"
<BEGINHMM>
<NUMSTATES> 5
<STATE> 2
<MEAN> 39
 -1.036452e+01 -3.877251e+00 -5.920263e+00 -3.455964e+00 4.778796e+00 4.365025e+00 -1.322250e+00 6.942590e-01 -1.345659e+00 -4.477566e-01 4.540054e+00 1.416277e+00 5.384053e+01 -3.567589e-01 -2.409143e-01 3.145560e-02 4.515683e-02 -2.166554e-01 6.149504e-02 -1.301777e-01 -1.289559e-01 2.327268e-01 1.320580e-02 4.486092e-02 -4.626923e-02 -2.550502e-01 -1.417882e-02 1.494860e-01 1.459494e-01 4.962255e-02 -9.563944e-02 -1.766098e-01 1.285961e-02 2.511068e-02 3.209572e-02 2.040988e-02 -8.091518e-02 -8.840106e-02 -3.218481e-02
<VARIANCE> 39
 5.688660e+00 3.277020e+01 2.084470e+01 1.064361e+01 1.798949e+01 2.647783e+01 2.640352e+01 2.255256e+01 9.213813e+00 9.775857e+00 6.292577e+00 2.104577e+01 6.294217e+00 4.571462e-01 1.436272e+00 1.475350e+00 1.124304e+00 1.535316e+00 2.629537e+00 1.808120e+00 2.344373e+00 1.406476e+00 1.614528e+00 7.537153e-01 1.442901e+00 6.281238e-01 5.924881e-02 1.354831e-01 2.631696e-01 2.172896e-01 2.714877e-01 4.524527e-01 3.693590e-01 5.852556e-01 2.217223e-01 2.591063e-01 1.914230e-01 4.193383e-01 5.113222e-02
<GCONST> 8.978569e+01
<STATE> 3
<MEAN> 39
 -1.494415e+01 2.782427e+00 1.422404e-01 1.840923e+00 2.490833e+00 5.223798e+00 2.961072e+00 2.543194e+00 1.478750e+00 2.449536e+00 2.489968e+00 1.818718e+00 4.761862e+01 -2.022697e-01 1.482633e-02 1.329694e-01 1.373881e-01 9.684416e-02 -6.655508e-04 2.359565e-01 3.049051e-01 1.313842e-01 8.730366e-02 -8.044795e-03 2.788058e-02 -1.581954e-01 6.890563e-02 -3.865425e-02 -5.003814e-02 -1.143665e-01 -1.236410e-02 -5.338618e-03 4.200116e-04 4.561483e-03 -5.991473e-02 -6.796791e-02 1.178440e-02 1.126176e-02 9.378891e-02
<VARIANCE> 39
 4.986171e+00 4.059530e+00 3.817077e+00 8.578856e+00 7.771231e+00 1.086036e+01 1.150550e+01 1.354415e+01 9.257124e+00 1.265304e+01 1.304265e+01 1.176687e+01 2.397085e+00 2.182419e-01 4.731159e-01 4.911871e-01 1.142397e+00 8.016378e-01 8.111434e-01 8.392576e-01 1.306772e+00 9.160092e-01 1.724677e+00 1.334322e+00 1.536599e+00 2.223085e-01 5.101616e-02 9.122083e-02 1.232237e-01 3.219574e-01 1.453530e-01 2.024080e-01 1.592669e-01 2.199126e-01 1.483857e-01 3.121045e-01 3.220739e-01 3.289033e-01 9.812614e-02
<GCONST> 7.170049e+01
<STATE> 4
<MEAN> 39
 -1.420765e+01 2.058111e+00 -2.291097e-01 2.298820e-01 2.734156e+00 6.249894e+00 5.305840e+00 5.115977e+00 1.782889e+00 1.708328e+00 3.720976e+00 4.104605e+00 4.840356e+01 1.858098e+00 -2.796370e-01 1.011106e-01 -2.411012e+00 -1.543139e+00 -2.606503e-01 -1.929566e-01 6.057616e-01 -1.659035e+00 -1.082917e+00 3.715788e-01 -5.837810e-01 2.196029e+00 7.546176e-01 -1.096882e-01 9.042253e-02 -4.620367e-01 -4.796111e-01 -2.926013e-01 -2.992702e-01 -3.436596e-01 -6.870813e-01 -1.239224e-01 6.307882e-04 -1.895930e-01 9.617423e-01
<VARIANCE> 39
 1.030355e+01 3.705044e+00 2.328939e+00 1.921434e+01 1.335641e+01 6.041161e+00 1.430087e+01 6.537924e+00 1.372908e+01 8.095114e+00 6.881350e+00 5.523364e+00 8.923337e+00 2.155570e+00 2.851148e+00 1.605387e+00 8.659054e+00 3.102107e+00 1.884920e+00 2.191598e+00 4.029243e+00 3.093297e+00 1.642178e+00 3.614681e+00 1.336282e+00 3.265749e+00 1.791310e-01 2.552556e-01 2.154489e-01 8.355705e-01 4.889737e-01 5.145172e-01 1.279117e-01 1.697727e-01 3.994949e-01 5.152688e-01 4.075286e-01 1.664759e-01 2.078816e-01
<GCONST> 9.551038e+01
<TRANSP> 5
 0.000000e+00 1.000000e+00 0.000000e+00 0.000000e+00 0.000000e+00
 0.000000e+00 8.952559e-01 1.047441e-01 0.000000e+00 0.000000e+00
 0.000000e+00 0.000000e+00 9.308696e-01 6.913045e-02 0.000000e+00
 0.000000e+00 0.000000e+00 0.000000e+00 5.932997e-01 4.067003e-01
 0.000000e+00 0.000000e+00 0.000000e+00 0.000000e+00 0.000000e+00
<ENDHMM>
~h "ch"
<BEGINHMM>
<NUMSTATES> 5
<STATE> 2
<MEAN> 39
 -1.272126e+01 -6.813778e-01 8.863872e+00 3.879475e-01 -1.618297e+00 -1.526552e+00 2.226422e+00 -5.231685e+00 -5.066618e+00 -1.036836e+00 1.922412e+00 -2.000251e+00 5.766828e+01 -2.806865e+00 -2.695591e+00 2.070901e+00 -5.234320e-01 -7.813053e-01 -2.094388e+00 1.894351e+00 -2.710324e-01 -2.729393e-01 -1.894788e-01 4.206001e-01 -5.556074e-01 1.902792e+00 -2.668952e-01 -1.865909e-01 3.464186e-01 2.872166e-01 3.923194e-01 -6.898644e-01 -1.491372e-01 2.605763e-01 1.666166e-01 1.030866e-02 7.315610e-02 8.997529e-02 4.356297e-01
<VARIANCE> 39
 2.393855e+01 3.886192e+01 3.457557e+01 3.194689e+01 3.710290e+01 3.593845e+01 3.664020e+01 2.945844e+01 2.636701e+01 2.357547e+01 1.527992e+01 1.524080e+01 2.077538e+01 2.291971e+00 2.520658e+00 3.048723e+00 2.892354e+00 3.386492e+00 4.070869e+00 2.241268e+00 2.874681e+00 2.010752e+00 2.116007e+00 1.520064e+00 1.210011e+00 2.036098e+00 4.147429e-01 7.604692e-01 6.181533e-01 6.131017e-01 7.579145e-01 6.747996e-01 7.472442e-01 5.734398e-01 5.227237e-01 4.715466e-01 3.390068e-01 2.794958e-01 5.346851e-01
<GCONST> 1.177768e+02
<STATE> 3
<MEAN> 39
 -2.355182e+01 -8.916135e+00 1.693215e+01 2.470307e+00 1.432426e-01 -1.260556e+01 5.513861e+00 -3.453057e+00 -4.932222e+00 -2.809028e+00 3.430233e+00 -2.368299e+00 6.462252e+01 -7.068689e-01 -1.020958e+00 2.966509e-01 4.270152e-01 9.081771e-01 -1.660885e+00 -5.518582e-01 1.243086e+00 9.460522e-01 -9.939417e-02 2.114939e-01 3.934324e-01 4.777336e-01 1.349790e+00 8.824235e-01 -8.770262e-01 -6.799854e-02 2.241021e-02 9.988672e-01 -6.102677e-01 4.971336e-02 2.457930e-01 2.548264e-01 -1.936523e-01 1.326022e-01 -7.929857e-01
<VARIANCE> 39
 7.893822e+00 1.086263e+01 1.399838e+01 1.808319e+01 2.039863e+01 2.032102e+01 2.053376e+01 2.280613e+01 1.892010e+01 2.311347e+01 1.818618e+01 1.512959e+01 5.591454e+00 3.777680e+00 1.915334e+00 2.736015e+00 1.982342e+00 2.114858e+00 4.033628e+00 2.070974e+00 1.914634e+00 2.062057e+00 2.096536e+00 1.326714e+00 1.337947e+00 1.517239e+00 3.556066e-01 2.869729e-01 3.656442e-01 3.096298e-01 3.995872e-01 4.475572e-01 3.637677e-01 4.426877e-01 3.424740e-01 3.474242e-01 2.991782e-01 2.781608e-01 1.216015e-01
<GCONST> 1.021735e+02
<STATE> 4
<MEAN> 39
 -1.727491e+01 -6.913369e+00 1.232154e+01 2.453100e+00 2.159708e+00 -1.020804e+01 1.686928e+00 5.623623e-01 -4.797448e-01 -4.881701e-01 2.866466e+00 -7.942244e-01 6.096479e+01 3.152625e+00 2.239858e+00 -1.231143e+00 4.190147e-01 4.603159e-02 2.036390e+00 -1.144241e+00 5.199687e-02 4.335012e-01 7.733496e-01 -4.083927e-01 3.382100e-01 -1.114002e+00 3.279668e-01 4.267041e-01 -3.396531e-02 4.852926e-03 -2.178268e-01 3.336117e-01 7.557290e-02 -4.307247e-01 -4.351133e-01 3.351018e-03 -1.777215e-02 3.447764e-03 1.787810e-01
<VARIANCE> 39
 2.574605e+01 1.936755e+01 1.672408e+01 1.700788e+01 2.329508e+01 4.031668e+01 2.688029e+01 2.592275e+01 1.757570e+01 2.394728e+01 1.941214e+01 1.287504e+01 1.047556e+01 2.911210e+00 1.589547e+00 1.848343e+00 1.836034e+00 1.747484e+00 2.434505e+00 2.673648e+00 2.656940e+00 1.676737e+00 1.939375e+00 2.049437e+00 1.480665e+00 9.780381e-01 6.224596e-01 4.222658e-01 2.899117e-01 3.219165e-01 4.049350e-01 7.921396e-01 4.655738e-01 4.684628e-01 3.331877e-01 3.857536e-01 4.082069e-01 3.298479e-01 2.910272e-01
<GCONST> 1.076145e+02
<TRANSP> 5
 0.000000e+00 1.000000e+00 0.000000e+00 0.000000e+00 0.000000e+00
 0.000000e+00 7.215383e-01 2.784617e-01 0.000000e+00 0.000000e+00
 0.000000e+00 0.000000e+00 7.124386e-01 2.875614e-01 0.000000e+00
 0.000000e+00 0.000000e+00 0.000000e+00 6.963180e-01 3.036821e-01
 0.000000e+00 0.000000e+00 0.000000e+00 0.000000e+00 0.000000e+00
<ENDHMM>
~h "dj"
<BEGINHMM>
<NUMSTATES> 5
<STATE> 2
<MEAN> 39
 -5.458656e+00 6.228492e+00 7.472539e+00 3.662389e+00 1.506775e+00 4.325092e-01 -6.050887e+00 -6.479144e+00 -4.949810e+00 2.066254e-01 -9.911263e-01 -3.194011e+00 5.736933e+01 -9.885611e-01 -3.922812e-01 1.923955e+00 -1.086284e-01 -9.906742e-01 5.208400e-01 -4.812633e-02 -3.685104e-01 -1.024329e-02 -3.259736e-02 1.755446e-01 -7.899628e-01 3.373553e-01 -2.770942e-01 -2.573364e-01 3.119655e-01 -2.891503e-01 -1.638196e-01 4.900113e-02 3.686895e-01 1.606176e-01 1.983248e-02 -6.701718e-02 2.687542e-01 1.203038e-01 2.746771e-01
<VARIANCE> 39
 2.930542e+01 2.705983e+01 3.939264e+01 3.706097e+01 3.310534e+01 2.967826e+01 3.668948e+01 3.910649e+01 2.404320e+01 3.580589e+01 1.845306e+01 3.245311e+01 2.741678e+01 3.616178e+00 3.612831e+00 2.747254e+00 5.663061e+00 3.261947e+00 5.503800e+00 4.985976e+00 4.745862e+00 2.902181e+00 4.673590e+00 2.444704e+00 3.216493e+00 3.237390e+00 5.292624e-01 6.058182e-01 6.891694e-01 9.563208e-01 7.326899e-01 1.289078e+00 9.881427e-01 9.487909e-01 5.450490e-01 9.066921e-01 3.919538e-01 6.833237e-01 6.936827e-01
<GCONST> 1.294088e+02
<STATE> 3
<MEAN> 39
 -1.353086e+01 1.473422e+00 1.757014e+01 -8.263878e-01 -3.228981e+00 2.836817e+00 -2.364924e+00 -5.405131e+00 -6.399125e+00 -2.021652e+00 2.955408e+00 -3.918313e+00 6.039795e+01 1.427814e-01 -6.482887e-01 1.262096e+00 1.197577e+00 2.286172e-01 -1.898938e+00 -1.246200e-01 1.410793e-01 1.855538e-01 2.634186e-01 7.861050e-02 -6.074289e-01 9.674368e-01 1.091282e+00 3.795396e-01 -9.728020e-01 7.672422e-01 3.686818e-01 -7.965506e-01 -4.837927e-01 -2.038921e-01 2.438186e-01 1.592536e-01 -4.475397e-01 9.435536e-02 -1.099268e-01
<VARIANCE> 39
 2.609453e+01 1.175006e+01 1.708002e+01 4.053549e+01 2.620275e+01 2.866120e+01 2.670237e+01 4.087608e+01 1.440914e+01 1.624401e+01 1.992158e+01 2.054320e+01 8.257856e+00 5.749728e+00 2.106478e+00 3.379052e+00 5.435110e+00 3.664191e+00 5.094827e+00 3.436869e+00 3.273881e+00 1.272262e+00 1.829630e+00 2.349001e+00 1.751115e+00 1.289632e+00 5.139287e-01 3.304223e-01 5.932071e-01 7.593116e-01 8.090368e-01 1.065895e+00 6.402781e-01 7.373489e-01 2.953221e-01 4.426336e-01 3.651412e-01 3.855224e-01 2.657006e-01
<GCONST> 1.156162e+02
<STATE> 4
<MEAN> 39
 -5.800624e+00 2.210777e+00 1.499706e+01 7.881808e+00 -1.821901e+00 -7.335131e+00 -6.524184e+00 -7.327199e+00 -4.683498e+00 3.645723e-01 -6.264018e-01 -5.844647e+00 6.261355e+01 1.772234e+00 -8.233029e-02 -2.336200e+00 9.974921e-01 6.127713e-01 -1.673582e+00 -1.133352e+00 -6.574811e-01 8.271273e-01 1.986295e-01 -5.635027e-01 6.163547e-01 2.795359e-01 -3.094111e-01 2.384719e-01 -5.573227e-01 -7.874014e-01 1.112149e-01 1.131863e+00 2.094818e-01 -9.489542e-02 -8.650466e-02 -2.306037e-01 2.319483e-01 3.648135e-01 -5.428855e-01
<VARIANCE> 39
 1.744736e+01 8.703197e+00 2.522728e+01 2.840065e+01 3.040768e+01 2.078566e+01 1.630562e+01 2.538855e+01 1.011053e+01 2.076126e+01 1.379499e+01 1.413292e+01 7.829963e+00 3.458121e+00 1.341766e+00 3.887339e+00 4.207330e+00 3.488386e+00 5.267237e+00 2.910575e+00 4.080970e+00 1.716033e+00 2.437912e+00 1.887560e+00 1.968280e+00 1.935233e+00 5.916339e-01 3.485269e-01 8.658150e-01 4.909953e-01 8.587426e-01 7.348241e-01 5.152884e-01 5.386550e-01 2.569284e-01 3.711524e-01 3.200887e-01 2.869135e-01 2.091780e-01
<GCONST> 1.110665e+02
<TRANSP> 5
 0.000000e+00 1.000000e+00 0.000000e+00 0.000000e+00 0.000000e+00
 0.000000e+00 7.464730e-01 2.535270e-01 0.000000e+00 0.000000e+00
 0.000000e+00 0.000000e+00 6.953303e-01 3.046697e-01 0.000000e+00
 0.000000e+00 0.000000e+00 0.000000e+00 5.296021e-01 4.703979e-01
 0.000000e+00 0.000000e+00 0.000000e+00 0.000000e+00 0.000000e+00
<ENDHMM>
~h "ee"
<BEGINHMM>
<NUMSTATES> 5
<STATE> 2
<MEAN> 39
