~o
<STREAMINFO> 1 39
<VECSIZE> 39<NULLD><MFCC_D_A_0><DIAGC>
~s "silst"
<MEAN> 39
 -1.267354e+01 1.380817e+00 -4.140774e-01 1.617537e+00 3.127533e+00 3.129552e+00 1.918166e-01 2.267488e+00 1.558853e+00 1.380828e+00 1.887717e+00 6.700390e-01 5.016658e+01 -2.696131e-01 -1.608207e-01 -7.926261e-02 -7.446002e-04 -3.600446e-04 5.767313e-02 5.036905e-02 7.474448e-02 8.857070e-02 9.889880e-02 5.177341e-02 3.546101e-02 -1.707582e-01 3.371341e-02 -7.489760e-04 3.121909e-02 -1.968188e-02 1.416233e-02 -1.293158e-02 2.358861e-03 -4.866560e-03 -2.850754e-02 -8.701902e-03 1.743838e-02 4.235460e-03 6.892955e-02
<VARIANCE> 39
 7.347457e+00 2.468899e+01 1.729055e+01 1.505400e+01 1.018745e+01 1.450450e+01 2.060470e+01 1.824201e+01 1.716421e+01 1.719143e+01 1.667654e+01 1.337471e+01 5.411992e+00 2.481596e-01 7.876263e-01 7.618499e-01 9.082687e-01 8.931356e-01 1.142634e+00 1.430932e+00 1.409145e+00 1.403599e+00 1.387036e+00 1.324253e+00 1.183246e+00 2.802743e-01 5.004543e-02 1.184851e-01 1.364350e-01 1.810578e-01 1.882522e-01 2.378614e-01 2.707284e-01 2.894933e-01 2.833087e-01 2.806415e-01 2.625436e-01 2.389342e-01 5.565518e-02
<GCONST> 8.204183e+01
~h "a"
<BEGINHMM>
<NUMSTATES> 5
<STATE> 2
<MEAN> 39
 -3.332455e+00 1.005925e+00 -1.896256e+00 -7.241523e+00 1.670963e+00 -1.017952e+00 3.462488e-01 1.203771e+00 -5.032464e+00 3.013372e+00 3.754823e+00 9.959528e-01 6.268242e+01 1.373148e+00 1.731568e-01 -7.501002e-01 -1.250286e+00 6.588706e-02 -6.112010e-02 -6.372792e-02 5.180711e-01 -8.113082e-01 1.103180e-01 5.963023e-02 2.030846e-01 1.065904e+00 -3.918971e-01 1.983374e-01 4.214719e-01 3.967650e-01 1.265914e-02 3.343223e-02 1.240518e-02 -2.196079e-02 -1.061437e-01 -3.312285e-01 3.964166e-02 -8.660141e-02 -4.087396e-01
<VARIANCE> 39
 4.782757e+01 2.277859e+01 1.853307e+01 4.786536e+01 3.242550e+01 2.770982e+01 3.371656e+01 3.788242e+01 3.710661e+01 2.717360e+01 2.053542e+01 1.996259e+01 3.880365e+01 3.591084e+00 2.345285e+00 2.293146e+00 4.287283e+00 3.200757e+00 2.269964e+00 2.730752e+00 3.516554e+00 3.227107e+00 2.692153e+00 2.893300e+00 2.365437e+00 2.869138e+00 7.041401e-01 4.645105e-01 3.974624e-01 6.836131e-01 4.977166e-01 4.171248e-01 4.260500e-01 5.675751e-01 5.513798e-01 4.997535e-01 4.896314e-01 4.231456e-01 5.252907e-01
<GCONST> 1.208842e+02
<STATE> 3
<MEAN> 39
 -6.357796e-03 3.222493e+00 -2.438268e+00 -1.030508e+01 1.751593e+00 -1.091350e+00 3.646754e-01 2.856466e+00 -8.202817e+00 2.011638e+00 4.838089e+00 1.011440e+00 6.428513e+01 -3.072878e-01 7.221088e-01 6.442394e-01 6.526321e-01 4.416731e-02 3.791671e-01 2.335568e-01 -3.839790e-02 -3.551140e-01 -6.640395e-01 1.743880e-02 -6.143117e-02 -8.665560e-01 -5.314958e-01 5.495287e-02 3.882134e-01 7.052618e-01 -1.539343e-01 4.611876e-02 1.623039e-01 -2.881859e-01 2.135680e-01 -2.741987e-01 -1.565665e-01 -1.244224e-01 -5.196726e-01
<VARIANCE> 39
 9.449362e+00 1.517519e+01 1.809881e+01 4.185741e+01 2.778823e+01 1.935683e+01 3.688049e+01 3.881103e+01 3.532689e+01 2.217871e+01 2.258755e+01 2.064293e+01 1.262121e+01 1.215945e+00 1.291057e+00 1.620496e+00 3.224050e+00 2.474602e+00 2.132876e+00 2.074231e+00 3.083922e+00 2.650062e+00 2.193684e+00 1.952866e+00 1.490898e+00 1.582852e+00 3.284897e-01 2.436062e-01 3.684708e-01 5.594763e-01 4.500399e-01 3.543328e-01 4.322631e-01 5.600578e-01 5.257788e-01 3.853078e-01 4.307319e-01 3.177154e-01 2.401162e-01
<GCONST> 1.087116e+02
<STATE> 4
<MEAN> 39
 -3.966595e+00 4.940902e+00 5.818843e-02 -4.754201e+00 2.092414e+00 2.106439e+00 1.459607e+00 1.354413e+00 -6.074896e+00 -6.854701e-01 3.743976e+00 9.140502e-01 5.837860e+01 -1.005062e+00 3.807499e-01 5.675329e-01 1.056405e+00 -3.475733e-01 1.499324e-01 3.030698e-01 -3.949690e-01 2.544825e-01 -6.581103e-01 -3.097384e-01 -1.650227e-01 -1.193418e+00 -1.582119e-01 -2.196123e-01 -8.226527e-02 -1.362980e-01 -7.332669e-02 -2.612615e-01 -6.583115e-02 -9.668875e-03 1.043837e-01 1.487881e-01 1.049745e-02 -7.038962e-02 1.754691e-01
<VARIANCE> 39
 2.109846e+01 1.509185e+01 2.225313e+01 3.083015e+01 3.547968e+01 3.329052e+01 3.820681e+01 2.793644e+01 3.030519e+01 2.205415e+01 1.901540e+01 1.680402e+01 2.232153e+01 1.750918e+00 1.363048e+00 1.927347e+00 3.062369e+00 3.059909e+00 2.234017e+00 1.878955e+00 2.455291e+00 2.913105e+00 2.096632e+00 2.266380e+00 1.465456e+00 1.727655e+00 3.297160e-01 2.065089e-01 3.527285e-01 4.554347e-01 4.395287e-01 4.150645e-01 3.673680e-01 4.965947e-01 3.728150e-01 4.174914e-01 3.619087e-01 2.795582e-01 2.485512e-01
<GCONST> 1.095876e+02
<TRANSP> 5
 0.000000e+00 1.000000e+00 0.000000e+00 0.000000e+00 0.000000e+00
 0.000000e+00 4.492789e-01 5.507211e-01 0.000000e+00 0.000000e+00
 0.000000e+00 0.000000e+00 5.147494e-01 4.852506e-01 0.000000e+00
 0.000000e+00 0.000000e+00 0.000000e+00 4.813308e-01 5.186692e-01
 0.000000e+00 0.000000e+00 0.000000e+00 0.000000e+00 0.000000e+00
<ENDHMM>
~h "b"
<BEGINHMM>
<NUMSTATES> 5
<STATE> 2
<MEAN> 39
 -3.406146e+00 1.158066e+01 5.148662e+00 3.314617e+00 1.533204e+00 6.363630e-01 -1.693041e+00 -2.996151e+00 -5.832793e+00 -5.176063e+00 -1.754350e+00 4.523723e-01 5.405368e+01 -5.088754e-01 8.272811e-01 7.510577e-01 6.211670e-01 6.123820e-02 1.366550e-01 -4.646610e-02 1.715428e-01 1.294642e-01 -4.282288e-01 -4.788914e-01 -4.193377e-01 -8.593390e-01 -1.474310e-01 -6.573545e-01 -2.265341e-01 -2.105073e-01 -9.474778e-02 -1.976027e-01 -2.948486e-02 -6.533896e-02 1.544986e-01 4.277976e-01 2.756731e-01 -5.952743e-02 3.313736e-01
<VARIANCE> 39
 1.459665e+01 9.739356e+00 1.602346e+01 1.677770e+01 1.342498e+01 1.314931e+01 2.040321e+01 2.093232e+01 1.821679e+01 1.101126e+01 1.163903e+01 1.173449e+01 6.852628e+00 1.373053e+00 1.032445e+00 9.638726e-01 1.104369e+00 1.439274e+00 1.348003e+00 1.262078e+00 1.646006e+00 1.700992e+00 1.398549e+00 1.304476e+00 1.445406e+00 8.368061e-01 1.118095e-01 2.651316e-01 1.707234e-01 2.782744e-01 2.430427e-01 2.679264e-01 2.696084e-01 2.873755e-01 3.257873e-01 2.812619e-01 2.575639e-01 2.768514e-01 9.763005e-02
<GCONST> 8.951758e+01
<STATE> 3
<MEAN> 39
 -5.126296e+00 1.067651e+01 4.938711e+00 4.066642e+00 1.278844e+00 7.917877e-01 -1.896438e+00 -4.710992e+00 -5.777326e+00 -4.491402e+00 -1.749395e+00 2.615929e-01 5.274722e+01 -9.642314e-01 -1.269307e+00 -1.449034e-01 -3.250896e-01 1.337712e-01 -3.467838e-02 -1.930320e-01 3.286110e-01 2.808305e-01 6.732304e-01 8.130853e-01 -4.142845e-01 1.075589e-01 2.938794e-01 -8.432814e-01 -3.555458e-01 -5.237410e-01 -8.322679e-03 -1.660259e-01 8.889209e-02 1.363064e-01 -2.240943e-01 3.730723e-01 5.407732e-01 2.038839e-01 8.770338e-01
<VARIANCE> 39
 1.003398e+01 1.207454e+01 1.585888e+01 1.712728e+01 1.132032e+01 1.280262e+01 1.845821e+01 2.003368e+01 1.962673e+01 1.733006e+01 1.714520e+01 1.466930e+01 4.027227e+00 6.899545e-01 1.572626e+00 8.004300e-01 1.240104e+00 1.082445e+00 1.390907e+00 1.493975e+00 1.525694e+00 1.624517e+00 1.440829e+00 1.624179e+00 1.332902e+00 9.948553e-01 1.390957e-01 2.451117e-01 2.712353e-01 2.983658e-01 2.534907e-01 3.740071e-01 3.703711e-01 2.729580e-01 3.628821e-01 3.564400e-01 3.633815e-01 3.603410e-01 7.752023e-02
<GCONST> 9.146674e+01
<STATE> 4
<MEAN> 39
 -7.150368e+00 4.485967e+00 3.800676e+00 1.525402e+00 2.409021e+00 1.114403e+00 -1.796222e+00 -1.852601e+00 -5.875139e+00 -2.068949e+00 2.668022e+00 -1.811841e-01 5.586240e+01 8.556477e-01 -2.147295e+00 -8.570410e-01 -1.340843e+00 -9.379595e-02 -5.874409e-01 3.831257e-01 3.034574e-01 -6.148152e-01 9.957619e-01 1.289735e+00 4.024705e-01 2.361818e+00 7.607881e-01 3.616300e-01 -7.524215e-02 8.317122e-03 -3.406560e-01 -4.036079e-01 1.195307e-01 -3.787600e-01 -3.073508e-01 -5.237575e-03 -3.853401e-01 1.897668e-01 3.557412e-01
<VARIANCE> 39
 1.158660e+01 2.762490e+01 1.238197e+01 2.489046e+01 1.621662e+01 1.523244e+01 1.990459e+01 2.162633e+01 1.629182e+01 1.820808e+01 2.446210e+01 1.294950e+01 2.075793e+01 2.300167e+00 3.124257e+00 2.348848e+00 4.110270e+00 2.668466e+00 3.101974e+00 3.661101e+00 2.889925e+00 3.730343e+00 2.702094e+00 3.248284e+00 1.945732e+00 1.107817e+00 1.936954e-01 5.735933e-01 2.936157e-01 5.813864e-01 3.423559e-01 4.061930e-01 5.382193e-01 4.560367e-01 5.630593e-01 3.315484e-01 6.385484e-01 4.038676e-01 3.242981e-01
<GCONST> 1.107010e+02
<TRANSP> 5
 0.000000e+00 1.000000e+00 0.000000e+00 0.000000e+00 0.000000e+00
 0.000000e+00 5.877461e-01 4.122540e-01 0.000000e+00 0.000000e+00
 0.000000e+00 0.000000e+00 5.191492e-01 4.808508e-01 0.000000e+00
 0.000000e+00 0.000000e+00 0.000000e+00 5.522287e-01 4.477713e-01
 0.000000e+00 0.000000e+00 0.000000e+00 0.000000e+00 0.000000e+00
<ENDHMM>
~h "c"
<BEGINHMM>
<NUMSTATES> 5
<STATE> 2
<MEAN> 39
 -1.526181e+01 8.643486e+00 5.041627e+00 -7.465757e+00 5.985009e+00 -1.335472e+00 -2.900160e+00 9.449315e-01 -7.095947e+00 -3.457503e+00 2.197659e+00 -2.310210e+00 5.790985e+01 -3.884559e+00 3.679683e-01 5.158178e-01 -1.920445e+00 1.275999e+00 -4.745658e-01 -7.624497e-01 4.753386e-02 2.729262e-01 -4.273217e-02 1.582344e-01 -7.309583e-01 1.258322e+00 3.275882e-02 -2.028044e-01 2.065685e-02 4.074983e-02 2.674635e-02 -2.043702e-01 1.682532e-02 2.893237e-02 6.990389e-02 1.554954e-01 2.264044e-01 1.189500e-01 3.679907e-01
<VARIANCE> 39
 4.709116e+01 2.219913e+01 2.801518e+01 3.615645e+01 2.623178e+01 2.460980e+01 3.478508e+01 2.263312e+01 1.970497e+01 2.278125e+01 1.620892e+01 1.537768e+01 1.548496e+01 1.901979e+00 2.369039e+00 1.927842e+00 3.133029e+00 2.306608e+00 2.640895e+00 1.825494e+00 2.403671e+00 2.590925e+00 2.309295e+00 1.963492e+00 1.396843e+00 1.902039e+00 7.202743e-01 5.654370e-01 3.709445e-01 8.969427e-01 5.478415e-01 4.907006e-01 3.546340e-01 3.658881e-01 5.175930e-01 4.588916e-01 3.139754e-01 2.956406e-01 3.895375e-01
<GCONST> 1.129723e+02
<STATE> 3
<MEAN> 39
 -2.584585e+01 6.260118e+00 7.300850e+00 -1.090496e+01 1.026386e+01 -4.457280e+00 -4.596036e+00 1.880031e+00 -5.721514e+00 -2.765022e+00 4.626812e+00 -4.053600e+00 6.317561e+01 2.636156e-01 -1.516446e+00 5.093419e-03 5.835384e-01 1.683355e-01 -5.316073e-01 3.064634e-01 3.816642e-01 3.649841e-01 3.216837e-01 7.792020e-01 -5.664698e-02 -3.840983e-02 1.179234e+00 -2.124862e-02 -2.037673e-01 5.742055e-01 -3.333739e-01 2.456263e-01 2.024654e-01 -1.882894e-01 -1.427988e-02 9.613626e-02 -6.120637e-02 1.717731e-01 -5.761269e-01
<VARIANCE> 39
 1.461977e+01 2.841961e+01 2.195692e+01 2.217555e+01 2.169417e+01 2.727265e+01 2.587506e+01 2.592650e+01 2.173890e+01 1.500620e+01 1.975219e+01 1.500530e+01 5.494910e+00 3.605421e+00 1.795588e+00 1.226598e+00 2.296425e+00 2.472808e+00 1.819816e+00 1.751494e+00 1.595328e+00 1.713896e+00 1.560437e+00 1.407585e+00 1.411266e+00 1.454429e+00 3.589738e-01 5.574286e-01 2.255523e-01 3.600112e-01 3.726728e-01 3.895412e-01 2.992431e-01 4.508287e-01 3.548297e-01 3.116542e-01 3.430308e-01 2.747233e-01 1.597382e-01
<GCONST> 1.029981e+02
<STATE> 4
<MEAN> 39
 -1.623648e+01 2.266708e+00 5.292239e+00 -4.930925e+00 8.737543e+00 -2.509537e+00 -1.609159e+00 8.662686e-01 -4.276879e+00 -3.434269e-01 6.814141e+00 -2.340061e+00 5.837459e+01 3.221416e+00 9.915936e-01 -2.026230e-01 1.435118e+00 -9.207923e-01 7.545350e-01 4.314394e-01 -1.095347e+00 4.165247e-02 3.507225e-01 -4.490852e-01 6.979461e-01 -9.342973e-01 3.924949e-02 5.022784e-01 5.110335e-02 -2.875068e-01 -2.563628e-01 -1.126686e-01 -2.255167e-01 -2.108631e-01 -9.933134e-02 -1.402376e-01 -3.515575e-01 6.441556e-02 4.101744e-01
<VARIANCE> 39
 2.861470e+01 3.118071e+01 2.700307e+01 2.388886e+01 3.393826e+01 4.156965e+01 3.608690e+01 2.887528e+01 2.007801e+01 1.690308e+01 1.652559e+01 1.679586e+01 1.208685e+01 3.408354e+00 2.646466e+00 2.209715e+00 2.619937e+00 2.172634e+00 2.480162e+00 1.834708e+00 3.218887e+00 2.142598e+00 1.867604e+00 1.642363e+00 1.601387e+00 1.928022e+00 4.207436e-01 6.663682e-01 3.932303e-01 4.063106e-01 4.539589e-01 5.943120e-01 3.767947e-01 5.876760e-01 4.370890e-01 3.239045e-01 3.433383e-01 3.036592e-01 2.863689e-01
<GCONST> 1.121226e+02
<TRANSP> 5
 0.000000e+00 1.000000e+00 0.000000e+00 0.000000e+00 0.000000e+00
 0.000000e+00 7.255073e-01 2.744927e-01 0.000000e+00 0.000000e+00
 0.000000e+00 0.000000e+00 7.665212e-01 2.334788e-01 0.000000e+00
 0.000000e+00 0.000000e+00 0.000000e+00 6.566291e-01 3.433709e-01
 0.000000e+00 0.000000e+00 0.000000e+00 0.000000e+00 0.000000e+00
<ENDHMM>
~h "d"
<BEGINHMM>
<NUMSTATES> 5
<STATE> 2
<MEAN> 39
 -4.662599e+00 6.329885e+00 4.717578e+00 4.081115e+00 6.110961e-01 -1.162249e+00 -2.072306e+00 -5.031159e+00 -6.352948e+00 -1.784047e+00 4.057684e-01 1.925680e-01 5.583180e+01 -7.675310e-01 -1.585063e+00 2.090200e-01 2.831523e-01 -7.429420e-01 -2.689045e-01 7.358105e-01 4.901708e-01 2.564609e-01 2.332192e-01 5.133538e-02 -8.115309e-01 2.097324e-01 1.872356e-01 -7.036009e-01 -1.609174e-01 -3.392237e-01 -1.138213e-01 -2.810109e-01 -2.385273e-02 -5.357874e-02 1.472180e-01 4.962573e-01 3.323761e-01 4.600076e-02 9.062095e-01
<VARIANCE> 39
 1.215392e+01 2.506453e+01 2.988721e+01 2.719130e+01 2.217217e+01 2.423182e+01 3.006226e+01 2.062686e+01 2.080824e+01 2.239595e+01 1.762064e+01 1.506401e+01 1.549910e+01 1.532645e+00 5.920468e+00 3.017751e+00 4.005660e+00 2.710376e+00 3.328407e+00 2.820776e+00 2.605558e+00 2.418847e+00 3.199937e+00 2.921673e+00 1.510551e+00 3.541819e+00 2.671221e-01 7.605536e-01 4.339057e-01 5.240536e-01 5.513971e-01 5.576462e-01 5.986857e-01 7.305983e-01 5.107682e-01 5.536679e-01 4.387970e-01 3.528170e-01 3.971645e-01
<GCONST> 1.158339e+02
<STATE> 3
<MEAN> 39
 -6.742010e+00 -5.054597e+00 5.077591e+00 3.271103e+00 -3.021371e+00 -4.393758e+00 1.309078e+00 -3.334066e+00 -5.081982e+00 1.913036e+00 2.716363e+00 -2.795769e+00 6.234944e+01 3.093545e-01 -1.188768e+00 3.162253e-02 -1.094754e-01 -4.136184e-01 -3.371691e-01 1.976958e-02 -4.238123e-01 5.458485e-01 9.914401e-01 8.108191e-01 9.083535e-02 1.480006e+00 7.221704e-01 1.145012e+00 -4.290615e-01 -2.240669e-01 4.357098e-01 1.829869e-01 -4.264584e-01 -3.485875e-01 -5.846098e-02 -7.705133e-02 -7.862174e-02 5.981956e-01 -8.696429e-02
<VARIANCE> 39
 1.617800e+01 3.450445e+01 4.475629e+01 3.760618e+01 3.578929e+01 3.814138e+01 3.757004e+01 2.967952e+01 2.626735e+01 2.035121e+01 2.640033e+01 1.650892e+01 1.407778e+01 2.122769e+00 4.656229e+00 2.889916e+00 2.981214e+00 2.408850e+00 3.646697e+00 3.726967e+00 3.783669e+00 3.118663e+00 3.927681e+00 2.590143e+00 2.127833e+00 3.308888e+00 3.713809e-01 8.027326e-01 9.691389e-01 9.907816e-01 7.765015e-01 9.100592e-01 7.107174e-01 8.862582e-01 6.451786e-01 5.927871e-01 5.653546e-01 4.617033e-01 4.720990e-01
<GCONST> 1.242268e+02
<STATE> 4
<MEAN> 39
 -3.085239e+00 -4.852889e-01 3.201035e+00 3.286330e+00 -2.049501e+00 -3.777384e+00 2.937197e-01 -7.442379e+00 -5.124989e+00 3.166996e+00 3.679733e+00 3.112074e-01 6.297654e+01 1.507600e+00 1.352073e+00 -8.532665e-01 -4.669614e-01 2.664938e-01 3.519607e-01 -4.051414e-01 -6.952884e-01 5.969612e-02 8.754276e-02 -1.646272e-01 8.857964e-01 4.133024e-01 5.364236e-02 5.075165e-01 -1.584490e-01 -1.774330e-01 2.253946e-01 1.152987e-01 -1.158473e-01 3.875929e-01 -1.578322e-01 -4.950528e-01 -2.982466e-01 4.374379e-02 -3.750483e-01
<VARIANCE> 39
 2.977645e+01 2.443292e+01 4.083339e+01 3.032920e+01 2.651428e+01 3.003222e+01 5.127546e+01 4.582840e+01 3.113239e+01 2.858480e+01 2.972141e+01 1.864206e+01 2.181128e+01 1.993824e+00 3.403785e+00 4.120643e+00 3.098260e+00 3.319323e+00 4.042355e+00 4.370554e+00 5.331252e+00 3.198539e+00 3.837713e+00 2.542469e+00 2.504211e+00 1.638789e+00 4.264029e-01 7.443548e-01 5.938156e-01 4.105401e-01 5.500023e-01 5.664481e-01 7.099982e-01 8.725584e-01 6.049723e-01 6.797597e-01 5.928596e-01 3.681043e-01 5.428755e-01
<GCONST> 1.238551e+02
<TRANSP> 5
 0.000000e+00 1.000000e+00 0.000000e+00 0.000000e+00 0.000000e+00
 0.000000e+00 4.976078e-01 5.023922e-01 0.000000e+00 0.000000e+00
 0.000000e+00 0.000000e+00 3.467611e-01 6.532388e-01 0.000000e+00
 0.000000e+00 0.000000e+00 0.000000e+00 3.628327e-01 6.371673e-01
 0.000000e+00 0.000000e+00 0.000000e+00 0.000000e+00 0.000000e+00
<ENDHMM>
~h "e"
<BEGINHMM>
<NUMSTATES> 5
<STATE> 2
<MEAN> 39
 -2.834210e+00 2.080313e+00 3.902414e+00 4.203050e-02 1.171132e+00 -6.287631e+00 -4.217334e+00 -3.127184e+00 -2.384346e+00 2.993529e+00 1.185155e+00 -2.190238e-01 6.343054e+01 1.826555e+00 5.765814e-01 -8.364908e-01 2.605335e-01 -4.598033e-01 1.132850e-01 -6.260973e-01 -8.688539e-01 -2.101337e-03 3.237435e-01 -5.227509e-01 5.812443e-01 4.404400e-01 -8.663216e-01 5.595736e-03 3.439620e-01 -1.734350e-01 1.675681e-01 2.757609e-01 3.250521e-01 2.106284e-01 -2.939672e-01 -3.584842e-01 2.670286e-01 -9.820563e-02 -3.551719e-01
<VARIANCE> 39
 2.235568e+01 1.596128e+01 3.673275e+01 4.829914e+01 3.031878e+01 3.012600e+01 2.769704e+01 2.552266e+01 3.072581e+01 2.148067e+01 3.102908e+01 1.342931e+01 1.450282e+01 3.780478e+00 2.181140e+00 2.530480e+00 2.408318e+00 4.047665e+00 2.750102e+00 3.109571e+00 2.837389e+00 3.114537e+00 2.061533e+00 2.626432e+00 2.139280e+00 1.829258e+00 5.719931e-01 4.502648e-01 3.796220e-01 5.059392e-01 5.227755e-01 5.197478e-01 4.300524e-01 4.711949e-01 5.378265e-01 4.377862e-01 4.358415e-01 2.912873e-01 3.596949e-01
<GCONST> 1.158678e+02
<STATE> 3
<MEAN> 39
 -2.039534e+00 2.217431e+00 2.684543e+00 -7.581536e-01 9.912875e-01 -5.159159e+00 -4.685211e+00 -3.884492e+00 -2.616693e+00 3.277500e+00 1.678540e+00 4.267084e-01 6.352903e+01 -8.187965e-02 7.624855e-01 2.369994e-01 1.260977e-01 2.510095e-01 6.826941e-01 1.426107e-01 3.117581e-03 -5.741516e-01 -5.778877e-01 3.045491e-01 1.588024e-01 -7.110159e-01 -8.169636e-01 3.673801e-02 4.106527e-01 -3.396310e-02 1.932921e-01 1.173485e-01 3.587923e-01 3.312762e-01 -2.130068e-01 -4.151005e-01 1.842001e-01 -2.179371e-01 -3.879111e-01
<VARIANCE> 39
 1.898504e+01 1.448628e+01 3.569370e+01 4.582383e+01 2.750738e+01 2.862477e+01 3.073640e+01 3.289046e+01 3.911446e+01 2.295621e+01 3.300491e+01 2.053431e+01 1.394951e+01 2.015421e+00 1.354541e+00 1.997730e+00 2.136164e+00 3.626889e+00 2.154036e+00 2.128311e+00 2.111873e+00 2.433666e+00 1.743249e+00 1.968087e+00 1.406195e+00 1.476440e+00 6.299531e-01 3.506984e-01 4.128444e-01 4.934945e-01 6.181892e-01 4.520978e-01 4.817863e-01 5.470398e-01 6.109053e-01 4.062182e-01 4.212272e-01 4.092088e-01 2.711743e-01
<GCONST> 1.129362e+02
<STATE> 4
<MEAN> 39
 -4.079020e+00 4.490003e+00 4.228743e+00 -1.949833e-01 2.349973e+00 -2.849661e+00 -3.379138e+00 -3.120975e+00 -4.253140e+00 1.307910e+00 2.769961e+00 6.549704e-01 6.003925e+01 -1.024255e+00 7.356623e-01 5.495844e-01 1.839995e-01 3.631423e-01 6.927403e-01 5.808042e-01 3.790050e-01 -4.852001e-01 -1.005466e+00 1.227571e-01 -1.717696e-01 -1.161300e+00 -4.285111e-01 -2.554458e-01 4.617577e-02 -1.488124e-01 -7.944998e-02 -2.122475e-01 9.843360e-02 1.534703e-01 6.841146e-02 -4.012416e-02 -2.900123e-02 -1.643025e-01 1.301210e-01
<VARIANCE> 39
 2.146460e+01 1.561717e+01 3.437092e+01 4.101658e+01 3.290481e+01 2.784849e+01 3.099536e+01 2.783939e+01 3.393796e+01 1.878010e+01 2.881787e+01 1.652655e+01 1.816695e+01 2.534551e+00 1.411692e+00 2.058894e+00 2.613878e+00 3.867167e+00 2.111384e+00 1.918966e+00 2.350004e+00 2.992805e+00 2.118840e+00 2.253279e+00 1.627702e+00 1.579582e+00 4.588009e-01 2.347575e-01 3.221309e-01 3.831023e-01 5.414605e-01 3.941947e-01 4.233421e-01 3.986136e-01 4.543446e-01 3.229214e-01 3.578389e-01 2.630263e-01 2.230108e-01
<GCONST> 1.105872e+02
<TRANSP> 5
 0.000000e+00 1.000000e+00 0.000000e+00 0.000000e+00 0.000000e+00
 0.000000e+00 2.613742e-01 7.386259e-01 0.000000e+00 0.000000e+00
 0.000000e+00 0.000000e+00 2.473134e-01 7.526867e-01 0.000000e+00
 0.000000e+00 0.000000e+00 0.000000e+00 2.871872e-01 7.128128e-01
 0.000000e+00 0.000000e+00 0.000000e+00 0.000000e+00 0.000000e+00
<ENDHMM>
~h "f"
<BEGINHMM>
<NUMSTATES> 5
<STATE> 2
<MEAN> 39
 -9.919986e+00 4.715237e+00 2.837285e+00 9.962644e-02 3.283107e+00 1.959594e+00 3.409188e-01 -1.189005e+00 -3.375564e+00 -1.270350e+00 2.940594e+00 1.051286e-01 5.478658e+01 -1.376340e+00 -5.653124e-01 1.816441e-01 2.344929e-01 1.933758e-01 -5.487384e-01 -8.067465e-01 -2.456902e-01 4.140038e-01 -1.217526e-01 3.450567e-01 -5.218455e-01 -1.534321e-01 8.609505e-02 -2.862465e-01 -8.256912e-02 -2.877783e-01 -6.466558e-02 -3.487302e-01 -1.989444e-01 -1.463577e-01 -1.120618e-01 1.616733e-01 1.188070e-01 -1.418544e-02 3.879309e-01
<VARIANCE> 39
 1.820838e+01 1.498228e+01 9.482497e+00 2.911158e+01 1.351746e+01 2.018077e+01 2.140738e+01 2.771161e+01 1.879177e+01 1.704518e+01 1.720988e+01 1.284415e+01 1.216534e+01 2.245342e+00 9.940537e-01 1.096254e+00 1.555382e+00 2.111250e+00 1.597197e+00 2.256177e+00 2.265001e+00 1.916825e+00 1.898288e+00 2.207422e+00 1.443100e+00 1.078139e+00 1.800990e-01 2.112956e-01 1.917202e-01 3.257779e-01 2.370837e-01 3.553851e-01 3.172144e-01 3.143030e-01 3.035654e-01 3.704605e-01 2.971436e-01 2.590578e-01 9.882074e-02
<GCONST> 9.739053e+01
<STATE> 3
<MEAN> 39
 -1.294769e+01 1.242889e+00 2.720319e+00 -6.715572e-01 3.789926e+00 -1.262041e+00 -3.296656e+00 -2.657037e+00 -3.745533e+00 -9.137384e-01 4.573056e+00 -1.423497e+00 5.692415e+01 -7.790918e-01 -1.175723e+00 -1.504329e-01 -4.848897e-01 4.535984e-01 -4.338627e-01 -7.653336e-01 -3.028470e-01 1.058466e-01 3.510521e-01 7.624542e-01 -2.362538e-01 5.778868e-01 4.053269e-01 1.028213e-01 -1.920128e-02 -1.839483e-01 -5.928825e-03 2.209994e-01 3.011391e-01 1.466642e-01 -9.190530e-02 3.121339e-02 -2.718614e-02 2.727474e-01 8.864565e-02
<VARIANCE> 39
 1.616647e+01 2.163325e+01 1.338696e+01 2.625360e+01 1.426932e+01 2.087762e+01 1.922038e+01 1.993745e+01 1.822083e+01 1.959129e+01 2.197349e+01 1.133165e+01 1.165256e+01 2.493139e+00 1.445283e+00 1.005563e+00 2.566909e+00 1.877120e+00 2.455868e+00 2.260597e+00 2.319737e+00 1.692499e+00 1.408452e+00 1.480307e+00 1.392369e+00 1.195706e+00 3.289122e-01 4.393094e-01 2.438311e-01 2.950181e-01 2.903048e-01 5.765694e-01 3.216431e-01 3.213830e-01 3.422241e-01 4.376962e-01 4.713631e-01 2.556130e-01 2.352309e-01
<GCONST> 1.019932e+02
<STATE> 4
<MEAN> 39
 -1.310852e+01 -8.479491e-01 2.713762e+00 -1.507297e+00 4.852704e+00 1.179295e+00 -2.051326e+00 -2.468181e+00 -3.091569e+00 -2.978702e-01 6.503987e+00 2.295035e-01 5.714075e+01 7.354789e-01 6.943201e-01 1.160535e-01 -1.735304e-01 -3.582830e-01 2.170549e-01 2.823737e-01 1.501971e-01 -1.477236e-01 -2.490234e-01 -6.155164e-01 1.070163e-01 -1.714981e-01 2.099363e-01 2.921200e-01 1.139711e-01 1.632409e-01 -2.394244e-01 -1.208766e-01 2.417309e-01 1.185367e-01 -9.038550e-02 4.081402e-02 -3.870644e-01 -2.305398e-03 -3.832388e-03
<VARIANCE> 39
 2.382571e+01 2.196920e+01 2.519562e+01 4.434549e+01 2.193535e+01 2.863817e+01 2.737615e+01 3.451738e+01 3.868555e+01 2.077056e+01 1.741117e+01 1.537509e+01 1.859051e+01 4.003637e+00 3.643514e+00 1.855047e+00 3.464760e+00 2.672300e+00 4.277901e+00 2.650249e+00 2.595594e+00 2.821686e+00 2.030329e+00 2.228441e+00 1.605510e+00 3.490661e+00 4.164177e-01 5.478669e-01 3.598028e-01 5.969287e-01 4.356451e-01 7.491069e-01 4.842419e-01 5.987200e-01 5.114213e-01 4.247992e-01 3.992376e-01 3.582678e-01 5.247838e-01
<GCONST> 1.171377e+02
<TRANSP> 5
 0.000000e+00 1.000000e+00 0.000000e+00 0.000000e+00 0.000000e+00
 0.000000e+00 4.954554e-01 5.045446e-01 0.000000e+00 0.000000e+00
 0.000000e+00 0.000000e+00 5.086395e-01 4.913605e-01 0.000000e+00
 0.000000e+00 0.000000e+00 0.000000e+00 5.848973e-01 4.151026e-01
 0.000000e+00 0.000000e+00 0.000000e+00 0.000000e+00 0.000000e+00
<ENDHMM>
~h "g"
<BEGINHMM>
<NUMSTATES> 5
<STATE> 2
<MEAN> 39
 -6.564624e+00 3.330609e+00 2.773459e+00 4.158687e+00 3.941294e+00 -2.184924e+00 -7.677892e+00 3.389176e+00 -1.445370e+00 -4.164177e+00 3.438052e+00 -4.716646e-01 5.813455e+01 -8.687420e-01 -5.452440e-01 1.132742e+00 -2.017090e-01 2.488671e-01 7.066792e-01 -6.840466e-01 8.790866e-01 -2.424316e-01 -1.112669e-01 9.471307e-01 -2.613772e-01 3.562323e-01 3.231055e-01 1.067065e-01 2.997994e-01 1.069028e-01 -9.070641e-02 -4.244473e-01 2.700740e-01 -6.442435e-01 -1.627632e-01 3.014987e-01 -3.665588e-01 -9.851348e-02 3.073388e-01
<VARIANCE> 39
 2.396124e+01 2.831590e+01 2.641779e+01 1.909876e+01 2.489890e+01 3.278879e+01 5.529813e+01 3.353617e+01 4.224729e+01 2.735100e+01 4.199151e+01 2.818715e+01 2.183853e+01 1.294677e+00 3.240194e+00 2.287157e+00 2.688804e+00 3.385142e+00 2.871033e+00 7.878658e+00 4.044329e+00 2.474443e+00 2.810364e+00 4.042348e+00 1.695817e+00 2.917125e+00 6.306036e-01 5.248739e-01 6.011215e-01 9.818539e-01 8.613771e-01 6.121351e-01 1.971728e+00 6.266919e-01 1.011690e+00 6.658239e-01 1.359754e+00 4.058256e-01 4.254706e-01
<GCONST> 1.258785e+02
<STATE> 3
<MEAN> 39
 -6.718808e+00 4.838159e+00 5.741572e+00 4.644518e+00 4.371913e+00 -2.187067e+00 -7.514626e+00 -9.495420e-02 -1.398900e+00 -3.371220e+00 2.055411e+00 -5.338584e-01 5.695744e+01 1.226152e+00 2.839586e-02 2.682028e-02 4.610534e-01 2.360434e-01 -1.817963e+00 4.175888e-01 -9.919523e-01 2.076546e-01 6.854656e-01 -1.731092e+00 -3.476534e-01 1.018482e+00 3.477320e-01 -3.533722e-01 -5.475551e-01 -1.310265e-01 -2.454557e-01 -3.909479e-01 3.581887e-01 -3.329874e-01 -8.071227e-02 4.316582e-01 -2.483334e-01 4.640587e-03 4.263014e-01
<VARIANCE> 39
 1.399728e+01 2.257452e+01 4.695620e+01 9.263034e+00 2.302923e+01 2.378992e+01 2.625817e+01 9.575253e+00 2.541787e+01 1.988256e+01 3.157697e+01 2.058869e+01 1.849578e+01 2.996798e+00 3.487062e+00 2.628679e+00 2.485646e+00 3.368263e+00 4.949617e+00 6.983772e+00 2.365493e+00 4.032698e+00 4.664685e+00 6.225977e+00 1.879278e+00 1.563357e+00 3.858496e-01 7.207132e-01 7.731695e-01 3.419864e-01 6.352161e-01 7.111738e-01 7.205117e-01 3.346320e-01 3.426667e-01 4.541440e-01 1.183419e+00 3.385403e-01 5.529721e-01
<GCONST> 1.184494e+02
<STATE> 4
<MEAN> 39
 -3.953815e+00 1.707934e+00 2.289062e+00 4.447753e+00 4.499225e+00 -6.393354e+00 -4.449795e+00 -2.620693e+00 -1.484026e+00 1.465017e+00 -1.524668e+00 -1.171804e+00 6.144758e+01 6.208466e-01 -1.166399e+00 -4.098177e-01 -3.160395e-01 -5.636855e-01 -9.978856e-01 7.727783e-01 -7.632019e-01 -6.863863e-01 1.466526e+00 -4.059664e-01 -7.468563e-02 1.492911e+00 -2.625051e-01 -1.915466e-02 1.009115e-01 -2.438492e-01 -2.796745e-01 6.763029e-01 -2.060031e-01 3.241122e-01 -2.772879e-01 -3.302085e-01 8.636984e-01 8.487877e-02 -2.134192e-01
<VARIANCE> 39
 9.794875e+00 2.758711e+01 3.692546e+01 2.204893e+01 3.934782e+01 7.324892e+01 4.550596e+01 2.608186e+01 2.359891e+01 4.711245e+01 3.742976e+01 1.251554e+01 3.691052e+01 3.139166e+00 2.643764e+00 3.685266e+00 3.323808e+00 3.551250e+00 3.144268e+00 2.244398e+00 2.396873e+00 2.921635e+00 3.321798e+00 4.237242e+00 1.680116e+00 2.380832e+00 3.124366e-01 8.858829e-01 7.237450e-01 3.688538e-01 4.886614e-01 1.339733e+00 9.894750e-01 5.542353e-01 3.914094e-01 7.558861e-01 6.879074e-01 2.675731e-01 6.441901e-01
<GCONST> 1.226360e+02
<TRANSP> 5
 0.000000e+00 1.000000e+00 0.000000e+00 0.000000e+00 0.000000e+00
 0.000000e+00 5.476740e-01 4.523260e-01 0.000000e+00 0.000000e+00
 0.000000e+00 0.000000e+00 4.002422e-01 5.997578e-01 0.000000e+00
 0.000000e+00 0.000000e+00 0.000000e+00 2.588214e-01 7.411786e-01
 0.000000e+00 0.000000e+00 0.000000e+00 0.000000e+00 0.000000e+00
<ENDHMM>
~h "h"
<BEGINHMM>
<NUMSTATES> 5
<STATE> 2
<MEAN> 39
 -2.254512e+00 5.616967e+00 1.891228e+00 7.010503e-01 3.400206e+00 3.302073e+00 1.856974e+00 -2.759785e+00 -1.500875e+00 1.085669e+00 2.203041e+00 2.200612e+00 6.030220e+01 -7.774785e-02 2.424243e-01 -1.729006e-01 -2.333050e-01 3.725143e-01 1.479307e+00 1.037160e+00 1.800051e-01 -8.914701e-01 -5.687661e-01 3.234591e-01 1.076619e+00 -5.717017e-01 7.383258e-02 -1.416110e-01 -3.172503e-02 -1.783742e-01 -3.210241e-01 -2.497346e-01 -8.716543e-02 1.887868e-01 -2.190207e-01 -1.022838e-01 -1.254448e-01 6.895398e-02 1.471487e-01
<VARIANCE> 39
 1.515762e+01 9.102402e+00 1.279895e+01 2.867631e+01 2.897310e+01 2.723815e+01 3.442401e+01 2.850480e+01 2.289743e+01 2.284364e+01 2.093374e+01 1.988228e+01 1.211377e+01 6.280462e-01 5.382175e-01 1.181594e+00 1.871452e+00 1.970420e+00 1.631870e+00 1.546236e+00 1.940958e+00 3.005828e+00 2.118713e+00 1.589977e+00 1.556736e+00 5.336662e-01 8.882089e-02 1.030331e-01 2.022944e-01 1.870592e-01 2.896982e-01 2.950283e-01 3.444268e-01 3.409590e-01 2.981430e-01 3.644954e-01 4.233502e-01 2.419658e-01 9.633628e-02
<GCONST> 9.555283e+01
<STATE> 3
<MEAN> 39
 -2.405648e+00 5.588158e+00 5.338782e-01 -1.686210e+00 4.089581e+00 6.256284e+00 5.071414e+00 3.252780e-01 -4.246264e+00 -2.166693e+00 3.360634e+00 5.978106e+00 5.948875e+01 8.111587e-02 2.212429e-01 -3.644058e-02 -1.821811e-01 -2.377464e-01 1.314322e-01 2.881994e-01 2.660793e-01 -4.607033e-01 -5.283824e-01 -2.116131e-01 3.291833e-01 -2.302354e-01 5.601938e-02 7.347217e-04 3.998609e-02 7.410758e-03 -1.441165e-01 -3.743480e-01 -2.709564e-01 -1.701279e-01 1.735177e-01 1.609793e-01 -1.412817e-01 -2.845269e-01 1.204104e-01
<VARIANCE> 39
 9.886785e+00 7.339473e+00 9.127936e+00 1.608611e+01 1.900115e+01 1.901109e+01 2.143371e+01 2.613325e+01 2.016984e+01 2.714399e+01 1.745311e+01 1.641245e+01 8.513301e+00 4.719616e-01 5.495928e-01 8.607980e-01 9.892924e-01 1.299043e+00 1.500952e+00 1.136029e+00 1.535046e+00 1.586278e+00 1.536142e+00 1.396953e+00 1.323355e+00 3.849761e-01 9.002560e-02 1.021584e-01 1.525841e-01 1.384113e-01 2.262702e-01 2.440989e-01 2.089722e-01 2.578320e-01 2.718185e-01 3.108152e-01 2.441258e-01 1.999912e-01 6.341166e-02
<GCONST> 8.492498e+01
<STATE> 4
<MEAN> 39
 -2.212827e+00 7.235511e+00 2.279879e+00 -8.133148e-01 1.559333e+00 3.718825e+00 4.056851e+00 -9.052356e-01 -3.282081e+00 -1.887590e+00 -1.108024e-01 4.272651e+00 5.873158e+01 -1.040215e-01 6.998781e-03 3.581161e-01 1.090764e-01 -3.531023e-01 -5.418301e-01 -4.637389e-01 -2.363518e-01 1.983240e-01 3.860275e-01 -2.301698e-01 -7.513428e-01 -7.103394e-02 -1.773531e-01 -1.005393e-01 1.290221e-01 1.081565e-01 1.163238e-01 -3.036352e-02 -1.678526e-01 -4.331169e-03 -3.628284e-02 2.690755e-04 1.318205e-01 -1.947095e-01 -5.966335e-02
<VARIANCE> 39
 1.101473e+01 1.089395e+01 1.159697e+01 2.731098e+01 4.126517e+01 2.128752e+01 2.739521e+01 2.888249e+01 2.102855e+01 2.579138e+01 2.798488e+01 1.983925e+01 9.409214e+00 5.090410e-01 5.745819e-01 1.291273e+00 1.929617e+00 1.501905e+00 1.699042e+00 2.337579e+00 1.298107e+00 1.792608e+00 1.463581e+00 1.234792e+00 1.537384e+00 5.772098e-01 1.041307e-01 1.251638e-01 2.235467e-01 2.629749e-01 3.219569e-01 2.936167e-01 4.211493e-01 3.385208e-01 3.818063e-01 3.529661e-01 2.717601e-01 3.670007e-01 9.110565e-02
<GCONST> 9.513177e+01
<TRANSP> 5
 0.000000e+00 1.000000e+00 0.000000e+00 0.000000e+00 0.000000e+00
 0.000000e+00 2.765872e-01 7.234128e-01 0.000000e+00 0.000000e+00
 0.000000e+00 0.000000e+00 6.485012e-01 3.514988e-01 0.000000e+00
 0.000000e+00 0.000000e+00 0.000000e+00 5.362607e-01 4.637394e-01
 0.000000e+00 0.000000e+00 0.000000e+00 0.000000e+00 0.000000e+00
<ENDHMM>
~h "i"
<BEGINHMM>
<NUMSTATES> 5
<STATE> 2
<MEAN> 39
 -2.627882e+00 1.514753e+00 5.002380e+00 4.584368e+00 -1.499641e-01 -7.370778e+00 -5.510658e+00 -6.325376e+00 -7.684742e-01 2.862968e+00 -5.080088e-01 -1.685950e+00 6.312960e+01 9.321205e-01 1.943005e-01 -5.836479e-01 4.030128e-01 -5.307689e-02 -6.920571e-01 -6.378775e-01 -4.875523e-01 3.965099e-01 1.995369e-01 -7.092637e-01 2.623502e-01 2.939755e-01 -4.908101e-01 2.164637e-01 1.698002e-01 -3.618997e-01 1.502095e-01 5.126855e-01 3.348051e-01 3.876885e-01 -5.586835e-01 -4.668651e-01 3.642585e-01 1.788096e-01 -4.534754e-01
<VARIANCE> 39
 2.133552e+01 1.784177e+01 3.793008e+01 3.130472e+01 3.346630e+01 2.713063e+01 3.348489e+01 3.821016e+01 2.745366e+01 2.252116e+01 2.489903e+01 1.995212e+01 1.615025e+01 2.525877e+00 1.894259e+00 2.266483e+00 2.280052e+00 3.222909e+00 3.273346e+00 2.497471e+00 3.236722e+00 3.528640e+00 2.116683e+00 2.822204e+00 1.811433e+00 1.938942e+00 5.098282e-01 4.102407e-01 4.165477e-01 4.144172e-01 5.838898e-01 6.322994e-01 4.440366e-01 5.751563e-01 4.937482e-01 4.151630e-01 4.381150e-01 3.151177e-01 2.651197e-01
<GCONST> 1.154642e+02
<STATE> 3
<MEAN> 39
 -2.411582e+00 3.009362e+00 4.667646e+00 4.866508e+00 5.919730e-01 -6.661742e+00 -5.813994e+00 -4.834048e+00 -1.930913e-01 1.611667e+00 -9.517365e-01 -2.390946e-01 6.146627e+01 -3.365940e-01 8.977523e-01 1.606704e-01 -2.644130e-01 6.185243e-01 9.292769e-01 1.056809e-01 5.429807e-01 -7.972479e-01 -7.613067e-01 3.642648e-01 4.166426e-01 -1.069229e+00 -4.354579e-01 6.252858e-02 1.286591e-01 -2.585128e-01 2.629919e-02 3.618339e-01 3.451056e-01 1.726813e-01 -3.826187e-01 -2.116056e-01 2.824459e-01 -1.194618e-01 -2.630020e-01
<VARIANCE> 39
 1.481763e+01 1.243124e+01 2.843337e+01 3.303275e+01 2.766063e+01 2.352213e+01 3.448123e+01 3.614542e+01 3.953918e+01 2.289644e+01 2.644516e+01 1.544273e+01 1.173115e+01 1.702228e+00 1.344967e+00 1.986385e+00 1.891357e+00 2.546880e+00 2.199775e+00 2.002910e+00 2.241970e+00 2.688479e+00 1.779781e+00 2.119215e+00 1.385256e+00 1.572016e+00 3.670193e-01 2.279240e-01 3.394064e-01 4.140183e-01 4.855574e-01 4.296279e-01 4.267139e-01 4.865597e-01 5.445872e-01 3.314506e-01 4.524789e-01 2.793856e-01 1.867045e-01
<GCONST> 1.080576e+02
<STATE> 4
<MEAN> 39
 -5.936539e+00 6.050158e+00 5.602576e+00 3.090737e+00 2.361131e+00 -3.020279e+00 -5.239130e+00 -3.666050e+00 -4.327906e+00 -1.492094e+00 8.335553e-01 6.234147e-02 5.645176e+01 -7.846090e-01 4.143712e-01 -1.904980e-01 -5.863056e-01 3.567884e-02 7.746816e-01 6.225640e-01 2.157107e-01 -8.790149e-01 -5.631894e-01 3.800575e-01 3.555219e-02 -9.578423e-01 -9.036931e-02 -3.237595e-01 -6.378349e-02 -8.742961e-02 -2.196072e-01 -1.711237e-01 1.613864e-01 -2.019000e-02 1.751583e-01 1.801111e-01 -4.038446e-02 -1.180406e-01 2.927173e-01
<VARIANCE> 39
 1.948107e+01 1.278251e+01 2.932949e+01 2.882772e+01 2.507273e+01 2.444325e+01 3.517702e+01 2.835426e+01 3.403449e+01 2.370499e+01 2.627024e+01 1.597098e+01 1.768342e+01 2.199763e+00 1.611816e+00 2.282761e+00 2.319828e+00 3.098658e+00 2.143212e+00 2.243361e+00 2.549100e+00 2.456227e+00 2.294020e+00 2.280607e+00 1.568195e+00 1.699852e+00 3.522904e-01 2.722278e-01 3.220325e-01 4.310648e-01 4.352795e-01 4.200749e-01 4.165356e-01 4.635886e-01 4.170002e-01 3.871743e-01 4.180178e-01 3.144255e-01 2.356845e-01
<GCONST> 1.100056e+02
<TRANSP> 5
 0.000000e+00 1.000000e+00 0.000000e+00 0.000000e+00 0.000000e+00
 0.000000e+00 4.315055e-01 5.684944e-01 0.000000e+00 0.000000e+00
 0.000000e+00 0.000000e+00 4.346251e-01 5.653749e-01 0.000000e+00
 0.000000e+00 0.000000e+00 0.000000e+00 4.928519e-01 5.071481e-01
 0.000000e+00 0.000000e+00 0.000000e+00 0.000000e+00 0.000000e+00
<ENDHMM>
~h "j"
<BEGINHMM>
<NUMSTATES> 5
<STATE> 2
<MEAN> 39
 -3.169511e+00 2.144787e+00 4.881557e+00 6.201734e+00 4.852487e-01 -7.752090e+00 -6.755363e+00 -4.922224e+00 6.728240e-01 1.638228e+00 -1.399222e+00 -2.640710e+00 6.224886e+01 9.427904e-01 -3.491763e-01 2.444744e-01 9.001956e-01 -7.754214e-01 -1.873238e+00 -7.134500e-01 -1.414293e-01 3.654312e-01 -1.217569e-02 -1.013813e+00 -2.080733e-01 1.072484e+00 -2.143502e-01 6.460609e-02 -1.605064e-02 -3.709089e-01 -8.646855e-03 2.860676e-01 4.184913e-01 2.510960e-01 -3.976910e-01 -1.330071e-01 1.971735e-01 2.457244e-01 -1.850444e-01
<VARIANCE> 39
 2.562368e+01 1.695726e+01 4.354290e+01 2.374931e+01 3.369754e+01 3.119888e+01 2.833581e+01 4.318707e+01 2.481961e+01 2.748135e+01 1.746075e+01 1.722367e+01 2.181781e+01 2.845066e+00 1.398077e+00 2.729599e+00 2.250354e+00 2.474087e+00 3.231145e+00 2.731241e+00 3.309366e+00 2.312235e+00 2.224628e+00 1.968061e+00 1.810741e+00 2.684856e+00 3.386589e-01 2.830515e-01 3.336713e-01 2.563584e-01 4.942753e-01 5.715278e-01 5.508895e-01 6.245229e-01 4.535048e-01 4.372132e-01 4.070508e-01 2.876514e-01 2.203618e-01
<GCONST> 1.130365e+02
<STATE> 3
<MEAN> 39
 -1.632066e+00 1.088794e+00 4.944161e+00 6.531349e+00 -2.528217e+00 -1.029649e+01 -5.482683e+00 -3.709021e+00 1.037999e+00 1.466658e+00 -2.648618e+00 -2.056204e+00 6.424393e+01 6.433644e-02 6.091008e-02 8.223026e-02 -8.672198e-02 -6.591387e-02 -2.467588e-01 -3.780408e-02 4.183624e-01 -1.972021e-01 -3.512393e-02 -1.659278e-01 2.589629e-01 3.142131e-02 -1.848600e-01 2.502778e-01 -1.475944e-02 -3.429123e-01 4.318241e-01 5.066305e-01 1.883445e-02 3.187817e-02 -2.377006e-01 -1.229394e-02 3.062825e-01 1.028030e-01 -3.130167e-01
<VARIANCE> 39
 9.618649e+00 1.045118e+01 3.886402e+01 2.866276e+01 2.434253e+01 2.050540e+01 2.627383e+01 3.354348e+01 1.916350e+01 4.244936e+01 1.619476e+01 1.305872e+01 1.289110e+01 6.290318e-01 7.832735e-01 1.364713e+00 1.560459e+00 2.679932e+00 1.418254e+00 2.073157e+00 1.829808e+00 1.234600e+00 1.693693e+00 1.338686e+00 9.583427e-01 8.782484e-01 1.617713e-01 1.184921e-01 2.234803e-01 2.257480e-01 3.090550e-01 3.267393e-01 3.647990e-01 4.007977e-01 3.622302e-01 3.077891e-01 2.952081e-01 2.023170e-01 1.814244e-01
<GCONST> 9.660768e+01
<STATE> 4
<MEAN> 39
 -2.203872e+00 2.575419e+00 5.760666e+00 6.293087e+00 -7.399628e-01 -8.708668e+00 -6.386057e+00 -3.247427e+00 1.912691e-01 3.219289e-01 -2.116479e+00 -6.457119e-01 6.231391e+01 -3.069227e-01 5.730601e-01 -7.546644e-02 -8.686708e-01 8.742550e-01 9.463755e-01 7.431462e-04 -5.461797e-02 -8.823096e-01 1.341740e-01 7.111965e-01 2.985327e-01 -6.384642e-01 -2.711972e-01 1.717495e-01 1.029820e-01 -2.402073e-01 1.726882e-01 3.467172e-01 9.949435e-02 -1.921312e-01 -3.028422e-01 -2.337017e-02 2.999634e-01 -6.811301e-02 -2.297292e-01
<VARIANCE> 39
 1.277679e+01 1.176924e+01 3.751029e+01 3.100979e+01 2.294794e+01 3.033795e+01 2.684468e+01 3.506913e+01 1.776790e+01 3.674749e+01 1.700841e+01 1.402136e+01 1.945798e+01 9.338366e-01 1.259736e+00 1.698903e+00 1.406321e+00 2.618585e+00 1.846284e+00 2.439079e+00 2.786096e+00 2.115334e+00 2.243355e+00 1.360800e+00 1.391524e+00 1.641417e+00 2.127642e-01 2.720838e-01 4.604603e-01 3.536021e-01 5.573484e-01 5.282078e-01 5.014604e-01 4.792686e-01 3.527682e-01 4.483295e-01 2.574221e-01 3.430515e-01 3.973755e-01
<GCONST> 1.067761e+02
<TRANSP> 5
 0.000000e+00 1.000000e+00 0.000000e+00 0.000000e+00 0.000000e+00
 0.000000e+00 3.576970e-01 6.423029e-01 0.000000e+00 0.000000e+00
 0.000000e+00 0.000000e+00 5.857148e-01 4.142852e-01 0.000000e+00
 0.000000e+00 0.000000e+00 0.000000e+00 2.971392e-01 7.028608e-01
 0.000000e+00 0.000000e+00 0.000000e+00 0.000000e+00 0.000000e+00
<ENDHMM>
~h "k"
<BEGINHMM>
<NUMSTATES> 5
<STATE> 2
<MEAN> 39
 -1.275599e+01 4.801210e+00 3.408141e+00 5.559908e-01 4.713775e+00 -7.785219e-01 -3.029518e+00 -1.212090e+00 -2.855417e+00 -1.360979e+00 2.023344e+00 1.179419e-02 5.176376e+01 4.374509e-04 -1.349076e+00 -1.046894e+00 -8.806767e-01 -3.669610e-01 8.162031e-02 -4.745701e-02 5.097870e-01 2.671966e-01 -2.058871e-02 6.327573e-01 -3.039725e-01 6.889552e-01 1.918379e-02 -6.452381e-01 -1.930819e-01 -5.409180e-01 2.355221e-01 1.811501e-03 -2.947730e-01 1.369510e-01 -2.166507e-02 -8.501187e-03 3.988220e-01 -1.012724e-01 8.159927e-01
<VARIANCE> 39
 1.898924e+01 1.303801e+01 1.722971e+01 2.767925e+01 2.618927e+01 2.650431e+01 2.796406e+01 2.297314e+01 2.086855e+01 2.109146e+01 1.977983e+01 1.624922e+01 5.370399e+00 1.158734e+00 3.742751e+00 3.378541e+00 4.324877e+00 4.065541e+00 3.268842e+00 3.721601e+00 3.208477e+00 2.842077e+00 2.648179e+00 3.194240e+00 1.742504e+00 2.944841e+00 1.849394e-01 4.477824e-01 4.431436e-01 5.340768e-01 4.912232e-01 4.589098e-01 5.289682e-01 4.860407e-01 4.705710e-01 3.912920e-01 5.167271e-01 3.782644e-01 3.020038e-01
<GCONST> 1.126338e+02
<STATE> 3
<MEAN> 39
 -1.239023e+01 -3.376348e+00 -2.199702e+00 -7.831649e+00 5.020363e+00 3.071891e-01 -4.820119e+00 8.360497e-01 -2.840739e+00 -2.239181e+00 7.513680e+00 -1.076017e+00 5.891570e+01 3.340685e-01 -5.423229e-01 2.309565e-01 -5.047837e-01 -1.636651e-01 1.142338e-01 -3.425914e-01 4.656810e-01 -4.895025e-02 -2.214404e-02 5.330597e-01 -1.196877e-02 7.634220e-01 3.961639e-01 1.013533e+00 7.857363e-01 1.020307e+00 -7.592293e-02 -1.239917e-01 1.627500e-01 -2.726862e-01 2.040699e-02 2.286815e-01 -8.185435e-01 1.566381e-01 -4.781106e-01
<VARIANCE> 39
 1.737912e+01 2.305910e+01 4.619376e+01 5.068719e+01 5.462704e+01 4.459372e+01 4.465312e+01 4.125164e+01 3.451103e+01 4.065208e+01 2.681056e+01 2.783384e+01 1.798399e+01 1.295606e+00 3.838354e+00 4.520689e+00 6.691415e+00 3.627795e+00 3.066376e+00 3.793930e+00 2.974611e+00 2.527774e+00 2.663779e+00 3.317878e+00 2.121031e+00 2.497666e+00 3.297424e-01 5.542635e-01 6.111777e-01 9.597715e-01 9.016156e-01 7.239504e-01 8.443665e-01 8.380117e-01 5.479714e-01 6.704088e-01 6.744114e-01 4.050107e-01 4.063432e-01
<GCONST> 1.259113e+02
<STATE> 4
<MEAN> 39
 -1.123811e+01 1.046204e+00 3.696404e+00 -1.175183e+00 5.344842e+00 4.055423e-01 -3.978059e+00 1.918640e+00 -1.621981e+00 -6.411875e-01 4.265532e+00 -1.149651e+00 5.563172e+01 2.361099e+00 1.538207e+00 7.683164e-01 1.513083e+00 -6.568715e-01 -3.429016e-01 2.442195e-01 -7.952136e-01 2.773402e-01 7.438573e-01 -1.966285e+00 2.789880e-01 5.579831e-01 4.782678e-01 -5.718373e-03 -3.764172e-01 -1.899783e-01 -3.113478e-01 -2.998225e-01 1.727798e-03 -4.158468e-01 -7.010264e-02 1.013309e-01 -2.931749e-01 8.359232e-02 4.717501e-01
<VARIANCE> 39
 2.872821e+01 1.573925e+01 4.272263e+01 3.591283e+01 2.932693e+01 3.949331e+01 3.994553e+01 3.007250e+01 3.024305e+01 2.777251e+01 2.184465e+01 2.391407e+01 1.223562e+01 2.812125e+00 2.121744e+00 2.932444e+00 3.784202e+00 2.981975e+00 2.862715e+00 2.990153e+00 3.579264e+00 2.500004e+00 3.199199e+00 2.790473e+00 1.893056e+00 2.632701e+00 3.778405e-01 4.716706e-01 4.509070e-01 8.030351e-01 4.802076e-01 4.419660e-01 4.535327e-01 6.065111e-01 4.542766e-01 4.950814e-01 5.510848e-01 3.505371e-01 2.703896e-01
<GCONST> 1.181627e+02
<TRANSP> 5
 0.000000e+00 1.000000e+00 0.000000e+00 0.000000e+00 0.000000e+00
 0.000000e+00 6.461533e-01 3.538467e-01 0.000000e+00 0.000000e+00
 0.000000e+00 0.000000e+00 6.007196e-01 3.992804e-01 0.000000e+00
 0.000000e+00 0.000000e+00 0.000000e+00 5.125446e-01 4.874553e-01
 0.000000e+00 0.000000e+00 0.000000e+00 0.000000e+00 0.000000e+00
<ENDHMM>
~h "l"
<BEGINHMM>
<NUMSTATES> 5
<STATE> 2
<MEAN> 39
 1.427325e+00 2.676720e+00 -1.288826e-01 -5.440368e+00 -5.947002e+00 -2.679439e+00 5.192882e+00 -3.613845e-01 -1.078189e+01 -8.316067e-01 3.798894e+00 3.481840e+00 6.365995e+01 1.412426e+00 6.862182e-03 -9.029390e-01 -2.286768e-01 -1.223455e+00 -5.130005e-01 8.634924e-01 3.029578e-01 -1.087848e+00 -1.968972e-01 1.230429e-01 2.492685e-01 5.999343e-01 -6.099423e-01 -1.127525e-01 1.474299e-01 8.524109e-02 5.721082e-01 8.718437e-02 -4.090767e-01 -5.661457e-02 3.337683e-01 1.200078e-01 3.369496e-03 -2.392938e-01 -2.066360e-01
<VARIANCE> 39
 9.193464e+00 1.653791e+01 1.710883e+01 4.675803e+01 3.387494e+01 2.120767e+01 2.890469e+01 4.661956e+01 2.654445e+01 2.578151e+01 2.842526e+01 2.087806e+01 9.699617e+00 1.896292e+00 1.476698e+00 1.234314e+00 4.326744e+00 2.658933e+00 2.103595e+00 2.619015e+00 2.922347e+00 2.544186e+00 2.555252e+00 2.748269e+00 1.768337e+00 1.729634e+00 2.283727e-01 3.730940e-01 3.041182e-01 4.920413e-01 4.966674e-01 4.949285e-01 4.812466e-01 5.315261e-01 5.380698e-01 4.492334e-01 4.833870e-01 2.768195e-01 2.121025e-01
<GCONST> 1.107074e+02
<STATE> 3
<MEAN> 39
 2.886013e+00 3.364130e+00 -2.234697e+00 -6.283401e+00 -7.620027e+00 -2.826795e+00 6.654101e+00 2.135979e+00 -1.150533e+01 -1.765427e+00 4.755086e+00 2.932130e+00 6.360759e+01 -1.161246e-01 1.340134e-01 7.637152e-03 -5.710713e-02 4.246359e-01 2.855920e-01 -4.055313e-01 -1.995556e-01 2.108954e-01 2.156625e-02 7.744519e-03 7.372766e-02 -1.067363e-01 -2.933558e-01 3.199402e-02 1.905359e-01 4.312705e-02 4.135919e-01 1.786828e-01 -3.886499e-01 -2.281669e-01 3.822435e-01 1.131816e-01 -1.070866e-01 -5.984766e-02 -8.640445e-02
<VARIANCE> 39
 4.701070e+00 1.577379e+01 1.131725e+01 4.135514e+01 2.917695e+01 1.934912e+01 2.395422e+01 4.799544e+01 2.774070e+01 2.729670e+01 2.789449e+01 1.771086e+01 6.608603e+00 3.385044e-01 8.087898e-01 8.122747e-01 2.359226e+00 2.059230e+00 1.588659e+00 1.684206e+00 2.627231e+00 1.807450e+00 1.977025e+00 1.287859e+00 1.000540e+00 4.732847e-01 1.191980e-01 1.587157e-01 1.526685e-01 3.663866e-01 3.634587e-01 2.946900e-01 3.107061e-01 3.747276e-01 4.172235e-01 3.365791e-01 3.064731e-01 2.708499e-01 1.379577e-01
<GCONST> 9.537399e+01
<STATE> 4
<MEAN> 39
 7.417055e-01 2.409913e+00 -6.365306e-01 -4.390965e+00 -2.998269e+00 -7.602414e-01 1.647174e+00 -2.779320e+00 -8.854259e+00 5.949264e-01 4.125860e+00 3.687949e+00 6.323777e+01 -7.980120e-01 2.215894e-01 4.025814e-01 3.852495e-01 1.248187e+00 2.570323e-01 -1.433688e+00 -5.746161e-01 1.336816e+00 4.292635e-01 -5.375062e-01 -5.960764e-01 -4.012758e-01 -2.200294e-01 1.104382e-01 1.625878e-01 1.454539e-01 1.255381e-02 -1.680397e-01 4.206007e-02 2.017405e-01 1.793622e-02 -1.559625e-01 -9.827104e-02 -2.162665e-01 -2.150367e-01
<VARIANCE> 39
 7.861871e+00 2.069078e+01 1.585167e+01 5.885073e+01 2.892347e+01 2.457098e+01 3.163251e+01 4.974737e+01 2.520463e+01 3.618689e+01 2.622289e+01 2.249479e+01 1.648645e+01 7.464746e-01 1.310141e+00 1.503387e+00 2.419596e+00 2.705405e+00 2.061271e+00 2.653182e+00 3.562823e+00 3.005369e+00 2.597522e+00 2.273374e+00 1.916575e+00 1.016269e+00 1.750452e-01 2.713479e-01 2.921247e-01 4.727819e-01 4.580541e-01 4.143159e-01 3.797455e-01 4.723659e-01 4.228460e-01 5.450081e-01 3.213254e-01 3.319462e-01 2.187523e-01
<GCONST> 1.086771e+02
<TRANSP> 5
 0.000000e+00 1.000000e+00 0.000000e+00 0.000000e+00 0.000000e+00
 0.000000e+00 4.045819e-01 5.954180e-01 0.000000e+00 0.000000e+00
 0.000000e+00 0.000000e+00 6.837506e-01 3.162494e-01 0.000000e+00
 0.000000e+00 0.000000e+00 0.000000e+00 4.597146e-01 5.402853e-01
 0.000000e+00 0.000000e+00 0.000000e+00 0.000000e+00 0.000000e+00
<ENDHMM>
~h "m"
<BEGINHMM>
<NUMSTATES> 5
<STATE> 2
<MEAN> 39
 -4.654710e-01 9.075996e+00 3.080126e+00 3.840131e+00 3.957386e+00 -2.369384e+00 -1.794171e+00 -1.615192e+00 -7.460425e+00 -3.386472e+00 9.399653e-01 1.499267e+00 5.841409e+01 -1.031984e-01 5.074723e-01 7.008274e-01 6.918712e-01 1.342560e-01 -1.785927e-01 2.620071e-02 1.364736e-01 -8.489588e-01 -5.839278e-01 6.804080e-02 5.469813e-02 -3.545092e-01 -4.570056e-02 -3.090969e-01 -1.214638e-01 -1.353086e-01 -2.441765e-01 -6.432573e-02 9.479258e-02 -1.026154e-01 3.375802e-01 2.567751e-01 -6.127299e-02 -1.569359e-01 1.996536e-01
<VARIANCE> 39
 4.809610e+00 4.470036e+00 1.056132e+01 1.141321e+01 9.630646e+00 1.365762e+01 1.904894e+01 1.304382e+01 1.852720e+01 1.606564e+01 1.331793e+01 1.369304e+01 4.785988e+00 4.919226e-01 5.088115e-01 1.081755e+00 1.094183e+00 8.970523e-01 1.056168e+00 9.445739e-01 1.127744e+00 1.842557e+00 1.324688e+00 8.788800e-01 1.003605e+00 4.298602e-01 7.031816e-02 1.271333e-01 2.237385e-01 2.213997e-01 1.785136e-01 2.286371e-01 2.052900e-01 2.323220e-01 3.405466e-01 2.986349e-01 1.955199e-01 2.309223e-01 5.333443e-02
<GCONST> 7.883595e+01
<STATE> 3
<MEAN> 39
 -8.095977e-01 9.284008e+00 4.475192e+00 3.801190e+00 1.993656e+00 -3.280908e+00 1.859566e+00 -1.655827e-01 -1.018360e+01 -4.509412e+00 1.648806e+00 6.767483e-01 5.848807e+01 -4.083950e-03 -1.185323e-02 -1.341222e-01 -3.183772e-01 -3.754125e-01 2.276904e-01 2.062065e-01 6.146922e-02 4.564297e-01 2.219336e-01 -9.530430e-02 -7.372852e-02 -2.811687e-02 -9.157058e-02 -1.784656e-01 -1.742377e-01 -3.696087e-01 -5.759073e-02 2.086412e-01 -5.464512e-02 -3.745095e-03 4.135900e-01 1.948690e-01 -1.348642e-02 -6.126763e-03 7.423157e-02
<VARIANCE> 39
 5.868306e+00 6.978230e+00 1.195671e+01 1.470379e+01 1.811664e+01 1.574422e+01 2.441798e+01 1.216642e+01 2.216698e+01 1.542297e+01 1.296548e+01 1.319874e+01 8.244255e+00 4.484558e-01 5.429063e-01 1.102592e+00 1.636415e+00 1.186437e+00 1.029739e+00 1.046680e+00 8.641302e-01 1.604728e+00 1.267112e+00 7.399580e-01 1.157246e+00 4.718844e-01 1.131548e-01 1.671538e-01 2.252890e-01 4.103334e-01 2.765999e-01 2.675120e-01 2.352778e-01 1.968720e-01 3.694132e-01 2.895194e-01 1.393229e-01 2.416503e-01 8.577099e-02
<GCONST> 8.396581e+01
<STATE> 4
<MEAN> 39
 -2.005444e+00 8.809582e+00 3.742283e+00 2.289651e+00 2.258081e+00 -6.011251e-01 3.280860e-02 -8.198746e-01 -5.978340e+00 -2.263338e+00 1.016502e+00 -6.957000e-02 5.750282e+01 -5.582233e-01 -7.196641e-01 -3.006044e-02 -8.159971e-01 -2.193796e-01 5.929627e-01 3.073443e-02 8.423446e-02 7.792653e-01 4.060119e-01 1.151499e-02 -2.941336e-01 2.007505e-01 -2.303014e-01 -2.290708e-01 8.979135e-02 -8.437665e-02 3.216799e-02 -1.413161e-01 2.276484e-02 -5.912783e-02 -8.801305e-02 -7.060208e-02 6.705298e-02 -8.276472e-02 1.727909e-01
<VARIANCE> 39
 1.344289e+01 1.130301e+01 2.275219e+01 2.813723e+01 1.772550e+01 2.385059e+01 2.405317e+01 1.911015e+01 1.584254e+01 2.034176e+01 1.321884e+01 1.728565e+01 1.827138e+01 1.399287e+00 1.305668e+00 2.591695e+00 4.021707e+00 2.450929e+00 2.257541e+00 2.541730e+00 1.632996e+00 2.437025e+00 2.669951e+00 1.542721e+00 1.655551e+00 1.072137e+00 2.364498e-01 3.153400e-01 3.426154e-01 4.587666e-01 5.270246e-01 4.230427e-01 4.268598e-01 3.730402e-01 2.882573e-01 3.655039e-01 2.349497e-01 2.826429e-01 1.605640e-01
<GCONST> 1.038368e+02
<TRANSP> 5
 0.000000e+00 1.000000e+00 0.000000e+00 0.000000e+00 0.000000e+00
 0.000000e+00 6.593542e-01 3.406458e-01 0.000000e+00 0.000000e+00
 0.000000e+00 0.000000e+00 6.417339e-01 3.582661e-01 0.000000e+00
 0.000000e+00 0.000000e+00 0.000000e+00 4.147701e-01 5.852299e-01
 0.000000e+00 0.000000e+00 0.000000e+00 0.000000e+00 0.000000e+00
<ENDHMM>
~h "n"
<BEGINHMM>
<NUMSTATES> 5
<STATE> 2
<MEAN> 39
 -2.208699e+00 7.920728e+00 4.567999e+00 2.826510e+00 6.215938e-01 -1.919889e+00 2.468624e+00 2.793512e-01 -7.733069e+00 -2.361896e+00 3.550223e+00 3.014606e-02 5.846758e+01 3.699948e-01 7.030047e-01 4.495541e-01 6.348537e-01 -1.814532e-01 -2.327497e-01 1.010454e-01 1.465513e-01 -6.763572e-01 -3.910949e-01 1.382597e-01 -1.415381e-01 -2.425215e-01 -9.033056e-02 -3.098967e-01 -2.169661e-01 -3.449864e-01 -1.774489e-02 9.334576e-03 -2.224128e-02 -1.132144e-01 3.962561e-01 1.969284e-01 -1.537930e-01 -1.455163e-02 2.595472e-01
<VARIANCE> 39
 1.045264e+01 1.107771e+01 1.731264e+01 2.646348e+01 1.636040e+01 1.631017e+01 1.981750e+01 1.496479e+01 2.666859e+01 1.407059e+01 1.487501e+01 1.214699e+01 9.923695e+00 1.847417e+00 1.112354e+00 1.736337e+00 1.708227e+00 1.597372e+00 1.701448e+00 1.674408e+00 1.621735e+00 2.394880e+00 1.522062e+00 1.517591e+00 1.273298e+00 1.118599e+00 1.368206e-01 2.809522e-01 3.136198e-01 3.504424e-01 4.060191e-01 3.335574e-01 3.098770e-01 3.190672e-01 5.056456e-01 3.080946e-01 3.244507e-01 2.646434e-01 1.735430e-01
<GCONST> 9.727927e+01
<STATE> 3
<MEAN> 39
 -1.288765e+00 8.789001e+00 5.098400e+00 2.963848e+00 1.396821e-01 -3.765241e+00 2.213065e+00 7.866248e-01 -9.167329e+00 -2.418126e+00 3.798679e+00 -4.478524e-01 5.915885e+01 3.177217e-01 -9.961281e-01 -5.532207e-01 -5.689207e-01 -6.476824e-01 4.539009e-01 2.139172e-01 -7.661781e-01 7.959651e-01 6.685478e-01 -2.331580e-01 -2.075091e-01 9.300001e-01 -2.849764e-01 -5.218291e-01 -4.557897e-01 -6.505826e-01 1.255247e-01 2.574950e-01 1.001221e-02 -2.968976e-01 7.428665e-01 3.887415e-01 -1.839136e-01 -1.962443e-02 3.506545e-01
<VARIANCE> 39
 4.758073e+00 1.065686e+01 1.361760e+01 2.356553e+01 1.209060e+01 1.445117e+01 1.434246e+01 1.283399e+01 2.426752e+01 1.268850e+01 1.226183e+01 1.436788e+01 8.318310e+00 1.753802e+00 1.984292e+00 2.319113e+00 1.959510e+00 2.485569e+00 2.143599e+00 1.897930e+00 1.983816e+00 3.031165e+00 1.926088e+00 1.946929e+00 1.504914e+00 1.564227e+00 2.902087e-01 2.851018e-01 3.852383e-01 3.981513e-01 3.979347e-01 3.984203e-01 3.097124e-01 3.703596e-01 5.864666e-01 3.552240e-01 2.501671e-01 2.628787e-01 1.466238e-01
<GCONST> 9.923504e+01
<STATE> 4
<MEAN> 39
 -8.732483e-01 4.040298e+00 2.591065e+00 6.981444e-01 -2.205020e+00 -6.736320e-01 3.130034e+00 -2.946892e+00 -4.383229e+00 7.278352e-01 2.882844e+00 -1.404714e+00 6.241148e+01 -4.399949e-02 -8.994917e-01 -1.476807e+00 -1.733906e+00 3.279163e-01 5.093179e-01 1.262058e-01 -7.059973e-01 1.657288e+00 9.051362e-01 -4.788219e-01 -4.711576e-02 1.060185e+00 -2.765863e-01 3.577544e-01 3.648339e-03 -2.432140e-01 5.874406e-01 -2.225390e-01 -1.845059e-01 4.258584e-01 -2.364269e-01 -1.953863e-01 -1.765221e-02 6.424372e-02 -2.363937e-01
<VARIANCE> 39
 8.686975e+00 1.849236e+01 3.121232e+01 3.300766e+01 2.532112e+01 2.087315e+01 2.164775e+01 1.995192e+01 3.342329e+01 1.622440e+01 2.016984e+01 1.745782e+01 1.554222e+01 1.620481e+00 1.714103e+00 2.710173e+00 3.276229e+00 3.215287e+00 2.245218e+00 2.042694e+00 2.283434e+00 3.109188e+00 1.725500e+00 1.815103e+00 1.630642e+00 1.177928e+00 2.524449e-01 3.233708e-01 4.165367e-01 4.594800e-01 4.313789e-01 4.068021e-01 3.573375e-01 4.243948e-01 6.054063e-01 3.784207e-01 3.247246e-01 3.053015e-01 2.101058e-01
<GCONST> 1.074560e+02
<TRANSP> 5
 0.000000e+00 1.000000e+00 0.000000e+00 0.000000e+00 0.000000e+00
 0.000000e+00 5.682933e-01 4.317067e-01 0.000000e+00 0.000000e+00
 0.000000e+00 0.000000e+00 4.127820e-01 5.872180e-01 0.000000e+00
 0.000000e+00 0.000000e+00 0.000000e+00 3.411895e-01 6.588106e-01
 0.000000e+00 0.000000e+00 0.000000e+00 0.000000e+00 0.000000e+00
<ENDHMM>
~h "o"
<BEGINHMM>
<NUMSTATES> 5
<STATE> 2
<MEAN> 39
 -4.318805e-01 3.974629e+00 -1.361663e-02 -4.167435e+00 -2.482424e+00 -7.661651e-01 1.767093e+00 -4.461732e+00 -7.410780e+00 -3.287681e-01 1.682749e+00 3.368328e+00 6.207262e+01 1.318514e+00 8.625668e-01 -1.984846e-01 -4.856731e-01 -9.612710e-01 1.593943e-01 3.843432e-01 -4.632440e-01 -4.932960e-01 -3.744085e-01 -6.489948e-01 7.324106e-01 3.990352e-01 -6.016283e-01 -2.358361e-02 2.533071e-01 3.161042e-01 4.606837e-01 5.553529e-02 -3.003664e-01 2.384734e-01 1.270528e-01 -2.854151e-01 9.736831e-02 -1.698977e-01 -4.105043e-01
<VARIANCE> 39
 1.734642e+01 1.663655e+01 2.044685e+01 4.045923e+01 3.573405e+01 2.372057e+01 3.733657e+01 4.293163e+01 3.185345e+01 2.522605e+01 2.380924e+01 1.859543e+01 1.878086e+01 2.986274e+00 2.057799e+00 2.034899e+00 3.097987e+00 4.127548e+00 3.311808e+00 3.136741e+00 3.807390e+00 2.904061e+00 2.638214e+00 2.990308e+00 2.178928e+00 2.490495e+00 3.820065e-01 4.043020e-01 4.256008e-01 5.903567e-01 6.737229e-01 4.290757e-01 5.607466e-01 7.035704e-01 5.004241e-01 5.151465e-01 5.455984e-01 3.572969e-01 2.981534e-01
<GCONST> 1.178511e+02
<STATE> 3
<MEAN> 39
 5.860759e-01 4.943561e+00 -1.424001e-01 -4.499767e+00 -3.774874e+00 -1.452413e-01 2.591015e+00 -4.232786e+00 -7.984472e+00 -1.694314e+00 1.008994e+00 4.582658e+00 6.189113e+01 -4.151370e-01 6.246174e-01 4.843681e-01 4.696871e-01 6.910316e-01 5.865498e-01 -5.762199e-01 8.297647e-02 1.550703e-01 -7.896904e-01 -5.655106e-02 -8.528479e-02 -7.405661e-01 -7.273767e-01 -1.773818e-01 3.038938e-01 2.975294e-01 6.356288e-01 -2.111237e-02 -3.250777e-01 2.012925e-01 1.803325e-01 -5.942823e-02 2.261339e-01 -4.363067e-01 -2.757537e-01
<VARIANCE> 39
 1.190743e+01 1.190007e+01 1.679610e+01 3.496843e+01 3.654305e+01 2.070433e+01 3.400492e+01 3.651729e+01 2.820196e+01 2.015365e+01 2.573206e+01 2.240122e+01 1.339247e+01 1.542192e+00 1.620387e+00 1.594350e+00 2.445009e+00 3.503835e+00 2.029068e+00 2.819238e+00 2.789924e+00 2.093245e+00 2.239693e+00 2.081315e+00 1.809912e+00 1.674052e+00 4.258091e-01 2.608960e-01 2.996249e-01 4.255155e-01 6.829633e-01 4.084810e-01 4.666140e-01 5.149199e-01 4.238628e-01 4.031240e-01 4.888379e-01 4.491798e-01 2.161192e-01
<GCONST> 1.099663e+02
<STATE> 4
<MEAN> 39
 -2.356968e+00 6.084974e+00 1.527612e+00 -2.313900e+00 -3.266461e-01 1.951608e+00 6.259159e-01 -3.829440e+00 -6.745840e+00 -3.223063e+00 1.663840e+00 3.474006e+00 5.863277e+01 -1.484162e+00 1.418325e-01 9.383780e-01 6.338912e-01 1.471418e+00 2.411849e-01 -7.691163e-01 4.739861e-01 4.237441e-01 -5.016003e-01 3.314941e-01 -7.888615e-01 -7.841266e-01 -4.333566e-01 -3.435000e-01 8.957829e-02 -1.423299e-01 6.865157e-02 -3.628578e-01 -5.958015e-03 8.330815e-02 7.433208e-02 1.989218e-01 1.400277e-01 -1.971255e-01 2.414724e-01
<VARIANCE> 39
 1.657750e+01 1.266907e+01 1.871758e+01 3.203989e+01 3.261396e+01 2.459187e+01 3.517037e+01 3.387411e+01 2.301885e+01 2.497491e+01 2.263759e+01 1.697857e+01 1.667354e+01 2.552525e+00 1.834602e+00 2.168740e+00 3.068226e+00 4.133846e+00 2.185548e+00 2.637519e+00 2.541686e+00 2.681474e+00 2.452082e+00 2.530667e+00 2.167558e+00 1.754138e+00 4.418212e-01 2.625815e-01 3.222257e-01 3.687235e-01 4.954822e-01 4.816731e-01 5.043784e-01 5.384349e-01 4.017317e-01 4.216406e-01 3.515373e-01 3.850062e-01 2.851472e-01
<GCONST> 1.119500e+02
<TRANSP> 5
 0.000000e+00 1.000000e+00 0.000000e+00 0.000000e+00 0.000000e+00
 0.000000e+00 3.398157e-01 6.601843e-01 0.000000e+00 0.000000e+00
 0.000000e+00 0.000000e+00 3.504674e-01 6.495326e-01 0.000000e+00
 0.000000e+00 0.000000e+00 0.000000e+00 2.679907e-01 7.320093e-01
 0.000000e+00 0.000000e+00 0.000000e+00 0.000000e+00 0.000000e+00
<ENDHMM>
~h "p"
<BEGINHMM>
<NUMSTATES> 5
<STATE> 2
<MEAN> 39
 -9.489600e+00 7.225892e+00 2.359269e+00 5.625979e-01 6.850012e-01 7.436146e-02 -2.365142e+00 -3.266557e+00 -5.429060e+00 -3.270794e+00 -4.225824e-02 8.443273e-01 5.107733e+01 -6.181968e-01 -2.512737e-01 -2.170955e-02 2.239766e-01 -1.213826e-01 -8.532412e-02 -1.547957e-01 4.740899e-02 2.158112e-01 2.237796e-01 1.555964e-01 4.571672e-02 -5.245767e-01 1.683700e-01 -3.660448e-01 -1.770131e-02 -2.255733e-01 4.633076e-02 8.899727e-03 5.267881e-02 1.031244e-01 9.551363e-02 2.570826e-01 3.384129e-01 5.597028e-02 5.427548e-01
<VARIANCE> 39
 1.456213e+01 5.334817e+00 1.694316e+01 1.710249e+01 1.967002e+01 1.517068e+01 1.725887e+01 2.129956e+01 2.003490e+01 2.111852e+01 1.807987e+01 1.364304e+01 3.743881e+00 4.247510e-01 5.124936e-01 6.724832e-01 8.114018e-01 8.652099e-01 9.496160e-01 9.673061e-01 1.337868e+00 1.177197e+00 1.502120e+00 1.378486e+00 1.195275e+00 3.926702e-01 9.296234e-02 1.747224e-01 1.738222e-01 2.261998e-01 2.189951e-01 2.124569e-01 2.474398e-01 3.076889e-01 2.534124e-01 3.490732e-01 3.814976e-01 2.899404e-01 1.497012e-01
<GCONST> 8.472045e+01
<STATE> 3
<MEAN> 39
 -1.150419e+01 5.668227e+00 2.596096e+00 1.254154e+00 1.258673e+00 5.916488e-01 -2.104483e+00 -2.150800e+00 -3.594881e+00 -1.363008e+00 1.514989e+00 1.214401e+00 5.008862e+01 2.890047e-01 -2.075050e+00 -4.637221e-01 -1.335547e+00 2.282451e-01 2.190266e-01 1.041099e-01 5.180084e-01 2.462304e-01 1.064607e+00 1.833601e+00 1.641893e-01 2.206465e+00 5.891929e-01 -2.448086e-01 -1.182467e-01 -4.683957e-01 -2.346704e-02 -1.217459e-02 2.425192e-01 1.419528e-01 -2.377650e-01 7.145851e-02 4.898736e-02 1.018503e-02 8.768588e-01
<VARIANCE> 39
 1.240868e+01 7.821493e+00 1.012092e+01 1.272738e+01 1.503809e+01 1.240511e+01 2.083261e+01 2.655598e+01 2.588456e+01 1.985534e+01 1.484659e+01 1.555944e+01 5.068495e+00 1.622231e+00 1.357449e+00 2.009303e+00 1.873243e+00 2.066934e+00 1.907137e+00 3.274135e+00 2.855276e+00 2.263484e+00 1.742937e+00 2.458551e+00 1.657119e+00 1.054116e+00 2.879250e-01 2.639369e-01 3.072525e-01 3.075911e-01 3.651916e-01 3.357045e-01 4.532401e-01 4.950431e-01 3.414310e-01 3.602527e-01 4.263234e-01 2.717961e-01 1.590239e-01
<GCONST> 9.989552e+01
<STATE> 4
<MEAN> 39
 -9.655707e+00 -1.060636e+00 6.770550e-01 -3.464062e+00 2.287417e+00 2.357166e+00 -5.581766e-01 -1.674637e-01 -3.922009e+00 1.177114e+00 6.816020e+00 1.299741e+00 5.802160e+01 1.985260e+00 -6.283746e-01 -2.549783e-01 -1.247646e+00 -3.977373e-01 -1.961032e-01 7.283548e-01 2.715174e-01 -7.929287e-01 4.926066e-01 1.629910e-01 9.267597e-02 2.519144e+00 4.680704e-01 7.057296e-01 1.305896e-01 3.654948e-01 -3.859758e-01 -5.136976e-01 6.561791e-02 -3.282607e-01 -2.832685e-01 -3.064105e-01 -8.890337e-01 3.475103e-02 -1.812410e-01
<VARIANCE> 39
 8.287530e+00 1.519692e+01 1.426157e+01 1.831544e+01 1.775036e+01 1.943410e+01 2.851177e+01 2.388386e+01 2.528230e+01 2.297972e+01 1.917618e+01 1.320228e+01 1.426949e+01 4.167460e+00 3.801679e+00 3.394067e+00 3.691741e+00 4.312456e+00 3.007620e+00 3.756823e+00 3.972169e+00 3.531963e+00 3.379886e+00 3.778799e+00 1.679625e+00 2.429335e+00 3.541659e-01 4.188585e-01 5.526592e-01 4.417137e-01 5.500678e-01 5.191982e-01 7.321429e-01 8.710585e-01 5.507184e-01 4.878428e-01 4.978089e-01 2.920024e-01 2.871763e-01
<GCONST> 1.152621e+02
<TRANSP> 5
 0.000000e+00 1.000000e+00 0.000000e+00 0.000000e+00 0.000000e+00
 0.000000e+00 7.545043e-01 2.454957e-01 0.000000e+00 0.000000e+00
 0.000000e+00 0.000000e+00 4.301465e-01 5.698535e-01 0.000000e+00
 0.000000e+00 0.000000e+00 0.000000e+00 4.896455e-01 5.103545e-01
 0.000000e+00 0.000000e+00 0.000000e+00 0.000000e+00 0.000000e+00
<ENDHMM>
~h "r"
<BEGINHMM>
<NUMSTATES> 5
<STATE> 2
<MEAN> 39
 -4.083017e+00 2.258570e-01 2.401792e+00 -2.615662e+00 1.331594e+00 -1.983899e+00 -1.925874e+00 -2.178174e+00 -7.045571e+00 2.208439e+00 4.550703e+00 9.799213e-01 6.310417e+01 2.747655e-01 -1.074044e+00 -2.121632e-01 1.205954e+00 -1.068431e-01 -1.186523e+00 2.926751e-01 -8.021818e-01 -6.054616e-01 -1.260469e-02 -2.980921e-01 -2.466021e-01 4.967049e-01 -1.851186e-01 3.881765e-02 -1.782370e-01 2.251489e-01 3.964205e-02 7.061427e-02 1.315491e-01 2.825043e-02 1.947215e-01 -1.232142e-02 -1.727341e-01 2.986116e-02 -2.735685e-01
<VARIANCE> 39
 2.171332e+01 1.678665e+01 3.056788e+01 3.848243e+01 2.727443e+01 2.667389e+01 2.829426e+01 2.687738e+01 4.313876e+01 2.290906e+01 2.096980e+01 1.796829e+01 1.610287e+01 4.124892e+00 2.965460e+00 3.409590e+00 4.869287e+00 4.729284e+00 3.920304e+00 3.320509e+00 2.818790e+00 3.180895e+00 3.492691e+00 3.363826e+00 2.236385e+00 2.774149e+00 5.746381e-01 3.695346e-01 5.665171e-01 1.020709e+00 7.500301e-01 5.060954e-01 4.895599e-01 5.687793e-01 7.249704e-01 5.741035e-01 5.984331e-01 3.635132e-01 4.719528e-01
<GCONST> 1.218949e+02
<STATE> 3
<MEAN> 39
 -4.106552e+00 -2.678133e+00 -6.372765e-01 8.001425e-01 2.602802e+00 -5.467315e+00 -1.819141e+00 -3.735396e+00 -8.047570e+00 2.262939e+00 3.021273e+00 6.406171e-01 6.355929e+01 -5.365111e-01 -1.235340e+00 1.444045e-01 1.405138e+00 -5.670009e-01 -1.057796e-01 5.790274e-01 -5.227736e-01 3.185760e-01 3.079950e-02 -3.321626e-02 -3.014640e-01 -1.006770e-01 1.648776e-01 5.408614e-01 1.549489e-01 -4.865324e-01 -1.984405e-01 5.913964e-01 3.062261e-02 1.341008e-01 2.582297e-01 5.059249e-03 1.845308e-01 1.635070e-01 -5.162606e-02
<VARIANCE> 39
 2.393027e+01 2.435540e+01 4.091793e+01 3.087038e+01 4.248338e+01 2.940350e+01 2.874616e+01 3.046520e+01 3.253743e+01 3.177683e+01 2.280242e+01 2.625387e+01 1.803515e+01 2.308766e+00 1.845364e+00 4.065542e+00 2.967318e+00 3.152897e+00 3.350910e+00 2.554150e+00 2.627182e+00 2.694721e+00 2.981153e+00 2.205393e+00 1.363070e+00 1.203666e+00 7.918448e-01 6.114656e-01 9.874275e-01 6.918660e-01 1.056235e+00 7.045115e-01 6.465169e-01 7.538463e-01 6.504685e-01 8.879064e-01 5.856463e-01 5.556293e-01 4.604048e-01
<GCONST> 1.223225e+02
<STATE> 4
<MEAN> 39
 -5.403475e+00 -3.564466e+00 2.919156e+00 2.086070e+00 -3.549317e-01 -2.509574e+00 -2.247624e-02 -3.960178e+00 -5.432369e+00 3.703351e+00 4.544951e+00 -2.668463e-01 6.306918e+01 1.189567e+00 1.329972e+00 -4.637958e-01 -4.584547e-01 -2.564944e-01 6.253349e-01 1.148178e-01 -2.236660e-01 3.322579e-01 1.344120e-01 9.044777e-04 4.524824e-01 1.346619e-01 3.724820e-01 7.295690e-01 -2.634349e-01 -6.061344e-01 3.097102e-01 -6.663085e-03 -2.572032e-01 2.635558e-01 -1.128318e-01 -2.274842e-01 -7.616875e-02 2.100680e-01 1.960103e-02
<VARIANCE> 39
 2.786226e+01 2.724167e+01 3.722534e+01 1.782549e+01 3.866822e+01 2.849319e+01 3.491047e+01 3.821448e+01 3.469909e+01 2.346967e+01 2.439860e+01 1.836494e+01 1.476447e+01 3.027973e+00 2.444137e+00 5.198332e+00 2.137560e+00 3.668660e+00 2.682586e+00 3.430619e+00 3.869813e+00 3.718428e+00 3.144763e+00 2.771011e+00 2.262873e+00 1.571656e+00 6.341748e-01 6.251425e-01 8.614885e-01 5.099558e-01 7.595671e-01 6.230273e-01 7.157730e-01 7.864323e-01 7.525587e-01 6.662338e-01 5.423566e-01 3.369690e-01 2.963183e-01
<GCONST> 1.218595e+02
<TRANSP> 5
 0.000000e+00 1.000000e+00 0.000000e+00 0.000000e+00 0.000000e+00
 0.000000e+00 3.141652e-01 6.858348e-01 0.000000e+00 0.000000e+00
 0.000000e+00 0.000000e+00 3.822846e-01 6.177155e-01 0.000000e+00
 0.000000e+00 0.000000e+00 0.000000e+00 5.384415e-01 4.615586e-01
 0.000000e+00 0.000000e+00 0.000000e+00 0.000000e+00 0.000000e+00
<ENDHMM>
~h "s"
<BEGINHMM>
<NUMSTATES> 5
<STATE> 2
<MEAN> 39
 -1.782705e+01 3.628766e+00 9.942827e+00 -7.977451e+00 1.136817e+01 -7.635545e-01 -2.894652e+00 9.184203e-01 -2.991165e+00 -2.395350e+00 6.579877e+00 -8.408634e-01 6.291134e+01 -4.238356e+00 2.259520e-01 5.551266e-01 -2.264136e+00 1.488696e+00 -7.251442e-01 -6.441558e-01 2.149456e-01 2.094411e-01 -3.896455e-01 5.277355e-02 -8.464450e-01 1.114726e+00 4.330742e-01 1.231747e-01 -4.736823e-01 1.180414e-01 -7.477077e-01 -3.802204e-02 1.768047e-03 -2.039270e-01 -2.332772e-01 1.702857e-01 -2.666466e-01 2.826558e-02 -1.766950e-01
<VARIANCE> 39
 4.014491e+01 1.809155e+01 2.137306e+01 2.813561e+01 2.346672e+01 3.685217e+01 2.800542e+01 3.788104e+01 2.585416e+01 2.391071e+01 2.175049e+01 2.318986e+01 1.025353e+01 2.234094e+00 1.550378e+00 2.182281e+00 2.205984e+00 3.253453e+00 2.424988e+00 2.257370e+00 2.811053e+00 1.973348e+00 2.211403e+00 2.077655e+00 1.570581e+00 7.242125e-01 7.898955e-01 3.521461e-01 3.101725e-01 5.721391e-01 4.080263e-01 5.386484e-01 4.538853e-01 5.161065e-01 4.199037e-01 4.256496e-01 4.163332e-01 3.245508e-01 2.279842e-01
<GCONST> 1.112550e+02
<STATE> 3
<MEAN> 39
 -2.616107e+01 4.327157e+00 8.260898e+00 -1.237394e+01 1.168358e+01 -2.849132e+00 -5.197406e+00 1.089454e+00 -3.840988e+00 -1.445257e+00 6.038325e+00 -2.849597e+00 6.424176e+01 1.532721e-01 -2.200890e-01 -5.614349e-01 3.326170e-01 3.691336e-02 8.469613e-02 -7.430591e-02 -1.149014e-01 -2.000357e-01 2.869323e-01 2.133274e-01 1.230854e-01 -6.617342e-01 1.090443e+00 -1.223528e-01 -6.682149e-02 7.047857e-01 -2.405071e-01 1.644775e-01 2.634659e-01 -1.059769e-01 1.963152e-02 -1.575034e-02 -1.074616e-03 2.362399e-01 -5.020443e-01
<VARIANCE> 39
 7.776765e+00 2.058568e+01 1.689268e+01 2.261262e+01 2.519019e+01 2.992648e+01 2.226575e+01 3.042439e+01 2.759620e+01 2.146494e+01 2.297568e+01 2.428955e+01 5.822052e+00 2.955565e+00 2.175665e+00 1.133600e+00 2.263003e+00 1.865163e+00 2.044078e+00 1.870743e+00 2.264055e+00 1.930908e+00 1.780918e+00 1.892328e+00 1.620800e+00 8.958522e-01 2.591302e-01 3.632329e-01 2.351117e-01 2.849092e-01 3.396785e-01 3.815808e-01 3.452376e-01 4.345538e-01 3.829008e-01 3.804888e-01 3.928927e-01 3.014331e-01 1.265648e-01
<GCONST> 1.030096e+02
<STATE> 4
<MEAN> 39
 -1.844937e+01 3.409811e+00 6.091117e+00 -6.231647e+00 9.991463e+00 -7.909325e-01 -2.552027e+00 -3.933684e-01 -3.980440e+00 -1.116288e+00 6.214487e+00 -6.735480e-01 5.749549e+01 2.531682e+00 6.471263e-01 -3.694920e-01 1.423864e+00 -1.107266e+00 3.483988e-01 8.145134e-01 -3.394159e-01 6.339537e-02 -4.528541e-02 -6.604171e-01 4.753158e-01 -1.730220e+00 -4.807498e-02 1.002501e-01 4.093956e-02 -2.806374e-01 -2.309561e-01 -1.602950e-01 -6.941304e-02 1.282323e-01 6.724547e-03 2.978309e-02 -1.543074e-01 -7.409524e-02 4.065792e-01
<VARIANCE> 39
 1.733267e+01 3.192793e+01 1.814903e+01 2.352804e+01 3.540416e+01 3.079254e+01 3.379073e+01 3.172847e+01 2.877940e+01 2.386775e+01 2.547612e+01 1.945552e+01 1.592033e+01 1.880353e+00 2.076369e+00 1.252907e+00 1.712942e+00 2.124320e+00 1.846832e+00 2.192287e+00 2.680239e+00 2.405575e+00 1.880900e+00 2.053727e+00 1.561663e+00 1.516936e+00 3.627758e-01 6.866223e-01 3.176868e-01 3.228179e-01 5.606459e-01 4.146371e-01 5.063066e-01 5.495369e-01 5.402180e-01 4.295678e-01 4.702086e-01 3.695687e-01 3.252191e-01
<GCONST> 1.111428e+02
<TRANSP> 5
 0.000000e+00 1.000000e+00 0.000000e+00 0.000000e+00 0.000000e+00
 0.000000e+00 6.296569e-01 3.703431e-01 0.000000e+00 0.000000e+00
 0.000000e+00 0.000000e+00 7.668279e-01 2.331721e-01 0.000000e+00
 0.000000e+00 0.000000e+00 0.000000e+00 6.643137e-01 3.356864e-01
 0.000000e+00 0.000000e+00 0.000000e+00 0.000000e+00 0.000000e+00
<ENDHMM>
~h "t"
<BEGINHMM>
<NUMSTATES> 5
<STATE> 2
<MEAN> 39
 -1.089585e+01 6.991686e+00 2.475610e+00 -1.597263e+00 1.901548e+00 3.209485e-02 -1.629939e+00 -1.718817e+00 -4.330966e+00 -2.281508e+00 8.694456e-01 1.915599e-01 5.206974e+01 -4.105732e-01 -1.034388e+00 -2.145526e-01 -3.398495e-01 -6.308705e-01 -1.530876e-01 -4.366426e-02 1.599215e-02 3.118594e-01 3.543987e-01 4.467674e-02 -3.459822e-01 1.537111e-02 -1.432349e-01 -5.801868e-01 2.672167e-01 -7.322093e-01 2.103705e-01 -1.901814e-01 -2.848521e-01 2.894147e-01 -7.641297e-02 3.806519e-01 5.578405e-01 -9.896325e-02 1.026748e+00
<VARIANCE> 39
 2.699198e+01 9.431096e+00 2.080769e+01 2.503378e+01 3.063193e+01 1.912395e+01 3.180194e+01 2.889619e+01 2.182304e+01 2.167111e+01 1.584150e+01 1.243345e+01 7.136041e+00 1.791814e+00 2.213228e+00 1.638446e+00 3.185938e+00 2.114867e+00 1.784959e+00 2.022676e+00 2.084723e+00 1.720083e+00 1.542303e+00 2.062611e+00 1.352062e+00 2.591443e+00 2.012954e-01 2.821318e-01 3.130768e-01 3.903565e-01 4.372709e-01 4.168487e-01 4.211111e-01 4.263668e-01 3.338483e-01 3.263321e-01 2.724833e-01 2.800531e-01 2.006150e-01
<GCONST> 1.040406e+02
<STATE> 3
<MEAN> 39
 -1.329400e+01 2.490013e+00 4.114696e+00 -5.813235e+00 1.923424e+00 -4.062988e-01 -2.571818e+00 -1.967295e-01 -4.163889e+00 -1.567439e-01 3.341953e+00 -1.751890e+00 5.559808e+01 -8.676693e-01 -2.234342e+00 6.207377e-01 -2.162899e+00 7.229639e-02 -8.517480e-01 -8.549296e-01 6.785238e-01 2.010035e-01 1.160473e+00 1.541351e+00 -6.037101e-01 2.649059e+00 4.123666e-01 3.352172e-01 5.738217e-02 2.479660e-01 3.042431e-01 -9.342355e-02 -2.635518e-02 -1.101908e-01 -1.176263e-01 2.262845e-02 7.335506e-02 2.735085e-01 3.050401e-01
<VARIANCE> 39
 2.339980e+01 3.045333e+01 2.481003e+01 3.165192e+01 3.809660e+01 2.503057e+01 2.787880e+01 2.785294e+01 2.072946e+01 1.625175e+01 1.612085e+01 1.558388e+01 1.895963e+01 3.664186e+00 3.052178e+00 2.535140e+00 4.030543e+00 4.350182e+00 3.324913e+00 3.553989e+00 3.197210e+00 2.137552e+00 2.530773e+00 1.978082e+00 1.665680e+00 2.167459e+00 4.375058e-01 5.111760e-01 3.465772e-01 6.072031e-01 4.776285e-01 5.267415e-01 4.393653e-01 4.199126e-01 3.891733e-01 3.256952e-01 3.453126e-01 2.872221e-01 3.098065e-01
<GCONST> 1.145359e+02
<STATE> 4
<MEAN> 39
 -1.359331e+01 -6.615943e-01 4.747546e+00 -8.401823e+00 3.103027e+00 -1.933018e+00 -4.436765e+00 -1.055792e-01 -3.847392e+00 1.845427e+00 6.987761e+00 -1.089977e+00 6.045953e+01 1.441149e+00 2.940008e-01 4.647641e-02 3.340039e-01 3.074409e-01 9.252442e-02 8.208676e-02 -2.852122e-01 -3.234716e-01 2.597056e-01 2.261476e-01 5.382373e-01 9.920440e-01 7.202030e-01 7.224045e-01 -2.475961e-01 6.681213e-01 -1.429844e-01 1.140799e-01 3.544780e-01 -2.114111e-01 -1.827312e-01 -2.806654e-01 -6.109556e-01 2.700355e-01 -4.320738e-01
<VARIANCE> 39
 1.993898e+01 2.783258e+01 2.157140e+01 2.645930e+01 3.796816e+01 4.136396e+01 2.910585e+01 3.328289e+01 2.249472e+01 2.287471e+01 2.145970e+01 1.982556e+01 1.765500e+01 5.406486e+00 3.619969e+00 2.318896e+00 4.448959e+00 3.117909e+00 3.669252e+00 3.512999e+00 2.821367e+00 2.489541e+00 2.227811e+00 3.051465e+00 1.905383e+00 3.140074e+00 5.233785e-01 7.099738e-01 3.889655e-01 8.302722e-01 7.422085e-01 6.753044e-01 6.312970e-01 7.095383e-01 4.646034e-01 4.790791e-01 5.221101e-01 3.999469e-01 4.735515e-01
<GCONST> 1.209717e+02
<TRANSP> 5
 0.000000e+00 1.000000e+00 0.000000e+00 0.000000e+00 0.000000e+00
 0.000000e+00 6.401014e-01 3.598986e-01 0.000000e+00 0.000000e+00
 0.000000e+00 0.000000e+00 2.073341e-01 7.926658e-01 0.000000e+00
 0.000000e+00 0.000000e+00 0.000000e+00 6.002622e-01 3.997378e-01
 0.000000e+00 0.000000e+00 0.000000e+00 0.000000e+00 0.000000e+00
<ENDHMM>
~h "u"
<BEGINHMM>
<NUMSTATES> 5
<STATE> 2
<MEAN> 39
 -2.020795e+00 6.577019e+00 8.388889e-01 -2.490499e+00 -2.543867e+00 1.392127e+00 1.434063e+00 -5.057990e+00 -7.328006e+00 -5.950273e+00 -1.326886e+00 2.921437e+00 5.795296e+01 5.581741e-01 7.387270e-01 1.558520e-01 4.051712e-01 -2.346349e-01 -1.768739e-01 2.870449e-01 1.740940e-03 -3.725584e-01 -3.258676e-01 -6.488358e-01 1.804891e-01 -2.138475e-01 -2.680414e-01 -1.763821e-01 6.552850e-02 1.082189e-01 2.669248e-01 -3.467637e-02 -2.063584e-01 -2.990150e-02 1.090050e-01 1.509012e-01 1.110865e-01 -9.546897e-02 -2.861357e-02
<VARIANCE> 39
 2.118238e+01 1.369790e+01 1.847044e+01 2.821757e+01 3.172102e+01 2.199673e+01 2.014560e+01 2.675998e+01 2.320496e+01 2.444167e+01 3.023628e+01 1.968129e+01 1.489961e+01 2.929174e+00 1.539121e+00 1.935098e+00 1.950613e+00 2.916987e+00 2.536404e+00 2.096882e+00 3.217169e+00 1.999936e+00 1.990805e+00 2.297164e+00 1.842028e+00 1.505218e+00 3.359154e-01 2.688438e-01 3.130163e-01 4.701635e-01 4.617256e-01 3.888651e-01 3.411122e-01 4.421482e-01 2.820089e-01 3.220549e-01 4.833145e-01 3.163814e-01 2.179234e-01
<GCONST> 1.081198e+02
<STATE> 3
<MEAN> 39
 -2.054904e+00 7.221516e+00 1.976899e+00 -5.484136e-01 -7.740028e-01 8.096311e-01 3.450317e-01 -5.212010e+00 -8.654358e+00 -5.660362e+00 -1.254907e+00 3.560493e+00 5.787199e+01 1.257604e-03 2.331227e-02 2.355861e-01 7.837809e-01 1.041333e+00 2.352449e-01 -7.750980e-01 -7.882714e-01 -1.233917e-01 5.996341e-01 3.029571e-01 8.364027e-02 -3.442440e-02 -5.864248e-01 -5.037177e-01 2.073301e-01 1.485292e-01 3.864673e-01 -2.777721e-02 -3.364125e-01 -7.088064e-02 3.090110e-01 3.308599e-01 2.202794e-01 -3.797235e-01 3.026310e-02
<VARIANCE> 39
 1.437819e+01 1.200468e+01 1.300366e+01 2.460524e+01 2.269580e+01 3.002986e+01 2.900924e+01 3.467607e+01 2.768525e+01 2.667407e+01 2.111603e+01 1.941038e+01 2.014336e+01 2.569355e+00 1.211455e+00 1.872862e+00 2.694624e+00 3.097269e+00 2.934140e+00 2.595459e+00 3.276469e+00 2.596257e+00 2.988568e+00 2.667498e+00 1.713875e+00 1.731887e+00 4.649697e-01 3.362903e-01 3.231555e-01 6.475319e-01 6.398206e-01 6.289176e-01 4.617417e-01 6.323764e-01 5.343730e-01 4.486903e-01 4.686632e-01 3.605559e-01 2.649955e-01
<GCONST> 1.127822e+02
<STATE> 4
<MEAN> 39
 -3.848485e+00 5.654199e+00 3.129149e+00 3.186306e+00 3.757567e+00 1.561917e+00 -4.025718e+00 -8.733477e+00 -7.577591e+00 -2.123209e+00 -1.176673e-01 1.367427e+00 5.701522e+01 -1.126486e+00 -7.820680e-01 5.762507e-01 6.328196e-01 7.118020e-01 -4.339972e-01 -6.326272e-01 4.539068e-02 3.441137e-01 3.162762e-01 3.035445e-02 -7.417926e-01 -1.157130e-01 -3.959851e-01 -3.228778e-01 7.458627e-02 -4.030859e-01 -3.829400e-01 -3.573465e-01 2.401335e-01 3.431631e-01 1.570453e-01 -1.815442e-01 -4.213293e-02 -1.589781e-01 1.645977e-01
<VARIANCE> 39
 1.807771e+01 1.193465e+01 1.311203e+01 2.274696e+01 2.570679e+01 3.490034e+01 3.851451e+01 4.323837e+01 2.629679e+01 2.309137e+01 2.726892e+01 2.538622e+01 2.060438e+01 2.430809e+00 2.520484e+00 1.821168e+00 4.098407e+00 4.927678e+00 2.691532e+00 3.364197e+00 2.722316e+00 3.176777e+00 3.747490e+00 2.337308e+00 2.102297e+00 1.656597e+00 3.342549e-01 2.951137e-01 3.247684e-01 5.260668e-01 6.520039e-01 6.439287e-01 5.480393e-01 6.738135e-01 5.584613e-01 6.515635e-01 5.096343e-01 4.458854e-01 3.214129e-01
<GCONST> 1.165618e+02
<TRANSP> 5
 0.000000e+00 1.000000e+00 0.000000e+00 0.000000e+00 0.000000e+00
 0.000000e+00 6.101300e-01 3.898700e-01 0.000000e+00 0.000000e+00
 0.000000e+00 0.000000e+00 3.384559e-01 6.615441e-01 0.000000e+00
 0.000000e+00 0.000000e+00 0.000000e+00 4.132285e-01 5.867716e-01
 0.000000e+00 0.000000e+00 0.000000e+00 0.000000e+00 0.000000e+00
<ENDHMM>
~h "v"
<BEGINHMM>
<NUMSTATES> 5
<STATE> 2
<MEAN> 39
 -5.436786e+00 6.021338e+00 2.727005e+00 3.142212e-01 3.058110e+00 5.567545e-01 -5.399341e-01 -3.345863e+00 -5.647583e+00 -2.603054e+00 1.964632e+00 8.472487e-01 5.719218e+01 -2.540313e-01 2.033141e-01 2.715812e-01 1.737020e-01 1.631138e-01 3.247226e-01 2.208344e-01 5.055790e-01 1.462515e-01 -6.751913e-02 4.044183e-02 -3.813372e-01 -3.409107e-01 4.043902e-01 -2.905366e-01 -1.583616e-01 -2.585545e-01 -2.042319e-01 -5.206324e-01 -2.567819e-01 4.463765e-02 9.570099e-02 3.734396e-01 9.327088e-02 -4.571720e-02 6.205688e-01
<VARIANCE> 39
 2.998151e+01 1.505486e+01 1.749781e+01 3.223290e+01 2.019656e+01 1.302300e+01 2.458574e+01 2.497912e+01 1.696413e+01 1.851488e+01 1.621592e+01 1.251435e+01 1.361431e+01 2.061685e+00 1.341613e+00 1.391675e+00 1.732126e+00 1.535474e+00 1.383818e+00 1.617817e+00 1.847515e+00 1.443307e+00 1.634788e+00 1.428419e+00 1.325764e+00 8.233424e-01 3.671104e-01 2.841341e-01 3.311799e-01 3.547455e-01 3.371861e-01 2.979104e-01 3.468954e-01 4.025724e-01 3.166813e-01 4.289762e-01 2.724111e-01 3.008727e-01 1.661629e-01
<GCONST> 9.987808e+01
<STATE> 3
<MEAN> 39
 -5.228646e+00 5.958839e+00 2.887666e+00 1.019676e-01 3.260070e+00 7.922913e-01 -3.176407e-01 -2.201270e+00 -4.747689e+00 -1.712335e+00 2.916138e+00 2.377465e-01 5.743117e+01 1.040031e+00 -2.707636e-01 -3.085100e-01 -5.704440e-01 -3.757028e-01 -8.887861e-01 -4.753240e-01 4.288007e-01 9.657431e-02 6.104507e-01 6.766176e-02 -2.554279e-01 1.048581e+00 3.663991e-01 -3.124723e-01 -2.025441e-01 -2.435220e-01 -2.417303e-01 -5.938304e-01 -2.209263e-01 -9.731364e-02 -4.289401e-02 2.810646e-01 -6.251942e-02 9.585386e-02 6.004205e-01
<VARIANCE> 39
 2.722928e+01 1.126849e+01 1.912560e+01 3.589855e+01 2.424859e+01 1.687662e+01 2.341155e+01 2.752020e+01 1.614883e+01 1.721542e+01 1.710640e+01 1.324920e+01 1.374748e+01 3.465932e+00 2.047127e+00 2.275251e+00 2.968715e+00 2.205122e+00 1.522317e+00 2.450418e+00 3.051214e+00 2.011611e+00 2.229887e+00 1.909389e+00 1.683799e+00 1.035617e+00 4.064355e-01 2.098002e-01 3.526282e-01 3.756044e-01 3.343812e-01 3.284630e-01 3.568127e-01 4.475643e-01 3.722576e-01 3.317141e-01 2.722340e-01 2.319395e-01 1.416590e-01
<GCONST> 1.045506e+02
<STATE> 4
<MEAN> 39
 -2.231614e+00 4.980277e+00 1.359965e+00 -2.192288e+00 1.356452e+00 -1.931167e+00 -1.022270e+00 -1.673752e+00 -4.710418e+00 -4.606565e-01 2.677016e+00 1.793524e-01 6.061993e+01 1.145752e+00 -6.156077e-01 -4.962980e-01 -7.404923e-01 -4.906595e-01 -1.392534e+00 -6.170304e-01 1.594370e-01 4.585994e-02 8.251197e-01 -7.322500e-02 -9.050774e-02 1.533734e+00 -8.458485e-02 -5.255962e-02 1.003655e-01 4.608183e-02 2.983193e-02 -7.306069e-02 -3.165759e-02 -1.423990e-01 -1.126788e-01 2.066383e-03 -6.407135e-02 3.671829e-02 8.318837e-02
<VARIANCE> 39
 2.465831e+01 1.312810e+01 2.667990e+01 4.667956e+01 2.278716e+01 1.386624e+01 3.489199e+01 3.118434e+01 1.740425e+01 1.861400e+01 2.012973e+01 2.064139e+01 1.174492e+01 2.750959e+00 1.654288e+00 3.370211e+00 3.475469e+00 2.647024e+00 2.060348e+00 2.482980e+00 2.743680e+00 2.170164e+00 2.298203e+00 1.657585e+00 1.674537e+00 1.118948e+00 4.424027e-01 2.723522e-01 3.490715e-01 3.609747e-01 3.859302e-01 2.735883e-01 3.415222e-01 4.625598e-01 3.153639e-01 3.315093e-01 3.794261e-01 2.558515e-01 1.655383e-01
<GCONST> 1.072669e+02
<TRANSP> 5
 0.000000e+00 1.000000e+00 0.000000e+00 0.000000e+00 0.000000e+00
 0.000000e+00 4.053382e-01 5.946618e-01 0.000000e+00 0.000000e+00
 0.000000e+00 0.000000e+00 2.125101e-01 7.874898e-01 0.000000e+00
 0.000000e+00 0.000000e+00 0.000000e+00 2.117938e-01 7.882063e-01
 0.000000e+00 0.000000e+00 0.000000e+00 0.000000e+00 0.000000e+00
<ENDHMM>
~h "x"
<BEGINHMM>
<NUMSTATES> 5
<STATE> 2
<MEAN> 39
 -1.226697e+01 -1.643702e+00 8.081689e+00 -5.228209e-01 4.467462e+00 -2.225597e-01 -4.739827e+00 7.049157e-02 -4.284060e+00 -1.998919e+00 6.237329e+00 -3.582390e+00 5.812663e+01 -7.620310e-01 -8.288376e-01 -8.781227e-01 -8.489183e-01 1.535957e-01 -3.147977e-01 -5.163889e-01 -6.024179e-03 -1.399274e-02 -1.025459e-01 6.156054e-01 -1.538495e-01 -3.490843e-02 2.072253e-01 2.041551e-01 -6.699535e-02 2.134967e-01 -8.050135e-02 -1.215562e-01 7.414567e-03 -1.148996e-01 1.509204e-01 2.377481e-01 -2.786120e-01 8.329326e-02 6.352130e-03
<VARIANCE> 39
 2.205499e+01 1.777595e+01 1.340714e+02 4.483587e+01 3.218114e+01 4.812759e+01 3.776151e+01 2.830595e+01 4.958244e+01 2.650757e+01 2.357113e+01 2.454909e+01 6.356653e+00 9.419019e-01 9.847135e-01 2.248563e+00 2.622147e+00 1.895492e+00 2.668626e+00 2.967935e+00 2.699814e+00 2.812924e+00 2.313258e+00 1.999596e+00 1.784347e+00 3.351586e-01 1.069971e-01 1.620274e-01 4.460648e-01 4.062595e-01 3.779741e-01 4.598252e-01 5.275772e-01 5.000817e-01 4.920396e-01 4.657269e-01 3.222369e-01 3.155041e-01 7.020468e-02
<GCONST> 1.082527e+02
<STATE> 3
<MEAN> 39
 -1.259199e+01 -2.903829e+00 4.840344e+00 -3.419282e-01 6.031269e+00 -1.525986e+00 -6.291637e+00 -1.347819e+00 -3.499173e+00 -9.081368e-02 7.048845e+00 -2.062714e+00 5.810754e+01 3.181089e-01 8.548210e-01 -8.537837e-01 2.692162e-01 5.279335e-01 5.518157e-01 4.711009e-01 -8.031140e-02 3.372013e-01 6.276510e-01 -1.015290e+00 3.410042e-01 -4.901615e-01 3.693856e-01 5.737146e-01 1.361521e-01 4.928870e-02 -2.600893e-01 8.950557e-02 2.439352e-01 1.060797e-01 -1.597836e-02 -1.195044e-01 -5.091637e-01 5.026429e-02 2.178389e-02
<VARIANCE> 39
 2.148040e+01 2.609563e+01 9.683445e+01 4.833092e+01 2.638291e+01 4.620978e+01 3.629899e+01 4.292631e+01 4.178585e+01 2.971714e+01 3.973841e+01 2.608099e+01 8.769941e+00 1.815783e+00 1.465090e+00 2.589292e+00 2.701604e+00 2.115386e+00 3.444831e+00 4.522193e+00 4.535480e+00 2.337942e+00 2.562816e+00 2.494315e+00 1.783221e+00 9.233856e-01 3.043779e-01 2.373798e-01 3.747291e-01 3.560421e-01 4.730338e-01 6.444796e-01 6.958978e-01 7.706952e-01 4.778937e-01 4.578854e-01 6.029247e-01 4.042841e-01 1.689659e-01
<GCONST> 1.171254e+02
<STATE> 4
<MEAN> 39
 -1.047294e+01 2.356634e+00 3.939721e+00 1.733228e+00 5.672964e+00 -2.328321e-01 -4.500293e+00 1.494586e-01 -1.192832e+00 2.971033e-01 1.755767e+00 -1.604789e+00 5.535561e+01 7.988744e-01 1.172754e+00 -3.764307e-01 -3.276734e-01 -2.692017e-01 -1.017564e-01 4.041932e-01 2.244665e-01 9.586678e-02 4.321584e-01 -1.047647e+00 4.470255e-01 2.834651e-01 3.814277e-02 -1.904282e-01 7.434399e-02 -3.517178e-01 -1.860912e-01 -2.777825e-01 -6.416553e-02 7.537501e-02 -2.996894e-01 -5.207414e-02 2.782299e-01 3.364382e-03 4.033658e-01
<VARIANCE> 39
 2.981455e+01 2.188221e+01 4.285471e+01 2.906940e+01 2.176819e+01 4.940178e+01 2.305405e+01 3.538139e+01 2.974013e+01 2.069216e+01 2.385696e+01 1.760322e+01 1.752412e+01 3.603161e+00 2.033221e+00 2.145456e+00 2.677783e+00 2.102734e+00 2.968697e+00 2.523331e+00 2.542656e+00 2.684448e+00 2.719099e+00 4.224893e+00 2.196630e+00 2.238991e+00 3.146019e-01 3.351861e-01 3.147891e-01 4.542937e-01 2.902948e-01 7.143055e-01 5.950645e-01 5.171545e-01 5.142419e-01 4.427706e-01 4.612849e-01 3.278860e-01 2.430965e-01
<GCONST> 1.150184e+02
<TRANSP> 5
 0.000000e+00 1.000000e+00 0.000000e+00 0.000000e+00 0.000000e+00
 0.000000e+00 7.637894e-01 2.362106e-01 0.000000e+00 0.000000e+00
 0.000000e+00 0.000000e+00 4.950155e-01 5.049846e-01 0.000000e+00
 0.000000e+00 0.000000e+00 0.000000e+00 4.821126e-01 5.178874e-01
 0.000000e+00 0.000000e+00 0.000000e+00 0.000000e+00 0.000000e+00
<ENDHMM>
~h "z"
<BEGINHMM>
<NUMSTATES> 5
<STATE> 2
<MEAN> 39
 -9.017380e+00 8.300906e+00 1.023163e+01 -7.467584e+00 9.397947e+00 -3.538298e+00 -5.665889e+00 -1.493213e+00 -7.041859e+00 -4.072434e+00 6.748243e+00 1.524902e+00 6.229235e+01 -3.594598e+00 9.956687e-01 2.187276e+00 -1.610392e+00 2.655414e+00 -2.760018e-01 -1.764486e-01 2.428189e-01 7.849722e-02 -6.364220e-01 6.010095e-01 -9.064469e-01 4.685230e-01 -1.148017e-01 -2.818369e-01 -3.997037e-01 3.071092e-01 -5.413697e-01 -4.330452e-03 3.623611e-01 1.649372e-01 1.610591e-01 3.928792e-01 -3.218834e-01 -1.782560e-01 5.302191e-02
<VARIANCE> 39
 2.421958e+01 8.425163e+00 2.485868e+01 4.126036e+01 2.570243e+01 3.935761e+01 1.901798e+01 3.237461e+01 2.086330e+01 2.910945e+01 2.143081e+01 2.182062e+01 1.212225e+01 2.166758e+00 1.332161e+00 2.018733e+00 2.565253e+00 2.367695e+00 2.926855e+00 2.312125e+00 2.352773e+00 3.371635e+00 2.676731e+00 2.279310e+00 1.479424e+00 1.090009e+00 5.572279e-01 2.318871e-01 4.107168e-01 3.772859e-01 6.149157e-01 3.906844e-01 3.783923e-01 3.768266e-01 5.190951e-01 4.848557e-01 4.198360e-01 3.124533e-01 1.206438e-01
<GCONST> 1.093479e+02
<STATE> 3
<MEAN> 39
 -1.840395e+01 9.482422e+00 1.237195e+01 -8.890776e+00 1.302071e+01 -5.236907e+00 -4.306849e+00 6.953521e-01 -6.198798e+00 -3.153856e+00 6.161042e+00 -2.006640e+00 6.386838e+01 -7.053970e-01 -4.431322e-01 -2.738127e-01 3.119009e-01 -2.409309e-01 1.525060e-01 3.759447e-01 2.252210e-01 1.644282e-01 5.034199e-01 4.430958e-02 -3.510742e-01 -8.285008e-02 1.329876e+00 -3.848543e-01 -4.989654e-01 5.480377e-01 -8.006104e-01 2.526410e-02 -6.213673e-02 -1.909348e-01 3.256172e-02 1.721489e-01 -7.937361e-02 3.045955e-01 -1.651671e-01
<VARIANCE> 39
 2.027208e+01 1.033123e+01 1.825250e+01 3.241659e+01 1.837164e+01 4.063277e+01 2.006079e+01 2.261626e+01 2.107030e+01 2.589941e+01 2.341866e+01 1.819314e+01 4.665920e+00 4.192596e+00 1.206616e+00 1.286049e+00 1.975629e+00 1.794676e+00 1.633104e+00 1.761792e+00 1.884479e+00 2.014423e+00 1.788599e+00 1.595151e+00 1.247874e+00 4.514090e-01 2.424103e-01 2.103384e-01 3.689934e-01 3.330734e-01 3.605839e-01 3.838697e-01 4.033034e-01 3.475774e-01 4.861328e-01 4.699229e-01 3.853123e-01 2.254241e-01 8.245242e-02
<GCONST> 1.006077e+02
<STATE> 4
<MEAN> 39
 -1.235044e+01 5.978519e+00 9.609253e+00 -5.267291e+00 8.203166e+00 -3.699294e+00 -3.903168e+00 -5.640978e-01 -5.516037e+00 -1.348939e+00 6.926211e+00 -4.913200e-01 6.219569e+01 3.019821e+00 -7.008300e-01 -1.225817e+00 1.114829e+00 -1.862170e+00 6.131258e-02 -2.567910e-01 -6.867489e-01 2.735267e-01 6.033627e-01 -4.311662e-01 5.950914e-01 -2.974471e-01 2.406328e-01 1.253930e-01 -1.247835e-01 -7.995003e-02 -1.004918e-01 -2.388506e-02 -8.409236e-02 -5.877751e-02 -5.377535e-03 -5.213970e-02 -3.566927e-01 6.242635e-02 9.350184e-02
<VARIANCE> 39
 3.406838e+01 1.574713e+01 2.130523e+01 2.875643e+01 2.453789e+01 4.233502e+01 2.592420e+01 2.764022e+01 2.153235e+01 2.448876e+01 2.063546e+01 1.796967e+01 8.825487e+00 2.844209e+00 1.667020e+00 2.720997e+00 2.238127e+00 2.251991e+00 1.993663e+00 2.874583e+00 2.327325e+00 2.250500e+00 2.324626e+00 2.499228e+00 1.631973e+00 1.024745e+00 7.441072e-01 3.328778e-01 3.927047e-01 2.878174e-01 4.245241e-01 3.224417e-01 4.020427e-01 4.018625e-01 3.749066e-01 4.050910e-01 3.669157e-01 3.281045e-01 1.495391e-01
<GCONST> 1.088226e+02
<TRANSP> 5
 0.000000e+00 1.000000e+00 0.000000e+00 0.000000e+00 0.000000e+00
 0.000000e+00 5.512530e-01 4.487470e-01 0.000000e+00 0.000000e+00
 0.000000e+00 0.000000e+00 6.988813e-01 3.011188e-01 0.000000e+00
 0.000000e+00 0.000000e+00 0.000000e+00 6.327472e-01 3.672528e-01
 0.000000e+00 0.000000e+00 0.000000e+00 0.000000e+00 0.000000e+00
<ENDHMM>
~h "aa"
<BEGINHMM>
<NUMSTATES> 5
<STATE> 2
<MEAN> 39
 2.391857e-01 1.560427e+00 -4.659903e+00 -1.083423e+01 3.275105e+00 -2.272105e+00 1.512584e-01 3.148001e+00 -5.440009e+00 3.157944e+00 4.063120e+00 -2.495712e-01 6.703870e+01 6.586326e-01 -1.348989e-01 -1.219368e+00 -2.090296e+00 7.220559e-01 -1.705435e-02 1.424506e-01 1.530642e+00 -1.126092e+00 -1.138818e-01 2.363024e-01 -3.948948e-02 7.486628e-01 -4.457219e-01 5.814876e-02 4.677902e-01 3.476584e-01 5.235023e-02 2.420174e-02 -1.530767e-02 4.691635e-02 -1.726452e-01 -2.962702e-01 1.022388e-01 -9.972521e-02 -4.190769e-01
<VARIANCE> 39
 5.013191e+00 1.524298e+01 1.352657e+01 2.693247e+01 2.583918e+01 1.956242e+01 2.977930e+01 3.286116e+01 2.831384e+01 1.930735e+01 2.145643e+01 2.231046e+01 9.596447e+00 1.467049e+00 1.196711e+00 1.605597e+00 2.473773e+00 2.993923e+00 1.697073e+00 1.803446e+00 1.879628e+00 2.331858e+00 1.522600e+00 1.712478e+00 1.145091e+00 9.879857e-01 2.517407e-01 2.574584e-01 2.431646e-01 3.886508e-01 4.849214e-01 2.944345e-01 3.385036e-01 4.382485e-01 4.709139e-01 2.939181e-01 3.869182e-01 2.212911e-01 1.053378e-01
<GCONST> 1.008401e+02
<STATE> 3
<MEAN> 39
 3.619002e-01 3.783640e+00 -5.338537e+00 -1.470478e+01 5.545897e+00 -2.190087e-01 1.979567e+00 8.116086e+00 -9.570411e+00 5.388659e-01 5.421775e+00 -6.639972e-01 6.515321e+01 -9.175528e-03 2.369824e-01 1.373757e-01 -2.550344e-02 1.527655e-01 5.634833e-02 -7.643508e-02 3.094979e-01 -2.193018e-01 -1.815116e-01 1.257606e-01 4.804681e-02 -2.442629e-01 -7.938161e-02 3.703973e-02 2.247740e-01 4.420102e-01 -1.910475e-01 -7.380450e-03 -4.074722e-03 -3.021986e-01 2.024970e-01 1.045470e-02 -7.938363e-02 6.662294e-02 -1.387959e-01
<VARIANCE> 39
 3.416542e+00 9.658712e+00 9.709649e+00 1.282913e+01 1.743801e+01 1.637745e+01 1.826367e+01 2.587474e+01 2.260259e+01 1.784811e+01 1.532944e+01 1.663626e+01 7.204115e+00 1.677382e-01 4.506467e-01 6.483889e-01 1.228073e+00 1.294954e+00 9.410661e-01 9.837970e-01 1.491995e+00 1.383335e+00 1.066959e+00 9.865167e-01 9.110108e-01 1.955281e-01 4.529392e-02 8.200713e-02 1.032190e-01 1.704259e-01 2.086327e-01 1.743487e-01 1.736639e-01 2.425750e-01 2.113164e-01 1.774206e-01 1.725097e-01 1.531160e-01 4.329145e-02
<GCONST> 7.557488e+01
<STATE> 4
<MEAN> 39
 -9.284779e-01 4.613270e+00 -2.541435e+00 -9.992247e+00 4.435288e+00 -2.456232e-01 5.663360e-01 5.528766e+00 -7.630294e+00 4.710110e-01 4.882310e+00 3.839011e-01 6.292532e+01 -9.886081e-01 4.469625e-01 1.232183e+00 1.865764e+00 -5.889100e-01 2.092468e-01 4.159885e-01 -1.141359e+00 6.766585e-01 -4.159660e-01 -5.448371e-01 9.519817e-02 -1.258563e+00 -3.339479e-01 -1.093702e-01 9.078430e-02 1.939706e-02 -8.323234e-03 -2.302127e-03 3.184525e-02 -1.397045e-01 2.813875e-02 -3.518198e-02 -7.603970e-02 -1.447102e-01 -3.919800e-02
<VARIANCE> 39
 6.876318e+00 1.286186e+01 1.524432e+01 2.657733e+01 2.982450e+01 2.737479e+01 2.812207e+01 2.647967e+01 3.239977e+01 2.104693e+01 1.962889e+01 1.913234e+01 1.894493e+01 9.855644e-01 1.276031e+00 1.892615e+00 1.869600e+00 3.024379e+00 1.832811e+00 1.805439e+00 2.065574e+00 2.441884e+00 1.786505e+00 2.003445e+00 1.523162e+00 6.558293e-01 2.379188e-01 2.164932e-01 3.554235e-01 5.126734e-01 4.315760e-01 3.937765e-01 3.530717e-01 4.076090e-01 5.006572e-01 3.496619e-01 3.541636e-01 2.586049e-01 1.759019e-01
<GCONST> 1.033147e+02
<TRANSP> 5
 0.000000e+00 1.000000e+00 0.000000e+00 0.000000e+00 0.000000e+00
 0.000000e+00 6.539450e-01 3.460550e-01 0.000000e+00 0.000000e+00
 0.000000e+00 0.000000e+00 8.290859e-01 1.709141e-01 0.000000e+00
 0.000000e+00 0.000000e+00 0.000000e+00 6.866711e-01 3.133289e-01
 0.000000e+00 0.000000e+00 0.000000e+00 0.000000e+00 0.000000e+00
<ENDHMM>
~h "aw"
<BEGINHMM>
<NUMSTATES> 5
<STATE> 2
<MEAN> 39
 -1.049423e+01 -4.222929e+00 -6.057535e+00 -3.562933e+00 5.132423e+00 4.897992e+00 -1.413910e+00 1.054218e+00 -9.696270e-01 -3.344828e-01 4.646384e+00 1.599694e+00 5.392173e+01 -3.697516e-01 -1.812579e-01 4.659213e-02 -3.347947e-02 -2.813749e-01 1.254286e-01 -5.659606e-02 -8.322068e-03 2.997445e-01 1.435625e-01 8.149388e-02 -1.575035e-01 -2.751238e-01 -8.050155e-03 1.162357e-01 9.883955e-02 4.663759e-02 -1.265689e-01 -2.459762e-01 1.596530e-02 -4.518899e-02 -1.308425e-02 8.923371e-03 -9.619394e-02 -9.304237e-02 -2.271354e-02
<VARIANCE> 39
 6.527102e+00 3.004986e+01 2.010618e+01 1.026950e+01 1.657643e+01 2.955702e+01 2.727716e+01 2.071757e+01 1.076235e+01 1.041802e+01 6.396148e+00 2.134424e+01 5.901261e+00 4.659750e-01 1.655092e+00 1.588585e+00 1.006171e+00 1.539473e+00 2.461313e+00 1.756211e+00 2.331064e+00 1.439648e+00 1.982792e+00 7.977547e-01 1.387126e+00 6.653259e-01 6.287948e-02 1.557545e-01 3.518918e-01 2.191709e-01 2.547004e-01 4.534347e-01 3.787928e-01 4.881992e-01 2.508946e-01 2.619558e-01 1.943522e-01 4.209119e-01 5.728460e-02
<GCONST> 9.080221e+01
<STATE> 3
<MEAN> 39
 -1.484379e+01 2.933912e+00 1.938354e-01 1.890659e+00 2.287616e+00 4.868200e+00 2.976182e+00 2.285300e+00 1.236322e+00 2.345516e+00 2.423693e+00 1.700974e+00 4.760253e+01 -1.928351e-01 -2.482111e-02 1.187236e-01 1.798822e-01 1.302998e-01 -4.096336e-02 1.867948e-01 2.388833e-01 1.010058e-01 1.311416e-02 -3.365631e-02 1.041309e-01 -1.422287e-01 7.213611e-02 -2.234200e-02 -2.529623e-02 -1.313879e-01 3.662826e-03 4.297768e-02 -3.034607e-04 5.132291e-02 -4.069047e-02 -6.074136e-02 2.686549e-02 1.553001e-02 9.932487e-02
<VARIANCE> 39
 5.142276e+00 3.495585e+00 3.767874e+00 8.334903e+00 7.485950e+00 9.191646e+00 1.064168e+01 1.514918e+01 9.488075e+00 1.257687e+01 1.244526e+01 1.162708e+01 2.320413e+00 2.117650e-01 3.566785e-01 4.256162e-01 1.193414e+00 7.669860e-01 9.089833e-01 9.012215e-01 1.357883e+00 8.757793e-01 1.498155e+00 1.275202e+00 1.542651e+00 1.971954e-01 5.306359e-02 8.700008e-02 8.094756e-02 3.483317e-01 1.562950e-01 1.816039e-01 1.544331e-01 2.758824e-01 1.403539e-01 3.116249e-01 3.172296e-01 3.214534e-01 1.048579e-01
<GCONST> 7.049867e+01
<STATE> 4
<MEAN> 39
 -8.996714e+00 -1.090695e-01 -1.833096e-02 -5.542828e+00 -1.671730e+00 6.417655e+00 5.878858e+00 6.645174e+00 -2.640084e+00 6.513538e-01 2.835075e+00 4.201818e+00 5.501271e+01 2.268812e+00 3.998119e-02 5.008271e-01 -2.054915e+00 -1.940021e+00 -8.210940e-01 3.791698e-01 1.550329e-01 -1.683276e+00 -1.116136e+00 -4.359693e-01 -4.616471e-01 2.368215e+00 2.621641e-01 2.829556e-01 1.859024e-01 9.915797e-02 -1.119996e-01 -4.326304e-01 -1.141336e-01 -4.394098e-01 -2.028569e-01 -2.004855e-02 -9.762610e-02 -1.708428e-01 2.190273e-01
<VARIANCE> 39
 5.885305e+01 1.423067e+01 2.232259e+00 7.202441e+01 5.725488e+01 7.722618e+00 1.601718e+01 1.340705e+01 4.647065e+01 9.431131e+00 7.612953e+00 3.984601e+00 8.961769e+01 2.351789e+00 2.898291e+00 9.167428e-01 5.874952e+00 2.603896e+00 1.930761e+00 2.172372e+00 4.068565e+00 3.222806e+00 1.167353e+00 1.451803e+00 1.068147e+00 4.352174e+00 8.505920e-01 4.528279e-01 1.278493e-01 1.105607e+00 8.416705e-01 4.103171e-01 2.482822e-01 2.912036e-01 9.733419e-01 4.421268e-01 3.118461e-01 1.295097e-01 1.623622e+00
<GCONST> 1.094025e+02
<TRANSP> 5
 0.000000e+00 1.000000e+00 0.000000e+00 0.000000e+00 0.000000e+00
 0.000000e+00 8.935393e-01 1.064607e-01 0.000000e+00 0.000000e+00
 0.000000e+00 0.000000e+00 9.324200e-01 6.758005e-02 0.000000e+00
 0.000000e+00 0.000000e+00 0.000000e+00 6.643615e-01 3.356386e-01
 0.000000e+00 0.000000e+00 0.000000e+00 0.000000e+00 0.000000e+00
<ENDHMM>
~h "ch"
<BEGINHMM>
<NUMSTATES> 5
<STATE> 2
<MEAN> 39
 -1.236071e+01 -3.029799e-01 8.455315e+00 4.858125e-01 -1.578137e+00 -1.407604e+00 1.915826e+00 -5.292336e+00 -5.122729e+00 -1.147973e+00 1.699785e+00 -1.838856e+00 5.729108e+01 -2.791537e+00 -2.726941e+00 1.979494e+00 -6.263723e-01 -8.538760e-01 -1.982852e+00 1.928452e+00 -2.259729e-01 -2.811165e-01 -1.579508e-01 4.618391e-01 -5.537001e-01 1.841633e+00 -3.025580e-01 -2.461762e-01 3.992746e-01 2.687124e-01 3.611224e-01 -7.357711e-01 -1.049015e-01 2.388093e-01 1.535916e-01 1.426988e-02 7.983934e-02 6.620537e-02 5.094977e-01
<VARIANCE> 39
 2.292742e+01 3.991464e+01 3.272133e+01 3.217857e+01 3.656802e+01 3.534479e+01 3.851422e+01 2.810458e+01 2.637793e+01 2.341224e+01 1.522800e+01 1.527819e+01 2.075369e+01 1.992302e+00 2.429309e+00 3.045051e+00 2.965354e+00 3.335839e+00 4.181679e+00 2.191853e+00 2.905291e+00 2.018646e+00 2.172981e+00 1.449984e+00 1.189107e+00 1.951272e+00 3.504026e-01 8.042569e-01 5.695077e-01 6.369956e-01 7.941718e-01 5.991324e-01 7.516502e-01 5.855335e-01 5.229583e-01 4.805048e-01 3.267966e-01 2.759269e-01 5.279189e-01
<GCONST> 1.172009e+02
<STATE> 3
<MEAN> 39
 -2.349220e+01 -8.836297e+00 1.692090e+01 2.498125e+00 1.181706e-01 -1.253639e+01 5.533857e+00 -3.428693e+00 -4.900147e+00 -2.811063e+00 3.432481e+00 -2.369792e+00 6.459090e+01 -7.138159e-01 -1.006413e+00 3.167031e-01 4.204344e-01 8.861315e-01 -1.642862e+00 -5.073534e-01 1.207906e+00 9.161703e-01 -9.009269e-02 2.057210e-01 3.644249e-01 4.830369e-01 1.337533e+00 8.648527e-01 -8.725762e-01 -6.670608e-02 2.519818e-02 9.866230e-01 -6.069663e-01 4.440490e-02 2.379051e-01 2.534169e-01 -1.918062e-01 1.320037e-01 -7.781799e-01
<VARIANCE> 39
 8.005919e+00 1.148205e+01 1.409863e+01 1.853131e+01 2.060645e+01 2.047053e+01 2.070361e+01 2.282833e+01 1.885218e+01 2.299009e+01 1.800068e+01 1.515331e+01 5.580051e+00 3.974048e+00 1.998152e+00 2.799279e+00 2.010449e+00 2.181643e+00 4.164270e+00 2.190457e+00 1.914987e+00 2.092156e+00 2.081048e+00 1.359085e+00 1.352699e+00 1.543267e+00 3.607394e-01 2.988820e-01 3.660496e-01 3.135042e-01 4.067069e-01 4.542548e-01 3.691292e-01 4.491260e-01 3.420983e-01 3.464998e-01 2.949081e-01 2.812582e-01 1.261891e-01
<GCONST> 1.027501e+02
<STATE> 4
<MEAN> 39
 -1.729057e+01 -6.928192e+00 1.217531e+01 2.417902e+00 2.191858e+00 -1.008029e+01 1.591322e+00 5.284655e-01 -4.139455e-01 -4.374018e-01 2.873918e+00 -7.521540e-01 6.082358e+01 3.183499e+00 2.256808e+00 -1.240062e+00 4.609762e-01 4.932893e-02 2.041896e+00 -1.127739e+00 4.598530e-02 4.568475e-01 7.550682e-01 -4.559617e-01 3.458832e-01 -1.139966e+00 3.342639e-01 4.269390e-01 -1.706728e-02 9.772861e-03 -2.255899e-01 3.218661e-01 8.530463e-02 -4.301696e-01 -4.478294e-01 1.519556e-02 -2.159810e-02 4.131892e-03 1.946850e-01
<VARIANCE> 39
 2.438683e+01 1.888550e+01 1.670315e+01 1.677602e+01 2.365231e+01 4.156212e+01 2.638874e+01 2.610221e+01 1.715733e+01 2.453573e+01 1.949647e+01 1.289379e+01 1.053442e+01 2.898955e+00 1.580560e+00 1.843642e+00 1.780450e+00 1.730291e+00 2.425097e+00 2.722211e+00 2.668230e+00 1.631021e+00 1.977625e+00 1.903182e+00 1.476426e+00 1.005953e+00 5.778972e-01 4.176064e-01 2.833315e-01 3.245654e-01 4.057365e-01 8.144979e-01 4.695803e-01 4.659473e-01 3.213262e-01 3.890401e-01 4.027347e-01 3.299167e-01 2.912508e-01
<GCONST> 1.073668e+02
<TRANSP> 5
 0.000000e+00 1.000000e+00 0.000000e+00 0.000000e+00 0.000000e+00
 0.000000e+00 7.267105e-01 2.732895e-01 0.000000e+00 0.000000e+00
 0.000000e+00 0.000000e+00 7.237386e-01 2.762614e-01 0.000000e+00
 0.000000e+00 0.000000e+00 0.000000e+00 6.821210e-01 3.178789e-01
 0.000000e+00 0.000000e+00 0.000000e+00 0.000000e+00 0.000000e+00
<ENDHMM>
~h "dj"
<BEGINHMM>
<NUMSTATES> 5
<STATE> 2
<MEAN> 39
 -5.334455e+00 7.388604e+00 8.524573e+00 4.439450e+00 1.158822e+00 2.388652e-01 -5.722709e+00 -6.733693e+00 -5.221795e+00 -3.075009e-01 -1.680639e+00 -3.393890e+00 5.671111e+01 -1.251469e+00 -4.400231e-01 1.856976e+00 -3.640595e-01 -1.096218e+00 9.556444e-01 2.434375e-01 -5.231803e-02 -8.207358e-02 -1.837023e-01 3.606397e-01 -5.766379e-01 8.472525e-02 -2.998649e-01 -3.932766e-01 2.723622e-01 -4.578255e-01 -1.870179e-01 3.512220e-02 3.036394e-01 1.207789e-01 -3.359475e-02 -5.177040e-02 3.513635e-01 1.688073e-01 4.494451e-01
<VARIANCE> 39
 1.980676e+01 2.168639e+01 3.527067e+01 3.847358e+01 3.087441e+01 2.633912e+01 4.163547e+01 3.667174e+01 2.161905e+01 3.170916e+01 1.542680e+01 3.177380e+01 2.168413e+01 2.654857e+00 3.175235e+00 2.649299e+00 5.235385e+00 3.211508e+00 4.346838e+00 3.706186e+00 4.497248e+00 2.635554e+00 4.302480e+00 2.336286e+00 2.741930e+00 2.379002e+00 3.958506e-01 5.469068e-01 7.179946e-01 7.972791e-01 7.806565e-01 1.135210e+00 1.071762e+00 8.826503e-01 4.906707e-01 8.709013e-01 3.600683e-01 6.328450e-01 5.163162e-01
<GCONST> 1.248952e+02
<STATE> 3
<MEAN> 39
 -1.422754e+01 1.180284e+00 1.696998e+01 -1.871519e+00 -3.330442e+00 3.333491e+00 -2.116283e+00 -4.964327e+00 -6.336937e+00 -2.474209e+00 3.476698e+00 -3.246608e+00 6.021075e+01 -1.431653e-01 -8.175505e-01 1.657525e+00 1.126679e+00 1.848095e-01 -1.753281e+00 4.517338e-02 1.282717e-01 1.586682e-01 3.229806e-01 1.713285e-01 -6.437318e-01 1.109298e+00 1.181599e+00 4.166763e-01 -8.615333e-01 9.186768e-01 3.821200e-01 -9.035029e-01 -4.832863e-01 -2.195299e-01 2.296656e-01 1.994421e-01 -5.287145e-01 2.502640e-02 -8.582805e-02
<VARIANCE> 39
 2.205126e+01 1.199718e+01 1.809002e+01 3.321280e+01 2.753995e+01 3.057522e+01 2.559558e+01 3.417192e+01 1.452324e+01 1.610598e+01 1.875898e+01 1.870107e+01 8.652315e+00 5.930175e+00 2.254091e+00 2.860749e+00 5.737759e+00 3.962262e+00 4.187154e+00 3.280195e+00 3.488743e+00 1.365970e+00 1.894425e+00 2.333838e+00 1.855888e+00 1.209884e+00 4.837204e-01 3.319974e-01 6.203016e-01 6.747515e-01 8.203819e-01 1.079849e+00 6.654029e-01 6.942121e-01 3.072891e-01 5.239261e-01 3.327359e-01 3.884499e-01 2.732899e-01
<GCONST> 1.151177e+02
<STATE> 4
<MEAN> 39
 -6.209760e+00 2.088030e+00 1.598913e+01 7.481880e+00 -2.447340e+00 -5.742294e+00 -6.410166e+00 -7.702692e+00 -4.887347e+00 8.113023e-01 -5.222808e-01 -6.603482e+00 6.278872e+01 2.256996e+00 -4.129400e-01 -2.287198e+00 1.582935e+00 2.425775e-01 -2.684984e+00 -1.135850e+00 -6.691858e-01 9.195713e-01 4.559371e-01 -7.603108e-01 2.538407e-01 8.603688e-01 -1.256586e-01 1.706990e-01 -8.306475e-01 -7.461755e-01 1.994130e-01 8.351784e-01 1.080184e-01 -3.227381e-02 6.435879e-02 -2.417104e-01 2.345385e-01 4.917168e-01 -4.401869e-01
<VARIANCE> 39
 1.764445e+01 6.499194e+00 2.452649e+01 2.818424e+01 2.996229e+01 2.534710e+01 1.395354e+01 2.853243e+01 1.013496e+01 1.574653e+01 1.271695e+01 1.437945e+01 6.257805e+00 2.930613e+00 1.059447e+00 3.774765e+00 3.713174e+00 3.331446e+00 4.225615e+00 3.302295e+00 3.715768e+00 1.616587e+00 2.233290e+00 1.605115e+00 2.285471e+00 9.641014e-01 6.165468e-01 3.288231e-01 8.152375e-01 4.188710e-01 9.487969e-01 8.688373e-01 4.451661e-01 5.938997e-01 2.731868e-01 3.120454e-01 2.755300e-01 2.498944e-01 1.951668e-01
<GCONST> 1.081986e+02
<TRANSP> 5
 0.000000e+00 1.000000e+00 0.000000e+00 0.000000e+00 0.000000e+00
 0.000000e+00 7.308989e-01 2.691011e-01 0.000000e+00 0.000000e+00
 0.000000e+00 0.000000e+00 6.651170e-01 3.348830e-01 0.000000e+00
 0.000000e+00 0.000000e+00 0.000000e+00 4.803737e-01 5.196264e-01
 0.000000e+00 0.000000e+00 0.000000e+00 0.000000e+00 0.000000e+00
<ENDHMM>
~h "ee"
<BEGINHMM>
<NUMSTATES> 5
<STATE> 2
<MEAN> 39
