~o
<STREAMINFO> 1 39
<VECSIZE> 39<NULLD><MFCC_D_A_0><DIAGC>
~h "a"
<BEGINHMM>
<NUMSTATES> 5
<STATE> 2
<MEAN> 39
 -4.663768e+00 2.599656e+00 -7.186822e-01 -5.420016e+00 1.575249e+00 -2.422578e-01 2.598512e-01 1.596180e+00 -4.661770e+00 1.017013e+00 3.616233e+00 8.052559e-01 5.966990e+01 2.492782e-01 9.942273e-02 -2.331415e-01 -3.092597e-01 1.145758e-02 1.790152e-01 1.645075e-01 1.481068e-01 -1.489596e-01 5.025881e-02 9.623194e-02 5.368081e-02 5.721716e-02 -1.535126e-01 4.578837e-02 1.322989e-01 1.498188e-01 4.712145e-03 -3.044224e-02 1.691000e-02 -6.554701e-02 -1.774498e-02 -9.343144e-02 -9.598258e-03 -3.876129e-02 -9.375958e-02
<VARIANCE> 39
 4.026731e+01 2.533151e+01 2.161471e+01 4.884881e+01 2.801331e+01 2.692018e+01 3.349287e+01 3.131974e+01 3.897758e+01 2.668672e+01 2.110315e+01 1.731361e+01 3.853117e+01 2.933701e+00 2.027578e+00 2.213024e+00 3.663698e+00 2.465229e+00 2.089452e+00 2.128393e+00 2.776484e+00 2.756736e+00 2.453237e+00 2.297098e+00 1.715550e+00 2.369262e+00 4.318223e-01 3.691346e-01 4.253094e-01 6.511856e-01 4.448574e-01 3.797007e-01 3.858216e-01 5.452157e-01 4.869131e-01 4.946657e-01 4.328920e-01 3.319039e-01 3.784798e-01
<GCONST> 1.162918e+02
<STATE> 3
<MEAN> 39
 -4.501996e+00 2.784424e+00 -9.538192e-01 -5.656035e+00 1.590884e+00 4.098994e-02 6.615652e-01 1.639640e+00 -4.949095e+00 1.048573e+00 3.802129e+00 8.363081e-01 5.959397e+01 -3.358305e-02 1.856857e-01 3.509487e-02 2.415496e-02 -3.026699e-02 1.031657e-01 1.733547e-01 -4.978435e-03 -1.462375e-01 -1.344370e-01 4.333961e-02 -9.408153e-03 -1.474506e-01 -1.967741e-01 7.454550e-03 1.630415e-01 1.808460e-01 -1.286294e-02 -6.235679e-02 -2.296587e-02 -8.388938e-02 2.927449e-02 -8.806589e-02 -2.571478e-02 -4.599074e-02 -8.016653e-02
<VARIANCE> 39
 4.019381e+01 2.327316e+01 2.094919e+01 4.632165e+01 2.932458e+01 2.757184e+01 3.210050e+01 3.052879e+01 3.912457e+01 2.549561e+01 2.068646e+01 1.779954e+01 4.034979e+01 2.904736e+00 1.808522e+00 2.113719e+00 3.537739e+00 2.477267e+00 2.128242e+00 2.095638e+00 2.749662e+00 2.706180e+00 2.489437e+00 2.170346e+00 1.584773e+00 2.164596e+00 4.191470e-01 3.529867e-01 4.061652e-01 6.548867e-01 4.439299e-01 3.937716e-01 3.709860e-01 5.328075e-01 4.703290e-01 4.746169e-01 4.093307e-01 3.056592e-01 3.964143e-01
<GCONST> 1.153861e+02
<STATE> 4
<MEAN> 39
 -5.894725e+00 2.609346e+00 -1.029689e+00 -4.655273e+00 1.680299e+00 9.104680e-01 1.324935e+00 1.700882e+00 -4.298298e+00 9.573026e-01 3.845526e+00 8.886054e-01 5.799887e+01 -3.030690e-01 1.447725e-01 2.967043e-01 2.809108e-01 -5.749586e-02 -2.000413e-02 6.850827e-02 -1.239977e-01 -5.151113e-02 -2.023392e-01 9.114653e-03 -7.129102e-02 -1.898385e-01 -1.294577e-01 -3.376170e-02 1.124194e-01 9.256548e-02 -3.026690e-03 -8.038591e-02 -5.860838e-02 -5.914748e-02 3.782352e-02 -2.142084e-02 -1.269117e-02 -4.342595e-02 2.170688e-02
<VARIANCE> 39
 4.531244e+01 2.459572e+01 2.236635e+01 4.353758e+01 3.041546e+01 3.071269e+01 2.939558e+01 2.874373e+01 4.121240e+01 2.370205e+01 2.021551e+01 1.796194e+01 4.382381e+01 2.825451e+00 1.799316e+00 1.997521e+00 3.289376e+00 2.413243e+00 2.164249e+00 2.016172e+00 2.572496e+00 2.508743e+00 2.257633e+00 1.980789e+00 1.466135e+00 1.970377e+00 3.853250e-01 3.329017e-01 3.638890e-01 5.975246e-01 4.076432e-01 4.154294e-01 3.642816e-01 4.885236e-01 4.285837e-01 4.289222e-01 3.880986e-01 2.841015e-01 3.690805e-01
<GCONST> 1.140220e+02
<TRANSP> 5
 0.000000e+00 1.000000e+00 0.000000e+00 0.000000e+00 0.000000e+00
 0.000000e+00 4.559946e-01 5.440055e-01 0.000000e+00 0.000000e+00
 0.000000e+00 0.000000e+00 4.509718e-01 5.490282e-01 0.000000e+00
 0.000000e+00 0.000000e+00 0.000000e+00 5.766070e-01 4.233930e-01
 0.000000e+00 0.000000e+00 0.000000e+00 0.000000e+00 0.000000e+00
<ENDHMM>
~h "b"
<BEGINHMM>
<NUMSTATES> 5
<STATE> 2
<MEAN> 39
 -2.610514e+00 8.546982e+00 3.491115e+00 2.470499e+00 4.545102e-01 -8.580899e-01 -1.337820e+00 -4.892046e+00 -7.291427e+00 -3.684426e+00 -1.087950e+00 9.702229e-01 5.647795e+01 -8.531394e-02 4.959407e-01 1.949531e-01 2.558092e-01 2.682129e-01 2.818035e-01 -7.281691e-02 -1.502906e-01 -1.675025e-01 -2.825089e-01 -1.115669e-01 -7.931162e-02 -4.106387e-01 -1.281245e-01 -3.342103e-01 -5.062106e-02 -1.396040e-01 -4.360959e-02 -6.816676e-02 -1.665244e-03 4.173142e-02 1.082987e-01 2.728746e-01 1.852714e-01 -3.187383e-02 1.673479e-01
<VARIANCE> 39
 1.962989e+01 2.682539e+01 2.348328e+01 3.000326e+01 2.445189e+01 2.206878e+01 2.662135e+01 2.694588e+01 2.815127e+01 2.312764e+01 1.733834e+01 1.575550e+01 2.298333e+01 1.893711e+00 3.066204e+00 1.811956e+00 2.418524e+00 2.361410e+00 2.433636e+00 2.058305e+00 2.476337e+00 2.588330e+00 2.650446e+00 2.018435e+00 1.591076e+00 2.546324e+00 3.131099e-01 5.358588e-01 3.483774e-01 4.088512e-01 3.907692e-01 4.793730e-01 3.879595e-01 4.578189e-01 5.187166e-01 4.820158e-01 3.748758e-01 3.150686e-01 3.787271e-01
<GCONST> 1.116019e+02
<STATE> 3
<MEAN> 39
 -2.976719e+00 8.594052e+00 3.512447e+00 2.580204e+00 9.262087e-01 -5.679735e-01 -1.581510e+00 -4.894261e+00 -7.225869e+00 -3.526016e+00 -7.750622e-01 7.995540e-01 5.614754e+01 -2.394405e-01 -3.637847e-01 -2.551447e-03 -1.993409e-02 9.672570e-02 -3.351631e-02 -7.520252e-02 3.551224e-02 3.435072e-02 2.960305e-01 2.736260e-01 -1.221522e-01 8.772390e-02 -1.467781e-02 -4.118507e-01 -8.163913e-02 -1.460269e-01 -7.038327e-02 -1.508063e-01 1.737927e-02 7.369580e-02 4.789247e-02 2.494394e-01 1.754417e-01 8.279839e-03 3.114190e-01
<VARIANCE> 39
 1.789454e+01 2.943183e+01 2.070977e+01 2.725200e+01 2.002640e+01 2.158040e+01 2.513288e+01 2.493041e+01 2.945081e+01 2.199317e+01 2.007016e+01 1.515553e+01 2.435869e+01 1.796409e+00 3.552084e+00 1.746408e+00 2.452392e+00 2.101449e+00 2.426077e+00 2.277166e+00 2.264727e+00 2.810620e+00 2.556712e+00 2.326930e+00 1.555641e+00 2.733884e+00 3.219135e-01 6.602590e-01 3.352943e-01 4.734873e-01 3.848570e-01 5.021796e-01 4.359698e-01 4.540918e-01 5.320694e-01 4.927001e-01 4.941298e-01 3.570609e-01 4.316097e-01
<GCONST> 1.124479e+02
<STATE> 4
<MEAN> 39
 -3.468069e+00 6.870583e+00 3.313558e+00 2.530637e+00 1.175702e+00 -1.210907e+00 -1.898056e+00 -4.436364e+00 -7.169362e+00 -2.436388e+00 2.167616e-01 6.066819e-01 5.698287e+01 -1.602623e-01 -1.053860e+00 -5.055996e-02 -2.355306e-01 6.737736e-03 -3.124112e-01 -2.599900e-02 1.848234e-01 2.231573e-02 6.694075e-01 5.380874e-01 -6.520311e-02 7.227240e-01 1.169635e-01 -1.728944e-01 -4.640626e-02 -1.517180e-01 -7.062940e-02 -6.197328e-02 7.576749e-02 1.506806e-02 -5.791170e-02 9.050217e-02 6.261258e-02 6.174777e-02 2.794219e-01
<VARIANCE> 39
 2.043064e+01 3.489829e+01 2.165714e+01 3.413314e+01 1.987025e+01 2.637670e+01 2.714761e+01 2.597064e+01 3.296681e+01 2.445663e+01 2.487282e+01 1.787271e+01 3.147290e+01 2.047185e+00 3.916568e+00 1.993570e+00 2.924030e+00 2.277259e+00 2.969266e+00 2.682743e+00 2.467925e+00 3.296533e+00 2.620447e+00 2.936991e+00 1.956011e+00 2.894418e+00 4.086592e-01 7.762899e-01 3.257887e-01 5.427990e-01 4.271340e-01 5.443040e-01 5.138586e-01 5.340515e-01 5.980663e-01 4.858365e-01 6.395456e-01 4.075209e-01 5.249882e-01
<GCONST> 1.176666e+02
<TRANSP> 5
 0.000000e+00 1.000000e+00 0.000000e+00 0.000000e+00 0.000000e+00
 0.000000e+00 5.440323e-01 4.559676e-01 0.000000e+00 0.000000e+00
 0.000000e+00 0.000000e+00 5.333290e-01 4.666710e-01 0.000000e+00
 0.000000e+00 0.000000e+00 0.000000e+00 6.084403e-01 3.915597e-01
 0.000000e+00 0.000000e+00 0.000000e+00 0.000000e+00 0.000000e+00
<ENDHMM>
~h "c"
<BEGINHMM>
<NUMSTATES> 5
<STATE> 2
<MEAN> 39
 -1.817899e+01 8.050824e+00 5.328808e+00 -8.680812e+00 7.798728e+00 -2.397715e+00 -3.454798e+00 7.827330e-01 -6.493810e+00 -2.723767e+00 3.468328e+00 -2.633198e+00 5.963000e+01 -2.300815e+00 -1.312774e-01 3.085881e-01 -9.938728e-01 9.058882e-01 -2.975545e-01 -4.039789e-01 8.260532e-02 3.176272e-01 7.453503e-02 3.102032e-01 -3.621809e-01 7.267689e-01 4.009092e-01 -2.062294e-01 -6.148306e-02 2.070384e-01 -9.467348e-02 -3.634485e-02 7.561164e-02 -4.021823e-03 4.361112e-03 9.130923e-02 6.587645e-02 8.266343e-02 4.032347e-02
<VARIANCE> 39
 7.301151e+01 2.427567e+01 2.524893e+01 4.091874e+01 2.955201e+01 2.457154e+01 3.050854e+01 2.180174e+01 1.986904e+01 1.703366e+01 2.003172e+01 1.813740e+01 1.836939e+01 7.023944e+00 2.857323e+00 1.743975e+00 4.020479e+00 2.772767e+00 2.114621e+00 1.763282e+00 1.965222e+00 2.111084e+00 1.768149e+00 1.949304e+00 1.498308e+00 2.271210e+00 1.060870e+00 5.486629e-01 3.227561e-01 7.744914e-01 5.294362e-01 4.265716e-01 2.942384e-01 3.659380e-01 4.268232e-01 3.429774e-01 3.539164e-01 2.853463e-01 5.145801e-01
<GCONST> 1.144605e+02
<STATE> 3
<MEAN> 39
 -2.089217e+01 6.398523e+00 5.415095e+00 -9.508264e+00 9.386101e+00 -3.030694e+00 -3.937823e+00 1.039026e+00 -5.481328e+00 -1.898166e+00 4.709626e+00 -2.895798e+00 6.094852e+01 1.948988e-02 -5.906914e-01 -1.945624e-02 1.953802e-01 1.502938e-01 -1.996172e-01 2.480232e-02 2.687021e-02 2.992520e-01 2.525200e-01 3.607421e-01 5.409262e-02 1.148497e-01 6.598704e-01 -5.819012e-02 -7.423376e-02 3.251866e-01 -2.352947e-01 4.296961e-02 1.153286e-01 -6.701963e-02 -2.264070e-02 4.991162e-02 -4.544589e-02 1.053016e-01 -1.917452e-01
<VARIANCE> 39
 6.148441e+01 3.065093e+01 2.474288e+01 2.974376e+01 2.622271e+01 2.609086e+01 2.552472e+01 2.210172e+01 2.007786e+01 1.764105e+01 2.054811e+01 1.633005e+01 1.731463e+01 8.392045e+00 2.978907e+00 1.604010e+00 3.287400e+00 2.958366e+00 2.077322e+00 1.695321e+00 2.026054e+00 1.734501e+00 1.492390e+00 1.750116e+00 1.534943e+00 2.309966e+00 8.739731e-01 6.687818e-01 2.782144e-01 5.525231e-01 4.757695e-01 4.097198e-01 2.805386e-01 4.086022e-01 3.549077e-01 2.987366e-01 3.491535e-01 2.713963e-01 4.211142e-01
<GCONST> 1.122520e+02
<STATE> 4
<MEAN> 39
 -1.544949e+01 3.948526e+00 3.030553e+00 -5.826727e+00 7.109843e+00 -1.631363e+00 -2.455877e+00 1.161246e+00 -3.052715e+00 -8.992312e-02 4.772475e+00 -1.522162e+00 5.767786e+01 1.052063e+00 -2.860323e-01 -1.318971e-01 6.441289e-01 -3.931757e-01 1.766166e-02 2.260379e-01 -1.177408e-01 1.562837e-01 1.808486e-01 -7.042997e-03 2.207375e-01 -3.237390e-01 1.483097e-01 7.897323e-02 7.165955e-03 4.477528e-02 -8.210839e-02 2.954572e-02 -3.514294e-03 -7.435844e-02 -5.166029e-02 -4.531708e-03 -9.175510e-02 9.782736e-04 -5.965621e-03
<VARIANCE> 39
 7.131525e+01 3.087326e+01 2.769654e+01 3.151381e+01 2.695569e+01 3.072018e+01 2.369952e+01 2.389531e+01 2.270249e+01 1.816693e+01 1.755024e+01 1.539897e+01 3.334057e+01 4.685054e+00 2.575788e+00 1.337523e+00 2.290214e+00 2.131564e+00 1.939192e+00 1.546238e+00 2.130716e+00 1.633457e+00 1.386683e+00 1.728652e+00 1.505474e+00 1.588075e+00 6.856232e-01 4.996150e-01 2.467026e-01 4.210466e-01 4.011292e-01 3.890155e-01 2.886960e-01 4.213960e-01 2.959862e-01 2.760672e-01 3.235795e-01 2.767659e-01 3.382508e-01
<GCONST> 1.094889e+02
<TRANSP> 5
 0.000000e+00 1.000000e+00 0.000000e+00 0.000000e+00 0.000000e+00
 0.000000e+00 7.304360e-01 2.695640e-01 0.000000e+00 0.000000e+00
 0.000000e+00 0.000000e+00 6.973504e-01 3.026495e-01 0.000000e+00
 0.000000e+00 0.000000e+00 0.000000e+00 8.181762e-01 1.818238e-01
 0.000000e+00 0.000000e+00 0.000000e+00 0.000000e+00 0.000000e+00
<ENDHMM>
~h "d"
<BEGINHMM>
<NUMSTATES> 5
<STATE> 2
<MEAN> 39
 -3.739997e+00 1.964275e+00 2.920779e+00 2.280305e+00 -5.389092e-01 -3.106607e+00 -8.252059e-01 -4.933271e+00 -5.702502e+00 1.019617e+00 2.397271e+00 2.660834e-01 6.021136e+01 -1.050237e-01 -3.623223e-01 1.833232e-01 4.598695e-01 -2.521861e-01 -5.674728e-02 1.868821e-01 -1.808549e-01 8.431395e-02 1.889968e-01 1.553298e-01 -1.097802e-01 8.841966e-03 5.889997e-02 3.561042e-02 -4.684466e-02 -1.584952e-01 8.109034e-02 6.361841e-02 -1.551599e-02 1.052767e-01 9.172862e-03 2.646216e-02 2.581731e-02 6.845990e-02 9.716839e-02
<VARIANCE> 39
 2.205647e+01 4.230441e+01 3.671962e+01 4.272834e+01 2.846151e+01 3.375934e+01 3.322438e+01 3.529690e+01 2.650752e+01 3.028631e+01 2.194332e+01 1.888151e+01 3.210389e+01 2.362993e+00 4.843827e+00 3.522065e+00 4.094908e+00 2.755479e+00 3.573582e+00 2.947492e+00 3.863568e+00 2.607706e+00 3.627414e+00 2.441802e+00 2.011652e+00 3.410204e+00 4.605308e-01 1.036332e+00 6.200997e-01 6.852473e-01 5.413085e-01 7.025622e-01 5.804598e-01 8.215445e-01 5.359710e-01 7.274046e-01 4.986674e-01 4.005024e-01 7.026072e-01
<GCONST> 1.246755e+02
<STATE> 3
<MEAN> 39
 -3.837169e+00 1.309159e+00 3.273830e+00 2.763398e+00 -8.380313e-01 -3.023926e+00 -4.429430e-01 -5.062407e+00 -5.562496e+00 1.366226e+00 2.782009e+00 1.429468e-01 6.049467e+01 1.239123e-01 -1.231057e-01 -2.420542e-05 -2.666611e-02 -5.237535e-02 1.645312e-01 1.138569e-01 -5.288462e-02 6.406292e-02 1.648777e-01 1.663346e-01 4.542667e-02 2.085813e-01 9.363379e-02 1.746310e-01 -9.278896e-02 -2.476296e-01 1.284734e-01 8.397635e-02 -7.588341e-02 9.811102e-02 -3.157147e-02 -7.610001e-02 -1.836135e-02 7.531564e-02 5.625843e-02
<VARIANCE> 39
 2.281305e+01 4.601699e+01 3.619925e+01 3.766593e+01 2.968830e+01 3.357020e+01 3.857253e+01 3.757552e+01 2.607488e+01 2.761109e+01 2.336872e+01 1.949227e+01 2.955700e+01 2.478204e+00 5.317554e+00 3.514606e+00 3.598805e+00 2.762428e+00 3.340352e+00 2.983297e+00 4.050286e+00 2.613559e+00 3.656136e+00 2.535465e+00 2.220036e+00 2.990647e+00 5.019056e-01 1.105753e+00 7.103615e-01 6.586207e-01 5.683107e-01 6.541777e-01 6.007978e-01 8.707816e-01 5.498418e-01 7.197919e-01 5.340475e-01 4.458978e-01 6.552261e-01
<GCONST> 1.252618e+02
<STATE> 4
<MEAN> 39
 -3.257926e+00 1.418220e+00 3.027283e+00 2.167048e+00 -8.923240e-01 -2.427637e+00 -3.044178e-01 -5.205242e+00 -5.510689e+00 1.496723e+00 3.048707e+00 4.201730e-01 6.111984e+01 3.210029e-01 2.821653e-01 -2.550335e-01 -5.119662e-01 1.342566e-01 3.267156e-01 -3.680380e-02 9.450063e-02 -1.024337e-02 -8.309768e-02 7.602177e-02 2.226071e-01 2.276343e-01 -1.566586e-02 1.406118e-01 -5.240747e-02 -1.668238e-01 9.717277e-02 2.153479e-02 -4.333774e-02 1.307116e-01 -6.439853e-02 -1.604379e-01 -4.724903e-02 2.624967e-02 -4.186529e-02
<VARIANCE> 39
 2.631208e+01 3.916203e+01 3.440327e+01 3.575040e+01 3.196539e+01 3.079084e+01 4.161252e+01 4.168023e+01 2.839825e+01 2.734206e+01 2.403593e+01 2.029724e+01 2.703172e+01 2.588379e+00 5.019745e+00 3.564881e+00 3.072694e+00 3.176487e+00 3.149255e+00 3.244121e+00 4.040941e+00 2.707165e+00 3.669294e+00 2.640997e+00 2.487040e+00 2.626883e+00 5.369356e-01 9.809902e-01 7.074419e-01 5.828851e-01 5.611809e-01 5.533543e-01 6.277742e-01 8.165160e-01 5.452908e-01 6.905909e-01 5.227074e-01 4.885812e-01 5.515822e-01
<GCONST> 1.248988e+02
<TRANSP> 5
 0.000000e+00 1.000000e+00 0.000000e+00 0.000000e+00 0.000000e+00
 0.000000e+00 4.395891e-01 5.604109e-01 0.000000e+00 0.000000e+00
 0.000000e+00 0.000000e+00 4.414569e-01 5.585431e-01 0.000000e+00
 0.000000e+00 0.000000e+00 0.000000e+00 5.249603e-01 4.750397e-01
 0.000000e+00 0.000000e+00 0.000000e+00 0.000000e+00 0.000000e+00
<ENDHMM>
~h "e"
<BEGINHMM>
<NUMSTATES> 5
<STATE> 2
<MEAN> 39
 -6.187279e+00 2.541626e+00 4.459901e+00 -1.673091e-01 2.245640e+00 -4.002282e+00 -3.416479e+00 -2.206019e+00 -2.968139e+00 1.573484e+00 2.491801e+00 -3.581748e-01 6.032357e+01 5.817789e-01 4.276498e-01 -1.722382e-01 1.519855e-01 -3.053495e-02 1.943445e-01 -1.845815e-01 -2.116097e-01 -7.098983e-02 -8.957230e-02 -8.971123e-02 1.451184e-01 -9.995516e-02 -3.203001e-01 -1.141035e-02 1.015207e-01 -9.799720e-02 2.086785e-02 3.900539e-02 1.578659e-01 5.013931e-02 -9.987558e-02 -1.296986e-01 4.178661e-02 -4.017659e-02 -1.683518e-02
<VARIANCE> 39
 4.472464e+01 2.536379e+01 3.606425e+01 4.069067e+01 3.285768e+01 3.224375e+01 2.991022e+01 2.781421e+01 2.919150e+01 2.317177e+01 2.744824e+01 1.728571e+01 2.824971e+01 5.066326e+00 2.452581e+00 2.346586e+00 2.685189e+00 3.372976e+00 2.765571e+00 2.589760e+00 2.583740e+00 2.760268e+00 2.242849e+00 2.411784e+00 1.813698e+00 2.241896e+00 8.348570e-01 4.441805e-01 4.353422e-01 4.673822e-01 5.707803e-01 5.233862e-01 4.637080e-01 4.755583e-01 5.116731e-01 4.384098e-01 4.489099e-01 3.480487e-01 3.981148e-01
<GCONST> 1.187359e+02
<STATE> 3
<MEAN> 39
 -5.855672e+00 3.122782e+00 4.401552e+00 -1.049855e-01 2.206293e+00 -3.664601e+00 -3.435630e+00 -2.453385e+00 -3.191906e+00 1.197346e+00 2.445607e+00 -2.118191e-01 6.007725e+01 1.991531e-02 3.331232e-01 -1.717817e-02 -2.342232e-02 2.335428e-02 2.189637e-01 5.877032e-02 -7.731467e-02 -1.896705e-01 -2.637065e-01 -2.489033e-03 4.265599e-02 -1.155817e-01 -3.322154e-01 -8.197130e-02 7.911934e-02 -1.041363e-01 2.103542e-02 -1.054594e-02 1.285965e-01 8.675149e-02 -5.714311e-02 -6.341752e-02 3.898919e-02 -5.497931e-02 2.407899e-02
<VARIANCE> 39
 4.124610e+01 2.382021e+01 3.618866e+01 3.883137e+01 3.256996e+01 3.036847e+01 2.966015e+01 2.828753e+01 3.007874e+01 2.287463e+01 2.647783e+01 1.755787e+01 2.795842e+01 4.820107e+00 2.124522e+00 2.314172e+00 2.647199e+00 3.436517e+00 2.684088e+00 2.313338e+00 2.381627e+00 2.665455e+00 2.173839e+00 2.394804e+00 1.801080e+00 2.191060e+00 7.542247e-01 4.089907e-01 4.465100e-01 4.472448e-01 5.524086e-01 4.867006e-01 4.484285e-01 4.493574e-01 5.146609e-01 4.323195e-01 4.192018e-01 3.439614e-01 3.826311e-01
<GCONST> 1.174180e+02
<STATE> 4
<MEAN> 39
 -6.426276e+00 3.478082e+00 4.464342e+00 -2.664541e-01 2.300987e+00 -3.261928e+00 -3.217336e+00 -2.391061e+00 -3.494360e+00 7.008985e-01 2.516416e+00 -2.722823e-01 5.970714e+01 -4.063962e-01 1.580995e-01 5.435167e-02 -1.688126e-01 4.762664e-02 1.612152e-01 1.826321e-01 6.655201e-02 -2.323291e-01 -2.594702e-01 5.142935e-02 -3.233993e-02 -2.553521e-02 -2.027879e-01 -1.034308e-01 2.997367e-02 -7.714440e-02 9.486791e-03 -4.716880e-02 5.558231e-02 7.278843e-02 -1.661409e-02 1.697233e-02 2.454204e-02 -3.296426e-02 6.347494e-02
<VARIANCE> 39
 4.830940e+01 2.376066e+01 3.741511e+01 3.958458e+01 3.499325e+01 2.986436e+01 2.968932e+01 2.911110e+01 3.014255e+01 2.252909e+01 2.622563e+01 1.782377e+01 2.907662e+01 4.504086e+00 2.016514e+00 2.400004e+00 2.762296e+00 3.385769e+00 2.506438e+00 2.238905e+00 2.226491e+00 2.550889e+00 2.195075e+00 2.216056e+00 1.696972e+00 2.050352e+00 6.217096e-01 3.719826e-01 4.333470e-01 4.544799e-01 5.129361e-01 4.829005e-01 4.290767e-01 4.265441e-01 4.927985e-01 4.141982e-01 4.104017e-01 3.289600e-01 3.765267e-01
<GCONST> 1.166320e+02
<TRANSP> 5
 0.000000e+00 1.000000e+00 0.000000e+00 0.000000e+00 0.000000e+00
 0.000000e+00 3.233463e-01 6.766537e-01 0.000000e+00 0.000000e+00
 0.000000e+00 0.000000e+00 3.217820e-01 6.782180e-01 0.000000e+00
 0.000000e+00 0.000000e+00 0.000000e+00 3.799154e-01 6.200846e-01
 0.000000e+00 0.000000e+00 0.000000e+00 0.000000e+00 0.000000e+00
<ENDHMM>
~h "f"
<BEGINHMM>
<NUMSTATES> 5
<STATE> 2
<MEAN> 39
 -1.088067e+01 1.858467e+00 -9.652021e-02 -4.707693e-01 2.748333e+00 1.882037e+00 -1.029827e+00 -8.393074e-01 -1.083011e+00 -9.547346e-02 2.779372e+00 6.449286e-01 5.386404e+01 -5.798057e-01 -2.733041e-01 -4.245910e-02 -3.638892e-02 9.286687e-02 -2.327310e-02 -1.927566e-01 -7.993881e-02 1.025474e-01 -9.090877e-02 7.653608e-02 -1.572874e-01 -1.569849e-01 5.532679e-02 -4.135484e-02 1.351925e-02 -9.574866e-02 -9.053508e-03 -5.355403e-02 3.049861e-02 4.980469e-02 -1.550726e-02 4.735905e-02 1.759568e-02 -7.689300e-03 9.877886e-02
<VARIANCE> 39
 2.051077e+01 2.265221e+01 2.003749e+01 2.482291e+01 1.480103e+01 1.796970e+01 2.103687e+01 2.563361e+01 2.728742e+01 1.964561e+01 2.112637e+01 1.155212e+01 1.715422e+01 1.675958e+00 1.300284e+00 8.991215e-01 1.637358e+00 1.550493e+00 1.733209e+00 1.978592e+00 1.800022e+00 1.636689e+00 1.610182e+00 1.698691e+00 1.237456e+00 1.162921e+00 2.211740e-01 2.455406e-01 1.931159e-01 2.642229e-01 2.559918e-01 3.610362e-01 3.521796e-01 4.001655e-01 3.089342e-01 3.327831e-01 3.374674e-01 2.556804e-01 1.613070e-01
<GCONST> 9.903374e+01
<STATE> 3
<MEAN> 39
 -1.222581e+01 1.329364e+00 7.330629e-01 -8.797251e-01 3.371593e+00 1.689386e+00 -1.251503e+00 -1.365739e+00 -1.883822e+00 -5.996797e-01 3.529108e+00 2.919800e-01 5.440701e+01 -4.914256e-01 -2.512133e-01 1.363295e-01 -2.030547e-01 1.812309e-01 -6.155560e-02 -1.125361e-01 2.304069e-02 8.872988e-02 4.696256e-02 1.832939e-01 -1.287177e-01 3.740819e-02 1.144850e-01 4.014677e-03 4.143563e-02 -7.327382e-02 -3.418041e-04 -2.492132e-02 8.294421e-02 7.296810e-02 -4.378831e-02 6.689038e-02 -2.745185e-02 2.724603e-02 1.022717e-01
<VARIANCE> 39
 2.106198e+01 2.363156e+01 2.386843e+01 3.247708e+01 1.667463e+01 2.068774e+01 2.372407e+01 2.454679e+01 2.432139e+01 1.962598e+01 2.026380e+01 1.347476e+01 2.097190e+01 2.307083e+00 2.109809e+00 1.205178e+00 2.156347e+00 1.768309e+00 2.036742e+00 2.140111e+00 2.072588e+00 1.706973e+00 1.688182e+00 1.723710e+00 1.435501e+00 1.585462e+00 2.791571e-01 3.933114e-01 2.403885e-01 3.584936e-01 2.739312e-01 4.177497e-01 3.428965e-01 3.878441e-01 3.201147e-01 3.349784e-01 3.799560e-01 2.855029e-01 2.520813e-01
<GCONST> 1.046281e+02
<STATE> 4
<MEAN> 39
 -1.311413e+01 9.782705e-01 1.283254e+00 -1.639487e+00 3.735669e+00 2.211206e+00 -6.162822e-01 -6.747907e-01 -1.871694e+00 -1.667974e-01 4.384584e+00 4.277638e-01 5.440289e+01 -1.087489e-01 -1.422420e-01 2.899867e-01 -2.419186e-01 1.271041e-01 -1.145957e-01 3.290137e-02 9.535114e-02 -1.365451e-01 1.179921e-01 8.293736e-02 -1.177227e-01 3.537312e-01 1.696677e-01 1.215681e-02 2.927791e-02 1.452492e-02 -6.163237e-02 -9.915774e-02 5.359671e-02 1.769933e-02 -8.777794e-02 2.253192e-02 -9.326723e-02 2.063456e-02 1.513114e-01
<VARIANCE> 39
 2.785381e+01 2.464557e+01 2.984390e+01 4.241290e+01 2.521525e+01 2.681833e+01 2.883249e+01 2.510129e+01 2.690351e+01 2.137783e+01 1.983230e+01 1.583856e+01 2.827770e+01 3.311021e+00 3.006811e+00 1.558710e+00 3.025414e+00 2.695247e+00 2.726345e+00 2.233131e+00 1.954165e+00 2.357468e+00 1.826760e+00 2.032338e+00 1.605545e+00 2.162235e+00 4.128536e-01 5.360070e-01 3.061901e-01 5.444530e-01 4.024017e-01 5.250285e-01 3.989618e-01 3.649293e-01 4.146396e-01 3.702796e-01 4.011535e-01 3.151022e-01 3.681796e-01
<GCONST> 1.129078e+02
<TRANSP> 5
 0.000000e+00 1.000000e+00 0.000000e+00 0.000000e+00 0.000000e+00
 0.000000e+00 6.938756e-01 3.061245e-01 0.000000e+00 0.000000e+00
 0.000000e+00 0.000000e+00 5.725218e-01 4.274783e-01 0.000000e+00
 0.000000e+00 0.000000e+00 0.000000e+00 6.312425e-01 3.687575e-01
 0.000000e+00 0.000000e+00 0.000000e+00 0.000000e+00 0.000000e+00
<ENDHMM>
~h "g"
<BEGINHMM>
<NUMSTATES> 5
<STATE> 2
<MEAN> 39
 -4.574354e+00 2.296592e+00 3.971821e+00 6.060837e+00 1.870496e+00 -5.037076e+00 -6.924004e+00 -2.381414e+00 -1.181718e+00 -1.075012e+00 -9.138095e-01 -1.195949e-01 6.058421e+01 4.936268e-02 -7.407674e-02 6.063489e-02 1.321349e-02 -8.270814e-02 1.184738e-02 -6.628923e-01 -1.178298e-01 1.010941e-01 -3.409933e-02 -1.099227e-01 -3.451365e-01 5.969316e-02 4.174656e-02 7.851148e-03 -9.689013e-03 -6.981716e-02 -1.251803e-02 7.728843e-02 1.532369e-01 -3.370943e-02 -1.008911e-01 4.180736e-02 1.492057e-01 -6.352144e-04 -3.945334e-02
<VARIANCE> 39
 2.741936e+01 3.123977e+01 3.919368e+01 2.582996e+01 2.878038e+01 3.329382e+01 4.840830e+01 5.151454e+01 4.264318e+01 4.380788e+01 4.711774e+01 1.994565e+01 3.304505e+01 3.186169e+00 3.685501e+00 4.299658e+00 2.853607e+00 3.408822e+00 4.572962e+00 6.678359e+00 4.654760e+00 4.252432e+00 3.864621e+00 5.717321e+00 1.859340e+00 4.457290e+00 5.589958e-01 6.824894e-01 8.943272e-01 5.679008e-01 6.582719e-01 8.874047e-01 1.517061e+00 8.515084e-01 9.028497e-01 7.987770e-01 1.172874e+00 4.144271e-01 7.869404e-01
<GCONST> 1.325137e+02
<STATE> 3
<MEAN> 39
 -4.466075e+00 2.048876e+00 3.737141e+00 4.821237e+00 1.777556e+00 -5.280222e+00 -7.073184e+00 -2.563777e+00 -1.911498e+00 -4.133590e-01 -7.677007e-03 -9.360412e-01 6.050977e+01 3.512920e-01 -3.102134e-01 -2.193133e-01 -1.830775e-01 -1.133912e-01 -2.502727e-01 2.451591e-01 -1.608097e-01 -9.791339e-02 2.655411e-01 1.405435e-01 -1.903747e-01 3.460046e-01 3.011454e-02 -2.255850e-02 -1.097237e-01 -6.534110e-02 6.421848e-02 4.363598e-02 2.417335e-01 -2.102208e-02 -8.566059e-02 7.086927e-02 1.761872e-01 6.417814e-02 5.517058e-02
<VARIANCE> 39
 2.082844e+01 3.014654e+01 3.753883e+01 2.114906e+01 2.647058e+01 4.993948e+01 4.158879e+01 3.472964e+01 3.628238e+01 4.130610e+01 4.171896e+01 1.781388e+01 3.420667e+01 3.048630e+00 3.386898e+00 4.031113e+00 2.608190e+00 2.896940e+00 5.338471e+00 5.196678e+00 3.757366e+00 3.200029e+00 4.053893e+00 5.766654e+00 1.692592e+00 4.145932e+00 5.572524e-01 7.479544e-01 9.110842e-01 5.747535e-01 5.152383e-01 1.179486e+00 1.101013e+00 7.375126e-01 7.725961e-01 7.494013e-01 1.292384e+00 3.787020e-01 7.958356e-01
<GCONST> 1.296577e+02
<STATE> 4
<MEAN> 39
 -3.058539e+00 9.385403e-01 1.174272e+00 2.972195e+00 2.216837e+00 -5.724156e+00 -5.841952e+00 -3.096010e+00 -3.280165e+00 1.425637e+00 1.660750e+00 -7.208067e-01 6.150726e+01 1.809413e-01 -1.283248e-01 -3.235781e-01 -3.554690e-01 1.431864e-02 1.052929e-01 6.737474e-01 -1.143167e-01 -2.858306e-01 1.978416e-01 5.573499e-01 -2.410515e-02 2.336337e-01 -1.044471e-01 1.705276e-01 9.079251e-02 -8.584803e-02 1.125545e-01 6.227279e-02 4.327777e-02 1.016976e-01 -8.470257e-02 -5.090272e-02 6.392667e-02 4.231286e-02 -2.460129e-02
<VARIANCE> 39
 1.966621e+01 2.926209e+01 3.655995e+01 2.512239e+01 2.690370e+01 3.393948e+01 4.066176e+01 2.786888e+01 3.601476e+01 4.058231e+01 3.354698e+01 1.949207e+01 3.149739e+01 2.378208e+00 3.678377e+00 3.738053e+00 3.151639e+00 2.803392e+00 3.849704e+00 3.693636e+00 2.841614e+00 3.188672e+00 3.902458e+00 3.641773e+00 1.639081e+00 3.820528e+00 4.134725e-01 7.563419e-01 8.168811e-01 6.609576e-01 4.769300e-01 7.489299e-01 7.862411e-01 5.947202e-01 6.769150e-01 7.117471e-01 8.377597e-01 3.276058e-01 7.849833e-01
<GCONST> 1.251045e+02
<TRANSP> 5
 0.000000e+00 1.000000e+00 0.000000e+00 0.000000e+00 0.000000e+00
 0.000000e+00 7.913819e-01 2.086181e-01 0.000000e+00 0.000000e+00
 0.000000e+00 0.000000e+00 6.739416e-01 3.260584e-01 0.000000e+00
 0.000000e+00 0.000000e+00 0.000000e+00 6.933862e-01 3.066139e-01
 0.000000e+00 0.000000e+00 0.000000e+00 0.000000e+00 0.000000e+00
<ENDHMM>
~h "h"
<BEGINHMM>
<NUMSTATES> 5
<STATE> 2
<MEAN> 39
 -2.281792e+00 5.144286e+00 1.231391e+00 -1.620417e+00 3.045639e+00 3.127506e+00 2.525664e+00 -1.659150e+00 -3.564425e+00 3.412566e-01 2.835151e+00 3.284821e+00 6.086077e+01 2.233005e-02 3.743511e-01 3.280203e-03 -8.117578e-02 1.261967e-01 9.020197e-01 7.097329e-01 8.106472e-02 -4.893524e-01 -5.239158e-01 1.281734e-01 5.196579e-01 -4.162377e-01 -1.394296e-02 -7.835329e-02 2.989830e-02 1.911911e-02 -1.353313e-01 -1.584660e-01 -6.964364e-02 3.575923e-02 -1.525559e-02 -9.059655e-03 -8.539329e-02 -7.958026e-02 2.076325e-02
<VARIANCE> 39
 1.466315e+01 1.094350e+01 1.866353e+01 3.006524e+01 3.576888e+01 2.531998e+01 3.013355e+01 3.122355e+01 2.920844e+01 3.304119e+01 2.188767e+01 2.355376e+01 1.155968e+01 9.740915e-01 7.849190e-01 1.318798e+00 1.820058e+00 2.581272e+00 2.010765e+00 1.975484e+00 2.107530e+00 2.311493e+00 2.176897e+00 1.750569e+00 1.507859e+00 8.400648e-01 1.506296e-01 1.522436e-01 2.258278e-01 2.589225e-01 4.843028e-01 3.339517e-01 3.531676e-01 3.915436e-01 3.745616e-01 4.263557e-01 3.511279e-01 2.715116e-01 1.156964e-01
<GCONST> 1.016418e+02
<STATE> 3
<MEAN> 39
 -2.340308e+00 5.835632e+00 1.517955e+00 -1.578622e+00 2.825001e+00 4.430151e+00 3.778107e+00 -1.139153e+00 -4.437282e+00 -9.704627e-01 2.689510e+00 4.003620e+00 5.994724e+01 5.059886e-03 2.113262e-01 6.593189e-02 -1.030393e-02 -1.024238e-01 3.090635e-01 2.894407e-01 7.080305e-02 -2.782862e-01 -3.550909e-01 -7.213899e-02 1.582560e-01 -2.794618e-01 -5.202264e-02 -7.404863e-02 4.616380e-02 3.363378e-02 -2.717219e-02 -2.312321e-01 -2.121301e-01 -2.008127e-02 1.138964e-01 6.925848e-02 -5.312077e-02 -1.721625e-01 3.837684e-02
<VARIANCE> 39
 1.308877e+01 1.106218e+01 1.595344e+01 2.400551e+01 3.021363e+01 2.443582e+01 2.746462e+01 3.055355e+01 2.410484e+01 2.760064e+01 2.026259e+01 2.186776e+01 9.878648e+00 8.707643e-01 8.447484e-01 1.133165e+00 1.550783e+00 2.219681e+00 2.023470e+00 1.724694e+00 1.945283e+00 2.028180e+00 2.035427e+00 1.465212e+00 1.612602e+00 6.282754e-01 1.644201e-01 1.584734e-01 2.128224e-01 2.611371e-01 4.105525e-01 3.313964e-01 3.285537e-01 3.649548e-01 3.224288e-01 4.114746e-01 3.031344e-01 2.978385e-01 1.049044e-01
<GCONST> 9.827122e+01
<STATE> 4
<MEAN> 39
 -2.595475e+00 6.318272e+00 1.663987e+00 -1.428648e+00 2.548121e+00 4.395833e+00 3.967808e+00 -9.200181e-01 -4.484313e+00 -1.756483e+00 2.332065e+00 3.624094e+00 5.913054e+01 -1.712291e-01 3.797434e-02 1.644705e-01 1.254984e-01 -8.110026e-02 -2.470255e-01 -2.754622e-01 -1.195810e-01 2.897567e-02 -5.421302e-02 -8.216091e-02 -2.903340e-01 -1.990005e-01 -1.094124e-01 -6.833597e-02 5.871332e-02 1.921271e-02 3.184067e-02 -1.589420e-01 -1.959652e-01 -4.280861e-02 5.972793e-02 8.424125e-02 4.662113e-02 -1.384712e-01 2.343898e-02
<VARIANCE> 39
 1.282109e+01 1.266217e+01 1.667981e+01 2.251133e+01 3.087617e+01 2.446918e+01 2.721303e+01 2.891312e+01 2.241960e+01 2.822910e+01 2.139186e+01 2.259721e+01 1.198908e+01 1.092164e+00 9.580930e-01 1.271508e+00 1.657538e+00 2.307026e+00 2.197597e+00 1.965960e+00 1.785477e+00 1.766561e+00 2.012916e+00 1.449950e+00 1.797832e+00 6.967648e-01 1.869356e-01 1.829868e-01 2.331903e-01 3.174261e-01 4.306076e-01 3.699847e-01 3.487351e-01 3.413849e-01 3.396657e-01 4.118651e-01 2.914598e-01 3.456722e-01 1.119890e-01
<GCONST> 1.002458e+02
<TRANSP> 5
 0.000000e+00 1.000000e+00 0.000000e+00 0.000000e+00 0.000000e+00
 0.000000e+00 5.747240e-01 4.252760e-01 0.000000e+00 0.000000e+00
 0.000000e+00 0.000000e+00 5.777982e-01 4.222017e-01 0.000000e+00
 0.000000e+00 0.000000e+00 0.000000e+00 6.869000e-01 3.131000e-01
 0.000000e+00 0.000000e+00 0.000000e+00 0.000000e+00 0.000000e+00
<ENDHMM>
~h "i"
<BEGINHMM>
<NUMSTATES> 5
<STATE> 2
<MEAN> 39
 -5.472833e+00 2.990853e+00 5.200134e+00 2.935179e+00 1.136667e+00 -4.260972e+00 -4.517582e+00 -3.814822e+00 -2.490649e+00 5.409456e-01 9.903313e-01 -7.694055e-01 5.967614e+01 1.979266e-01 4.329677e-02 -2.039050e-01 1.302618e-01 2.874589e-02 2.095390e-02 -2.102164e-01 -1.661083e-01 1.077508e-01 2.187737e-02 -1.606414e-01 6.457280e-02 -8.421217e-02 -1.640279e-01 1.112903e-02 1.475953e-02 -2.290106e-01 8.261215e-03 7.944573e-02 1.656697e-01 9.366619e-02 -1.906319e-01 -1.036338e-01 9.989394e-02 1.627525e-02 -4.496024e-04
<VARIANCE> 39
 3.712767e+01 2.386133e+01 3.359890e+01 3.534908e+01 3.381818e+01 3.340707e+01 3.533247e+01 4.076966e+01 3.502997e+01 2.644695e+01 2.880379e+01 1.894490e+01 2.807397e+01 3.699646e+00 2.687830e+00 2.375518e+00 3.139047e+00 2.923186e+00 3.232721e+00 2.829406e+00 3.263221e+00 3.389038e+00 2.550734e+00 3.051290e+00 1.890595e+00 2.479253e+00 5.747169e-01 4.755871e-01 4.095937e-01 4.945656e-01 5.665984e-01 5.956398e-01 5.106786e-01 6.387669e-01 6.161067e-01 5.014589e-01 5.411616e-01 3.686384e-01 4.088481e-01
<GCONST> 1.211254e+02
<STATE> 3
<MEAN> 39
 -5.582678e+00 3.134757e+00 4.992961e+00 2.856028e+00 1.318689e+00 -4.101871e+00 -4.603767e+00 -3.855118e+00 -2.718893e+00 2.117632e-01 9.394093e-01 -6.419729e-01 5.933881e+01 -1.034905e-01 6.238356e-02 -1.868547e-01 -2.939643e-01 7.706642e-02 1.806639e-01 9.050339e-02 2.569290e-02 -2.533070e-01 -1.405001e-01 8.265391e-02 6.622897e-02 -1.069822e-01 -1.493738e-01 3.642586e-03 -3.311520e-03 -2.345763e-01 1.196781e-02 6.522460e-02 1.587581e-01 1.123935e-01 -1.416150e-01 -5.519009e-02 1.037162e-01 -7.950171e-03 2.137634e-02
<VARIANCE> 39
 3.468254e+01 2.359533e+01 3.051177e+01 3.485063e+01 3.365275e+01 3.258145e+01 3.606920e+01 3.900677e+01 3.699594e+01 2.674192e+01 2.947499e+01 1.875076e+01 2.860426e+01 3.639018e+00 2.648315e+00 2.539341e+00 3.279553e+00 3.121447e+00 3.083599e+00 2.741584e+00 3.274010e+00 3.314164e+00 2.412064e+00 2.825260e+00 1.810520e+00 2.550570e+00 5.865787e-01 4.964525e-01 3.963119e-01 5.243823e-01 5.626376e-01 6.094741e-01 4.853641e-01 6.582785e-01 6.444249e-01 5.199609e-01 5.581797e-01 3.599347e-01 4.429057e-01
<GCONST> 1.211307e+02
<STATE> 4
<MEAN> 39
 -6.138998e+00 3.368917e+00 4.653742e+00 2.132926e+00 1.529582e+00 -3.777885e+00 -4.349697e+00 -3.547587e+00 -3.183084e+00 -5.202741e-02 1.196027e+00 -6.264046e-01 5.886001e+01 -3.058968e-01 6.508873e-02 -2.104563e-01 -6.654074e-01 1.235600e-01 3.122801e-01 3.183775e-01 2.151605e-01 -3.946739e-01 -1.477238e-01 2.610396e-01 4.910081e-02 -6.286719e-02 -7.969146e-02 -2.184901e-02 -1.525751e-02 -1.391783e-01 5.327034e-03 1.600063e-02 9.405869e-02 8.838986e-02 -2.957481e-02 6.522676e-03 4.437212e-02 -1.290533e-02 5.430169e-02
<VARIANCE> 39
 3.757243e+01 2.440650e+01 3.050341e+01 3.807729e+01 3.408361e+01 3.129386e+01 3.671143e+01 3.709457e+01 3.885645e+01 2.644580e+01 2.825302e+01 1.892464e+01 3.052968e+01 3.726804e+00 2.643535e+00 2.556589e+00 3.270631e+00 3.110717e+00 2.901073e+00 2.583941e+00 3.237446e+00 3.228026e+00 2.528212e+00 2.622346e+00 1.817174e+00 2.497332e+00 5.321254e-01 4.917746e-01 3.978310e-01 5.632122e-01 5.384924e-01 5.642415e-01 4.569860e-01 6.499738e-01 6.162936e-01 4.906861e-01 5.281669e-01 3.463600e-01 4.326262e-01
<GCONST> 1.207171e+02
<TRANSP> 5
 0.000000e+00 1.000000e+00 0.000000e+00 0.000000e+00 0.000000e+00
 0.000000e+00 4.006527e-01 5.993472e-01 0.000000e+00 0.000000e+00
 0.000000e+00 0.000000e+00 3.984835e-01 6.015165e-01 0.000000e+00
 0.000000e+00 0.000000e+00 0.000000e+00 4.799212e-01 5.200788e-01
 0.000000e+00 0.000000e+00 0.000000e+00 0.000000e+00 0.000000e+00
<ENDHMM>
~h "j"
<BEGINHMM>
<NUMSTATES> 5
<STATE> 2
<MEAN> 39
 -3.920034e+00 1.729927e+00 4.146966e+00 4.936162e+00 1.020139e-01 -6.904547e+00 -5.365116e+00 -3.511050e+00 4.520438e-01 1.751484e+00 -1.062918e+00 -1.687657e+00 6.156202e+01 2.583250e-01 -1.012438e-01 1.667623e-01 4.715909e-01 -2.801173e-01 -7.010157e-01 -3.317981e-01 1.197837e-01 3.003676e-01 1.869079e-02 -4.046164e-01 -9.160145e-02 2.637739e-01 -8.104479e-02 1.068981e-01 2.464065e-02 -2.143313e-01 3.607314e-02 1.846143e-01 1.502382e-01 6.577618e-02 -2.545754e-01 -6.787547e-02 1.196476e-01 8.405380e-02 -1.240084e-01
<VARIANCE> 39
 3.021793e+01 1.827809e+01 3.568100e+01 2.904881e+01 3.024852e+01 3.618521e+01 2.825728e+01 3.854900e+01 2.402169e+01 2.816951e+01 2.040482e+01 1.563210e+01 3.317526e+01 1.608736e+00 1.294356e+00 1.808817e+00 1.994939e+00 2.332293e+00 2.576259e+00 2.262139e+00 2.099492e+00 2.236206e+00 1.899969e+00 1.822889e+00 1.401360e+00 1.845915e+00 2.606713e-01 2.194712e-01 2.473074e-01 3.051498e-01 4.006324e-01 4.714524e-01 4.659252e-01 4.379505e-01 4.145493e-01 3.318565e-01 3.813931e-01 2.407790e-01 2.800904e-01
<GCONST> 1.087306e+02
<STATE> 3
<MEAN> 39
 -3.525073e+00 1.969327e+00 4.572223e+00 5.468057e+00 -3.711057e-01 -7.712725e+00 -5.736219e+00 -3.208791e+00 4.417586e-01 1.410755e+00 -1.543260e+00 -1.556363e+00 6.161952e+01 8.909156e-02 1.857873e-01 1.477183e-01 -2.035477e-05 -2.702299e-02 -1.364769e-01 -1.429992e-01 9.098355e-02 -1.839933e-01 -8.986912e-02 -8.151899e-02 1.141041e-01 -9.470806e-02 -1.093434e-01 1.012030e-01 1.431303e-03 -2.354448e-01 1.331555e-01 2.433669e-01 8.438544e-02 -1.611824e-02 -2.199301e-01 -2.838307e-02 1.753241e-01 6.486155e-02 -1.329802e-01
<VARIANCE> 39
 2.610561e+01 1.777507e+01 3.303341e+01 2.942361e+01 2.946781e+01 3.343738e+01 2.865193e+01 3.486981e+01 2.253867e+01 3.093086e+01 2.095067e+01 1.478250e+01 2.936838e+01 1.548710e+00 1.390378e+00 1.762015e+00 1.929194e+00 2.584363e+00 2.789834e+00 2.359484e+00 2.352852e+00 1.999515e+00 1.849362e+00 1.806045e+00 1.172138e+00 1.987236e+00 2.255562e-01 2.366614e-01 2.673996e-01 2.924061e-01 4.427784e-01 4.725984e-01 4.401588e-01 4.369312e-01 4.079524e-01 3.231468e-01 3.505554e-01 2.534356e-01 2.855130e-01
<GCONST> 1.081910e+02
<STATE> 4
<MEAN> 39
 -3.701141e+00 2.947391e+00 4.741225e+00 5.117988e+00 7.847673e-02 -7.189910e+00 -6.096313e+00 -3.239883e+00 -2.243177e-01 1.079606e+00 -1.203969e+00 -8.884325e-01 6.049672e+01 -2.115185e-01 3.568104e-01 9.289607e-02 -3.959231e-01 3.271796e-01 3.877632e-01 -2.922957e-02 -5.827006e-03 -5.537130e-01 -1.305421e-01 3.738372e-01 1.808379e-01 -4.095359e-01 -1.624516e-01 1.362281e-02 2.310494e-02 -1.636900e-01 9.699587e-02 1.652505e-01 1.003207e-01 2.416811e-03 -1.468807e-01 -3.535736e-02 1.628401e-01 -1.709692e-02 -5.022200e-02
<VARIANCE> 39
 2.427980e+01 1.728747e+01 3.160343e+01 2.908018e+01 2.585913e+01 3.250732e+01 2.717103e+01 3.257947e+01 2.361296e+01 2.969636e+01 2.103069e+01 1.409315e+01 2.993094e+01 1.607512e+00 1.590809e+00 1.713745e+00 1.979173e+00 2.780611e+00 2.824753e+00 2.393721e+00 2.552512e+00 2.180189e+00 1.916979e+00 1.920244e+00 1.266247e+00 2.082377e+00 2.351986e-01 3.106872e-01 3.439584e-01 3.519054e-01 5.067688e-01 4.957902e-01 4.253443e-01 4.827231e-01 4.236460e-01 3.537016e-01 3.320888e-01 2.753720e-01 3.569292e-01
<GCONST> 1.097742e+02
<TRANSP> 5
 0.000000e+00 1.000000e+00 0.000000e+00 0.000000e+00 0.000000e+00
 0.000000e+00 5.753047e-01 4.246953e-01 0.000000e+00 0.000000e+00
 0.000000e+00 0.000000e+00 5.550724e-01 4.449276e-01 0.000000e+00
 0.000000e+00 0.000000e+00 0.000000e+00 6.388633e-01 3.611366e-01
 0.000000e+00 0.000000e+00 0.000000e+00 0.000000e+00 0.000000e+00
<ENDHMM>
~h "k"
<BEGINHMM>
<NUMSTATES> 5
<STATE> 2
<MEAN> 39
 -1.190213e+01 1.496072e+00 1.584478e+00 -1.288871e+00 5.473505e+00 -6.912792e-01 -4.437315e+00 -6.686808e-02 -1.405429e+00 -7.509720e-01 3.134338e+00 -4.469021e-01 5.484696e+01 2.937619e-01 -5.742519e-01 -4.384654e-01 -9.003972e-02 -3.243897e-01 7.526245e-02 -9.213906e-02 1.851554e-01 2.814635e-01 8.646459e-02 1.462946e-01 -6.383717e-02 1.609044e-01 5.914102e-02 1.324413e-02 8.865219e-02 -3.488490e-02 -1.768721e-02 -5.556569e-02 -5.122994e-03 -8.423876e-03 -7.116564e-02 3.510584e-02 -2.876344e-02 1.063559e-02 2.176496e-01
<VARIANCE> 39
 2.594888e+01 3.063190e+01 2.970281e+01 4.251239e+01 3.205003e+01 3.460859e+01 3.349672e+01 3.072132e+01 2.673582e+01 2.662401e+01 2.852530e+01 1.753101e+01 2.392043e+01 1.835371e+00 3.882164e+00 2.930735e+00 4.009146e+00 2.850157e+00 2.921740e+00 2.987141e+00 3.028750e+00 2.503879e+00 2.540715e+00 3.481351e+00 1.668831e+00 3.135872e+00 3.017370e-01 8.372384e-01 5.822929e-01 7.636183e-01 4.832103e-01 5.138243e-01 5.433514e-01 6.110456e-01 4.312651e-01 4.890776e-01 7.137424e-01 3.494526e-01 5.754150e-01
<GCONST> 1.207242e+02
<STATE> 3
<MEAN> 39
 -1.124988e+01 3.392854e-01 8.462644e-01 -1.560289e+00 4.759477e+00 -6.607326e-01 -4.657919e+00 2.925718e-01 -9.907208e-01 -5.404172e-01 3.459494e+00 -4.561197e-01 5.559938e+01 5.767547e-01 -2.345325e-01 -1.539449e-01 -2.914388e-02 -4.115019e-01 1.565541e-02 1.859405e-02 4.209173e-02 1.285063e-01 1.917750e-01 -1.088656e-01 3.409298e-02 4.176229e-01 1.387300e-01 1.759648e-01 1.300201e-01 4.509467e-02 -2.831165e-02 -3.743882e-02 6.543402e-02 -8.235911e-02 -7.326864e-02 6.084298e-02 -1.570925e-01 4.817356e-02 9.943895e-02
<VARIANCE> 39
 2.660869e+01 2.966405e+01 3.211707e+01 4.448917e+01 3.130259e+01 3.723446e+01 3.468407e+01 3.326820e+01 2.836395e+01 2.852500e+01 3.071825e+01 1.854271e+01 2.738257e+01 2.473367e+00 3.792662e+00 3.269272e+00 4.444187e+00 2.859663e+00 2.860995e+00 3.021168e+00 3.277229e+00 2.289029e+00 2.648274e+00 4.058564e+00 1.844326e+00 2.798315e+00 3.735517e-01 8.143394e-01 6.419812e-01 9.225217e-01 5.073833e-01 5.466058e-01 5.314802e-01 6.687422e-01 4.256044e-01 5.164315e-01 8.312849e-01 3.698307e-01 5.238996e-01
<GCONST> 1.228570e+02
<STATE> 4
<MEAN> 39
 -1.051325e+01 1.689816e-01 3.554947e-01 -8.646375e-01 3.920289e+00 4.827663e-02 -3.532493e+00 8.181393e-01 1.349719e-01 7.806252e-01 2.911189e+00 1.684970e-01 5.532755e+01 7.136705e-01 1.592869e-01 4.120708e-03 2.172919e-03 -3.353570e-01 -2.451200e-02 2.244088e-01 -1.307939e-01 -2.382841e-02 2.999716e-01 -3.575186e-01 1.258256e-01 4.591608e-01 3.426438e-02 9.752502e-02 5.434172e-02 3.059157e-03 1.405788e-02 -2.630985e-02 4.983249e-02 -5.186148e-02 -8.244500e-02 -6.669684e-03 -4.040955e-02 1.615332e-02 3.197905e-02
<VARIANCE> 39
 3.595523e+01 2.421391e+01 2.995487e+01 3.960971e+01 2.768708e+01 3.729714e+01 3.880289e+01 3.165886e+01 2.974730e+01 3.061151e+01 3.082404e+01 1.934881e+01 3.723946e+01 2.719171e+00 2.719374e+00 2.649157e+00 4.048670e+00 2.589790e+00 2.525222e+00 2.630503e+00 2.916902e+00 2.071525e+00 2.562666e+00 3.773339e+00 1.893679e+00 2.307027e+00 4.173495e-01 5.692718e-01 5.040215e-01 8.294874e-01 4.925015e-01 4.947450e-01 5.192757e-01 5.891623e-01 4.041690e-01 4.953200e-01 8.088599e-01 3.594789e-01 4.394950e-01
<GCONST> 1.205902e+02
<TRANSP> 5
 0.000000e+00 1.000000e+00 0.000000e+00 0.000000e+00 0.000000e+00
 0.000000e+00 5.539528e-01 4.460472e-01 0.000000e+00 0.000000e+00
 0.000000e+00 0.000000e+00 5.527140e-01 4.472859e-01 0.000000e+00
 0.000000e+00 0.000000e+00 0.000000e+00 6.893954e-01 3.106046e-01
 0.000000e+00 0.000000e+00 0.000000e+00 0.000000e+00 0.000000e+00
<ENDHMM>
~h "l"
<BEGINHMM>
<NUMSTATES> 5
<STATE> 2
<MEAN> 39
 5.330340e-01 2.325450e+00 -9.133010e-01 -5.677562e+00 -5.583492e+00 -2.191943e+00 5.044076e+00 2.710317e-01 -1.040511e+01 -8.171416e-01 4.031714e+00 2.953301e+00 6.320802e+01 6.204000e-01 1.371795e-01 -2.832595e-01 -1.199663e-01 -5.918887e-01 -3.331751e-02 3.309207e-01 -5.188931e-02 -3.959166e-01 -9.722693e-02 -5.785905e-02 2.131603e-01 1.210549e-01 -3.348382e-01 3.786710e-02 1.389798e-01 9.132515e-02 3.669813e-01 6.520094e-02 -3.116609e-01 -6.113742e-02 2.661940e-01 3.671575e-02 -4.105103e-02 -1.079516e-01 -1.491770e-01
<VARIANCE> 39
 2.803492e+01 1.719953e+01 2.049611e+01 4.571069e+01 4.054206e+01 2.546352e+01 3.307599e+01 5.180658e+01 3.276897e+01 2.955347e+01 2.626488e+01 2.019442e+01 1.436003e+01 2.232025e+00 1.465908e+00 1.611922e+00 3.379117e+00 3.761192e+00 2.165641e+00 2.869815e+00 3.127955e+00 2.795062e+00 2.524300e+00 2.132455e+00 1.678998e+00 1.505742e+00 2.981559e-01 3.050340e-01 2.876027e-01 5.195975e-01 5.496604e-01 4.228572e-01 4.276369e-01 5.446162e-01 5.055813e-01 4.829820e-01 4.196436e-01 3.250256e-01 2.258406e-01
<GCONST> 1.136042e+02
<STATE> 3
<MEAN> 39
 5.867928e-01 2.725960e+00 -1.014839e+00 -5.505686e+00 -5.196936e+00 -1.881176e+00 4.450031e+00 -3.210991e-01 -1.018804e+01 -7.179232e-01 3.865356e+00 3.146409e+00 6.284561e+01 -9.301284e-02 2.305371e-01 3.214162e-02 1.094288e-01 2.878628e-01 1.944568e-01 -4.077693e-01 -2.335096e-01 2.988896e-01 2.765138e-02 -1.463183e-01 -2.513843e-02 -2.252894e-01 -2.556457e-01 4.574972e-02 1.319490e-01 8.551688e-02 2.941526e-01 4.316350e-02 -2.380726e-01 -1.156684e-02 2.385279e-01 1.211161e-02 -4.424629e-02 -1.289339e-01 -1.242223e-01
<VARIANCE> 39
 2.424645e+01 1.958889e+01 1.880063e+01 4.952896e+01 3.904752e+01 2.350546e+01 3.527523e+01 5.398316e+01 3.324911e+01 2.940849e+01 2.847445e+01 2.163496e+01 1.574783e+01 1.521186e+00 1.288392e+00 1.500539e+00 3.112686e+00 3.097692e+00 1.969147e+00 2.658144e+00 3.274812e+00 2.760676e+00 2.536175e+00 1.966880e+00 1.599767e+00 1.276765e+00 2.383884e-01 2.626212e-01 2.708770e-01 4.888990e-01 5.331685e-01 3.907433e-01 4.395548e-01 5.381080e-01 5.104448e-01 4.844385e-01 4.009799e-01 3.289664e-01 2.213724e-01
<GCONST> 1.119055e+02
<STATE> 4
<MEAN> 39
 -7.199636e-01 3.365670e+00 -5.194592e-01 -4.650552e+00 -3.644827e+00 -1.170379e+00 2.697702e+00 -1.130711e+00 -8.632605e+00 -3.897499e-01 3.679778e+00 2.570871e+00 6.161945e+01 -5.244461e-01 2.857025e-01 2.862749e-01 2.904764e-01 6.372310e-01 1.764963e-01 -6.914598e-01 -2.187160e-01 6.533334e-01 -2.051204e-02 -2.521810e-01 -2.748975e-01 -4.637765e-01 -1.476320e-01 5.035505e-03 8.266880e-02 2.474767e-02 8.617373e-02 -4.805300e-02 -3.479084e-02 5.456143e-02 6.047295e-02 -5.089356e-02 -1.283579e-02 -7.028244e-02 -5.514178e-02
<VARIANCE> 39
 2.540466e+01 2.036547e+01 1.886990e+01 5.298906e+01 3.874495e+01 2.163458e+01 4.036855e+01 5.196245e+01 3.263215e+01 3.067662e+01 3.040953e+01 2.218902e+01 2.101985e+01 1.515401e+00 1.325112e+00 1.547915e+00 2.655414e+00 2.786736e+00 2.069948e+00 2.613564e+00 3.067990e+00 2.784390e+00 2.452463e+00 2.057890e+00 1.714904e+00 1.349217e+00 2.235231e-01 2.606333e-01 2.704953e-01 4.958240e-01 5.088314e-01 3.990554e-01 4.514798e-01 5.037451e-01 4.944579e-01 4.738736e-01 3.873770e-01 3.188363e-01 2.512217e-01
<GCONST> 1.122575e+02
<TRANSP> 5
 0.000000e+00 1.000000e+00 0.000000e+00 0.000000e+00 0.000000e+00
 0.000000e+00 6.030700e-01 3.969300e-01 0.000000e+00 0.000000e+00
 0.000000e+00 0.000000e+00 5.657929e-01 4.342071e-01 0.000000e+00
 0.000000e+00 0.000000e+00 0.000000e+00 6.367792e-01 3.632207e-01
 0.000000e+00 0.000000e+00 0.000000e+00 0.000000e+00 0.000000e+00
<ENDHMM>
~h "m"
<BEGINHMM>
<NUMSTATES> 5
<STATE> 2
<MEAN> 39
 -1.314694e+00 8.442622e+00 3.568120e+00 2.945214e+00 2.495616e+00 -1.929832e+00 -7.894848e-02 -1.237489e+00 -7.101674e+00 -2.853168e+00 1.092091e+00 3.812667e-01 5.841084e+01 7.156708e-04 3.183137e-01 3.040028e-01 3.648250e-01 3.795835e-03 -2.085619e-02 1.183182e-01 1.240352e-01 -4.302473e-01 -2.583357e-01 -4.481795e-02 -4.837680e-03 -2.411820e-01 -1.013950e-01 -1.813497e-01 -3.315456e-02 -1.118396e-01 -8.813640e-02 -1.379016e-02 2.276187e-02 -4.472785e-02 1.929606e-01 1.245431e-01 -7.353728e-03 -5.543230e-02 9.365662e-02
<VARIANCE> 39
 1.119649e+01 9.161676e+00 1.955564e+01 2.053507e+01 1.699985e+01 1.738606e+01 2.388462e+01 1.657880e+01 2.613611e+01 1.870397e+01 1.474557e+01 1.561399e+01 1.084247e+01 8.906630e-01 1.022103e+00 1.575409e+00 1.563353e+00 1.593829e+00 1.629790e+00 1.406127e+00 1.417702e+00 2.546897e+00 1.766380e+00 1.117995e+00 1.252026e+00 6.664218e-01 1.251365e-01 1.927786e-01 2.815331e-01 2.912744e-01 3.086327e-01 3.046261e-01 2.709767e-01 2.497193e-01 4.108321e-01 3.292558e-01 2.059754e-01 2.313484e-01 8.891505e-02
<GCONST> 9.312688e+01
<STATE> 3
<MEAN> 39
 -2.001449e+00 8.538239e+00 4.099628e+00 3.436574e+00 2.222021e+00 -1.775277e+00 1.229985e-01 -1.082238e+00 -7.018803e+00 -2.831777e+00 7.968137e-01 5.631505e-02 5.777141e+01 -2.175737e-01 -6.464329e-02 1.334272e-01 -3.006917e-03 -1.678568e-01 8.793662e-02 1.272748e-01 5.061310e-02 1.365232e-01 4.773713e-02 -3.653577e-02 -9.137338e-02 -9.528214e-02 -9.998761e-02 -1.526495e-01 -4.450906e-02 -1.599071e-01 -3.965564e-02 5.012090e-02 -3.180884e-03 -3.116070e-02 1.828279e-01 7.452119e-02 1.203183e-02 -2.096285e-02 7.319273e-02
<VARIANCE> 39
 1.436247e+01 1.244045e+01 2.086791e+01 2.206038e+01 1.975899e+01 1.976864e+01 2.540721e+01 1.651319e+01 2.631516e+01 1.886257e+01 1.473532e+01 1.616608e+01 1.402551e+01 8.204078e-01 1.010555e+00 1.498980e+00 1.716552e+00 1.680834e+00 1.568608e+00 1.610851e+00 1.345600e+00 2.213960e+00 1.589585e+00 1.103195e+00 1.173047e+00 6.545807e-01 1.234966e-01 1.925932e-01 2.795100e-01 3.398175e-01 3.493609e-01 3.171243e-01 3.150996e-01 2.674689e-01 4.011806e-01 3.056785e-01 2.029703e-01 2.327729e-01 9.582984e-02
<GCONST> 9.465342e+01
<STATE> 4
<MEAN> 39
 -4.994029e+00 6.939718e+00 3.841225e+00 2.942313e+00 2.014308e+00 -3.599726e-02 2.223923e-01 -8.149822e-01 -4.540643e+00 -1.658194e+00 5.722527e-01 -4.005813e-01 5.595082e+01 -3.448261e-01 -2.515402e-01 7.264172e-02 -2.798789e-01 -1.330383e-01 1.564602e-01 9.003614e-02 1.223975e-02 3.069189e-01 7.168606e-02 2.834309e-02 -7.303435e-02 1.994405e-02 -7.635114e-02 -7.684892e-02 1.141254e-02 -1.242988e-01 3.829474e-02 2.190137e-03 -6.933069e-03 -2.803600e-02 1.469100e-02 -6.705535e-04 3.044001e-02 -1.761823e-02 8.168762e-02
<VARIANCE> 39
 3.075110e+01 2.499043e+01 3.331760e+01 2.684705e+01 2.225834e+01 2.550924e+01 2.765891e+01 2.086570e+01 3.377699e+01 2.165834e+01 1.660876e+01 1.628615e+01 2.389736e+01 1.151559e+00 1.255253e+00 1.890783e+00 2.352664e+00 1.893233e+00 1.759294e+00 1.968820e+00 1.630717e+00 1.992061e+00 1.703008e+00 1.206112e+00 1.262878e+00 8.467081e-01 1.577868e-01 2.082277e-01 2.917718e-01 3.886471e-01 3.719549e-01 3.339349e-01 3.722641e-01 3.280643e-01 3.896022e-01 3.128246e-01 2.314910e-01 2.492035e-01 1.405947e-01
<GCONST> 1.021932e+02
<TRANSP> 5
 0.000000e+00 1.000000e+00 0.000000e+00 0.000000e+00 0.000000e+00
 0.000000e+00 6.651136e-01 3.348863e-01 0.000000e+00 0.000000e+00
 0.000000e+00 0.000000e+00 6.238677e-01 3.761323e-01 0.000000e+00
 0.000000e+00 0.000000e+00 0.000000e+00 7.404087e-01 2.595913e-01
 0.000000e+00 0.000000e+00 0.000000e+00 0.000000e+00 0.000000e+00
<ENDHMM>
~h "n"
<BEGINHMM>
<NUMSTATES> 5
<STATE> 2
<MEAN> 39
 -3.421664e+00 5.939190e+00 3.036610e+00 9.840409e-01 9.274185e-01 -1.668574e+00 1.988843e+00 1.008405e-02 -5.394524e+00 -7.067683e-01 2.956014e+00 -4.452419e-01 5.894667e+01 2.661906e-01 2.438708e-01 -5.102111e-02 7.927239e-02 -8.485761e-02 2.052856e-01 2.116665e-01 4.490994e-02 -1.987258e-01 3.102665e-03 4.529333e-02 -1.349235e-01 -9.171198e-02 -1.099967e-01 -1.070102e-01 -5.900148e-02 -1.906174e-01 7.223932e-02 -1.349693e-02 -5.379677e-02 2.249810e-03 1.169604e-01 1.320431e-02 -4.638610e-02 -1.174256e-02 9.239441e-02
<VARIANCE> 39
 2.721234e+01 2.016432e+01 2.709646e+01 3.541235e+01 2.281004e+01 2.278296e+01 2.261175e+01 1.766777e+01 4.244452e+01 1.746948e+01 2.068114e+01 1.512223e+01 2.456906e+01 1.614818e+00 1.812602e+00 2.574429e+00 2.978269e+00 2.321105e+00 2.025193e+00 1.545195e+00 1.823796e+00 3.357988e+00 1.702137e+00 1.743144e+00 1.449256e+00 1.299386e+00 2.236845e-01 3.290410e-01 4.173091e-01 4.610262e-01 4.299624e-01 3.874371e-01 3.005858e-01 3.746274e-01 6.945999e-01 3.377616e-01 3.391079e-01 2.949952e-01 2.326189e-01
<GCONST> 1.078330e+02
<STATE> 3
<MEAN> 39
 -3.155104e+00 6.143907e+00 2.793346e+00 7.901688e-01 8.694714e-01 -1.361344e+00 2.318015e+00 1.120007e-01 -5.534646e+00 -6.296065e-01 2.906753e+00 -7.396559e-01 5.895800e+01 9.480368e-02 8.849360e-03 -2.303336e-01 -2.913724e-01 6.799985e-02 1.876661e-01 8.138102e-02 2.374473e-02 1.166814e-01 5.528202e-02 -6.217507e-02 -1.241730e-01 1.113522e-01 -1.378719e-01 -1.093868e-01 -7.844291e-02 -2.131851e-01 1.243520e-01 -1.035576e-02 -9.152831e-02 1.641053e-03 1.394620e-01 2.872286e-02 -3.854192e-02 9.691184e-03 8.349668e-02
<VARIANCE> 39
 2.499187e+01 1.865076e+01 2.649780e+01 3.518504e+01 2.257932e+01 2.318953e+01 2.083170e+01 1.732025e+01 4.175010e+01 1.713684e+01 1.896650e+01 1.520876e+01 2.652852e+01 1.600672e+00 1.822812e+00 2.464768e+00 2.999612e+00 2.430005e+00 1.913752e+00 1.534970e+00 1.835631e+00 3.305999e+00 1.734596e+00 1.549318e+00 1.441051e+00 1.341357e+00 2.297766e-01 3.499839e-01 4.306594e-01 4.875857e-01 4.403361e-01 3.816788e-01 3.000070e-01 3.861355e-01 7.098094e-01 3.349709e-01 3.001509e-01 2.766339e-01 2.231452e-01
<GCONST> 1.073667e+02
<STATE> 4
<MEAN> 39
 -3.680697e+00 5.750644e+00 2.119234e+00 1.724434e-01 1.304514e+00 -7.829856e-01 2.245016e+00 2.626727e-01 -4.591317e+00 -3.568093e-01 2.538868e+00 -9.350925e-01 5.875539e+01 -1.393929e-01 -1.694563e-01 -3.189274e-01 -5.991744e-01 2.797965e-01 1.630015e-01 -9.634021e-02 4.163810e-03 3.180022e-01 1.416493e-01 -8.879856e-02 -8.097762e-02 2.404342e-01 -1.592399e-01 -4.935163e-02 4.141850e-03 -1.308127e-01 1.021740e-01 -2.090476e-02 -7.879826e-02 1.282751e-02 2.142730e-02 1.499324e-02 -5.850740e-04 1.538337e-02 2.321370e-02
<VARIANCE> 39
 2.929024e+01 1.922180e+01 2.690505e+01 4.071824e+01 2.377182e+01 2.404725e+01 2.010629e+01 1.905074e+01 3.989201e+01 1.820823e+01 1.929692e+01 1.645557e+01 3.411305e+01 1.943781e+00 1.713196e+00 2.446074e+00 3.173862e+00 2.575387e+00 1.889122e+00 1.659104e+00 2.020728e+00 3.078077e+00 1.785654e+00 1.480444e+00 1.432625e+00 1.415535e+00 2.335286e-01 3.432123e-01 4.108246e-01 5.004278e-01 4.458487e-01 3.715489e-01 3.071614e-01 3.886378e-01 6.295792e-01 3.573287e-01 2.834306e-01 2.694165e-01 2.218303e-01
<GCONST> 1.084332e+02
<TRANSP> 5
 0.000000e+00 1.000000e+00 0.000000e+00 0.000000e+00 0.000000e+00
 0.000000e+00 4.765359e-01 5.234641e-01 0.000000e+00 0.000000e+00
 0.000000e+00 0.000000e+00 4.668387e-01 5.331613e-01 0.000000e+00
 0.000000e+00 0.000000e+00 0.000000e+00 5.586291e-01 4.413710e-01
 0.000000e+00 0.000000e+00 0.000000e+00 0.000000e+00 0.000000e+00
<ENDHMM>
~h "o"
<BEGINHMM>
<NUMSTATES> 5
<STATE> 2
<MEAN> 39
 -2.938678e+00 3.995102e+00 6.248430e-01 -3.194467e+00 -8.231332e-01 1.969986e-01 1.220522e+00 -3.576114e+00 -6.727239e+00 -1.469777e+00 2.338671e+00 3.169514e+00 6.000792e+01 3.261631e-01 4.571111e-01 1.004865e-01 -1.098595e-01 -2.070398e-01 2.046829e-01 8.971395e-02 -6.037466e-02 -1.133748e-01 -3.490281e-01 -2.073513e-01 1.935024e-01 -7.356575e-02 -2.475492e-01 -2.691714e-02 1.494769e-01 6.877436e-02 1.746828e-01 -5.892318e-02 -1.614528e-01 1.147994e-01 5.639809e-02 -6.611369e-02 3.071669e-02 -1.378337e-01 -6.150202e-02
<VARIANCE> 39
 3.273861e+01 2.142646e+01 2.165276e+01 4.155183e+01 4.058352e+01 2.442019e+01 3.709020e+01 3.596825e+01 2.976658e+01 2.433773e+01 2.709867e+01 2.180150e+01 2.456996e+01 3.576844e+00 2.195619e+00 2.096414e+00 3.412079e+00 3.895470e+00 2.480174e+00 2.965576e+00 2.942035e+00 2.475621e+00 2.474310e+00 2.375895e+00 2.224033e+00 2.001152e+00 5.708567e-01 4.375990e-01 3.662480e-01 5.996532e-01 7.211612e-01 4.593205e-01 5.153140e-01 5.458828e-01 4.499081e-01 4.969565e-01 4.848503e-01 4.272353e-01 3.328896e-01
<GCONST> 1.184809e+02
<STATE> 3
<MEAN> 39
 -2.753298e+00 4.665828e+00 1.000766e+00 -3.188514e+00 -9.750270e-01 4.347499e-01 1.119331e+00 -3.486581e+00 -6.805381e+00 -2.172025e+00 2.003047e+00 3.200717e+00 5.974085e+01 -1.618719e-01 2.948281e-01 3.285416e-01 7.913750e-02 2.001209e-01 1.045214e-01 -2.561772e-01 7.721731e-02 1.869205e-02 -3.562799e-01 -7.054737e-02 -1.280230e-01 -1.493158e-01 -2.985033e-01 -1.192964e-01 1.151598e-01 5.618387e-02 2.083737e-01 -9.199746e-02 -1.502839e-01 6.248470e-02 8.032355e-02 4.596654e-02 8.730239e-02 -1.660354e-01 9.335961e-03
<VARIANCE> 39
 3.059296e+01 1.892608e+01 2.242653e+01 3.944619e+01 4.225006e+01 2.262316e+01 3.557648e+01 3.370064e+01 2.811099e+01 2.358549e+01 2.603129e+01 2.223255e+01 2.424035e+01 3.754348e+00 1.988895e+00 2.027764e+00 3.159801e+00 4.186584e+00 2.366070e+00 2.872693e+00 2.781700e+00 2.444808e+00 2.498740e+00 2.413230e+00 2.199082e+00 1.953409e+00 5.715337e-01 3.832421e-01 3.605493e-01 5.512384e-01 7.546115e-01 4.400187e-01 5.076465e-01 5.221499e-01 4.411729e-01 4.739406e-01 4.441849e-01 4.330144e-01 3.474411e-01
<GCONST> 1.173737e+02
<STATE> 4
<MEAN> 39
 -3.462199e+00 5.077008e+00 1.582300e+00 -2.764878e+00 -4.276065e-01 6.209432e-01 5.073956e-01 -3.286251e+00 -6.620079e+00 -2.720789e+00 1.981777e+00 2.675879e+00 5.914809e+01 -6.353816e-01 7.124776e-03 4.571839e-01 1.713522e-01 5.404022e-01 -7.378582e-02 -4.392715e-01 1.192652e-01 1.984427e-01 -1.282436e-01 1.260248e-01 -3.788621e-01 -6.443188e-02 -2.162318e-01 -1.459813e-01 4.881555e-02 -2.892022e-02 9.691735e-02 -1.082075e-01 -3.199646e-02 2.320445e-02 6.818040e-02 1.240978e-01 8.081386e-02 -8.773291e-02 9.894038e-02
<VARIANCE> 39
 3.367550e+01 1.856573e+01 2.561229e+01 4.059393e+01 4.507615e+01 2.341151e+01 3.570655e+01 3.208323e+01 2.730252e+01 2.436435e+01 2.492091e+01 2.162245e+01 2.492763e+01 3.865571e+00 1.987533e+00 2.082885e+00 3.062279e+00 4.111744e+00 2.397725e+00 2.749923e+00 2.631813e+00 2.474317e+00 2.396904e+00 2.386773e+00 2.044290e+00 1.933078e+00 5.266327e-01 3.541396e-01 3.458824e-01 4.865002e-01 6.822727e-01 4.459505e-01 4.722970e-01 5.035594e-01 4.342664e-01 4.500979e-01 4.182516e-01 4.093776e-01 3.520485e-01
<GCONST> 1.167278e+02
<TRANSP> 5
 0.000000e+00 1.000000e+00 0.000000e+00 0.000000e+00 0.000000e+00
 0.000000e+00 3.994443e-01 6.005557e-01 0.000000e+00 0.000000e+00
 0.000000e+00 0.000000e+00 4.014782e-01 5.985218e-01 0.000000e+00
 0.000000e+00 0.000000e+00 0.000000e+00 4.859133e-01 5.140867e-01
 0.000000e+00 0.000000e+00 0.000000e+00 0.000000e+00 0.000000e+00
<ENDHMM>
~h "p"
<BEGINHMM>
<NUMSTATES> 5
<STATE> 2
<MEAN> 39
 -1.020307e+01 4.904648e+00 2.036469e+00 3.447761e-02 1.698958e+00 1.505088e+00 -1.043495e+00 -1.471229e+00 -3.347380e+00 -1.523412e+00 1.370754e+00 1.193380e+00 5.216116e+01 -5.947455e-02 -3.250716e-01 -1.417895e-01 -2.149593e-01 -8.324704e-02 7.762765e-02 1.196584e-01 1.397799e-01 -8.099198e-02 2.047408e-01 3.476568e-01 1.869414e-01 1.267534e-01 1.977688e-01 -1.758231e-01 -4.626534e-02 -2.165290e-01 -5.981519e-02 -8.377170e-02 1.266056e-02 -1.077820e-02 -5.300095e-02 1.006141e-01 1.240281e-01 2.484195e-02 4.357704e-01
<VARIANCE> 39
 2.441617e+01 1.777092e+01 1.782549e+01 2.247408e+01 1.988279e+01 1.778669e+01 2.200787e+01 3.230172e+01 3.355016e+01 2.458153e+01 2.077545e+01 1.383352e+01 1.785358e+01 1.852768e+00 1.813005e+00 1.238608e+00 2.207747e+00 1.580602e+00 1.537744e+00 1.929775e+00 2.394357e+00 1.979624e+00 1.867220e+00 2.475129e+00 1.248155e+00 3.074408e+00 3.394699e-01 3.333213e-01 2.260472e-01 3.567145e-01 3.659085e-01 3.160115e-01 4.006111e-01 4.969565e-01 3.675509e-01 3.800261e-01 4.940327e-01 2.572002e-01 3.388523e-01
<GCONST> 1.060488e+02
<STATE> 3
<MEAN> 39
 -9.782989e+00 4.109924e+00 1.742211e+00 -9.469573e-01 1.367831e+00 1.480593e+00 -8.826374e-01 -1.395174e+00 -4.097408e+00 -1.108313e+00 2.415828e+00 1.546060e+00 5.338206e+01 5.156522e-01 -6.552209e-01 -2.445724e-01 -6.623467e-01 -2.357904e-01 -8.717500e-02 1.567884e-01 1.020914e-01 -2.437994e-01 3.669191e-01 4.928488e-01 1.778230e-01 1.081915e+00 2.583063e-01 -6.761267e-02 8.507165e-03 -9.436270e-02 -5.512523e-02 -1.636642e-01 1.421613e-02 -4.508160e-02 -6.168861e-02 5.207345e-02 -4.006956e-02 -1.460873e-02 3.678857e-01
<VARIANCE> 39
 2.425173e+01 2.160933e+01 1.754892e+01 2.526239e+01 2.081840e+01 1.767377e+01 2.248322e+01 3.388187e+01 3.004245e+01 2.509172e+01 2.476040e+01 1.445826e+01 2.511322e+01 3.545871e+00 2.439781e+00 1.778426e+00 2.846111e+00 2.427200e+00 1.893951e+00 2.480879e+00 3.422716e+00 2.497918e+00 2.248999e+00 3.193086e+00 1.495934e+00 3.618211e+00 4.416595e-01 5.026659e-01 3.062908e-01 4.894966e-01 4.806456e-01 3.871838e-01 4.753002e-01 6.818143e-01 4.301450e-01 4.394335e-01 6.728879e-01 3.007571e-01 4.607584e-01
<GCONST> 1.140759e+02
<STATE> 4
<MEAN> 39
 -7.846495e+00 2.826606e+00 1.178622e+00 -2.631183e+00 6.070171e-01 9.890861e-01 -4.402073e-01 -1.369213e+00 -4.983800e+00 -4.609311e-01 3.158273e+00 1.957033e+00 5.642272e+01 1.015089e+00 -6.026276e-01 -1.560492e-01 -6.575102e-01 -3.243054e-01 -5.169971e-01 1.424837e-01 -2.293015e-02 -3.512999e-01 3.698194e-01 1.515797e-01 1.029441e-01 1.587868e+00 3.227438e-02 8.573581e-02 1.061851e-01 1.607074e-01 2.983419e-02 -1.613492e-01 -2.367776e-02 -3.819797e-02 6.859772e-03 -3.357116e-02 -1.667976e-01 -5.984099e-02 6.508088e-03
<VARIANCE> 39
 3.619692e+01 2.492496e+01 2.019920e+01 3.370274e+01 2.553707e+01 2.098566e+01 2.708926e+01 4.224657e+01 3.339817e+01 2.669129e+01 2.802044e+01 1.571332e+01 3.647339e+01 4.882140e+00 3.373612e+00 2.537672e+00 3.724305e+00 3.769099e+00 2.744754e+00 3.319444e+00 4.309155e+00 3.294472e+00 3.066268e+00 3.954528e+00 1.955587e+00 3.428520e+00 7.101521e-01 5.942877e-01 4.298877e-01 6.254327e-01 7.019796e-01 4.809167e-01 5.913785e-01 8.621497e-01 5.558088e-01 5.243834e-01 7.949984e-01 3.422699e-01 6.547849e-01
<GCONST> 1.235503e+02
<TRANSP> 5
 0.000000e+00 1.000000e+00 0.000000e+00 0.000000e+00 0.000000e+00
 0.000000e+00 5.131090e-01 4.868911e-01 0.000000e+00 0.000000e+00
 0.000000e+00 0.000000e+00 4.721689e-01 5.278311e-01 0.000000e+00
 0.000000e+00 0.000000e+00 0.000000e+00 5.294946e-01 4.705054e-01
 0.000000e+00 0.000000e+00 0.000000e+00 0.000000e+00 0.000000e+00
<ENDHMM>
~h "r"
<BEGINHMM>
<NUMSTATES> 5
<STATE> 2
<MEAN> 39
 -4.838087e+00 2.050477e-01 -1.537123e-01 -3.633392e+00 1.785161e+00 -6.456201e-01 -1.074094e+00 -1.130920e+00 -5.875114e+00 2.381263e+00 4.465661e+00 1.423341e+00 6.180752e+01 7.174103e-01 -3.006897e-01 -3.635699e-01 7.176466e-02 -2.950561e-03 -4.948203e-01 -7.794450e-02 -2.363102e-01 -4.974572e-01 2.799538e-01 1.644838e-01 8.637948e-02 7.711496e-01 -1.277289e-01 1.254087e-01 7.741269e-02 1.605064e-01 2.370299e-02 3.484060e-03 3.121037e-02 -3.137153e-02 2.112704e-02 -1.056264e-01 -8.136314e-02 -5.274399e-02 -2.145988e-01
<VARIANCE> 39
 3.497778e+01 2.435658e+01 2.830658e+01 4.338008e+01 3.106563e+01 3.552902e+01 2.919496e+01 3.739954e+01 4.660351e+01 3.023914e+01 2.299188e+01 1.780772e+01 3.704015e+01 3.669737e+00 3.095739e+00 3.157115e+00 4.969992e+00 3.570723e+00 3.268692e+00 2.780767e+00 3.041764e+00 3.950833e+00 3.348035e+00 2.887571e+00 1.910861e+00 3.329253e+00 6.911721e-01 5.615914e-01 6.230344e-01 9.498984e-01 6.943715e-01 6.121199e-01 4.929347e-01 5.962899e-01 7.615527e-01 6.396700e-01 5.753164e-01 3.876903e-01 5.336410e-01
<GCONST> 1.252875e+02
<STATE> 3
<MEAN> 39
 -3.689338e+00 -6.371118e-02 -5.878134e-01 -2.929815e+00 1.714660e+00 -1.606029e+00 -1.195521e+00 -1.912799e+00 -6.744680e+00 2.679145e+00 4.523654e+00 1.335823e+00 6.281763e+01 3.162258e-01 -4.126126e-02 -1.164125e-01 3.633474e-01 5.058235e-03 -2.834527e-01 5.444421e-02 -2.238835e-01 -2.740088e-01 2.655691e-02 7.563109e-04 -2.009593e-02 1.813412e-01 -1.411190e-01 1.709800e-01 1.386251e-01 2.280663e-02 -2.002065e-02 1.191245e-01 5.297022e-02 4.156522e-02 1.042564e-01 -1.702792e-01 -7.506166e-02 -1.395065e-02 -2.303988e-01
<VARIANCE> 39
 2.873778e+01 2.340775e+01 3.050489e+01 3.959286e+01 3.217884e+01 3.444005e+01 2.923071e+01 3.857193e+01 4.511411e+01 3.412682e+01 2.238452e+01 1.820161e+01 3.019615e+01 3.079143e+00 2.959514e+00 3.426542e+00 4.561697e+00 3.697495e+00 3.030566e+00 2.705463e+00 3.282136e+00 3.594439e+00 3.252420e+00 2.395563e+00 1.823236e+00 2.531782e+00 6.174125e-01 5.603166e-01 6.880250e-01 8.534955e-01 7.025841e-01 5.665508e-01 4.925641e-01 6.049680e-01 7.150730e-01 6.936088e-01 5.085815e-01 3.941174e-01 4.408514e-01
<GCONST> 1.236480e+02
<STATE> 4
<MEAN> 39
 -3.489089e+00 3.125921e-01 -6.165623e-01 -2.178267e+00 1.661898e+00 -1.590903e+00 -9.466842e-01 -2.038375e+00 -6.655064e+00 2.483977e+00 4.421803e+00 1.221845e+00 6.235696e+01 1.333598e-01 3.214035e-01 1.406321e-01 1.772901e-01 -8.138453e-02 -1.765318e-02 1.458520e-01 -1.862653e-02 -1.432526e-02 -3.358256e-01 -1.230447e-01 3.744144e-02 -1.540053e-01 -8.217517e-02 1.677939e-01 1.028114e-01 -1.206071e-01 -1.001196e-02 1.036553e-01 -1.007776e-04 6.268636e-02 8.404534e-02 -1.511889e-01 -4.640117e-02 2.499616e-02 -1.168161e-01
<VARIANCE> 39
 2.890966e+01 2.538891e+01 3.105960e+01 3.755172e+01 3.136541e+01 3.426329e+01 3.027253e+01 4.123013e+01 4.177781e+01 3.603157e+01 2.199360e+01 1.863273e+01 3.135742e+01 2.712280e+00 2.832136e+00 3.396318e+00 3.795412e+00 3.398343e+00 2.670784e+00 2.519395e+00 3.391106e+00 3.150622e+00 3.140281e+00 2.151687e+00 1.836035e+00 1.897874e+00 5.543824e-01 5.515177e-01 6.714410e-01 7.077156e-01 6.438578e-01 4.842395e-01 4.815067e-01 6.002575e-01 6.291798e-01 6.635323e-01 4.538264e-01 3.700748e-01 3.551108e-01
<GCONST> 1.214484e+02
<TRANSP> 5
 0.000000e+00 1.000000e+00 0.000000e+00 0.000000e+00 0.000000e+00
 0.000000e+00 5.071836e-01 4.928164e-01 0.000000e+00 0.000000e+00
 0.000000e+00 0.000000e+00 4.900131e-01 5.099869e-01 0.000000e+00
 0.000000e+00 0.000000e+00 0.000000e+00 5.829767e-01 4.170232e-01
 0.000000e+00 0.000000e+00 0.000000e+00 0.000000e+00 0.000000e+00
<ENDHMM>
~h "s"
<BEGINHMM>
<NUMSTATES> 5
<STATE> 2
<MEAN> 39
 -2.060763e+01 3.976984e+00 8.318582e+00 -9.698241e+00 1.092704e+01 -1.147711e+00 -3.744680e+00 1.132279e+00 -3.731236e+00 -1.724656e+00 6.552165e+00 -1.611377e+00 6.268141e+01 -2.045703e+00 8.610818e-02 6.896733e-02 -1.024462e+00 8.194176e-01 -2.427152e-01 -3.258298e-01 5.095230e-02 -6.891273e-03 -3.104462e-02 1.325497e-01 -3.345159e-01 2.740317e-01 5.848799e-01 -1.779060e-02 -2.211562e-01 3.344621e-01 -4.005116e-01 1.229843e-02 1.138998e-01 -1.176793e-01 -6.905039e-02 9.007693e-02 -1.244004e-01 1.056040e-01 -2.550798e-01
<VARIANCE> 39
 5.734905e+01 2.045818e+01 2.279195e+01 3.303764e+01 3.084552e+01 3.324617e+01 2.706204e+01 3.154306e+01 2.723596e+01 2.227078e+01 2.230189e+01 2.415615e+01 1.617231e+01 7.106568e+00 1.823723e+00 2.050442e+00 3.585323e+00 3.490154e+00 2.346545e+00 2.301427e+00 2.511238e+00 2.204236e+00 2.080501e+00 2.128134e+00 1.812895e+00 1.708479e+00 9.033168e-01 3.801894e-01 3.299088e-01 6.042517e-01 5.280221e-01 4.716134e-01 4.087859e-01 4.773229e-01 4.475765e-01 4.074966e-01 4.355012e-01 3.440273e-01 2.666194e-01
<GCONST> 1.157267e+02
<STATE> 3
<MEAN> 39
 -2.265065e+01 4.076308e+00 7.538759e+00 -1.035318e+01 1.120813e+01 -1.506366e+00 -3.961793e+00 8.080752e-01 -3.960657e+00 -1.372904e+00 6.364695e+00 -1.816105e+00 6.193063e+01 1.489940e-01 9.270017e-03 -3.698464e-01 2.501680e-01 -1.655066e-01 -5.471820e-03 8.534168e-02 -1.454348e-01 -4.646153e-02 1.121705e-01 -8.561735e-02 7.794976e-02 -6.655758e-01 6.845030e-01 -3.436485e-02 -9.495043e-02 3.719636e-01 -3.093715e-01 4.843890e-02 1.303906e-01 -4.685028e-02 1.826418e-02 2.935438e-02 -7.725439e-02 1.191971e-01 -2.423076e-01
<VARIANCE> 39
 3.712378e+01 2.357896e+01 2.122960e+01 3.293891e+01 3.330952e+01 2.945622e+01 2.806406e+01 3.062340e+01 2.797567e+01 2.387814e+01 2.304022e+01 2.340434e+01 2.216251e+01 6.265571e+00 2.161795e+00 1.445747e+00 3.209921e+00 2.708802e+00 2.059221e+00 2.211260e+00 2.305448e+00 2.113610e+00 1.927116e+00 2.151342e+00 1.774892e+00 1.988979e+00 7.061749e-01 4.619464e-01 3.043978e-01 5.322812e-01 4.988077e-01 4.140768e-01 4.301005e-01 4.741483e-01 4.475485e-01 4.102234e-01 4.483443e-01 3.475027e-01 3.535684e-01
<GCONST> 1.147589e+02
<STATE> 4
<MEAN> 39
 -1.954841e+01 3.940145e+00 6.251044e+00 -8.077197e+00 9.638394e+00 -1.160083e+00 -2.923438e+00 4.523452e-01 -3.802749e+00 -8.849477e-01 5.811609e+00 -1.134773e+00 5.889128e+01 1.437987e+00 -4.894128e-02 -4.024952e-01 8.431382e-01 -7.800453e-01 3.663264e-02 2.994493e-01 -1.826167e-01 5.539281e-02 1.097803e-01 -2.863196e-01 2.556127e-01 -8.552371e-01 2.101543e-01 -5.510688e-02 3.843015e-03 3.166426e-02 -1.612899e-01 -3.401821e-02 -2.001965e-03 4.898666e-03 3.171580e-03 8.731548e-03 -4.783050e-02 1.383719e-02 1.323458e-01
<VARIANCE> 39
 4.315701e+01 2.693434e+01 2.128990e+01 3.393468e+01 3.791590e+01 2.751748e+01 3.023640e+01 3.010623e+01 2.796700e+01 2.401597e+01 2.353902e+01 2.172199e+01 2.993073e+01 3.953621e+00 2.877777e+00 1.623688e+00 2.663888e+00 2.728446e+00 2.000579e+00 2.290507e+00 2.507102e+00 2.360266e+00 1.983788e+00 2.310506e+00 1.766267e+00 2.462839e+00 7.301205e-01 6.081994e-01 3.381731e-01 5.687544e-01 5.319319e-01 4.108149e-01 4.690892e-01 5.038503e-01 4.541704e-01 3.999104e-01 4.728945e-01 3.606214e-01 5.200745e-01
<GCONST> 1.168684e+02
<TRANSP> 5
 0.000000e+00 1.000000e+00 0.000000e+00 0.000000e+00 0.000000e+00
 0.000000e+00 6.720203e-01 3.279797e-01 0.000000e+00 0.000000e+00
 0.000000e+00 0.000000e+00 6.360901e-01 3.639099e-01 0.000000e+00
 0.000000e+00 0.000000e+00 0.000000e+00 7.033850e-01 2.966150e-01
 0.000000e+00 0.000000e+00 0.000000e+00 0.000000e+00 0.000000e+00
<ENDHMM>
~h "t"
<BEGINHMM>
<NUMSTATES> 5
<STATE> 2
<MEAN> 39
 -1.228235e+01 4.492899e+00 3.334489e+00 -4.699973e+00 3.563873e+00 -4.960859e-01 -2.274814e+00 -7.483090e-02 -4.110929e+00 -1.959849e-01 3.696603e+00 -2.054130e-01 5.526955e+01 9.810220e-02 -6.177345e-01 -6.885909e-02 -2.492242e-01 -2.948014e-01 -4.191452e-02 -1.313190e-01 6.461496e-02 6.202077e-02 2.883645e-01 2.401108e-01 -1.396387e-01 1.705656e-01 7.862669e-02 -1.299355e-01 -7.110021e-04 -1.201951e-01 1.492896e-02 -5.997119e-02 -2.513893e-02 1.799884e-02 -2.976131e-02 6.963439e-02 7.806740e-02 2.328429e-02 3.527009e-01
<VARIANCE> 39
 4.191859e+01 2.736403e+01 2.321444e+01 4.061403e+01 3.545293e+01 2.711513e+01 3.218610e+01 2.945047e+01 2.765816e+01 2.658937e+01 2.252931e+01 1.567734e+01 3.035954e+01 3.369040e+00 3.098160e+00 1.834921e+00 4.896436e+00 2.785586e+00 2.260939e+00 2.536590e+00 2.515961e+00 1.959740e+00 2.276166e+00 2.611946e+00 1.485728e+00 4.083817e+00 4.758444e-01 6.380022e-01 3.710477e-01 9.591902e-01 5.282074e-01 4.935895e-01 5.367460e-01 4.778302e-01 3.762055e-01 4.479898e-01 5.412130e-01 3.001738e-01 7.078285e-01
<GCONST> 1.187935e+02
<STATE> 3
<MEAN> 39
 -1.194118e+01 3.173265e+00 3.220333e+00 -5.390599e+00 2.973561e+00 -6.945241e-01 -2.676670e+00 -2.927581e-02 -4.068269e+00 4.316968e-01 4.230929e+00 -3.982044e-01 5.631113e+01 2.764408e-01 -6.322204e-01 -4.125845e-02 -3.409640e-01 -2.551362e-01 -9.617145e-02 -1.326808e-01 2.024823e-02 8.715542e-03 3.261248e-01 3.124201e-01 -3.794975e-02 7.098540e-01 1.547832e-01 7.096943e-02 -1.195304e-03 4.007718e-02 4.109208e-02 -2.984323e-02 6.023685e-02 -3.497449e-02 -4.010591e-02 -1.385932e-02 -3.186407e-02 7.860647e-02 1.981161e-01
<VARIANCE> 39
 3.817352e+01 3.110011e+01 2.145317e+01 3.960673e+01 3.598974e+01 2.890989e+01 3.128178e+01 2.871215e+01 2.651822e+01 2.597010e+01 2.262663e+01 1.578954e+01 3.414767e+01 3.879280e+00 3.815864e+00 1.917278e+00 4.927865e+00 2.987916e+00 2.620615e+00 2.903732e+00 2.615098e+00 2.085358e+00 2.480953e+00 2.738177e+00 1.648590e+00 4.206517e+00 5.670643e-01 7.922755e-01 3.725800e-01 9.900246e-01 5.717934e-01 5.316933e-01 5.743703e-01 5.195241e-01 4.005968e-01 4.849871e-01 5.726734e-01 3.204763e-01 7.706442e-01
<GCONST> 1.210147e+02
<STATE> 4
<MEAN> 39
 -1.117730e+01 2.221398e+00 3.077445e+00 -5.776031e+00 2.485745e+00 -7.597213e-01 -2.813524e+00 -1.022970e-01 -3.980482e+00 9.172285e-01 4.710170e+00 -2.420706e-01 5.771610e+01 6.251185e-01 -2.714770e-01 -3.876898e-02 -6.982761e-02 -1.562138e-01 -1.316008e-01 4.637138e-02 -9.927280e-02 -6.995855e-02 1.709265e-01 8.099855e-02 1.251486e-01 8.064656e-01 1.689443e-01 1.574248e-01 -2.476392e-02 1.517622e-01 3.164553e-02 -1.117514e-02 1.230216e-01 -3.096139e-02 -4.935449e-02 -6.301016e-02 -1.385418e-01 6.666002e-02 -1.564878e-02
<VARIANCE> 39
 4.278247e+01 3.062116e+01 2.107336e+01 3.857552e+01 3.474931e+01 3.103508e+01 2.984688e+01 3.010292e+01 2.766574e+01 2.688587e+01 2.358266e+01 1.669751e+01 3.831216e+01 4.577333e+00 3.800407e+00 2.018969e+00 4.441891e+00 2.977600e+00 2.843475e+00 3.155222e+00 2.664519e+00 2.307460e+00 2.469647e+00 2.787590e+00 1.850956e+00 3.763943e+00 6.437734e-01 8.015193e-01 3.718461e-01 8.851299e-01 5.749858e-01 5.480872e-01 5.830542e-01 5.552446e-01 4.295633e-01 5.130706e-01 5.658054e-01 3.541147e-01 7.152463e-01
<GCONST> 1.220841e+02
<TRANSP> 5
 0.000000e+00 1.000000e+00 0.000000e+00 0.000000e+00 0.000000e+00
 0.000000e+00 4.702188e-01 5.297812e-01 0.000000e+00 0.000000e+00
 0.000000e+00 0.000000e+00 4.541919e-01 5.458081e-01 0.000000e+00
 0.000000e+00 0.000000e+00 0.000000e+00 5.240014e-01 4.759986e-01
 0.000000e+00 0.000000e+00 0.000000e+00 0.000000e+00 0.000000e+00
<ENDHMM>
~h "u"
<BEGINHMM>
<NUMSTATES> 5
<STATE> 2
<MEAN> 39
 -5.713633e+00 5.108573e+00 2.587027e+00 -2.551839e-01 2.347121e-01 2.009546e+00 -1.099136e+00 -5.676066e+00 -5.712518e+00 -4.461461e+00 -6.667172e-01 1.819331e+00 5.640207e+01 8.716068e-02 1.560857e-01 6.754196e-02 1.836052e-01 3.163128e-02 1.811297e-01 7.191422e-02 -7.370098e-02 -1.818731e-01 -2.010173e-01 -2.119124e-01 1.374921e-01 -1.375888e-01 -9.596103e-02 -1.098453e-01 3.090184e-02 -2.732379e-02 4.482582e-02 -1.055232e-01 -5.397670e-02 3.690149e-02 3.129662e-02 6.747492e-02 6.605262e-02 -7.060336e-02 9.753834e-02
<VARIANCE> 39
 3.070796e+01 2.729055e+01 2.426957e+01 3.977726e+01 3.135539e+01 3.583687e+01 3.393974e+01 3.702288e+01 2.869674e+01 2.902725e+01 2.905913e+01 2.133778e+01 1.979805e+01 3.033072e+00 2.946982e+00 2.330825e+00 3.878453e+00 3.202631e+00 2.706190e+00 2.865026e+00 3.093275e+00 2.331224e+00 2.395854e+00 2.569249e+00 1.879304e+00 1.775703e+00 4.216113e-01 5.699142e-01 3.783836e-01 7.001820e-01 5.785577e-01 4.845681e-01 4.926955e-01 6.212423e-01 4.223296e-01 4.355700e-01 5.049241e-01 3.700043e-01 2.991240e-01
<GCONST> 1.183965e+02
<STATE> 3
<MEAN> 39
 -5.799142e+00 5.108120e+00 2.835874e+00 2.115221e-01 4.732830e-01 2.096584e+00 -1.172565e+00 -5.619225e+00 -6.033245e+00 -4.479543e+00 -7.849588e-01 1.872506e+00 5.630338e+01 -1.802049e-01 -1.882773e-01 1.487992e-01 8.272863e-02 2.042789e-01 -7.187855e-02 -9.717961e-02 2.219844e-02 -7.402695e-02 6.737287e-02 4.735670e-02 -8.665595e-02 1.108891e-01 -1.205137e-01 -1.275891e-01 3.113790e-02 -8.199115e-02 5.297482e-02 -1.476288e-01 -6.191672e-02 7.461398e-02 7.495209e-02 1.119331e-01 8.972682e-02 -9.387486e-02 1.194018e-01
<VARIANCE> 39
 2.905110e+01 2.781458e+01 2.155483e+01 3.357573e+01 3.163695e+01 3.606364e+01 3.147882e+01 3.630471e+01 2.882665e+01 2.799047e+01 2.677242e+01 2.054936e+01 2.095243e+01 3.269756e+00 2.874799e+00 2.091326e+00 3.766702e+00 3.770969e+00 2.847207e+00 3.026000e+00 3.065121e+00 2.747529e+00 2.630711e+00 2.545486e+00 1.939071e+00 1.836680e+00 4.430057e-01 5.134095e-01 3.253703e-01 6.395137e-01 6.820282e-01 5.733408e-01 5.334719e-01 5.922000e-01 4.830250e-01 4.697472e-01 5.028937e-01 3.671258e-01 3.109840e-01
<GCONST> 1.186883e+02
<STATE> 4
<MEAN> 39
 -7.075653e+00 4.081812e+00 2.878153e+00 5.368148e-01 1.768602e+00 2.024627e+00 -1.703728e+00 -4.639372e+00 -5.313272e+00 -3.374639e+00 -2.700357e-01 1.293331e+00 5.603052e+01 -4.826306e-01 -4.794272e-01 2.052007e-01 -1.105698e-01 3.698418e-01 -3.417993e-01 -1.872445e-01 2.551937e-01 1.613025e-01 3.426417e-01 2.266937e-01 -2.660849e-01 3.153998e-01 -1.030897e-01 -8.633167e-02 3.962247e-02 -4.213998e-02 9.367951e-03 -1.576497e-01 2.261530e-03 7.592779e-02 8.373397e-02 6.584834e-02 2.987247e-02 -3.591905e-02 8.993378e-02
<VARIANCE> 39
 3.092765e+01 3.005862e+01 2.384892e+01 3.228862e+01 3.625131e+01 3.245108e+01 3.094760e+01 3.691882e+01 3.376780e+01 2.787225e+01 2.467902e+01 1.896556e+01 2.496159e+01 3.226223e+00 2.639249e+00 1.895246e+00 3.352822e+00 4.242970e+00 3.097552e+00 2.950712e+00 2.616980e+00 2.942546e+00 2.382085e+00 2.402395e+00 1.835353e+00 1.810274e+00 4.026597e-01 4.219695e-01 3.087905e-01 5.845601e-01 7.681385e-01 5.985021e-01 5.910767e-01 5.091507e-01 5.003355e-01 4.724819e-01 5.011049e-01 3.537979e-01 3.043495e-01
<GCONST> 1.182939e+02
<TRANSP> 5
 0.000000e+00 1.000000e+00 0.000000e+00 0.000000e+00 0.000000e+00
 0.000000e+00 5.595135e-01 4.404865e-01 0.000000e+00 0.000000e+00
 0.000000e+00 0.000000e+00 5.375775e-01 4.624225e-01 0.000000e+00
 0.000000e+00 0.000000e+00 0.000000e+00 6.437972e-01 3.562028e-01
 0.000000e+00 0.000000e+00 0.000000e+00 0.000000e+00 0.000000e+00
<ENDHMM>
~h "v"
<BEGINHMM>
<NUMSTATES> 5
<STATE> 2
<MEAN> 39
 -3.915550e+00 4.217865e+00 1.312106e+00 -1.132491e+00 2.089363e+00 -1.573231e+00 -1.611802e+00 -2.716728e+00 -4.665955e+00 -4.470762e-01 2.849579e+00 6.321850e-01 5.990802e+01 2.940712e-01 1.063384e-01 -1.161091e-01 5.111699e-02 -4.333985e-02 -2.325366e-02 -3.984610e-02 3.240148e-02 6.405349e-02 7.978172e-02 -8.215498e-02 -4.196390e-02 -1.664634e-02 3.724962e-02 -4.229390e-02 8.726773e-02 -4.456641e-02 -3.158131e-02 -1.284306e-01 6.433426e-03 6.938680e-02 -1.884155e-02 2.596327e-02 -2.341623e-02 -5.254609e-02 1.317090e-01
<VARIANCE> 39
 4.348236e+01 1.892109e+01 2.510018e+01 4.719472e+01 2.672139e+01 2.367984e+01 3.972044e+01 3.673688e+01 2.562091e+01 2.419088e+01 1.973682e+01 1.749895e+01 2.479409e+01 2.568096e+00 1.787643e+00 2.278016e+00 3.107894e+00 2.163761e+00 2.380802e+00 2.245480e+00 2.622221e+00 2.297543e+00 2.429304e+00 1.665494e+00 1.484265e+00 1.974254e+00 4.443528e-01 3.215666e-01 3.627376e-01 4.489830e-01 3.720615e-01 4.570746e-01 4.049024e-01 4.669444e-01 4.264069e-01 4.483009e-01 2.892920e-01 2.752369e-01 3.504345e-01
<GCONST> 1.124541e+02
<STATE> 3
<MEAN> 39
 -3.428780e+00 4.348685e+00 1.301308e+00 -1.065244e+00 2.005176e+00 -1.764118e+00 -1.710446e+00 -2.596093e+00 -4.507632e+00 -3.466188e-01 2.648268e+00 4.843185e-01 6.004685e+01 3.223361e-01 3.482356e-02 2.780448e-02 -3.242942e-02 -9.641907e-02 -2.223762e-01 -8.000912e-03 1.792045e-01 1.848924e-02 7.184786e-02 -1.242931e-01 -1.153732e-01 1.952022e-01 -9.636819e-03 -4.958943e-02 1.001516e-01 -3.766605e-02 -3.178906e-02 -1.146264e-01 1.370669e-02 5.582025e-02 -4.285030e-02 1.579411e-02 -1.160983e-02 -4.889935e-02 1.205443e-01
<VARIANCE> 39
 3.829091e+01 1.877994e+01 2.661292e+01 4.781514e+01 2.509513e+01 2.321237e+01 3.923610e+01 3.834673e+01 2.552125e+01 2.513525e+01 1.953571e+01 1.849302e+01 2.340708e+01 2.574107e+00 1.666918e+00 2.602380e+00 3.170813e+00 2.178794e+00 2.368911e+00 2.349824e+00 2.590821e+00 2.321065e+00 2.260152e+00 1.657669e+00 1.479499e+00 1.950339e+00 4.048178e-01 3.011954e-01 3.784165e-01 4.518455e-01 3.902246e-01 4.535586e-01 4.067832e-01 4.560335e-01 4.161290e-01 4.157120e-01 2.963487e-01 2.719269e-01 3.321365e-01
<GCONST> 1.121690e+02
<STATE> 4
<MEAN> 39
 -3.068362e+00 4.333434e+00 1.460681e+00 -1.048758e+00 1.932963e+00 -2.192487e+00 -1.775658e+00 -2.072598e+00 -4.269768e+00 -1.511527e-01 2.395817e+00 1.733577e-01 6.036647e+01 2.312034e-01 -3.347682e-02 1.940603e-01 -5.429862e-02 -1.250270e-01 -3.296791e-01 -1.148483e-04 2.427039e-01 -3.755444e-02 8.214876e-02 -1.333690e-01 -1.586869e-01 3.071901e-01 -6.506349e-02 -3.134467e-02 9.184304e-02 -8.241836e-03 -2.619795e-02 -4.467627e-02 -9.876522e-05 -9.724206e-03 -4.724817e-02 1.934544e-02 3.438549e-03 -4.165002e-02 4.390199e-02
<VARIANCE> 39
 3.558314e+01 1.935192e+01 3.168686e+01 5.164411e+01 2.551849e+01 2.484250e+01 4.082467e+01 4.076322e+01 2.845039e+01 2.693321e+01 2.065014e+01 1.997019e+01 2.430259e+01 2.352102e+00 1.536622e+00 2.830158e+00 3.054579e+00 2.395737e+00 2.291343e+00 2.361967e+00 2.438266e+00 2.203233e+00 1.994823e+00 1.731429e+00 1.491163e+00 1.838629e+00 3.981436e-01 2.772231e-01 3.909138e-01 4.626141e-01 4.293712e-01 4.644832e-01 4.176758e-01 4.555433e-01 4.184133e-01 3.913658e-01 3.192847e-01 2.757217e-01 3.229264e-01
<GCONST> 1.127134e+02
<TRANSP> 5
 0.000000e+00 1.000000e+00 0.000000e+00 0.000000e+00 0.000000e+00
 0.000000e+00 3.487183e-01 6.512817e-01 0.000000e+00 0.000000e+00
 0.000000e+00 0.000000e+00 3.458058e-01 6.541942e-01 0.000000e+00
 0.000000e+00 0.000000e+00 0.000000e+00 4.142386e-01 5.857614e-01
 0.000000e+00 0.000000e+00 0.000000e+00 0.000000e+00 0.000000e+00
<ENDHMM>
~h "x"
<BEGINHMM>
<NUMSTATES> 5
<STATE> 2
<MEAN> 39
 -1.193534e+01 1.083026e-02 6.647398e+00 8.462747e-01 5.872025e+00 -8.765640e-01 -4.796046e+00 1.119846e+00 -2.780409e+00 -9.341603e-01 5.018802e+00 -3.219240e+00 5.758351e+01 -5.401626e-01 -1.661354e-01 -5.710139e-01 -4.307070e-01 2.308551e-01 2.345577e-01 -2.000822e-02 -5.294451e-02 1.088615e-01 7.361586e-02 1.776452e-01 -5.790138e-02 -2.602979e-01 1.675797e-01 1.711474e-01 2.408135e-02 5.520328e-02 -1.636116e-01 -4.816415e-02 1.247154e-01 -4.580660e-02 1.513392e-03 5.123459e-02 -1.985218e-01 6.266109e-02 -5.020720e-04
<VARIANCE> 39
 2.859245e+01 3.005492e+01 8.818044e+01 3.778168e+01 3.339627e+01 4.949363e+01 3.811899e+01 3.204385e+01 4.124302e+01 2.570301e+01 2.742517e+01 2.226902e+01 1.466792e+01 1.212556e+00 1.475324e+00 1.969741e+00 2.387190e+00 1.869338e+00 2.687361e+00 2.757227e+00 3.133768e+00 2.464208e+00 1.998689e+00 2.481406e+00 1.494158e+00 6.472389e-01 1.985426e-01 2.903278e-01 3.393734e-01 4.180009e-01 3.663378e-01 4.773356e-01 4.780863e-01 5.346907e-01 4.448838e-01 4.216201e-01 4.402525e-01 2.692055e-01 1.056420e-01
<GCONST> 1.115309e+02
<STATE> 3
<MEAN> 39
 -1.282297e+01 1.242731e-01 5.191540e+00 2.076861e-01 5.853306e+00 -5.355040e-01 -4.390062e+00 7.940684e-01 -2.542427e+00 -8.083647e-01 4.711136e+00 -2.865977e+00 5.667749e+01 -1.562779e-02 2.972152e-01 -5.365040e-01 -1.832741e-01 -1.345695e-02 1.529410e-01 2.544234e-01 -3.353329e-02 1.837794e-01 1.731976e-01 -4.178785e-01 1.454357e-01 -2.675251e-01 2.221323e-01 1.450831e-01 3.987185e-02 5.832676e-02 -1.304239e-01 -6.371634e-02 4.831666e-02 3.030873e-03 1.074265e-02 2.976545e-02 -1.863969e-01 9.997431e-02 4.584449e-02
<VARIANCE> 39
 2.967170e+01 2.905456e+01 7.440500e+01 3.422122e+01 3.026262e+01 4.646511e+01 3.415434e+01 3.306676e+01 3.841763e+01 2.345015e+01 2.908444e+01 2.163627e+01 2.031608e+01 1.842318e+00 1.893100e+00 1.703404e+00 2.108471e+00 1.753683e+00 2.562467e+00 2.676417e+00 2.789349e+00 2.075366e+00 1.917213e+00 2.812143e+00 1.704378e+00 8.592495e-01 2.206305e-01 3.028187e-01 2.830364e-01 3.441209e-01 3.126732e-01 4.853607e-01 4.687199e-01 5.463835e-01 4.228478e-01 3.699362e-01 4.842550e-01 2.963013e-01 1.545428e-01
<GCONST> 1.117072e+02
<STATE> 4
<MEAN> 39
 -1.330372e+01 1.334534e+00 2.234232e+00 8.791032e-01 4.620252e+00 1.126630e+00 -2.025517e+00 1.417840e+00 -4.226032e-01 7.699945e-01 3.134430e+00 -6.985484e-01 5.304234e+01 2.892578e-01 3.321707e-01 -2.650681e-01 -2.503404e-02 -1.315595e-01 -2.097281e-02 1.522894e-01 2.650308e-02 1.105889e-01 1.748297e-01 -4.068530e-01 2.660045e-01 -4.685063e-02 9.991025e-02 -7.302098e-03 2.919152e-02 -4.705925e-02 -7.359741e-02 -8.367690e-02 -2.321541e-02 9.197364e-03 -6.578509e-02 4.921838e-03 2.299031e-02 3.481507e-02 1.153432e-01
<VARIANCE> 39
 2.886439e+01 1.797460e+01 4.605815e+01 2.859055e+01 2.159192e+01 3.605337e+01 2.737228e+01 2.746091e+01 3.240453e+01 2.247068e+01 2.728619e+01 2.231410e+01 3.120521e+01 1.841570e+00 1.627600e+00 1.402521e+00 1.963885e+00 1.443533e+00 2.058819e+00 2.065833e+00 2.152610e+00 2.106557e+00 1.784870e+00 2.771337e+00 1.797469e+00 1.148607e+00 2.215835e-01 2.626592e-01 2.018034e-01 3.931876e-01 2.423451e-01 3.926919e-01 3.812326e-01 4.173332e-01 4.113982e-01 3.532397e-01 4.595705e-01 3.306709e-01 2.087788e-01
<GCONST> 1.076476e+02
<TRANSP> 5
 0.000000e+00 1.000000e+00 0.000000e+00 0.000000e+00 0.000000e+00
 0.000000e+00 5.883496e-01 4.116504e-01 0.000000e+00 0.000000e+00
 0.000000e+00 0.000000e+00 5.535385e-01 4.464615e-01 0.000000e+00
 0.000000e+00 0.000000e+00 0.000000e+00 7.475103e-01 2.524898e-01
 0.000000e+00 0.000000e+00 0.000000e+00 0.000000e+00 0.000000e+00
<ENDHMM>
~h "z"
<BEGINHMM>
<NUMSTATES> 5
<STATE> 2
<MEAN> 39
 -1.046961e+01 8.113044e+00 9.395099e+00 -7.559445e+00 8.913787e+00 -3.911192e+00 -4.619634e+00 -9.944871e-01 -6.647231e+00 -3.000573e+00 6.311451e+00 7.306659e-01 6.295128e+01 -1.939983e+00 4.963287e-01 1.012502e+00 -7.295696e-01 1.477000e+00 -1.550652e-01 -1.914834e-01 1.599084e-01 -6.736356e-02 -1.792286e-01 4.805903e-01 -4.268057e-01 1.381698e-01 2.021383e-01 -2.270549e-01 -2.597857e-01 2.732858e-01 -3.583325e-01 1.522048e-02 1.152795e-01 7.611800e-02 9.746929e-02 2.187694e-01 -1.694663e-01 -6.050251e-02 -3.712006e-02
<VARIANCE> 39
 5.768614e+01 1.271994e+01 3.260586e+01 4.180021e+01 4.631340e+01 3.744325e+01 2.072062e+01 3.062093e+01 2.165742e+01 3.037146e+01 2.223731e+01 2.327890e+01 9.647743e+00 6.013644e+00 1.739608e+00 3.083783e+00 3.117972e+00 4.653466e+00 2.123653e+00 2.255085e+00 2.319178e+00 2.530171e+00 2.492630e+00 2.274461e+00 1.791668e+00 9.226494e-01 1.208589e+00 2.726547e-01 4.798381e-01 4.455562e-01 7.926179e-01 3.560861e-01 4.115293e-01 4.130348e-01 4.696111e-01 4.751240e-01 4.425350e-01 3.734187e-01 1.258669e-01
<GCONST> 1.150681e+02
<STATE> 3
<MEAN> 39
 -1.391019e+01 8.363779e+00 1.059083e+01 -7.928098e+00 1.071798e+01 -4.110838e+00 -4.602247e+00 -2.516757e-01 -6.509945e+00 -2.601597e+00 6.735466e+00 -3.297685e-01 6.295665e+01 -2.338477e-01 -2.344802e-01 -2.596940e-02 2.814136e-01 -7.929192e-02 3.226724e-02 2.266052e-03 8.771440e-02 1.416137e-01 2.829171e-01 1.147864e-02 -2.230535e-01 -7.744366e-02 6.960244e-01 -2.372027e-01 -3.433328e-01 3.096953e-01 -5.499200e-01 2.962505e-02 4.382018e-02 -9.253924e-02 6.058418e-02 1.182890e-01 -1.832829e-01 1.014671e-01 -5.142277e-02
<VARIANCE> 39
 4.706749e+01 1.444221e+01 2.771788e+01 3.787281e+01 3.114826e+01 3.647224e+01 2.207711e+01 2.805942e+01 2.113326e+01 2.786896e+01 2.139775e+01 1.893849e+01 9.563137e+00 8.075188e+00 1.615310e+00 2.823550e+00 2.664488e+00 4.132426e+00 1.867527e+00 2.040439e+00 2.318878e+00 2.182490e+00 2.163332e+00 2.118996e+00 1.675605e+00 7.887517e-01 9.933226e-01 2.927485e-01 4.520395e-01 4.225237e-01 5.606403e-01 3.275281e-01 4.278660e-01 4.069288e-01 4.576933e-01 4.495198e-01 4.413632e-01 3.142923e-01 1.281092e-01
<GCONST> 1.120813e+02
<STATE> 4
<MEAN> 39
 -1.147517e+01 7.046550e+00 9.262870e+00 -5.907942e+00 8.580325e+00 -3.994723e+00 -4.703204e+00 -6.043320e-01 -6.090377e+00 -1.610283e+00 6.270409e+00 -3.865094e-01 6.245600e+01 1.435681e+00 -6.221647e-01 -7.183822e-01 8.060732e-01 -1.244625e+00 3.924118e-02 2.823357e-02 -3.220699e-01 2.386009e-01 4.078968e-01 -4.841870e-01 6.560160e-02 -1.352273e-01 2.242984e-01 -5.314870e-02 -1.102597e-01 5.881460e-02 -2.049221e-01 -1.450594e-02 5.502126e-02 -6.624630e-02 3.430485e-03 -8.048038e-04 -1.980396e-01 3.771812e-02 -4.105755e-03
<VARIANCE> 39
 5.334999e+01 1.693237e+01 2.826547e+01 3.818420e+01 3.280899e+01 3.477621e+01 2.628266e+01 2.661911e+01 2.254739e+01 2.520468e+01 2.332396e+01 1.628351e+01 1.224336e+01 6.165453e+00 1.526384e+00 2.972773e+00 2.189474e+00 2.924939e+00 1.790018e+00 2.391179e+00 2.497180e+00 2.289981e+00 2.152652e+00 2.311718e+00 1.627922e+00 9.849291e-01 1.140870e+00 3.069799e-01 4.806686e-01 3.874347e-01 5.618007e-01 3.263675e-01 4.275983e-01 4.257813e-01 4.200996e-01 4.168526e-01 4.160352e-01 3.032762e-01 1.635440e-01
<GCONST> 1.125549e+02
<TRANSP> 5
 0.000000e+00 1.000000e+00 0.000000e+00 0.000000e+00 0.000000e+00
 0.000000e+00 6.225078e-01 3.774922e-01 0.000000e+00 0.000000e+00
 0.000000e+00 0.000000e+00 6.026656e-01 3.973345e-01 0.000000e+00
 0.000000e+00 0.000000e+00 0.000000e+00 6.696248e-01 3.303752e-01
 0.000000e+00 0.000000e+00 0.000000e+00 0.000000e+00 0.000000e+00
<ENDHMM>
~h "aa"
<BEGINHMM>
<NUMSTATES> 5
<STATE> 2
<MEAN> 39
 -5.218716e-01 3.119901e+00 -4.400543e+00 -1.244128e+01 4.469241e+00 -7.688366e-01 1.330908e+00 5.973592e+00 -8.005263e+00 1.255537e+00 5.070261e+00 -2.914765e-01 6.496021e+01 4.226472e-01 9.078311e-02 -5.590574e-01 -1.099118e+00 3.000554e-01 7.943636e-02 1.250995e-01 8.651507e-01 -6.177064e-01 -1.063486e-01 1.001343e-01 1.772042e-02 3.378788e-01 -2.000168e-01 2.574569e-02 2.319038e-01 2.896932e-01 -5.726680e-02 -1.010387e-02 -3.273362e-02 -1.307319e-01 3.903289e-02 -9.390041e-02 5.705269e-03 5.350870e-03 -1.831413e-01
<VARIANCE> 39
 1.249836e+01 1.308862e+01 1.701075e+01 3.001219e+01 2.530502e+01 1.987809e+01 2.562418e+01 3.474832e+01 2.964838e+01 2.038471e+01 1.865038e+01 1.894781e+01 1.360448e+01 1.498436e+00 1.038630e+00 1.787190e+00 2.978568e+00 2.186965e+00 1.444628e+00 1.677696e+00 2.244088e+00 2.158546e+00 1.434008e+00 1.560983e+00 1.117931e+00 1.149057e+00 2.140204e-01 1.872718e-01 2.570907e-01 4.269979e-01 3.735590e-01 2.507676e-01 3.194191e-01 3.767822e-01 3.640623e-01 2.615236e-01 3.091706e-01 2.003750e-01 1.405574e-01
<GCONST> 1.003139e+02
<STATE> 3
<MEAN> 39
 -2.271736e-01 3.556160e+00 -4.613758e+00 -1.348627e+01 4.849790e+00 -5.008380e-01 1.441391e+00 7.048879e+00 -8.952330e+00 8.201415e-01 5.209152e+00 -2.570559e-01 6.493829e+01 -6.952050e-02 2.101497e-01 1.877778e-01 5.574141e-02 -1.537378e-02 9.117080e-02 4.393414e-02 1.457527e-01 -1.869086e-01 -2.155835e-01 2.910058e-02 6.261496e-02 -2.402100e-01 -1.692832e-01 2.293528e-02 2.104698e-01 3.388210e-01 -8.262664e-02 5.343931e-04 -2.181019e-02 -2.297795e-01 1.555139e-01 -2.651027e-02 -4.629799e-02 1.833087e-03 -1.592963e-01
<VARIANCE> 39
 8.568809e+00 1.283470e+01 1.535899e+01 2.368349e+01 2.391224e+01 1.921726e+01 2.310241e+01 3.127946e+01 2.636897e+01 2.002888e+01 1.775988e+01 1.895830e+01 1.357577e+01 9.456496e-01 8.634305e-01 1.420658e+00 2.605884e+00 1.783549e+00 1.247245e+00 1.438863e+00 2.266469e+00 2.010090e+00 1.406021e+00 1.456152e+00 1.036042e+00 8.528003e-01 1.529712e-01 1.483061e-01 2.151648e-01 3.399635e-01 3.114904e-01 2.326062e-01 2.753794e-01 3.426370e-01 3.194807e-01 2.599836e-01 2.689023e-01 1.906343e-01 1.098558e-01
<GCONST> 9.500828e+01
<STATE> 4
<MEAN> 39
 -1.262993e+00 4.527567e+00 -2.871967e+00 -1.118779e+01 4.430030e+00 -1.105336e-02 1.461124e+00 5.911745e+00 -8.398852e+00 1.656514e-01 4.922905e+00 -1.178044e-02 6.307004e+01 -6.086839e-01 2.215691e-01 7.117463e-01 9.566779e-01 -2.127680e-01 6.375056e-02 -8.874795e-03 -5.347912e-01 3.331281e-01 -2.406650e-01 -1.977095e-01 3.954295e-02 -6.198413e-01 -1.887925e-01 -2.872265e-02 9.753426e-02 1.170545e-01 -2.229463e-02 -1.609561e-02 -1.655144e-02 -1.389561e-01 9.816295e-02 -2.247586e-04 -4.009514e-02 -3.643247e-02 -3.211851e-02
<VARIANCE> 39
 1.593684e+01 1.481846e+01 2.257087e+01 3.258204e+01 2.899262e+01 2.153425e+01 2.422852e+01 2.854215e+01 2.641951e+01 2.107481e+01 1.756601e+01 1.739495e+01 2.053858e+01 1.551535e+00 1.090174e+00 1.852585e+00 2.695182e+00 2.173071e+00 1.578327e+00 1.609114e+00 2.214525e+00 2.343131e+00 1.656713e+00 1.689011e+00 1.218908e+00 8.553777e-01 2.245690e-01 1.836037e-01 3.229679e-01 4.961961e-01 3.634860e-01 2.994705e-01 2.971287e-01 3.837112e-01 4.012626e-01 3.216642e-01 3.114733e-01 2.146229e-01 1.620560e-01
<GCONST> 1.023622e+02
<TRANSP> 5
 0.000000e+00 1.000000e+00 0.000000e+00 0.000000e+00 0.000000e+00
 0.000000e+00 7.403186e-01 2.596815e-01 0.000000e+00 0.000000e+00
 0.000000e+00 0.000000e+00 7.114754e-01 2.885246e-01 0.000000e+00
 0.000000e+00 0.000000e+00 0.000000e+00 7.865832e-01 2.134168e-01
 0.000000e+00 0.000000e+00 0.000000e+00 0.000000e+00 0.000000e+00
<ENDHMM>
~h "aw"
<BEGINHMM>
<NUMSTATES> 5
<STATE> 2
<MEAN> 39
 -1.172702e+01 -6.619036e-01 -3.207981e+00 -1.291985e+00 3.690859e+00 4.197448e+00 2.058783e-01 1.255830e+00 -4.846325e-01 4.150632e-01 3.473072e+00 1.252045e+00 5.156968e+01 -3.172347e-01 -2.026608e-01 8.067404e-03 9.844075e-02 -4.367942e-02 1.151442e-01 4.280647e-02 1.559358e-01 2.159642e-01 6.537221e-02 4.503789e-02 6.385952e-02 -2.242374e-01 3.257241e-03 6.355926e-02 5.270822e-02 -8.529657e-03 -5.763446e-02 -7.410743e-02 1.299190e-02 -2.521636e-02 -2.714392e-02 -2.014525e-02 -3.118781e-02 -5.234548e-02 3.207962e-03
<VARIANCE> 39
 1.043568e+01 3.506647e+01 2.143764e+01 1.675579e+01 1.668934e+01 1.894693e+01 2.453416e+01 1.896061e+01 1.012467e+01 1.213792e+01 1.004553e+01 1.684622e+01 1.320240e+01 3.619646e-01 8.959316e-01 8.688786e-01 1.269249e+00 1.296041e+00 1.984810e+00 1.677148e+00 2.083835e+00 1.187571e+00 1.488745e+00 9.370784e-01 1.554516e+00 4.850061e-01 5.426373e-02 1.195266e-01 1.849857e-01 2.611480e-01 2.226547e-01 3.599052e-01 3.050308e-01 4.389217e-01 2.034671e-01 2.548389e-01 2.219903e-01 3.817913e-01 6.021985e-02
<GCONST> 8.843550e+01
<STATE> 3
<MEAN> 39
 -1.423447e+01 1.912817e+00 -9.972514e-01 1.018522e+00 3.027238e+00 5.778806e+00 2.772086e+00 2.493565e+00 1.194171e+00 2.139895e+00 3.086384e+00 2.279596e+00 4.842014e+01 -2.349593e-01 1.066772e-01 2.943410e-01 1.524851e-01 -1.792632e-03 2.526454e-02 2.261816e-01 2.738962e-01 7.884640e-02 1.529873e-02 -6.493258e-03 -5.777980e-02 -2.191367e-01 9.161613e-02 -3.736402e-02 -3.101802e-03 -1.286058e-01 -4.645318e-02 -7.333634e-02 -9.751666e-03 3.083158e-02 -6.017933e-02 -3.342833e-02 -3.026916e-02 -3.929371e-02 1.385133e-01
<VARIANCE> 39
 8.292783e+00 1.374821e+01 1.378237e+01 1.207223e+01 9.431273e+00 1.408297e+01 1.380744e+01 1.693403e+01 1.164716e+01 1.493457e+01 1.324434e+01 1.253908e+01 6.966494e+00 3.184829e-01 7.831481e-01 1.009310e+00 1.403582e+00 8.850107e-01 1.269962e+00 1.030093e+00 1.877440e+00 1.196727e+00 2.089503e+00 1.312448e+00 1.639721e+00 4.100572e-01 7.698937e-02 1.328738e-01 1.931716e-01 3.514978e-01 1.721628e-01 2.782460e-01 1.667879e-01 3.081973e-01 1.663485e-01 3.471028e-01 3.800916e-01 3.757661e-01 1.685193e-01
<GCONST> 8.475370e+01
<STATE> 4
<MEAN> 39
 -1.517987e+01 1.979163e+00 -6.998006e-02 1.205408e+00 3.000194e+00 6.006525e+00 4.385673e+00 4.274214e+00 2.042331e+00 2.457061e+00 3.083740e+00 2.970069e+00 4.771706e+01 6.372082e-01 -3.994876e-02 1.542521e-01 -7.988219e-01 -4.885537e-01 -1.453777e-01 4.279746e-02 2.599035e-01 -6.164597e-01 -4.623937e-01 1.458988e-01 -1.227006e-01 7.474840e-01 3.369100e-01 -4.800885e-02 -7.230087e-03 -2.688421e-01 -2.096349e-01 -1.045378e-01 -1.295887e-01 -1.045128e-01 -2.987749e-01 -6.272780e-02 6.260274e-02 -6.014057e-02 4.287912e-01
<VARIANCE> 39
 7.747519e+00 4.663936e+00 4.399986e+00 1.320147e+01 1.027220e+01 8.685346e+00 1.160190e+01 9.960719e+00 1.074720e+01 1.180436e+01 1.134824e+01 9.999592e+00 6.152348e+00 1.843170e+00 1.481814e+00 1.006899e+00 5.361617e+00 2.334933e+00 1.217959e+00 1.251157e+00 2.381377e+00 2.163644e+00 1.818148e+00 2.588188e+00 1.505425e+00 2.473736e+00 2.153541e-01 1.760850e-01 1.699325e-01 5.536803e-01 3.522481e-01 3.011345e-01 1.309035e-01 2.663778e-01 3.331389e-01 4.199437e-01 3.662655e-01 2.511667e-01 2.982313e-01
<GCONST> 9.162371e+01
<TRANSP> 5
 0.000000e+00 1.000000e+00 0.000000e+00 0.000000e+00 0.000000e+00
 0.000000e+00 9.333096e-01 6.669045e-02 0.000000e+00 0.000000e+00
 0.000000e+00 0.000000e+00 8.387568e-01 1.612432e-01 0.000000e+00
 0.000000e+00 0.000000e+00 0.000000e+00 8.284490e-01 1.715511e-01
 0.000000e+00 0.000000e+00 0.000000e+00 0.000000e+00 0.000000e+00
<ENDHMM>
~h "ch"
<BEGINHMM>
<NUMSTATES> 5
<STATE> 2
<MEAN> 39
 -1.594525e+01 -3.024464e+00 1.099322e+01 1.500340e+00 -2.132489e-01 -4.862877e+00 2.712948e+00 -4.306018e+00 -4.367377e+00 -1.287494e+00 2.297893e+00 -2.090605e+00 5.945779e+01 -2.036522e+00 -1.907804e+00 1.383420e+00 -1.175958e-02 -5.350528e-02 -1.622085e+00 1.069386e+00 1.839918e-01 1.629013e-01 -1.281750e-01 2.663122e-01 -2.032523e-01 1.194106e+00 2.364234e-01 1.452605e-01 -8.822649e-02 9.340751e-02 1.979240e-01 -9.124908e-02 -2.348628e-01 1.770714e-01 1.288137e-01 7.064382e-02 -3.088249e-03 9.670675e-02 2.421540e-02
<VARIANCE> 39
 4.191949e+01 4.324397e+01 4.370979e+01 2.724988e+01 3.524474e+01 5.838366e+01 3.494954e+01 3.265870e+01 2.724499e+01 2.458238e+01 1.529273e+01 1.532951e+01 2.813793e+01 4.024338e+00 3.847034e+00 3.770604e+00 2.604470e+00 3.486478e+00 5.124455e+00 3.507003e+00 2.966376e+00 2.293353e+00 2.170666e+00 1.418800e+00 1.426540e+00 2.701042e+00 8.775725e-01 8.313559e-01 8.199118e-01 5.243424e-01 6.653831e-01 1.142371e+00 6.916234e-01 5.435038e-01 4.712899e-01 4.488263e-01 3.052796e-01 2.951303e-01 6.777696e-01
<GCONST> 1.230245e+02
<STATE> 3
<MEAN> 39
 -1.972956e+01 -6.806284e+00 1.368343e+01 1.884820e+00 5.006864e-01 -9.242551e+00 3.938391e+00 -2.719227e+00 -3.325178e+00 -1.364159e+00 2.964572e+00 -1.949708e+00 6.202975e+01 -2.793396e-01 -5.502655e-01 3.738121e-01 1.862900e-01 3.291217e-01 -8.134212e-01 -9.677912e-02 6.421731e-01 5.414467e-01 1.189729e-01 1.242018e-01 1.722086e-01 3.841537e-01 7.283279e-01 5.703971e-01 -4.196658e-01 3.067615e-02 3.891616e-02 4.767655e-01 -3.536847e-01 1.253148e-02 4.668222e-02 1.121441e-01 -6.867155e-02 9.974547e-02 -3.237099e-01
<VARIANCE> 39
 3.083387e+01 2.639237e+01 3.357774e+01 2.248197e+01 2.904841e+01 5.410153e+01 2.942830e+01 2.951914e+01 2.325739e+01 2.585333e+01 1.693243e+01 1.488507e+01 2.111269e+01 7.230909e+00 4.697805e+00 4.082340e+00 2.133538e+00 2.650313e+00 6.766231e+00 3.564678e+00 2.794292e+00 2.135160e+00 2.173138e+00 1.570913e+00 1.459379e+00 2.845580e+00 9.241939e-01 5.880876e-01 6.470122e-01 4.192249e-01 5.294820e-01 1.108950e+00 5.776133e-01 5.855284e-01 4.306424e-01 4.166393e-01 3.219935e-01 2.885974e-01 5.011511e-01
<GCONST> 1.200804e+02
<STATE> 4
<MEAN> 39
 -1.714020e+01 -5.617693e+00 1.280478e+01 2.491626e+00 1.335577e+00 -8.981221e+00 2.071137e+00 -6.537136e-01 -1.384642e+00 -5.075400e-01 2.917875e+00 -1.083180e+00 6.129053e+01 1.746260e+00 1.155201e+00 -7.136083e-01 1.451333e-01 1.490749e-01 8.458036e-01 -8.065141e-01 2.215583e-01 3.299536e-01 3.721325e-01 -1.494372e-01 2.629661e-01 -4.097849e-01 2.407073e-01 2.997871e-01 -1.679609e-01 -9.666718e-02 -4.171458e-02 2.934398e-01 -4.777148e-02 -1.550218e-01 -1.929117e-01 9.102807e-03 -2.266662e-03 -5.299558e-03 -2.518070e-02
<VARIANCE> 39
 4.949928e+01 2.783077e+01 2.824181e+01 2.043561e+01 2.531509e+01 4.926938e+01 3.313792e+01 2.735978e+01 1.992300e+01 2.420971e+01 1.872004e+01 1.348596e+01 1.899973e+01 6.222187e+00 3.542775e+00 2.586725e+00 2.123182e+00 2.252182e+00 5.285087e+00 3.160633e+00 2.945164e+00 2.145111e+00 2.044878e+00 1.893527e+00 1.443602e+00 1.971098e+00 1.287099e+00 5.881778e-01 4.760658e-01 3.818596e-01 4.545231e-01 9.335938e-01 5.923377e-01 5.563720e-01 4.093127e-01 3.733195e-01 3.844836e-01 3.073850e-01 4.353637e-01
<GCONST> 1.177268e+02
<TRANSP> 5
 0.000000e+00 1.000000e+00 0.000000e+00 0.000000e+00 0.000000e+00
 0.000000e+00 6.905919e-01 3.094081e-01 0.000000e+00 0.000000e+00
 0.000000e+00 0.000000e+00 6.722761e-01 3.277239e-01 0.000000e+00
 0.000000e+00 0.000000e+00 0.000000e+00 7.562258e-01 2.437743e-01
 0.000000e+00 0.000000e+00 0.000000e+00 0.000000e+00 0.000000e+00
<ENDHMM>
~h "dj"
<BEGINHMM>
<NUMSTATES> 5
<STATE> 2
<MEAN> 39
 -6.851338e+00 4.036108e+00 9.349921e+00 2.618395e+00 2.661668e-01 3.975890e-01 -5.156617e+00 -6.995023e+00 -5.642057e+00 -3.539059e-01 -4.241441e-01 -3.375657e+00 5.921443e+01 -1.881921e-01 -3.380884e-01 1.327838e+00 5.358171e-01 -4.758445e-01 -4.334904e-01 -3.632731e-01 -5.036189e-01 4.987952e-02 2.168143e-01 -6.796279e-02 -7.002972e-01 4.505030e-01 8.714005e-02 4.795567e-02 -2.201611e-02 1.501651e-01 8.764994e-03 -1.474065e-01 1.265579e-01 7.891824e-02 1.191915e-01 -2.685926e-02 3.031007e-02 7.130237e-02 -1.359117e-02
<VARIANCE> 39
 4.535874e+01 2.231615e+01 6.956424e+01 4.823806e+01 3.815833e+01 3.949736e+01 3.844614e+01 4.208177e+01 2.109066e+01 3.966506e+01 2.202785e+01 3.040526e+01 2.440304e+01 3.938502e+00 2.599746e+00 5.563641e+00 5.474132e+00 4.092506e+00 6.683167e+00 5.433085e+00 4.757354e+00 2.827533e+00 4.267544e+00 2.487419e+00 3.125940e+00 2.530090e+00 8.636896e-01 4.889936e-01 1.283992e+00 1.240681e+00 8.887012e-01 1.590943e+00 1.174984e+00 9.350426e-01 6.014785e-01 8.911649e-01 5.120546e-01 7.195812e-01 5.392255e-01
<GCONST> 1.334309e+02
<STATE> 3
<MEAN> 39
 -7.978104e+00 3.035401e+00 1.296782e+01 3.387039e+00 -1.627675e+00 -9.225053e-01 -4.463128e+00 -7.117749e+00 -5.203472e+00 -4.444123e-01 6.238437e-01 -4.074008e+00 6.021708e+01 2.689530e-01 -2.404165e-01 2.883548e-01 6.589337e-01 4.228942e-02 -9.158690e-01 -7.582004e-02 -1.093747e-01 1.459912e-01 5.436905e-03 1.315092e-02 -1.275582e-01 3.913469e-01 1.934562e-01 6.978960e-02 -4.588865e-01 1.378001e-02 1.906349e-01 -2.133735e-02 -4.245075e-02 -1.037908e-02 4.826516e-02 -2.976016e-02 -5.424911e-02 1.601025e-01 -8.088185e-02
<VARIANCE> 39
 3.763655e+01 2.040878e+01 5.173886e+01 4.532276e+01 2.966310e+01 4.145918e+01 3.384908e+01 3.578859e+01 1.692491e+01 2.652485e+01 1.896016e+01 2.586703e+01 1.639980e+01 5.273420e+00 2.232462e+00 6.192343e+00 5.323760e+00 4.026988e+00 6.892972e+00 4.170165e+00 4.337890e+00 1.929995e+00 3.153928e+00 2.242247e+00 2.621462e+00 2.371420e+00 1.017429e+00 4.921912e-01 9.984734e-01 1.122706e+00 7.748312e-01 1.556195e+00 8.606736e-01 8.527276e-01 3.905164e-01 6.490826e-01 4.552431e-01 4.984838e-01 4.873447e-01
<GCONST> 1.277418e+02
<STATE> 4
<MEAN> 39
 -6.686535e+00 2.156050e+00 1.133604e+01 4.723018e+00 -1.082452e+00 -3.536671e+00 -4.599068e+00 -6.935006e+00 -4.739306e+00 -6.506395e-01 3.401140e-01 -3.564090e+00 6.088228e+01 4.844068e-01 -1.794391e-02 -8.282646e-01 3.467441e-01 4.150127e-01 -5.080341e-01 -2.588420e-01 -1.112831e-01 2.121139e-01 -1.579941e-01 -1.682796e-01 2.251078e-01 -1.753703e-02 -5.857668e-02 9.677912e-02 -2.505293e-01 -2.777421e-01 -4.038306e-03 3.103869e-01 8.146834e-02 2.887968e-02 -5.234509e-02 -6.986823e-02 5.856109e-03 1.090641e-01 -1.699727e-01
<VARIANCE> 39
 3.435683e+01 2.274149e+01 5.830358e+01 3.753180e+01 2.887554e+01 4.030210e+01 2.982194e+01 3.026868e+01 1.827160e+01 2.426097e+01 1.549730e+01 2.063909e+01 1.773351e+01 5.026608e+00 2.485502e+00 5.168031e+00 5.048724e+00 3.736262e+00 5.901937e+00 3.331941e+00 3.877375e+00 1.908873e+00 2.556535e+00 1.937056e+00 2.589540e+00 2.431386e+00 1.034365e+00 4.980428e-01 8.604029e-01 8.900166e-01 7.382735e-01 1.307189e+00 7.591592e-01 7.777123e-01 3.990099e-01 5.618560e-01 3.707591e-01 4.687527e-01 4.422614e-01
<GCONST> 1.246028e+02
<TRANSP> 5
 0.000000e+00 1.000000e+00 0.000000e+00 0.000000e+00 0.000000e+00
 0.000000e+00 7.587146e-01 2.412854e-01 0.000000e+00 0.000000e+00
 0.000000e+00 0.000000e+00 6.624898e-01 3.375102e-01 0.000000e+00
 0.000000e+00 0.000000e+00 0.000000e+00 6.960336e-01 3.039665e-01
 0.000000e+00 0.000000e+00 0.000000e+00 0.000000e+00 0.000000e+00
<ENDHMM>
~h "ee"
<BEGINHMM>
<NUMSTATES> 5
<STATE> 2
<MEAN> 39
 -8.889138e-01 1.333265e+00 -1.478493e+00 -3.320843e+00 2.404323e+00 -5.217729e+00 -4.547722e+00 -5.485272e-01 -4.781811e-01 4.356093e+00 1.294716e+00 -2.082295e-02 6.444574e+01 3.558490e-01 1.612861e-01 -1.730180e-01 -1.116887e-01 2.108365e-02 1.509792e-01 4.274258e-02 -1.429961e-01 1.985110e-02 2.813928e-01 4.273124e-02 -3.362818e-02 1.293689e-01 -2.753201e-01 1.308948e-01 1.301154e-01 6.126428e-02 1.147169e-01 1.377212e-01 1.085018e-01 6.169042e-02 -1.322160e-01 -2.144654e-01 1.496162e-01 1.176167e-02 -3.161772e-01
<VARIANCE> 39
 1.440957e+01 1.558309e+01 1.559247e+01 2.862856e+01 2.202901e+01 2.093900e+01 3.459787e+01 2.284387e+01 3.393806e+01 2.530612e+01 2.807605e+01 1.660997e+01 1.697997e+01 1.794172e+00 1.317231e+00 1.342800e+00 1.802787e+00 1.966808e+00 1.730992e+00 1.382021e+00 1.797292e+00 1.878447e+00 1.919350e+00 1.623390e+00 1.176417e+00 1.952882e+00 2.438543e-01 2.523074e-01 2.680382e-01 3.249843e-01 3.097440e-01 2.807404e-01 2.386592e-01 3.409507e-01 3.236546e-01 2.995883e-01 3.196592e-01 2.247560e-01 2.544638e-01
<GCONST> 1.016941e+02
<STATE> 3
<MEAN> 39
