~o
<STREAMINFO> 1 39
<VECSIZE> 39<NULLD><MFCC_D_A_0><DIAGC>
~s "silst"
<MEAN> 39
 -1.287136e+01 1.434009e+00 -2.477019e-01 1.853652e+00 3.152085e+00 3.082002e+00 2.036480e-01 2.291526e+00 1.621477e+00 1.370378e+00 1.835747e+00 7.084708e-01 4.998137e+01 -2.492769e-01 -1.677104e-01 -8.869109e-02 -1.059745e-02 2.847729e-03 5.550766e-02 4.622677e-02 8.281933e-02 9.501088e-02 9.747022e-02 5.031560e-02 2.915851e-02 -1.535778e-01 3.504165e-02 -6.361722e-03 3.223586e-02 -3.281757e-02 5.734186e-03 -1.681780e-02 -6.012075e-03 -1.419735e-02 -3.026559e-02 -1.227266e-02 1.758650e-02 2.963266e-03 7.873667e-02
<VARIANCE> 39
 6.949542e+00 2.311686e+01 1.535070e+01 1.363379e+01 9.868641e+00 1.376412e+01 1.951906e+01 1.827859e+01 1.711579e+01 1.716446e+01 1.631938e+01 1.300550e+01 5.230147e+00 2.376615e-01 7.514708e-01 6.960084e-01 8.784928e-01 8.487549e-01 1.117257e+00 1.421858e+00 1.400243e+00 1.391119e+00 1.375647e+00 1.338746e+00 1.184094e+00 2.609912e-01 4.993245e-02 1.188242e-01 1.314745e-01 1.819353e-01 1.848329e-01 2.352597e-01 2.788226e-01 2.963512e-01 2.768675e-01 2.806986e-01 2.659751e-01 2.445159e-01 5.706778e-02
<GCONST> 8.113108e+01
~h "a"
<BEGINHMM>
<NUMSTATES> 5
<STATE> 2
<MEAN> 39
 -2.697659e+00 1.280385e+00 -1.891408e+00 -7.444396e+00 1.752478e+00 -1.482375e+00 9.921894e-02 9.369002e-01 -5.163098e+00 2.950994e+00 3.642205e+00 1.004882e+00 6.312040e+01 1.242511e+00 2.045550e-01 -7.906872e-01 -1.227056e+00 1.694008e-01 4.529750e-02 -1.879842e-02 5.794945e-01 -7.028955e-01 1.433680e-01 7.249405e-02 2.483308e-01 8.902260e-01 -4.412703e-01 1.823709e-01 4.362071e-01 4.178223e-01 3.196157e-02 4.449479e-02 1.133843e-02 -2.136978e-02 -1.103812e-01 -3.512412e-01 4.831104e-02 -9.656154e-02 -4.320068e-01
<VARIANCE> 39
 4.088682e+01 2.253300e+01 2.000622e+01 4.597574e+01 3.055049e+01 2.382846e+01 3.336480e+01 3.778732e+01 3.590004e+01 2.912105e+01 2.106790e+01 2.038889e+01 3.257912e+01 3.486841e+00 2.268002e+00 2.335368e+00 4.360141e+00 3.023246e+00 2.169156e+00 2.714342e+00 3.529323e+00 3.179124e+00 2.735073e+00 2.876248e+00 2.363444e+00 2.560823e+00 6.278784e-01 4.505506e-01 4.036133e-01 6.655188e-01 4.942363e-01 3.691209e-01 4.403119e-01 5.667486e-01 5.532223e-01 5.229851e-01 4.853148e-01 4.334278e-01 4.375413e-01
<GCONST> 1.198117e+02
<STATE> 3
<MEAN> 39
 -1.809731e-01 3.347857e+00 -2.331313e+00 -1.012626e+01 1.972686e+00 -9.873909e-01 2.514880e-01 2.753300e+00 -8.046607e+00 1.861967e+00 4.862084e+00 1.049105e+00 6.403001e+01 -3.513441e-01 7.035415e-01 6.321219e-01 6.872476e-01 4.935906e-02 4.058393e-01 2.403654e-01 -5.102153e-02 -3.043282e-01 -6.860378e-01 -9.629265e-03 -7.785679e-02 -8.907418e-01 -5.143579e-01 4.446476e-02 3.693230e-01 6.893641e-01 -1.671182e-01 1.741127e-02 1.566698e-01 -2.864375e-01 2.165114e-01 -2.487900e-01 -1.538976e-01 -1.206317e-01 -4.939976e-01
<VARIANCE> 39
 1.059021e+01 1.480046e+01 1.892243e+01 4.071558e+01 2.585471e+01 1.999777e+01 3.603713e+01 3.930443e+01 3.476197e+01 2.254443e+01 2.281490e+01 2.061654e+01 1.342996e+01 1.249688e+00 1.274381e+00 1.604311e+00 3.150656e+00 2.479176e+00 2.088057e+00 2.063067e+00 3.018774e+00 2.672179e+00 2.219787e+00 1.958918e+00 1.514258e+00 1.585316e+00 3.199502e-01 2.423754e-01 3.909363e-01 5.634248e-01 4.477983e-01 3.614856e-01 4.296795e-01 5.708726e-01 5.178072e-01 4.039807e-01 4.294800e-01 3.225647e-01 2.465981e-01
<GCONST> 1.089478e+02
<STATE> 4
<MEAN> 39
 -5.318900e+00 4.116920e+00 -6.968168e-01 -4.255906e+00 2.487484e+00 2.483992e+00 1.419674e+00 1.355387e+00 -4.723082e+00 -2.147399e-01 3.600517e+00 8.171753e-01 5.721545e+01 -8.596497e-01 3.244996e-01 4.775550e-01 9.067835e-01 -3.754056e-01 9.532510e-02 2.689435e-01 -3.304544e-01 2.084412e-01 -4.928298e-01 -2.311303e-01 -9.920632e-02 -1.028320e+00 -1.053255e-01 -1.592699e-01 -4.074203e-02 -1.184678e-01 -7.618248e-02 -2.428010e-01 -7.463481e-02 7.581509e-04 5.908304e-02 1.082650e-01 2.089266e-02 -5.405813e-02 1.591145e-01
<VARIANCE> 39
 2.896941e+01 2.222975e+01 2.284761e+01 2.819024e+01 3.162365e+01 3.150109e+01 3.406750e+01 2.507862e+01 3.285155e+01 2.180766e+01 1.829930e+01 1.651353e+01 2.575769e+01 1.729607e+00 1.282634e+00 1.946907e+00 2.952000e+00 2.822993e+00 2.047683e+00 1.796638e+00 2.318423e+00 2.781882e+00 2.054620e+00 2.056710e+00 1.457946e+00 1.596357e+00 3.110539e-01 2.136314e-01 3.344614e-01 4.334663e-01 4.241550e-01 3.925250e-01 3.260968e-01 4.575751e-01 3.701310e-01 4.019065e-01 3.315302e-01 2.691858e-01 2.279231e-01
<GCONST> 1.086987e+02
<TRANSP> 5
 0.000000e+00 1.000000e+00 0.000000e+00 0.000000e+00 0.000000e+00
 0.000000e+00 4.148774e-01 5.851226e-01 0.000000e+00 0.000000e+00
 0.000000e+00 0.000000e+00 5.144042e-01 4.855958e-01 0.000000e+00
 0.000000e+00 0.000000e+00 0.000000e+00 5.364346e-01 4.635654e-01
 0.000000e+00 0.000000e+00 0.000000e+00 0.000000e+00 0.000000e+00
<ENDHMM>
~h "b"
<BEGINHMM>
<NUMSTATES> 5
<STATE> 2
<MEAN> 39
 -3.333636e+00 1.150439e+01 5.096797e+00 3.247956e+00 1.492359e+00 5.984265e-01 -1.748786e+00 -3.047107e+00 -5.819797e+00 -5.114925e+00 -1.778518e+00 4.618002e-01 5.414855e+01 -5.018778e-01 8.869218e-01 7.727591e-01 6.509811e-01 8.933422e-02 1.559006e-01 -5.262214e-02 1.728877e-01 1.099385e-01 -4.700694e-01 -4.870856e-01 -4.163809e-01 -8.884994e-01 -1.550379e-01 -6.383322e-01 -2.108294e-01 -1.959525e-01 -9.940660e-02 -2.047397e-01 -3.498466e-02 -6.664158e-02 1.650516e-01 4.241301e-01 2.690031e-01 -6.003651e-02 3.180473e-01
<VARIANCE> 39
 1.494337e+01 9.718034e+00 1.605923e+01 1.662616e+01 1.388943e+01 1.315763e+01 2.021460e+01 2.126449e+01 1.849440e+01 1.115256e+01 1.148988e+01 1.157815e+01 7.151706e+00 1.375330e+00 1.030085e+00 9.839739e-01 1.119429e+00 1.501922e+00 1.396869e+00 1.287352e+00 1.651395e+00 1.700487e+00 1.419065e+00 1.300400e+00 1.465109e+00 8.699965e-01 1.133747e-01 2.570880e-01 1.680944e-01 2.731000e-01 2.403912e-01 2.597699e-01 2.685127e-01 2.871003e-01 3.224528e-01 2.783828e-01 2.536849e-01 2.685069e-01 9.468979e-02
<GCONST> 8.962077e+01
<STATE> 3
<MEAN> 39
 -5.027208e+00 1.078372e+01 4.957492e+00 4.016969e+00 1.275338e+00 7.573864e-01 -1.913018e+00 -4.651967e+00 -5.810598e+00 -4.576456e+00 -1.743344e+00 3.933200e-01 5.279297e+01 -9.548742e-01 -1.134783e+00 -1.011824e-01 -2.242490e-01 1.082325e-01 -3.781242e-02 -1.824993e-01 3.252206e-01 2.957708e-01 6.122376e-01 6.944447e-01 -4.265001e-01 -7.112430e-03 2.571628e-01 -8.672328e-01 -3.586108e-01 -5.140353e-01 1.171853e-03 -1.506966e-01 8.690382e-02 1.367801e-01 -2.062222e-01 3.855663e-01 5.457815e-01 1.788204e-01 8.577370e-01
<VARIANCE> 39
 1.022807e+01 1.207504e+01 1.600842e+01 1.738982e+01 1.133647e+01 1.315283e+01 1.864395e+01 2.019506e+01 1.983126e+01 1.728715e+01 1.709439e+01 1.454223e+01 4.113951e+00 6.739088e-01 1.479391e+00 7.364679e-01 1.116441e+00 1.041280e+00 1.264928e+00 1.368158e+00 1.531998e+00 1.536749e+00 1.422754e+00 1.569850e+00 1.344213e+00 8.994504e-01 1.363447e-01 2.453649e-01 2.661874e-01 3.017389e-01 2.517309e-01 3.812398e-01 3.670346e-01 2.623162e-01 3.645645e-01 3.484744e-01 3.584151e-01 3.630223e-01 8.221661e-02
<GCONST> 9.086079e+01
<STATE> 4
<MEAN> 39
 -7.115403e+00 4.896406e+00 3.913476e+00 1.749357e+00 2.250313e+00 1.080246e+00 -1.770213e+00 -1.862710e+00 -5.839373e+00 -2.308889e+00 2.357871e+00 -3.159219e-01 5.551855e+01 7.106960e-01 -2.211972e+00 -8.157303e-01 -1.343234e+00 -7.649922e-02 -5.451784e-01 3.755991e-01 3.846148e-01 -4.837254e-01 1.019751e+00 1.329344e+00 3.294756e-01 2.314409e+00 7.623482e-01 2.970971e-01 -1.016572e-01 -4.548281e-02 -3.258576e-01 -3.881139e-01 1.337060e-01 -3.628924e-01 -3.047739e-01 1.889572e-02 -3.386472e-01 2.076835e-01 4.110314e-01
<VARIANCE> 39
 1.141604e+01 2.854043e+01 1.242047e+01 2.489923e+01 1.518483e+01 1.455559e+01 2.013335e+01 2.136660e+01 1.573079e+01 1.836807e+01 2.564452e+01 1.315828e+01 1.975720e+01 2.331676e+00 3.034005e+00 2.324314e+00 4.051365e+00 2.581650e+00 3.148656e+00 3.610034e+00 2.697059e+00 3.603096e+00 2.671858e+00 3.242816e+00 1.873537e+00 1.111606e+00 1.886352e-01 5.943117e-01 2.980254e-01 5.872033e-01 3.150790e-01 3.767478e-01 5.179064e-01 4.623638e-01 5.724984e-01 3.355658e-01 6.601940e-01 4.066251e-01 3.126213e-01
<GCONST> 1.102570e+02
<TRANSP> 5
 0.000000e+00 1.000000e+00 0.000000e+00 0.000000e+00 0.000000e+00
 0.000000e+00 5.750949e-01 4.249052e-01 0.000000e+00 0.000000e+00
 0.000000e+00 0.000000e+00 5.196527e-01 4.803472e-01 0.000000e+00
 0.000000e+00 0.000000e+00 0.000000e+00 5.529870e-01 4.470130e-01
 0.000000e+00 0.000000e+00 0.000000e+00 0.000000e+00 0.000000e+00
<ENDHMM>
~h "c"
<BEGINHMM>
<NUMSTATES> 5
<STATE> 2
<MEAN> 39
 -1.560057e+01 8.741883e+00 5.139427e+00 -7.632737e+00 6.111191e+00 -1.390851e+00 -3.002646e+00 9.361355e-01 -7.109210e+00 -3.449005e+00 2.274402e+00 -2.332570e+00 5.810115e+01 -3.882612e+00 3.685226e-01 5.138598e-01 -1.898792e+00 1.263741e+00 -4.783885e-01 -7.649283e-01 3.256327e-02 2.867552e-01 -3.735223e-02 1.470585e-01 -7.165111e-01 1.275076e+00 7.927041e-02 -2.205578e-01 1.053039e-02 7.401694e-02 6.139150e-03 -2.013484e-01 3.352159e-02 2.747928e-02 6.594348e-02 1.490387e-01 2.192981e-01 1.206223e-01 3.386386e-01
<VARIANCE> 39
 4.797905e+01 2.226181e+01 2.847908e+01 3.596381e+01 2.633664e+01 2.459880e+01 3.516655e+01 2.232840e+01 1.970434e+01 2.245669e+01 1.642971e+01 1.540261e+01 1.530622e+01 1.915218e+00 2.400181e+00 1.896590e+00 3.067784e+00 2.309277e+00 2.634413e+00 1.807479e+00 2.347041e+00 2.567225e+00 2.323849e+00 1.974156e+00 1.394164e+00 1.868470e+00 7.470406e-01 5.697570e-01 3.695773e-01 8.945799e-01 5.352816e-01 4.892878e-01 3.576607e-01 3.722117e-01 5.169492e-01 4.550516e-01 3.108917e-01 2.945065e-01 3.927954e-01
<GCONST> 1.129475e+02
<STATE> 3
<MEAN> 39
 -2.584781e+01 6.035280e+00 7.402616e+00 -1.089576e+01 1.036566e+01 -4.551092e+00 -4.631663e+00 1.933133e+00 -5.671882e+00 -2.775846e+00 4.723359e+00 -4.075041e+00 6.317962e+01 3.887288e-01 -1.514664e+00 -1.586911e-02 6.432553e-01 1.516909e-01 -5.123855e-01 3.121529e-01 3.742585e-01 3.663973e-01 3.239154e-01 7.757828e-01 -3.568061e-02 -1.055777e-01 1.176583e+00 1.326769e-02 -2.095803e-01 5.643374e-01 -3.380929e-01 2.568089e-01 1.981398e-01 -2.009402e-01 -1.483430e-02 1.004803e-01 -7.582343e-02 1.764307e-01 -5.729322e-01
<VARIANCE> 39
 1.468462e+01 2.893547e+01 2.068712e+01 2.232405e+01 2.184250e+01 2.789617e+01 2.531874e+01 2.586703e+01 2.180346e+01 1.519525e+01 1.969445e+01 1.485255e+01 5.414608e+00 3.524410e+00 1.774843e+00 1.245341e+00 2.339938e+00 2.452215e+00 1.832845e+00 1.744087e+00 1.617891e+00 1.705440e+00 1.557026e+00 1.417995e+00 1.454280e+00 1.456636e+00 3.592929e-01 5.734830e-01 2.186079e-01 3.575166e-01 3.773035e-01 3.960505e-01 2.902831e-01 4.552104e-01 3.557779e-01 3.132586e-01 3.420371e-01 2.759363e-01 1.652331e-01
<GCONST> 1.030429e+02
<STATE> 4
<MEAN> 39
 -1.618698e+01 2.458203e+00 4.923667e+00 -4.915168e+00 8.846389e+00 -2.388032e+00 -1.657738e+00 9.094869e-01 -4.104432e+00 -3.656191e-01 6.728473e+00 -2.227597e+00 5.822308e+01 3.158803e+00 9.275361e-01 -2.717557e-01 1.401453e+00 -9.087635e-01 7.503668e-01 4.441016e-01 -1.061268e+00 5.697658e-02 3.612953e-01 -4.173997e-01 7.212679e-01 -9.361392e-01 2.390172e-02 4.754551e-01 6.259787e-02 -2.983894e-01 -2.616530e-01 -1.105700e-01 -2.009392e-01 -2.062626e-01 -1.159722e-01 -1.333821e-01 -3.358544e-01 5.736681e-02 4.216727e-01
<VARIANCE> 39
 2.638203e+01 3.169297e+01 2.639893e+01 2.324494e+01 3.264100e+01 4.029942e+01 3.230866e+01 2.785710e+01 1.933934e+01 1.638383e+01 1.706460e+01 1.547147e+01 1.256545e+01 3.532906e+00 2.721662e+00 2.140924e+00 2.542972e+00 2.143251e+00 2.466096e+00 1.761905e+00 3.128881e+00 2.103550e+00 1.754631e+00 1.625451e+00 1.516911e+00 1.911020e+00 3.904208e-01 6.538023e-01 4.045556e-01 3.928110e-01 4.513768e-01 5.738642e-01 3.440393e-01 5.542229e-01 4.249963e-01 3.162485e-01 3.456570e-01 2.930554e-01 2.853736e-01
<GCONST> 1.110976e+02
<TRANSP> 5
 0.000000e+00 1.000000e+00 0.000000e+00 0.000000e+00 0.000000e+00
 0.000000e+00 7.290083e-01 2.709917e-01 0.000000e+00 0.000000e+00
 0.000000e+00 0.000000e+00 7.637970e-01 2.362030e-01 0.000000e+00
 0.000000e+00 0.000000e+00 0.000000e+00 6.394141e-01 3.605859e-01
 0.000000e+00 0.000000e+00 0.000000e+00 0.000000e+00 0.000000e+00
<ENDHMM>
~h "d"
<BEGINHMM>
<NUMSTATES> 5
<STATE> 2
<MEAN> 39
 -4.531547e+00 6.130448e+00 4.693716e+00 4.074980e+00 4.611745e-01 -1.215908e+00 -1.895883e+00 -5.091899e+00 -6.597937e+00 -1.751211e+00 6.667312e-01 2.719138e-01 5.609096e+01 -7.767691e-01 -1.599287e+00 2.900307e-01 3.919772e-01 -7.568736e-01 -3.020280e-01 7.512881e-01 4.421460e-01 2.524458e-01 2.270532e-01 -1.409010e-02 -8.405907e-01 1.943096e-01 1.661596e-01 -6.768730e-01 -1.676124e-01 -3.446518e-01 -8.855771e-02 -2.684251e-01 -3.742874e-02 -3.411901e-02 1.761431e-01 4.851399e-01 3.002668e-01 4.396569e-02 8.744675e-01
<VARIANCE> 39
 1.222330e+01 2.615007e+01 2.980302e+01 2.726914e+01 2.273513e+01 2.529568e+01 2.967641e+01 2.170388e+01 2.102311e+01 2.278115e+01 1.914962e+01 1.524881e+01 1.656222e+01 1.544273e+00 5.848022e+00 3.010797e+00 4.098749e+00 2.761632e+00 3.317684e+00 2.829868e+00 2.597241e+00 2.467705e+00 3.250856e+00 2.951074e+00 1.496750e+00 3.516190e+00 2.893095e-01 7.708034e-01 4.259089e-01 5.467333e-01 5.634730e-01 5.790896e-01 5.862529e-01 7.690441e-01 5.127029e-01 5.767338e-01 4.721106e-01 3.630367e-01 4.301468e-01
<GCONST> 1.166707e+02
<STATE> 3
<MEAN> 39
 -6.724983e+00 -4.928735e+00 5.178692e+00 3.526845e+00 -2.968325e+00 -4.430894e+00 1.428024e+00 -3.442427e+00 -5.151540e+00 1.872468e+00 2.557175e+00 -2.859380e+00 6.224509e+01 2.984923e-01 -1.224343e+00 2.490918e-02 -1.231236e-01 -4.247130e-01 -2.748483e-01 3.329292e-02 -4.569761e-01 5.903275e-01 1.010641e+00 7.588030e-01 9.656478e-02 1.470789e+00 7.270499e-01 1.133753e+00 -4.414502e-01 -2.696856e-01 4.309492e-01 1.991336e-01 -4.562533e-01 -3.356113e-01 -3.633781e-02 -7.011298e-02 -5.266512e-02 6.058787e-01 -7.210784e-02
<VARIANCE> 39
 1.602856e+01 3.595594e+01 4.451812e+01 3.580063e+01 3.644928e+01 3.802172e+01 3.750639e+01 2.939993e+01 2.602472e+01 1.973272e+01 2.547247e+01 1.645198e+01 1.502794e+01 2.166776e+00 4.642049e+00 2.942872e+00 3.132136e+00 2.409114e+00 3.774602e+00 3.551859e+00 4.036988e+00 3.107923e+00 3.910116e+00 2.717475e+00 2.149684e+00 3.272387e+00 3.569927e-01 8.057023e-01 9.513805e-01 9.622752e-01 7.689499e-01 9.199112e-01 6.738132e-01 8.810968e-01 6.324062e-01 5.894390e-01 5.683993e-01 4.486668e-01 4.846029e-01
<GCONST> 1.242051e+02
<STATE> 4
<MEAN> 39
 -3.033300e+00 -5.617942e-01 3.096644e+00 3.186687e+00 -2.140343e+00 -3.698488e+00 2.406503e-01 -7.539287e+00 -5.032431e+00 3.193891e+00 3.589818e+00 3.503535e-01 6.304088e+01 1.493187e+00 1.335310e+00 -8.823131e-01 -5.589217e-01 2.924291e-01 3.473312e-01 -4.522672e-01 -6.236497e-01 7.983670e-02 7.823385e-02 -1.147532e-01 8.759630e-01 4.331520e-01 4.819470e-02 5.168664e-01 -1.499781e-01 -1.792151e-01 2.370756e-01 1.011611e-01 -1.088486e-01 4.052584e-01 -1.723821e-01 -4.991521e-01 -2.715736e-01 4.651457e-02 -3.742728e-01
<VARIANCE> 39
 3.010650e+01 2.397664e+01 4.092086e+01 3.029009e+01 2.619141e+01 3.016441e+01 5.066136e+01 4.544205e+01 3.077915e+01 2.810223e+01 2.910697e+01 1.884836e+01 2.171929e+01 1.977690e+00 3.422554e+00 4.159141e+00 3.114236e+00 3.250664e+00 4.075776e+00 4.359853e+00 5.291289e+00 3.192596e+00 3.886412e+00 2.669995e+00 2.554236e+00 1.761667e+00 4.292847e-01 7.474462e-01 6.039485e-01 4.132586e-01 5.517374e-01 5.562488e-01 6.708139e-01 8.811513e-01 6.040673e-01 6.673882e-01 5.827520e-01 3.677432e-01 5.204871e-01
<GCONST> 1.238104e+02
<TRANSP> 5
 0.000000e+00 1.000000e+00 0.000000e+00 0.000000e+00 0.000000e+00
 0.000000e+00 4.875342e-01 5.124658e-01 0.000000e+00 0.000000e+00
 0.000000e+00 0.000000e+00 3.475661e-01 6.524339e-01 0.000000e+00
 0.000000e+00 0.000000e+00 0.000000e+00 3.682682e-01 6.317317e-01
 0.000000e+00 0.000000e+00 0.000000e+00 0.000000e+00 0.000000e+00
<ENDHMM>
~h "e"
<BEGINHMM>
<NUMSTATES> 5
<STATE> 2
<MEAN> 39
 -3.045560e+00 2.038448e+00 3.936424e+00 7.636252e-02 1.339560e+00 -6.119170e+00 -4.289184e+00 -3.038833e+00 -2.309761e+00 3.039289e+00 1.231514e+00 -3.193084e-01 6.326463e+01 1.809536e+00 6.145249e-01 -8.024721e-01 2.848169e-01 -4.577791e-01 1.221002e-01 -6.264908e-01 -8.696327e-01 1.981950e-02 2.960530e-01 -5.090494e-01 6.096942e-01 3.977994e-01 -8.350186e-01 1.890509e-02 3.338548e-01 -1.699289e-01 1.401780e-01 2.540183e-01 3.386919e-01 1.945840e-01 -3.041033e-01 -3.696159e-01 2.536860e-01 -8.538673e-02 -3.412978e-01
<VARIANCE> 39
 2.391841e+01 1.637814e+01 3.581892e+01 4.722042e+01 3.094284e+01 3.077670e+01 2.738180e+01 2.503493e+01 3.086764e+01 2.099731e+01 3.109395e+01 1.326965e+01 1.573118e+01 3.911484e+00 2.203601e+00 2.587219e+00 2.352085e+00 3.935277e+00 2.701772e+00 3.088586e+00 2.855804e+00 3.088694e+00 2.103959e+00 2.686916e+00 2.096938e+00 1.930001e+00 6.049553e-01 4.627861e-01 3.840432e-01 5.267017e-01 5.574084e-01 5.336211e-01 4.083035e-01 4.701577e-01 5.481670e-01 4.375465e-01 4.441443e-01 2.958236e-01 3.834653e-01
<GCONST> 1.163312e+02
<STATE> 3
<MEAN> 39
 -2.199845e+00 2.402553e+00 2.948056e+00 -5.966809e-01 1.140171e+00 -5.011126e+00 -4.841393e+00 -3.838284e+00 -2.621586e+00 3.119263e+00 1.740460e+00 5.105484e-01 6.323425e+01 -3.770310e-02 8.022050e-01 2.016922e-01 1.134790e-01 1.981439e-01 6.789625e-01 1.868558e-01 -4.919013e-02 -6.052102e-01 -6.029564e-01 2.777519e-01 1.983806e-01 -7.066987e-01 -8.394032e-01 -1.002331e-02 4.028019e-01 -5.745087e-02 1.815523e-01 8.538285e-02 3.773205e-01 3.376093e-01 -2.185929e-01 -3.989736e-01 1.778521e-01 -2.429103e-01 -3.451777e-01
<VARIANCE> 39
 1.977231e+01 1.450143e+01 3.642992e+01 4.518626e+01 2.790083e+01 2.787004e+01 3.006014e+01 3.202297e+01 3.912638e+01 2.282361e+01 3.241838e+01 1.990217e+01 1.455650e+01 2.339501e+00 1.387322e+00 2.026428e+00 2.211409e+00 3.771454e+00 2.262807e+00 2.121387e+00 2.214414e+00 2.468029e+00 1.824981e+00 2.064217e+00 1.455125e+00 1.606780e+00 6.403232e-01 3.586088e-01 4.295538e-01 5.014816e-01 6.281328e-01 4.528037e-01 4.751020e-01 5.430535e-01 6.171202e-01 4.024773e-01 4.298722e-01 3.969570e-01 2.867900e-01
<GCONST> 1.136288e+02
<STATE> 4
<MEAN> 39
 -4.171245e+00 4.442215e+00 4.325289e+00 -1.028846e-01 2.201411e+00 -3.051781e+00 -3.607652e+00 -3.282292e+00 -4.249086e+00 1.234062e+00 2.507993e+00 7.546224e-01 6.003832e+01 -1.012719e+00 6.803298e-01 5.624449e-01 1.187870e-01 3.319050e-01 6.458186e-01 6.191778e-01 3.862685e-01 -5.516344e-01 -1.017586e+00 1.381742e-01 -1.908108e-01 -1.046948e+00 -4.515662e-01 -2.745850e-01 6.185412e-02 -1.636299e-01 -5.096062e-02 -2.065793e-01 1.085120e-01 1.762994e-01 6.005437e-02 -3.897291e-02 -1.716687e-02 -1.883992e-01 1.483490e-01
<VARIANCE> 39
 2.262361e+01 1.609100e+01 3.498653e+01 4.105107e+01 3.268875e+01 2.798255e+01 3.077448e+01 2.771070e+01 3.386178e+01 2.007772e+01 2.850313e+01 1.672276e+01 1.962203e+01 2.793153e+00 1.520449e+00 2.151966e+00 2.666250e+00 4.097366e+00 2.251490e+00 1.913802e+00 2.359286e+00 3.014667e+00 2.078552e+00 2.302139e+00 1.668542e+00 1.662822e+00 4.737467e-01 2.499180e-01 3.392727e-01 3.771596e-01 5.336899e-01 3.980127e-01 4.484134e-01 4.055212e-01 4.528224e-01 3.442902e-01 3.752757e-01 2.649582e-01 2.483053e-01
<GCONST> 1.116853e+02
<TRANSP> 5
 0.000000e+00 1.000000e+00 0.000000e+00 0.000000e+00 0.000000e+00
 0.000000e+00 2.659189e-01 7.340811e-01 0.000000e+00 0.000000e+00
 0.000000e+00 0.000000e+00 2.150689e-01 7.849311e-01 0.000000e+00
 0.000000e+00 0.000000e+00 0.000000e+00 2.544049e-01 7.455951e-01
 0.000000e+00 0.000000e+00 0.000000e+00 0.000000e+00 0.000000e+00
<ENDHMM>
~h "f"
<BEGINHMM>
<NUMSTATES> 5
<STATE> 2
<MEAN> 39
 -1.060234e+01 2.698760e+00 2.181215e-01 -6.767954e-01 2.827644e+00 3.005661e+00 2.575670e-01 -2.080913e-01 -1.838951e+00 -7.059460e-01 2.244859e+00 7.201148e-02 5.333933e+01 -1.039459e+00 -4.062751e-01 1.646951e-01 1.980700e-01 1.220241e-01 -3.073529e-01 -4.340932e-01 -5.428294e-02 2.973081e-01 -7.209814e-02 2.301923e-01 -3.151258e-01 -1.851268e-01 7.414422e-02 -1.712309e-01 -1.492565e-02 -1.907903e-01 -1.847506e-02 -1.921237e-01 -8.422595e-02 -9.708155e-02 -1.313686e-01 1.037845e-01 8.524098e-02 1.277190e-02 2.749453e-01
<VARIANCE> 39
 1.576972e+01 2.818839e+01 2.595293e+01 2.107299e+01 1.342997e+01 2.126047e+01 2.362510e+01 2.500209e+01 1.895748e+01 1.742581e+01 1.701337e+01 1.080988e+01 1.283403e+01 1.779675e+00 1.128441e+00 1.168659e+00 1.422231e+00 1.887119e+00 1.542275e+00 1.969055e+00 1.966104e+00 1.974464e+00 1.630131e+00 1.943633e+00 1.225802e+00 8.458339e-01 1.368899e-01 1.776613e-01 1.872636e-01 3.252172e-01 2.349101e-01 3.372961e-01 2.733263e-01 2.791155e-01 3.464153e-01 3.440990e-01 2.904731e-01 1.928323e-01 1.139124e-01
<GCONST> 9.637279e+01
<STATE> 3
<MEAN> 39
 -1.313554e+01 1.133460e+00 2.680196e+00 -4.823828e-01 3.894786e+00 -7.033145e-01 -3.064767e+00 -2.786637e+00 -3.664602e+00 -1.314538e+00 4.310152e+00 -1.126143e+00 5.672911e+01 -8.326873e-01 -1.109336e+00 -7.208641e-02 -4.564025e-01 4.994656e-01 -4.284848e-01 -7.486143e-01 -1.417281e-01 5.957812e-02 3.287117e-01 7.206874e-01 -2.198275e-01 5.359939e-01 4.170838e-01 8.370624e-02 2.397967e-03 -1.925174e-01 2.613923e-02 1.827564e-01 2.873198e-01 1.326180e-01 -1.096418e-01 8.127686e-02 -1.471527e-02 2.435901e-01 1.123419e-01
<VARIANCE> 39
 1.464335e+01 2.169457e+01 1.321649e+01 2.635636e+01 1.399642e+01 1.930151e+01 2.100540e+01 2.212134e+01 1.556890e+01 1.831283e+01 2.039136e+01 1.248780e+01 1.400680e+01 2.279447e+00 1.634672e+00 9.867527e-01 2.701164e+00 1.789837e+00 2.360797e+00 2.177475e+00 2.526722e+00 1.808450e+00 1.483897e+00 1.614133e+00 1.387762e+00 1.216903e+00 3.138469e-01 4.778032e-01 2.668129e-01 3.082767e-01 2.834361e-01 5.518925e-01 3.433087e-01 3.822764e-01 3.406030e-01 4.456593e-01 4.830076e-01 2.771322e-01 2.710806e-01
<GCONST> 1.028131e+02
<STATE> 4
<MEAN> 39
 -1.194009e+01 -3.538821e-01 1.842779e+00 -3.100185e+00 3.467410e+00 1.398361e+00 -7.835479e-01 -8.393871e-01 -3.841578e+00 6.283762e-01 6.135173e+00 -1.119466e-01 5.785840e+01 7.127456e-01 5.451387e-01 1.761760e-01 -1.557158e-01 -2.942138e-01 7.620034e-02 1.818184e-01 -1.996442e-02 -1.893541e-01 -1.667960e-01 -4.247460e-01 5.598897e-02 2.860155e-02 1.537233e-01 2.080583e-01 7.516806e-02 1.127183e-01 -2.155799e-01 -1.192775e-01 1.854093e-01 5.811217e-02 -4.766953e-02 2.919342e-02 -3.074791e-01 -2.756160e-03 1.607447e-02
<VARIANCE> 39
 3.131863e+01 2.178594e+01 2.556973e+01 5.078483e+01 2.986337e+01 3.120819e+01 3.568562e+01 2.778973e+01 3.553900e+01 2.109505e+01 1.672143e+01 1.421870e+01 2.732692e+01 3.965890e+00 3.271443e+00 1.563521e+00 3.136199e+00 2.649403e+00 4.056391e+00 2.850151e+00 2.124321e+00 2.836571e+00 2.140484e+00 2.119108e+00 1.577170e+00 4.174579e+00 4.451413e-01 5.131974e-01 3.131894e-01 5.248190e-01 4.092951e-01 7.434703e-01 4.997834e-01 4.548529e-01 5.022302e-01 4.298412e-01 4.066510e-01 3.367237e-01 6.206238e-01
<GCONST> 1.173233e+02
<TRANSP> 5
 0.000000e+00 1.000000e+00 0.000000e+00 0.000000e+00 0.000000e+00
 0.000000e+00 6.106158e-01 3.893842e-01 0.000000e+00 0.000000e+00
 0.000000e+00 0.000000e+00 4.968321e-01 5.031679e-01 0.000000e+00
 0.000000e+00 0.000000e+00 0.000000e+00 6.532672e-01 3.467328e-01
 0.000000e+00 0.000000e+00 0.000000e+00 0.000000e+00 0.000000e+00
<ENDHMM>
~h "g"
<BEGINHMM>
<NUMSTATES> 5
<STATE> 2
<MEAN> 39
 -6.251001e+00 2.978050e+00 2.676120e+00 4.291370e+00 3.939855e+00 -2.900323e+00 -7.543941e+00 3.386457e+00 -1.147561e+00 -4.219271e+00 2.763928e+00 -5.057777e-01 5.885773e+01 -8.344401e-01 -4.270026e-01 1.296936e+00 -2.575547e-01 2.239758e-01 8.114365e-01 -9.388967e-01 9.461010e-01 -2.905487e-01 -1.785807e-01 8.112171e-01 -3.578688e-01 2.294120e-01 2.756965e-01 1.540366e-01 2.871282e-01 7.465313e-02 -1.214871e-01 -3.054998e-01 2.860021e-01 -6.805654e-01 -1.666617e-01 3.056372e-01 -2.457201e-01 -6.586992e-02 1.948889e-01
<VARIANCE> 39
 2.498159e+01 2.975723e+01 2.654388e+01 1.987612e+01 2.728556e+01 3.735508e+01 5.816969e+01 3.278678e+01 4.351787e+01 2.643003e+01 4.715880e+01 2.605634e+01 2.337525e+01 1.251758e+00 3.232017e+00 2.228534e+00 2.486696e+00 3.125914e+00 3.219138e+00 8.486554e+00 4.162565e+00 2.555113e+00 2.886691e+00 4.223668e+00 1.616892e+00 3.137547e+00 6.483293e-01 5.088542e-01 6.263485e-01 9.944551e-01 8.758210e-01 7.367427e-01 2.033991e+00 5.831051e-01 9.572544e-01 6.514187e-01 1.425989e+00 4.239980e-01 4.576296e-01
<GCONST> 1.267894e+02
<STATE> 3
<MEAN> 39
 -6.435079e+00 4.603645e+00 5.730847e+00 4.702006e+00 4.065443e+00 -2.922156e+00 -7.200296e+00 -1.704177e-01 -1.253712e+00 -3.496648e+00 1.150219e+00 -5.242845e-01 5.755673e+01 1.106544e+00 4.477289e-02 -4.856779e-02 3.592900e-01 1.876495e-01 -1.785054e+00 4.355881e-01 -1.021961e+00 2.591399e-01 7.767243e-01 -1.642767e+00 -4.435182e-01 9.236197e-01 3.358866e-01 -3.449454e-01 -6.046605e-01 -1.427969e-01 -2.183707e-01 -3.163883e-01 3.391129e-01 -3.200570e-01 -8.618167e-02 4.731347e-01 -1.061845e-01 5.705247e-03 3.778357e-01
<VARIANCE> 39
 1.395968e+01 2.214411e+01 4.329361e+01 9.042856e+00 2.154726e+01 3.399953e+01 2.741020e+01 1.057166e+01 2.464903e+01 2.041521e+01 3.447300e+01 1.854401e+01 2.157666e+01 3.075426e+00 3.285759e+00 2.716790e+00 2.332990e+00 3.246678e+00 5.891406e+00 6.653736e+00 1.970173e+00 3.743350e+00 4.455352e+00 7.126905e+00 1.945889e+00 1.987480e+00 3.738662e-01 7.195427e-01 7.122535e-01 3.274831e-01 6.103836e-01 8.959778e-01 7.207854e-01 3.464416e-01 3.493444e-01 3.883600e-01 1.250255e+00 3.452567e-01 6.237979e-01
<GCONST> 1.191450e+02
<STATE> 4
<MEAN> 39
 -3.720649e+00 1.690139e+00 1.986489e+00 4.234837e+00 4.235143e+00 -6.003113e+00 -5.046524e+00 -2.651930e+00 -1.486135e+00 2.082634e+00 -1.263667e+00 -1.267920e+00 6.127527e+01 5.465214e-01 -1.112001e+00 -3.750791e-01 -4.378093e-01 -6.368845e-01 -7.082302e-01 6.028603e-01 -7.415887e-01 -7.243773e-01 1.494233e+00 5.496986e-02 -8.027686e-02 1.332652e+00 -3.079288e-01 -4.165402e-02 1.212498e-01 -2.103419e-01 -2.011318e-01 6.537493e-01 -1.318360e-01 3.186390e-01 -2.602770e-01 -3.544295e-01 8.915611e-01 9.305780e-02 -1.881537e-01
<VARIANCE> 39
 9.905992e+00 3.164935e+01 3.691598e+01 2.197375e+01 4.009826e+01 6.123167e+01 4.385550e+01 2.774198e+01 2.471128e+01 4.679367e+01 3.917717e+01 1.286917e+01 3.446513e+01 3.492898e+00 2.908297e+00 3.593089e+00 3.445920e+00 3.866336e+00 2.148045e+00 2.368672e+00 2.319668e+00 2.953288e+00 3.051592e+00 3.336729e+00 1.776972e+00 2.754188e+00 3.191948e-01 9.035595e-01 8.006368e-01 3.680275e-01 4.946410e-01 1.246447e+00 1.039169e+00 6.241520e-01 4.187701e-01 8.384355e-01 6.629772e-01 2.641677e-01 6.134346e-01
<GCONST> 1.228366e+02
<TRANSP> 5
 0.000000e+00 1.000000e+00 0.000000e+00 0.000000e+00 0.000000e+00
 0.000000e+00 5.497157e-01 4.502843e-01 0.000000e+00 0.000000e+00
 0.000000e+00 0.000000e+00 4.429872e-01 5.570128e-01 0.000000e+00
 0.000000e+00 0.000000e+00 0.000000e+00 2.228917e-01 7.771083e-01
 0.000000e+00 0.000000e+00 0.000000e+00 0.000000e+00 0.000000e+00
<ENDHMM>
~h "h"
<BEGINHMM>
<NUMSTATES> 5
<STATE> 2
<MEAN> 39
 -2.241078e+00 5.631461e+00 1.816368e+00 4.356438e-01 3.371976e+00 3.226769e+00 1.872362e+00 -2.655346e+00 -1.701532e+00 1.025286e+00 2.416828e+00 2.176639e+00 6.032431e+01 -7.868738e-02 2.759643e-01 -1.204063e-01 -2.089744e-01 2.922332e-01 1.473465e+00 1.082898e+00 1.489026e-01 -8.889642e-01 -5.618473e-01 2.675543e-01 1.067740e+00 -5.955685e-01 6.290659e-02 -1.363084e-01 -2.145831e-02 -1.699487e-01 -2.932564e-01 -2.395140e-01 -8.589051e-02 1.838389e-01 -2.007145e-01 -8.674646e-02 -1.389234e-01 5.951015e-02 1.386763e-01
<VARIANCE> 39
 1.480606e+01 9.356876e+00 1.269142e+01 2.823318e+01 2.888202e+01 2.693241e+01 3.419107e+01 2.895875e+01 2.244461e+01 2.258683e+01 2.183297e+01 2.016300e+01 1.162735e+01 6.287339e-01 5.298501e-01 1.245642e+00 1.951269e+00 2.059363e+00 1.672878e+00 1.525824e+00 2.012984e+00 2.890301e+00 2.119700e+00 1.847456e+00 1.554730e+00 5.562282e-01 9.011929e-02 1.026744e-01 1.995364e-01 1.925538e-01 2.919041e-01 2.996721e-01 3.466921e-01 3.501187e-01 2.810990e-01 3.698484e-01 4.346234e-01 2.355293e-01 9.330753e-02
<GCONST> 9.584050e+01
<STATE> 3
<MEAN> 39
 -2.373676e+00 5.612349e+00 5.900229e-01 -1.758116e+00 3.966063e+00 6.226636e+00 5.054677e+00 2.885001e-01 -4.222356e+00 -2.183415e+00 3.336373e+00 6.024964e+00 5.953838e+01 7.609680e-02 2.241206e-01 -4.789419e-02 -1.796980e-01 -2.192938e-01 1.725317e-01 3.175341e-01 2.580211e-01 -4.603900e-01 -5.298921e-01 -2.333104e-01 3.386097e-01 -2.489110e-01 5.105493e-02 -5.613085e-03 2.889585e-02 7.614148e-03 -1.297509e-01 -3.652961e-01 -2.715293e-01 -1.732696e-01 1.772527e-01 1.605475e-01 -1.434937e-01 -2.891928e-01 1.190885e-01
<VARIANCE> 39
 9.860327e+00 7.260213e+00 9.266089e+00 1.571233e+01 1.935255e+01 1.914406e+01 2.192467e+01 2.648878e+01 2.011736e+01 2.691977e+01 1.712838e+01 1.618188e+01 8.364326e+00 4.771620e-01 5.401461e-01 8.401976e-01 9.823558e-01 1.367435e+00 1.507472e+00 1.107482e+00 1.509268e+00 1.543255e+00 1.556376e+00 1.373024e+00 1.295602e+00 3.818723e-01 9.196801e-02 1.052596e-01 1.489942e-01 1.407684e-01 2.296148e-01 2.485871e-01 2.064403e-01 2.715722e-01 2.727502e-01 3.093125e-01 2.438012e-01 1.998760e-01 6.471783e-02
<GCONST> 8.495158e+01
<STATE> 4
<MEAN> 39
 -2.234933e+00 7.297250e+00 2.167259e+00 -9.742687e-01 1.572406e+00 3.932372e+00 4.274711e+00 -8.747937e-01 -3.360883e+00 -1.912601e+00 -3.477781e-02 4.300264e+00 5.863585e+01 -1.370913e-01 -7.581272e-03 3.473194e-01 1.391555e-01 -2.993060e-01 -5.108720e-01 -4.844636e-01 -2.774678e-01 1.937092e-01 3.940836e-01 -2.440248e-01 -7.572181e-01 -9.695895e-02 -1.793687e-01 -1.040226e-01 1.326420e-01 9.960765e-02 1.096066e-01 -5.523245e-02 -1.886439e-01 4.461356e-04 -3.066588e-02 6.665153e-03 1.470733e-01 -1.933546e-01 -5.289667e-02
<VARIANCE> 39
 1.086880e+01 1.087479e+01 1.170415e+01 2.544214e+01 4.213294e+01 2.065974e+01 2.666083e+01 2.839944e+01 2.086843e+01 2.564637e+01 2.780140e+01 1.981938e+01 9.797106e+00 5.163904e-01 5.918858e-01 1.253686e+00 1.884530e+00 1.493822e+00 1.780264e+00 2.363887e+00 1.353385e+00 1.747138e+00 1.457282e+00 1.225075e+00 1.467453e+00 5.918743e-01 1.031545e-01 1.202399e-01 2.186255e-01 2.634167e-01 3.383088e-01 3.066614e-01 4.227445e-01 3.206751e-01 3.745134e-01 3.459352e-01 2.696239e-01 3.685630e-01 9.196055e-02
<GCONST> 9.498581e+01
<TRANSP> 5
 0.000000e+00 1.000000e+00 0.000000e+00 0.000000e+00 0.000000e+00
 0.000000e+00 2.998687e-01 7.001314e-01 0.000000e+00 0.000000e+00
 0.000000e+00 0.000000e+00 6.450829e-01 3.549171e-01 0.000000e+00
 0.000000e+00 0.000000e+00 0.000000e+00 5.530572e-01 4.469428e-01
 0.000000e+00 0.000000e+00 0.000000e+00 0.000000e+00 0.000000e+00
<ENDHMM>
~h "i"
<BEGINHMM>
<NUMSTATES> 5
<STATE> 2
<MEAN> 39
 -2.611229e+00 1.601813e+00 4.891580e+00 4.694987e+00 -1.148403e-01 -7.290464e+00 -5.609437e+00 -6.280837e+00 -6.155487e-01 2.873427e+00 -5.414701e-01 -1.722438e+00 6.297092e+01 8.730226e-01 1.874896e-01 -5.311257e-01 4.264362e-01 -2.621324e-02 -6.487761e-01 -6.455721e-01 -4.665962e-01 4.567808e-01 1.887355e-01 -7.321874e-01 2.495020e-01 2.768659e-01 -4.699580e-01 2.055944e-01 1.652322e-01 -3.585629e-01 1.430638e-01 4.876592e-01 3.349610e-01 3.715279e-01 -5.590529e-01 -4.531248e-01 3.582689e-01 1.816134e-01 -4.256665e-01
<VARIANCE> 39
 2.049786e+01 1.759166e+01 3.582821e+01 3.015079e+01 3.334771e+01 2.684812e+01 3.296720e+01 3.709749e+01 2.677485e+01 2.232944e+01 2.454204e+01 1.928674e+01 1.654508e+01 2.540355e+00 1.890945e+00 2.298264e+00 2.263538e+00 3.042437e+00 3.285337e+00 2.386633e+00 3.195300e+00 3.491486e+00 2.160035e+00 2.744953e+00 1.772530e+00 1.949248e+00 5.049040e-01 3.997765e-01 3.919385e-01 4.055834e-01 5.691962e-01 6.092023e-01 4.425381e-01 5.619688e-01 4.775960e-01 4.139526e-01 4.307872e-01 3.112400e-01 2.665737e-01
<GCONST> 1.147952e+02
<STATE> 3
<MEAN> 39
 -2.595272e+00 3.058366e+00 4.801826e+00 4.894960e+00 7.074109e-01 -6.596910e+00 -5.881834e+00 -4.868346e+00 -2.146178e-01 1.526283e+00 -1.004313e+00 -1.964265e-01 6.136214e+01 -3.204114e-01 8.992714e-01 1.414495e-01 -3.229516e-01 6.132029e-01 9.536327e-01 1.405177e-01 5.124170e-01 -8.829222e-01 -7.491276e-01 4.162949e-01 4.077297e-01 -1.054602e+00 -4.349639e-01 5.812518e-02 1.310214e-01 -2.755341e-01 1.118275e-02 3.479255e-01 3.586766e-01 1.883071e-01 -3.975103e-01 -2.117569e-01 2.944231e-01 -1.260094e-01 -2.545936e-01
<VARIANCE> 39
 1.543934e+01 1.280463e+01 2.865313e+01 3.278889e+01 2.807866e+01 2.477703e+01 3.422436e+01 3.705631e+01 3.925456e+01 2.313429e+01 2.670422e+01 1.506880e+01 1.265338e+01 1.881841e+00 1.397151e+00 2.081477e+00 1.878348e+00 2.605335e+00 2.265351e+00 2.104242e+00 2.257257e+00 2.683685e+00 1.818373e+00 2.110482e+00 1.397140e+00 1.710981e+00 3.908002e-01 2.444261e-01 3.502063e-01 4.096716e-01 5.088989e-01 4.536299e-01 4.277616e-01 5.054006e-01 5.420519e-01 3.369093e-01 4.669110e-01 2.840910e-01 2.017195e-01
<GCONST> 1.091045e+02
<STATE> 4
<MEAN> 39
 -5.966832e+00 6.033864e+00 5.597095e+00 3.188940e+00 2.317109e+00 -3.042720e+00 -5.252253e+00 -3.695835e+00 -4.098811e+00 -1.342763e+00 7.559111e-01 -3.301289e-02 5.638297e+01 -7.762349e-01 3.695531e-01 -1.671900e-01 -6.180848e-01 3.151991e-02 7.408977e-01 6.230657e-01 2.537729e-01 -8.886446e-01 -5.574598e-01 4.117849e-01 4.661642e-02 -8.998231e-01 -8.720748e-02 -3.180769e-01 -5.920438e-02 -8.851217e-02 -2.010423e-01 -1.624345e-01 1.517859e-01 -9.753771e-03 1.737780e-01 1.736965e-01 -3.101600e-02 -1.078028e-01 2.938862e-01
<VARIANCE> 39
 1.888938e+01 1.310882e+01 2.821809e+01 2.817919e+01 2.403983e+01 2.431822e+01 3.439664e+01 2.865233e+01 3.432376e+01 2.360639e+01 2.588404e+01 1.558893e+01 1.784349e+01 2.193240e+00 1.664806e+00 2.170977e+00 2.291417e+00 3.044001e+00 2.139662e+00 2.209070e+00 2.563416e+00 2.423614e+00 2.191176e+00 2.245877e+00 1.564077e+00 1.724820e+00 3.473118e-01 2.877570e-01 3.268950e-01 4.308915e-01 4.362871e-01 4.267293e-01 4.149520e-01 4.733115e-01 4.227168e-01 3.901047e-01 4.195899e-01 3.077155e-01 2.502565e-01
<GCONST> 1.098828e+02
<TRANSP> 5
 0.000000e+00 1.000000e+00 0.000000e+00 0.000000e+00 0.000000e+00
 0.000000e+00 4.517804e-01 5.482196e-01 0.000000e+00 0.000000e+00
 0.000000e+00 0.000000e+00 4.021425e-01 5.978575e-01 0.000000e+00
 0.000000e+00 0.000000e+00 0.000000e+00 5.094592e-01 4.905408e-01
 0.000000e+00 0.000000e+00 0.000000e+00 0.000000e+00 0.000000e+00
<ENDHMM>
~h "j"
<BEGINHMM>
<NUMSTATES> 5
<STATE> 2
<MEAN> 39
 -3.142732e+00 2.072194e+00 4.693129e+00 6.025569e+00 6.266387e-01 -7.664350e+00 -6.681713e+00 -5.018900e+00 7.009585e-01 1.794436e+00 -1.234818e+00 -2.739269e+00 6.228635e+01 9.289333e-01 -3.664231e-01 2.418565e-01 8.806448e-01 -7.719678e-01 -1.894842e+00 -7.056637e-01 -1.706469e-01 3.679616e-01 -8.664492e-03 -9.990939e-01 -2.480758e-01 1.109932e+00 -2.147458e-01 7.506687e-02 -4.814097e-03 -3.592482e-01 -1.465172e-02 2.894937e-01 4.033634e-01 2.574452e-01 -4.086534e-01 -1.571337e-01 1.916347e-01 2.559670e-01 -1.925521e-01
<VARIANCE> 39
 2.679521e+01 1.651536e+01 4.365287e+01 2.438205e+01 3.242608e+01 3.217822e+01 2.916318e+01 4.388612e+01 2.469496e+01 2.782529e+01 1.727689e+01 1.704066e+01 2.186202e+01 2.814295e+00 1.389054e+00 2.693930e+00 2.232741e+00 2.447430e+00 3.072573e+00 2.637962e+00 3.232681e+00 2.314919e+00 2.144875e+00 1.940602e+00 1.745379e+00 2.605627e+00 3.480877e-01 2.743490e-01 3.293970e-01 2.516182e-01 4.789797e-01 5.927241e-01 5.574251e-01 6.256618e-01 4.558463e-01 4.312783e-01 4.125321e-01 2.830320e-01 2.293349e-01
<GCONST> 1.128471e+02
<STATE> 3
<MEAN> 39
 -1.698355e+00 1.040734e+00 5.115890e+00 6.695229e+00 -2.686238e+00 -1.045830e+01 -5.399461e+00 -3.674426e+00 1.037731e+00 1.373897e+00 -2.774035e+00 -2.007994e+00 6.431631e+01 4.015277e-02 9.169199e-02 9.452134e-02 -8.522810e-02 -2.218320e-02 -1.830275e-01 -4.384731e-02 4.363997e-01 -1.948384e-01 -6.984349e-02 -1.402282e-01 2.807207e-01 -1.280480e-02 -1.854646e-01 2.636217e-01 -1.212836e-02 -3.455720e-01 4.418840e-01 5.194939e-01 4.631989e-03 3.002977e-02 -2.368646e-01 -9.047875e-03 3.107980e-01 9.188270e-02 -3.301915e-01
<VARIANCE> 39
 9.326798e+00 1.044837e+01 3.911419e+01 2.881701e+01 2.405655e+01 2.054068e+01 2.591454e+01 3.359690e+01 1.963910e+01 4.201950e+01 1.621582e+01 1.310350e+01 1.298563e+01 6.135454e-01 7.859767e-01 1.362385e+00 1.592194e+00 2.705193e+00 1.360134e+00 2.068977e+00 1.905416e+00 1.225335e+00 1.732618e+00 1.337802e+00 9.869433e-01 8.524075e-01 1.599078e-01 1.203436e-01 2.331998e-01 2.317668e-01 3.170697e-01 3.343162e-01 3.590614e-01 3.998575e-01 3.599502e-01 3.019635e-01 2.948414e-01 2.046421e-01 1.875819e-01
<GCONST> 9.673075e+01
<STATE> 4
<MEAN> 39
 -2.251428e+00 2.679393e+00 5.758503e+00 6.232901e+00 -5.080296e-01 -8.682300e+00 -6.509854e+00 -3.220636e+00 4.411931e-02 2.962764e-01 -1.956963e+00 -6.137505e-01 6.215467e+01 -3.574006e-01 6.280835e-01 -4.841683e-02 -8.832382e-01 9.069322e-01 1.004971e+00 -7.846088e-03 6.558688e-03 -8.785964e-01 9.342743e-02 7.295453e-01 3.016975e-01 -7.310082e-01 -2.654547e-01 1.466885e-01 8.753217e-02 -2.191940e-01 1.269346e-01 3.151301e-01 1.163640e-01 -2.015691e-01 -2.981149e-01 -1.887113e-02 2.771852e-01 -7.386790e-02 -2.143994e-01
<VARIANCE> 39
 1.325300e+01 1.163297e+01 3.753236e+01 3.061993e+01 2.206233e+01 2.844857e+01 2.639706e+01 3.503153e+01 1.900591e+01 3.534995e+01 1.735471e+01 1.395146e+01 1.930851e+01 9.862152e-01 1.267353e+00 1.753871e+00 1.423151e+00 2.585356e+00 1.822628e+00 2.402133e+00 2.764161e+00 2.033784e+00 2.146907e+00 1.350491e+00 1.331768e+00 1.670077e+00 2.132541e-01 2.795397e-01 4.527453e-01 3.509459e-01 5.471032e-01 5.111617e-01 4.827035e-01 4.866293e-01 3.542767e-01 4.381010e-01 2.667221e-01 3.437755e-01 3.988509e-01
<GCONST> 1.065947e+02
<TRANSP> 5
 0.000000e+00 1.000000e+00 0.000000e+00 0.000000e+00 0.000000e+00
 0.000000e+00 3.828643e-01 6.171357e-01 0.000000e+00 0.000000e+00
 0.000000e+00 0.000000e+00 5.976551e-01 4.023449e-01 0.000000e+00
 0.000000e+00 0.000000e+00 0.000000e+00 3.069153e-01 6.930847e-01
 0.000000e+00 0.000000e+00 0.000000e+00 0.000000e+00 0.000000e+00
<ENDHMM>
~h "k"
<BEGINHMM>
<NUMSTATES> 5
<STATE> 2
<MEAN> 39
 -1.276023e+01 4.745944e+00 3.387062e+00 5.346805e-01 4.731338e+00 -7.998756e-01 -3.054813e+00 -1.146358e+00 -2.859519e+00 -1.356669e+00 2.077545e+00 8.013801e-03 5.179377e+01 9.742376e-03 -1.395697e+00 -1.088543e+00 -9.193898e-01 -3.527548e-01 9.401141e-02 -6.112436e-02 5.023714e-01 2.617629e-01 -3.313221e-02 6.446219e-01 -3.150257e-01 7.327965e-01 2.110426e-02 -6.367013e-01 -1.869170e-01 -5.357438e-01 2.279072e-01 3.295327e-03 -2.885859e-01 1.331849e-01 -2.045920e-02 -6.483779e-03 3.860144e-01 -1.000468e-01 8.087340e-01
<VARIANCE> 39
 1.880086e+01 1.336311e+01 1.760144e+01 2.784377e+01 2.617973e+01 2.628414e+01 2.805513e+01 2.324701e+01 2.136256e+01 2.142877e+01 2.001003e+01 1.610752e+01 5.500803e+00 1.152266e+00 3.736991e+00 3.423271e+00 4.406205e+00 4.126283e+00 3.314067e+00 3.794297e+00 3.287955e+00 2.876588e+00 2.666415e+00 3.198245e+00 1.755687e+00 2.938112e+00 1.865399e-01 4.549093e-01 4.549238e-01 5.469249e-01 4.952674e-01 4.531802e-01 5.381598e-01 4.925608e-01 4.745770e-01 3.936903e-01 5.320686e-01 3.835515e-01 3.076317e-01
<GCONST> 1.130475e+02
<STATE> 3
<MEAN> 39
 -1.246745e+01 -3.426806e+00 -2.065232e+00 -7.804954e+00 5.017501e+00 2.153691e-01 -4.947791e+00 9.533926e-01 -2.789954e+00 -2.267792e+00 7.531498e+00 -1.106860e+00 5.891938e+01 3.808326e-01 -4.514204e-01 3.028170e-01 -4.225313e-01 -1.812108e-01 9.541832e-02 -3.267500e-01 4.545624e-01 -9.217100e-03 1.827071e-02 4.532352e-01 -8.082633e-03 7.312145e-01 4.199799e-01 1.015993e+00 7.614750e-01 1.010835e+00 -8.052981e-02 -1.255224e-01 1.729036e-01 -2.970756e-01 1.620049e-02 2.419170e-01 -8.286632e-01 1.595012e-01 -4.595417e-01
<VARIANCE> 39
 1.698880e+01 2.245460e+01 4.683870e+01 5.072666e+01 5.429907e+01 4.476551e+01 4.440830e+01 4.140721e+01 3.443668e+01 4.001937e+01 2.661068e+01 2.757394e+01 1.743865e+01 1.394244e+00 4.049078e+00 4.540512e+00 6.761653e+00 3.583485e+00 3.042258e+00 3.736562e+00 2.984475e+00 2.529070e+00 2.630886e+00 3.437845e+00 2.099924e+00 2.517153e+00 3.421443e-01 5.519613e-01 6.314058e-01 9.638866e-01 9.065475e-01 7.203529e-01 8.373375e-01 8.567439e-01 5.482384e-01 6.695711e-01 6.727209e-01 4.026597e-01 4.152866e-01
<GCONST> 1.260346e+02
<STATE> 4
<MEAN> 39
 -1.101213e+01 1.151757e+00 3.465266e+00 -9.937016e-01 5.422317e+00 3.676049e-01 -4.010007e+00 1.922966e+00 -1.469048e+00 -4.891463e-01 4.064912e+00 -1.067037e+00 5.559389e+01 2.349331e+00 1.448425e+00 6.725871e-01 1.410035e+00 -6.259868e-01 -3.197269e-01 2.666639e-01 -8.054538e-01 2.231029e-01 7.438543e-01 -1.923333e+00 2.854908e-01 6.222566e-01 4.361904e-01 -3.834119e-02 -3.706977e-01 -2.253018e-01 -2.940088e-01 -2.830392e-01 -4.024234e-03 -3.922123e-01 -7.883395e-02 8.467108e-02 -2.438908e-01 8.284539e-02 4.721501e-01
<VARIANCE> 39
 2.934709e+01 1.555856e+01 3.926066e+01 3.477721e+01 2.898981e+01 3.929947e+01 3.948036e+01 2.970762e+01 2.947640e+01 2.712161e+01 2.130212e+01 2.353587e+01 1.298285e+01 2.929000e+00 2.171748e+00 2.974455e+00 4.034328e+00 3.026534e+00 2.875301e+00 3.031061e+00 3.563435e+00 2.530940e+00 3.303870e+00 2.977791e+00 1.920253e+00 2.651829e+00 3.845167e-01 4.514938e-01 4.529647e-01 7.851909e-01 4.700221e-01 4.308979e-01 4.392302e-01 5.915925e-01 4.521297e-01 4.762390e-01 5.216492e-01 3.430475e-01 2.800983e-01
<GCONST> 1.180532e+02
<TRANSP> 5
 0.000000e+00 1.000000e+00 0.000000e+00 0.000000e+00 0.000000e+00
 0.000000e+00 6.396789e-01 3.603211e-01 0.000000e+00 0.000000e+00
 0.000000e+00 0.000000e+00 6.054074e-01 3.945925e-01 0.000000e+00
 0.000000e+00 0.000000e+00 0.000000e+00 4.991463e-01 5.008538e-01
 0.000000e+00 0.000000e+00 0.000000e+00 0.000000e+00 0.000000e+00
<ENDHMM>
~h "l"
<BEGINHMM>
<NUMSTATES> 5
<STATE> 2
<MEAN> 39
 1.514681e+00 2.643796e+00 -2.198856e-01 -5.466123e+00 -6.201830e+00 -2.709488e+00 5.357811e+00 -2.391160e-01 -1.089796e+01 -9.100239e-01 3.841193e+00 3.451209e+00 6.366389e+01 1.394002e+00 -6.183423e-02 -8.789572e-01 -2.085120e-01 -1.287930e+00 -5.191438e-01 8.955281e-01 3.111852e-01 -1.130715e+00 -2.002822e-01 1.613013e-01 2.211691e-01 6.345949e-01 -6.147086e-01 -9.943233e-02 1.499555e-01 1.029405e-01 5.872800e-01 1.099511e-01 -4.046082e-01 -4.895901e-02 3.398704e-01 1.128964e-01 -7.806271e-04 -2.267761e-01 -2.284659e-01
<VARIANCE> 39
 8.680890e+00 1.603824e+01 1.668090e+01 4.675743e+01 3.270574e+01 2.159945e+01 2.839746e+01 4.689333e+01 2.598973e+01 2.560886e+01 2.774917e+01 2.019605e+01 9.712196e+00 1.886864e+00 1.440213e+00 1.249160e+00 4.249035e+00 2.586599e+00 2.159390e+00 2.507165e+00 2.915434e+00 2.545365e+00 2.485886e+00 2.598025e+00 1.708307e+00 1.824850e+00 2.331124e-01 3.676833e-01 3.095057e-01 5.044311e-01 4.939705e-01 4.985185e-01 4.735982e-01 5.285937e-01 5.184392e-01 4.510485e-01 4.724452e-01 2.696220e-01 2.115246e-01
<GCONST> 1.102772e+02
<STATE> 3
<MEAN> 39
 2.870881e+00 3.263018e+00 -2.249134e+00 -6.359963e+00 -7.516432e+00 -2.763700e+00 6.568037e+00 2.030607e+00 -1.156129e+01 -1.668890e+00 4.825462e+00 2.954474e+00 6.368834e+01 -1.479182e-01 1.540844e-01 2.120136e-02 -6.330968e-02 5.037330e-01 3.057423e-01 -4.680431e-01 -2.245855e-01 2.633204e-01 6.663417e-02 -1.091793e-02 7.712701e-02 -1.199800e-01 -2.891202e-01 4.551263e-02 1.923921e-01 6.221548e-02 4.083343e-01 1.683284e-01 -3.890130e-01 -2.161413e-01 3.867972e-01 1.037516e-01 -1.181016e-01 -6.940176e-02 -9.824636e-02
<VARIANCE> 39
 4.604642e+00 1.595248e+01 1.129083e+01 4.206417e+01 2.923634e+01 1.948909e+01 2.404973e+01 4.916092e+01 2.786649e+01 2.736830e+01 2.775700e+01 1.799311e+01 6.683875e+00 3.274771e-01 8.204993e-01 8.013120e-01 2.384400e+00 2.112386e+00 1.594436e+00 1.740840e+00 2.742046e+00 1.823988e+00 2.043343e+00 1.315782e+00 1.037209e+00 4.743708e-01 1.188539e-01 1.596796e-01 1.560007e-01 3.724702e-01 3.574542e-01 2.896847e-01 3.083715e-01 3.809905e-01 4.231311e-01 3.435333e-01 3.036040e-01 2.764189e-01 1.415844e-01
<GCONST> 9.571867e+01
<STATE> 4
<MEAN> 39
 4.562644e-01 2.610149e+00 -6.258514e-01 -4.470746e+00 -2.735944e+00 -7.632658e-01 1.389198e+00 -2.933196e+00 -8.838477e+00 4.733046e-01 4.202991e+00 3.691571e+00 6.293856e+01 -8.412948e-01 2.806456e-01 4.002930e-01 4.000448e-01 1.225822e+00 2.611657e-01 -1.349998e+00 -5.277368e-01 1.245194e+00 3.195032e-01 -5.465230e-01 -5.896494e-01 -5.011745e-01 -2.044784e-01 8.229968e-02 1.440313e-01 1.320558e-01 -2.724548e-02 -1.518207e-01 7.492670e-02 2.128143e-01 -2.821369e-05 -1.630539e-01 -9.229185e-02 -2.011416e-01 -1.910934e-01
<VARIANCE> 39
 8.794450e+00 2.074314e+01 1.650546e+01 5.897938e+01 2.936020e+01 2.254084e+01 3.285196e+01 5.192945e+01 2.513252e+01 3.585032e+01 2.625792e+01 2.275919e+01 1.757689e+01 7.561795e-01 1.290861e+00 1.530240e+00 2.352417e+00 2.688311e+00 1.962746e+00 2.670041e+00 3.500866e+00 2.960451e+00 2.553566e+00 2.288592e+00 1.906094e+00 1.069263e+00 1.746553e-01 2.655860e-01 2.952420e-01 4.904420e-01 4.491002e-01 3.989286e-01 3.675641e-01 4.969245e-01 4.057366e-01 5.598926e-01 3.266157e-01 3.359194e-01 2.293745e-01
<GCONST> 1.088950e+02
<TRANSP> 5
 0.000000e+00 1.000000e+00 0.000000e+00 0.000000e+00 0.000000e+00
 0.000000e+00 4.607371e-01 5.392630e-01 0.000000e+00 0.000000e+00
 0.000000e+00 0.000000e+00 6.900064e-01 3.099936e-01 0.000000e+00
 0.000000e+00 0.000000e+00 0.000000e+00 4.733913e-01 5.266087e-01
 0.000000e+00 0.000000e+00 0.000000e+00 0.000000e+00 0.000000e+00
<ENDHMM>
~h "m"
<BEGINHMM>
<NUMSTATES> 5
<STATE> 2
<MEAN> 39
 -4.036162e-01 8.960051e+00 3.018846e+00 3.552281e+00 3.735435e+00 -2.562399e+00 -1.372105e+00 -1.347044e+00 -7.701948e+00 -3.509544e+00 9.833128e-01 1.386220e+00 5.858685e+01 -1.026271e-01 4.959603e-01 6.983026e-01 7.032968e-01 1.261051e-01 -1.618560e-01 3.553377e-02 1.439992e-01 -8.538380e-01 -5.737456e-01 6.247864e-02 4.806962e-02 -3.574446e-01 -5.147065e-02 -2.999526e-01 -1.236775e-01 -1.404717e-01 -2.283233e-01 -4.911729e-02 8.048136e-02 -1.091682e-01 3.479971e-01 2.666583e-01 -5.055960e-02 -1.489585e-01 1.885603e-01
<VARIANCE> 39
 4.662805e+00 4.509225e+00 1.050458e+01 1.236037e+01 1.028195e+01 1.398075e+01 2.154041e+01 1.343589e+01 2.065126e+01 1.650511e+01 1.336513e+01 1.398261e+01 4.794422e+00 5.109972e-01 5.232700e-01 1.107241e+00 1.077475e+00 9.164072e-01 1.104408e+00 9.538882e-01 1.181852e+00 1.892310e+00 1.377352e+00 9.089412e-01 9.989699e-01 4.495440e-01 7.731408e-02 1.321071e-01 2.252865e-01 2.399908e-01 1.847741e-01 2.325865e-01 2.032559e-01 2.305317e-01 3.457723e-01 3.003046e-01 2.017608e-01 2.413158e-01 5.431914e-02
<GCONST> 7.999637e+01
<STATE> 3
<MEAN> 39
 -9.216037e-01 9.432744e+00 4.594105e+00 4.065063e+00 2.111058e+00 -3.109669e+00 1.444982e+00 -3.842820e-01 -9.805829e+00 -4.337062e+00 1.603396e+00 7.098085e-01 5.824509e+01 -3.497168e-02 -4.928364e-02 -1.433302e-01 -3.360117e-01 -3.764581e-01 2.365509e-01 1.998224e-01 5.207479e-02 5.258275e-01 2.736251e-01 -8.624873e-02 -9.458286e-02 -2.443357e-02 -9.861279e-02 -1.861354e-01 -1.511742e-01 -3.444240e-01 -4.811594e-02 1.989229e-01 -3.980553e-02 -7.128906e-05 3.797389e-01 1.755126e-01 -1.631335e-02 -1.037017e-02 8.110740e-02
<VARIANCE> 39
 6.222222e+00 6.777689e+00 1.211629e+01 1.421344e+01 1.892176e+01 1.516707e+01 2.484830e+01 1.216555e+01 2.140330e+01 1.476694e+01 1.290528e+01 1.319964e+01 8.174615e+00 4.272133e-01 5.743454e-01 1.077267e+00 1.578759e+00 1.221233e+00 1.070409e+00 1.132637e+00 8.648790e-01 1.536424e+00 1.222031e+00 7.942976e-01 1.201549e+00 4.685999e-01 1.151303e-01 1.657654e-01 2.297307e-01 3.965120e-01 2.936976e-01 2.613873e-01 2.582669e-01 1.924555e-01 3.720755e-01 2.835147e-01 1.365110e-01 2.379466e-01 8.405245e-02
<GCONST> 8.405611e+01
<STATE> 4
<MEAN> 39
 -2.557625e+00 8.542837e+00 3.788598e+00 2.373834e+00 2.493767e+00 -2.162761e-01 1.065183e-01 -6.601845e-01 -5.563666e+00 -2.161651e+00 8.969432e-01 -3.969688e-01 5.724773e+01 -5.112228e-01 -6.909192e-01 -6.972501e-02 -7.233581e-01 -2.264713e-01 5.062758e-01 3.660261e-02 1.363296e-01 7.232389e-01 3.140329e-01 -2.976518e-02 -2.716332e-01 1.788038e-01 -1.833861e-01 -1.942808e-01 6.949347e-02 -7.832144e-02 1.297983e-02 -1.403121e-01 1.229904e-02 -4.357297e-02 -8.488721e-02 -9.047502e-02 6.080852e-02 -5.542520e-02 1.569048e-01
<VARIANCE> 39
 1.633091e+01 1.321675e+01 2.463772e+01 3.190264e+01 1.690962e+01 2.403586e+01 2.305001e+01 1.828345e+01 1.659646e+01 2.117220e+01 1.417166e+01 1.609144e+01 2.289766e+01 1.307284e+00 1.264069e+00 2.404165e+00 3.631548e+00 2.179136e+00 2.149101e+00 2.279659e+00 1.621423e+00 2.394031e+00 2.535053e+00 1.444245e+00 1.528912e+00 9.522489e-01 2.336043e-01 3.096784e-01 3.304363e-01 4.233836e-01 4.617228e-01 3.928594e-01 3.991513e-01 3.652669e-01 2.674513e-01 3.555889e-01 2.400611e-01 2.593124e-01 1.576785e-01
<GCONST> 1.030568e+02
<TRANSP> 5
 0.000000e+00 1.000000e+00 0.000000e+00 0.000000e+00 0.000000e+00
 0.000000e+00 6.769286e-01 3.230714e-01 0.000000e+00 0.000000e+00
 0.000000e+00 0.000000e+00 6.394954e-01 3.605047e-01 0.000000e+00
 0.000000e+00 0.000000e+00 0.000000e+00 4.254526e-01 5.745474e-01
 0.000000e+00 0.000000e+00 0.000000e+00 0.000000e+00 0.000000e+00
<ENDHMM>
~h "n"
<BEGINHMM>
<NUMSTATES> 5
<STATE> 2
<MEAN> 39
 -2.243485e+00 7.703304e+00 4.503324e+00 2.814018e+00 5.650407e-01 -1.854039e+00 2.489159e+00 2.095921e-01 -7.599987e+00 -2.277710e+00 3.429462e+00 1.772572e-01 5.852520e+01 3.813385e-01 7.131653e-01 4.905455e-01 6.936045e-01 -2.269424e-01 -2.362083e-01 1.469644e-01 1.504061e-01 -7.652100e-01 -4.357552e-01 1.500342e-01 -1.421823e-01 -2.531360e-01 -8.987118e-02 -2.932075e-01 -2.064045e-01 -3.384361e-01 -1.785497e-02 -1.177553e-02 -2.466568e-02 -1.005090e-01 3.928080e-01 1.833547e-01 -1.434428e-01 -2.278630e-02 2.565311e-01
<VARIANCE> 39
 1.082087e+01 1.159627e+01 1.739694e+01 2.680854e+01 1.606660e+01 1.716926e+01 1.999590e+01 1.548286e+01 2.714437e+01 1.423391e+01 1.500099e+01 1.145764e+01 1.035744e+01 1.891173e+00 1.147284e+00 1.824727e+00 1.818833e+00 1.642911e+00 1.756977e+00 1.704563e+00 1.724359e+00 2.431921e+00 1.531277e+00 1.562979e+00 1.263298e+00 1.176480e+00 1.400140e-01 2.890040e-01 3.128215e-01 3.575429e-01 3.987245e-01 3.484091e-01 3.092376e-01 3.249912e-01 5.029080e-01 3.209122e-01 3.179655e-01 2.656166e-01 1.802873e-01
<GCONST> 9.804279e+01
<STATE> 3
<MEAN> 39
 -1.274647e+00 8.701428e+00 5.040564e+00 2.885893e+00 -3.791624e-02 -3.652865e+00 2.406413e+00 7.018012e-01 -9.303232e+00 -2.350700e+00 3.862074e+00 -5.421544e-01 5.921449e+01 2.988256e-01 -9.257985e-01 -5.619603e-01 -5.673295e-01 -5.829836e-01 4.393333e-01 1.793068e-01 -6.947140e-01 7.899590e-01 6.452460e-01 -1.925652e-01 -2.164989e-01 8.646643e-01 -2.689568e-01 -4.981248e-01 -4.533734e-01 -6.501217e-01 1.650348e-01 2.501900e-01 -2.137021e-02 -2.655595e-01 7.377746e-01 3.718996e-01 -1.846775e-01 -6.737347e-03 3.378328e-01
<VARIANCE> 39
 4.898515e+00 1.076889e+01 1.352906e+01 2.392758e+01 1.301292e+01 1.469821e+01 1.487661e+01 1.332915e+01 2.453515e+01 1.306565e+01 1.242905e+01 1.441214e+01 8.457920e+00 1.627640e+00 2.059721e+00 2.251059e+00 1.918783e+00 2.393311e+00 2.113675e+00 1.814710e+00 1.946696e+00 2.848702e+00 1.900590e+00 1.753264e+00 1.473444e+00 1.573458e+00 2.818373e-01 2.886723e-01 3.824376e-01 3.923853e-01 4.107013e-01 3.910727e-01 3.094818e-01 3.726825e-01 5.774217e-01 3.516259e-01 2.511059e-01 2.608918e-01 1.453232e-01
<GCONST> 9.906380e+01
<STATE> 4
<MEAN> 39
 -1.093892e+00 4.435712e+00 2.699789e+00 7.439716e-01 -1.703385e+00 -5.768681e-01 2.915618e+00 -2.646105e+00 -4.455601e+00 4.875562e-01 2.958212e+00 -1.382325e+00 6.197115e+01 -9.398239e-02 -8.271800e-01 -1.341900e+00 -1.626990e+00 4.037773e-01 5.000424e-01 7.347602e-02 -6.531036e-01 1.592891e+00 8.654349e-01 -4.635399e-01 -6.571341e-02 9.599406e-01 -2.767686e-01 3.151813e-01 8.941308e-03 -2.272594e-01 5.203855e-01 -2.094973e-01 -1.563468e-01 3.689911e-01 -2.144032e-01 -1.658852e-01 -3.390490e-02 5.312684e-02 -2.093416e-01
<VARIANCE> 39
 9.626868e+00 1.898481e+01 3.042210e+01 3.191360e+01 2.783055e+01 2.088025e+01 2.131680e+01 2.054616e+01 3.080822e+01 1.624540e+01 1.960151e+01 1.784590e+01 1.668459e+01 1.599386e+00 1.745343e+00 2.717450e+00 3.277233e+00 3.199857e+00 2.201399e+00 2.036280e+00 2.275065e+00 3.219073e+00 1.748542e+00 1.743054e+00 1.619317e+00 1.299776e+00 2.535516e-01 3.218787e-01 3.947518e-01 4.295103e-01 4.816373e-01 4.010884e-01 3.729220e-01 4.371174e-01 5.744169e-01 3.578684e-01 3.153738e-01 3.066498e-01 2.043575e-01
<GCONST> 1.075801e+02
<TRANSP> 5
 0.000000e+00 1.000000e+00 0.000000e+00 0.000000e+00 0.000000e+00
 0.000000e+00 5.579129e-01 4.420871e-01 0.000000e+00 0.000000e+00
 0.000000e+00 0.000000e+00 4.478325e-01 5.521675e-01 0.000000e+00
 0.000000e+00 0.000000e+00 0.000000e+00 3.225828e-01 6.774172e-01
 0.000000e+00 0.000000e+00 0.000000e+00 0.000000e+00 0.000000e+00
<ENDHMM>
~h "o"
<BEGINHMM>
<NUMSTATES> 5
<STATE> 2
<MEAN> 39
 -4.564221e-01 3.868036e+00 -8.805980e-02 -4.214966e+00 -2.493342e+00 -6.640218e-01 1.950133e+00 -4.350088e+00 -7.462320e+00 -3.012652e-01 1.840910e+00 3.308876e+00 6.208628e+01 1.246138e+00 8.634037e-01 -1.735846e-01 -5.140083e-01 -9.271309e-01 1.970338e-01 3.929909e-01 -4.070863e-01 -4.716671e-01 -4.440829e-01 -6.261990e-01 7.208376e-01 3.601460e-01 -5.903272e-01 -7.667115e-03 2.598912e-01 2.995648e-01 4.370756e-01 4.774015e-02 -2.904032e-01 2.409388e-01 1.183040e-01 -2.808691e-01 8.598480e-02 -1.631418e-01 -4.048925e-01
<VARIANCE> 39
 1.834165e+01 1.709008e+01 1.972139e+01 4.080539e+01 3.596738e+01 2.387630e+01 3.819618e+01 4.410414e+01 3.262221e+01 2.378284e+01 2.439165e+01 1.854565e+01 1.938652e+01 2.943383e+00 2.084891e+00 1.963569e+00 3.201439e+00 4.034581e+00 3.232131e+00 3.075483e+00 3.465846e+00 2.830724e+00 2.492514e+00 2.887988e+00 2.131594e+00 2.565895e+00 3.943760e-01 4.055944e-01 4.124570e-01 6.059662e-01 6.700883e-01 4.341667e-01 5.697150e-01 7.137826e-01 5.142525e-01 5.035205e-01 5.552927e-01 3.565285e-01 2.960647e-01
<GCONST> 1.177920e+02
<STATE> 3
<MEAN> 39
 4.331761e-01 5.080476e+00 -2.859393e-02 -4.486981e+00 -3.652009e+00 5.892082e-02 2.537147e+00 -4.130346e+00 -7.862731e+00 -1.814842e+00 9.932009e-01 4.606741e+00 6.166904e+01 -4.306943e-01 6.324394e-01 5.103952e-01 4.598284e-01 6.822172e-01 5.642997e-01 -5.632553e-01 1.044385e-01 1.307122e-01 -7.843025e-01 -6.285409e-02 -1.059740e-01 -7.427577e-01 -7.257090e-01 -2.054117e-01 2.885965e-01 2.884595e-01 6.271660e-01 -4.886417e-02 -3.269071e-01 1.802933e-01 1.725197e-01 -3.350809e-02 2.337216e-01 -4.419311e-01 -2.476551e-01
<VARIANCE> 39
 1.216208e+01 1.161270e+01 1.662127e+01 3.534492e+01 3.742766e+01 2.068711e+01 3.276429e+01 3.535573e+01 2.788316e+01 1.970906e+01 2.527594e+01 2.193753e+01 1.388919e+01 1.675397e+00 1.631575e+00 1.588806e+00 2.400402e+00 3.596298e+00 1.957179e+00 2.774559e+00 2.896640e+00 2.116101e+00 2.277951e+00 2.181288e+00 1.796209e+00 1.740939e+00 4.321334e-01 2.638114e-01 2.987648e-01 4.421385e-01 7.011875e-01 4.202639e-01 4.702190e-01 4.967433e-01 4.213823e-01 3.873501e-01 4.798899e-01 4.430913e-01 2.235444e-01
<GCONST> 1.101102e+02
<STATE> 4
<MEAN> 39
 -2.635392e+00 6.136747e+00 1.545150e+00 -2.324677e+00 -2.550852e-01 2.006905e+00 6.406120e-01 -3.639506e+00 -6.716278e+00 -3.372594e+00 1.588419e+00 3.375019e+00 5.838792e+01 -1.475416e+00 6.690217e-02 8.921515e-01 6.079739e-01 1.426926e+00 1.798786e-01 -7.701977e-01 4.227495e-01 4.329362e-01 -4.585546e-01 3.371038e-01 -7.717593e-01 -7.121333e-01 -4.006639e-01 -3.507968e-01 8.089922e-02 -1.511966e-01 5.277471e-02 -3.561209e-01 8.027257e-04 7.218318e-02 7.062344e-02 2.071000e-01 1.474127e-01 -1.866788e-01 2.691419e-01
<VARIANCE> 39
 1.759687e+01 1.258981e+01 1.849588e+01 3.093318e+01 3.228176e+01 2.300317e+01 3.278966e+01 3.162644e+01 2.243993e+01 2.392058e+01 2.290149e+01 1.708544e+01 1.755654e+01 2.646813e+00 1.853929e+00 2.162026e+00 3.039651e+00 4.125578e+00 2.132104e+00 2.668906e+00 2.529673e+00 2.650622e+00 2.452931e+00 2.607402e+00 2.187161e+00 1.789365e+00 4.655369e-01 2.668067e-01 3.305313e-01 3.822786e-01 5.057350e-01 4.604821e-01 4.833109e-01 5.114470e-01 4.102308e-01 4.059207e-01 3.586422e-01 3.863868e-01 2.987574e-01
<GCONST> 1.118679e+02
<TRANSP> 5
 0.000000e+00 1.000000e+00 0.000000e+00 0.000000e+00 0.000000e+00
 0.000000e+00 3.633664e-01 6.366335e-01 0.000000e+00 0.000000e+00
 0.000000e+00 0.000000e+00 3.330583e-01 6.669418e-01 0.000000e+00
 0.000000e+00 0.000000e+00 0.000000e+00 2.894414e-01 7.105587e-01
 0.000000e+00 0.000000e+00 0.000000e+00 0.000000e+00 0.000000e+00
<ENDHMM>
~h "p"
<BEGINHMM>
<NUMSTATES> 5
<STATE> 2
<MEAN> 39
 -9.552960e+00 7.197356e+00 2.405383e+00 6.181047e-01 7.128671e-01 5.192760e-02 -2.423106e+00 -3.290025e+00 -5.337842e+00 -3.190005e+00 5.546264e-02 9.035206e-01 5.105264e+01 -5.950878e-01 -2.691438e-01 -2.408444e-02 1.876432e-01 -1.139699e-01 -6.606987e-02 -1.381285e-01 6.364842e-02 2.192571e-01 2.477158e-01 1.970603e-01 5.140456e-02 -4.797244e-01 1.700560e-01 -3.709002e-01 -2.626659e-02 -2.391252e-01 5.091055e-02 1.986799e-02 5.887819e-02 1.074114e-01 9.040549e-02 2.551436e-01 3.300378e-01 4.751604e-02 5.523406e-01
<VARIANCE> 39
 1.480274e+01 5.460022e+00 1.658006e+01 1.721675e+01 1.939695e+01 1.509280e+01 1.704405e+01 2.140729e+01 2.071264e+01 2.087621e+01 1.793321e+01 1.358884e+01 3.763210e+00 4.347777e-01 5.826310e-01 6.843242e-01 8.782003e-01 8.807278e-01 9.609549e-01 9.978504e-01 1.355816e+00 1.190513e+00 1.521347e+00 1.433481e+00 1.184556e+00 4.970857e-01 9.705051e-02 1.743052e-01 1.764667e-01 2.257125e-01 2.225137e-01 2.152416e-01 2.629643e-01 3.171471e-01 2.525780e-01 3.465555e-01 3.767733e-01 2.855357e-01 1.524180e-01
<GCONST> 8.549863e+01
<STATE> 3
<MEAN> 39
 -1.158052e+01 5.406664e+00 2.695785e+00 1.148238e+00 1.339953e+00 6.931049e-01 -2.010112e+00 -1.997745e+00 -3.588139e+00 -1.250782e+00 1.699257e+00 1.141728e+00 5.030177e+01 3.638747e-01 -2.128893e+00 -5.277846e-01 -1.442863e+00 2.143421e-01 2.981553e-01 1.804118e-01 5.324783e-01 1.907015e-01 1.041752e+00 1.839149e+00 1.748449e-01 2.327262e+00 6.138117e-01 -1.886192e-01 -1.244354e-01 -4.583499e-01 -3.467231e-02 -5.364462e-02 2.186580e-01 1.068994e-01 -2.578967e-01 4.827438e-02 -8.687091e-03 1.675133e-02 8.513811e-01
<VARIANCE> 39
 1.225935e+01 8.883726e+00 9.522279e+00 1.283982e+01 1.475849e+01 1.292202e+01 2.116047e+01 2.642821e+01 2.580287e+01 1.981325e+01 1.519428e+01 1.620190e+01 6.148331e+00 1.832280e+00 1.367060e+00 2.113623e+00 1.881666e+00 2.259543e+00 2.022003e+00 3.442429e+00 2.851777e+00 2.290631e+00 1.817173e+00 2.556726e+00 1.714906e+00 1.048290e+00 2.965643e-01 2.917936e-01 3.030909e-01 3.209647e-01 3.749806e-01 3.491359e-01 4.304231e-01 4.855886e-01 3.435672e-01 3.630088e-01 4.374440e-01 2.785817e-01 1.838581e-01
<GCONST> 1.011077e+02
<STATE> 4
<MEAN> 39
 -9.613523e+00 -1.094145e+00 5.467447e-01 -3.612288e+00 2.372646e+00 2.449679e+00 -5.053065e-01 -1.309194e-01 -3.887869e+00 1.270173e+00 6.877982e+00 1.398269e+00 5.810648e+01 2.030188e+00 -5.602559e-01 -2.514415e-01 -1.254778e+00 -4.029253e-01 -2.742034e-01 6.544940e-01 2.609027e-01 -8.451299e-01 4.540425e-01 1.330672e-01 8.069860e-02 2.523357e+00 4.451012e-01 7.170115e-01 1.595204e-01 3.960062e-01 -3.838874e-01 -5.042044e-01 5.766927e-02 -3.452544e-01 -2.709410e-01 -2.965473e-01 -8.858283e-01 3.239668e-02 -2.067283e-01
<VARIANCE> 39
 9.335456e+00 1.585002e+01 1.439253e+01 1.833301e+01 1.733175e+01 2.103714e+01 2.889940e+01 2.492794e+01 2.586046e+01 2.306063e+01 1.945601e+01 1.311786e+01 1.413745e+01 4.288686e+00 3.918420e+00 3.407087e+00 3.711480e+00 4.182321e+00 2.952916e+00 3.656312e+00 4.086949e+00 3.739200e+00 3.426883e+00 3.826455e+00 1.703761e+00 2.421751e+00 3.782289e-01 4.300042e-01 5.512844e-01 4.234691e-01 5.471160e-01 5.247394e-01 7.285064e-01 8.692735e-01 5.749697e-01 4.849433e-01 5.264209e-01 2.957546e-01 2.826141e-01
<GCONST> 1.158202e+02
<TRANSP> 5
 0.000000e+00 1.000000e+00 0.000000e+00 0.000000e+00 0.000000e+00
 0.000000e+00 7.586764e-01 2.413236e-01 0.000000e+00 0.000000e+00
 0.000000e+00 0.000000e+00 4.070075e-01 5.929925e-01 0.000000e+00
 0.000000e+00 0.000000e+00 0.000000e+00 4.740953e-01 5.259047e-01
 0.000000e+00 0.000000e+00 0.000000e+00 0.000000e+00 0.000000e+00
<ENDHMM>
~h "r"
<BEGINHMM>
<NUMSTATES> 5
<STATE> 2
<MEAN> 39
 -4.754939e+00 -2.316952e-01 2.679598e+00 -2.726828e+00 1.389400e+00 -1.561254e+00 -1.884807e+00 -1.780062e+00 -6.570276e+00 2.071768e+00 4.687132e+00 8.436657e-01 6.294367e+01 4.511448e-01 -9.835419e-01 -1.792199e-01 1.035010e+00 -1.334601e-01 -1.178554e+00 1.975710e-01 -8.115096e-01 -7.622204e-01 1.988302e-01 -2.338682e-01 -1.612991e-01 6.749384e-01 -1.048421e-01 1.083106e-01 -2.072279e-01 2.371635e-01 4.596129e-02 2.371804e-02 1.116279e-01 -1.812005e-02 1.300242e-01 2.045485e-02 -2.294575e-01 3.509714e-02 -2.654749e-01
<VARIANCE> 39
 2.415866e+01 2.025809e+01 2.939517e+01 4.371408e+01 2.912979e+01 2.950690e+01 2.971442e+01 2.780450e+01 4.355130e+01 2.458568e+01 2.267448e+01 1.855737e+01 1.589277e+01 4.180358e+00 3.015957e+00 3.255627e+00 4.950319e+00 4.885546e+00 3.827136e+00 3.567101e+00 2.787184e+00 3.350749e+00 3.685682e+00 3.550541e+00 2.104092e+00 2.867858e+00 6.677637e-01 4.349329e-01 5.812652e-01 1.109696e+00 8.223240e-01 5.378882e-01 5.476835e-01 6.226448e-01 7.894974e-01 6.178725e-01 6.577710e-01 3.717182e-01 4.850222e-01
<GCONST> 1.239874e+02
<STATE> 3
<MEAN> 39
 -3.597900e+00 -2.293386e+00 -6.248491e-01 1.125904e-01 2.345698e+00 -5.543789e+00 -1.889055e+00 -3.721839e+00 -8.528082e+00 3.058534e+00 3.242348e+00 9.091926e-01 6.406200e+01 -3.521006e-01 -1.108923e+00 -5.639361e-02 1.475651e+00 -4.727455e-01 -2.872637e-01 4.776248e-01 -6.831526e-01 2.494663e-01 5.962677e-02 -1.566727e-01 -2.739592e-01 -8.553541e-02 4.663351e-02 4.635369e-01 1.739154e-01 -3.628935e-01 -1.512574e-01 6.183822e-01 4.656449e-02 1.479057e-01 3.438862e-01 -1.310083e-01 1.497896e-01 1.137497e-01 -1.558657e-01
<VARIANCE> 39
 2.343773e+01 2.359609e+01 3.977401e+01 3.048456e+01 4.086658e+01 2.876488e+01 2.994274e+01 2.826733e+01 3.467777e+01 3.113648e+01 2.448929e+01 2.639419e+01 1.753197e+01 2.691068e+00 2.125016e+00 4.053421e+00 3.250769e+00 3.468903e+00 3.408154e+00 2.728015e+00 2.943465e+00 2.725930e+00 3.235235e+00 2.300843e+00 1.450338e+00 1.274562e+00 7.716964e-01 6.204668e-01 9.325194e-01 7.093420e-01 9.944183e-01 6.932458e-01 6.731644e-01 7.072372e-01 6.198629e-01 8.484481e-01 6.180990e-01 5.493150e-01 4.602246e-01
<GCONST> 1.229606e+02
<STATE> 4
<MEAN> 39
 -5.125327e+00 -3.336521e+00 2.513830e+00 2.251961e+00 -1.563234e-01 -2.604869e+00 -2.119008e-01 -4.194577e+00 -5.593037e+00 3.382290e+00 4.389095e+00 -2.092611e-01 6.298555e+01 9.845117e-01 1.173137e+00 -3.456044e-01 -3.901283e-01 -2.292646e-01 6.847035e-01 1.515892e-01 -1.475917e-01 3.967383e-01 3.667701e-02 5.666466e-03 3.860757e-01 5.704621e-02 3.403149e-01 7.164245e-01 -2.098773e-01 -6.304629e-01 2.679082e-01 2.331597e-02 -2.140802e-01 2.879323e-01 -1.068806e-01 -1.897622e-01 -4.709603e-02 2.215174e-01 1.721818e-02
<VARIANCE> 39
 2.748530e+01 2.650113e+01 3.915109e+01 1.810482e+01 3.812570e+01 2.833829e+01 3.398361e+01 3.827872e+01 3.337523e+01 2.504965e+01 2.377965e+01 1.804935e+01 1.518563e+01 3.304031e+00 2.797554e+00 5.145044e+00 2.236248e+00 3.489386e+00 2.599171e+00 3.408544e+00 3.641104e+00 3.603327e+00 3.026677e+00 2.642387e+00 2.263578e+00 1.551947e+00 6.599953e-01 6.134535e-01 8.921440e-01 5.090153e-01 7.798765e-01 6.081365e-01 7.056571e-01 7.660823e-01 7.501529e-01 6.866217e-01 5.279231e-01 3.397673e-01 3.102477e-01
<GCONST> 1.218994e+02
<TRANSP> 5
 0.000000e+00 1.000000e+00 0.000000e+00 0.000000e+00 0.000000e+00
 0.000000e+00 3.110994e-01 6.889006e-01 0.000000e+00 0.000000e+00
 0.000000e+00 0.000000e+00 3.813075e-01 6.186925e-01 0.000000e+00
 0.000000e+00 0.000000e+00 0.000000e+00 5.670649e-01 4.329351e-01
 0.000000e+00 0.000000e+00 0.000000e+00 0.000000e+00 0.000000e+00
<ENDHMM>
~h "s"
<BEGINHMM>
<NUMSTATES> 5
<STATE> 2
<MEAN> 39
 -1.829101e+01 3.653778e+00 9.935388e+00 -8.358768e+00 1.133973e+01 -8.849149e-01 -3.011905e+00 8.899146e-01 -3.041219e+00 -2.398291e+00 6.549357e+00 -8.988890e-01 6.311760e+01 -4.103305e+00 2.617117e-01 4.772564e-01 -2.226347e+00 1.355824e+00 -6.972437e-01 -6.398402e-01 1.803428e-01 1.633269e-01 -3.570381e-01 1.467523e-02 -8.304989e-01 1.058989e+00 5.057557e-01 1.122652e-01 -4.723883e-01 1.800772e-01 -7.215446e-01 -1.158858e-02 1.316370e-02 -1.977122e-01 -2.251291e-01 1.801388e-01 -2.504418e-01 4.355271e-02 -2.175079e-01
<VARIANCE> 39
 4.175273e+01 1.838936e+01 2.115572e+01 2.826963e+01 2.523020e+01 3.564837e+01 2.754892e+01 3.768616e+01 2.553362e+01 2.350409e+01 2.187374e+01 2.378257e+01 9.962966e+00 2.492685e+00 1.536386e+00 2.190227e+00 2.156491e+00 3.288898e+00 2.425979e+00 2.277582e+00 2.820904e+00 1.920931e+00 2.179911e+00 2.039273e+00 1.581125e+00 7.543484e-01 8.021426e-01 3.604808e-01 3.015848e-01 5.785658e-01 4.265773e-01 5.395646e-01 4.410767e-01 5.168437e-01 4.222906e-01 4.207435e-01 4.142970e-01 3.309396e-01 2.333069e-01
<GCONST> 1.114605e+02
<STATE> 3
<MEAN> 39
 -2.618319e+01 4.303386e+00 8.191580e+00 -1.236811e+01 1.169948e+01 -2.848761e+00 -5.207853e+00 1.104085e+00 -3.869342e+00 -1.399224e+00 6.075339e+00 -2.848641e+00 6.419813e+01 2.981399e-01 -2.555027e-01 -5.678251e-01 4.386380e-01 3.057415e-02 9.785420e-02 -3.817231e-02 -1.198212e-01 -1.927657e-01 2.873487e-01 2.268707e-01 1.634168e-01 -7.265022e-01 1.072562e+00 -1.151550e-01 -5.460579e-02 6.952316e-01 -2.359808e-01 1.565772e-01 2.676759e-01 -1.023605e-01 3.069803e-02 -2.600043e-02 -9.262232e-03 2.317826e-01 -4.972977e-01
<VARIANCE> 39
 7.901051e+00 2.090656e+01 1.685826e+01 2.279808e+01 2.565981e+01 2.994298e+01 2.246254e+01 3.039044e+01 2.783744e+01 2.162004e+01 2.299230e+01 2.426580e+01 5.906623e+00 2.791848e+00 2.147540e+00 1.097975e+00 2.146279e+00 1.872715e+00 2.040207e+00 1.848292e+00 2.261708e+00 1.950639e+00 1.784804e+00 1.876407e+00 1.603423e+00 8.953611e-01 2.555780e-01 3.710381e-01 2.330809e-01 2.855660e-01 3.416281e-01 3.747922e-01 3.492582e-01 4.359518e-01 3.819526e-01 3.770389e-01 3.966635e-01 2.995199e-01 1.283076e-01
<GCONST> 1.029394e+02
<STATE> 4
<MEAN> 39
 -1.833286e+01 3.488332e+00 6.073814e+00 -6.159506e+00 9.916080e+00 -7.367364e-01 -2.483481e+00 -4.143694e-01 -3.972472e+00 -1.127087e+00 6.099395e+00 -6.854380e-01 5.733797e+01 2.504490e+00 6.648234e-01 -3.618760e-01 1.413745e+00 -1.108428e+00 3.367700e-01 8.169957e-01 -3.132478e-01 7.650395e-02 -3.359106e-02 -6.740518e-01 4.625451e-01 -1.716170e+00 -7.331688e-02 7.326338e-02 4.531392e-02 -2.899748e-01 -2.253901e-01 -1.685008e-01 -8.031073e-02 1.296731e-01 2.587937e-03 3.518026e-02 -1.356222e-01 -7.964680e-02 4.298954e-01
<VARIANCE> 39
 1.711746e+01 3.168507e+01 1.800496e+01 2.314320e+01 3.530996e+01 3.055508e+01 3.342637e+01 3.133508e+01 2.841813e+01 2.407299e+01 2.565651e+01 1.937211e+01 1.589914e+01 1.891056e+00 2.080188e+00 1.254026e+00 1.716527e+00 2.126276e+00 1.842195e+00 2.197391e+00 2.671864e+00 2.404232e+00 1.876659e+00 2.040701e+00 1.553720e+00 1.538308e+00 3.559408e-01 6.920707e-01 3.168793e-01 3.198214e-01 5.604655e-01 4.094422e-01 5.027494e-01 5.478221e-01 5.362835e-01 4.287048e-01 4.724288e-01 3.687653e-01 3.227307e-01
<GCONST> 1.110091e+02
<TRANSP> 5
 0.000000e+00 1.000000e+00 0.000000e+00 0.000000e+00 0.000000e+00
 0.000000e+00 6.468410e-01 3.531590e-01 0.000000e+00 0.000000e+00
 0.000000e+00 0.000000e+00 7.596609e-01 2.403391e-01 0.000000e+00
 0.000000e+00 0.000000e+00 0.000000e+00 6.627364e-01 3.372637e-01
 0.000000e+00 0.000000e+00 0.000000e+00 0.000000e+00 0.000000e+00
<ENDHMM>
~h "t"
<BEGINHMM>
<NUMSTATES> 5
<STATE> 2
<MEAN> 39
 -1.094438e+01 6.967845e+00 2.521811e+00 -1.677020e+00 1.975186e+00 7.254739e-02 -1.598372e+00 -1.621605e+00 -4.295671e+00 -2.225793e+00 9.734171e-01 2.191195e-01 5.211879e+01 -4.216119e-01 -1.060658e+00 -2.164980e-01 -3.545023e-01 -6.406299e-01 -1.527685e-01 -4.370873e-02 1.913976e-02 3.100716e-01 3.712882e-01 3.415362e-02 -3.632914e-01 4.078966e-02 -1.339267e-01 -5.711403e-01 2.582060e-01 -7.190242e-01 2.053054e-01 -2.045624e-01 -2.844307e-01 2.793830e-01 -8.447514e-02 3.768073e-01 5.513631e-01 -9.884624e-02 1.020165e+00
<VARIANCE> 39
 2.708811e+01 9.558445e+00 2.088848e+01 2.517156e+01 3.039673e+01 1.924892e+01 3.173654e+01 2.864667e+01 2.208191e+01 2.152498e+01 1.546047e+01 1.230865e+01 7.374884e+00 1.838119e+00 2.180951e+00 1.680188e+00 3.256938e+00 2.154360e+00 1.798945e+00 2.016464e+00 2.139894e+00 1.737395e+00 1.554445e+00 2.079061e+00 1.348666e+00 2.687492e+00 2.064535e-01 2.837737e-01 3.172853e-01 4.000524e-01 4.395543e-01 4.150199e-01 4.233594e-01 4.256871e-01 3.321179e-01 3.262025e-01 2.753178e-01 2.802226e-01 2.057729e-01
<GCONST> 1.043299e+02
<STATE> 3
<MEAN> 39
 -1.329508e+01 2.311157e+00 4.123496e+00 -5.987693e+00 1.919886e+00 -4.479094e-01 -2.652897e+00 -2.098691e-01 -4.192829e+00 -7.663754e-02 3.378603e+00 -1.788489e+00 5.581370e+01 -8.308796e-01 -2.221254e+00 5.980022e-01 -2.124047e+00 6.349085e-02 -8.386562e-01 -8.287986e-01 6.821355e-01 1.784270e-01 1.144413e+00 1.513556e+00 -6.031570e-01 2.636258e+00 4.277293e-01 3.605178e-01 4.807584e-02 2.707302e-01 2.996897e-01 -8.790424e-02 -1.479805e-02 -1.133902e-01 -1.156872e-01 1.191572e-02 6.389778e-02 2.791826e-01 2.756238e-01
<VARIANCE> 39
 2.282450e+01 3.042516e+01 2.571835e+01 3.149542e+01 3.820747e+01 2.650761e+01 2.767987e+01 2.808748e+01 1.986583e+01 1.636344e+01 1.670064e+01 1.552530e+01 1.891313e+01 3.774140e+00 3.027752e+00 2.517042e+00 4.050301e+00 4.299184e+00 3.254864e+00 3.460391e+00 3.154285e+00 2.154229e+00 2.556038e+00 1.964211e+00 1.668487e+00 2.208272e+00 4.405402e-01 5.206847e-01 3.675646e-01 6.171607e-01 5.029515e-01 5.479534e-01 4.452517e-01 4.306496e-01 3.829995e-01 3.269852e-01 3.486192e-01 2.885604e-01 3.192779e-01
<GCONST> 1.148353e+02
<STATE> 4
<MEAN> 39
 -1.358812e+01 -6.663681e-01 4.728179e+00 -8.433800e+00 3.075484e+00 -1.982064e+00 -4.407862e+00 -7.291373e-02 -3.864689e+00 1.860967e+00 6.917236e+00 -1.140553e+00 6.051733e+01 1.436343e+00 3.018175e-01 3.446800e-02 3.661597e-01 3.139999e-01 1.030611e-01 8.547375e-02 -3.018238e-01 -3.127556e-01 2.557379e-01 2.236890e-01 5.506732e-01 9.709764e-01 7.134759e-01 7.271388e-01 -2.446091e-01 6.688536e-01 -1.309369e-01 1.194943e-01 3.456129e-01 -2.146793e-01 -1.776253e-01 -2.878372e-01 -5.995324e-01 2.766656e-01 -4.433519e-01
<VARIANCE> 39
 2.053060e+01 2.844331e+01 2.124264e+01 2.627090e+01 3.823831e+01 4.182814e+01 2.915222e+01 3.322034e+01 2.278660e+01 2.311535e+01 2.195534e+01 1.951768e+01 1.763512e+01 5.466071e+00 3.572644e+00 2.345915e+00 4.401991e+00 3.084593e+00 3.687578e+00 3.511869e+00 2.788975e+00 2.436559e+00 2.196441e+00 2.997822e+00 1.908255e+00 3.159065e+00 5.374647e-01 7.200267e-01 3.856733e-01 8.223472e-01 7.381445e-01 6.794657e-01 6.291224e-01 7.147856e-01 4.576624e-01 4.814366e-01 5.163912e-01 3.987556e-01 4.704965e-01
<GCONST> 1.209792e+02
<TRANSP> 5
 0.000000e+00 1.000000e+00 0.000000e+00 0.000000e+00 0.000000e+00
 0.000000e+00 6.347808e-01 3.652192e-01 0.000000e+00 0.000000e+00
 0.000000e+00 0.000000e+00 2.167426e-01 7.832575e-01 0.000000e+00
 0.000000e+00 0.000000e+00 0.000000e+00 5.887203e-01 4.112797e-01
 0.000000e+00 0.000000e+00 0.000000e+00 0.000000e+00 0.000000e+00
<ENDHMM>
~h "u"
<BEGINHMM>
<NUMSTATES> 5
<STATE> 2
<MEAN> 39
 -2.132401e+00 6.504881e+00 8.670147e-01 -2.456461e+00 -2.451181e+00 1.491552e+00 1.377197e+00 -5.187782e+00 -7.234293e+00 -5.836602e+00 -1.238109e+00 2.904351e+00 5.794215e+01 5.824339e-01 7.727966e-01 1.624369e-01 3.897205e-01 -1.946417e-01 -1.843511e-01 3.155645e-01 2.089870e-02 -3.843109e-01 -3.757877e-01 -6.266587e-01 2.079550e-01 -2.018683e-01 -2.621860e-01 -1.772283e-01 6.940848e-02 1.041808e-01 2.574306e-01 -4.731157e-02 -1.994935e-01 -3.154269e-02 9.618598e-02 1.431271e-01 1.087344e-01 -1.026264e-01 -2.227210e-02
<VARIANCE> 39
 2.209872e+01 1.392589e+01 1.826250e+01 2.761089e+01 3.102740e+01 2.322048e+01 1.993083e+01 2.711355e+01 2.332458e+01 2.476288e+01 3.036826e+01 1.985104e+01 1.505916e+01 2.888679e+00 1.653326e+00 2.018912e+00 2.056500e+00 2.880496e+00 2.588109e+00 2.037590e+00 3.174050e+00 1.941423e+00 1.881845e+00 2.392550e+00 1.860751e+00 1.482106e+00 3.539064e-01 2.741995e-01 3.121682e-01 4.763483e-01 4.681683e-01 4.015660e-01 3.331986e-01 4.560129e-01 2.791140e-01 3.161421e-01 4.894046e-01 3.188547e-01 2.286956e-01
<GCONST> 1.084649e+02
<STATE> 3
<MEAN> 39
 -2.351908e+00 7.271189e+00 2.042251e+00 -2.405180e-01 -6.873651e-01 9.629474e-01 2.917110e-01 -5.405812e+00 -8.349181e+00 -5.820274e+00 -1.409314e+00 3.490443e+00 5.748188e+01 -4.114424e-02 7.078201e-02 2.407905e-01 7.224789e-01 1.016809e+00 2.114394e-01 -7.565011e-01 -7.335370e-01 -1.253268e-01 4.994393e-01 3.659500e-01 6.024023e-02 -7.968984e-02 -5.444135e-01 -5.024872e-01 1.757968e-01 1.052291e-01 3.757499e-01 -2.251310e-02 -3.349306e-01 -6.789926e-02 2.895310e-01 3.417002e-01 2.346969e-01 -3.553788e-01 6.796550e-02
<VARIANCE> 39
 1.494105e+01 1.138078e+01 1.305508e+01 2.416442e+01 2.284947e+01 3.030901e+01 2.870771e+01 3.521127e+01 2.600688e+01 2.516625e+01 2.201981e+01 1.952622e+01 1.997362e+01 2.623309e+00 1.255032e+00 1.868241e+00 2.652655e+00 3.051447e+00 2.822971e+00 2.346437e+00 3.292114e+00 2.470335e+00 2.918943e+00 2.473763e+00 1.604293e+00 1.819023e+00 4.575192e-01 3.455459e-01 3.126585e-01 6.318894e-01 6.277632e-01 6.549521e-01 4.992373e-01 6.121738e-01 4.896096e-01 4.355137e-01 4.791277e-01 3.701094e-01 2.868927e-01
<GCONST> 1.124462e+02
<STATE> 4
<MEAN> 39
 -4.137242e+00 5.727318e+00 3.247001e+00 2.947842e+00 3.757733e+00 1.769854e+00 -3.857527e+00 -8.475727e+00 -7.591127e+00 -2.556381e+00 -3.439950e-03 1.304982e+00 5.682753e+01 -1.144524e+00 -8.602387e-01 5.317959e-01 5.038677e-01 7.327353e-01 -4.181964e-01 -6.438845e-01 3.687025e-02 2.778361e-01 3.096153e-01 1.427819e-01 -7.525536e-01 -2.848766e-02 -3.887942e-01 -3.547452e-01 7.040836e-02 -3.875697e-01 -3.799489e-01 -3.740505e-01 2.108776e-01 3.230287e-01 1.602388e-01 -1.271858e-01 -6.113796e-02 -1.640153e-01 1.980099e-01
<VARIANCE> 39
 1.805781e+01 1.204185e+01 1.321142e+01 2.323342e+01 2.498371e+01 3.444184e+01 3.805191e+01 4.189374e+01 2.458454e+01 2.356508e+01 2.815809e+01 2.461962e+01 2.119531e+01 2.611424e+00 2.632542e+00 1.841589e+00 4.329959e+00 5.207950e+00 2.757046e+00 3.547448e+00 2.805063e+00 3.287789e+00 3.671748e+00 2.470490e+00 2.156554e+00 1.854513e+00 3.300142e-01 3.084753e-01 3.432123e-01 5.744947e-01 6.381720e-01 6.377147e-01 5.518772e-01 6.532057e-01 5.567343e-01 6.793623e-01 5.385717e-01 4.515181e-01 3.511122e-01
<GCONST> 1.173613e+02
<TRANSP> 5
 0.000000e+00 1.000000e+00 0.000000e+00 0.000000e+00 0.000000e+00
 0.000000e+00 6.039919e-01 3.960082e-01 0.000000e+00 0.000000e+00
 0.000000e+00 0.000000e+00 3.604730e-01 6.395269e-01 0.000000e+00
 0.000000e+00 0.000000e+00 0.000000e+00 4.105255e-01 5.894744e-01
 0.000000e+00 0.000000e+00 0.000000e+00 0.000000e+00 0.000000e+00
<ENDHMM>
~h "v"
<BEGINHMM>
<NUMSTATES> 5
<STATE> 2
<MEAN> 39
 -5.543290e+00 5.884732e+00 2.657633e+00 2.661704e-01 3.149460e+00 6.339266e-01 -5.578812e-01 -3.272374e+00 -5.520285e+00 -2.447271e+00 2.185094e+00 8.701175e-01 5.721836e+01 -1.631158e-01 2.380477e-01 2.599112e-01 1.564959e-01 1.297712e-01 3.033790e-01 2.211814e-01 4.856870e-01 1.150986e-01 -7.864747e-02 2.587992e-02 -3.346702e-01 -2.985102e-01 4.182824e-01 -2.852167e-01 -1.589833e-01 -2.494102e-01 -2.133720e-01 -5.356205e-01 -2.541153e-01 4.333860e-02 8.674774e-02 3.584021e-01 6.220112e-02 -5.165083e-02 6.188939e-01
<VARIANCE> 39
 3.129002e+01 1.498377e+01 1.743843e+01 3.268789e+01 2.018390e+01 1.373410e+01 2.533176e+01 2.618773e+01 1.756143e+01 1.857318e+01 1.652287e+01 1.252072e+01 1.415667e+01 2.236655e+00 1.405499e+00 1.365758e+00 1.802311e+00 1.578336e+00 1.386128e+00 1.636965e+00 1.896435e+00 1.509323e+00 1.692685e+00 1.421692e+00 1.332746e+00 9.006988e-01 3.823403e-01 2.865412e-01 3.331759e-01 3.671464e-01 3.311113e-01 3.098059e-01 3.565921e-01 4.155045e-01 3.174630e-01 4.410407e-01 2.811135e-01 3.051978e-01 1.698283e-01
<GCONST> 1.008056e+02
<STATE> 3
<MEAN> 39
 -4.928997e+00 6.041191e+00 2.759902e+00 -1.805663e-02 3.130075e+00 7.195728e-01 -3.976431e-01 -2.242786e+00 -4.812330e+00 -1.780295e+00 2.827553e+00 3.869931e-01 5.756995e+01 1.027407e+00 -2.979417e-01 -3.291135e-01 -5.469787e-01 -3.790503e-01 -9.066828e-01 -4.596152e-01 4.174264e-01 1.132978e-01 6.186295e-01 5.125072e-02 -2.155201e-01 1.035884e+00 3.380148e-01 -3.263635e-01 -1.890210e-01 -2.301792e-01 -2.311298e-01 -5.806587e-01 -2.222161e-01 -9.691244e-02 -3.571273e-02 2.926503e-01 -4.835292e-02 7.918894e-02 5.901732e-01
<VARIANCE> 39
 2.622979e+01 1.092048e+01 1.904348e+01 3.580783e+01 2.398969e+01 1.599196e+01 2.352143e+01 2.680433e+01 1.577077e+01 1.720623e+01 1.716541e+01 1.315023e+01 1.319815e+01 3.452101e+00 1.963668e+00 2.226109e+00 2.947420e+00 2.187155e+00 1.564107e+00 2.465558e+00 2.988196e+00 2.025935e+00 2.233887e+00 1.899201e+00 1.669992e+00 1.087488e+00 3.810396e-01 2.018215e-01 3.498184e-01 3.711294e-01 3.257219e-01 3.134534e-01 3.551247e-01 4.484460e-01 3.592254e-01 3.325270e-01 2.695541e-01 2.320753e-01 1.399061e-01
<GCONST> 1.040394e+02
<STATE> 4
<MEAN> 39
 -2.119717e+00 4.865515e+00 1.169884e+00 -2.107671e+00 1.380505e+00 -2.047629e+00 -9.944742e-01 -1.922801e+00 -4.664755e+00 -4.036419e-01 2.602703e+00 3.029670e-01 6.073758e+01 1.093717e+00 -6.388974e-01 -4.620326e-01 -6.877728e-01 -4.750107e-01 -1.401029e+00 -6.169865e-01 1.503034e-01 5.492254e-02 8.144239e-01 -7.258437e-02 -1.206567e-01 1.516052e+00 -1.067749e-01 -4.756706e-02 1.331369e-01 4.095481e-02 2.559530e-02 -5.461910e-02 -3.338340e-02 -1.198221e-01 -1.096013e-01 4.564313e-03 -5.344494e-02 1.496549e-02 7.004229e-02
<VARIANCE> 39
 2.494171e+01 1.322404e+01 2.775686e+01 4.676434e+01 2.258215e+01 1.427860e+01 3.439999e+01 3.229241e+01 1.766923e+01 1.886669e+01 1.923878e+01 2.045069e+01 1.284741e+01 2.714746e+00 1.584980e+00 3.418996e+00 3.412613e+00 2.570769e+00 2.009020e+00 2.444963e+00 2.760202e+00 2.189525e+00 2.243231e+00 1.673503e+00 1.667738e+00 1.117426e+00 4.578016e-01 2.644629e-01 3.490323e-01 3.645818e-01 3.981923e-01 2.843335e-01 3.311389e-01 4.637222e-01 3.234196e-01 3.275683e-01 3.604396e-01 2.561964e-01 1.780460e-01
<GCONST> 1.073889e+02
<TRANSP> 5
 0.000000e+00 1.000000e+00 0.000000e+00 0.000000e+00 0.000000e+00
 0.000000e+00 3.925647e-01 6.074353e-01 0.000000e+00 0.000000e+00
 0.000000e+00 0.000000e+00 2.051863e-01 7.948137e-01 0.000000e+00
 0.000000e+00 0.000000e+00 0.000000e+00 2.228906e-01 7.771094e-01
 0.000000e+00 0.000000e+00 0.000000e+00 0.000000e+00 0.000000e+00
<ENDHMM>
~h "x"
<BEGINHMM>
<NUMSTATES> 5
<STATE> 2
<MEAN> 39
 -1.207226e+01 -1.775484e+00 7.076065e+00 -5.986854e-01 4.836972e+00 -1.096107e-02 -5.138509e+00 2.510416e-01 -3.558454e+00 -1.652267e+00 6.193171e+00 -3.615526e+00 5.793670e+01 -7.625451e-01 -7.575246e-01 -8.460993e-01 -8.863170e-01 1.327963e-01 -2.147946e-01 -5.653566e-01 -1.173936e-01 -1.006867e-02 -9.946366e-02 6.256203e-01 -1.549328e-01 -5.288263e-02 1.936806e-01 2.043330e-01 -3.429880e-02 1.898088e-01 -1.032803e-01 -1.079430e-01 4.383342e-02 -7.939406e-02 8.942952e-02 2.277538e-01 -2.390223e-01 7.411911e-02 5.574413e-03
<VARIANCE> 39
 2.182503e+01 1.700166e+01 1.224750e+02 4.412514e+01 3.156233e+01 4.693511e+01 3.759618e+01 2.989058e+01 5.058718e+01 2.687702e+01 2.430127e+01 2.411634e+01 7.010039e+00 8.728882e-01 9.808756e-01 2.197368e+00 2.522247e+00 1.942357e+00 2.574500e+00 2.952075e+00 2.795561e+00 2.819127e+00 2.398188e+00 1.906461e+00 1.632745e+00 3.522883e-01 1.030925e-01 1.728473e-01 4.151442e-01 4.139115e-01 3.760924e-01 4.547900e-01 5.285317e-01 4.940929e-01 5.014090e-01 4.829812e-01 3.201525e-01 2.807194e-01 6.827500e-02
<GCONST> 1.079211e+02
<STATE> 3
<MEAN> 39
 -1.291899e+01 -2.730492e+00 4.892310e+00 -6.889398e-01 6.075738e+00 -1.158322e+00 -6.138689e+00 -1.551068e+00 -3.731003e+00 -6.824969e-02 7.062092e+00 -2.313200e+00 5.803719e+01 3.337628e-01 9.253359e-01 -8.144798e-01 2.269398e-01 3.885022e-01 5.627626e-01 5.837612e-01 -7.049084e-03 3.155023e-01 6.313184e-01 -1.013141e+00 3.124547e-01 -5.168413e-01 3.830942e-01 5.396734e-01 1.232842e-01 8.677635e-02 -2.678278e-01 2.965428e-02 2.457645e-01 1.298015e-01 -1.197490e-03 -1.355986e-01 -5.123909e-01 8.828674e-02 3.009471e-02
<VARIANCE> 39
 2.216667e+01 2.719271e+01 9.846786e+01 4.253859e+01 2.771263e+01 4.318171e+01 3.637536e+01 4.473744e+01 4.248831e+01 2.870599e+01 3.985468e+01 2.667772e+01 1.007624e+01 1.869531e+00 1.368173e+00 2.375192e+00 2.783254e+00 1.828202e+00 3.364713e+00 4.215923e+00 4.264044e+00 2.076549e+00 2.521554e+00 2.501371e+00 1.818015e+00 9.683645e-01 3.050887e-01 2.638306e-01 3.794954e-01 2.980175e-01 4.757622e-01 5.913886e-01 6.854579e-01 7.827919e-01 4.671451e-01 4.328124e-01 6.081716e-01 3.757806e-01 1.783665e-01
<GCONST> 1.165698e+02
<STATE> 4
<MEAN> 39
 -1.069749e+01 2.124153e+00 3.334902e+00 1.407611e+00 5.798157e+00 -2.393506e-02 -4.513336e+00 3.722182e-01 -9.651360e-01 3.837983e-01 2.254266e+00 -1.414699e+00 5.526748e+01 7.628159e-01 1.134102e+00 -3.536687e-01 -3.116256e-01 -2.928700e-01 -1.048060e-01 4.656843e-01 2.570845e-01 3.935907e-02 4.544916e-01 -1.025015e+00 4.960918e-01 2.678885e-01 7.445856e-02 -1.828460e-01 9.232599e-02 -3.096335e-01 -1.754867e-01 -2.864702e-01 -1.023136e-01 4.287390e-02 -2.790523e-01 -5.742304e-02 2.292809e-01 -1.408277e-02 3.955706e-01
<VARIANCE> 39
 2.962864e+01 2.023216e+01 3.934542e+01 2.859596e+01 2.178881e+01 4.765911e+01 2.537202e+01 3.158972e+01 2.608509e+01 2.194397e+01 2.554303e+01 1.626675e+01 1.823832e+01 3.401028e+00 2.068354e+00 2.102763e+00 2.594199e+00 1.860655e+00 2.828915e+00 2.316750e+00 2.556509e+00 2.533558e+00 2.692518e+00 4.249210e+00 2.103563e+00 2.053162e+00 2.973278e-01 3.257221e-01 2.938877e-01 4.496672e-01 2.874519e-01 6.984435e-01 5.642423e-01 4.836920e-01 5.089005e-01 4.444250e-01 4.585558e-01 3.341284e-01 2.509871e-01
<GCONST> 1.139232e+02
<TRANSP> 5
 0.000000e+00 1.000000e+00 0.000000e+00 0.000000e+00 0.000000e+00
 0.000000e+00 7.708355e-01 2.291645e-01 0.000000e+00 0.000000e+00
 0.000000e+00 0.000000e+00 4.848807e-01 5.151193e-01 0.000000e+00
 0.000000e+00 0.000000e+00 0.000000e+00 4.795775e-01 5.204225e-01
 0.000000e+00 0.000000e+00 0.000000e+00 0.000000e+00 0.000000e+00
<ENDHMM>
~h "z"
<BEGINHMM>
<NUMSTATES> 5
<STATE> 2
<MEAN> 39
 -8.923514e+00 8.270403e+00 1.015365e+01 -7.395755e+00 9.315267e+00 -3.580585e+00 -5.648373e+00 -1.476858e+00 -6.993144e+00 -4.009562e+00 6.753953e+00 1.548148e+00 6.233478e+01 -3.575231e+00 9.970288e-01 2.189888e+00 -1.618013e+00 2.656743e+00 -2.828593e-01 -1.838925e-01 2.501481e-01 5.682415e-02 -6.598945e-01 6.209393e-01 -8.815835e-01 4.630854e-01 -1.254784e-01 -2.737993e-01 -3.880396e-01 2.955658e-01 -5.269913e-01 -7.428586e-03 3.652311e-01 1.590786e-01 1.530662e-01 3.897398e-01 -3.244255e-01 -1.809792e-01 5.344673e-02
<VARIANCE> 39
 2.507947e+01 8.451303e+00 2.510222e+01 4.121922e+01 2.617009e+01 3.962965e+01 1.882842e+01 3.184773e+01 2.090460e+01 2.922227e+01 2.149780e+01 2.213037e+01 1.175779e+01 2.162539e+00 1.349020e+00 2.013036e+00 2.533489e+00 2.376155e+00 2.913709e+00 2.359582e+00 2.324822e+00 3.297891e+00 2.688686e+00 2.248191e+00 1.508227e+00 1.074093e+00 5.742487e-01 2.321007e-01 4.191395e-01 3.815036e-01 6.269764e-01 3.932650e-01 3.753967e-01 3.714288e-01 5.154535e-01 4.802600e-01 4.230147e-01 3.168337e-01 1.208128e-01
<GCONST> 1.094340e+02
<STATE> 3
<MEAN> 39
 -1.838832e+01 9.482265e+00 1.237329e+01 -8.952438e+00 1.303742e+01 -5.199496e+00 -4.306927e+00 6.966279e-01 -6.200274e+00 -3.132666e+00 6.225167e+00 -1.973660e+00 6.385576e+01 -6.807173e-01 -4.443969e-01 -2.710783e-01 3.288024e-01 -2.474646e-01 1.474755e-01 3.660910e-01 2.263871e-01 1.649261e-01 5.089304e-01 4.517385e-02 -3.439365e-01 -8.970533e-02 1.332957e+00 -3.864942e-01 -5.022925e-01 5.514013e-01 -8.020898e-01 2.694833e-02 -6.765927e-02 -1.927704e-01 3.361643e-02 1.707589e-01 -8.438779e-02 3.035647e-01 -1.640722e-01
<VARIANCE> 39
 2.028056e+01 1.035418e+01 1.819885e+01 3.184096e+01 1.831568e+01 4.030770e+01 2.019328e+01 2.264053e+01 2.111688e+01 2.611114e+01 2.309725e+01 1.769976e+01 4.622265e+00 4.240129e+00 1.197224e+00 1.280057e+00 1.970759e+00 1.793216e+00 1.633261e+00 1.765857e+00 1.874328e+00 2.033865e+00 1.799757e+00 1.605702e+00 1.245368e+00 4.577300e-01 2.436191e-01 2.109761e-01 3.669306e-01 3.301158e-01 3.590655e-01 3.823104e-01 4.021586e-01 3.477604e-01 4.890819e-01 4.704778e-01 3.842898e-01 2.243749e-01 8.205262e-02
<GCONST> 1.005504e+02
<STATE> 4
<MEAN> 39
 -1.230103e+01 5.999572e+00 9.608994e+00 -5.236223e+00 8.213025e+00 -3.796658e+00 -3.908405e+00 -5.450559e-01 -5.538415e+00 -1.325162e+00 6.880820e+00 -5.155544e-01 6.224557e+01 3.005339e+00 -7.295394e-01 -1.227593e+00 1.101999e+00 -1.873524e+00 4.591421e-02 -2.582097e-01 -6.904480e-01 2.830913e-01 6.235938e-01 -4.400046e-01 5.832092e-01 -2.820133e-01 2.332514e-01 1.226564e-01 -1.208498e-01 -7.920789e-02 -9.876441e-02 -1.933744e-02 -8.020819e-02 -5.636108e-02 -4.554501e-03 -5.299898e-02 -3.544408e-01 6.478289e-02 8.797739e-02
<VARIANCE> 39
 3.429906e+01 1.568257e+01 2.122629e+01 2.904380e+01 2.457672e+01 4.227752e+01 2.598131e+01 2.740430e+01 2.142296e+01 2.428441e+01 2.083401e+01 1.808645e+01 8.639356e+00 2.903954e+00 1.623661e+00 2.777330e+00 2.248708e+00 2.231660e+00 1.961022e+00 2.885835e+00 2.330784e+00 2.248672e+00 2.350886e+00 2.506602e+00 1.639396e+00 1.019584e+00 7.532172e-01 3.304660e-01 3.922684e-01 2.893537e-01 4.259199e-01 3.249156e-01 4.002639e-01 4.022184e-01 3.712896e-01 4.043084e-01 3.688101e-01 3.264390e-01 1.488038e-01
<GCONST> 1.088189e+02
<TRANSP> 5
 0.000000e+00 1.000000e+00 0.000000e+00 0.000000e+00 0.000000e+00
 0.000000e+00 5.615832e-01 4.384167e-01 0.000000e+00 0.000000e+00
 0.000000e+00 0.000000e+00 6.966940e-01 3.033060e-01 0.000000e+00
 0.000000e+00 0.000000e+00 0.000000e+00 6.324183e-01 3.675818e-01
 0.000000e+00 0.000000e+00 0.000000e+00 0.000000e+00 0.000000e+00
<ENDHMM>
~h "aa"
<BEGINHMM>
<NUMSTATES> 5
<STATE> 2
<MEAN> 39
 2.566828e-01 1.597532e+00 -4.663606e+00 -1.083689e+01 3.271382e+00 -2.208055e+00 2.441301e-01 3.141081e+00 -5.542330e+00 3.145618e+00 4.083525e+00 -3.037247e-01 6.700493e+01 6.246782e-01 -1.427411e-01 -1.208895e+00 -2.094243e+00 7.338430e-01 -8.042637e-03 1.415654e-01 1.527002e+00 -1.111234e+00 -1.244422e-01 2.342019e-01 -3.972147e-02 7.390405e-01 -4.347525e-01 6.884208e-02 4.644391e-01 3.522667e-01 4.477297e-02 2.594694e-02 -1.619667e-02 4.165563e-02 -1.669310e-01 -2.973175e-01 1.010719e-01 -8.909423e-02 -4.203542e-01
<VARIANCE> 39
 4.909735e+00 1.511184e+01 1.329409e+01 2.641902e+01 2.585626e+01 1.942876e+01 2.994243e+01 3.259116e+01 2.822000e+01 1.919821e+01 2.124190e+01 2.232123e+01 9.660036e+00 1.392291e+00 1.185641e+00 1.584131e+00 2.487781e+00 2.931793e+00 1.705774e+00 1.803950e+00 1.865776e+00 2.359878e+00 1.460204e+00 1.711955e+00 1.144880e+00 9.778911e-01 2.486821e-01 2.538203e-01 2.420116e-01 3.799602e-01 4.850206e-01 2.885415e-01 3.379864e-01 4.287479e-01 4.651639e-01 2.883528e-01 3.847800e-01 2.199391e-01 1.028365e-01
<GCONST> 1.004557e+02
<STATE> 3
<MEAN> 39
 3.651997e-01 3.776033e+00 -5.332038e+00 -1.471712e+01 5.543362e+00 -2.470749e-01 1.943493e+00 8.147039e+00 -9.571568e+00 5.327120e-01 5.421596e+00 -6.464753e-01 6.516779e+01 -1.284934e-02 2.407976e-01 1.540080e-01 2.156443e-03 1.333241e-01 6.035918e-02 -7.732421e-02 2.844386e-01 -2.000141e-01 -1.829442e-01 1.233063e-01 5.544407e-02 -2.540676e-01 -8.287637e-02 3.841853e-02 2.266219e-01 4.422267e-01 -1.874950e-01 -4.978634e-03 -2.705325e-03 -3.064559e-01 2.043016e-01 1.184696e-02 -8.114716e-02 6.280958e-02 -1.414243e-01
<VARIANCE> 39
 3.406615e+00 9.804779e+00 9.764011e+00 1.292352e+01 1.761727e+01 1.642612e+01 1.863841e+01 2.570572e+01 2.275999e+01 1.781618e+01 1.541641e+01 1.664026e+01 7.269477e+00 1.692805e-01 4.601041e-01 6.493729e-01 1.229900e+00 1.301404e+00 9.389973e-01 9.878542e-01 1.499442e+00 1.383963e+00 1.077451e+00 9.922985e-01 9.216573e-01 2.046666e-01 4.643560e-02 8.473670e-02 1.062320e-01 1.723739e-01 2.107179e-01 1.760104e-01 1.757518e-01 2.440113e-01 2.122870e-01 1.783702e-01 1.744199e-01 1.534439e-01 4.462582e-02
<GCONST> 7.595356e+01
<STATE> 4
<MEAN> 39
 -9.954681e-01 4.696128e+00 -2.483191e+00 -9.806448e+00 4.354680e+00 -1.521366e-01 7.000878e-01 5.446960e+00 -7.652844e+00 3.098750e-01 4.836783e+00 4.633825e-01 6.272833e+01 -1.051227e+00 4.181249e-01 1.242213e+00 1.860897e+00 -5.730850e-01 2.043368e-01 4.184501e-01 -1.160451e+00 7.059404e-01 -4.193978e-01 -5.559838e-01 7.376324e-02 -1.253979e+00 -3.428817e-01 -1.172493e-01 8.214861e-02 -1.447313e-02 1.406166e-03 -1.217909e-02 1.632507e-02 -1.270427e-01 2.449993e-02 -2.014055e-02 -6.818822e-02 -1.524405e-01 -1.462541e-02
<VARIANCE> 39
 7.056269e+00 1.273127e+01 1.542621e+01 2.589044e+01 3.025325e+01 2.813447e+01 2.774607e+01 2.626475e+01 3.161255e+01 2.174400e+01 1.945184e+01 1.923276e+01 1.914479e+01 1.106400e+00 1.297130e+00 1.980435e+00 1.903510e+00 3.073899e+00 1.873045e+00 1.812416e+00 2.056257e+00 2.464103e+00 1.798708e+00 1.994750e+00 1.489143e+00 6.819279e-01 2.462378e-01 2.109828e-01 3.530403e-01 5.155051e-01 4.317362e-01 3.973215e-01 3.583557e-01 4.087462e-01 4.961144e-01 3.555200e-01 3.546581e-01 2.596345e-01 1.806381e-01
<GCONST> 1.036851e+02
<TRANSP> 5
 0.000000e+00 1.000000e+00 0.000000e+00 0.000000e+00 0.000000e+00
 0.000000e+00 6.575294e-01 3.424706e-01 0.000000e+00 0.000000e+00
 0.000000e+00 0.000000e+00 8.309026e-01 1.690975e-01 0.000000e+00
 0.000000e+00 0.000000e+00 0.000000e+00 6.841010e-01 3.158990e-01
 0.000000e+00 0.000000e+00 0.000000e+00 0.000000e+00 0.000000e+00
<ENDHMM>
~h "aw"
<BEGINHMM>
<NUMSTATES> 5
<STATE> 2
<MEAN> 39
 -1.050250e+01 -4.118534e+00 -5.988982e+00 -3.532535e+00 5.040321e+00 4.828033e+00 -1.386150e+00 9.336668e-01 -1.019752e+00 -3.430741e-01 4.591995e+00 1.547012e+00 5.386348e+01 -3.701496e-01 -1.816902e-01 5.613700e-02 -6.316812e-03 -2.696618e-01 9.183817e-02 -8.271901e-02 -3.765703e-02 2.906228e-01 1.293843e-01 7.609285e-02 -1.259470e-01 -2.769313e-01 -6.328454e-03 1.193454e-01 1.014994e-01 4.874231e-02 -1.153288e-01 -2.339207e-01 2.038165e-02 -2.165423e-02 -9.538487e-03 1.312757e-02 -8.912968e-02 -9.079578e-02 -2.214352e-02
<VARIANCE> 39
 6.371289e+00 3.062135e+01 2.035656e+01 1.028369e+01 1.685733e+01 2.912157e+01 2.692185e+01 2.068872e+01 1.070645e+01 1.038538e+01 6.399415e+00 2.145734e+01 6.131061e+00 4.624407e-01 1.633912e+00 1.580766e+00 1.040011e+00 1.530015e+00 2.508571e+00 1.762548e+00 2.359269e+00 1.418456e+00 1.935031e+00 7.864132e-01 1.398647e+00 6.587077e-01 6.252893e-02 1.534406e-01 3.423043e-01 2.186553e-01 2.612193e-01 4.547861e-01 3.740437e-01 5.036005e-01 2.473098e-01 2.600762e-01 1.933864e-01 4.203056e-01 5.650999e-02
<GCONST> 9.076917e+01
<STATE> 3
<MEAN> 39
 -1.487012e+01 2.918826e+00 1.912065e-01 1.906537e+00 2.320030e+00 4.907868e+00 2.980441e+00 2.354530e+00 1.278294e+00 2.363286e+00 2.434014e+00 1.735146e+00 4.759524e+01 -1.921919e-01 -2.522129e-02 1.125927e-01 1.653620e-01 1.267591e-01 -2.127016e-02 2.041322e-01 2.604354e-01 1.072460e-01 2.241433e-02 -3.196096e-02 8.575370e-02 -1.402493e-01 7.096422e-02 -2.597961e-02 -2.749649e-02 -1.330327e-01 -2.136791e-03 3.796014e-02 -1.420252e-03 3.901748e-02 -4.277027e-02 -6.379164e-02 2.433129e-02 1.529120e-02 9.927294e-02
<VARIANCE> 39
 5.119759e+00 3.590105e+00 3.790204e+00 8.335602e+00 7.484961e+00 9.320727e+00 1.077236e+01 1.481359e+01 9.387441e+00 1.262088e+01 1.257094e+01 1.149579e+01 2.329365e+00 2.132357e-01 3.644982e-01 4.243693e-01 1.181194e+00 7.724231e-01 8.732996e-01 8.830266e-01 1.321083e+00 8.859488e-01 1.530553e+00 1.285387e+00 1.546325e+00 1.980868e-01 5.292460e-02 8.711888e-02 8.455435e-02 3.478355e-01 1.531046e-01 1.819498e-01 1.559505e-01 2.643595e-01 1.412713e-01 3.130986e-01 3.194256e-01 3.212046e-01 1.052966e-01
<GCONST> 7.051911e+01
<STATE> 4
<MEAN> 39
 -1.267822e+01 1.451449e+00 -2.997430e-01 -1.781037e+00 2.029832e+00 6.692328e+00 5.318388e+00 6.113041e+00 9.229685e-02 1.549811e+00 3.537486e+00 3.838894e+00 5.025159e+01 2.444738e+00 -3.056167e-01 4.160148e-01 -2.337167e+00 -2.202182e+00 -4.335455e-01 -8.343237e-02 8.767151e-01 -2.136371e+00 -1.268986e+00 -1.386318e-01 -6.348766e-01 2.677317e+00 7.101691e-01 3.569901e-02 2.109013e-01 -2.407358e-01 -5.093148e-01 -4.882031e-01 -2.160304e-01 -4.591293e-01 -5.252109e-01 -2.049841e-01 -1.247277e-01 -1.395218e-01 8.560700e-01
<VARIANCE> 39
 2.312130e+01 6.251070e+00 2.298182e+00 3.861591e+01 2.039811e+01 6.902681e+00 1.486690e+01 1.196619e+01 3.067738e+01 9.208630e+00 7.146079e+00 4.576797e+00 2.721190e+01 2.520041e+00 3.029510e+00 1.179560e+00 7.322770e+00 2.797948e+00 1.867298e+00 1.905185e+00 3.240791e+00 3.238910e+00 1.367329e+00 1.554784e+00 1.268932e+00 4.307307e+00 3.022988e-01 3.344077e-01 1.679049e-01 9.906727e-01 4.601463e-01 4.540857e-01 1.682834e-01 2.414520e-01 7.628695e-01 4.415392e-01 3.702320e-01 1.610629e-01 4.809668e-01
<GCONST> 1.014964e+02
<TRANSP> 5
 0.000000e+00 1.000000e+00 0.000000e+00 0.000000e+00 0.000000e+00
 0.000000e+00 8.946264e-01 1.053736e-01 0.000000e+00 0.000000e+00
 0.000000e+00 0.000000e+00 9.318928e-01 6.810725e-02 0.000000e+00
 0.000000e+00 0.000000e+00 0.000000e+00 5.573526e-01 4.426474e-01
 0.000000e+00 0.000000e+00 0.000000e+00 0.000000e+00 0.000000e+00
<ENDHMM>
~h "ch"
<BEGINHMM>
<NUMSTATES> 5
<STATE> 2
<MEAN> 39
 -1.243926e+01 -4.296495e-01 8.462415e+00 4.092799e-01 -1.483098e+00 -1.400086e+00 1.973044e+00 -5.155103e+00 -5.047053e+00 -1.036461e+00 1.868737e+00 -1.842942e+00 5.740708e+01 -2.747098e+00 -2.681857e+00 2.009055e+00 -5.858577e-01 -8.194135e-01 -2.007468e+00 1.882098e+00 -2.412809e-01 -2.735738e-01 -1.887415e-01 4.334724e-01 -5.482647e-01 1.861936e+00 -2.953267e-01 -2.208952e-01 3.827710e-01 2.801025e-01 3.640722e-01 -7.105753e-01 -1.136104e-01 2.370944e-01 1.581152e-01 1.045354e-02 6.950673e-02 6.938691e-02 4.713303e-01
<VARIANCE> 39
 2.352741e+01 3.930140e+01 3.417228e+01 3.152793e+01 3.704033e+01 3.575046e+01 3.753431e+01 2.910072e+01 2.616126e+01 2.350496e+01 1.556115e+01 1.529575e+01 2.097152e+01 2.334926e+00 2.511188e+00 3.100148e+00 2.922253e+00 3.355481e+00 4.161048e+00 2.254636e+00 2.891322e+00 1.996761e+00 2.119672e+00 1.529188e+00 1.222661e+00 2.019943e+00 3.984225e-01 7.780995e-01 5.899752e-01 6.141463e-01 7.723560e-01 6.500599e-01 7.531708e-01 5.775263e-01 5.187548e-01 4.731492e-01 3.390501e-01 2.834964e-01 5.435967e-01
<GCONST> 1.178016e+02
<STATE> 3
<MEAN> 39
 -2.351540e+01 -8.858781e+00 1.693959e+01 2.517066e+00 1.320465e-01 -1.257047e+01 5.525265e+00 -3.437076e+00 -4.911173e+00 -2.821947e+00 3.434774e+00 -2.376002e+00 6.460783e+01 -7.124965e-01 -1.010246e+00 3.070857e-01 4.174075e-01 8.892187e-01 -1.645382e+00 -5.161259e-01 1.217888e+00 9.272285e-01 -9.074854e-02 2.082611e-01 3.724907e-01 4.789304e-01 1.341235e+00 8.697807e-01 -8.747430e-01 -7.003019e-02 2.477033e-02 9.918070e-01 -6.072115e-01 4.643888e-02 2.406853e-01 2.544202e-01 -1.929048e-01 1.317885e-01 -7.827476e-01
<VARIANCE> 39
 7.942861e+00 1.131578e+01 1.406541e+01 1.839651e+01 2.049205e+01 2.035536e+01 2.061413e+01 2.280893e+01 1.887498e+01 2.306562e+01 1.809690e+01 1.517682e+01 5.568717e+00 3.892988e+00 1.966571e+00 2.770149e+00 2.002843e+00 2.155622e+00 4.131348e+00 2.164277e+00 1.916941e+00 2.083937e+00 2.088615e+00 1.342869e+00 1.348611e+00 1.528746e+00 3.585176e-01 2.959557e-01 3.657781e-01 3.102473e-01 4.037668e-01 4.499817e-01 3.667760e-01 4.475429e-01 3.426415e-01 3.463361e-01 2.968395e-01 2.809032e-01 1.248541e-01
<GCONST> 1.025462e+02
<STATE> 4
<MEAN> 39
 -1.732475e+01 -6.969628e+00 1.221943e+01 2.416027e+00 2.209294e+00 -1.013523e+01 1.625065e+00 5.367888e-01 -4.089650e-01 -4.545118e-01 2.866442e+00 -7.630094e-01 6.086433e+01 3.169783e+00 2.253600e+00 -1.239993e+00 4.471543e-01 5.113842e-02 2.043395e+00 -1.133198e+00 5.081836e-02 4.532657e-01 7.648712e-01 -4.453636e-01 3.409299e-01 -1.133826e+00 3.330185e-01 4.330241e-01 -2.025659e-02 8.272871e-03 -2.258794e-01 3.283935e-01 8.118676e-02 -4.284857e-01 -4.480964e-01 1.090149e-02 -1.839921e-02 4.197725e-03 1.885329e-01
<VARIANCE> 39
 2.442826e+01 1.884071e+01 1.660876e+01 1.684446e+01 2.376432e+01 4.110759e+01 2.661344e+01 2.601199e+01 1.715166e+01 2.448991e+01 1.941951e+01 1.293777e+01 1.048492e+01 2.910135e+00 1.573615e+00 1.850043e+00 1.808801e+00 1.738496e+00 2.420102e+00 2.688070e+00 2.665065e+00 1.643679e+00 1.966269e+00 1.952554e+00 1.480294e+00 9.942756e-01 5.909540e-01 4.156173e-01 2.855073e-01 3.229868e-01 4.079718e-01 8.065795e-01 4.698790e-01 4.702638e-01 3.225329e-01 3.888829e-01 4.054697e-01 3.289537e-01 2.891345e-01
<GCONST> 1.074077e+02
<TRANSP> 5
 0.000000e+00 1.000000e+00 0.000000e+00 0.000000e+00 0.000000e+00
 0.000000e+00 7.297723e-01 2.702277e-01 0.000000e+00 0.000000e+00
 0.000000e+00 0.000000e+00 7.201118e-01 2.798881e-01 0.000000e+00
 0.000000e+00 0.000000e+00 0.000000e+00 6.860027e-01 3.139972e-01
 0.000000e+00 0.000000e+00 0.000000e+00 0.000000e+00 0.000000e+00
<ENDHMM>
~h "dj"
<BEGINHMM>
<NUMSTATES> 5
<STATE> 2
<MEAN> 39
 -5.507844e+00 6.583526e+00 7.936217e+00 3.889861e+00 1.411867e+00 3.636764e-01 -5.705446e+00 -6.339275e+00 -4.843633e+00 2.429636e-01 -1.179978e+00 -3.252525e+00 5.706989e+01 -1.000489e+00 -3.364018e-01 1.766042e+00 -1.586388e-01 -9.741348e-01 7.060311e-01 5.271209e-02 -2.403432e-01 -1.025284e-01 -1.644770e-01 2.284556e-01 -6.646345e-01 1.561897e-01 -2.798612e-01 -3.032386e-01 2.609468e-01 -3.667769e-01 -1.764058e-01 4.183223e-02 3.151971e-01 1.645902e-01 -1.227748e-02 -6.603800e-02 3.061872e-01 1.525132e-01 3.384092e-01
<VARIANCE> 39
 2.509924e+01 2.664985e+01 3.574833e+01 3.735584e+01 3.144415e+01 2.833117e+01 3.919541e+01 3.946210e+01 2.348333e+01 3.239307e+01 1.717068e+01 3.160942e+01 2.525224e+01 3.409182e+00 3.475230e+00 2.736264e+00 5.398727e+00 3.234295e+00 5.399653e+00 4.186078e+00 4.539936e+00 2.641653e+00 4.322394e+00 2.271082e+00 2.885400e+00 3.247094e+00 4.728804e-01 6.085253e-01 6.915311e-01 8.685941e-01 7.488211e-01 1.221932e+00 1.007357e+00 9.138983e-01 4.983923e-01 8.276836e-01 3.553551e-01 6.282535e-01 6.907424e-01
<GCONST> 1.274565e+02
<STATE> 3
<MEAN> 39
 -1.406257e+01 1.312991e+00 1.730286e+01 -1.505046e+00 -3.215407e+00 3.122443e+00 -2.210532e+00 -5.023078e+00 -6.356471e+00 -2.447192e+00 3.358157e+00 -3.422719e+00 6.026648e+01 -2.658735e-02 -7.413031e-01 1.475991e+00 1.178497e+00 2.329341e-01 -1.856828e+00 -3.629337e-02 1.529004e-01 1.970963e-01 3.060081e-01 1.283191e-01 -6.355003e-01 1.052544e+00 1.151471e+00 4.019705e-01 -9.100772e-01 8.574113e-01 3.606198e-01 -8.569235e-01 -4.879263e-01 -2.240822e-01 2.319811e-01 1.827000e-01 -5.101510e-01 3.999127e-02 -9.985701e-02
<VARIANCE> 39
 2.277985e+01 1.184021e+01 1.823807e+01 3.596071e+01 2.753653e+01 2.958677e+01 2.567961e+01 3.671534e+01 1.475870e+01 1.539618e+01 1.936525e+01 1.880502e+01 8.471639e+00 5.813146e+00 2.247948e+00 3.141161e+00 5.608865e+00 3.828918e+00 4.444424e+00 3.286439e+00 3.325559e+00 1.326823e+00 1.841404e+00 2.321290e+00 1.729849e+00 1.238711e+00 4.936113e-01 3.338574e-01 6.080801e-01 7.120597e-01 8.412397e-01 1.093266e+00 6.533443e-01 7.070879e-01 3.013393e-01 4.962864e-01 3.341372e-01 3.757187e-01 2.731471e-01
<GCONST> 1.151658e+02
<STATE> 4
<MEAN> 39
 -5.936086e+00 2.129805e+00 1.548120e+01 7.686255e+00 -2.226050e+00 -6.688594e+00 -6.448375e+00 -7.641670e+00 -4.803655e+00 7.355887e-01 -5.708230e-01 -6.259476e+00 6.286494e+01 2.129814e+00 -3.008333e-01 -2.352600e+00 1.381771e+00 4.282649e-01 -2.318818e+00 -1.145791e+00 -6.842446e-01 8.923661e-01 3.753757e-01 -7.053514e-01 4.075566e-01 6.428012e-01 -2.167585e-01 2.017193e-01 -7.061703e-01 -7.992644e-01 1.886279e-01 1.026250e+00 1.421544e-01 -3.297971e-02 1.303575e-02 -2.286787e-01 2.565371e-01 4.339904e-01 -4.961478e-01
<VARIANCE> 39
 1.689019e+01 7.196395e+00 2.293272e+01 2.870134e+01 2.998871e+01 2.372390e+01 1.437859e+01 2.784847e+01 9.123044e+00 1.793478e+01 1.192997e+01 1.540143e+01 6.447265e+00 3.071043e+00 1.064441e+00 3.842026e+00 3.766676e+00 3.485255e+00 4.512533e+00 3.307800e+00 3.887791e+00 1.668872e+00 2.216357e+00 1.629686e+00 2.352056e+00 1.267282e+00 5.837047e-01 3.439527e-01 8.534194e-01 4.111044e-01 9.151050e-01 7.914017e-01 4.729596e-01 5.539693e-01 2.748514e-01 3.404374e-01 2.800789e-01 2.810201e-01 2.050603e-01
<GCONST> 1.089457e+02
<TRANSP> 5
 0.000000e+00 1.000000e+00 0.000000e+00 0.000000e+00 0.000000e+00
 0.000000e+00 7.586623e-01 2.413377e-01 0.000000e+00 0.000000e+00
 0.000000e+00 0.000000e+00 6.797955e-01 3.202045e-01 0.000000e+00
 0.000000e+00 0.000000e+00 0.000000e+00 4.922607e-01 5.077393e-01
 0.000000e+00 0.000000e+00 0.000000e+00 0.000000e+00 0.000000e+00
<ENDHMM>
~h "ee"
<BEGINHMM>
<NUMSTATES> 5
<STATE> 2
<MEAN> 39
