~o
<STREAMINFO> 1 39
<VECSIZE> 39<NULLD><MFCC_D_A_0><DIAGC>
~h "a"
<BEGINHMM>
<NUMSTATES> 5
<STATE> 2
<MEAN> 39
 -7.655580e+00 3.140756e+00 2.941283e+00 -2.295258e+00 2.208262e+00 -1.531830e+00 -8.604892e-01 -3.439852e-01 -4.191299e+00 -4.704135e-02 3.004967e+00 -6.846979e-02 5.907837e+01 -1.203402e-02 -4.336976e-03 4.265950e-03 2.499644e-04 1.224274e-02 -1.011023e-02 -5.750929e-03 -1.406070e-02 -3.400793e-03 -1.412122e-03 7.181589e-03 -4.505554e-03 6.945512e-03 3.246687e-04 7.550814e-06 -3.104288e-04 -9.693140e-04 4.454512e-04 1.205752e-03 1.997074e-03 -5.963069e-04 -7.893943e-04 4.031200e-04 -3.244850e-05 1.476297e-03 2.660805e-04
<VARIANCE> 39
 6.662032e+01 3.138207e+01 4.725805e+01 5.821688e+01 4.209787e+01 3.723588e+01 3.821229e+01 3.763367e+01 3.689902e+01 2.707338e+01 2.595061e+01 2.084332e+01 3.633701e+01 3.470707e+00 2.329481e+00 2.359914e+00 3.094218e+00 2.907107e+00 2.551698e+00 2.505886e+00 2.786944e+00 2.450078e+00 2.306761e+00 2.237370e+00 1.667338e+00 2.034157e+00 5.073179e-01 4.300797e-01 4.105046e-01 5.398208e-01 5.142661e-01 4.825982e-01 4.619488e-01 5.401304e-01 4.657383e-01 4.507635e-01 4.364892e-01 3.267011e-01 3.516475e-01
<GCONST> 1.200827e+02
<STATE> 3
<MEAN> 39
 -7.684372e+00 3.131666e+00 2.949064e+00 -2.298969e+00 2.234898e+00 -1.552944e+00 -8.676342e-01 -3.796756e-01 -4.201451e+00 -5.032925e-02 3.018602e+00 -7.396984e-02 5.909104e+01 -1.162949e-02 -3.578861e-03 3.024004e-03 -1.527831e-03 1.330562e-02 -7.535312e-03 -1.272707e-03 -1.382689e-02 -4.350227e-03 -1.123984e-03 6.745616e-03 -4.554827e-04 5.295912e-03 8.748098e-05 3.058631e-04 -6.992078e-04 2.996954e-05 7.262725e-04 1.271057e-03 1.643580e-03 8.140996e-04 9.743940e-05 2.747019e-04 3.830327e-05 1.748123e-03 -1.465871e-03
<VARIANCE> 39
 6.699136e+01 3.139734e+01 4.680666e+01 5.833928e+01 4.238389e+01 3.716021e+01 3.839273e+01 3.749625e+01 3.678315e+01 2.712960e+01 2.606939e+01 2.082420e+01 3.629989e+01 3.481183e+00 2.322151e+00 2.356118e+00 3.095468e+00 2.906631e+00 2.553276e+00 2.504747e+00 2.780540e+00 2.433263e+00 2.311193e+00 2.238822e+00 1.661386e+00 2.032780e+00 5.087207e-01 4.290596e-01 4.098271e-01 5.398074e-01 5.138802e-01 4.828219e-01 4.617569e-01 5.392765e-01 4.616505e-01 4.523765e-01 4.370574e-01 3.254242e-01 3.518855e-01
<GCONST> 1.200657e+02
<STATE> 4
<MEAN> 39
 -7.718633e+00 3.121853e+00 2.945009e+00 -2.296072e+00 2.272758e+00 -1.572241e+00 -8.676172e-01 -4.095265e-01 -4.210740e+00 -5.292064e-02 3.030698e+00 -7.099769e-02 5.909168e+01 -1.186295e-02 -2.033449e-03 1.888014e-03 1.160370e-03 1.529984e-02 -3.694989e-03 1.387624e-03 -9.990321e-03 -3.154649e-03 -1.546685e-03 6.755969e-03 3.545626e-03 -1.324964e-03 -2.114471e-04 3.309006e-04 -2.774767e-04 1.822117e-03 7.800512e-04 1.649331e-03 1.914182e-04 1.498041e-03 1.220561e-03 3.626085e-04 3.643908e-04 8.513042e-04 -2.582409e-03
<VARIANCE> 39
 6.726353e+01 3.138497e+01 4.631752e+01 5.829817e+01 4.265685e+01 3.726347e+01 3.866874e+01 3.736699e+01 3.669097e+01 2.715705e+01 2.618156e+01 2.080777e+01 3.624826e+01 3.484185e+00 2.307558e+00 2.341265e+00 3.092480e+00 2.904553e+00 2.558343e+00 2.496983e+00 2.778959e+00 2.419053e+00 2.304968e+00 2.238588e+00 1.654727e+00 2.020526e+00 5.091227e-01 4.268092e-01 4.079290e-01 5.394971e-01 5.130519e-01 4.837373e-01 4.601584e-01 5.395214e-01 4.574965e-01 4.516134e-01 4.371986e-01 3.240966e-01 3.511499e-01
<GCONST> 1.200087e+02
<TRANSP> 5
 0.000000e+00 1.000000e+00 0.000000e+00 0.000000e+00 0.000000e+00
 0.000000e+00 5.685720e-01 4.314279e-01 0.000000e+00 0.000000e+00
 0.000000e+00 0.000000e+00 5.685719e-01 4.314280e-01 0.000000e+00
 0.000000e+00 0.000000e+00 0.000000e+00 6.635227e-01 3.364773e-01
 0.000000e+00 0.000000e+00 0.000000e+00 0.000000e+00 0.000000e+00
<ENDHMM>
~h "b"
<BEGINHMM>
<NUMSTATES> 5
<STATE> 2
<MEAN> 39
 -6.376767e+00 4.326705e+00 4.089056e+00 -3.894313e-01 1.382666e+00 -1.611678e+00 -1.028117e+00 -2.720150e+00 -5.645297e+00 -8.385959e-01 1.794244e+00 1.263401e-01 5.896077e+01 2.097799e-02 2.855826e-03 -6.417002e-03 -4.763164e-03 2.235222e-02 -3.353307e-03 -3.827592e-02 8.137777e-03 8.969939e-04 1.400860e-02 1.491853e-02 -1.304984e-03 1.405841e-02 -7.292121e-04 -1.639223e-03 2.703747e-03 2.210935e-03 2.066367e-03 -2.013604e-03 -1.206172e-03 3.399441e-03 2.475811e-03 1.545554e-03 5.588029e-04 -1.521488e-03 1.080481e-03
<VARIANCE> 39
 6.381382e+01 3.012617e+01 5.027862e+01 5.759005e+01 3.953671e+01 3.663583e+01 3.945309e+01 3.673609e+01 3.767086e+01 2.814568e+01 2.761221e+01 2.240886e+01 3.564107e+01 3.065315e+00 2.523746e+00 2.309446e+00 3.056852e+00 2.956758e+00 2.829693e+00 2.787585e+00 2.696751e+00 2.516021e+00 2.435900e+00 2.290475e+00 1.706884e+00 2.120521e+00 4.706296e-01 4.652992e-01 3.877519e-01 5.534100e-01 5.229903e-01 5.494962e-01 5.155982e-01 5.342575e-01 4.711246e-01 4.684184e-01 4.505928e-01 3.284727e-01 3.705847e-01
<GCONST> 1.207957e+02
<STATE> 3
<MEAN> 39
 -6.343998e+00 4.323826e+00 4.087545e+00 -3.904133e-01 1.439979e+00 -1.627808e+00 -1.120876e+00 -2.692133e+00 -5.631699e+00 -7.972006e-01 1.831267e+00 1.171085e-01 5.899302e+01 1.729115e-02 -1.751148e-03 -9.007119e-04 -2.254702e-03 2.613475e-02 -6.829134e-03 -3.965093e-02 1.483248e-02 6.018380e-03 1.711025e-02 1.638436e-02 -4.762197e-03 1.580091e-02 -1.629706e-03 -2.138967e-03 2.252950e-03 2.919967e-04 1.095377e-03 -8.771725e-04 3.504587e-04 2.592476e-03 1.769407e-03 1.009888e-03 6.462825e-04 -1.248057e-03 7.324854e-04
<VARIANCE> 39
 6.316282e+01 2.997182e+01 5.019061e+01 5.846049e+01 3.955604e+01 3.679864e+01 4.007938e+01 3.691427e+01 3.772219e+01 2.850517e+01 2.769038e+01 2.254822e+01 3.542019e+01 3.043767e+00 2.520541e+00 2.307743e+00 3.070418e+00 2.966522e+00 2.831619e+00 2.831331e+00 2.694135e+00 2.506266e+00 2.434417e+00 2.307584e+00 1.704247e+00 2.116328e+00 4.682355e-01 4.661791e-01 3.861853e-01 5.575446e-01 5.241212e-01 5.482960e-01 5.234045e-01 5.336078e-01 4.712716e-01 4.662853e-01 4.539752e-01 3.288668e-01 3.726718e-01
<GCONST> 1.208733e+02
<STATE> 4
<MEAN> 39
 -6.348468e+00 4.297616e+00 4.091588e+00 -3.935889e-01 1.531199e+00 -1.649013e+00 -1.213987e+00 -2.621386e+00 -5.585691e+00 -7.362462e-01 1.877367e+00 9.743685e-02 5.901579e+01 8.708128e-03 -7.545236e-03 4.081332e-03 -4.058877e-03 2.717873e-02 -6.694562e-03 -3.573510e-02 2.090345e-02 1.047225e-02 1.835120e-02 1.772913e-02 -7.674552e-03 1.568563e-02 -2.199398e-03 -1.936687e-03 1.505323e-03 -1.472681e-03 1.862122e-05 8.505021e-04 2.399757e-03 1.880697e-03 8.107424e-04 -1.143251e-04 5.580068e-04 -7.141241e-04 3.008286e-04
<VARIANCE> 39
 6.238835e+01 2.973795e+01 5.025104e+01 5.928251e+01 3.962336e+01 3.705703e+01 4.081892e+01 3.724350e+01 3.783334e+01 2.871411e+01 2.766806e+01 2.269310e+01 3.543027e+01 3.024354e+00 2.501406e+00 2.304432e+00 3.080508e+00 2.976981e+00 2.806909e+00 2.861444e+00 2.691146e+00 2.499979e+00 2.418930e+00 2.309669e+00 1.697007e+00 2.092808e+00 4.660803e-01 4.646963e-01 3.839186e-01 5.599144e-01 5.247394e-01 5.415709e-01 5.297792e-01 5.325751e-01 4.719240e-01 4.615802e-01 4.539026e-01 3.284118e-01 3.716654e-01
<GCONST> 1.208655e+02
<TRANSP> 5
 0.000000e+00 1.000000e+00 0.000000e+00 0.000000e+00 0.000000e+00
 0.000000e+00 5.663381e-01 4.336619e-01 0.000000e+00 0.000000e+00
 0.000000e+00 0.000000e+00 5.663376e-01 4.336624e-01 0.000000e+00
 0.000000e+00 0.000000e+00 0.000000e+00 6.611145e-01 3.388855e-01
 0.000000e+00 0.000000e+00 0.000000e+00 0.000000e+00 0.000000e+00
<ENDHMM>
~h "c"
<BEGINHMM>
<NUMSTATES> 5
<STATE> 2
<MEAN> 39
 -9.513951e+00 4.120766e+00 3.175070e+00 -3.441279e+00 3.536199e+00 -1.650368e+00 -1.432711e+00 -4.036004e-01 -4.574959e+00 -5.559719e-01 3.019352e+00 -1.712397e-01 5.867049e+01 6.760885e-03 -1.693582e-02 2.740891e-02 2.338661e-02 -1.556259e-02 9.412858e-03 1.662542e-02 2.051462e-03 7.520381e-03 3.080779e-05 5.636104e-03 2.262542e-03 -7.530285e-03 2.563723e-03 5.740112e-04 -2.730905e-03 -6.744066e-04 -9.285613e-04 5.433771e-03 1.696471e-03 2.222923e-04 -1.168904e-03 -2.438318e-03 7.475918e-04 1.746110e-04 -1.113541e-03
<VARIANCE> 39
 7.693053e+01 3.067886e+01 4.417249e+01 5.272525e+01 3.634745e+01 3.857969e+01 3.519621e+01 3.545663e+01 3.498169e+01 2.574804e+01 2.387392e+01 2.159617e+01 3.604672e+01 4.385725e+00 2.408988e+00 2.117270e+00 3.100661e+00 2.736448e+00 2.415044e+00 2.168148e+00 2.618179e+00 2.243050e+00 1.914857e+00 2.146555e+00 1.690912e+00 2.036567e+00 6.060163e-01 4.593960e-01 3.821261e-01 5.593282e-01 4.934914e-01 4.674380e-01 3.921655e-01 5.001653e-01 4.280199e-01 3.688616e-01 4.198430e-01 3.248440e-01 3.600929e-01
<GCONST> 1.187502e+02
<STATE> 3
<MEAN> 39
 -9.495382e+00 4.086360e+00 3.228728e+00 -3.394791e+00 3.496599e+00 -1.609574e+00 -1.389019e+00 -3.970445e-01 -4.562092e+00 -5.587369e-01 3.037939e+00 -1.643711e-01 5.864680e+01 1.440860e-02 -1.469272e-02 2.027082e-02 2.145986e-02 -1.740194e-02 2.208150e-02 1.882733e-02 1.080717e-03 4.936084e-03 -5.574901e-03 6.373904e-03 2.160431e-03 -9.358396e-03 3.214603e-03 1.404912e-03 -3.064936e-03 -3.172612e-04 -7.823356e-04 4.926102e-03 7.599494e-04 -1.164210e-03 -1.071084e-03 -3.269926e-03 -1.038101e-03 -6.256487e-05 -6.257425e-04
<VARIANCE> 39
 7.643173e+01 3.069870e+01 4.470745e+01 5.256884e+01 3.624398e+01 3.824134e+01 3.479058e+01 3.533702e+01 3.526777e+01 2.588483e+01 2.371849e+01 2.186382e+01 3.601492e+01 4.296875e+00 2.393642e+00 2.097111e+00 3.082821e+00 2.719772e+00 2.398042e+00 2.172838e+00 2.606754e+00 2.220808e+00 1.905366e+00 2.125376e+00 1.685062e+00 2.019560e+00 5.952985e-01 4.562130e-01 3.779855e-01 5.565156e-01 4.907289e-01 4.633356e-01 3.922550e-01 4.969110e-01 4.223831e-01 3.656180e-01 4.144675e-01 3.235300e-01 3.556161e-01
<GCONST> 1.185379e+02
<STATE> 4
<MEAN> 39
 -9.462782e+00 4.058979e+00 3.262317e+00 -3.318832e+00 3.446859e+00 -1.531096e+00 -1.312876e+00 -3.824115e-01 -4.539067e+00 -5.671540e-01 3.049103e+00 -1.580437e-01 5.859605e+01 2.530618e-02 -1.065934e-02 1.103658e-02 1.988946e-02 -1.955983e-02 3.271725e-02 1.828446e-02 -3.520557e-03 1.758713e-03 -1.318863e-02 1.646741e-03 1.295511e-03 -9.102710e-03 4.004514e-03 1.672911e-03 -3.365790e-03 7.173105e-04 -7.266938e-04 3.026971e-03 -3.321989e-05 -2.109740e-03 -1.044969e-03 -3.497044e-03 -3.502140e-03 -5.329285e-04 6.588266e-05
<VARIANCE> 39
 7.596011e+01 3.055727e+01 4.516731e+01 5.248817e+01 3.614008e+01 3.766896e+01 3.444195e+01 3.545389e+01 3.569043e+01 2.606103e+01 2.354042e+01 2.201406e+01 3.606081e+01 4.175697e+00 2.362757e+00 2.082120e+00 3.054346e+00 2.699263e+00 2.381704e+00 2.187905e+00 2.610526e+00 2.205285e+00 1.910834e+00 2.098093e+00 1.680856e+00 2.003749e+00 5.815722e-01 4.502246e-01 3.734833e-01 5.512305e-01 4.871311e-01 4.596640e-01 3.948967e-01 4.960669e-01 4.166840e-01 3.651784e-01 4.077782e-01 3.228192e-01 3.510095e-01
<GCONST> 1.183241e+02
<TRANSP> 5
 0.000000e+00 1.000000e+00 0.000000e+00 0.000000e+00 0.000000e+00
 0.000000e+00 5.726599e-01 4.273401e-01 0.000000e+00 0.000000e+00
 0.000000e+00 0.000000e+00 5.726599e-01 4.273401e-01 0.000000e+00
 0.000000e+00 0.000000e+00 0.000000e+00 6.684244e-01 3.315756e-01
 0.000000e+00 0.000000e+00 0.000000e+00 0.000000e+00 0.000000e+00
<ENDHMM>
~h "d"
<BEGINHMM>
<NUMSTATES> 5
<STATE> 2
<MEAN> 39
 -6.873307e+00 3.061362e+00 3.421740e+00 -8.022088e-01 1.830452e+00 -1.801686e+00 -1.007833e+00 -1.624167e+00 -4.603796e+00 -8.146404e-02 2.516155e+00 2.379150e-02 5.912873e+01 -4.835649e-03 2.241986e-02 6.794413e-03 2.490143e-03 1.261289e-02 9.072779e-03 -2.011078e-02 -2.404561e-02 -1.961365e-02 -3.096613e-02 1.054764e-02 -8.385361e-03 -9.682697e-03 1.778651e-03 1.951737e-03 7.813090e-05 -1.449259e-03 -7.554011e-04 3.226904e-03 4.090908e-03 8.062050e-04 -1.285281e-03 -1.520473e-04 1.106808e-03 4.883271e-04 7.271650e-04
<VARIANCE> 39
 6.298179e+01 3.291806e+01 5.014891e+01 6.155362e+01 3.886789e+01 3.576594e+01 3.866476e+01 4.113924e+01 3.511829e+01 2.755087e+01 2.722323e+01 2.167377e+01 3.607044e+01 3.132251e+00 2.474227e+00 2.613850e+00 3.099742e+00 2.778847e+00 2.786364e+00 2.681286e+00 2.773167e+00 2.342187e+00 2.407804e+00 2.255043e+00 1.702333e+00 1.971301e+00 4.732811e-01 4.656394e-01 4.547502e-01 5.349403e-01 5.086523e-01 5.413282e-01 5.106889e-01 5.313885e-01 4.466996e-01 4.757358e-01 4.392591e-01 3.302288e-01 3.551508e-01
<GCONST> 1.207104e+02
<STATE> 3
<MEAN> 39
 -6.874878e+00 3.120833e+00 3.438262e+00 -8.019866e-01 1.850297e+00 -1.770928e+00 -1.043150e+00 -1.679096e+00 -4.656723e+00 -1.582175e-01 2.542028e+00 8.114270e-03 5.910972e+01 -1.322117e-03 2.655081e-02 8.847578e-03 -2.491956e-03 8.187872e-03 1.627708e-02 -1.216944e-02 -2.296049e-02 -2.217034e-02 -3.343507e-02 1.183169e-02 -6.449412e-03 -6.608147e-03 8.031225e-04 1.493159e-03 1.211675e-03 -2.878359e-03 -2.031667e-03 2.854328e-03 2.944317e-03 1.204453e-04 -3.447226e-04 -1.425656e-03 -9.399949e-05 8.901752e-04 1.700092e-03
<VARIANCE> 39
 6.303040e+01 3.303328e+01 4.982776e+01 6.127201e+01 3.925051e+01 3.550801e+01 3.859889e+01 4.087480e+01 3.474257e+01 2.758200e+01 2.753142e+01 2.158470e+01 3.570546e+01 3.147731e+00 2.476193e+00 2.608592e+00 3.097861e+00 2.788327e+00 2.761784e+00 2.675757e+00 2.784766e+00 2.360701e+00 2.424296e+00 2.266313e+00 1.708496e+00 1.973768e+00 4.743526e-01 4.655816e-01 4.561225e-01 5.366818e-01 5.104436e-01 5.365770e-01 5.092903e-01 5.348937e-01 4.500364e-01 4.778428e-01 4.417172e-01 3.322878e-01 3.562171e-01
<GCONST> 1.207433e+02
<STATE> 4
<MEAN> 39
 -6.881532e+00 3.206727e+00 3.454460e+00 -8.316502e-01 1.859846e+00 -1.720615e+00 -1.060524e+00 -1.730230e+00 -4.719869e+00 -2.603761e-01 2.574618e+00 -5.835487e-03 5.909794e+01 7.981351e-04 2.983248e-02 1.458736e-02 -1.063608e-02 1.012106e-03 2.158151e-02 -6.946170e-03 -2.397852e-02 -2.144789e-02 -3.699274e-02 1.007428e-02 -4.168585e-03 6.059654e-04 -4.742505e-04 6.462593e-04 2.282727e-03 -3.534832e-03 -1.936749e-03 1.603451e-03 1.749207e-03 -4.431635e-04 1.104139e-03 -1.369042e-03 -8.804947e-04 8.859657e-04 2.704507e-03
<VARIANCE> 39
 6.314424e+01 3.306520e+01 4.936031e+01 6.080182e+01 3.995275e+01 3.516914e+01 3.849298e+01 4.056017e+01 3.427076e+01 2.762020e+01 2.789171e+01 2.150569e+01 3.522832e+01 3.172921e+00 2.482133e+00 2.603904e+00 3.105227e+00 2.809056e+00 2.724539e+00 2.670119e+00 2.808744e+00 2.381312e+00 2.446094e+00 2.289372e+00 1.714427e+00 1.988308e+00 4.771868e-01 4.665332e-01 4.571148e-01 5.400942e-01 5.131223e-01 5.286003e-01 5.068143e-01 5.410604e-01 4.526278e-01 4.814008e-01 4.465613e-01 3.340399e-01 3.587688e-01
<GCONST> 1.208098e+02
<TRANSP> 5
 0.000000e+00 1.000000e+00 0.000000e+00 0.000000e+00 0.000000e+00
 0.000000e+00 5.681164e-01 4.318836e-01 0.000000e+00 0.000000e+00
 0.000000e+00 0.000000e+00 5.681173e-01 4.318827e-01 0.000000e+00
 0.000000e+00 0.000000e+00 0.000000e+00 6.631110e-01 3.368889e-01
 0.000000e+00 0.000000e+00 0.000000e+00 0.000000e+00 0.000000e+00
<ENDHMM>
~h "e"
<BEGINHMM>
<NUMSTATES> 5
<STATE> 2
<MEAN> 39
 -8.244267e+00 3.281313e+00 4.181369e+00 -1.162446e+00 2.452560e+00 -1.913648e+00 -1.392956e+00 -1.000023e+00 -3.788181e+00 -1.190260e-01 2.627301e+00 -2.393646e-01 5.898967e+01 -2.354722e-04 3.411710e-03 9.015455e-03 -1.801881e-03 -5.987968e-03 -5.166397e-03 -7.352416e-03 -4.236785e-03 -7.690586e-03 -2.194637e-02 -9.218240e-03 2.627757e-03 1.657691e-03 -8.110428e-05 7.792476e-04 -9.616369e-04 -3.941988e-04 3.524236e-04 -4.581627e-04 -2.156774e-04 -5.949857e-04 -1.147785e-03 -1.259837e-03 -1.719363e-05 2.336829e-05 -4.594445e-04
<VARIANCE> 39
 6.956729e+01 3.276338e+01 4.984613e+01 5.591243e+01 4.146213e+01 3.912488e+01 3.721780e+01 3.689231e+01 3.555227e+01 2.755356e+01 2.710439e+01 2.038333e+01 3.688533e+01 3.694048e+00 2.345160e+00 2.357197e+00 2.977212e+00 3.019460e+00 2.651075e+00 2.524172e+00 2.556505e+00 2.430361e+00 2.227945e+00 2.191893e+00 1.653847e+00 1.991283e+00 5.440064e-01 4.327293e-01 4.066807e-01 5.238230e-01 5.378548e-01 5.040487e-01 4.764432e-01 4.885045e-01 4.617811e-01 4.348809e-01 4.254303e-01 3.240477e-01 3.446902e-01
<GCONST> 1.200773e+02
<STATE> 3
<MEAN> 39
 -8.245486e+00 3.292160e+00 4.196957e+00 -1.169751e+00 2.445151e+00 -1.925131e+00 -1.411336e+00 -1.012839e+00 -3.812329e+00 -1.741046e-01 2.609235e+00 -2.332543e-01 5.899353e+01 -1.110522e-03 4.445875e-03 6.634242e-03 -3.309175e-03 -5.276643e-03 -5.361543e-03 -6.622624e-03 -5.795071e-03 -1.071967e-02 -2.361470e-02 -8.904998e-03 2.382575e-03 1.356748e-04 -3.837378e-04 4.141141e-04 -1.137654e-03 -3.471295e-04 1.743260e-04 3.628818e-05 9.212159e-04 -3.825815e-04 -8.846286e-04 3.647754e-05 2.003309e-04 1.038124e-04 -7.840338e-04
<VARIANCE> 39
 6.960303e+01 3.277476e+01 5.009005e+01 5.597697e+01 4.165278e+01 3.911100e+01 3.715792e+01 3.693981e+01 3.545189e+01 2.739153e+01 2.715557e+01 2.035188e+01 3.668335e+01 3.704773e+00 2.344375e+00 2.353703e+00 2.977730e+00 3.020734e+00 2.643762e+00 2.523587e+00 2.570278e+00 2.428714e+00 2.219078e+00 2.202190e+00 1.654658e+00 1.998182e+00 5.443308e-01 4.329954e-01 4.055698e-01 5.246399e-01 5.378679e-01 5.022067e-01 4.757782e-01 4.913258e-01 4.611214e-01 4.324981e-01 4.266046e-01 3.240618e-01 3.453854e-01
<GCONST> 1.200810e+02
<STATE> 4
<MEAN> 39
 -8.258885e+00 3.304034e+00 4.198215e+00 -1.182200e+00 2.447520e+00 -1.935015e+00 -1.414671e+00 -1.022247e+00 -3.853158e+00 -2.358970e-01 2.594528e+00 -2.242520e-01 5.898816e+01 -3.414145e-03 4.037729e-03 2.286060e-03 -5.698960e-03 -4.257211e-03 -1.951083e-03 -2.000994e-03 -6.558691e-03 -1.331440e-02 -2.113916e-02 -6.448922e-03 2.795364e-03 -3.673215e-03 -7.036155e-04 -1.233712e-04 -1.652435e-03 -5.169719e-04 1.422362e-04 1.338535e-03 2.326971e-03 1.604711e-04 -5.394762e-04 1.362666e-03 1.011160e-03 5.775524e-04 -1.507211e-03
<VARIANCE> 39
 6.968551e+01 3.266446e+01 5.039750e+01 5.604013e+01 4.186630e+01 3.901788e+01 3.712120e+01 3.702100e+01 3.532799e+01 2.726021e+01 2.719643e+01 2.033915e+01 3.658712e+01 3.710298e+00 2.337192e+00 2.349765e+00 2.975273e+00 3.023124e+00 2.629683e+00 2.518714e+00 2.585591e+00 2.423681e+00 2.203086e+00 2.206752e+00 1.656717e+00 1.998084e+00 5.435783e-01 4.321605e-01 4.052573e-01 5.250760e-01 5.380849e-01 4.998548e-01 4.742756e-01 4.948796e-01 4.598059e-01 4.289392e-01 4.267042e-01 3.243437e-01 3.459206e-01
<GCONST> 1.200573e+02
<TRANSP> 5
 0.000000e+00 1.000000e+00 0.000000e+00 0.000000e+00 0.000000e+00
 0.000000e+00 5.700551e-01 4.299449e-01 0.000000e+00 0.000000e+00
 0.000000e+00 0.000000e+00 5.700582e-01 4.299417e-01 0.000000e+00
 0.000000e+00 0.000000e+00 0.000000e+00 6.653926e-01 3.346074e-01
 0.000000e+00 0.000000e+00 0.000000e+00 0.000000e+00 0.000000e+00
<ENDHMM>
~h "f"
<BEGINHMM>
<NUMSTATES> 5
<STATE> 2
<MEAN> 39
 -9.222786e+00 2.627264e+00 3.202683e+00 -1.480076e+00 2.269737e+00 -3.441423e-01 -7.693207e-01 -1.116043e+00 -3.404655e+00 -1.762621e-01 2.910146e+00 4.997534e-01 5.772617e+01 -4.128716e-02 -3.862043e-03 2.416571e-02 2.120455e-02 3.023273e-02 -1.648769e-02 -2.707029e-02 -8.408093e-03 -1.282678e-02 -3.055405e-02 -1.393029e-03 -1.863733e-02 1.429535e-02 -7.966416e-03 -2.924630e-03 7.507281e-03 5.135517e-03 5.149134e-03 3.738830e-03 8.437009e-03 9.825829e-03 4.326236e-03 2.621616e-03 -5.326835e-03 -7.845005e-03 -1.681904e-03
<VARIANCE> 39
 6.600543e+01 3.181885e+01 4.272495e+01 5.777058e+01 3.915816e+01 3.294870e+01 3.706680e+01 3.828506e+01 3.691485e+01 2.620106e+01 2.799817e+01 1.891150e+01 3.986979e+01 3.358675e+00 2.329998e+00 2.091619e+00 2.739440e+00 2.681319e+00 2.262565e+00 2.479002e+00 2.673585e+00 2.331251e+00 2.062016e+00 2.126757e+00 1.607807e+00 1.841383e+00 5.052616e-01 4.284043e-01 3.594247e-01 4.879093e-01 4.811817e-01 4.425279e-01 4.653053e-01 5.256336e-01 4.540009e-01 4.031333e-01 4.163794e-01 3.189356e-01 3.123019e-01
<GCONST> 1.181907e+02
<STATE> 3
<MEAN> 39
 -9.356404e+00 2.608272e+00 3.298085e+00 -1.425804e+00 2.336365e+00 -3.805952e-01 -8.132561e-01 -1.108285e+00 -3.427901e+00 -2.416811e-01 2.900427e+00 4.361999e-01 5.775535e+01 -4.969294e-02 -8.183077e-04 4.171881e-02 3.289460e-02 2.828361e-02 -1.136663e-02 -1.059599e-02 1.461773e-02 -7.047270e-03 -2.478806e-02 -8.985871e-03 -3.049302e-02 6.131619e-03 -1.892837e-03 1.780612e-03 6.665787e-03 6.080354e-03 8.933035e-05 2.160997e-03 7.049843e-03 7.995554e-03 -6.074896e-05 3.306735e-03 -8.648023e-04 -3.819125e-03 -4.370670e-03
<VARIANCE> 39
 6.668049e+01 3.233106e+01 4.323015e+01 5.802418e+01 3.928402e+01 3.333799e+01 3.764066e+01 3.834911e+01 3.702925e+01 2.670797e+01 2.836799e+01 1.915272e+01 3.987370e+01 3.393710e+00 2.364846e+00 2.083606e+00 2.739551e+00 2.701382e+00 2.324800e+00 2.487442e+00 2.675811e+00 2.332932e+00 2.087029e+00 2.145432e+00 1.628573e+00 1.841423e+00 5.082855e-01 4.318012e-01 3.552006e-01 4.839864e-01 4.852155e-01 4.547904e-01 4.621558e-01 5.261824e-01 4.542259e-01 4.079678e-01 4.194047e-01 3.235291e-01 3.176247e-01
<GCONST> 1.184825e+02
<STATE> 4
<MEAN> 39
 -9.515497e+00 2.587818e+00 3.460758e+00 -1.346034e+00 2.408600e+00 -4.346763e-01 -8.242960e-01 -1.064855e+00 -3.468693e+00 -2.862070e-01 2.909547e+00 3.527212e-01 5.779582e+01 -4.270046e-02 7.112667e-03 5.664510e-02 4.871072e-02 2.408656e-02 -1.600020e-02 3.998486e-03 2.203543e-02 -1.426229e-02 -1.705484e-02 -8.645582e-03 -3.272827e-02 -3.936015e-04 3.171995e-03 2.186723e-03 3.124349e-03 7.510596e-03 3.648889e-05 -1.063645e-03 3.803899e-03 -4.015414e-04 -4.023294e-03 4.526485e-03 6.512582e-04 -2.701277e-04 -3.456706e-03
<VARIANCE> 39
 6.784592e+01 3.348232e+01 4.401263e+01 5.837138e+01 3.924492e+01 3.468652e+01 3.873004e+01 3.838533e+01 3.732821e+01 2.769885e+01 2.875242e+01 1.926667e+01 3.992038e+01 3.500332e+00 2.402541e+00 2.083596e+00 2.744169e+00 2.712823e+00 2.430985e+00 2.506712e+00 2.678175e+00 2.354550e+00 2.104953e+00 2.168863e+00 1.635799e+00 1.875948e+00 5.231051e-01 4.367093e-01 3.553287e-01 4.762111e-01 4.870453e-01 4.739791e-01 4.615879e-01 5.235372e-01 4.566935e-01 4.103475e-01 4.253491e-01 3.241091e-01 3.261304e-01
<GCONST> 1.189660e+02
<TRANSP> 5
 0.000000e+00 1.000000e+00 0.000000e+00 0.000000e+00 0.000000e+00
 0.000000e+00 5.648467e-01 4.351533e-01 0.000000e+00 0.000000e+00
 0.000000e+00 0.000000e+00 5.648469e-01 4.351532e-01 0.000000e+00
 0.000000e+00 0.000000e+00 0.000000e+00 6.592087e-01 3.407913e-01
 0.000000e+00 0.000000e+00 0.000000e+00 0.000000e+00 0.000000e+00
<ENDHMM>
~h "g"
<BEGINHMM>
<NUMSTATES> 5
<STATE> 2
<MEAN> 39
 -5.699589e+00 3.034838e+00 3.706886e+00 1.207049e+00 2.442588e+00 -3.203037e+00 -3.386856e+00 -1.187854e+00 -4.027374e+00 -3.593666e-01 1.791476e+00 -7.101244e-01 5.990171e+01 3.480311e-02 1.141322e-02 -6.625095e-02 -8.200376e-02 1.653176e-02 2.416135e-02 3.364811e-02 -1.731519e-02 -4.728927e-02 -5.617792e-03 5.290409e-02 -6.958927e-03 2.236552e-03 2.640588e-03 4.090357e-03 -1.105639e-02 -1.203993e-02 4.420808e-03 1.635034e-03 6.920845e-03 1.728285e-03 -1.618782e-03 1.849451e-04 6.387481e-04 1.060903e-03 1.338227e-03
<VARIANCE> 39
 4.343500e+01 3.396695e+01 6.238013e+01 5.227845e+01 3.282554e+01 3.900659e+01 4.016141e+01 3.567611e+01 2.952437e+01 3.005716e+01 3.284586e+01 1.955514e+01 3.379907e+01 2.758306e+00 2.533306e+00 2.848153e+00 2.890989e+00 2.700916e+00 2.989449e+00 2.938412e+00 3.008817e+00 2.524387e+00 2.847332e+00 3.073389e+00 1.646098e+00 2.382150e+00 4.543674e-01 4.731906e-01 5.216088e-01 5.119848e-01 4.844947e-01 5.718579e-01 5.787968e-01 5.818805e-01 4.930814e-01 5.602856e-01 6.106684e-01 3.417810e-01 4.203500e-01
<GCONST> 1.220928e+02
<STATE> 3
<MEAN> 39
 -5.612217e+00 3.068756e+00 3.509621e+00 9.785801e-01 2.502152e+00 -3.143041e+00 -3.296464e+00 -1.217312e+00 -4.143158e+00 -3.704771e-01 1.914091e+00 -7.244032e-01 5.991618e+01 3.723940e-02 1.562728e-02 -9.301592e-02 -1.051079e-01 2.842592e-02 3.124607e-02 4.480778e-02 -9.863966e-03 -5.156536e-02 -5.596319e-03 5.618434e-02 -5.872075e-03 5.013843e-03 1.244949e-04 1.006132e-03 -1.091142e-02 -9.209221e-03 5.147032e-03 3.391537e-03 4.461974e-03 3.620807e-03 -1.459795e-03 7.500149e-05 1.411090e-03 3.722720e-04 1.095784e-03
<VARIANCE> 39
 4.373634e+01 3.371879e+01 6.028546e+01 5.341877e+01 3.291755e+01 3.950855e+01 3.925930e+01 3.507659e+01 2.910377e+01 2.991070e+01 3.197599e+01 1.958953e+01 3.355874e+01 2.747162e+00 2.484144e+00 2.833170e+00 2.904199e+00 2.658365e+00 3.040246e+00 2.877164e+00 2.962623e+00 2.502480e+00 2.798018e+00 2.993606e+00 1.653276e+00 2.324660e+00 4.519602e-01 4.654601e-01 5.192414e-01 5.141579e-01 4.741859e-01 5.823144e-01 5.642735e-01 5.751101e-01 4.919001e-01 5.522006e-01 5.991969e-01 3.409046e-01 4.074681e-01
<GCONST> 1.217397e+02
<STATE> 4
<MEAN> 39
 -5.524899e+00 3.098595e+00 3.193892e+00 6.226739e-01 2.630238e+00 -3.051078e+00 -3.195969e+00 -1.231349e+00 -4.283511e+00 -3.807969e-01 2.084226e+00 -7.373403e-01 5.997925e+01 3.010020e-02 1.392309e-02 -1.156380e-01 -1.272825e-01 4.174595e-02 4.407043e-02 5.155073e-02 2.904463e-03 -5.248593e-02 -4.151121e-03 6.110808e-02 -7.930966e-03 8.861771e-03 -3.289410e-03 -8.561165e-04 -6.298147e-03 -7.148338e-03 4.129671e-03 4.533692e-03 2.464503e-03 4.672427e-03 2.633547e-04 2.769198e-04 1.627578e-03 -7.049608e-04 1.120313e-03
<VARIANCE> 39
 4.442556e+01 3.324239e+01 5.744699e+01 5.487965e+01 3.364242e+01 3.972496e+01 3.844455e+01 3.465248e+01 2.876280e+01 2.971626e+01 3.075661e+01 1.979527e+01 3.349147e+01 2.744242e+00 2.416807e+00 2.785422e+00 2.973843e+00 2.621280e+00 3.068512e+00 2.828681e+00 2.905899e+00 2.479935e+00 2.722491e+00 2.839599e+00 1.667231e+00 2.257189e+00 4.496831e-01 4.547313e-01 5.080865e-01 5.238011e-01 4.634057e-01 5.871192e-01 5.521269e-01 5.665258e-01 4.898669e-01 5.383391e-01 5.690058e-01 3.402499e-01 3.932405e-01
<GCONST> 1.212901e+02
<TRANSP> 5
 0.000000e+00 1.000000e+00 0.000000e+00 0.000000e+00 0.000000e+00
 0.000000e+00 5.629802e-01 4.370197e-01 0.000000e+00 0.000000e+00
 0.000000e+00 0.000000e+00 5.629809e-01 4.370191e-01 0.000000e+00
 0.000000e+00 0.000000e+00 0.000000e+00 6.570009e-01 3.429991e-01
 0.000000e+00 0.000000e+00 0.000000e+00 0.000000e+00 0.000000e+00
<ENDHMM>
~h "h"
<BEGINHMM>
<NUMSTATES> 5
<STATE> 2
<MEAN> 39
 -6.212579e+00 3.959079e+00 3.454166e+00 -1.576264e+00 2.552120e+00 5.837149e-02 -3.589989e-01 -1.375189e+00 -4.219864e+00 -3.119743e-01 2.989959e+00 6.085234e-01 5.966028e+01 -6.815847e-03 9.504807e-03 8.640708e-03 -3.120229e-04 -8.146127e-03 1.994845e-02 5.352157e-02 1.580853e-02 -8.183244e-03 -3.086860e-02 -2.291049e-02 6.818019e-04 -2.104997e-02 1.020100e-03 -3.892388e-03 -2.506469e-03 -2.669586e-03 -3.371407e-03 -5.374518e-03 -4.171364e-04 1.008051e-03 -1.949614e-03 3.291571e-03 -1.588380e-03 -2.965667e-03 2.112541e-03
<VARIANCE> 39
 5.949645e+01 2.848571e+01 4.471313e+01 5.000071e+01 4.133738e+01 3.827185e+01 4.006386e+01 3.618208e+01 3.080124e+01 3.033738e+01 2.640631e+01 2.160493e+01 2.493786e+01 3.061904e+00 2.315423e+00 2.390409e+00 3.020359e+00 3.056181e+00 2.725190e+00 2.600682e+00 2.597386e+00 2.417706e+00 2.307503e+00 2.212342e+00 1.754107e+00 1.841294e+00 4.567339e-01 4.346860e-01 4.194452e-01 5.476804e-01 5.642409e-01 4.814461e-01 4.714220e-01 4.983524e-01 4.635676e-01 4.334467e-01 4.342340e-01 3.387942e-01 3.122243e-01
<GCONST> 1.189994e+02
<STATE> 3
<MEAN> 39
 -6.223826e+00 3.973025e+00 3.467232e+00 -1.582150e+00 2.532096e+00 8.899357e-02 -2.359416e-01 -1.333673e+00 -4.247210e+00 -3.731755e-01 2.939845e+00 6.028355e-01 5.961741e+01 -4.769925e-03 4.983706e-04 2.645476e-03 -6.528574e-03 -1.639541e-02 7.716833e-03 5.240251e-02 1.708701e-02 -1.312344e-02 -2.368513e-02 -2.522717e-02 -5.614494e-03 -1.602593e-02 3.213916e-05 -4.358553e-03 -2.452460e-03 -2.574135e-03 -3.253550e-03 -4.811095e-03 -9.909624e-04 -4.200158e-04 -2.571682e-03 2.994682e-03 2.792214e-04 -2.562885e-03 1.869933e-03
<VARIANCE> 39
 5.915830e+01 2.849537e+01 4.485699e+01 5.029177e+01 4.138858e+01 3.847618e+01 4.022338e+01 3.599021e+01 3.082891e+01 3.065338e+01 2.613420e+01 2.134529e+01 2.518048e+01 3.059213e+00 2.299176e+00 2.391047e+00 3.062630e+00 3.069398e+00 2.719752e+00 2.602226e+00 2.598734e+00 2.429326e+00 2.323418e+00 2.188802e+00 1.751479e+00 1.840960e+00 4.551727e-01 4.300680e-01 4.168345e-01 5.554931e-01 5.651399e-01 4.822536e-01 4.741119e-01 4.982746e-01 4.650893e-01 4.360373e-01 4.293458e-01 3.397415e-01 3.119446e-01
<GCONST> 1.190182e+02
<STATE> 4
<MEAN> 39
 -6.244740e+00 3.957714e+00 3.470256e+00 -1.582748e+00 2.506272e+00 9.340414e-02 -1.045901e-01 -1.282094e+00 -4.281345e+00 -4.233966e-01 2.876462e+00 5.722721e-01 5.956922e+01 -4.788737e-03 -9.338037e-03 -4.620070e-03 -1.295693e-02 -2.336885e-02 -4.445910e-03 4.941111e-02 1.601149e-02 -2.056220e-02 -1.671720e-02 -2.201422e-02 -1.157443e-02 -1.204278e-02 -6.958179e-04 -4.020067e-03 -3.104470e-03 -2.139847e-03 -2.135255e-03 -4.177798e-03 -2.178507e-03 -1.113093e-03 -3.313347e-03 2.815420e-03 2.144136e-03 -2.287547e-03 6.461956e-04
<VARIANCE> 39
 5.899426e+01 2.852498e+01 4.509930e+01 5.077297e+01 4.144987e+01 3.870249e+01 4.019060e+01 3.582899e+01 3.106518e+01 3.101247e+01 2.596758e+01 2.108333e+01 2.566699e+01 3.047029e+00 2.281116e+00 2.387389e+00 3.109489e+00 3.074666e+00 2.721635e+00 2.611177e+00 2.606802e+00 2.437499e+00 2.347749e+00 2.164100e+00 1.752121e+00 1.836670e+00 4.518729e-01 4.249657e-01 4.131151e-01 5.629700e-01 5.644662e-01 4.849161e-01 4.778687e-01 4.991734e-01 4.653325e-01 4.403455e-01 4.244897e-01 3.416156e-01 3.114113e-01
<GCONST> 1.190662e+02
<TRANSP> 5
 0.000000e+00 1.000000e+00 0.000000e+00 0.000000e+00 0.000000e+00
 0.000000e+00 5.619738e-01 4.380262e-01 0.000000e+00 0.000000e+00
 0.000000e+00 0.000000e+00 5.619736e-01 4.380264e-01 0.000000e+00
 0.000000e+00 0.000000e+00 0.000000e+00 6.560437e-01 3.439563e-01
 0.000000e+00 0.000000e+00 0.000000e+00 0.000000e+00 0.000000e+00
<ENDHMM>
~h "i"
<BEGINHMM>
<NUMSTATES> 5
<STATE> 2
<MEAN> 39
 -8.102089e+00 2.994448e+00 4.317595e+00 -8.577731e-01 1.920597e+00 -2.071600e+00 -1.500826e+00 -1.449477e+00 -4.098172e+00 -1.272655e-01 2.371185e+00 -1.785361e-01 5.894060e+01 -8.708393e-04 1.656003e-03 1.324164e-03 -1.759348e-02 6.692067e-03 2.170091e-03 -8.197168e-03 6.703983e-04 -9.764005e-03 -4.577594e-03 -4.378942e-04 -7.300169e-03 1.289325e-02 1.939765e-04 6.522531e-04 7.626362e-04 -1.960902e-03 1.110301e-03 1.616663e-03 -7.998175e-04 5.913095e-04 2.374213e-03 -8.489193e-04 2.427820e-04 -3.946543e-04 1.859742e-03
<VARIANCE> 39
 7.001277e+01 3.180422e+01 4.825366e+01 5.547392e+01 4.346750e+01 3.874750e+01 4.002835e+01 3.963285e+01 3.696126e+01 2.790639e+01 2.745318e+01 2.139043e+01 3.772310e+01 3.652853e+00 2.412910e+00 2.339351e+00 3.158590e+00 2.969784e+00 2.753538e+00 2.656480e+00 2.847693e+00 2.569151e+00 2.342381e+00 2.336287e+00 1.693518e+00 2.060165e+00 5.515025e-01 4.471332e-01 4.043261e-01 5.594988e-01 5.356833e-01 5.168397e-01 4.894260e-01 5.503944e-01 4.872019e-01 4.602883e-01 4.594934e-01 3.270125e-01 3.589339e-01
<GCONST> 1.213176e+02
<STATE> 3
<MEAN> 39
 -8.108585e+00 2.998697e+00 4.322663e+00 -9.040293e-01 1.938910e+00 -2.061959e+00 -1.521718e+00 -1.444002e+00 -4.113104e+00 -1.390428e-01 2.372562e+00 -1.973785e-01 5.897400e+01 -4.496853e-04 3.107390e-03 2.620510e-03 -2.188432e-02 8.516758e-03 6.366738e-03 -9.086685e-03 9.588667e-04 -3.643814e-03 -6.730131e-03 1.086584e-03 -6.623600e-03 1.625977e-02 7.795481e-05 1.312971e-03 -3.231333e-04 -1.740323e-03 1.268260e-03 2.437278e-03 4.173110e-04 -3.681522e-04 2.267246e-03 -8.796317e-04 7.561209e-04 7.281789e-04 2.763007e-04
<VARIANCE> 39
 7.002764e+01 3.174165e+01 4.855234e+01 5.568030e+01 4.368900e+01 3.867639e+01 3.990744e+01 3.960172e+01 3.680909e+01 2.790217e+01 2.752703e+01 2.155504e+01 3.752817e+01 3.649855e+00 2.418344e+00 2.360255e+00 3.170882e+00 2.978546e+00 2.755336e+00 2.651206e+00 2.867022e+00 2.566676e+00 2.343387e+00 2.343867e+00 1.694109e+00 2.059596e+00 5.514844e-01 4.490564e-01 4.066046e-01 5.621217e-01 5.366421e-01 5.164541e-01 4.882043e-01 5.541738e-01 4.872378e-01 4.601672e-01 4.614745e-01 3.267705e-01 3.598965e-01
<GCONST> 1.213774e+02
<STATE> 4
<MEAN> 39
 -8.125047e+00 3.001906e+00 4.317755e+00 -9.632533e-01 1.971302e+00 -2.032320e+00 -1.535060e+00 -1.423424e+00 -4.099805e+00 -1.491373e-01 2.379006e+00 -2.113211e-01 5.900586e+01 1.379257e-04 6.480585e-03 -6.792626e-04 -2.438193e-02 1.163713e-02 1.221232e-02 -5.735870e-03 -1.225340e-04 2.212050e-03 -8.653392e-03 3.638763e-03 -2.814080e-03 1.406430e-02 5.255758e-04 2.153039e-03 -2.547465e-03 -2.659362e-04 1.833911e-03 2.330116e-03 1.832731e-03 -2.288383e-04 7.422648e-04 -4.543481e-04 9.841508e-05 8.061461e-04 -2.162750e-03
<VARIANCE> 39
 6.988908e+01 3.156975e+01 4.887137e+01 5.562033e+01 4.381073e+01 3.858022e+01 3.974958e+01 3.958722e+01 3.677903e+01 2.789933e+01 2.750318e+01 2.175930e+01 3.728671e+01 3.637529e+00 2.410025e+00 2.378631e+00 3.170210e+00 2.977382e+00 2.752391e+00 2.635377e+00 2.881813e+00 2.558282e+00 2.340225e+00 2.343119e+00 1.692044e+00 2.047970e+00 5.496238e-01 4.483128e-01 4.089217e-01 5.624379e-01 5.364314e-01 5.153545e-01 4.852920e-01 5.566884e-01 4.869509e-01 4.590714e-01 4.614006e-01 3.263991e-01 3.586681e-01
<GCONST> 1.213488e+02
<TRANSP> 5
 0.000000e+00 1.000000e+00 0.000000e+00 0.000000e+00 0.000000e+00
 0.000000e+00 5.710329e-01 4.289670e-01 0.000000e+00 0.000000e+00
 0.000000e+00 0.000000e+00 5.710319e-01 4.289681e-01 0.000000e+00
 0.000000e+00 0.000000e+00 0.000000e+00 6.665157e-01 3.334844e-01
 0.000000e+00 0.000000e+00 0.000000e+00 0.000000e+00 0.000000e+00
<ENDHMM>
~h "j"
<BEGINHMM>
<NUMSTATES> 5
<STATE> 2
<MEAN> 39
 -7.512817e+00 3.376707e+00 4.253940e+00 2.866940e-01 2.502007e+00 -2.723370e+00 -2.393956e+00 -1.407138e+00 -2.861887e+00 -3.892500e-02 2.034173e+00 -4.698465e-01 5.899006e+01 4.081811e-02 -8.869063e-03 -1.811465e-02 -9.645336e-03 2.331578e-03 -1.013920e-03 1.128680e-02 1.894375e-02 -1.675194e-02 -1.687668e-02 -1.247111e-02 -4.038152e-03 1.172206e-02 -2.993630e-03 3.286038e-03 5.530538e-03 -2.288307e-03 -7.618116e-04 3.520585e-03 1.160088e-03 -4.060182e-04 -2.849663e-03 8.860111e-04 4.055203e-03 -2.115287e-03 -1.297437e-03
<VARIANCE> 39
 6.180063e+01 2.906780e+01 4.618465e+01 5.739350e+01 4.012836e+01 3.900829e+01 3.771558e+01 4.188545e+01 3.721291e+01 2.702358e+01 2.967929e+01 1.980078e+01 3.736229e+01 3.175330e+00 2.226292e+00 2.161389e+00 2.925472e+00 2.959099e+00 2.571293e+00 2.523559e+00 2.551541e+00 2.449619e+00 2.148585e+00 2.226185e+00 1.577680e+00 1.951363e+00 4.624731e-01 4.225836e-01 3.686904e-01 5.043577e-01 5.276617e-01 4.675397e-01 4.756838e-01 4.844345e-01 4.652611e-01 4.147658e-01 4.214254e-01 3.094317e-01 3.380945e-01
<GCONST> 1.190126e+02
<STATE> 3
<MEAN> 39
 -7.428504e+00 3.371541e+00 4.232831e+00 2.603504e-01 2.507996e+00 -2.710927e+00 -2.372154e+00 -1.374934e+00 -2.914213e+00 -6.839702e-02 2.023476e+00 -4.831365e-01 5.901011e+01 3.474226e-02 2.008310e-05 -2.877434e-03 -9.964420e-03 2.559531e-03 9.496800e-03 1.048101e-02 1.293586e-02 -2.569920e-02 -1.271594e-02 -4.358296e-03 -4.054677e-03 8.604819e-03 -2.668183e-03 4.178495e-03 7.417722e-03 8.176013e-04 2.919176e-04 4.113670e-03 -1.118012e-03 -3.544949e-03 -4.089533e-03 2.020664e-03 2.785688e-03 6.298874e-04 -1.114943e-03
<VARIANCE> 39
 6.131234e+01 2.940476e+01 4.639717e+01 5.717538e+01 3.973206e+01 3.868546e+01 3.765340e+01 4.222083e+01 3.715626e+01 2.677289e+01 2.953267e+01 1.957171e+01 3.675809e+01 3.187060e+00 2.248283e+00 2.197974e+00 2.920406e+00 2.988425e+00 2.583772e+00 2.533533e+00 2.574444e+00 2.460517e+00 2.145586e+00 2.231091e+00 1.583656e+00 1.950824e+00 4.638686e-01 4.267250e-01 3.733767e-01 5.049151e-01 5.355927e-01 4.712540e-01 4.752401e-01 4.893874e-01 4.668383e-01 4.160736e-01 4.227439e-01 3.099868e-01 3.381900e-01
<GCONST> 1.190966e+02
<STATE> 4
<MEAN> 39
 -7.338459e+00 3.396895e+00 4.253345e+00 2.364080e-01 2.530780e+00 -2.667999e+00 -2.360513e+00 -1.360765e+00 -3.015698e+00 -8.801731e-02 2.031293e+00 -4.838634e-01 5.903723e+01 2.937797e-02 1.003410e-02 1.354079e-02 -9.411718e-03 7.532577e-03 1.644988e-02 7.242929e-03 2.167885e-03 -3.774196e-02 -9.243441e-03 1.271308e-03 4.746878e-04 1.029788e-02 -2.298897e-03 3.048941e-03 5.861401e-03 1.747656e-04 1.523080e-03 7.800587e-04 -1.288183e-03 -3.601836e-03 -3.666869e-03 7.001981e-04 1.533454e-03 1.177323e-03 1.296097e-03
<VARIANCE> 39
 6.079867e+01 2.960912e+01 4.663554e+01 5.697836e+01 3.938679e+01 3.881529e+01 3.779509e+01 4.210510e+01 3.709998e+01 2.659178e+01 2.933553e+01 1.951965e+01 3.609241e+01 3.220680e+00 2.266299e+00 2.255557e+00 2.914288e+00 3.029794e+00 2.635993e+00 2.555889e+00 2.606431e+00 2.481000e+00 2.134345e+00 2.237682e+00 1.587965e+00 1.968053e+00 4.685713e-01 4.301532e-01 3.805621e-01 5.046144e-01 5.470878e-01 4.818800e-01 4.760702e-01 4.961910e-01 4.704684e-01 4.152163e-01 4.241017e-01 3.105013e-01 3.395991e-01
<GCONST> 1.192814e+02
<TRANSP> 5
 0.000000e+00 1.000000e+00 0.000000e+00 0.000000e+00 0.000000e+00
 0.000000e+00 5.668491e-01 4.331509e-01 0.000000e+00 0.000000e+00
 0.000000e+00 0.000000e+00 5.668504e-01 4.331497e-01 0.000000e+00
 0.000000e+00 0.000000e+00 0.000000e+00 6.614787e-01 3.385213e-01
 0.000000e+00 0.000000e+00 0.000000e+00 0.000000e+00 0.000000e+00
<ENDHMM>
~h "k"
<BEGINHMM>
<NUMSTATES> 5
<STATE> 2
<MEAN> 39
 -8.612451e+00 2.761790e+00 3.373428e+00 -1.149523e+00 2.884405e+00 -1.306006e+00 -1.570244e+00 -7.342811e-01 -3.168545e+00 -1.637318e-01 2.456383e+00 1.267918e-01 5.841387e+01 2.184715e-02 -3.892943e-03 -1.019801e-02 3.576069e-03 -1.920461e-02 7.805353e-03 -4.866294e-03 -2.416313e-02 -1.222564e-02 -7.423283e-03 -6.413556e-03 3.948628e-03 8.750600e-03 7.103891e-04 6.260654e-05 -4.961410e-04 -1.637349e-03 -1.085419e-04 -1.629933e-03 -1.375244e-03 -2.484640e-04 -1.412353e-03 -1.495952e-04 1.876163e-03 -1.050227e-03 1.096785e-03
<VARIANCE> 39
 6.725525e+01 3.140408e+01 4.951793e+01 5.325683e+01 4.133647e+01 4.019523e+01 3.954974e+01 3.776941e+01 3.654615e+01 2.976164e+01 2.884969e+01 2.166318e+01 3.796199e+01 3.482793e+00 2.390202e+00 2.375708e+00 3.074300e+00 2.878619e+00 2.750807e+00 2.627650e+00 2.752867e+00 2.442788e+00 2.278255e+00 2.509970e+00 1.731908e+00 2.116967e+00 5.205581e-01 4.477630e-01 4.196092e-01 5.541530e-01 5.080041e-01 5.089744e-01 4.805181e-01 5.266435e-01 4.576330e-01 4.331826e-01 4.952950e-01 3.406115e-01 3.638263e-01
<GCONST> 1.210415e+02
<STATE> 3
<MEAN> 39
 -8.555836e+00 2.752411e+00 3.347541e+00 -1.143030e+00 2.835438e+00 -1.291016e+00 -1.582256e+00 -7.912902e-01 -3.199538e+00 -1.784060e-01 2.441975e+00 1.312275e-01 5.843489e+01 2.315794e-02 -2.241644e-03 -9.889081e-03 2.890671e-03 -1.971369e-02 3.940404e-03 -5.412622e-03 -2.273792e-02 -1.366316e-02 -5.897137e-03 -3.273866e-03 1.095565e-03 9.163283e-03 1.009171e-03 1.069850e-03 -2.958062e-05 2.340576e-04 -4.086552e-05 -1.563007e-03 5.659351e-04 1.378751e-03 -6.349687e-04 -3.080036e-06 9.173490e-04 -2.120096e-04 1.453032e-04
<VARIANCE> 39
 6.712228e+01 3.127178e+01 4.961363e+01 5.267849e+01 4.094314e+01 3.998433e+01 3.941373e+01 3.763241e+01 3.631667e+01 2.985482e+01 2.881234e+01 2.151925e+01 3.801959e+01 3.469401e+00 2.391007e+00 2.370487e+00 3.084392e+00 2.854223e+00 2.758397e+00 2.632926e+00 2.775089e+00 2.443475e+00 2.296860e+00 2.518629e+00 1.742711e+00 2.116876e+00 5.190294e-01 4.473992e-01 4.183373e-01 5.559931e-01 5.045533e-01 5.099632e-01 4.806020e-01 5.310680e-01 4.571279e-01 4.355231e-01 4.979210e-01 3.429433e-01 3.643718e-01
<GCONST> 1.210327e+02
<STATE> 4
<MEAN> 39
 -8.483892e+00 2.751271e+00 3.321795e+00 -1.128726e+00 2.774925e+00 -1.292215e+00 -1.581710e+00 -8.492058e-01 -3.239507e+00 -1.852187e-01 2.424693e+00 1.254559e-01 5.846620e+01 2.447874e-02 1.144661e-03 -8.886653e-03 5.776586e-03 -2.048599e-02 8.888454e-04 -1.832439e-04 -1.679357e-02 -1.330403e-02 -4.319159e-03 -1.733938e-03 4.810439e-04 6.910768e-03 9.013174e-04 1.618988e-03 5.877303e-04 8.862822e-04 -8.200207e-05 -7.202137e-04 2.080666e-03 2.015519e-03 6.280472e-05 -5.181627e-04 1.702817e-04 1.037214e-03 -1.602554e-04
<VARIANCE> 39
 6.707398e+01 3.107387e+01 4.967267e+01 5.203586e+01 4.064823e+01 3.961774e+01 3.917755e+01 3.768715e+01 3.623159e+01 2.993688e+01 2.871335e+01 2.123639e+01 3.811703e+01 3.447817e+00 2.385900e+00 2.363594e+00 3.075627e+00 2.834486e+00 2.752804e+00 2.616162e+00 2.782153e+00 2.445273e+00 2.317205e+00 2.515221e+00 1.743919e+00 2.096360e+00 5.163942e-01 4.447683e-01 4.161694e-01 5.535204e-01 5.017704e-01 5.092463e-01 4.781238e-01 5.336994e-01 4.572014e-01 4.381399e-01 4.977362e-01 3.430377e-01 3.621377e-01
<GCONST> 1.209242e+02
<TRANSP> 5
 0.000000e+00 1.000000e+00 0.000000e+00 0.000000e+00 0.000000e+00
 0.000000e+00 5.740721e-01 4.259279e-01 0.000000e+00 0.000000e+00
 0.000000e+00 0.000000e+00 5.740716e-01 4.259284e-01 0.000000e+00
 0.000000e+00 0.000000e+00 0.000000e+00 6.701185e-01 3.298816e-01
 0.000000e+00 0.000000e+00 0.000000e+00 0.000000e+00 0.000000e+00
<ENDHMM>
~h "l"
<BEGINHMM>
<NUMSTATES> 5
<STATE> 2
<MEAN> 39
 -6.726634e+00 3.229115e+00 3.008406e+00 -2.448018e+00 1.262281e+00 -1.574639e+00 -5.159081e-01 -9.952482e-01 -5.081650e+00 -4.536905e-01 2.692332e+00 3.141349e-01 5.954547e+01 -2.236233e-02 -6.254796e-04 7.810861e-03 2.950694e-02 1.418799e-02 6.144651e-03 -1.969882e-02 -1.496214e-02 2.042710e-02 -5.805778e-03 -9.183547e-03 -3.222185e-03 -1.841358e-02 -4.421845e-03 -1.684985e-03 2.939723e-03 1.125284e-03 8.440068e-04 2.371237e-04 -2.345952e-03 -1.995246e-03 2.130120e-03 9.549935e-04 8.808378e-04 -7.599424e-04 -3.490807e-04
<VARIANCE> 39
 6.634325e+01 3.113926e+01 4.778827e+01 5.906373e+01 4.746024e+01 3.628214e+01 4.010698e+01 4.199665e+01 3.697685e+01 2.906339e+01 2.680555e+01 2.330757e+01 3.285001e+01 3.384554e+00 2.272844e+00 2.270625e+00 3.116235e+00 3.103912e+00 2.600773e+00 2.654327e+00 2.794859e+00 2.518227e+00 2.419953e+00 2.226776e+00 1.739246e+00 1.913316e+00 4.873555e-01 4.199385e-01 3.847245e-01 5.431656e-01 5.426667e-01 4.896835e-01 4.808187e-01 5.283499e-01 4.696585e-01 4.690650e-01 4.339800e-01 3.295352e-01 3.222148e-01
<GCONST> 1.205073e+02
<STATE> 3
<MEAN> 39
 -6.787189e+00 3.220711e+00 3.031391e+00 -2.378871e+00 1.294926e+00 -1.557993e+00 -5.627487e-01 -1.029691e+00 -5.030032e+00 -4.616493e-01 2.675387e+00 3.044030e-01 5.950190e+01 -3.114944e-02 -4.166064e-03 1.394286e-02 3.091642e-02 1.459023e-02 6.996149e-03 -2.315519e-02 -1.886066e-02 2.486495e-02 -2.846103e-03 -7.088250e-03 -4.595517e-03 -1.967242e-02 -3.541900e-03 -1.514235e-03 2.745056e-03 5.298416e-05 1.516984e-04 5.120787e-04 -1.416126e-03 -1.587330e-03 1.556521e-03 1.574561e-03 8.682863e-04 -8.031729e-04 -3.610672e-04
<VARIANCE> 39
 6.628307e+01 3.111637e+01 4.759269e+01 5.903421e+01 4.713948e+01 3.635508e+01 3.994874e+01 4.169648e+01 3.683397e+01 2.910836e+01 2.680104e+01 2.315796e+01 3.289107e+01 3.381250e+00 2.282509e+00 2.273814e+00 3.128363e+00 3.085428e+00 2.602949e+00 2.644575e+00 2.787744e+00 2.513721e+00 2.422658e+00 2.225813e+00 1.736251e+00 1.920352e+00 4.877956e-01 4.230890e-01 3.856208e-01 5.461310e-01 5.409557e-01 4.898222e-01 4.797341e-01 5.272869e-01 4.698468e-01 4.695807e-01 4.344045e-01 3.294260e-01 3.246264e-01
<GCONST> 1.204941e+02
<STATE> 4
<MEAN> 39
 -6.879936e+00 3.193313e+00 3.063498e+00 -2.298834e+00 1.331903e+00 -1.535339e+00 -6.134011e-01 -1.063456e+00 -4.956429e+00 -4.504991e-01 2.665430e+00 2.862665e-01 5.944998e+01 -3.755512e-02 -6.471036e-03 2.036131e-02 3.002684e-02 1.294183e-02 8.873698e-03 -2.374103e-02 -2.105622e-02 2.734150e-02 1.274294e-03 -4.928860e-03 -6.093452e-03 -2.171157e-02 -2.228632e-03 -7.273901e-04 2.521016e-03 -4.343945e-04 -1.741181e-04 6.796654e-04 -5.557701e-04 -8.520714e-04 7.059563e-04 1.677661e-03 5.731863e-04 -7.781728e-04 -6.364718e-04
<VARIANCE> 39
 6.626096e+01 3.102143e+01 4.743578e+01 5.883564e+01 4.681971e+01 3.645367e+01 3.976623e+01 4.123740e+01 3.665426e+01 2.905008e+01 2.682109e+01 2.292315e+01 3.296248e+01 3.377524e+00 2.289726e+00 2.286935e+00 3.147278e+00 3.064399e+00 2.607610e+00 2.635475e+00 2.783868e+00 2.506315e+00 2.413243e+00 2.230123e+00 1.730809e+00 1.929277e+00 4.890130e-01 4.262547e-01 3.883417e-01 5.503564e-01 5.391748e-01 4.903947e-01 4.786112e-01 5.268648e-01 4.695080e-01 4.682578e-01 4.361054e-01 3.292114e-01 3.280164e-01
<GCONST> 1.204802e+02
<TRANSP> 5
 0.000000e+00 1.000000e+00 0.000000e+00 0.000000e+00 0.000000e+00
 0.000000e+00 5.698202e-01 4.301799e-01 0.000000e+00 0.000000e+00
 0.000000e+00 0.000000e+00 5.698212e-01 4.301788e-01 0.000000e+00
 0.000000e+00 0.000000e+00 0.000000e+00 6.649889e-01 3.350111e-01
 0.000000e+00 0.000000e+00 0.000000e+00 0.000000e+00 0.000000e+00
<ENDHMM>
~h "m"
<BEGINHMM>
<NUMSTATES> 5
<STATE> 2
<MEAN> 39
 -6.839101e+00 4.407048e+00 4.149672e+00 -3.154021e-01 2.342574e+00 -1.525399e+00 -6.039709e-01 -8.546596e-01 -4.271070e+00 -6.675795e-01 2.083626e+00 -4.939570e-01 5.894411e+01 -6.020260e-02 -2.287098e-02 2.573421e-02 -6.039575e-03 1.362384e-02 -6.141194e-03 -1.267589e-02 7.843178e-03 1.699172e-02 -2.371557e-03 1.363575e-02 2.214551e-03 -1.124368e-02 -4.604823e-03 -3.850742e-03 -1.072103e-03 -2.578850e-03 1.678652e-03 1.211509e-04 -1.535172e-03 1.131954e-03 2.591206e-03 1.040303e-03 3.374092e-03 1.525658e-03 -1.543407e-03
<VARIANCE> 39
 6.446970e+01 3.098952e+01 5.269806e+01 5.320566e+01 3.909833e+01 3.556168e+01 3.599265e+01 3.343969e+01 3.529085e+01 2.521549e+01 2.469324e+01 2.072857e+01 3.337130e+01 3.135440e+00 2.136078e+00 2.491351e+00 2.897313e+00 2.967849e+00 2.470095e+00 2.419612e+00 2.464487e+00 2.572633e+00 2.148587e+00 2.045138e+00 1.606044e+00 1.712186e+00 4.360077e-01 3.835937e-01 4.287632e-01 4.999022e-01 5.373247e-01 4.624921e-01 4.497928e-01 4.690688e-01 4.833431e-01 4.170575e-01 4.002872e-01 3.103046e-01 2.840184e-01
<GCONST> 1.179530e+02
<STATE> 3
<MEAN> 39
 -6.996541e+00 4.346192e+00 4.210154e+00 -3.378885e-01 2.384343e+00 -1.537217e+00 -6.386523e-01 -8.294937e-01 -4.223979e+00 -6.734164e-01 2.125514e+00 -4.870475e-01 5.890961e+01 -6.930041e-02 -2.929703e-02 2.359664e-02 -1.192260e-02 1.865745e-02 -5.061134e-03 -1.811650e-02 1.046502e-02 2.082440e-02 -2.297035e-03 1.890400e-02 3.491619e-03 -1.616393e-02 -2.913893e-03 -2.309412e-03 -5.802590e-04 -1.745342e-03 1.932740e-03 4.398243e-04 -2.237891e-03 7.174962e-04 6.775979e-04 -1.925314e-04 1.655924e-03 3.889833e-04 -1.766793e-03
<VARIANCE> 39
 6.508778e+01 3.124795e+01 5.355322e+01 5.335820e+01 3.941569e+01 3.619287e+01 3.614880e+01 3.364199e+01 3.524030e+01 2.528083e+01 2.460378e+01 2.080518e+01 3.401832e+01 3.159149e+00 2.124334e+00 2.500363e+00 2.895886e+00 2.983893e+00 2.478104e+00 2.424070e+00 2.467720e+00 2.560139e+00 2.133518e+00 2.041857e+00 1.607040e+00 1.712593e+00 4.386880e-01 3.804451e-01 4.291764e-01 4.990453e-01 5.397655e-01 4.632877e-01 4.507652e-01 4.699198e-01 4.812820e-01 4.138231e-01 4.015699e-01 3.108487e-01 2.854868e-01
<GCONST> 1.180560e+02
<STATE> 4
<MEAN> 39
 -7.214893e+00 4.266109e+00 4.288414e+00 -3.818852e-01 2.448276e+00 -1.553553e+00 -6.926767e-01 -7.913082e-01 -4.170400e+00 -6.863066e-01 2.176941e+00 -4.829755e-01 5.886169e+01 -7.552537e-02 -3.192658e-02 2.456246e-02 -1.551479e-02 2.139373e-02 -4.469106e-03 -2.504264e-02 1.078208e-02 1.840648e-02 -4.734702e-03 2.065602e-02 3.058456e-03 -2.035329e-02 -9.350762e-04 -1.190927e-03 2.988976e-04 -5.971927e-04 3.944036e-04 -1.259457e-04 -2.144349e-03 -5.810060e-04 -1.395714e-03 -7.101027e-04 3.711108e-04 4.019593e-04 -6.311351e-04
<VARIANCE> 39
 6.587301e+01 3.151035e+01 5.432125e+01 5.354142e+01 3.980708e+01 3.696818e+01 3.628121e+01 3.390953e+01 3.523126e+01 2.535574e+01 2.442683e+01 2.085622e+01 3.479153e+01 3.208810e+00 2.123287e+00 2.507681e+00 2.888399e+00 2.989242e+00 2.489908e+00 2.422769e+00 2.474504e+00 2.548369e+00 2.121421e+00 2.043115e+00 1.611882e+00 1.719594e+00 4.450470e-01 3.792000e-01 4.296639e-01 4.967299e-01 5.395290e-01 4.644848e-01 4.509916e-01 4.707330e-01 4.800753e-01 4.110568e-01 4.039179e-01 3.118177e-01 2.883046e-01
<GCONST> 1.182002e+02
<TRANSP> 5
 0.000000e+00 1.000000e+00 0.000000e+00 0.000000e+00 0.000000e+00
 0.000000e+00 5.696100e-01 4.303899e-01 0.000000e+00 0.000000e+00
 0.000000e+00 0.000000e+00 5.696099e-01 4.303901e-01 0.000000e+00
 0.000000e+00 0.000000e+00 0.000000e+00 6.647337e-01 3.352662e-01
 0.000000e+00 0.000000e+00 0.000000e+00 0.000000e+00 0.000000e+00
<ENDHMM>
~h "n"
<BEGINHMM>
<NUMSTATES> 5
<STATE> 2
<MEAN> 39
 -7.856199e+00 3.805260e+00 3.968347e+00 -1.364169e+00 2.618433e+00 -1.585249e+00 -3.253622e-01 -3.077673e-01 -3.813025e+00 -4.582317e-01 2.771871e+00 -5.448727e-01 5.900941e+01 2.247272e-02 8.582898e-03 -9.372557e-03 -1.853793e-02 -4.938350e-05 4.193259e-03 -1.777370e-03 9.987047e-03 -1.387627e-02 5.555623e-03 7.537751e-03 -2.164053e-03 1.382066e-02 2.434820e-03 -8.900547e-04 -2.482152e-03 4.579009e-03 -9.806124e-04 -2.132249e-03 -8.673111e-04 -1.707381e-03 -4.394920e-04 5.820220e-04 -2.648642e-03 7.877399e-04 -1.258417e-04
<VARIANCE> 39
 6.983753e+01 3.069526e+01 4.939451e+01 5.693317e+01 3.958151e+01 3.696182e+01 3.643997e+01 3.393802e+01 3.868290e+01 2.522590e+01 2.637451e+01 2.187019e+01 3.683648e+01 3.407373e+00 2.203658e+00 2.454846e+00 3.211327e+00 2.908096e+00 2.551611e+00 2.388407e+00 2.604232e+00 2.621856e+00 2.154971e+00 2.197951e+00 1.682534e+00 1.795462e+00 4.801906e-01 4.124879e-01 4.213354e-01 5.563288e-01 5.201441e-01 4.779979e-01 4.404968e-01 5.003528e-01 5.006528e-01 4.213703e-01 4.266085e-01 3.273383e-01 3.055233e-01
<GCONST> 1.193981e+02
<STATE> 3
<MEAN> 39
 -7.795106e+00 3.817645e+00 3.940197e+00 -1.391421e+00 2.614124e+00 -1.580869e+00 -3.340905e-01 -2.889450e-01 -3.846567e+00 -4.437386e-01 2.778208e+00 -5.480610e-01 5.904362e+01 2.737677e-02 6.574738e-03 -1.386089e-02 -9.216780e-03 -1.684141e-03 1.451517e-03 -3.509145e-03 5.399425e-03 -1.692917e-02 7.890403e-03 1.885599e-03 -9.350260e-04 1.392704e-02 1.141548e-03 -8.770084e-04 -1.385975e-03 2.712009e-03 -4.796431e-04 -6.473218e-04 -1.094740e-03 -2.262463e-03 -1.890034e-03 8.044409e-04 -1.740313e-03 2.782406e-04 2.232370e-04
<VARIANCE> 39
 6.958384e+01 3.047113e+01 4.944815e+01 5.723725e+01 3.963754e+01 3.653137e+01 3.634724e+01 3.405132e+01 3.872682e+01 2.519047e+01 2.638659e+01 2.208258e+01 3.689854e+01 3.420325e+00 2.224492e+00 2.464444e+00 3.221287e+00 2.913060e+00 2.546263e+00 2.383685e+00 2.594150e+00 2.604091e+00 2.172428e+00 2.192672e+00 1.692040e+00 1.806062e+00 4.826646e-01 4.176407e-01 4.236422e-01 5.579589e-01 5.213782e-01 4.785557e-01 4.408728e-01 4.982437e-01 4.969306e-01 4.257561e-01 4.249709e-01 3.289742e-01 3.068743e-01
<GCONST> 1.194544e+02
<STATE> 4
<MEAN> 39
 -7.725092e+00 3.824336e+00 3.900612e+00 -1.408090e+00 2.608670e+00 -1.580178e+00 -3.524646e-01 -2.866081e-01 -3.901730e+00 -4.273254e-01 2.767386e+00 -5.521317e-01 5.908855e+01 2.571623e-02 2.539666e-03 -1.608444e-02 -8.064205e-03 -5.513400e-03 4.756459e-04 -5.766308e-03 -2.795336e-03 -2.162662e-02 1.055000e-02 -2.913364e-03 1.138075e-03 1.505587e-02 -2.206708e-03 -1.359106e-03 -3.168100e-04 -1.097937e-03 -9.867878e-04 -3.314226e-04 -1.184472e-03 -3.259295e-03 -1.496366e-03 4.267327e-04 -1.293188e-03 5.512121e-04 1.467915e-04
<VARIANCE> 39
 6.920516e+01 3.040277e+01 4.975226e+01 5.779969e+01 3.988505e+01 3.615345e+01 3.638037e+01 3.418800e+01 3.864594e+01 2.539248e+01 2.649989e+01 2.221774e+01 3.706261e+01 3.428900e+00 2.253347e+00 2.474589e+00 3.221075e+00 2.924272e+00 2.536880e+00 2.390758e+00 2.580934e+00 2.581524e+00 2.203852e+00 2.197926e+00 1.687624e+00 1.823333e+00 4.842367e-01 4.234532e-01 4.248044e-01 5.576951e-01 5.225684e-01 4.781213e-01 4.435615e-01 4.945488e-01 4.921671e-01 4.326700e-01 4.255364e-01 3.272775e-01 3.074972e-01
<GCONST> 1.195405e+02
<TRANSP> 5
 0.000000e+00 1.000000e+00 0.000000e+00 0.000000e+00 0.000000e+00
 0.000000e+00 5.697412e-01 4.302588e-01 0.000000e+00 0.000000e+00
 0.000000e+00 0.000000e+00 5.697407e-01 4.302593e-01 0.000000e+00
 0.000000e+00 0.000000e+00 0.000000e+00 6.650606e-01 3.349394e-01
 0.000000e+00 0.000000e+00 0.000000e+00 0.000000e+00 0.000000e+00
<ENDHMM>
~h "o"
<BEGINHMM>
<NUMSTATES> 5
<STATE> 2
<MEAN> 39
 -7.196064e+00 3.567224e+00 3.426741e+00 -1.819733e+00 2.137771e+00 -1.044999e+00 -7.033566e-01 -1.361837e+00 -4.561013e+00 -6.769181e-01 2.649756e+00 4.834794e-01 5.917612e+01 7.139461e-03 1.361118e-02 1.713345e-02 -5.471444e-04 -1.077360e-02 -1.327933e-02 -6.795815e-03 -5.474523e-03 -1.168869e-02 -1.851383e-02 -1.069435e-02 -1.082073e-02 5.322135e-03 3.272234e-04 8.615809e-04 5.136324e-04 1.478148e-03 -8.775324e-04 4.013620e-05 5.338528e-04 3.700024e-04 5.314969e-04 1.524164e-04 8.914189e-05 1.414199e-03 -1.889794e-03
<VARIANCE> 39
 6.766024e+01 2.940133e+01 4.499068e+01 5.974759e+01 4.422737e+01 3.567555e+01 3.950912e+01 3.971533e+01 3.654592e+01 2.916429e+01 2.746444e+01 2.318614e+01 3.480997e+01 3.502412e+00 2.297458e+00 2.374472e+00 3.095010e+00 3.084739e+00 2.540616e+00 2.587702e+00 2.684137e+00 2.405992e+00 2.327746e+00 2.285786e+00 1.702802e+00 1.991219e+00 5.260698e-01 4.275610e-01 4.096259e-01 5.301487e-01 5.547648e-01 4.713973e-01 4.853880e-01 5.095435e-01 4.525926e-01 4.511036e-01 4.472165e-01 3.268297e-01 3.411110e-01
<GCONST> 1.203719e+02
<STATE> 3
<MEAN> 39
 -7.178469e+00 3.599831e+00 3.469717e+00 -1.813735e+00 2.107520e+00 -1.076566e+00 -7.149064e-01 -1.373441e+00 -4.586972e+00 -7.171878e-01 2.621843e+00 4.633376e-01 5.918216e+01 6.521699e-03 1.434932e-02 1.735538e-02 4.378731e-03 -1.185402e-02 -1.316553e-02 -5.709102e-03 -4.633045e-03 -1.074850e-02 -1.645597e-02 -1.092304e-02 -7.568406e-03 5.105850e-04 -5.180039e-04 1.282496e-04 -1.125229e-05 2.238526e-03 -1.013658e-04 -1.389112e-04 6.409810e-04 6.489646e-04 4.120509e-04 1.210089e-03 -2.236278e-04 1.232178e-03 -2.045684e-03
<VARIANCE> 39
 6.729295e+01 2.950298e+01 4.509831e+01 5.974273e+01 4.400196e+01 3.566931e+01 3.952166e+01 3.978370e+01 3.641680e+01 2.898191e+01 2.748985e+01 2.310339e+01 3.446204e+01 3.487158e+00 2.297543e+00 2.369769e+00 3.086116e+00 3.086775e+00 2.545273e+00 2.598849e+00 2.679609e+00 2.412955e+00 2.321903e+00 2.278973e+00 1.707138e+00 1.993210e+00 5.244737e-01 4.268537e-01 4.089395e-01 5.282706e-01 5.552878e-01 4.726576e-01 4.883231e-01 5.076315e-01 4.543005e-01 4.501518e-01 4.455652e-01 3.279792e-01 3.418276e-01
<GCONST> 1.203428e+02
<STATE> 4
<MEAN> 39
 -7.168633e+00 3.637697e+00 3.522617e+00 -1.778437e+00 2.076129e+00 -1.123800e+00 -7.206490e-01 -1.373294e+00 -4.605069e+00 -7.505919e-01 2.582343e+00 4.384586e-01 5.917551e+01 2.660797e-03 1.292221e-02 1.702848e-02 1.140450e-02 -1.061043e-02 -1.447038e-02 -4.119157e-03 -1.708587e-03 -8.486784e-03 -1.120747e-02 -1.148387e-02 -5.466755e-03 -4.497490e-03 -1.534802e-03 -6.364885e-04 -8.588922e-05 2.391553e-03 7.680421e-04 -3.615984e-04 9.499555e-04 1.146898e-03 9.629847e-04 1.966070e-03 -1.193296e-04 5.194546e-04 -1.474618e-03
<VARIANCE> 39
 6.680089e+01 2.972835e+01 4.530179e+01 5.967233e+01 4.372592e+01 3.583347e+01 3.928011e+01 3.982439e+01 3.626609e+01 2.871870e+01 2.749352e+01 2.299533e+01 3.422178e+01 3.458282e+00 2.296718e+00 2.358119e+00 3.073229e+00 3.076769e+00 2.552176e+00 2.602919e+00 2.678027e+00 2.425078e+00 2.308453e+00 2.271973e+00 1.711732e+00 1.985588e+00 5.204014e-01 4.252780e-01 4.070481e-01 5.252726e-01 5.534502e-01 4.740688e-01 4.903546e-01 5.061713e-01 4.568321e-01 4.477251e-01 4.438128e-01 3.295227e-01 3.410704e-01
<GCONST> 1.202702e+02
<TRANSP> 5
 0.000000e+00 1.000000e+00 0.000000e+00 0.000000e+00 0.000000e+00
 0.000000e+00 5.685886e-01 4.314115e-01 0.000000e+00 0.000000e+00
 0.000000e+00 0.000000e+00 5.685900e-01 4.314100e-01 0.000000e+00
 0.000000e+00 0.000000e+00 0.000000e+00 6.636806e-01 3.363194e-01
 0.000000e+00 0.000000e+00 0.000000e+00 0.000000e+00 0.000000e+00
<ENDHMM>
~h "p"
<BEGINHMM>
<NUMSTATES> 5
<STATE> 2
<MEAN> 39
 -8.180440e+00 3.416953e+00 3.313917e+00 -1.432749e+00 2.262592e+00 -5.633955e-01 -5.717325e-01 -9.435061e-01 -4.307235e+00 -4.024190e-01 2.770783e+00 5.233280e-01 5.817839e+01 5.743665e-03 -1.773027e-02 -1.005314e-02 -3.244507e-02 -5.651533e-03 -1.426151e-02 -2.579689e-03 -1.805493e-02 -4.271907e-02 -1.018803e-02 7.805018e-03 -3.588870e-03 2.141972e-02 4.408128e-03 -8.520532e-04 2.946923e-03 1.847079e-03 -2.555843e-03 -6.576711e-03 6.628845e-04 -2.288874e-03 -2.734158e-03 -1.728749e-03 -1.880741e-03 5.233608e-04 7.181705e-03
<VARIANCE> 39
 6.705232e+01 3.013020e+01 4.165411e+01 5.701196e+01 4.114033e+01 3.508455e+01 3.561069e+01 4.350325e+01 4.137374e+01 3.099961e+01 2.616967e+01 2.202149e+01 4.019095e+01 3.586774e+00 2.309379e+00 2.277762e+00 3.030811e+00 3.071744e+00 2.491952e+00 2.573150e+00 2.852436e+00 2.480430e+00 2.270928e+00 2.324193e+00 1.658566e+00 2.322939e+00 5.374746e-01 4.274881e-01 4.056986e-01 5.355223e-01 5.870228e-01 4.790898e-01 4.972025e-01 5.494576e-01 4.644001e-01 4.420675e-01 4.679005e-01 3.165027e-01 3.843386e-01
<GCONST> 1.208707e+02
<STATE> 3
<MEAN> 39
 -8.148255e+00 3.377042e+00 3.307095e+00 -1.502554e+00 2.242089e+00 -6.225477e-01 -5.787823e-01 -9.949622e-01 -4.411585e+00 -4.354472e-01 2.778851e+00 5.112040e-01 5.825623e+01 1.705068e-02 -1.787069e-02 5.837865e-04 -2.876318e-02 -8.725117e-03 -3.112368e-02 -2.143281e-03 -2.237330e-02 -4.547306e-02 -1.253877e-02 1.452816e-03 -4.865261e-03 3.951766e-02 5.203611e-03 5.896222e-04 4.412450e-03 1.226554e-03 -1.188032e-03 -6.844354e-03 8.790624e-06 -7.410484e-04 -1.635441e-04 -1.201163e-03 -2.697044e-03 -4.129287e-04 7.947928e-03
<VARIANCE> 39
 6.749174e+01 3.044802e+01 4.160546e+01 5.694868e+01 4.100134e+01 3.491216e+01 3.530654e+01 4.346392e+01 4.064537e+01 3.038739e+01 2.606897e+01 2.226223e+01 3.963686e+01 3.660500e+00 2.318827e+00 2.294864e+00 3.025971e+00 3.112892e+00 2.514455e+00 2.582176e+00 2.880257e+00 2.510368e+00 2.280046e+00 2.303879e+00 1.674084e+00 2.363941e+00 5.478963e-01 4.287582e-01 4.107143e-01 5.338613e-01 5.971380e-01 4.828617e-01 4.986923e-01 5.532318e-01 4.674809e-01 4.437989e-01 4.626722e-01 3.193590e-01 3.867479e-01
<GCONST> 1.210035e+02
<STATE> 4
<MEAN> 39
 -8.084335e+00 3.344249e+00 3.341911e+00 -1.575971e+00 2.212856e+00 -7.286252e-01 -5.853740e-01 -1.053352e+00 -4.509366e+00 -4.709802e-01 2.757299e+00 4.908523e-01 5.840241e+01 2.205958e-02 -1.326066e-02 1.460113e-02 -2.833086e-02 -7.571095e-03 -4.199523e-02 -4.084869e-03 -1.834894e-02 -3.669644e-02 -1.457242e-02 -5.838537e-03 -7.189219e-03 5.538135e-02 1.510708e-03 1.979908e-03 4.454616e-03 2.479010e-04 5.560569e-04 -2.838663e-03 -6.617439e-04 2.111092e-03 3.746075e-03 -5.140502e-04 -2.224589e-03 -3.459222e-04 5.020036e-03
<VARIANCE> 39
 6.810417e+01 3.092669e+01 4.163078e+01 5.679080e+01 4.090845e+01 3.470567e+01 3.515755e+01 4.332385e+01 3.980166e+01 2.972817e+01 2.599623e+01 2.253451e+01 3.878689e+01 3.745127e+00 2.341188e+00 2.324116e+00 3.019638e+00 3.167642e+00 2.548614e+00 2.604918e+00 2.889219e+00 2.523175e+00 2.288187e+00 2.278488e+00 1.686739e+00 2.393214e+00 5.596228e-01 4.326474e-01 4.181520e-01 5.310760e-01 6.084445e-01 4.879664e-01 5.038416e-01 5.558633e-01 4.703012e-01 4.462065e-01 4.563000e-01 3.205051e-01 3.885709e-01
<GCONST> 1.211514e+02
<TRANSP> 5
 0.000000e+00 1.000000e+00 0.000000e+00 0.000000e+00 0.000000e+00
 0.000000e+00 5.707880e-01 4.292120e-01 0.000000e+00 0.000000e+00
 0.000000e+00 0.000000e+00 5.707874e-01 4.292126e-01 0.000000e+00
 0.000000e+00 0.000000e+00 0.000000e+00 6.662643e-01 3.337358e-01
 0.000000e+00 0.000000e+00 0.000000e+00 0.000000e+00 0.000000e+00
<ENDHMM>
~h "r"
<BEGINHMM>
<NUMSTATES> 5
<STATE> 2
<MEAN> 39
 -6.955217e+00 3.089035e+00 2.343462e+00 -2.299643e+00 2.463312e+00 -8.118825e-01 -9.945995e-01 -8.892139e-01 -4.511270e+00 9.696990e-02 3.104631e+00 4.888093e-01 5.928922e+01 1.792031e-02 4.009271e-03 1.081752e-02 -1.248932e-02 -7.688055e-03 -4.186727e-02 -2.736366e-02 -3.080721e-02 -3.116950e-02 6.080743e-03 -9.508681e-03 -2.497060e-02 3.935302e-02 -6.296190e-03 1.044601e-04 5.197016e-03 8.321400e-03 -2.035995e-06 -3.448667e-04 5.447448e-03 2.666429e-03 6.942910e-03 1.835191e-03 -2.646091e-03 -2.747821e-03 -5.829148e-03
<VARIANCE> 39
 6.056034e+01 3.051432e+01 4.473088e+01 5.432442e+01 3.819208e+01 3.624125e+01 3.778514e+01 4.061204e+01 3.822041e+01 3.100052e+01 2.688059e+01 2.113722e+01 3.964897e+01 3.392721e+00 2.297117e+00 2.423314e+00 3.198599e+00 2.811257e+00 2.488654e+00 2.510456e+00 2.773226e+00 2.612324e+00 2.372866e+00 2.251646e+00 1.682957e+00 2.198591e+00 5.275095e-01 4.212421e-01 4.319898e-01 5.699939e-01 5.320104e-01 4.642647e-01 4.757817e-01 5.214414e-01 4.916413e-01 4.544485e-01 4.386907e-01 3.329921e-01 3.628590e-01
<GCONST> 1.204607e+02
<STATE> 3
<MEAN> 39
 -6.938776e+00 3.100268e+00 2.388656e+00 -2.304216e+00 2.450063e+00 -9.041546e-01 -1.039470e+00 -9.506643e-01 -4.555299e+00 1.167124e-01 3.077031e+00 4.253657e-01 5.935685e+01 3.426076e-03 2.954135e-03 2.351904e-02 4.914100e-03 -6.247140e-03 -3.733295e-02 -1.634032e-02 -2.406248e-02 -1.288328e-02 8.499737e-03 -1.480692e-02 -2.802528e-02 2.378373e-02 -5.959807e-03 -2.761883e-04 5.705281e-03 6.453871e-03 7.763072e-04 2.359280e-03 4.561189e-03 3.702628e-03 7.708912e-03 -3.737957e-05 -2.144040e-03 -4.902073e-04 -6.436901e-03
<VARIANCE> 39
 6.072658e+01 3.057538e+01 4.472237e+01 5.399442e+01 3.797761e+01 3.588988e+01 3.752593e+01 4.052764e+01 3.797816e+01 3.108583e+01 2.691626e+01 2.121660e+01 3.947668e+01 3.368798e+00 2.279981e+00 2.443163e+00 3.133465e+00 2.800827e+00 2.476864e+00 2.508271e+00 2.749082e+00 2.611858e+00 2.385383e+00 2.246847e+00 1.682970e+00 2.160042e+00 5.263187e-01 4.185461e-01 4.360906e-01 5.543585e-01 5.296841e-01 4.630847e-01 4.788567e-01 5.182295e-01 4.933117e-01 4.573813e-01 4.367295e-01 3.322906e-01 3.602704e-01
<GCONST> 1.203345e+02
<STATE> 4
<MEAN> 39
 -6.968636e+00 3.103010e+00 2.491717e+00 -2.268814e+00 2.442131e+00 -9.987708e-01 -1.066375e+00 -9.957892e-01 -4.548516e+00 1.360468e-01 3.025573e+00 3.539419e-01 5.939597e+01 -9.782616e-03 2.320314e-03 3.924771e-02 1.631853e-02 -5.021562e-03 -2.952165e-02 -8.683175e-03 -1.524388e-02 6.278648e-03 4.702359e-03 -1.919316e-02 -2.499092e-02 6.877624e-03 -4.450409e-03 1.425707e-04 5.376676e-03 3.005031e-03 -1.874983e-04 2.801959e-03 3.146537e-03 3.646558e-03 6.045957e-03 -2.257783e-03 -1.068638e-03 1.696297e-03 -5.525971e-03
<VARIANCE> 39
 6.089500e+01 3.081700e+01 4.491232e+01 5.382656e+01 3.782611e+01 3.585033e+01 3.730083e+01 4.045344e+01 3.764462e+01 3.102534e+01 2.717915e+01 2.141005e+01 3.915762e+01 3.334133e+00 2.270666e+00 2.463174e+00 3.076551e+00 2.796411e+00 2.477185e+00 2.528605e+00 2.727909e+00 2.590521e+00 2.398003e+00 2.253563e+00 1.680186e+00 2.110504e+00 5.223315e-01 4.173586e-01 4.396714e-01 5.401353e-01 5.278391e-01 4.653339e-01 4.832964e-01 5.148435e-01 4.908260e-01 4.593515e-01 4.373627e-01 3.306192e-01 3.550204e-01
<GCONST> 1.202395e+02
<TRANSP> 5
 0.000000e+00 1.000000e+00 0.000000e+00 0.000000e+00 0.000000e+00
 0.000000e+00 5.670638e-01 4.329361e-01 0.000000e+00 0.000000e+00
 0.000000e+00 0.000000e+00 5.670651e-01 4.329350e-01 0.000000e+00
 0.000000e+00 0.000000e+00 0.000000e+00 6.618190e-01 3.381810e-01
 0.000000e+00 0.000000e+00 0.000000e+00 0.000000e+00 0.000000e+00
<ENDHMM>
~h "s"
<BEGINHMM>
<NUMSTATES> 5
<STATE> 2
<MEAN> 39
 -9.911365e+00 3.316223e+00 4.349655e+00 -2.932753e+00 3.212775e+00 -1.278342e+00 -9.438603e-01 -2.583807e-01 -4.039037e+00 -3.207003e-01 3.235876e+00 -2.071718e-01 5.887443e+01 2.979226e-02 7.663171e-03 -2.766929e-02 -3.747848e-04 -2.019051e-02 1.040059e-02 1.435082e-02 7.114490e-03 -4.510248e-03 4.867540e-03 -2.294466e-02 5.824419e-03 -1.925813e-02 4.033271e-04 -2.160907e-04 6.386604e-05 -7.055129e-05 -7.816768e-04 -3.155240e-04 -1.891924e-03 -1.346574e-03 -1.912959e-04 -9.522778e-04 -2.007403e-04 1.536538e-04 1.629348e-04
<VARIANCE> 39
 7.861749e+01 3.165130e+01 4.744887e+01 6.225579e+01 4.885979e+01 3.602635e+01 3.708962e+01 3.852886e+01 3.643295e+01 2.831909e+01 2.904827e+01 2.202428e+01 3.503335e+01 4.235122e+00 2.411186e+00 2.226510e+00 3.251559e+00 3.147364e+00 2.466203e+00 2.520781e+00 2.625203e+00 2.433594e+00 2.202483e+00 2.333517e+00 1.676823e+00 2.055155e+00 6.097319e-01 4.476903e-01 3.862257e-01 5.676087e-01 5.385758e-01 4.712591e-01 4.739450e-01 4.913463e-01 4.621935e-01 4.241192e-01 4.490550e-01 3.283398e-01 3.596268e-01
<GCONST> 1.209765e+02
<STATE> 3
<MEAN> 39
 -9.836432e+00 3.336146e+00 4.284333e+00 -2.934212e+00 3.163273e+00 -1.253199e+00 -9.129227e-01 -2.461898e-01 -4.047828e+00 -3.117380e-01 3.179337e+00 -1.922002e-01 5.883244e+01 2.948059e-02 6.408208e-03 -2.770761e-02 -9.903237e-04 -2.172097e-02 1.080353e-02 1.101658e-02 4.170614e-03 -5.065601e-03 2.654644e-03 -2.208886e-02 5.673829e-03 -1.849838e-02 -5.314645e-04 -8.810842e-04 -1.003646e-04 -6.954832e-04 -7.083365e-04 -2.873910e-04 -1.504035e-03 -1.132800e-03 -3.842124e-04 -7.284907e-04 1.237691e-03 -2.605291e-04 6.761887e-04
<VARIANCE> 39
 7.813873e+01 3.172088e+01 4.738320e+01 6.203455e+01 4.858466e+01 3.592073e+01 3.695855e+01 3.840266e+01 3.644494e+01 2.833391e+01 2.899075e+01 2.194226e+01 3.520420e+01 4.200200e+00 2.408910e+00 2.215810e+00 3.252986e+00 3.148760e+00 2.470301e+00 2.511285e+00 2.628023e+00 2.440782e+00 2.207469e+00 2.338275e+00 1.678891e+00 2.060307e+00 6.048568e-01 4.469593e-01 3.852960e-01 5.682201e-01 5.390953e-01 4.730847e-01 4.731063e-01 4.927885e-01 4.641326e-01 4.253742e-01 4.509170e-01 3.284357e-01 3.599916e-01
<GCONST> 1.209566e+02
<STATE> 4
<MEAN> 39
 -9.755580e+00 3.358814e+00 4.199078e+00 -2.938265e+00 3.103531e+00 -1.223037e+00 -8.784015e-01 -2.371953e-01 -4.058389e+00 -3.105811e-01 3.114373e+00 -1.788573e-01 5.878761e+01 2.779789e-02 3.487799e-03 -2.894119e-02 -2.176565e-03 -2.302822e-02 1.085900e-02 7.213476e-03 6.111026e-04 -6.202436e-03 4.800757e-04 -1.791884e-02 4.605372e-03 -1.603627e-02 -8.249553e-04 -1.169758e-03 -3.275443e-04 -6.297165e-04 -5.810279e-04 -6.372713e-04 -1.634029e-03 -1.277304e-03 -3.741856e-04 -6.591422e-04 2.198450e-03 -3.502056e-04 1.245944e-03
<VARIANCE> 39
 7.777055e+01 3.169814e+01 4.724766e+01 6.176644e+01 4.831715e+01 3.581366e+01 3.691022e+01 3.832495e+01 3.648655e+01 2.833681e+01 2.893116e+01 2.185332e+01 3.550802e+01 4.161794e+00 2.403277e+00 2.209205e+00 3.258074e+00 3.153632e+00 2.476832e+00 2.504502e+00 2.640117e+00 2.446220e+00 2.212512e+00 2.343976e+00 1.681003e+00 2.072387e+00 5.990528e-01 4.462541e-01 3.851145e-01 5.697519e-01 5.400093e-01 4.750218e-01 4.723001e-01 4.961165e-01 4.657407e-01 4.265015e-01 4.530722e-01 3.283314e-01 3.616727e-01
<GCONST> 1.209601e+02
<TRANSP> 5
 0.000000e+00 1.000000e+00 0.000000e+00 0.000000e+00 0.000000e+00
 0.000000e+00 5.721682e-01 4.278318e-01 0.000000e+00 0.000000e+00
 0.000000e+00 0.000000e+00 5.721681e-01 4.278319e-01 0.000000e+00
 0.000000e+00 0.000000e+00 0.000000e+00 6.678035e-01 3.321965e-01
 0.000000e+00 0.000000e+00 0.000000e+00 0.000000e+00 0.000000e+00
<ENDHMM>
~h "t"
<BEGINHMM>
<NUMSTATES> 5
<STATE> 2
<MEAN> 39
 -8.680943e+00 3.165761e+00 3.766649e+00 -2.678270e+00 2.508130e+00 -1.285960e+00 -1.299527e+00 -4.684058e-01 -4.289531e+00 -1.968330e-01 3.067890e+00 -9.674831e-02 5.875165e+01 1.004835e-02 -5.400655e-03 1.276757e-02 2.404523e-02 -1.921530e-02 -8.801818e-03 2.898341e-03 -1.395856e-02 3.450296e-03 -1.572979e-02 -1.052061e-02 3.810941e-03 1.557484e-03 -1.018153e-03 1.291777e-03 -1.766759e-03 -5.371986e-04 2.458305e-04 6.993726e-04 -6.902868e-05 -1.825597e-03 -6.310471e-04 -1.376385e-03 -1.435855e-04 9.127462e-04 -2.416871e-03
<VARIANCE> 39
 6.897719e+01 3.396003e+01 4.715016e+01 5.789468e+01 4.311941e+01 3.645391e+01 3.708935e+01 3.701272e+01 3.688733e+01 2.978956e+01 2.650869e+01 1.974913e+01 3.767988e+01 3.681700e+00 2.492947e+00 2.257460e+00 3.281910e+00 2.913472e+00 2.569890e+00 2.590284e+00 2.605690e+00 2.374888e+00 2.324767e+00 2.301766e+00 1.623882e+00 2.266806e+00 5.345386e-01 4.652579e-01 3.897607e-01 6.057114e-01 5.276309e-01 4.944391e-01 4.872777e-01 4.988938e-01 4.445276e-01 4.448427e-01 4.584049e-01 3.183818e-01 3.982479e-01
<GCONST> 1.207531e+02
<STATE> 3
<MEAN> 39
 -8.657900e+00 3.157760e+00 3.790275e+00 -2.620900e+00 2.464600e+00 -1.305834e+00 -1.291754e+00 -5.050713e-01 -4.280486e+00 -2.362324e-01 3.043131e+00 -8.569721e-02 5.874954e+01 7.146691e-03 -3.264184e-03 9.187206e-03 2.197611e-02 -1.817409e-02 -7.518524e-03 2.943252e-03 -1.761807e-02 2.451045e-03 -1.785623e-02 -1.058203e-02 4.918566e-03 -3.336270e-03 -9.771342e-04 4.416360e-04 -2.058331e-03 -1.071237e-03 8.717617e-05 5.191229e-04 1.586111e-04 -6.815773e-04 -2.857395e-04 -1.673885e-04 6.046953e-05 9.671067e-04 -2.284407e-03
<VARIANCE> 39
 6.873206e+01 3.372589e+01 4.780411e+01 5.784328e+01 4.295499e+01 3.663211e+01 3.721171e+01 3.710240e+01 3.679597e+01 2.983345e+01 2.646179e+01 1.966970e+01 3.783708e+01 3.656162e+00 2.468722e+00 2.266866e+00 3.264419e+00 2.907487e+00 2.570788e+00 2.584178e+00 2.601760e+00 2.377822e+00 2.322549e+00 2.296827e+00 1.623143e+00 2.254758e+00 5.312872e-01 4.600449e-01 3.905581e-01 6.008994e-01 5.261568e-01 4.932060e-01 4.859146e-01 4.988140e-01 4.450907e-01 4.450603e-01 4.570257e-01 3.185818e-01 3.952854e-01
<GCONST> 1.206888e+02
<STATE> 4
<MEAN> 39
 -8.638999e+00 3.148199e+00 3.794402e+00 -2.564198e+00 2.422671e+00 -1.339438e+00 -1.277003e+00 -5.466660e-01 -4.270082e+00 -2.820936e-01 3.016905e+00 -7.246736e-02 5.873959e+01 3.346698e-03 -3.660577e-03 5.306197e-03 1.981448e-02 -1.677781e-02 -6.480487e-03 3.685104e-03 -1.803128e-02 3.260783e-03 -1.700467e-02 -9.968310e-03 6.085428e-03 -8.318562e-03 -1.048037e-03 -4.038868e-04 -1.901820e-03 -8.104036e-04 -4.768986e-04 1.388434e-04 1.005961e-04 4.977745e-04 6.252421e-04 7.332768e-04 2.504966e-04 1.173377e-03 -1.929670e-03
<VARIANCE> 39
 6.858302e+01 3.348154e+01 4.839943e+01 5.777670e+01 4.281538e+01 3.688562e+01 3.726795e+01 3.722633e+01 3.665730e+01 2.974256e+01 2.646919e+01 1.958047e+01 3.804818e+01 3.618165e+00 2.438497e+00 2.276612e+00 3.252231e+00 2.898613e+00 2.574492e+00 2.576209e+00 2.601521e+00 2.378332e+00 2.318871e+00 2.292791e+00 1.621692e+00 2.243622e+00 5.262520e-01 4.535887e-01 3.920733e-01 5.964020e-01 5.243771e-01 4.924288e-01 4.839688e-01 5.001656e-01 4.457570e-01 4.453218e-01 4.555106e-01 3.187119e-01 3.923785e-01
<GCONST> 1.206158e+02
<TRANSP> 5
 0.000000e+00 1.000000e+00 0.000000e+00 0.000000e+00 0.000000e+00
 0.000000e+00 5.693367e-01 4.306634e-01 0.000000e+00 0.000000e+00
 0.000000e+00 0.000000e+00 5.693362e-01 4.306638e-01 0.000000e+00
 0.000000e+00 0.000000e+00 0.000000e+00 6.645004e-01 3.354996e-01
 0.000000e+00 0.000000e+00 0.000000e+00 0.000000e+00 0.000000e+00
<ENDHMM>
~h "u"
<BEGINHMM>
<NUMSTATES> 5
<STATE> 2
<MEAN> 39
 -8.535745e+00 3.126067e+00 4.299218e+00 -4.369646e-01 2.205851e+00 -5.259978e-01 -1.072164e+00 -2.082447e+00 -3.903485e+00 -1.101798e+00 1.859613e+00 3.284629e-02 5.791714e+01 -2.877651e-02 -1.627034e-02 4.229979e-03 -2.347997e-02 -1.947416e-03 6.136362e-03 3.223248e-02 2.367274e-02 9.213816e-03 1.692421e-02 2.132462e-02 2.645688e-03 -4.580447e-03 -2.609863e-03 -5.159278e-04 5.276958e-03 -7.436540e-04 -1.019682e-03 -1.653980e-03 -3.110107e-03 -1.939052e-03 6.836522e-04 2.674793e-04 1.540560e-03 -1.661562e-03 1.404726e-03
<VARIANCE> 39
 6.445203e+01 3.273605e+01 4.719971e+01 5.226226e+01 4.080930e+01 4.115601e+01 4.010802e+01 3.794154e+01 3.574665e+01 2.906653e+01 2.846577e+01 2.093991e+01 3.556693e+01 3.559329e+00 2.419452e+00 2.345812e+00 3.130880e+00 2.975367e+00 2.768191e+00 2.700520e+00 2.765790e+00 2.514560e+00 2.373863e+00 2.356417e+00 1.756136e+00 1.968778e+00 5.337781e-01 4.407369e-01 4.032257e-01 5.627903e-01 5.608904e-01 5.082137e-01 5.076966e-01 5.405542e-01 4.792794e-01 4.501988e-01 4.581084e-01 3.434244e-01 3.370726e-01
<GCONST> 1.210059e+02
<STATE> 3
<MEAN> 39
 -8.611126e+00 3.085766e+00 4.320500e+00 -4.891916e-01 2.206446e+00 -5.170887e-01 -1.002565e+00 -2.026339e+00 -3.877812e+00 -1.053111e+00 1.919690e+00 3.348693e-02 5.791216e+01 -3.228907e-02 -1.735327e-02 1.485709e-02 -2.522084e-02 -4.442820e-03 1.933191e-03 2.453471e-02 1.909089e-02 1.048374e-02 1.773939e-02 2.489144e-02 -2.060133e-03 -1.962980e-04 -9.965925e-04 -2.808039e-04 3.844060e-03 2.718792e-04 -5.970082e-04 -2.057799e-03 -3.147200e-03 -4.889795e-04 1.194542e-03 1.252499e-03 1.054210e-03 -2.526178e-03 1.006508e-03
<VARIANCE> 39
 6.481177e+01 3.272165e+01 4.715150e+01 5.215243e+01 4.186816e+01 4.162662e+01 3.991747e+01 3.800105e+01 3.619520e+01 2.921756e+01 2.843756e+01 2.099595e+01 3.609726e+01 3.547207e+00 2.407936e+00 2.355601e+00 3.117598e+00 3.046804e+00 2.772470e+00 2.694103e+00 2.770471e+00 2.512320e+00 2.396503e+00 2.334616e+00 1.747471e+00 1.962312e+00 5.299618e-01 4.372292e-01 4.056898e-01 5.582244e-01 5.737953e-01 5.092101e-01 5.047594e-01 5.407378e-01 4.783764e-01 4.552401e-01 4.522366e-01 3.403450e-01 3.354583e-01
<GCONST> 1.210678e+02
<STATE> 4
<MEAN> 39
 -8.715230e+00 3.026689e+00 4.366144e+00 -5.562753e-01 2.220306e+00 -5.266420e-01 -9.355243e-01 -1.954812e+00 -3.837466e+00 -9.791088e-01 1.998717e+00 1.447520e-02 5.791936e+01 -3.212540e-02 -1.637375e-02 1.955788e-02 -2.536498e-02 -4.528038e-03 -1.739094e-03 1.804237e-02 2.082920e-02 1.371887e-02 2.257925e-02 2.808673e-02 -7.614747e-03 1.253169e-03 2.316870e-04 2.466352e-04 1.183998e-03 1.204245e-03 4.017397e-04 -6.612954e-04 -1.655613e-03 2.662972e-03 1.381004e-03 2.665518e-03 1.011595e-03 -1.820380e-03 -5.275460e-04
<VARIANCE> 39
 6.516953e+01 3.268231e+01 4.722942e+01 5.199962e+01 4.301504e+01 4.206432e+01 3.949144e+01 3.801892e+01 3.679104e+01 2.934784e+01 2.840954e+01 2.109118e+01 3.681583e+01 3.531513e+00 2.395035e+00 2.362142e+00 3.095431e+00 3.118818e+00 2.769727e+00 2.687047e+00 2.759474e+00 2.511281e+00 2.415561e+00 2.311785e+00 1.737810e+00 1.946344e+00 5.259664e-01 4.337152e-01 4.083387e-01 5.506302e-01 5.862793e-01 5.093569e-01 5.008832e-01 5.375750e-01 4.769535e-01 4.594610e-01 4.460018e-01 3.361880e-01 3.317556e-01
<GCONST> 1.210820e+02
<TRANSP> 5
 0.000000e+00 1.000000e+00 0.000000e+00 0.000000e+00 0.000000e+00
 0.000000e+00 5.703130e-01 4.296871e-01 0.000000e+00 0.000000e+00
 0.000000e+00 0.000000e+00 5.703149e-01 4.296851e-01 0.000000e+00
 0.000000e+00 0.000000e+00 0.000000e+00 6.656051e-01 3.343949e-01
 0.000000e+00 0.000000e+00 0.000000e+00 0.000000e+00 0.000000e+00
<ENDHMM>
~h "v"
<BEGINHMM>
<NUMSTATES> 5
<STATE> 2
<MEAN> 39
 -7.265885e+00 3.502836e+00 3.711881e+00 -1.306423e+00 2.408231e+00 -2.000787e+00 -1.308449e+00 -1.063963e+00 -4.086848e+00 -3.812291e-02 2.838523e+00 -2.454330e-01 5.941002e+01 -2.102830e-02 -1.580490e-02 1.540577e-02 -1.092742e-02 -1.062388e-02 -9.882246e-03 -8.974919e-03 -1.285168e-02 6.093156e-03 7.255586e-03 -8.890185e-03 -1.291485e-02 6.858582e-03 -1.125084e-03 -7.425282e-04 -3.517480e-04 -9.026435e-04 -4.128361e-04 2.446104e-03 1.136492e-03 2.327441e-03 6.475996e-04 -2.048407e-03 6.220727e-04 4.626280e-04 -2.276893e-03
<VARIANCE> 39
 6.987595e+01 3.097550e+01 4.935583e+01 5.915620e+01 4.053473e+01 3.700284e+01 4.062956e+01 4.136834e+01 3.695897e+01 2.887848e+01 2.610826e+01 2.272150e+01 3.424287e+01 3.420028e+00 2.119109e+00 2.480485e+00 3.142522e+00 2.830289e+00 2.617494e+00 2.576784e+00 2.696460e+00 2.456331e+00 2.259272e+00 2.154310e+00 1.659716e+00 1.938042e+00 5.106608e-01 3.812299e-01 4.214419e-01 5.438347e-01 4.978255e-01 4.948460e-01 4.872144e-01 5.116156e-01 4.691703e-01 4.448175e-01 4.176371e-01 3.216048e-01 3.435421e-01
<GCONST> 1.200505e+02
<STATE> 3
<MEAN> 39
 -7.318372e+00 3.465313e+00 3.744100e+00 -1.328876e+00 2.384314e+00 -2.020654e+00 -1.322389e+00 -1.083198e+00 -4.069551e+00 -2.892714e-02 2.818653e+00 -2.731177e-01 5.941331e+01 -2.096570e-02 -1.663043e-02 1.186527e-02 -1.185189e-02 -1.166791e-02 -7.631678e-03 -5.423350e-03 -7.047090e-03 7.517615e-03 1.676273e-03 -8.578110e-03 -1.070903e-02 1.469420e-03 5.269698e-04 -7.161646e-05 -2.031850e-03 2.920149e-04 1.958095e-04 1.033869e-03 1.765118e-03 2.628159e-03 1.240337e-03 -2.546316e-03 -1.032782e-04 9.130783e-04 -2.524513e-03
<VARIANCE> 39
 7.028088e+01 3.116385e+01 4.955757e+01 5.926749e+01 4.055003e+01 3.722352e+01 4.088860e+01 4.125776e+01 3.664918e+01 2.867229e+01 2.619497e+01 2.279421e+01 3.424055e+01 3.430492e+00 2.112048e+00 2.496427e+00 3.153282e+00 2.826717e+00 2.607268e+00 2.587955e+00 2.695900e+00 2.440166e+00 2.237532e+00 2.150802e+00 1.658698e+00 1.927393e+00 5.097396e-01 3.793106e-01 4.246211e-01 5.450205e-01 4.971440e-01 4.931088e-01 4.889641e-01 5.115384e-01 4.656308e-01 4.412017e-01 4.171136e-01 3.213979e-01 3.417260e-01
<GCONST> 1.200320e+02
<STATE> 4
<MEAN> 39
 -7.381812e+00 3.431557e+00 3.773387e+00 -1.333214e+00 2.363287e+00 -2.040009e+00 -1.315423e+00 -1.079323e+00 -4.027408e+00 -4.061935e-02 2.788021e+00 -3.026003e-01 5.938599e+01 -2.032310e-02 -1.761865e-02 3.200243e-03 -7.971469e-03 -8.630594e-03 -5.371298e-03 1.933282e-03 -7.659550e-04 9.676479e-03 -3.898848e-03 -9.507076e-03 -6.093660e-03 -7.782894e-03 5.781749e-04 -3.700231e-05 -3.167986e-03 1.713924e-03 1.554137e-03 1.310572e-03 2.303797e-03 2.043075e-03 8.308461e-04 -2.062344e-03 -3.522561e-04 1.370751e-03 -3.403775e-03
<VARIANCE> 39
 7.039216e+01 3.137616e+01 4.964435e+01 5.922742e+01 4.049203e+01 3.750014e+01 4.114371e+01 4.123113e+01 3.667496e+01 2.842742e+01 2.641292e+01 2.290796e+01 3.421063e+01 3.413018e+00 2.108542e+00 2.500283e+00 3.151193e+00 2.812412e+00 2.590917e+00 2.588140e+00 2.691701e+00 2.425916e+00 2.216676e+00 2.156289e+00 1.659807e+00 1.905894e+00 5.041806e-01 3.781694e-01 4.254243e-01 5.446721e-01 4.948641e-01 4.894590e-01 4.883444e-01 5.102319e-01 4.617825e-01 4.372117e-01 4.185440e-01 3.220485e-01 3.381192e-01
<GCONST> 1.199644e+02
<TRANSP> 5
 0.000000e+00 1.000000e+00 0.000000e+00 0.000000e+00 0.000000e+00
 0.000000e+00 5.692457e-01 4.307543e-01 0.000000e+00 0.000000e+00
 0.000000e+00 0.000000e+00 5.692448e-01 4.307553e-01 0.000000e+00
 0.000000e+00 0.000000e+00 0.000000e+00 6.644675e-01 3.355325e-01
 0.000000e+00 0.000000e+00 0.000000e+00 0.000000e+00 0.000000e+00
<ENDHMM>
~h "x"
<BEGINHMM>
<NUMSTATES> 5
<STATE> 2
<MEAN> 39
 -9.695876e+00 2.839124e+00 4.786899e+00 -5.584995e-01 3.342302e+00 -1.634151e+00 -1.419267e+00 1.070739e-01 -3.749234e+00 -2.516265e-01 2.900589e+00 -1.068931e+00 5.794538e+01 -1.077532e-02 5.472014e-02 -1.493316e-02 8.506144e-03 -2.033762e-02 -7.399102e-03 1.639107e-02 -2.816841e-02 1.214323e-02 -5.094097e-03 -4.072542e-02 2.427339e-02 -2.594610e-02 2.665242e-03 1.770753e-03 1.562070e-03 2.463880e-03 -1.358845e-03 -5.201859e-04 2.728723e-03 -6.173816e-03 -3.027822e-03 -2.278578e-04 -2.926246e-03 1.498452e-03 -1.021916e-03
<VARIANCE> 39
 6.266433e+01 3.418019e+01 6.709322e+01 5.571455e+01 4.210928e+01 3.949432e+01 3.239010e+01 4.129058e+01 3.763636e+01 2.714359e+01 2.840860e+01 2.022825e+01 3.577425e+01 3.223947e+00 2.249958e+00 2.302088e+00 2.889028e+00 2.824643e+00 2.556697e+00 2.473072e+00 2.897515e+00 2.281290e+00 2.315008e+00 2.426334e+00 1.551758e+00 1.701397e+00 4.934457e-01 4.125239e-01 3.888104e-01 5.172393e-01 4.760283e-01 4.788788e-01 4.694853e-01 5.383961e-01 4.127418e-01 4.555576e-01 4.695075e-01 2.967592e-01 2.921560e-01
<GCONST> 1.194699e+02
<STATE> 3
<MEAN> 39
 -9.716684e+00 2.964859e+00 4.754183e+00 -5.267589e-01 3.287973e+00 -1.650039e+00 -1.375778e+00 2.777452e-02 -3.724726e+00 -2.648747e-01 2.799844e+00 -1.007247e+00 5.787847e+01 -5.688778e-03 5.508111e-02 -1.247434e-02 1.496847e-02 -2.250326e-02 -6.915734e-03 2.275866e-02 -4.163987e-02 4.979221e-03 -4.890490e-03 -4.308402e-02 2.931474e-02 -2.985256e-02 2.073665e-03 -2.662001e-03 7.116767e-04 3.089031e-03 -2.858323e-04 1.574385e-03 3.225970e-04 -3.528200e-03 -9.839576e-04 4.773423e-04 2.650463e-03 3.668825e-03 -1.619295e-03
<VARIANCE> 39
 6.245338e+01 3.361803e+01 6.494031e+01 5.533263e+01 4.233164e+01 3.882702e+01 3.165575e+01 4.119009e+01 3.664304e+01 2.716318e+01 2.888918e+01 1.997069e+01 3.627288e+01 3.215680e+00 2.247117e+00 2.260107e+00 2.882738e+00 2.838300e+00 2.535031e+00 2.459233e+00 2.890281e+00 2.270252e+00 2.320933e+00 2.459887e+00 1.564358e+00 1.722949e+00 4.941852e-01 4.110068e-01 3.870457e-01 5.203667e-01 4.772750e-01 4.760491e-01 4.691239e-01 5.393512e-01 4.155653e-01 4.586132e-01 4.743719e-01 3.020595e-01 2.959373e-01
<GCONST> 1.194124e+02
<STATE> 4
<MEAN> 39
 -9.694191e+00 3.100290e+00 4.705939e+00 -4.704811e-01 3.208429e+00 -1.664375e+00 -1.319694e+00 -1.119879e-01 -3.708562e+00 -2.782265e-01 2.693220e+00 -9.193823e-01 5.780599e+01 -3.159697e-03 4.364118e-02 -1.047985e-02 2.418185e-02 -2.421165e-02 -1.282330e-03 2.223572e-02 -4.804196e-02 6.377706e-03 -3.834525e-03 -3.376974e-02 3.996098e-02 -3.447904e-02 8.227893e-04 -5.696484e-03 1.986565e-03 2.781566e-03 -1.153942e-03 3.314873e-03 -3.598923e-03 -9.012705e-04 3.613280e-03 -2.874747e-04 4.582322e-03 3.644672e-03 1.391294e-04
<VARIANCE> 39
 6.211115e+01 3.273312e+01 6.265397e+01 5.487177e+01 4.234312e+01 3.811194e+01 3.096949e+01 4.097215e+01 3.583969e+01 2.720999e+01 2.931635e+01 1.985875e+01 3.690990e+01 3.196275e+00 2.229293e+00 2.211825e+00 2.879413e+00 2.845813e+00 2.507875e+00 2.444522e+00 2.895142e+00 2.272735e+00 2.311036e+00 2.470902e+00 1.576574e+00 1.739385e+00 4.938805e-01 4.072345e-01 3.835776e-01 5.244933e-01 4.757885e-01 4.729609e-01 4.682668e-01 5.421727e-01 4.226199e-01 4.610960e-01 4.752599e-01 3.072625e-01 2.993931e-01
<GCONST> 1.193014e+02
<TRANSP> 5
 0.000000e+00 1.000000e+00 0.000000e+00 0.000000e+00 0.000000e+00
 0.000000e+00 5.722933e-01 4.277067e-01 0.000000e+00 0.000000e+00
 0.000000e+00 0.000000e+00 5.722933e-01 4.277067e-01 0.000000e+00
 0.000000e+00 0.000000e+00 0.000000e+00 6.679566e-01 3.320434e-01
 0.000000e+00 0.000000e+00 0.000000e+00 0.000000e+00 0.000000e+00
<ENDHMM>
~h "z"
<BEGINHMM>
<NUMSTATES> 5
<STATE> 2
<MEAN> 39
 -7.409838e+00 4.145824e+00 4.578405e+00 -2.365193e+00 3.102531e+00 -2.436110e+00 -1.969342e+00 -1.019773e+00 -4.687170e+00 -5.587031e-01 3.147444e+00 1.537971e-01 5.998639e+01 -4.023292e-03 5.740702e-03 1.655782e-02 1.206643e-02 4.444757e-03 -1.689997e-03 9.815640e-03 -5.964711e-04 -1.031352e-02 2.140855e-03 -5.110156e-03 -5.322548e-04 -8.960028e-03 7.403322e-04 -2.753625e-03 -8.114132e-04 5.944101e-03 -2.794082e-03 1.008037e-03 5.979551e-04 -3.007113e-03 1.931493e-03 2.767632e-03 -1.311671e-03 -4.901408e-04 -2.209681e-03
<VARIANCE> 39
 6.207794e+01 3.099804e+01 5.372911e+01 6.151712e+01 4.789096e+01 3.561771e+01 3.688423e+01 3.830511e+01 3.501341e+01 2.888538e+01 2.766424e+01 2.090909e+01 3.334538e+01 3.981668e+00 2.185569e+00 2.456781e+00 3.023815e+00 3.606982e+00 2.549622e+00 2.408797e+00 2.698776e+00 2.363495e+00 2.228108e+00 2.341869e+00 1.678424e+00 1.819416e+00 6.105837e-01 3.849190e-01 4.118327e-01 5.034859e-01 6.167692e-01 4.781170e-01 4.504638e-01 5.087060e-01 4.353522e-01 4.305690e-01 4.504830e-01 3.280818e-01 3.069160e-01
<GCONST> 1.202292e+02
<STATE> 3
<MEAN> 39
 -7.411146e+00 4.145610e+00 4.606970e+00 -2.319806e+00 3.102446e+00 -2.438214e+00 -1.943992e+00 -1.031766e+00 -4.703566e+00 -5.426126e-01 3.131134e+00 1.515928e-01 5.996156e+01 1.348017e-03 -8.249021e-04 1.308233e-02 2.426214e-02 -3.120557e-03 -2.439092e-03 1.169096e-02 -8.272486e-03 -6.758126e-03 6.575335e-03 -9.140187e-03 -3.173268e-03 -9.667022e-03 2.483435e-03 -2.605690e-03 -1.633291e-03 4.901180e-03 -3.285934e-03 -6.604817e-04 7.164712e-04 -3.603686e-03 1.405731e-03 1.557651e-03 -1.823516e-03 -1.465853e-03 1.278998e-04
<VARIANCE> 39
 6.235670e+01 3.071431e+01 5.399874e+01 6.177388e+01 4.730408e+01 3.570055e+01 3.683684e+01 3.844696e+01 3.485403e+01 2.858801e+01 2.741389e+01 2.091386e+01 3.303965e+01 3.963507e+00 2.187486e+00 2.449956e+00 3.048960e+00 3.555074e+00 2.565288e+00 2.397414e+00 2.704748e+00 2.376431e+00 2.221243e+00 2.329263e+00 1.667305e+00 1.831138e+00 6.080509e-01 3.841428e-01 4.119540e-01 5.064232e-01 6.097086e-01 4.803037e-01 4.481510e-01 5.077659e-01 4.367876e-01 4.300981e-01 4.473436e-01 3.251320e-01 3.085097e-01
<GCONST> 1.201581e+02
<STATE> 4
<MEAN> 39
 -7.403667e+00 4.120334e+00 4.609686e+00 -2.233195e+00 3.093889e+00 -2.451191e+00 -1.909216e+00 -1.061580e+00 -4.707621e+00 -5.128339e-01 3.100935e+00 1.357458e-01 5.992819e+01 9.429051e-03 -7.671038e-03 6.998474e-03 3.383832e-02 -1.007986e-02 -5.737325e-03 1.459006e-02 -1.574523e-02 -3.236041e-03 7.582501e-03 -1.468640e-02 -8.263023e-03 -5.506212e-03 2.343107e-03 -1.937089e-03 -1.812174e-03 3.211591e-03 -2.234274e-03 -1.162807e-03 7.760089e-04 -2.886591e-03 1.241861e-03 -1.403292e-05 -1.975602e-03 -2.151048e-03 1.462762e-03
<VARIANCE> 39
 6.281712e+01 3.042308e+01 5.426949e+01 6.199496e+01 4.683894e+01 3.567067e+01 3.687443e+01 3.861818e+01 3.480235e+01 2.823466e+01 2.729452e+01 2.102167e+01 3.268035e+01 3.940900e+00 2.192363e+00 2.437948e+00 3.081453e+00 3.485980e+00 2.584439e+00 2.390323e+00 2.719806e+00 2.395515e+00 2.216678e+00 2.311517e+00 1.656272e+00 1.852385e+00 6.036469e-01 3.844408e-01 4.109898e-01 5.104210e-01 5.995671e-01 4.834378e-01 4.464981e-01 5.082387e-01 4.391068e-01 4.297311e-01 4.427118e-01 3.217452e-01 3.107059e-01
<GCONST> 1.201077e+02
<TRANSP> 5
 0.000000e+00 1.000000e+00 0.000000e+00 0.000000e+00 0.000000e+00
 0.000000e+00 5.721768e-01 4.278233e-01 0.000000e+00 0.000000e+00
 0.000000e+00 0.000000e+00 5.721772e-01 4.278228e-01 0.000000e+00
 0.000000e+00 0.000000e+00 0.000000e+00 6.678894e-01 3.321106e-01
 0.000000e+00 0.000000e+00 0.000000e+00 0.000000e+00 0.000000e+00
<ENDHMM>
~h "aa"
<BEGINHMM>
<NUMSTATES> 5
<STATE> 2
<MEAN> 39
 -7.019765e+00 3.692415e+00 2.455796e+00 -3.607888e+00 2.959998e+00 -1.588248e+00 -3.863187e-01 3.444993e-01 -4.951399e+00 -1.492718e-01 3.252205e+00 -2.990275e-01 5.987612e+01 3.109211e-02 2.106780e-02 2.391608e-02 1.377233e-02 -3.855573e-02 -1.601953e-02 -1.087918e-02 -3.424649e-02 -1.247929e-02 2.278676e-03 -1.216704e-02 -3.766654e-03 1.214821e-02 -4.426668e-03 -1.723751e-03 2.791465e-03 2.715859e-03 -2.977551e-05 -7.919612e-04 -3.626202e-03 -2.101197e-03 3.727023e-03 2.513439e-04 -4.831617e-04 -1.078472e-03 -1.493182e-04
<VARIANCE> 39
 6.766328e+01 2.939618e+01 4.810736e+01 6.149979e+01 4.141240e+01 3.211874e+01 3.497223e+01 3.884644e+01 3.561840e+01 2.589451e+01 2.576465e+01 2.170705e+01 3.707520e+01 3.508229e+00 2.199302e+00 2.472939e+00 3.423263e+00 2.748082e+00 2.439000e+00 2.483922e+00 2.778154e+00 2.623042e+00 2.185253e+00 2.300270e+00 1.626521e+00 1.884956e+00 5.018937e-01 4.032612e-01 4.211560e-01 5.785454e-01 4.861031e-01 4.658714e-01 4.813505e-01 5.106742e-01 4.952846e-01 4.172273e-01 4.467070e-01 3.122040e-01 3.102541e-01
<GCONST> 1.195366e+02
<STATE> 3
<MEAN> 39
 -6.970895e+00 3.729579e+00 2.521228e+00 -3.563076e+00 2.870085e+00 -1.627927e+00 -4.217401e-01 2.626537e-01 -4.963424e+00 -1.414915e-01 3.220490e+00 -3.098516e-01 5.989839e+01 1.918211e-02 1.633547e-02 2.867177e-02 1.985796e-02 -3.773611e-02 -1.616435e-02 -1.685875e-02 -3.682929e-02 -3.196742e-03 2.037692e-03 -1.414807e-02 -5.269601e-03 9.374900e-03 -5.839796e-03 -2.125897e-03 1.793208e-03 2.575310e-03 5.077927e-04 4.557726e-04 -2.009006e-03 -1.064209e-03 3.823304e-03 -4.405041e-04 -1.386421e-03 -6.166598e-04 -2.052320e-03
<VARIANCE> 39
 6.737985e+01 2.944619e+01 4.873720e+01 6.137058e+01 4.127229e+01 3.188633e+01 3.487951e+01 3.856153e+01 3.546286e+01 2.620505e+01 2.578397e+01 2.171324e+01 3.699041e+01 3.484445e+00 2.203509e+00 2.471906e+00 3.426371e+00 2.740528e+00 2.418625e+00 2.481401e+00 2.765581e+00 2.628569e+00 2.221866e+00 2.294828e+00 1.627212e+00 1.877407e+00 5.004448e-01 4.052997e-01 4.212564e-01 5.793154e-01 4.835899e-01 4.630551e-01 4.798109e-01 5.083404e-01 4.989090e-01 4.238049e-01 4.459184e-01 3.127192e-01 3.110622e-01
<GCONST> 1.195324e+02
<STATE> 4
<MEAN> 39
 -6.980446e+00 3.752599e+00 2.633963e+00 -3.476455e+00 2.772352e+00 -1.678659e+00 -4.733196e-01 1.636962e-01 -4.953496e+00 -1.480497e-01 3.170142e+00 -3.311165e-01 5.990310e+01 3.088058e-03 9.733424e-03 3.226810e-02 2.825245e-02 -3.636695e-02 -1.302864e-02 -1.815313e-02 -3.692092e-02 7.102186e-03 2.528288e-04 -1.829456e-02 -4.629296e-03 1.336388e-06 -5.650573e-03 -2.207662e-03 9.950327e-04 2.823098e-03 5.279694e-04 1.501509e-03 -2.218635e-04 -4.123916e-04 2.809272e-03 -6.188758e-04 -1.365712e-03 3.292675e-04 -3.959030e-03
<VARIANCE> 39
 6.738764e+01 2.948760e+01 4.985567e+01 6.135634e+01 4.116634e+01 3.187227e+01 3.490609e+01 3.842364e+01 3.543835e+01 2.666078e+01 2.579985e+01 2.166728e+01 3.690726e+01 3.455077e+00 2.206542e+00 2.470238e+00 3.407030e+00 2.730083e+00 2.398737e+00 2.472152e+00 2.750843e+00 2.618357e+00 2.256438e+00 2.278031e+00 1.631568e+00 1.860307e+00 4.984496e-01 4.072773e-01 4.211319e-01 5.761549e-01 4.800626e-01 4.600922e-01 4.757426e-01 5.055665e-01 4.984171e-01 4.296217e-01 4.425667e-01 3.144723e-01 3.114858e-01
<GCONST> 1.195060e+02
<TRANSP> 5
 0.000000e+00 1.000000e+00 0.000000e+00 0.000000e+00 0.000000e+00
 0.000000e+00 5.742955e-01 4.257045e-01 0.000000e+00 0.000000e+00
 0.000000e+00 0.000000e+00 5.742967e-01 4.257033e-01 0.000000e+00
 0.000000e+00 0.000000e+00 0.000000e+00 6.704172e-01 3.295828e-01
 0.000000e+00 0.000000e+00 0.000000e+00 0.000000e+00 0.000000e+00
<ENDHMM>
~h "aw"
<BEGINHMM>
<NUMSTATES> 5
<STATE> 2
<MEAN> 39
 -1.116752e+01 7.492508e-01 1.552182e-01 -1.714940e+00 1.986161e+00 3.849887e+00 8.486367e-01 9.582641e-01 -1.221490e+00 1.378088e+00 3.670254e+00 2.281855e+00 5.311472e+01 -9.105119e-02 3.609228e-02 1.595230e-01 6.534769e-02 -3.979772e-02 1.096370e-02 7.067806e-02 -4.635046e-03 2.907102e-02 4.612776e-02 -2.330236e-02 8.172949e-02 -1.361894e-02 3.202423e-03 5.014949e-03 1.894017e-02 -1.144325e-02 -3.174464e-03 -6.038538e-03 -6.621523e-03 -9.791092e-03 -7.389613e-03 -1.007414e-02 -7.915917e-03 -6.756942e-03 1.765089e-02
<VARIANCE> 39
 3.496840e+01 2.562391e+01 3.192544e+01 4.292527e+01 3.969257e+01 3.032883e+01 2.617161e+01 2.148728e+01 2.990310e+01 1.874577e+01 2.365915e+01 1.580497e+01 4.629124e+01 1.844715e+00 2.550967e+00 1.226460e+00 3.704119e+00 2.432477e+00 2.706261e+00 1.730749e+00 1.953630e+00 1.979226e+00 1.778289e+00 2.151112e+00 1.905120e+00 1.980031e+00 3.157796e-01 5.245293e-01 1.981962e-01 7.073664e-01 4.099474e-01 5.379276e-01 2.932996e-01 3.926518e-01 3.538518e-01 3.693903e-01 4.336746e-01 4.270414e-01 3.481289e-01
<GCONST> 1.125164e+02
<STATE> 3
<MEAN> 39
 -1.138265e+01 8.358331e-01 5.580733e-01 -1.560255e+00 1.885226e+00 3.848162e+00 1.006423e+00 9.382590e-01 -1.157268e+00 1.477362e+00 3.608116e+00 2.473336e+00 5.310317e+01 -7.764104e-02 4.905010e-02 2.024120e-01 2.938103e-02 -4.879215e-02 9.127000e-04 5.157930e-02 -3.317572e-02 8.318056e-03 2.070879e-02 -4.383000e-02 6.297516e-02 3.536837e-02 1.043800e-02 5.387228e-03 1.580882e-02 -1.827683e-02 -2.517957e-03 -2.019283e-03 -1.348129e-02 -1.740821e-02 -9.880984e-03 -1.038680e-02 -9.478517e-03 -1.293444e-02 2.551329e-02
<VARIANCE> 39
 3.648867e+01 2.536234e+01 3.227329e+01 4.318979e+01 3.823636e+01 2.922021e+01 2.563948e+01 2.272176e+01 3.093098e+01 1.911369e+01 2.202112e+01 1.574887e+01 4.929918e+01 1.970506e+00 2.668012e+00 1.208709e+00 3.365899e+00 2.431789e+00 2.722387e+00 1.739672e+00 2.053534e+00 2.038773e+00 1.769028e+00 2.009154e+00 1.928315e+00 2.027383e+00 3.375356e-01 5.536304e-01 1.975980e-01 6.282203e-01 4.144049e-01 5.445552e-01 3.041074e-01 4.113392e-01 3.660788e-01 3.659539e-01 4.074258e-01 4.357615e-01 3.513820e-01
<GCONST> 1.127167e+02
<STATE> 4
<MEAN> 39
 -1.162275e+01 9.854591e-01 1.071455e+00 -1.429985e+00 1.788491e+00 3.848602e+00 1.137703e+00 8.424280e-01 -1.099069e+00 1.555749e+00 3.524341e+00 2.626467e+00 5.314678e+01 -4.360146e-02 6.402002e-02 2.386077e-01 -1.998817e-02 -6.031007e-02 -3.525212e-03 1.435247e-02 -8.246712e-02 -1.833419e-02 -6.586841e-03 -7.126122e-02 2.584208e-02 1.041254e-01 1.670757e-02 5.274614e-03 9.973526e-03 -1.561747e-02 -2.823045e-03 -2.686542e-03 -1.774841e-02 -2.181608e-02 -1.211632e-02 -1.108744e-02 -1.096376e-02 -2.142059e-02 2.506030e-02
<VARIANCE> 39
 3.779467e+01 2.510066e+01 3.263702e+01 4.383551e+01 3.642460e+01 2.830661e+01 2.522005e+01 2.492656e+01 3.167545e+01 1.969440e+01 2.076784e+01 1.589875e+01 5.214127e+01 2.080261e+00 2.774114e+00 1.227990e+00 3.143040e+00 2.422345e+00 2.713331e+00 1.784774e+00 2.275214e+00 2.082841e+00 1.811896e+00 1.962607e+00 1.999262e+00 2.125319e+00 3.556125e-01 5.789344e-01 2.026289e-01 5.745689e-01 4.186634e-01 5.466434e-01 3.219122e-01 4.529102e-01 3.758452e-01 3.724535e-01 3.992807e-01 4.511787e-01 3.664189e-01
<GCONST> 1.133909e+02
<TRANSP> 5
 0.000000e+00 1.000000e+00 0.000000e+00 0.000000e+00 0.000000e+00
 0.000000e+00 5.775134e-01 4.224866e-01 0.000000e+00 0.000000e+00
 0.000000e+00 0.000000e+00 5.775136e-01 4.224865e-01 0.000000e+00
 0.000000e+00 0.000000e+00 0.000000e+00 6.737723e-01 3.262278e-01
 0.000000e+00 0.000000e+00 0.000000e+00 0.000000e+00 0.000000e+00
<ENDHMM>
~h "ch"
<BEGINHMM>
<NUMSTATES> 5
<STATE> 2
<MEAN> 39
 -1.056506e+01 2.174428e+00 6.321955e+00 2.868902e-01 2.400475e+00 -2.076125e+00 -3.319771e-01 -7.770769e-01 -3.128573e+00 -4.442530e-01 2.610363e+00 -4.861506e-01 5.824517e+01 -2.279932e-02 -1.622952e-02 -5.840677e-03 -1.901201e-02 -1.098773e-02 -7.532005e-03 -3.786970e-03 1.653861e-02 1.549801e-02 5.663143e-03 5.586666e-03 5.899187e-03 -5.929383e-04 4.355008e-03 2.976211e-06 -3.492612e-03 -1.308767e-03 1.304236e-04 -1.517375e-03 -1.343211e-04 -1.294207e-03 -5.572093e-04 -8.436399e-04 -1.912469e-03 6.247284e-04 2.005919e-03
<VARIANCE> 39
 7.563243e+01 3.542642e+01 5.526648e+01 5.477393e+01 4.251123e+01 4.781892e+01 4.075285e+01 3.799796e+01 3.524700e+01 2.820639e+01 2.628147e+01 2.160534e+01 3.721101e+01 4.170441e+00 2.575307e+00 2.542682e+00 2.897084e+00 3.036084e+00 3.227555e+00 2.737025e+00 2.746732e+00 2.455880e+00 2.171378e+00 2.075012e+00 1.566023e+00 1.915426e+00 6.121302e-01 4.600585e-01 4.349572e-01 4.899648e-01 5.353967e-01 5.933015e-01 4.958151e-01 5.178753e-01 4.690215e-01 4.275359e-01 3.980556e-01 3.068519e-01 3.531224e-01
<GCONST> 1.215115e+02
<STATE> 3
<MEAN> 39
 -1.060782e+01 2.137357e+00 6.298664e+00 2.410333e-01 2.382005e+00 -2.099485e+00 -3.477716e-01 -7.410402e-01 -3.099427e+00 -4.396578e-01 2.618271e+00 -4.717035e-01 5.825053e+01 -1.449238e-02 -1.577924e-02 -1.419234e-02 -2.013078e-02 -9.423073e-03 -1.229280e-02 -5.975342e-03 1.536794e-02 1.134240e-02 2.248807e-03 1.978469e-03 6.993174e-03 3.865151e-03 2.921073e-03 -2.237735e-04 -2.728465e-03 5.325163e-04 3.411535e-04 -2.729820e-03 -1.893215e-04 -2.768910e-04 -1.149595e-03 -1.284392e-03 -1.323499e-03 5.023502e-04 1.973006e-03
<VARIANCE> 39
 7.595952e+01 3.493273e+01 5.529194e+01 5.504685e+01 4.336377e+01 4.841994e+01 4.075250e+01 3.767101e+01 3.538795e+01 2.798935e+01 2.649941e+01 2.159342e+01 3.775583e+01 4.171584e+00 2.557487e+00 2.539152e+00 2.901853e+00 3.019228e+00 3.210393e+00 2.749143e+00 2.728007e+00 2.472966e+00 2.168930e+00 2.090811e+00 1.562688e+00 1.917722e+00 6.129510e-01 4.571572e-01 4.322407e-01 4.900606e-01 5.292667e-01 5.875211e-01 4.980004e-01 5.140758e-01 4.745385e-01 4.274489e-01 3.995936e-01 3.069899e-01 3.518566e-01
<GCONST> 1.215190e+02
<STATE> 4
<MEAN> 39
 -1.064105e+01 2.101269e+00 6.235184e+00 1.976614e-01 2.384271e+00 -2.134544e+00 -3.666363e-01 -6.768426e-01 -3.070607e+00 -4.460464e-01 2.623901e+00 -4.396218e-01 5.825288e+01 -7.570749e-03 -1.144093e-02 -2.421583e-02 -1.679066e-02 -4.672881e-03 -1.796980e-02 -1.095117e-02 1.907947e-02 1.018634e-02 1.349641e-04 2.209254e-04 8.835946e-03 3.891898e-03 2.641595e-03 1.550170e-03 -2.958268e-03 1.955529e-03 1.056653e-03 -2.611866e-03 -7.775547e-04 1.604033e-03 2.776964e-04 -2.369529e-04 -9.257241e-04 9.939461e-04 -3.028944e-05
<VARIANCE> 39
 7.622349e+01 3.453706e+01 5.541402e+01 5.500704e+01 4.411191e+01 4.936778e+01 4.056649e+01 3.728111e+01 3.540834e+01 2.756282e+01 2.670605e+01 2.145202e+01 3.854292e+01 4.171651e+00 2.535423e+00 2.517669e+00 2.890701e+00 2.987950e+00 3.156389e+00 2.755587e+00 2.702979e+00 2.475934e+00 2.163908e+00 2.112015e+00 1.553137e+00 1.896687e+00 6.144154e-01 4.534049e-01 4.274828e-01 4.880069e-01 5.208433e-01 5.734191e-01 4.987746e-01 5.099657e-01 4.778722e-01 4.252072e-01 4.014579e-01 3.056889e-01 3.459759e-01
<GCONST> 1.213950e+02
<TRANSP> 5
 0.000000e+00 1.000000e+00 0.000000e+00 0.000000e+00 0.000000e+00
 0.000000e+00 5.748225e-01 4.251775e-01 0.000000e+00 0.000000e+00
 0.000000e+00 0.000000e+00 5.748235e-01 4.251765e-01 0.000000e+00
 0.000000e+00 0.000000e+00 0.000000e+00 6.709953e-01 3.290047e-01
 0.000000e+00 0.000000e+00 0.000000e+00 0.000000e+00 0.000000e+00
<ENDHMM>
~h "dj"
<BEGINHMM>
<NUMSTATES> 5
<STATE> 2
<MEAN> 39
 -7.293212e+00 2.958993e+00 4.778919e+00 -6.960333e-01 1.777929e+00 -1.568495e+00 -2.029359e+00 -2.034779e+00 -4.502558e+00 -9.854150e-01 2.176338e+00 -1.113028e-01 5.900119e+01 7.436007e-04 -3.417552e-02 -3.443093e-02 -5.419406e-02 -2.546381e-02 -2.639377e-02 6.261963e-02 2.861609e-02 -1.284046e-02 1.324252e-02 3.066394e-02 1.344042e-02 2.413134e-04 5.342581e-03 6.867148e-04 -7.181589e-03 2.640545e-03 -7.206420e-04 -5.896917e-03 8.711378e-03 -5.835695e-06 1.477112e-05 -1.896831e-03 -8.434675e-03 -3.904599e-03 1.252717e-03
<VARIANCE> 39
 6.003090e+01 3.005094e+01 5.981167e+01 5.470728e+01 4.075158e+01 4.010976e+01 4.567010e+01 3.824330e+01 3.335117e+01 3.285214e+01 2.696889e+01 2.468520e+01 3.460912e+01 3.687224e+00 2.307077e+00 2.853633e+00 3.727012e+00 3.069054e+00 3.170087e+00 2.932663e+00 2.858106e+00 2.324078e+00 2.790854e+00 2.058685e+00 2.018572e+00 1.923043e+00 6.187767e-01 4.280948e-01 4.650064e-01 6.423196e-01 5.764059e-01 6.310417e-01 5.715402e-01 5.617034e-01 4.554369e-01 5.575804e-01 4.060737e-01 3.914654e-01 3.547583e-01
<GCONST> 1.231007e+02
<STATE> 3
<MEAN> 39
 -7.271833e+00 2.886716e+00 4.672963e+00 -8.141084e-01 1.735262e+00 -1.645414e+00 -1.867277e+00 -1.968082e+00 -4.537827e+00 -9.637816e-01 2.216815e+00 -1.006760e-01 5.900874e+01 1.149884e-02 -2.529341e-02 -4.270447e-02 -4.317185e-02 -1.557247e-02 -3.456961e-02 6.572434e-02 2.514763e-02 -1.613231e-02 4.122780e-03 1.415825e-02 -1.305746e-03 3.326584e-03 3.296940e-03 4.393151e-03 -2.522873e-03 5.084742e-03 5.249689e-03 -2.840376e-03 -1.184281e-03 -2.190797e-03 -2.033952e-03 -4.203916e-03 -6.604314e-03 -6.428113e-03 1.032286e-03
<VARIANCE> 39
 6.005227e+01 3.072338e+01 5.833423e+01 5.577554e+01 4.066383e+01 4.000679e+01 4.565155e+01 3.882640e+01 3.356633e+01 3.221323e+01 2.626535e+01 2.506387e+01 3.470513e+01 3.679015e+00 2.353137e+00 2.781234e+00 3.737457e+00 3.064842e+00 3.143794e+00 2.907172e+00 2.854192e+00 2.375427e+00 2.744046e+00 2.059687e+00 2.013309e+00 1.925280e+00 6.145761e-01 4.364046e-01 4.524374e-01 6.447467e-01 5.718475e-01 6.221791e-01 5.631657e-01 5.584158e-01 4.591012e-01 5.490316e-01 4.054384e-01 3.863930e-01 3.538992e-01
<GCONST> 1.230063e+02
<STATE> 4
<MEAN> 39
 -7.257166e+00 2.841751e+00 4.530502e+00 -9.193580e-01 1.735348e+00 -1.745901e+00 -1.711256e+00 -1.901194e+00 -4.595960e+00 -9.504769e-01 2.232748e+00 -1.287303e-01 5.900256e+01 1.323234e-02 -5.768761e-03 -3.819916e-02 -3.200332e-02 1.154334e-03 -3.148839e-02 4.525040e-02 1.928768e-02 -2.207199e-02 -2.783078e-03 5.562418e-03 -1.837857e-02 6.890222e-03 -6.488389e-04 6.749799e-03 2.135317e-03 4.379912e-03 5.839641e-03 1.711092e-03 -8.688782e-03 -2.220097e-03 -8.933194e-04 -1.560204e-03 -2.885617e-03 -5.595951e-03 8.873165e-04
<VARIANCE> 39
 6.000787e+01 3.181708e+01 5.659391e+01 5.700568e+01 4.079013e+01 3.994747e+01 4.548550e+01 3.921750e+01 3.353536e+01 3.126386e+01 2.557557e+01 2.543868e+01 3.455309e+01 3.676608e+00 2.408669e+00 2.726822e+00 3.683551e+00 3.046287e+00 3.116055e+00 2.873270e+00 2.845650e+00 2.417593e+00 2.682693e+00 2.075044e+00 2.012808e+00 1.950842e+00 6.067212e-01 4.456885e-01 4.414021e-01 6.406634e-01 5.620936e-01 6.126636e-01 5.497282e-01 5.562646e-01 4.587952e-01 5.338430e-01 4.077657e-01 3.835369e-01 3.562440e-01
<GCONST> 1.228598e+02
<TRANSP> 5
 0.000000e+00 1.000000e+00 0.000000e+00 0.000000e+00 0.000000e+00
 0.000000e+00 5.677298e-01 4.322702e-01 0.000000e+00 0.000000e+00
 0.000000e+00 0.000000e+00 5.677303e-01 4.322697e-01 0.000000e+00
 0.000000e+00 0.000000e+00 0.000000e+00 6.625517e-01 3.374483e-01
 0.000000e+00 0.000000e+00 0.000000e+00 0.000000e+00 0.000000e+00
<ENDHMM>
~h "ee"
<BEGINHMM>
<NUMSTATES> 5
<STATE> 2
<MEAN> 39
 -7.132549e+00 3.459712e+00 3.161933e+00 -1.644216e+00 2.653506e+00 -1.917996e+00 -1.499792e+00 -5.169618e-01 -3.542459e+00 4.302436e-01 2.806601e+00 4.155181e-03 5.956889e+01 3.941971e-03 1.221026e-02 -5.550531e-03 -5.357775e-03 2.304466e-03 2.632765e-02 2.760002e-02 1.342111e-02 -9.149870e-03 -2.346141e-02 -7.192941e-03 6.687221e-03 -2.189536e-02 -3.595700e-03 -1.569145e-03 2.741319e-03 -6.245793e-04 2.186828e-03 -1.272031e-03 8.178424e-05 1.474705e-04 -1.238689e-03 5.584626e-04 -2.151578e-03 -1.735871e-03 -1.453724e-04
<VARIANCE> 39
 6.707327e+01 3.045193e+01 4.665181e+01 4.891591e+01 3.991257e+01 3.560865e+01 3.728959e+01 3.240269e+01 3.598817e+01 2.795671e+01 2.699840e+01 1.964786e+01 3.185044e+01 3.306809e+00 2.393857e+00 2.340888e+00 2.806304e+00 2.784660e+00 2.491260e+00 2.386188e+00 2.475523e+00 2.425353e+00 2.215652e+00 2.016779e+00 1.585150e+00 2.079937e+00 4.823535e-01 4.474066e-01 4.110909e-01 4.996794e-01 4.862196e-01 4.616486e-01 4.238700e-01 4.711734e-01 4.441724e-01 4.183887e-01 3.933842e-01 3.099756e-01 3.623535e-01
