~o
<STREAMINFO> 1 39
<VECSIZE> 39<NULLD><MFCC_D_A_0><DIAGC>
~h "proto"
<BEGINHMM>
<NUMSTATES> 5
<STATE> 2
<MEAN> 39
 -8.108211e+00 3.314420e+00 3.890363e+00 -1.354820e+00 2.369875e+00 -1.480625e+00 -1.019734e+00 -9.094686e-01 -4.010399e+00 -2.822478e-01 2.614136e+00 -7.814516e-02 5.878102e+01 3.334503e-04 1.415265e-03 2.623152e-03 -1.897243e-03 -4.518582e-03 -2.698291e-03 -5.333150e-03 -7.678752e-03 -6.053037e-03 -6.646882e-03 -4.569275e-03 -2.182351e-03 5.341771e-04 -4.196438e-05 -7.480234e-05 -2.858580e-04 -1.663603e-04 -3.806116e-04 -6.783441e-05 -3.808303e-04 -2.141065e-04 -3.698259e-04 3.323945e-04 5.404651e-04 8.972831e-05 1.539766e-04
<VARIANCE> 39
 6.851941e+01 3.155379e+01 4.966819e+01 5.723018e+01 4.189627e+01 3.819617e+01 3.826042e+01 3.872316e+01 3.695056e+01 2.826454e+01 2.717159e+01 2.156019e+01 3.759841e+01 3.480996e+00 2.305878e+00 2.353490e+00 3.055996e+00 2.940590e+00 2.599109e+00 2.558583e+00 2.700123e+00 2.443197e+00 2.275282e+00 2.248179e+00 1.672461e+00 1.965525e+00 5.138738e-01 4.250369e-01 4.056587e-01 5.365331e-01 5.260649e-01 4.896437e-01 4.779892e-01 5.147994e-01 4.621985e-01 4.407335e-01 4.383456e-01 3.251579e-01 3.391767e-01
<GCONST> 1.202511e+02
<STATE> 3
<MEAN> 39
 -8.108211e+00 3.314420e+00 3.890363e+00 -1.354820e+00 2.369875e+00 -1.480625e+00 -1.019734e+00 -9.094686e-01 -4.010399e+00 -2.822478e-01 2.614136e+00 -7.814516e-02 5.878102e+01 3.334503e-04 1.415265e-03 2.623152e-03 -1.897243e-03 -4.518582e-03 -2.698291e-03 -5.333150e-03 -7.678752e-03 -6.053037e-03 -6.646882e-03 -4.569275e-03 -2.182351e-03 5.341771e-04 -4.196438e-05 -7.480234e-05 -2.858580e-04 -1.663603e-04 -3.806116e-04 -6.783441e-05 -3.808303e-04 -2.141065e-04 -3.698259e-04 3.323945e-04 5.404651e-04 8.972831e-05 1.539766e-04
<VARIANCE> 39
 6.851941e+01 3.155379e+01 4.966819e+01 5.723018e+01 4.189627e+01 3.819617e+01 3.826042e+01 3.872316e+01 3.695056e+01 2.826454e+01 2.717159e+01 2.156019e+01 3.759841e+01 3.480996e+00 2.305878e+00 2.353490e+00 3.055996e+00 2.940590e+00 2.599109e+00 2.558583e+00 2.700123e+00 2.443197e+00 2.275282e+00 2.248179e+00 1.672461e+00 1.965525e+00 5.138738e-01 4.250369e-01 4.056587e-01 5.365331e-01 5.260649e-01 4.896437e-01 4.779892e-01 5.147994e-01 4.621985e-01 4.407335e-01 4.383456e-01 3.251579e-01 3.391767e-01
<GCONST> 1.202511e+02
<STATE> 4
<MEAN> 39
 -8.108211e+00 3.314420e+00 3.890363e+00 -1.354820e+00 2.369875e+00 -1.480625e+00 -1.019734e+00 -9.094686e-01 -4.010399e+00 -2.822478e-01 2.614136e+00 -7.814516e-02 5.878102e+01 3.334503e-04 1.415265e-03 2.623152e-03 -1.897243e-03 -4.518582e-03 -2.698291e-03 -5.333150e-03 -7.678752e-03 -6.053037e-03 -6.646882e-03 -4.569275e-03 -2.182351e-03 5.341771e-04 -4.196438e-05 -7.480234e-05 -2.858580e-04 -1.663603e-04 -3.806116e-04 -6.783441e-05 -3.808303e-04 -2.141065e-04 -3.698259e-04 3.323945e-04 5.404651e-04 8.972831e-05 1.539766e-04
<VARIANCE> 39
 6.851941e+01 3.155379e+01 4.966819e+01 5.723018e+01 4.189627e+01 3.819617e+01 3.826042e+01 3.872316e+01 3.695056e+01 2.826454e+01 2.717159e+01 2.156019e+01 3.759841e+01 3.480996e+00 2.305878e+00 2.353490e+00 3.055996e+00 2.940590e+00 2.599109e+00 2.558583e+00 2.700123e+00 2.443197e+00 2.275282e+00 2.248179e+00 1.672461e+00 1.965525e+00 5.138738e-01 4.250369e-01 4.056587e-01 5.365331e-01 5.260649e-01 4.896437e-01 4.779892e-01 5.147994e-01 4.621985e-01 4.407335e-01 4.383456e-01 3.251579e-01 3.391767e-01
<GCONST> 1.202511e+02
<TRANSP> 5
 0.000000e+00 1.000000e+00 0.000000e+00 0.000000e+00 0.000000e+00
 0.000000e+00 6.000000e-01 4.000000e-01 0.000000e+00 0.000000e+00
 0.000000e+00 0.000000e+00 6.000000e-01 4.000000e-01 0.000000e+00
 0.000000e+00 0.000000e+00 0.000000e+00 7.000000e-01 3.000000e-01
 0.000000e+00 0.000000e+00 0.000000e+00 0.000000e+00 0.000000e+00
<ENDHMM>
