~o
<STREAMINFO> 1 39
<VECSIZE> 39<NULLD><MFCC_D_A_0><DIAGC>
~s "silst"
<MEAN> 39
 -1.430926e+01 3.846855e+00 1.343709e+00 3.860700e+00 3.041059e+00 3.669117e+00 2.416395e+00 2.483302e+00 1.473231e+00 1.284616e+00 1.311742e+00 7.379520e-01 4.788699e+01 -1.628665e-01 -1.095252e-01 -6.119995e-02 -1.565700e-01 -1.135634e-01 -6.351542e-02 -1.527772e-01 -1.224861e-01 -1.923855e-01 -1.173024e-01 2.511913e-02 1.580935e-02 -7.395597e-02 4.076383e-02 6.561910e-03 1.488114e-01 -1.678833e-01 -1.606389e-01 -1.090689e-01 -1.491527e-01 -2.566541e-01 -1.201224e-01 -1.346792e-01 1.965987e-02 4.488339e-02 2.234424e-01
<VARIANCE> 39
 7.088379e+00 9.114226e+00 1.099070e+01 8.450797e+00 8.586172e+00 1.346400e+01 1.509875e+01 1.731383e+01 1.757443e+01 1.810095e+01 1.528103e+01 1.308840e+01 2.674273e+00 3.293505e-01 4.264462e-01 8.077635e-01 7.415582e-01 1.016270e+00 1.043121e+00 1.144876e+00 1.423465e+00 1.462554e+00 1.876329e+00 1.235407e+00 1.249058e+00 2.499980e-01 6.581231e-02 9.425022e-02 1.567653e-01 2.161329e-01 2.448186e-01 2.593679e-01 2.760413e-01 3.558378e-01 2.969801e-01 4.787702e-01 2.769890e-01 2.775925e-01 8.921541e-02
<GCONST> 8.038836e+01
~h "a"
<BEGINHMM>
<NUMSTATES> 5
<STATE> 2
<MEAN> 39
 -2.669173e+00 2.404245e+00 -1.210531e+00 -7.295753e+00 1.708072e+00 -1.021382e+00 -3.297607e-01 1.288263e+00 -5.447450e+00 1.887607e+00 3.699197e+00 7.758499e-01 6.217728e+01 8.785927e-01 2.651274e-01 -6.272882e-01 -1.014856e+00 1.968582e-01 2.647893e-01 1.610471e-01 5.602573e-01 -5.592933e-01 1.281228e-01 1.375673e-01 1.609179e-01 4.940727e-01 -3.657314e-01 1.134299e-01 3.219088e-01 3.884918e-01 -2.115959e-02 -2.159260e-02 6.707997e-02 -9.804131e-02 -8.767988e-02 -2.785234e-01 1.186769e-02 -8.182844e-02 -3.159148e-01
<VARIANCE> 39
 3.113262e+01 1.976824e+01 2.058456e+01 4.563823e+01 2.606824e+01 2.124254e+01 3.380602e+01 3.300702e+01 3.365576e+01 2.920408e+01 2.027115e+01 1.834278e+01 3.009124e+01 3.083935e+00 2.136300e+00 2.407458e+00 4.198448e+00 2.345148e+00 2.307651e+00 2.275701e+00 3.315348e+00 3.379061e+00 2.624566e+00 2.715715e+00 1.954337e+00 2.632705e+00 4.867061e-01 3.904665e-01 4.677338e-01 6.835203e-01 4.711194e-01 3.728469e-01 4.282249e-01 6.309720e-01 5.725749e-01 5.778846e-01 4.550238e-01 3.652726e-01 4.235183e-01
<GCONST> 1.176113e+02
<STATE> 3
<MEAN> 39
 -1.433854e+00 3.466477e+00 -1.839035e+00 -8.735360e+00 1.916918e+00 -6.650290e-01 2.024834e-01 2.142685e+00 -6.935849e+00 1.459265e+00 4.293678e+00 1.018400e+00 6.251944e+01 -1.535424e-01 5.372044e-01 2.784557e-01 3.468799e-01 -7.686877e-02 3.322905e-01 3.128957e-01 -1.813019e-02 -2.995075e-01 -5.019848e-01 7.899892e-03 -1.298079e-02 -6.107122e-01 -4.582836e-01 1.626146e-02 3.590359e-01 5.675941e-01 -1.383084e-01 -5.353834e-02 6.087193e-02 -2.282086e-01 1.495202e-01 -2.239410e-01 -9.103892e-02 -1.138870e-01 -3.549481e-01
<VARIANCE> 39
 1.994824e+01 1.630302e+01 1.861103e+01 4.345639e+01 2.547065e+01 2.212257e+01 3.266626e+01 3.350699e+01 3.276902e+01 2.638385e+01 2.144285e+01 1.851599e+01 2.480729e+01 1.851370e+00 1.351199e+00 1.895149e+00 3.275973e+00 2.442948e+00 2.138168e+00 2.012181e+00 2.903282e+00 2.769441e+00 2.316344e+00 2.081190e+00 1.619063e+00 1.860239e+00 3.807573e-01 2.942927e-01 3.938698e-01 6.699501e-01 4.521589e-01 3.978164e-01 4.100051e-01 5.732672e-01 5.296831e-01 4.712640e-01 4.355774e-01 3.099535e-01 3.566662e-01
<GCONST> 1.121963e+02
<STATE> 4
<MEAN> 39
 -8.395868e+00 2.327503e+00 -1.657018e+00 -2.977071e+00 2.571256e+00 2.878806e+00 1.616494e+00 2.149233e+00 -1.998894e+00 1.426877e+00 3.629325e+00 1.156769e+00 5.463876e+01 -4.202573e-01 1.062834e-01 2.926584e-01 3.752239e-01 -1.412786e-01 3.663699e-02 1.238924e-01 -8.665192e-02 4.420028e-02 -2.068285e-01 -4.350815e-02 -5.839578e-02 -3.748051e-01 -6.400845e-02 -7.744917e-02 5.739542e-02 6.695280e-03 -1.345285e-02 -1.195233e-01 -6.642859e-02 -3.233287e-02 2.448503e-02 1.674763e-02 2.860814e-03 -4.538087e-02 9.845681e-02
<VARIANCE> 39
 3.999460e+01 2.484690e+01 1.709264e+01 3.516003e+01 2.318190e+01 2.544218e+01 2.480041e+01 2.283615e+01 3.856263e+01 2.145348e+01 1.815091e+01 1.535073e+01 3.563495e+01 1.699517e+00 1.231376e+00 1.630377e+00 2.590307e+00 2.092998e+00 1.794478e+00 1.678696e+00 2.123641e+00 2.317484e+00 1.874946e+00 1.758777e+00 1.294996e+00 1.614571e+00 2.995470e-01 2.215104e-01 2.738726e-01 4.250626e-01 3.361884e-01 3.647332e-01 3.012589e-01 3.952578e-01 3.799271e-01 3.405911e-01 3.266682e-01 2.528457e-01 2.527123e-01
<GCONST> 1.061582e+02
<TRANSP> 5
 0.000000e+00 1.000000e+00 0.000000e+00 0.000000e+00 0.000000e+00
 0.000000e+00 3.646221e-01 6.353779e-01 0.000000e+00 0.000000e+00
 0.000000e+00 0.000000e+00 3.609811e-01 6.390190e-01 0.000000e+00
 0.000000e+00 0.000000e+00 0.000000e+00 7.413174e-01 2.586826e-01
 0.000000e+00 0.000000e+00 0.000000e+00 0.000000e+00 0.000000e+00
<ENDHMM>
~h "b"
<BEGINHMM>
<NUMSTATES> 5
<STATE> 2
<MEAN> 39
 -3.627328e+00 1.069727e+01 4.426775e+00 3.006379e+00 1.273111e+00 4.376771e-01 -1.642027e+00 -3.559866e+00 -6.213366e+00 -4.952673e+00 -1.728672e+00 6.162681e-01 5.414011e+01 -5.520786e-01 8.747038e-01 6.989812e-01 5.502576e-01 2.595612e-01 3.687927e-01 -3.198491e-02 8.071532e-02 3.018178e-02 -5.479422e-01 -3.187854e-01 -3.027700e-01 -9.369373e-01 -1.505273e-01 -5.667538e-01 -1.440317e-01 -1.847623e-01 -8.429045e-02 -1.518161e-01 -2.284882e-02 -1.947031e-03 1.703853e-01 3.915036e-01 2.744653e-01 -3.855266e-02 3.059553e-01
<VARIANCE> 39
 1.882641e+01 1.189259e+01 1.636007e+01 1.690845e+01 1.298137e+01 1.326988e+01 2.164888e+01 2.385380e+01 1.823780e+01 1.326948e+01 1.166642e+01 9.988245e+00 1.014022e+01 1.008726e+00 1.466872e+00 1.047716e+00 1.393716e+00 1.689119e+00 1.490960e+00 1.418514e+00 1.698972e+00 1.711224e+00 1.449181e+00 1.319194e+00 1.221645e+00 9.483872e-01 1.322817e-01 2.679591e-01 2.169379e-01 2.848381e-01 2.343120e-01 2.820774e-01 2.634433e-01 3.009955e-01 3.097937e-01 3.013196e-01 2.629932e-01 2.452767e-01 1.344081e-01
<GCONST> 9.208238e+01
<STATE> 3
<MEAN> 39
 -4.705417e+00 1.092045e+01 4.815403e+00 3.836616e+00 1.698317e+00 1.055145e+00 -1.806179e+00 -4.390532e+00 -6.067748e+00 -4.797630e+00 -1.456687e+00 4.275101e-01 5.307840e+01 -7.955327e-01 -7.843342e-01 4.238599e-02 -3.877918e-02 1.411602e-01 9.909155e-03 -1.896627e-01 2.711591e-01 3.348259e-01 4.782776e-01 4.377773e-01 -4.068168e-01 -9.144790e-02 1.519553e-01 -8.277894e-01 -3.073836e-01 -3.991806e-01 -7.227580e-02 -2.037440e-01 3.381402e-02 1.236524e-01 -3.800194e-02 4.085142e-01 3.979871e-01 8.528239e-02 7.187713e-01
<VARIANCE> 39
 1.338229e+01 1.374124e+01 1.546012e+01 1.539496e+01 1.164044e+01 1.226733e+01 1.924523e+01 2.262810e+01 1.897962e+01 1.443421e+01 1.477943e+01 1.147668e+01 5.879066e+00 8.194187e-01 1.878605e+00 9.047872e-01 1.450865e+00 1.108280e+00 1.209739e+00 1.430396e+00 1.642038e+00 1.458845e+00 1.523406e+00 1.648292e+00 1.170642e+00 1.121984e+00 1.693905e-01 3.460440e-01 2.541722e-01 3.486761e-01 2.540741e-01 3.970127e-01 3.807822e-01 3.177743e-01 3.685773e-01 3.499658e-01 4.508529e-01 3.230257e-01 1.761925e-01
<GCONST> 9.396442e+01
<STATE> 4
<MEAN> 39
 -6.484786e+00 6.263114e+00 3.911032e+00 2.483848e+00 2.170295e+00 6.877491e-01 -2.220639e+00 -2.385652e+00 -5.597271e+00 -2.577895e+00 1.198571e+00 -3.328738e-01 5.477174e+01 3.206171e-01 -2.145334e+00 -5.664092e-01 -1.017060e+00 -6.184223e-02 -7.244910e-01 1.144583e-01 4.026953e-01 -8.581199e-02 1.214866e+00 1.148754e+00 1.189800e-01 2.024038e+00 6.318575e-01 5.091485e-02 -1.318737e-01 -1.567102e-01 -2.386445e-01 -2.903449e-01 2.232510e-01 -2.633693e-01 -3.089859e-01 9.108877e-02 -1.502440e-01 2.253637e-01 5.324901e-01
<VARIANCE> 39
 1.249449e+01 3.299984e+01 1.505055e+01 2.880550e+01 1.298640e+01 1.533368e+01 1.967509e+01 2.280426e+01 1.915826e+01 1.842833e+01 2.570791e+01 1.300391e+01 1.854726e+01 2.381428e+00 2.988496e+00 2.227884e+00 3.930563e+00 1.944870e+00 3.178262e+00 3.023554e+00 2.713671e+00 3.469092e+00 2.241693e+00 3.415995e+00 1.880848e+00 1.595624e+00 2.133248e-01 7.389205e-01 3.296084e-01 6.500822e-01 2.917358e-01 4.356769e-01 4.510382e-01 5.172521e-01 5.663703e-01 3.364790e-01 7.805436e-01 3.757353e-01 3.480982e-01
<GCONST> 1.113615e+02
<TRANSP> 5
 0.000000e+00 1.000000e+00 0.000000e+00 0.000000e+00 0.000000e+00
 0.000000e+00 5.767193e-01 4.232807e-01 0.000000e+00 0.000000e+00
 0.000000e+00 0.000000e+00 5.102996e-01 4.897004e-01 0.000000e+00
 0.000000e+00 0.000000e+00 0.000000e+00 5.105124e-01 4.894876e-01
 0.000000e+00 0.000000e+00 0.000000e+00 0.000000e+00 0.000000e+00
<ENDHMM>
~h "c"
<BEGINHMM>
<NUMSTATES> 5
<STATE> 2
<MEAN> 39
 -1.697899e+01 8.980984e+00 5.855648e+00 -8.389256e+00 6.797427e+00 -1.506826e+00 -3.363485e+00 8.534364e-01 -7.132946e+00 -3.548953e+00 2.450857e+00 -2.470009e+00 5.883429e+01 -3.751793e+00 2.218958e-01 5.556833e-01 -1.738657e+00 1.284433e+00 -4.451781e-01 -7.362068e-01 8.121426e-02 3.726465e-01 4.735152e-02 2.562646e-01 -6.581153e-01 1.311613e+00 2.493688e-01 -2.974370e-01 -4.497765e-02 2.117920e-01 -6.086922e-02 -1.727270e-01 9.486066e-02 2.234391e-02 5.592199e-02 1.390798e-01 1.856641e-01 9.799935e-02 2.106298e-01
<VARIANCE> 39
 5.397454e+01 2.219768e+01 2.633767e+01 3.657892e+01 2.624787e+01 2.365861e+01 3.272740e+01 2.242012e+01 1.927647e+01 2.039410e+01 1.766844e+01 1.596462e+01 1.456880e+01 2.459144e+00 2.368292e+00 1.767885e+00 3.261640e+00 2.385785e+00 2.441409e+00 1.889934e+00 2.244085e+00 2.442225e+00 2.118403e+00 1.985509e+00 1.355535e+00 1.785153e+00 8.713385e-01 5.549632e-01 3.449067e-01 8.039174e-01 5.528029e-01 4.645191e-01 3.531204e-01 3.561557e-01 4.819439e-01 4.160175e-01 3.250197e-01 2.888831e-01 4.202273e-01
<GCONST> 1.126133e+02
<STATE> 3
<MEAN> 39
 -2.564691e+01 5.953252e+00 6.941141e+00 -1.115988e+01 1.074492e+01 -4.345420e+00 -4.794715e+00 1.904586e+00 -5.658523e+00 -2.518894e+00 5.069062e+00 -4.001234e+00 6.309824e+01 6.307031e-01 -1.499742e+00 -1.012828e-01 7.158089e-01 1.383223e-01 -4.696623e-01 2.999363e-01 2.762408e-01 3.361132e-01 3.456922e-01 7.834539e-01 6.645569e-02 -1.803983e-01 1.163254e+00 6.003639e-02 -1.944066e-01 5.354314e-01 -3.960128e-01 2.219848e-01 1.973730e-01 -2.020005e-01 -1.161484e-02 7.473296e-02 -1.212586e-01 1.848483e-01 -5.448140e-01
<VARIANCE> 39
 1.422372e+01 2.826778e+01 2.049253e+01 2.069012e+01 2.133438e+01 2.356472e+01 2.292483e+01 2.222430e+01 1.949865e+01 1.551349e+01 1.929395e+01 1.514926e+01 6.345630e+00 3.949253e+00 2.135991e+00 1.270631e+00 2.360646e+00 2.474919e+00 1.921811e+00 1.559787e+00 1.787316e+00 1.642379e+00 1.492020e+00 1.436063e+00 1.397070e+00 1.519172e+00 3.752795e-01 6.134999e-01 2.241439e-01 3.633299e-01 3.915857e-01 3.711810e-01 2.712122e-01 4.202467e-01 3.413925e-01 3.273158e-01 3.358846e-01 2.823749e-01 2.074892e-01
<GCONST> 1.030443e+02
<STATE> 4
<MEAN> 39
 -1.544641e+01 2.001018e+00 2.727914e+00 -4.317528e+00 7.057389e+00 -1.119148e+00 -1.621958e+00 2.155977e+00 -2.219970e+00 3.237062e-01 5.607016e+00 -1.487562e+00 5.606403e+01 1.886453e+00 2.485784e-01 -2.565844e-01 9.267305e-01 -6.699315e-01 3.832798e-01 3.765855e-01 -4.975663e-01 1.465056e-01 2.389365e-01 -1.913357e-01 4.434820e-01 -6.345682e-01 5.826150e-03 2.890041e-01 5.930294e-02 -1.493206e-01 -9.158397e-02 8.486888e-03 -8.765523e-02 -1.484612e-01 -1.278784e-01 -6.082382e-02 -2.025369e-01 1.749643e-02 1.927206e-01
<VARIANCE> 39
 3.288088e+01 3.022955e+01 2.477844e+01 2.246486e+01 2.847593e+01 3.735749e+01 2.276345e+01 2.597336e+01 2.051161e+01 1.548901e+01 1.769278e+01 1.325128e+01 2.955573e+01 4.321730e+00 2.239763e+00 1.253330e+00 2.068646e+00 1.830329e+00 1.909127e+00 1.589343e+00 2.262903e+00 1.547207e+00 1.353440e+00 1.578689e+00 1.510573e+00 1.381372e+00 3.489450e-01 4.784261e-01 2.603885e-01 3.422140e-01 3.524391e-01 4.556575e-01 2.997620e-01 4.487000e-01 2.653315e-01 2.443460e-01 3.309755e-01 2.643737e-01 2.614721e-01
<GCONST> 1.059859e+02
<TRANSP> 5
 0.000000e+00 1.000000e+00 0.000000e+00 0.000000e+00 0.000000e+00
 0.000000e+00 7.451295e-01 2.548705e-01 0.000000e+00 0.000000e+00
 0.000000e+00 0.000000e+00 7.476949e-01 2.523051e-01 0.000000e+00
 0.000000e+00 0.000000e+00 0.000000e+00 7.621754e-01 2.378246e-01
 0.000000e+00 0.000000e+00 0.000000e+00 0.000000e+00 0.000000e+00
<ENDHMM>
~h "d"
<BEGINHMM>
<NUMSTATES> 5
<STATE> 2
<MEAN> 39
 -3.904701e+00 3.690346e+00 3.668268e+00 3.022596e+00 -2.361647e-01 -2.966467e+00 -1.141980e+00 -5.046528e+00 -6.904963e+00 -2.610640e-01 1.932825e+00 3.733000e-02 5.875227e+01 -6.210056e-01 -1.435069e+00 4.878013e-01 8.331094e-01 -6.648451e-01 -4.429518e-01 5.892360e-01 5.494514e-02 2.530852e-01 2.926869e-01 8.326227e-02 -6.366003e-01 1.902520e-01 1.084587e-01 -3.285302e-01 -1.129193e-01 -2.187470e-01 -1.500503e-02 -2.774553e-02 -2.502120e-02 1.357621e-02 1.580234e-01 2.702818e-01 8.374572e-02 8.439119e-02 4.634199e-01
<VARIANCE> 39
 1.633678e+01 4.306873e+01 3.540393e+01 3.512680e+01 2.533473e+01 3.232720e+01 2.915475e+01 2.801469e+01 2.131627e+01 2.999576e+01 2.021055e+01 1.639737e+01 3.084960e+01 1.917905e+00 5.097147e+00 2.994112e+00 4.766301e+00 2.951854e+00 3.803037e+00 3.109885e+00 3.240755e+00 2.441474e+00 3.956409e+00 2.965557e+00 1.939880e+00 4.214629e+00 3.742740e-01 1.082304e+00 5.368050e-01 7.417139e-01 5.488517e-01 7.845555e-01 6.334682e-01 8.682070e-01 5.155491e-01 7.380379e-01 5.317317e-01 4.081981e-01 7.906849e-01
<GCONST> 1.235948e+02
<STATE> 3
<MEAN> 39
 -5.743679e+00 -2.732992e+00 4.800832e+00 4.285351e+00 -2.101575e+00 -4.424257e+00 5.863789e-01 -4.707294e+00 -5.400735e+00 1.841111e+00 2.764852e+00 -1.693948e+00 6.148152e+01 2.239890e-01 -1.008627e+00 4.417872e-02 -4.583241e-02 -4.492203e-01 3.965620e-02 1.791033e-01 -5.253000e-01 4.706844e-01 8.447952e-01 3.950637e-01 3.564695e-02 1.036748e+00 5.365711e-01 8.379813e-01 -3.810745e-01 -4.175882e-01 3.182601e-01 2.445037e-01 -3.744183e-01 -1.227443e-01 -3.075610e-02 -1.139323e-01 -7.199927e-02 4.469417e-01 -1.750220e-02
<VARIANCE> 39
 1.958269e+01 4.810965e+01 4.047451e+01 3.352683e+01 3.390160e+01 3.634877e+01 3.941793e+01 3.451497e+01 2.589939e+01 2.282471e+01 2.475667e+01 1.995154e+01 2.233376e+01 2.371498e+00 5.544437e+00 3.263790e+00 3.349086e+00 2.687917e+00 4.026135e+00 3.299577e+00 4.717616e+00 3.002783e+00 4.073307e+00 2.870581e+00 2.481388e+00 3.465134e+00 4.359832e-01 1.056718e+00 8.182552e-01 8.470947e-01 7.136733e-01 8.184668e-01 6.269664e-01 9.507828e-01 5.799820e-01 6.578640e-01 6.415461e-01 4.929809e-01 6.648801e-01
<GCONST> 1.268465e+02
<STATE> 4
<MEAN> 39
 -3.227604e+00 -7.181846e-01 3.163816e+00 2.987783e+00 -1.975968e+00 -3.381465e+00 -1.303774e-01 -6.863577e+00 -5.010940e+00 3.065834e+00 3.201285e+00 2.522221e-01 6.271333e+01 1.082137e+00 1.126536e+00 -7.171757e-01 -8.135676e-01 3.146886e-01 5.097734e-01 -4.131362e-01 -2.119413e-01 7.024771e-02 -1.455482e-01 -4.324097e-02 8.344868e-01 3.243498e-01 4.635336e-02 4.934429e-01 -1.762415e-01 -2.044117e-01 2.886717e-01 6.504817e-02 -9.678968e-02 4.013621e-01 -1.933960e-01 -4.678603e-01 -1.219794e-01 9.452518e-02 -3.137583e-01
<VARIANCE> 39
 2.847383e+01 2.674845e+01 4.089919e+01 3.251675e+01 2.973068e+01 2.722939e+01 4.128588e+01 4.777862e+01 3.242925e+01 2.621372e+01 2.507699e+01 2.134559e+01 2.162859e+01 2.490699e+00 3.798329e+00 4.323743e+00 2.821107e+00 3.438521e+00 3.609423e+00 3.520924e+00 4.628293e+00 2.793516e+00 3.777724e+00 2.566736e+00 2.633857e+00 2.237125e+00 5.264455e-01 8.487673e-01 7.757863e-01 4.502560e-01 6.428343e-01 5.175371e-01 6.121294e-01 8.980110e-01 6.176818e-01 6.340954e-01 5.905835e-01 4.821180e-01 5.530327e-01
<GCONST> 1.246796e+02
<TRANSP> 5
 0.000000e+00 1.000000e+00 0.000000e+00 0.000000e+00 0.000000e+00
 0.000000e+00 4.760145e-01 5.239855e-01 0.000000e+00 0.000000e+00
 0.000000e+00 0.000000e+00 3.587065e-01 6.412935e-01 0.000000e+00
 0.000000e+00 0.000000e+00 0.000000e+00 4.310215e-01 5.689785e-01
 0.000000e+00 0.000000e+00 0.000000e+00 0.000000e+00 0.000000e+00
<ENDHMM>
~h "e"
<BEGINHMM>
<NUMSTATES> 5
<STATE> 2
<MEAN> 39
 -4.557196e+00 1.907108e+00 4.109411e+00 2.420226e-01 1.820051e+00 -4.963772e+00 -4.528679e+00 -2.826672e+00 -2.217540e+00 2.608087e+00 1.681671e+00 -2.436420e-01 6.170499e+01 1.457752e+00 7.651421e-01 -5.403429e-01 3.468798e-01 -2.122730e-01 2.108543e-01 -5.642299e-01 -7.080226e-01 -3.781319e-02 4.503392e-02 -3.699083e-01 4.862571e-01 9.454550e-02 -6.331515e-01 2.530086e-02 2.342147e-01 -1.620035e-01 7.254335e-02 1.383952e-01 3.377908e-01 1.505310e-01 -2.612770e-01 -3.038367e-01 1.657567e-01 -6.941006e-02 -1.981497e-01
<VARIANCE> 39
 3.449286e+01 2.114278e+01 3.262167e+01 4.228492e+01 3.100698e+01 3.082391e+01 2.707954e+01 2.628084e+01 2.957076e+01 2.059960e+01 2.973648e+01 1.554703e+01 2.360041e+01 4.358388e+00 2.351870e+00 2.756933e+00 2.401080e+00 3.637957e+00 2.593677e+00 2.674753e+00 2.923063e+00 3.163982e+00 2.189954e+00 2.661461e+00 2.070767e+00 2.209100e+00 9.032849e-01 4.982444e-01 4.541108e-01 5.137941e-01 6.071933e-01 5.575449e-01 4.214923e-01 5.086257e-01 5.332239e-01 4.364535e-01 4.971286e-01 3.435454e-01 4.419697e-01
<GCONST> 1.186732e+02
<STATE> 3
<MEAN> 39
 -3.451735e+00 3.213663e+00 3.783947e+00 1.558263e-01 1.703347e+00 -4.254200e+00 -4.599069e+00 -3.502103e+00 -2.800335e+00 2.166796e+00 2.002527e+00 3.719291e-01 6.144738e+01 1.315217e-01 7.096750e-01 4.646228e-02 5.313601e-02 1.010192e-01 4.718258e-01 1.877307e-01 -1.346913e-01 -4.616709e-01 -5.505478e-01 8.318131e-02 1.366507e-01 -4.391101e-01 -7.422886e-01 -1.654316e-01 2.729194e-01 -1.818428e-01 8.678333e-02 4.940033e-03 3.568057e-01 2.779249e-01 -1.682062e-01 -2.251666e-01 1.359867e-01 -1.948536e-01 -1.090276e-01
<VARIANCE> 39
 2.431170e+01 1.726008e+01 3.411521e+01 3.985666e+01 2.732269e+01 2.839063e+01 2.816196e+01 2.908916e+01 3.277513e+01 2.106223e+01 2.775077e+01 1.794743e+01 2.119262e+01 3.733962e+00 1.706289e+00 2.280995e+00 2.356374e+00 3.924704e+00 2.623913e+00 2.237454e+00 2.432529e+00 2.858201e+00 2.131975e+00 2.471172e+00 1.814165e+00 2.250540e+00 7.452753e-01 3.955140e-01 4.877247e-01 4.413316e-01 6.024534e-01 4.933982e-01 4.407503e-01 5.085134e-01 5.876511e-01 4.195665e-01 4.093341e-01 3.521720e-01 3.670706e-01
<GCONST> 1.159683e+02
<STATE> 4
<MEAN> 39
 -4.828531e+00 4.162482e+00 4.232484e+00 7.374442e-02 2.181783e+00 -3.343827e+00 -3.683129e+00 -3.001787e+00 -3.905277e+00 8.903075e-01 2.343888e+00 2.747966e-01 5.967468e+01 -7.633250e-01 3.436060e-01 3.632869e-01 -1.820927e-01 1.937790e-01 3.449623e-01 5.413247e-01 2.560440e-01 -4.956139e-01 -6.464889e-01 1.506425e-01 -1.529014e-01 -4.064351e-01 -4.664522e-01 -2.536947e-01 1.084447e-01 -1.649531e-01 2.901070e-03 -1.237922e-01 1.146998e-01 1.630589e-01 2.398203e-02 1.893055e-02 2.890911e-02 -1.362706e-01 1.406081e-01
<VARIANCE> 39
 2.917748e+01 1.662072e+01 3.530534e+01 3.805723e+01 2.842522e+01 2.851612e+01 2.850394e+01 2.703252e+01 3.248424e+01 2.145971e+01 2.643336e+01 1.668294e+01 2.615780e+01 3.916642e+00 1.846288e+00 2.386218e+00 2.616170e+00 4.060369e+00 2.659107e+00 2.083788e+00 2.390597e+00 3.025387e+00 2.190230e+00 2.314806e+00 1.723881e+00 2.002732e+00 5.182311e-01 3.126781e-01 4.079751e-01 3.940653e-01 4.946735e-01 4.729124e-01 4.294360e-01 4.050415e-01 5.177245e-01 3.981821e-01 3.760219e-01 3.161500e-01 3.362486e-01
<GCONST> 1.144254e+02
<TRANSP> 5
 0.000000e+00 1.000000e+00 0.000000e+00 0.000000e+00 0.000000e+00
 0.000000e+00 2.501688e-01 7.498311e-01 0.000000e+00 0.000000e+00
 0.000000e+00 0.000000e+00 1.752327e-01 8.247673e-01 0.000000e+00
 0.000000e+00 0.000000e+00 0.000000e+00 2.294775e-01 7.705225e-01
 0.000000e+00 0.000000e+00 0.000000e+00 0.000000e+00 0.000000e+00
<ENDHMM>
~h "f"
<BEGINHMM>
<NUMSTATES> 5
<STATE> 2
<MEAN> 39
 -1.106901e+01 2.150816e+00 -3.083229e-01 -1.554265e-01 2.615155e+00 2.387799e+00 -5.651689e-01 -1.552215e-01 -4.254999e-01 3.474464e-01 2.383951e+00 5.385247e-01 5.262996e+01 -6.513461e-01 -2.673641e-01 -7.428449e-02 4.541086e-02 -1.208126e-02 -7.892025e-02 -1.540214e-01 -9.997899e-03 1.714101e-01 -5.856301e-02 3.889399e-02 -1.869453e-01 -2.468393e-01 4.844275e-02 -9.172228e-02 -2.751613e-03 -1.221732e-01 -9.486276e-03 -9.334935e-02 -2.284735e-02 5.389966e-03 -3.816295e-02 5.632062e-02 5.818359e-02 6.084919e-03 1.505293e-01
<VARIANCE> 39
 1.516210e+01 2.167211e+01 1.737508e+01 1.802042e+01 1.057607e+01 1.633380e+01 1.834990e+01 2.068682e+01 2.128150e+01 1.808271e+01 1.724549e+01 1.100050e+01 1.196730e+01 1.201702e+00 8.842101e-01 7.347728e-01 1.098888e+00 1.346684e+00 1.611760e+00 1.872840e+00 1.650101e+00 1.506430e+00 1.509909e+00 1.508197e+00 1.190210e+00 7.452803e-01 1.210801e-01 1.386723e-01 1.487231e-01 2.241391e-01 2.193346e-01 3.292017e-01 3.027102e-01 3.237330e-01 2.863467e-01 3.116112e-01 2.727827e-01 2.364435e-01 9.378767e-02
<GCONST> 9.088931e+01
<STATE> 3
<MEAN> 39
 -1.297121e+01 1.479839e+00 1.958149e+00 -7.302336e-01 3.731440e+00 5.123558e-01 -1.999146e+00 -2.041574e+00 -3.067921e+00 -1.189887e+00 4.300217e+00 -7.298056e-01 5.568679e+01 -7.423066e-01 -7.571895e-01 1.502910e-01 -3.450958e-01 3.471203e-01 -3.351732e-01 -4.423010e-01 1.460883e-02 1.489115e-01 1.752928e-01 4.931892e-01 -2.043869e-01 3.552380e-01 3.282424e-01 1.662395e-02 5.809658e-02 -1.718466e-01 4.121293e-02 9.876785e-02 2.124082e-01 8.298806e-02 -1.093686e-01 1.279221e-01 -1.637079e-03 1.626204e-01 1.682793e-01
<VARIANCE> 39
 1.452628e+01 2.074264e+01 2.082296e+01 2.791827e+01 1.217257e+01 1.860351e+01 2.176629e+01 2.166440e+01 1.910776e+01 1.833560e+01 1.959637e+01 1.520661e+01 1.666292e+01 2.167626e+00 1.993348e+00 1.320292e+00 2.561007e+00 1.465869e+00 2.048595e+00 1.993284e+00 2.718007e+00 1.527711e+00 1.577514e+00 2.021673e+00 1.695683e+00 1.461828e+00 3.130490e-01 4.715137e-01 3.128757e-01 3.281170e-01 2.633061e-01 5.125132e-01 3.642351e-01 4.616968e-01 3.122135e-01 4.241217e-01 4.592812e-01 3.058857e-01 2.675258e-01
<GCONST> 1.043826e+02
<STATE> 4
<MEAN> 39
 -1.316891e+01 3.808967e-01 1.511159e+00 -1.910513e+00 4.165191e+00 2.345239e+00 -4.337484e-01 -6.923090e-01 -2.165965e+00 -2.985073e-01 5.036587e+00 7.038702e-01 5.529152e+01 3.630957e-01 1.891499e-01 4.401957e-01 -3.088608e-01 -1.612850e-02 -3.287859e-02 8.233496e-02 -1.100979e-01 -2.151964e-01 -3.655585e-02 -1.515651e-01 -6.305775e-02 4.156625e-01 2.197926e-01 8.643238e-02 7.050020e-02 7.934739e-02 -1.980646e-01 -1.549593e-01 1.532127e-01 2.785970e-02 -8.874963e-02 3.286344e-02 -2.298846e-01 -2.591260e-02 1.435040e-01
<VARIANCE> 39
 2.455125e+01 2.616626e+01 3.324290e+01 4.308564e+01 2.705652e+01 3.281934e+01 3.048148e+01 2.626890e+01 3.140590e+01 2.131218e+01 1.804399e+01 1.591737e+01 2.564526e+01 4.105351e+00 3.892691e+00 1.699218e+00 3.665706e+00 3.606472e+00 3.709801e+00 2.804673e+00 2.035908e+00 3.017713e+00 2.184988e+00 2.265249e+00 1.789852e+00 3.112101e+00 5.047363e-01 6.861716e-01 3.698583e-01 6.771940e-01 5.417891e-01 6.664312e-01 4.668020e-01 4.449630e-01 5.070143e-01 3.958562e-01 4.428834e-01 3.720486e-01 5.251653e-01
<GCONST> 1.185643e+02
<TRANSP> 5
 0.000000e+00 1.000000e+00 0.000000e+00 0.000000e+00 0.000000e+00
 0.000000e+00 7.995036e-01 2.004964e-01 0.000000e+00 0.000000e+00
 0.000000e+00 0.000000e+00 4.158334e-01 5.841666e-01 0.000000e+00
 0.000000e+00 0.000000e+00 0.000000e+00 6.070284e-01 3.929716e-01
 0.000000e+00 0.000000e+00 0.000000e+00 0.000000e+00 0.000000e+00
<ENDHMM>
~h "g"
<BEGINHMM>
<NUMSTATES> 5
<STATE> 2
<MEAN> 39
 -5.403995e+00 1.959973e+00 3.009680e+00 5.260327e+00 2.471657e+00 -4.573158e+00 -7.460715e+00 -1.336792e-01 9.780573e-02 -2.215667e+00 -1.652135e-01 4.653641e-02 6.086388e+01 7.619733e-02 -9.770847e-02 5.404557e-01 2.588571e-01 1.587232e-01 2.282570e-01 -1.127979e+00 2.106321e-01 4.487423e-01 -2.420447e-01 -1.649824e-01 -2.805511e-01 2.866814e-01 1.475599e-01 1.453047e-01 1.597990e-01 3.054782e-02 1.233349e-02 7.086463e-02 1.640437e-01 -3.110915e-01 -1.633832e-01 1.792515e-01 1.042628e-01 -2.953220e-02 -1.196893e-01
<VARIANCE> 39
 3.188608e+01 3.369623e+01 2.908485e+01 2.252682e+01 3.118319e+01 3.503419e+01 6.444924e+01 5.026978e+01 4.929861e+01 3.496041e+01 5.929355e+01 2.154620e+01 3.220095e+01 3.136479e+00 4.226744e+00 3.192554e+00 2.762024e+00 3.364147e+00 4.457491e+00 8.265804e+00 4.515267e+00 3.990550e+00 3.412216e+00 5.909203e+00 2.294086e+00 4.425452e+00 7.055995e-01 6.853160e-01 8.460856e-01 8.074337e-01 8.549133e-01 7.737874e-01 1.948411e+00 7.562019e-01 1.000275e+00 7.752042e-01 1.373745e+00 4.872471e-01 7.413102e-01
<GCONST> 1.340038e+02
<STATE> 3
<MEAN> 39
 -5.159311e+00 3.602804e+00 5.315605e+00 5.225327e+00 2.595733e+00 -4.685285e+00 -6.855847e+00 -3.708083e-01 -1.449100e+00 -2.913030e+00 2.379887e-02 -3.525767e-01 5.946838e+01 6.378586e-01 -2.886712e-01 1.649915e-01 9.259652e-02 -3.421131e-01 -1.023989e+00 6.772373e-01 -5.956813e-01 -1.919294e-01 6.180741e-01 -3.901788e-01 -3.507541e-01 7.778006e-01 1.795896e-01 -2.318250e-01 -4.003469e-01 -1.670900e-01 -8.284739e-02 -1.215802e-01 2.389981e-01 -2.397416e-01 -1.176503e-01 2.725252e-01 8.375789e-02 2.630868e-02 2.822565e-01
<VARIANCE> 39
 1.611580e+01 2.653284e+01 3.230668e+01 1.143931e+01 2.372213e+01 5.134822e+01 2.855131e+01 1.948009e+01 3.623532e+01 2.587219e+01 4.592491e+01 1.625641e+01 2.739346e+01 3.389654e+00 2.666726e+00 3.740870e+00 1.971503e+00 3.389506e+00 6.156348e+00 4.756482e+00 2.844837e+00 3.240686e+00 4.450241e+00 8.454180e+00 1.608651e+00 2.871242e+00 4.604501e-01 6.639745e-01 8.357354e-01 3.574091e-01 4.921098e-01 1.543349e+00 8.202453e-01 5.978813e-01 5.381830e-01 6.322413e-01 1.677186e+00 3.385975e-01 6.537859e-01
<GCONST> 1.245695e+02
<STATE> 4
<MEAN> 39
 -3.216661e+00 -2.423882e-01 1.465769e+00 3.892457e+00 2.995367e+00 -6.198893e+00 -6.375650e+00 -2.390273e+00 -1.902074e+00 3.357857e+00 7.213656e-01 -5.381562e-01 6.214634e+01 2.576325e-01 -6.478910e-01 -3.068941e-02 -1.662943e-01 -5.277622e-01 -4.011264e-02 5.359862e-01 -3.119403e-01 -6.533732e-01 3.983494e-01 7.388796e-01 -1.004560e-01 5.365999e-01 -2.465084e-01 1.696989e-01 3.589858e-02 -1.390560e-01 3.604447e-02 3.127730e-01 4.315618e-02 1.150695e-01 -1.068098e-01 -3.348955e-01 3.752388e-01 4.325701e-03 -2.202037e-01
<VARIANCE> 39
 1.162940e+01 3.403648e+01 2.994817e+01 2.956040e+01 3.489900e+01 3.863802e+01 3.820419e+01 2.154181e+01 2.902615e+01 5.317300e+01 3.779155e+01 1.392342e+01 3.518536e+01 2.656624e+00 3.245831e+00 3.655887e+00 3.030193e+00 3.666235e+00 3.321384e+00 2.975370e+00 3.711425e+00 2.996467e+00 4.932535e+00 3.191736e+00 1.815354e+00 4.105396e+00 3.716928e-01 7.053211e-01 8.084148e-01 4.643923e-01 4.547473e-01 8.100958e-01 7.090016e-01 6.278345e-01 5.783087e-01 9.272441e-01 7.850428e-01 3.152463e-01 6.916031e-01
<GCONST> 1.243401e+02
<TRANSP> 5
 0.000000e+00 1.000000e+00 0.000000e+00 0.000000e+00 0.000000e+00
 0.000000e+00 7.030845e-01 2.969156e-01 0.000000e+00 0.000000e+00
 0.000000e+00 0.000000e+00 5.515125e-01 4.484875e-01 0.000000e+00
 0.000000e+00 0.000000e+00 0.000000e+00 4.719596e-01 5.280404e-01
 0.000000e+00 0.000000e+00 0.000000e+00 0.000000e+00 0.000000e+00
<ENDHMM>
~h "h"
<BEGINHMM>
<NUMSTATES> 5
<STATE> 2
<MEAN> 39
 -2.274978e+00 4.942412e+00 1.293021e+00 -1.071780e+00 3.620665e+00 2.918886e+00 1.806631e+00 -1.973841e+00 -2.797464e+00 7.778065e-01 2.775349e+00 2.640904e+00 6.092407e+01 -3.859759e-03 4.601670e-01 1.878938e-03 -6.677920e-02 1.981631e-01 1.383227e+00 9.585962e-01 7.364378e-02 -7.303559e-01 -7.562214e-01 2.711882e-01 9.268323e-01 -6.325816e-01 2.119137e-02 -9.545866e-02 1.427078e-02 -3.981955e-02 -2.479680e-01 -1.766500e-01 -7.863172e-02 8.888000e-02 -8.467909e-02 -1.624523e-02 -1.859246e-01 1.674975e-02 6.273051e-02
<VARIANCE> 39
 1.720160e+01 1.236803e+01 1.520836e+01 2.819035e+01 3.433907e+01 2.436855e+01 3.271999e+01 3.267465e+01 3.160701e+01 2.682438e+01 2.309429e+01 2.202864e+01 1.304317e+01 7.423642e-01 5.733373e-01 1.154945e+00 1.846777e+00 2.321920e+00 1.651038e+00 1.662814e+00 2.005084e+00 2.472803e+00 2.013315e+00 1.852486e+00 1.436359e+00 5.363204e-01 1.015330e-01 1.156235e-01 2.226887e-01 1.825999e-01 4.048496e-01 2.960162e-01 3.118566e-01 3.795996e-01 3.168809e-01 4.249227e-01 3.933064e-01 2.195915e-01 9.194163e-02
<GCONST> 9.801377e+01
<STATE> 3
<MEAN> 39
 -2.341523e+00 5.745935e+00 1.116087e+00 -1.679170e+00 3.216348e+00 5.790785e+00 4.751072e+00 -3.142918e-01 -4.479286e+00 -1.922007e+00 2.721210e+00 5.516325e+00 5.961000e+01 2.090043e-02 2.198105e-01 -2.911308e-02 -5.915350e-02 -1.443460e-01 3.576372e-01 4.068196e-01 2.365175e-01 -4.141789e-01 -4.329122e-01 -2.360847e-01 3.328190e-01 -3.243254e-01 -8.424832e-03 -6.888938e-02 7.650879e-03 3.809930e-02 -4.406298e-02 -3.216087e-01 -2.862688e-01 -1.138712e-01 1.980631e-01 1.396468e-01 -9.114345e-02 -2.821995e-01 9.430639e-02
<VARIANCE> 39
 1.290867e+01 9.432158e+00 1.017952e+01 1.721444e+01 2.207025e+01 2.156925e+01 2.638110e+01 3.171963e+01 2.369639e+01 2.548171e+01 1.957140e+01 1.675754e+01 9.158764e+00 5.112391e-01 5.522235e-01 8.250664e-01 9.935117e-01 1.524434e+00 1.523578e+00 1.048345e+00 1.525775e+00 1.572977e+00 1.674289e+00 1.405867e+00 1.284635e+00 3.306018e-01 1.153235e-01 1.155539e-01 1.602347e-01 1.815922e-01 2.887326e-01 2.599707e-01 2.372201e-01 2.951908e-01 2.555578e-01 3.093288e-01 2.664363e-01 2.390204e-01 7.046152e-02
<GCONST> 8.820523e+01
<STATE> 4
<MEAN> 39
 -2.404511e+00 6.849589e+00 1.702008e+00 -1.354395e+00 2.306735e+00 4.989381e+00 4.616691e+00 -3.092260e-01 -3.984118e+00 -2.720034e+00 6.119321e-01 4.135811e+00 5.859695e+01 -1.866264e-01 -1.583852e-02 2.690375e-01 2.592517e-01 -4.654867e-02 -4.636724e-01 -5.255883e-01 -2.596244e-01 1.874773e-01 2.396853e-01 -1.958696e-01 -6.423776e-01 -1.450026e-01 -1.673283e-01 -1.143191e-01 1.307953e-01 5.494364e-02 6.339749e-02 -1.486194e-01 -2.295626e-01 -3.286472e-02 2.037119e-02 7.766508e-02 1.397389e-01 -1.748922e-01 7.884784e-03
<VARIANCE> 39
 1.236086e+01 1.227354e+01 1.129373e+01 1.846022e+01 3.743061e+01 2.205590e+01 2.657975e+01 2.984854e+01 2.566876e+01 2.923700e+01 2.748607e+01 2.112332e+01 9.510611e+00 5.626019e-01 6.049123e-01 1.170198e+00 1.413827e+00 1.769334e+00 1.752165e+00 1.820994e+00 1.354211e+00 1.590497e+00 1.638987e+00 1.221165e+00 1.499586e+00 4.757918e-01 1.246105e-01 1.169452e-01 2.023996e-01 2.418633e-01 3.415542e-01 3.206156e-01 3.880383e-01 3.113750e-01 3.592268e-01 3.663612e-01 2.903264e-01 3.467779e-01 8.472904e-02
<GCONST> 9.458589e+01
<TRANSP> 5
 0.000000e+00 1.000000e+00 0.000000e+00 0.000000e+00 0.000000e+00
 0.000000e+00 4.670419e-01 5.329581e-01 0.000000e+00 0.000000e+00
 0.000000e+00 0.000000e+00 6.124741e-01 3.875259e-01 0.000000e+00
 0.000000e+00 0.000000e+00 0.000000e+00 6.272973e-01 3.727027e-01
 0.000000e+00 0.000000e+00 0.000000e+00 0.000000e+00 0.000000e+00
<ENDHMM>
~h "i"
<BEGINHMM>
<NUMSTATES> 5
<STATE> 2
<MEAN> 39
 -3.593992e+00 2.354836e+00 5.306219e+00 4.556200e+00 3.358362e-01 -6.382580e+00 -5.777422e+00 -5.350532e+00 -6.961346e-01 1.897571e+00 -3.547601e-01 -1.456155e+00 6.148770e+01 6.453085e-01 1.646034e-01 -3.818092e-01 4.844556e-01 -5.163080e-02 -3.936978e-01 -5.586578e-01 -3.699617e-01 4.693489e-01 6.533997e-02 -6.522533e-01 2.224934e-01 7.016716e-02 -3.778296e-01 1.009236e-01 1.024234e-01 -3.523022e-01 7.352581e-02 3.261410e-01 3.230300e-01 2.768022e-01 -4.726754e-01 -3.136032e-01 2.798381e-01 1.203930e-01 -2.445662e-01
<VARIANCE> 39
 2.366498e+01 1.923682e+01 3.215842e+01 2.758512e+01 3.142567e+01 2.986171e+01 3.096818e+01 3.819192e+01 2.880839e+01 2.416736e+01 2.494852e+01 1.902814e+01 2.227035e+01 2.946960e+00 2.346381e+00 2.349293e+00 2.474432e+00 2.837899e+00 3.382843e+00 2.345756e+00 3.260501e+00 3.147018e+00 2.369762e+00 2.968949e+00 1.816593e+00 2.370296e+00 5.588942e-01 4.415139e-01 3.896587e-01 4.260097e-01 5.658315e-01 5.738657e-01 4.608500e-01 5.714999e-01 5.256659e-01 4.326694e-01 4.645972e-01 3.648188e-01 3.665516e-01
<GCONST> 1.169513e+02
<STATE> 3
<MEAN> 39
 -3.977474e+00 3.407975e+00 5.224332e+00 4.573470e+00 1.129155e+00 -5.727494e+00 -5.944584e+00 -4.758907e+00 -1.080746e+00 7.498685e-01 -6.526327e-01 -5.701324e-01 6.014934e+01 -2.590161e-01 5.289547e-01 -7.600390e-02 -3.459587e-01 2.909418e-01 5.606339e-01 1.795972e-01 2.284653e-01 -7.792004e-01 -5.289163e-01 2.701789e-01 2.969227e-01 -7.010097e-01 -3.470161e-01 -1.192049e-02 7.204188e-02 -3.518307e-01 9.805080e-03 2.365013e-01 3.259876e-01 2.050030e-01 -3.646261e-01 -1.381335e-01 3.023540e-01 -6.286910e-02 -1.066126e-01
<VARIANCE> 39
 2.118064e+01 1.660579e+01 2.776895e+01 3.011193e+01 2.965859e+01 3.015089e+01 3.285962e+01 3.718339e+01 3.648851e+01 2.523280e+01 2.646415e+01 1.617526e+01 2.285006e+01 2.375344e+00 2.011084e+00 2.351232e+00 2.125776e+00 2.895812e+00 2.614680e+00 2.319548e+00 2.804866e+00 2.633190e+00 2.087655e+00 2.319402e+00 1.641032e+00 2.375636e+00 5.087071e-01 3.980989e-01 3.545924e-01 4.655342e-01 5.478295e-01 6.061817e-01 4.165113e-01 5.822288e-01 5.864045e-01 4.376621e-01 5.095685e-01 3.376588e-01 3.981092e-01
<GCONST> 1.152041e+02
<STATE> 4
<MEAN> 39
 -6.214648e+00 5.090513e+00 5.267193e+00 3.219789e+00 1.655271e+00 -3.545552e+00 -5.263100e+00 -3.974090e+00 -3.272247e+00 -6.900343e-01 5.233479e-01 -2.197002e-01 5.675388e+01 -6.584036e-01 1.100736e-01 -1.847395e-01 -8.050389e-01 1.307733e-01 6.639435e-01 5.962899e-01 3.692936e-01 -8.374168e-01 -3.781310e-01 5.330861e-01 2.866550e-02 -5.091357e-01 -7.425050e-02 -2.245725e-01 -3.225442e-02 -1.545258e-01 -7.343753e-02 -5.535350e-02 1.411010e-01 9.169266e-02 8.219510e-02 1.134869e-01 4.171814e-02 -6.648050e-02 2.451852e-01
<VARIANCE> 39
 2.244469e+01 1.887928e+01 2.610163e+01 2.653194e+01 2.550751e+01 2.634874e+01 3.272716e+01 3.171966e+01 3.447482e+01 2.448455e+01 2.656900e+01 1.664016e+01 2.503647e+01 2.520940e+00 2.229030e+00 2.159306e+00 2.489167e+00 2.957798e+00 2.317573e+00 2.265321e+00 2.730177e+00 2.769279e+00 2.226444e+00 2.334849e+00 1.706939e+00 2.074153e+00 3.950288e-01 3.948578e-01 3.397925e-01 4.616547e-01 4.896600e-01 4.857400e-01 4.322306e-01 5.424288e-01 5.004291e-01 4.521710e-01 4.944315e-01 3.147383e-01 3.504317e-01
<GCONST> 1.138666e+02
<TRANSP> 5
 0.000000e+00 1.000000e+00 0.000000e+00 0.000000e+00 0.000000e+00
 0.000000e+00 4.355122e-01 5.644878e-01 0.000000e+00 0.000000e+00
 0.000000e+00 0.000000e+00 3.476304e-01 6.523696e-01 0.000000e+00
 0.000000e+00 0.000000e+00 0.000000e+00 4.958839e-01 5.041161e-01
 0.000000e+00 0.000000e+00 0.000000e+00 0.000000e+00 0.000000e+00
<ENDHMM>
~h "j"
<BEGINHMM>
<NUMSTATES> 5
<STATE> 2
<MEAN> 39
 -3.815619e+00 1.069583e+00 3.224797e+00 4.889754e+00 2.598408e-01 -6.621038e+00 -5.616827e+00 -3.887810e+00 1.235418e+00 2.428999e+00 -8.522087e-01 -1.931854e+00 6.161526e+01 5.226832e-01 -3.518399e-01 1.630656e-01 6.789638e-01 -6.156799e-01 -1.383066e+00 -3.775060e-01 8.828400e-02 4.671613e-01 7.161179e-02 -7.408618e-01 -1.218815e-01 7.356838e-01 -1.604198e-01 1.323488e-01 3.868459e-02 -2.356494e-01 5.710826e-02 2.749389e-01 2.745087e-01 1.740314e-01 -3.846385e-01 -1.622635e-01 1.489462e-01 1.478371e-01 -2.037090e-01
<VARIANCE> 39
 3.062101e+01 1.497148e+01 3.964896e+01 2.742247e+01 2.757006e+01 3.787174e+01 2.897785e+01 4.183979e+01 2.201871e+01 2.569843e+01 1.895628e+01 1.846642e+01 3.339868e+01 1.826573e+00 1.112122e+00 2.061107e+00 1.732356e+00 2.233538e+00 2.313730e+00 2.126123e+00 2.444921e+00 1.978240e+00 1.828017e+00 1.831572e+00 1.500285e+00 1.969460e+00 2.540794e-01 1.888590e-01 2.338733e-01 2.565236e-01 3.603884e-01 4.421655e-01 4.608546e-01 5.035015e-01 3.978114e-01 3.669066e-01 3.737809e-01 2.594748e-01 2.002233e-01
<GCONST> 1.077851e+02
<STATE> 3
<MEAN> 39
 -2.103376e+00 1.246084e+00 5.367574e+00 6.750322e+00 -2.398953e+00 -1.013732e+01 -5.429629e+00 -3.307140e+00 1.025567e+00 1.185379e+00 -2.885016e+00 -1.772924e+00 6.393420e+01 3.820962e-02 1.706472e-01 1.440790e-01 -4.697805e-02 -8.435481e-04 -8.884425e-02 -5.286910e-02 3.477654e-01 -1.952251e-01 -1.495759e-01 -9.046742e-02 2.350656e-01 -7.653715e-02 -1.678485e-01 2.432335e-01 1.806754e-02 -3.096454e-01 3.360238e-01 4.850742e-01 4.747923e-02 -2.745116e-02 -2.494580e-01 -8.340172e-03 3.018856e-01 7.672838e-02 -3.205915e-01
<VARIANCE> 39
 1.151167e+01 1.129459e+01 3.617277e+01 2.718363e+01 2.599890e+01 2.505619e+01 2.802282e+01 3.442975e+01 1.977533e+01 3.874973e+01 1.764685e+01 1.401050e+01 1.840829e+01 8.398172e-01 9.409657e-01 1.646774e+00 1.583772e+00 2.626093e+00 1.974872e+00 2.183465e+00 2.189536e+00 1.361570e+00 1.948509e+00 1.242962e+00 1.065324e+00 1.147570e+00 1.798570e-01 1.594093e-01 2.680894e-01 2.500438e-01 3.788666e-01 4.110325e-01 4.131824e-01 3.859447e-01 3.768174e-01 3.264172e-01 3.024112e-01 2.042357e-01 2.157658e-01
<GCONST> 1.008160e+02
<STATE> 4
<MEAN> 39
 -2.944780e+00 3.439702e+00 4.940111e+00 5.851686e+00 -2.738748e-01 -7.864335e+00 -6.348784e+00 -3.104553e+00 -2.656279e-01 6.738010e-01 -1.541905e+00 -4.620902e-01 6.062058e+01 -4.483603e-01 6.873952e-01 1.044620e-01 -7.453888e-01 6.545222e-01 9.081249e-01 -4.535500e-02 -4.541644e-02 -7.915584e-01 -9.794981e-02 6.849614e-01 1.979474e-01 -8.930696e-01 -2.149160e-01 3.951158e-02 6.990933e-02 -2.020462e-01 9.500842e-02 2.143555e-01 8.381637e-02 -1.068103e-01 -2.048830e-01 -2.505826e-02 2.023872e-01 -7.663266e-02 -9.731112e-02
<VARIANCE> 39
 1.784298e+01 1.279027e+01 3.113035e+01 2.691123e+01 2.070330e+01 2.904453e+01 2.771261e+01 3.525405e+01 2.148838e+01 3.208756e+01 1.986331e+01 1.378016e+01 3.019449e+01 9.271764e-01 1.260466e+00 1.637358e+00 1.532500e+00 2.615348e+00 1.980871e+00 2.263089e+00 2.450000e+00 1.866294e+00 2.132873e+00 1.616632e+00 1.239303e+00 1.600628e+00 1.998253e-01 2.828154e-01 3.710718e-01 3.333732e-01 4.981074e-01 4.553313e-01 4.349877e-01 5.215747e-01 3.637638e-01 4.038472e-01 3.081135e-01 3.086790e-01 3.987317e-01
<GCONST> 1.065376e+02
<TRANSP> 5
 0.000000e+00 1.000000e+00 0.000000e+00 0.000000e+00 0.000000e+00
 0.000000e+00 5.741786e-01 4.258214e-01 0.000000e+00 0.000000e+00
 0.000000e+00 0.000000e+00 5.897723e-01 4.102277e-01 0.000000e+00
 0.000000e+00 0.000000e+00 0.000000e+00 5.528014e-01 4.471986e-01
 0.000000e+00 0.000000e+00 0.000000e+00 0.000000e+00 0.000000e+00
<ENDHMM>
~h "k"
<BEGINHMM>
<NUMSTATES> 5
<STATE> 2
<MEAN> 39
 -1.279449e+01 3.434570e+00 2.832665e+00 -7.105453e-03 5.539647e+00 -7.096324e-01 -3.786726e+00 -6.100547e-01 -2.462775e+00 -1.544923e+00 2.552018e+00 -3.910336e-01 5.274426e+01 4.936169e-02 -1.423710e+00 -9.898176e-01 -6.289204e-01 -3.024925e-01 3.344497e-02 -2.095768e-01 5.194724e-01 4.484147e-01 9.021931e-03 5.552775e-01 -3.211148e-01 6.692604e-01 2.297355e-02 -3.924412e-01 -5.135591e-02 -3.417168e-01 1.048871e-01 -5.643322e-02 -1.887801e-01 1.088841e-01 -1.822938e-02 3.486845e-02 2.202030e-01 -3.807507e-02 5.813280e-01
<VARIANCE> 39
 1.652730e+01 2.300587e+01 2.259991e+01 3.365491e+01 2.858271e+01 2.741308e+01 2.951999e+01 2.345219e+01 2.078665e+01 2.261604e+01 2.197254e+01 1.569121e+01 1.223340e+01 1.122063e+00 3.930561e+00 3.107612e+00 3.851358e+00 3.764233e+00 3.098000e+00 3.435709e+00 3.030328e+00 2.764796e+00 2.543285e+00 3.184802e+00 1.656988e+00 3.073466e+00 2.072034e-01 7.422997e-01 5.427283e-01 6.498135e-01 5.576169e-01 4.702114e-01 5.912233e-01 5.138627e-01 4.481174e-01 4.411620e-01 6.169128e-01 3.430396e-01 5.041997e-01
<GCONST> 1.161550e+02
<STATE> 3
<MEAN> 39
 -1.248479e+01 -2.524060e+00 -6.091782e-01 -5.243367e+00 5.297472e+00 -7.238320e-01 -5.747252e+00 1.399864e+00 -1.835615e+00 -2.060414e+00 6.432150e+00 -1.331297e+00 5.775573e+01 6.812440e-01 -2.463380e-01 2.172087e-01 -2.381856e-01 -4.331238e-01 3.641885e-02 -1.372096e-01 3.399217e-01 1.678715e-01 1.879539e-01 8.785102e-02 5.226813e-02 6.668085e-01 4.470360e-01 7.894078e-01 4.845406e-01 5.951165e-01 -1.085583e-01 -5.870993e-02 2.139003e-01 -3.495594e-01 -7.524662e-02 2.398879e-01 -6.805925e-01 1.750955e-01 -1.993345e-01
<VARIANCE> 39
 1.530125e+01 2.559792e+01 4.238682e+01 5.643750e+01 3.954794e+01 3.998322e+01 3.569922e+01 3.982071e+01 2.908777e+01 3.195811e+01 2.801720e+01 2.163354e+01 2.136002e+01 2.056015e+00 4.344345e+00 4.578014e+00 6.928170e+00 3.535324e+00 3.068486e+00 3.663819e+00 3.331557e+00 2.485495e+00 2.786256e+00 4.067986e+00 1.875675e+00 2.487835e+00 3.400038e-01 7.157584e-01 8.352339e-01 1.272042e+00 6.899854e-01 6.415932e-01 6.721982e-01 8.195558e-01 4.626067e-01 6.051344e-01 7.340013e-01 3.865622e-01 5.694328e-01
<GCONST> 1.259079e+02
<STATE> 4
<MEAN> 39
 -1.152941e+01 -2.225028e-01 7.894436e-01 -7.487350e-01 4.235413e+00 1.106761e+00 -2.685610e+00 2.126269e+00 8.562433e-01 1.248084e+00 3.545887e+00 2.525486e-01 5.433665e+01 1.163902e+00 5.388228e-01 1.056302e-01 3.068597e-01 -3.450737e-01 -7.732994e-02 3.210164e-01 -3.690566e-01 -2.298019e-02 5.001773e-01 -8.245632e-01 2.558059e-01 5.246111e-01 1.306556e-01 3.978202e-02 -8.791040e-02 -5.830276e-02 -4.534798e-02 -1.076467e-01 -4.745891e-03 -1.591261e-01 -1.072282e-01 -6.401822e-03 -8.610632e-02 2.431532e-02 1.524756e-01
<VARIANCE> 39
 2.870601e+01 2.040047e+01 2.703119e+01 3.718748e+01 2.783502e+01 3.040197e+01 3.814793e+01 2.843836e+01 2.799358e+01 2.805441e+01 2.593150e+01 2.082080e+01 2.774157e+01 3.360973e+00 2.106475e+00 2.553621e+00 4.199250e+00 2.360521e+00 2.348408e+00 2.439350e+00 2.806568e+00 1.892517e+00 2.768725e+00 3.588292e+00 2.055543e+00 2.123197e+00 3.380278e-01 4.257148e-01 4.440872e-01 8.218221e-01 5.081330e-01 3.905707e-01 4.721159e-01 5.225833e-01 3.718607e-01 4.508286e-01 6.001894e-01 3.382358e-01 3.227640e-01
<GCONST> 1.168722e+02
<TRANSP> 5
 0.000000e+00 1.000000e+00 0.000000e+00 0.000000e+00 0.000000e+00
 0.000000e+00 6.215035e-01 3.784965e-01 0.000000e+00 0.000000e+00
 0.000000e+00 0.000000e+00 5.707024e-01 4.292976e-01 0.000000e+00
 0.000000e+00 0.000000e+00 0.000000e+00 6.671683e-01 3.328317e-01
 0.000000e+00 0.000000e+00 0.000000e+00 0.000000e+00 0.000000e+00
<ENDHMM>
~h "l"
<BEGINHMM>
<NUMSTATES> 5
<STATE> 2
<MEAN> 39
 1.741076e+00 2.059495e+00 -9.655766e-01 -5.733413e+00 -6.859853e+00 -2.855382e+00 5.999959e+00 4.669237e-01 -1.135999e+01 -8.370388e-01 4.218846e+00 3.270421e+00 6.404093e+01 1.120170e+00 -5.829083e-02 -6.582208e-01 -1.416071e-01 -1.198594e+00 -3.721457e-01 8.474838e-01 1.948636e-01 -9.581129e-01 -1.447017e-01 8.544157e-02 2.383772e-01 4.410860e-01 -5.583814e-01 3.283924e-02 1.984152e-01 1.048882e-01 5.687913e-01 1.440937e-01 -4.242449e-01 -9.562079e-02 3.723616e-01 7.115812e-02 -5.834583e-02 -1.546399e-01 -2.633233e-01
<VARIANCE> 39
 1.265101e+01 1.495802e+01 1.648536e+01 4.347331e+01 3.289643e+01 2.289817e+01 2.705986e+01 5.034062e+01 2.683462e+01 2.623748e+01 2.714036e+01 1.883998e+01 9.704334e+00 1.834275e+00 1.235038e+00 1.426071e+00 3.804506e+00 3.067244e+00 2.171645e+00 2.381836e+00 2.813065e+00 2.346632e+00 2.424087e+00 2.258941e+00 1.557005e+00 1.639449e+00 2.496134e-01 3.191459e-01 2.904700e-01 5.113841e-01 4.817857e-01 4.666884e-01 4.069520e-01 5.370658e-01 4.812316e-01 4.565538e-01 4.443070e-01 2.973407e-01 2.248714e-01
<GCONST> 1.097186e+02
<STATE> 3
<MEAN> 39
 2.411399e+00 2.696378e+00 -2.105609e+00 -6.590343e+00 -6.769782e+00 -2.547184e+00 6.013724e+00 9.969826e-01 -1.155573e+01 -1.042158e+00 4.389750e+00 3.471095e+00 6.399585e+01 -2.257817e-01 2.647062e-01 5.663069e-02 -3.402458e-02 7.154887e-01 3.632435e-01 -6.685321e-01 -3.694962e-01 4.507025e-01 1.323270e-01 -1.217831e-01 8.222484e-02 -2.179133e-01 -2.871500e-01 7.776352e-02 2.210571e-01 1.331398e-01 3.704626e-01 1.314120e-01 -3.725213e-01 -1.391177e-01 3.785356e-01 4.496932e-02 -1.100471e-01 -1.569974e-01 -1.502883e-01
<VARIANCE> 39
 8.757073e+00 1.751955e+01 1.346655e+01 5.009356e+01 3.155437e+01 2.094952e+01 2.535251e+01 5.431037e+01 2.946413e+01 2.882016e+01 2.766364e+01 1.987385e+01 8.846080e+00 4.452885e-01 1.032588e+00 9.521542e-01 2.773999e+00 2.264253e+00 1.667898e+00 1.981771e+00 3.270920e+00 2.142817e+00 2.344957e+00 1.645029e+00 1.172695e+00 7.036112e-01 1.342054e-01 1.987479e-01 1.921084e-01 4.271058e-01 4.053633e-01 3.058022e-01 3.334325e-01 4.516514e-01 4.677177e-01 4.173500e-01 3.473515e-01 2.919325e-01 1.697316e-01
<GCONST> 1.016904e+02
<STATE> 4
<MEAN> 39
 -4.098675e-01 3.386498e+00 -8.032539e-01 -5.163723e+00 -2.962677e+00 -8.121120e-01 1.951042e+00 -1.711335e+00 -8.535404e+00 2.188662e-01 3.783372e+00 2.796346e+00 6.197202e+01 -7.274494e-01 3.603372e-01 3.987918e-01 5.812126e-01 8.943834e-01 2.393525e-01 -9.800621e-01 -3.747506e-01 9.838658e-01 3.479752e-02 -4.249538e-01 -4.425161e-01 -6.510178e-01 -1.494161e-01 1.368082e-02 1.026795e-01 7.242651e-02 -2.587260e-02 -9.651589e-02 7.300841e-02 1.443154e-01 -2.184825e-03 -1.251972e-01 -1.500006e-02 -1.193098e-01 -8.839066e-02
<VARIANCE> 39
 1.667750e+01 2.017828e+01 1.456579e+01 5.538188e+01 3.111882e+01 2.056243e+01 3.453257e+01 5.282542e+01 2.595238e+01 3.684056e+01 2.954371e+01 2.193245e+01 1.853355e+01 9.383805e-01 1.142717e+00 1.364089e+00 2.022008e+00 2.468800e+00 1.940917e+00 2.524999e+00 2.843974e+00 2.804984e+00 2.345754e+00 2.073918e+00 1.693553e+00 1.249339e+00 1.569966e-01 2.309746e-01 2.410336e-01 4.654082e-01 4.069112e-01 3.478212e-01 3.851475e-01 4.779592e-01 4.184788e-01 5.047518e-01 3.557961e-01 3.108183e-01 2.220249e-01
<GCONST> 1.079869e+02
<TRANSP> 5
 0.000000e+00 1.000000e+00 0.000000e+00 0.000000e+00 0.000000e+00
 0.000000e+00 6.277186e-01 3.722814e-01 0.000000e+00 0.000000e+00
 0.000000e+00 0.000000e+00 6.311010e-01 3.688990e-01 0.000000e+00
 0.000000e+00 0.000000e+00 0.000000e+00 6.376534e-01 3.623466e-01
 0.000000e+00 0.000000e+00 0.000000e+00 0.000000e+00 0.000000e+00
<ENDHMM>
~h "m"
<BEGINHMM>
<NUMSTATES> 5
<STATE> 2
<MEAN> 39
 -4.988275e-01 8.904059e+00 3.288599e+00 3.366426e+00 3.271657e+00 -2.644762e+00 -6.840254e-01 -1.124364e+00 -8.048761e+00 -3.579384e+00 1.236249e+00 1.194067e+00 5.864674e+01 -3.994853e-02 4.642819e-01 5.473312e-01 5.928643e-01 1.060956e-01 -9.420643e-02 6.693877e-02 1.623627e-01 -7.543458e-01 -5.034047e-01 2.974057e-02 8.284901e-02 -3.368141e-01 -8.546441e-02 -2.560204e-01 -9.524114e-02 -1.411919e-01 -1.690155e-01 -9.311689e-03 5.166087e-02 -9.120873e-02 3.202659e-01 2.298735e-01 -3.234135e-02 -1.226031e-01 1.456631e-01
<VARIANCE> 39
 4.791936e+00 4.963534e+00 1.224658e+01 1.353140e+01 1.272899e+01 1.361068e+01 2.236219e+01 1.359684e+01 2.279202e+01 1.651861e+01 1.399013e+01 1.402744e+01 5.231429e+00 5.930536e-01 6.033828e-01 1.174062e+00 1.167657e+00 1.066993e+00 1.291426e+00 1.036564e+00 1.230712e+00 2.119969e+00 1.498645e+00 9.116767e-01 1.149624e+00 5.125092e-01 9.351825e-02 1.435988e-01 2.341340e-01 2.587824e-01 2.097519e-01 2.393489e-01 2.060695e-01 2.203846e-01 3.502492e-01 2.894674e-01 1.893002e-01 2.371631e-01 6.380857e-02
<GCONST> 8.273814e+01
<STATE> 3
<MEAN> 39
 -1.338500e+00 9.534410e+00 4.788108e+00 4.424553e+00 2.127396e+00 -2.526318e+00 6.381391e-01 -9.500170e-01 -8.527722e+00 -3.615883e+00 9.515728e-01 4.822457e-01 5.768466e+01 -1.636579e-01 -7.912838e-02 -5.331412e-02 -2.542708e-01 -3.018897e-01 2.702388e-01 1.203088e-01 -1.409753e-02 4.766385e-01 2.671162e-01 -8.438980e-02 -1.554093e-01 -8.464283e-02 -9.792528e-02 -1.954327e-01 -1.115493e-01 -2.762760e-01 -4.718001e-02 1.404640e-01 -1.109409e-02 -1.083250e-03 2.773813e-01 1.228308e-01 -1.750543e-02 -3.706070e-02 9.224839e-02
<VARIANCE> 39
 7.587753e+00 6.759003e+00 1.427329e+01 1.833854e+01 1.979600e+01 1.529615e+01 2.895170e+01 1.362745e+01 2.037583e+01 1.518040e+01 1.250360e+01 1.512664e+01 8.703105e+00 5.418778e-01 6.404274e-01 1.145501e+00 1.522297e+00 1.347602e+00 1.197018e+00 1.390214e+00 1.055358e+00 1.525604e+00 1.310410e+00 9.140236e-01 1.188410e+00 4.993644e-01 1.021728e-01 1.625137e-01 2.410003e-01 3.710462e-01 3.080920e-01 2.645809e-01 3.053551e-01 2.138728e-01 3.549284e-01 2.679721e-01 1.585393e-01 2.368948e-01 7.280137e-02
<GCONST> 8.645086e+01
<STATE> 4
<MEAN> 39
 -7.031644e+00 5.993920e+00 3.110972e+00 2.597623e+00 2.618618e+00 1.484474e+00 -1.702640e-01 -4.868607e-01 -2.912322e+00 -7.567052e-01 4.606589e-01 -8.463845e-01 5.413941e+01 -3.442142e-01 -4.202439e-01 -7.962860e-02 -3.636433e-01 -1.544773e-01 1.704564e-01 4.382250e-02 4.803278e-02 4.320802e-01 1.618927e-01 -1.944201e-02 -1.184333e-01 4.488136e-02 -4.273213e-02 -7.816831e-02 3.637808e-02 -6.632216e-02 3.091641e-02 -7.094194e-02 -5.087782e-03 -2.395868e-02 -4.640119e-02 -5.271867e-02 4.162912e-02 2.015575e-03 1.208876e-01
<VARIANCE> 39
 3.223806e+01 3.052373e+01 3.340773e+01 2.619023e+01 1.726314e+01 2.295471e+01 2.399336e+01 2.229339e+01 2.761803e+01 2.167143e+01 1.547958e+01 1.437868e+01 2.538980e+01 1.030955e+00 1.202971e+00 1.835734e+00 2.467471e+00 1.604850e+00 1.746179e+00 1.904553e+00 1.635131e+00 1.837829e+00 1.781260e+00 1.317880e+00 1.257465e+00 7.607514e-01 1.634824e-01 2.240046e-01 2.659877e-01 3.438165e-01 3.318572e-01 3.247647e-01 3.657631e-01 3.543025e-01 2.948658e-01 3.148467e-01 2.314243e-01 2.428731e-01 1.268224e-01
<GCONST> 1.006604e+02
<TRANSP> 5
 0.000000e+00 1.000000e+00 0.000000e+00 0.000000e+00 0.000000e+00
 0.000000e+00 7.540300e-01 2.459700e-01 0.000000e+00 0.000000e+00
 0.000000e+00 0.000000e+00 6.467364e-01 3.532636e-01 0.000000e+00
 0.000000e+00 0.000000e+00 0.000000e+00 7.207230e-01 2.792769e-01
 0.000000e+00 0.000000e+00 0.000000e+00 0.000000e+00 0.000000e+00
<ENDHMM>
~h "n"
<BEGINHMM>
<NUMSTATES> 5
<STATE> 2
<MEAN> 39
 -2.229829e+00 7.089781e+00 4.244740e+00 2.174997e+00 2.584761e-01 -2.199708e+00 2.289515e+00 8.929062e-02 -7.081821e+00 -1.604848e+00 3.126723e+00 -8.932222e-03 5.900717e+01 2.886472e-01 5.521689e-01 3.809034e-01 6.285613e-01 -3.064220e-01 1.107697e-02 3.441413e-01 5.224708e-02 -7.846375e-01 -2.938317e-01 1.869590e-01 -1.352603e-01 -2.948210e-01 -1.157498e-01 -2.385405e-01 -1.888129e-01 -3.395044e-01 4.989374e-02 1.075461e-03 -6.365491e-02 -5.845860e-02 3.373588e-01 1.263495e-01 -8.367892e-02 -2.858396e-02 2.102799e-01
<VARIANCE> 39
 1.529792e+01 1.527559e+01 1.851648e+01 2.848072e+01 1.622583e+01 1.710594e+01 2.034055e+01 1.562099e+01 3.435471e+01 1.565096e+01 1.651859e+01 1.202856e+01 1.242966e+01 1.413923e+00 1.488408e+00 2.246612e+00 2.311979e+00 1.792306e+00 1.883648e+00 1.542081e+00 1.721823e+00 2.725849e+00 1.647037e+00 1.793678e+00 1.397070e+00 1.100694e+00 1.688652e-01 3.039169e-01 3.415014e-01 3.815159e-01 3.763499e-01 3.798702e-01 2.909603e-01 3.424601e-01 5.781268e-01 3.487822e-01 3.165968e-01 2.813139e-01 2.106946e-01
<GCONST> 1.011506e+02
<STATE> 3
<MEAN> 39
 -1.779131e+00 7.815236e+00 4.514959e+00 2.402592e+00 -4.192612e-01 -2.331703e+00 2.985910e+00 1.567668e-01 -8.174621e+00 -1.762945e+00 3.418511e+00 -5.983362e-01 5.904111e+01 1.126634e-01 -3.163148e-01 -4.117775e-01 -3.865384e-01 -1.685935e-01 3.240929e-01 9.175331e-02 -2.590675e-01 4.818799e-01 2.898195e-01 -1.022393e-01 -1.309421e-01 3.145679e-01 -1.850200e-01 -3.006788e-01 -3.144177e-01 -4.616266e-01 2.347227e-01 1.047714e-01 -1.334820e-01 -1.062440e-01 5.233223e-01 1.864376e-01 -1.102894e-01 2.816193e-02 2.118860e-01
<VARIANCE> 39
 1.057893e+01 1.559870e+01 1.726223e+01 2.545789e+01 1.670213e+01 1.667718e+01 1.856832e+01 1.474632e+01 3.105288e+01 1.513458e+01 1.587170e+01 1.308749e+01 1.257369e+01 1.130003e+00 2.058297e+00 2.016822e+00 2.139091e+00 1.953675e+00 1.909594e+00 1.503443e+00 1.719931e+00 2.596414e+00 1.752257e+00 1.375074e+00 1.384660e+00 1.340813e+00 2.040825e-01 3.314524e-01 4.041769e-01 4.160928e-01 4.332779e-01 3.635464e-01 2.891502e-01 3.891990e-01 6.125365e-01 3.297630e-01 2.871788e-01 2.536144e-01 1.785376e-01
<GCONST> 1.007052e+02
<STATE> 4
<MEAN> 39
 -4.975332e+00 4.862440e+00 1.832323e+00 1.524825e+00 7.867662e-01 2.812256e-01 2.016850e+00 -2.103468e-01 -2.976476e+00 -1.089966e-01 1.925180e+00 -5.784345e-01 5.711153e+01 -1.662478e-01 -4.542007e-01 -6.653994e-01 -8.631675e-01 3.947888e-01 2.691295e-01 -1.384394e-01 -2.197199e-01 7.954176e-01 3.879686e-01 -1.703568e-01 -5.777183e-02 4.338298e-01 -1.471073e-01 5.016680e-02 2.576604e-02 -1.450041e-01 1.920432e-01 -7.635057e-02 -8.091545e-02 1.061381e-01 -6.421859e-02 -2.727941e-02 2.879360e-03 -7.878342e-03 -9.853900e-03
<VARIANCE> 39
 3.464114e+01 2.036905e+01 2.434615e+01 2.941051e+01 2.117422e+01 2.289929e+01 1.979496e+01 1.992955e+01 3.797372e+01 1.821498e+01 1.900475e+01 1.599156e+01 4.046176e+01 1.366920e+00 1.600274e+00 2.384213e+00 2.930170e+00 2.612353e+00 1.812714e+00 1.715636e+00 2.047680e+00 3.109523e+00 1.922004e+00 1.422394e+00 1.363066e+00 1.306560e+00 2.180943e-01 2.922978e-01 3.466352e-01 3.766134e-01 4.532230e-01 3.583041e-01 3.382880e-01 4.041621e-01 5.793122e-01 3.510279e-01 2.759942e-01 2.567061e-01 1.815800e-01
<GCONST> 1.066409e+02
<TRANSP> 5
 0.000000e+00 1.000000e+00 0.000000e+00 0.000000e+00 0.000000e+00
 0.000000e+00 5.263969e-01 4.736031e-01 0.000000e+00 0.000000e+00
 0.000000e+00 0.000000e+00 4.760503e-01 5.239497e-01 0.000000e+00
 0.000000e+00 0.000000e+00 0.000000e+00 6.148097e-01 3.851903e-01
 0.000000e+00 0.000000e+00 0.000000e+00 0.000000e+00 0.000000e+00
<ENDHMM>
~h "o"
<BEGINHMM>
<NUMSTATES> 5
<STATE> 2
<MEAN> 39
 -1.147246e+00 3.748933e+00 -8.720668e-02 -3.925603e+00 -1.722080e+00 -5.512798e-02 1.791206e+00 -4.418152e+00 -7.438226e+00 -7.444221e-01 2.388485e+00 3.533017e+00 6.148007e+01 8.842987e-01 9.353462e-01 -6.201157e-02 -4.144124e-01 -6.783693e-01 3.443033e-01 3.767448e-01 -1.586049e-01 -2.642863e-01 -5.759478e-01 -4.766787e-01 6.538969e-01 -1.736484e-02 -4.905514e-01 -9.517974e-03 2.654241e-01 2.077438e-01 3.257467e-01 -4.034632e-02 -2.762777e-01 2.340853e-01 9.487956e-02 -2.147425e-01 3.200691e-02 -1.931399e-01 -2.741507e-01
<VARIANCE> 39
 2.248710e+01 1.668992e+01 1.817038e+01 3.934409e+01 3.801881e+01 2.473896e+01 3.768748e+01 3.825420e+01 3.154520e+01 2.210416e+01 2.732509e+01 2.000126e+01 1.980404e+01 3.093185e+00 2.064214e+00 1.881427e+00 3.170614e+00 3.898528e+00 2.841744e+00 2.938967e+00 2.996682e+00 2.510898e+00 2.308401e+00 2.570365e+00 2.062434e+00 2.227840e+00 4.729068e-01 4.229357e-01 3.710483e-01 5.507623e-01 7.215250e-01 4.733805e-01 5.586434e-01 6.042932e-01 4.961716e-01 4.760514e-01 5.557256e-01 3.985638e-01 3.145634e-01
<GCONST> 1.171160e+02
<STATE> 3
<MEAN> 39
 -7.468603e-01 5.210557e+00 3.170056e-01 -4.057945e+00 -2.595341e+00 5.418735e-01 2.055244e+00 -3.973114e+00 -7.417684e+00 -2.178945e+00 1.302829e+00 4.402612e+00 6.059940e+01 -3.201761e-01 6.194680e-01 5.233259e-01 3.239018e-01 4.509865e-01 3.824516e-01 -4.669346e-01 2.133231e-01 5.459985e-02 -7.509124e-01 -1.344768e-01 -1.330343e-01 -5.897092e-01 -6.328203e-01 -2.730808e-01 2.362435e-01 2.136214e-01 5.144793e-01 -1.429462e-01 -3.001898e-01 1.357992e-01 1.370025e-01 4.363463e-02 2.152556e-01 -4.033359e-01 -9.238236e-02
<VARIANCE> 39
 1.953594e+01 1.239017e+01 1.697720e+01 3.593585e+01 3.941573e+01 2.077475e+01 3.157317e+01 3.474237e+01 2.783543e+01 2.043910e+01 2.409258e+01 2.083256e+01 1.884303e+01 2.725420e+00 1.709663e+00 1.708771e+00 2.626321e+00 3.993417e+00 2.146695e+00 2.925660e+00 2.924633e+00 2.597353e+00 2.494494e+00 2.586390e+00 1.996027e+00 2.118722e+00 5.169696e-01 3.051336e-01 3.332663e-01 5.049248e-01 8.091177e-01 4.587383e-01 4.918436e-01 5.066060e-01 4.210097e-01 4.034679e-01 4.391055e-01 4.224572e-01 3.174471e-01
<GCONST> 1.137683e+02
<STATE> 4
<MEAN> 39
 -3.386878e+00 5.858042e+00 1.360849e+00 -2.499761e+00 -4.120740e-01 1.695697e+00 3.213826e-01 -3.152305e+00 -6.386490e+00 -3.203537e+00 1.622264e+00 2.986899e+00 5.785264e+01 -1.156905e+00 -7.006834e-02 6.905274e-01 4.236118e-01 1.098463e+00 9.227955e-03 -6.702088e-01 2.708414e-01 3.578442e-01 -2.400138e-01 2.874672e-01 -6.691230e-01 -3.688553e-01 -3.202041e-01 -3.215892e-01 7.480428e-02 -1.028876e-01 6.783214e-02 -2.663192e-01 -3.268528e-03 1.878173e-02 7.635914e-02 2.170359e-01 1.363558e-01 -1.403794e-01 2.670852e-01
<VARIANCE> 39
 2.443596e+01 1.350794e+01 1.873663e+01 3.094039e+01 3.628601e+01 2.094410e+01 3.006806e+01 3.157920e+01 2.621272e+01 2.424872e+01 2.208248e+01 1.698146e+01 2.253914e+01 3.197096e+00 1.835006e+00 2.108084e+00 2.821446e+00 4.279278e+00 2.194716e+00 2.743253e+00 2.466554e+00 2.673667e+00 2.345330e+00 2.485512e+00 2.075710e+00 1.988745e+00 4.754722e-01 2.766152e-01 3.351661e-01 4.329163e-01 5.729731e-01 4.451518e-01 4.536901e-01 4.979452e-01 4.013260e-01 4.024274e-01 3.772048e-01 3.936695e-01 3.323120e-01
<GCONST> 1.130485e+02
<TRANSP> 5
 0.000000e+00 1.000000e+00 0.000000e+00 0.000000e+00 0.000000e+00
 0.000000e+00 3.610683e-01 6.389318e-01 0.000000e+00 0.000000e+00
 0.000000e+00 0.000000e+00 2.880106e-01 7.119894e-01 0.000000e+00
 0.000000e+00 0.000000e+00 0.000000e+00 3.950683e-01 6.049317e-01
 0.000000e+00 0.000000e+00 0.000000e+00 0.000000e+00 0.000000e+00
<ENDHMM>
~h "p"
<BEGINHMM>
<NUMSTATES> 5
<STATE> 2
<MEAN> 39
 -1.043510e+01 5.835196e+00 1.923004e+00 9.466021e-01 1.715977e+00 1.062097e+00 -1.584323e+00 -1.874275e+00 -3.448389e+00 -1.808155e+00 8.133693e-01 1.236729e+00 5.083829e+01 -4.378236e-01 -3.383359e-01 -7.753643e-02 8.215889e-02 -6.475268e-02 -8.207753e-03 -3.422950e-02 1.288534e-01 1.747096e-01 2.699336e-01 2.576254e-01 4.912614e-02 -2.478432e-01 1.807450e-01 -2.795307e-01 -7.006616e-02 -2.352867e-01 4.534202e-03 7.845850e-03 5.340908e-02 6.237037e-02 1.566675e-02 1.786342e-01 2.395970e-01 3.131343e-02 4.602775e-01
<VARIANCE> 39
 1.505207e+01 1.314445e+01 1.516278e+01 1.656030e+01 1.823398e+01 1.592299e+01 1.861911e+01 2.799766e+01 3.010206e+01 2.282838e+01 1.604965e+01 1.226291e+01 5.097001e+00 5.540415e-01 9.471235e-01 6.968814e-01 1.164400e+00 9.913701e-01 1.164191e+00 1.307621e+00 1.466554e+00 1.232111e+00 1.528555e+00 1.662546e+00 1.071732e+00 1.060279e+00 1.304155e-01 1.969230e-01 1.538448e-01 2.459363e-01 2.386309e-01 2.528885e-01 3.030138e-01 3.071743e-01 2.681165e-01 3.505836e-01 3.585750e-01 2.311299e-01 1.952734e-01
<GCONST> 9.046470e+01
<STATE> 3
<MEAN> 39
 -1.109161e+01 4.387837e+00 2.072687e+00 1.719407e-01 1.417320e+00 1.159992e+00 -1.531891e+00 -1.625388e+00 -3.887738e+00 -9.247072e-01 2.765526e+00 1.363544e+00 5.167759e+01 6.892653e-01 -1.921175e+00 -5.716041e-01 -1.422220e+00 1.808160e-01 3.225263e-01 2.996355e-01 5.576411e-01 4.117582e-02 9.645381e-01 1.537932e+00 1.116719e-01 2.369285e+00 6.356345e-01 -1.682342e-02 -7.173108e-02 -3.033140e-01 -1.253798e-01 -1.934227e-01 1.426135e-01 1.650582e-02 -2.658500e-01 -1.732052e-02 -2.112398e-01 2.154503e-03 6.778246e-01
<VARIANCE> 39
 1.223491e+01 1.338133e+01 1.058350e+01 1.467226e+01 1.473096e+01 1.425260e+01 2.127874e+01 2.604754e+01 2.495794e+01 2.131566e+01 1.912998e+01 1.690368e+01 1.134174e+01 2.356880e+00 1.803294e+00 2.126774e+00 2.194716e+00 2.429379e+00 2.197866e+00 3.163828e+00 2.843726e+00 2.557030e+00 1.984571e+00 3.279715e+00 1.748119e+00 1.476536e+00 3.206155e-01 3.980863e-01 3.198901e-01 3.498786e-01 4.231294e-01 3.738393e-01 4.623344e-01 5.922882e-01 3.861406e-01 4.207481e-01 5.773754e-01 2.936271e-01 2.733438e-01
<GCONST> 1.063121e+02
<STATE> 4
<MEAN> 39
 -8.399068e+00 -1.736608e-01 1.955089e-01 -3.730112e+00 1.275150e+00 1.991633e+00 -5.600579e-01 -8.264289e-01 -4.040656e+00 9.232648e-01 5.495285e+00 1.691672e+00 5.823445e+01 1.958122e+00 -6.017781e-01 -2.497157e-01 -1.196291e+00 -4.915392e-01 -4.375967e-01 3.860150e-01 7.874786e-04 -6.588272e-01 5.565135e-01 -1.592035e-02 8.348709e-02 2.503407e+00 2.278807e-01 5.829252e-01 2.415166e-01 3.971872e-01 -1.850668e-01 -3.999015e-01 3.020545e-02 -2.503404e-01 -1.869609e-01 -2.307395e-01 -6.731161e-01 -2.407717e-03 -2.224145e-01
<VARIANCE> 39
 2.073118e+01 2.152493e+01 1.701975e+01 2.124767e+01 1.906643e+01 2.124932e+01 2.684152e+01 3.597075e+01 2.829277e+01 2.387809e+01 2.727119e+01 1.268870e+01 1.964997e+01 4.954175e+00 4.015047e+00 3.477392e+00 4.520442e+00 4.350743e+00 2.777752e+00 4.456453e+00 5.669220e+00 4.026228e+00 3.752287e+00 4.475888e+00 1.912166e+00 2.483412e+00 5.501413e-01 5.613223e-01 5.498630e-01 5.070260e-01 6.737154e-01 5.251300e-01 6.793864e-01 1.102420e+00 6.033279e-01 5.528701e-01 8.059852e-01 3.218557e-01 4.307685e-01
<GCONST> 1.220542e+02
<TRANSP> 5
 0.000000e+00 1.000000e+00 0.000000e+00 0.000000e+00 0.000000e+00
 0.000000e+00 8.179827e-01 1.820173e-01 0.000000e+00 0.000000e+00
 0.000000e+00 0.000000e+00 2.843049e-01 7.156951e-01 0.000000e+00
 0.000000e+00 0.000000e+00 0.000000e+00 4.272941e-01 5.727059e-01
 0.000000e+00 0.000000e+00 0.000000e+00 0.000000e+00 0.000000e+00
<ENDHMM>
~h "r"
<BEGINHMM>
<NUMSTATES> 5
<STATE> 2
<MEAN> 39
 -5.463161e+00 -1.370762e+00 1.669389e+00 -3.517575e+00 1.590224e+00 -1.087830e+00 -1.545702e+00 -1.224410e+00 -5.792209e+00 2.925956e+00 4.702593e+00 8.932919e-01 6.317443e+01 1.058310e+00 -6.690608e-01 -5.902792e-01 4.556387e-01 -2.730541e-02 -1.101718e+00 -1.698039e-01 -6.503867e-01 -7.361462e-01 4.596125e-01 7.047823e-02 9.289916e-02 1.217780e+00 -5.948914e-02 2.778767e-01 -1.319774e-01 2.747251e-01 8.492941e-02 -3.951200e-02 4.287317e-02 -1.046687e-01 4.434463e-02 -1.177648e-01 -1.850549e-01 -6.622266e-03 -3.519326e-01
<VARIANCE> 39
 3.233525e+01 2.517009e+01 2.965989e+01 4.129468e+01 2.953676e+01 3.325975e+01 3.072095e+01 3.029006e+01 4.370206e+01 3.147563e+01 2.751770e+01 2.125475e+01 2.337205e+01 4.108890e+00 3.130480e+00 3.647189e+00 5.052410e+00 4.285705e+00 3.781589e+00 3.454494e+00 3.044364e+00 3.922430e+00 3.498940e+00 3.954620e+00 2.075496e+00 2.808669e+00 9.010026e-01 6.371788e-01 6.907383e-01 1.147269e+00 8.435749e-01 6.673543e-01 5.957991e-01 6.587639e-01 8.425747e-01 7.344873e-01 8.347511e-01 5.012844e-01 5.440041e-01
<GCONST> 1.280712e+02
<STATE> 3
<MEAN> 39
 -3.200920e+00 -1.919716e+00 -5.292751e-01 -1.267048e+00 1.723808e+00 -4.232264e+00 -1.526309e+00 -3.011264e+00 -7.870118e+00 3.681373e+00 4.297124e+00 1.061086e+00 6.457490e+01 1.935333e-01 -4.645659e-01 -3.772770e-01 1.106301e+00 -2.047859e-01 -4.068629e-01 2.217283e-01 -7.631871e-01 -6.794706e-02 1.645612e-01 -1.330831e-01 -2.024700e-01 2.007398e-02 -1.295587e-01 4.142481e-01 2.213660e-01 -1.737155e-01 -5.634421e-02 4.442741e-01 7.925392e-02 1.153460e-01 2.396626e-01 -2.738500e-01 -4.439979e-02 4.551801e-02 -3.590887e-01
<VARIANCE> 39
 2.248560e+01 2.291826e+01 3.304834e+01 3.197113e+01 3.411031e+01 2.990140e+01 3.110897e+01 3.129784e+01 4.158230e+01 3.208338e+01 2.552797e+01 2.215778e+01 1.746661e+01 3.387737e+00 3.166639e+00 4.022357e+00 4.399483e+00 4.525578e+00 3.242262e+00 3.205827e+00 3.309779e+00 3.145456e+00 3.156917e+00 2.395413e+00 1.784045e+00 1.770943e+00 7.229429e-01 6.464988e-01 7.486908e-01 8.238305e-01 9.077905e-01 6.731570e-01 6.272807e-01 6.713356e-01 7.735420e-01 7.787719e-01 5.736594e-01 4.656349e-01 3.965636e-01
<GCONST> 1.243482e+02
<STATE> 4
<MEAN> 39
 -3.687653e+00 -1.926701e+00 1.766656e-01 7.377926e-01 5.846720e-01 -2.959249e+00 -2.326864e-01 -4.185031e+00 -6.809331e+00 3.133747e+00 4.380279e+00 7.597797e-01 6.324512e+01 4.515244e-01 7.819691e-01 -2.164939e-02 -5.259846e-02 -2.059083e-01 5.079021e-01 3.237846e-01 -4.023125e-02 2.177395e-01 -3.893316e-01 -9.420579e-02 2.237035e-01 -2.477417e-01 9.944303e-02 4.911083e-01 6.068303e-02 -4.924134e-01 1.122801e-01 1.655638e-01 -1.004782e-01 3.019613e-01 -2.884334e-03 -1.972046e-01 -2.467185e-02 1.463253e-01 -6.719866e-02
<VARIANCE> 39
 2.457132e+01 2.324047e+01 3.874461e+01 2.273601e+01 3.571728e+01 2.849225e+01 3.073780e+01 3.257285e+01 3.540789e+01 2.762160e+01 2.123344e+01 1.872121e+01 1.866795e+01 3.095444e+00 3.285109e+00 3.924839e+00 3.567100e+00 3.725888e+00 2.426106e+00 2.922362e+00 3.818775e+00 3.239417e+00 3.375302e+00 2.217056e+00 2.044269e+00 1.582567e+00 6.376752e-01 6.175245e-01 8.683298e-01 5.973322e-01 7.479282e-01 5.438467e-01 5.951511e-01 6.972106e-01 7.301582e-01 7.935983e-01 4.742790e-01 3.619334e-01 3.502582e-01
<GCONST> 1.216473e+02
<TRANSP> 5
 0.000000e+00 1.000000e+00 0.000000e+00 0.000000e+00 0.000000e+00
 0.000000e+00 4.282726e-01 5.717274e-01 0.000000e+00 0.000000e+00
 0.000000e+00 0.000000e+00 4.001592e-01 5.998408e-01 0.000000e+00
 0.000000e+00 0.000000e+00 0.000000e+00 5.740021e-01 4.259979e-01
 0.000000e+00 0.000000e+00 0.000000e+00 0.000000e+00 0.000000e+00
<ENDHMM>
~h "s"
<BEGINHMM>
<NUMSTATES> 5
<STATE> 2
<MEAN> 39
 -2.024029e+01 3.856358e+00 9.792002e+00 -9.443727e+00 1.161962e+01 -1.339546e+00 -3.787433e+00 9.612369e-01 -3.114617e+00 -2.350143e+00 6.606250e+00 -1.406195e+00 6.347130e+01 -3.535590e+00 2.592657e-01 2.696590e-01 -1.964203e+00 1.166042e+00 -5.309743e-01 -6.414437e-01 1.303984e-01 5.553294e-02 -1.843428e-01 8.662474e-02 -7.185915e-01 8.454797e-01 6.673581e-01 2.061405e-02 -4.125571e-01 3.517614e-01 -5.990391e-01 2.386705e-02 6.956404e-02 -1.726473e-01 -1.786955e-01 1.689160e-01 -1.776647e-01 9.734901e-02 -2.796311e-01
<VARIANCE> 39
 4.031606e+01 1.820106e+01 1.965769e+01 2.736771e+01 2.000122e+01 3.416811e+01 2.443151e+01 3.537418e+01 2.499040e+01 2.124822e+01 2.160381e+01 2.433030e+01 8.562411e+00 3.650706e+00 1.542801e+00 2.199762e+00 2.258964e+00 3.049554e+00 2.404989e+00 2.115949e+00 2.677326e+00 1.953614e+00 2.249043e+00 2.044993e+00 1.602249e+00 8.890224e-01 7.427046e-01 3.577713e-01 3.004903e-01 5.730137e-01 4.585206e-01 4.960012e-01 3.903882e-01 4.912660e-01 4.187467e-01 4.047303e-01 4.296637e-01 3.392280e-01 2.001595e-01
<GCONST> 1.106206e+02
<STATE> 3
<MEAN> 39
 -2.581508e+01 4.340934e+00 8.124117e+00 -1.216565e+01 1.199269e+01 -2.734668e+00 -5.289971e+00 1.031914e+00 -4.071789e+00 -1.331915e+00 6.278699e+00 -2.822925e+00 6.392733e+01 5.958691e-01 -2.935277e-01 -5.654891e-01 6.980638e-01 -7.689194e-02 1.181750e-01 8.166762e-02 -1.560649e-01 -1.625462e-01 2.189370e-01 1.560762e-01 2.554878e-01 -8.772508e-01 1.010895e+00 -7.931301e-02 -4.976692e-02 6.360358e-01 -2.784689e-01 1.362046e-01 2.693566e-01 -9.561945e-02 5.809264e-02 -4.341472e-02 -5.013153e-02 2.205504e-01 -4.740057e-01
<VARIANCE> 39
 1.275655e+01 2.240868e+01 1.648773e+01 2.421148e+01 2.611854e+01 2.928429e+01 2.329713e+01 3.000325e+01 2.788952e+01 2.268203e+01 2.318910e+01 2.453425e+01 7.252645e+00 2.766177e+00 2.034189e+00 1.041662e+00 1.962096e+00 1.880943e+00 1.984423e+00 1.776690e+00 2.165262e+00 1.940303e+00 1.820657e+00 1.880347e+00 1.561132e+00 1.015817e+00 2.957433e-01 3.915106e-01 2.331611e-01 2.997656e-01 3.637210e-01 3.755965e-01 3.694100e-01 4.435765e-01 3.970565e-01 3.816644e-01 4.155520e-01 2.997417e-01 1.508715e-01
<GCONST> 1.042705e+02
<STATE> 4
<MEAN> 39
 -1.859598e+01 3.726502e+00 5.989456e+00 -6.315150e+00 9.837101e+00 -8.762046e-01 -2.517622e+00 -1.319134e-01 -3.963032e+00 -1.095550e+00 5.871597e+00 -8.651316e-01 5.723392e+01 2.270202e+00 4.013111e-01 -3.821258e-01 1.339108e+00 -1.115026e+00 2.769721e-01 7.574912e-01 -2.825080e-01 1.080768e-01 3.009608e-02 -5.664200e-01 4.508567e-01 -1.540027e+00 -3.887506e-02 2.546965e-03 5.868938e-02 -2.444452e-01 -2.092996e-01 -1.385561e-01 -7.843922e-02 9.365360e-02 1.240078e-02 3.739683e-02 -9.121030e-02 -7.187427e-02 4.047590e-01
<VARIANCE> 39
 2.146060e+01 3.158401e+01 1.709206e+01 2.388861e+01 3.361942e+01 2.765948e+01 3.057779e+01 3.129095e+01 2.864779e+01 2.351974e+01 2.384780e+01 1.908628e+01 1.928298e+01 2.255284e+00 2.473029e+00 1.299844e+00 1.714799e+00 2.225147e+00 1.798944e+00 2.215285e+00 2.537193e+00 2.385151e+00 1.832974e+00 2.192551e+00 1.651689e+00 1.763826e+00 4.221931e-01 6.726977e-01 3.112005e-01 3.578454e-01 5.327575e-01 3.831980e-01 4.953898e-01 5.289039e-01 5.044133e-01 4.083515e-01 4.691764e-01 3.651870e-01 3.913106e-01
<GCONST> 1.117985e+02
<TRANSP> 5
 0.000000e+00 1.000000e+00 0.000000e+00 0.000000e+00 0.000000e+00
 0.000000e+00 7.038751e-01 2.961249e-01 0.000000e+00 0.000000e+00
 0.000000e+00 0.000000e+00 7.039456e-01 2.960544e-01 0.000000e+00
 0.000000e+00 0.000000e+00 0.000000e+00 6.791056e-01 3.208943e-01
 0.000000e+00 0.000000e+00 0.000000e+00 0.000000e+00 0.000000e+00
<ENDHMM>
~h "t"
<BEGINHMM>
<NUMSTATES> 5
<STATE> 2
<MEAN> 39
 -1.217829e+01 6.203777e+00 3.387204e+00 -2.944038e+00 2.924049e+00 4.193656e-01 -1.178843e+00 -8.756843e-01 -3.949741e+00 -1.551516e+00 1.965805e+00 3.168959e-02 5.288093e+01 -2.106089e-01 -9.253024e-01 -1.457656e-01 -3.108990e-01 -4.989043e-01 -8.260810e-02 -7.528266e-02 1.014958e-01 2.431288e-01 3.786091e-01 6.804667e-02 -3.291272e-01 8.048268e-02 -1.908832e-02 -4.409507e-01 1.004808e-01 -5.402940e-01 9.019783e-02 -1.889729e-01 -2.607293e-01 1.674303e-01 -7.349288e-02 2.689918e-01 4.060353e-01 -4.985717e-02 8.292370e-01
<VARIANCE> 39
 3.101878e+01 1.226322e+01 2.172716e+01 3.112423e+01 3.470275e+01 2.186344e+01 3.132203e+01 2.852250e+01 2.184171e+01 2.239151e+01 1.805086e+01 1.353645e+01 1.588114e+01 2.322865e+00 2.534047e+00 1.781697e+00 4.290883e+00 2.486843e+00 1.856408e+00 2.299253e+00 2.544740e+00 1.793634e+00 1.877217e+00 2.258841e+00 1.348939e+00 3.049545e+00 3.257181e-01 3.807059e-01 3.712181e-01 7.103319e-01 5.270842e-01 4.480022e-01 4.991508e-01 4.782457e-01 3.383127e-01 3.597248e-01 3.854643e-01 2.845255e-01 4.211946e-01
<GCONST> 1.110866e+02
<STATE> 3
<MEAN> 39
 -1.283856e+01 2.268830e+00 3.500614e+00 -5.856465e+00 2.113887e+00 -6.916145e-01 -2.775768e+00 4.077578e-02 -3.933888e+00 1.216346e-01 3.790192e+00 -1.274971e+00 5.583136e+01 -1.685063e-01 -1.871294e+00 3.011007e-01 -1.557115e+00 -2.236041e-01 -4.827451e-01 -7.113116e-01 3.835325e-01 7.875331e-02 9.353026e-01 1.190549e+00 -3.567985e-01 2.142769e+00 3.776429e-01 3.444584e-01 5.823201e-02 1.829442e-01 2.634534e-01 -1.536172e-02 2.373649e-02 -1.501693e-01 -1.307037e-01 -2.182430e-02 2.381995e-02 2.234138e-01 2.877954e-01
<VARIANCE> 39
 2.281481e+01 2.983661e+01 2.336881e+01 3.454175e+01 3.599568e+01 2.813528e+01 2.943858e+01 2.732026e+01 2.210818e+01 1.799212e+01 1.843353e+01 1.560331e+01 2.450665e+01 3.591528e+00 3.721183e+00 2.285450e+00 4.574067e+00 3.925082e+00 2.922318e+00 3.016193e+00 2.950269e+00 2.219803e+00 2.638125e+00 2.408605e+00 1.709513e+00 2.812773e+00 5.631993e-01 6.445561e-01 4.405159e-01 8.542519e-01 5.756787e-01 5.264956e-01 5.400513e-01 4.964097e-01 4.055594e-01 3.433764e-01 4.522588e-01 3.244094e-01 5.550191e-01
<GCONST> 1.181527e+02
<STATE> 4
<MEAN> 39
 -1.228049e+01 -3.647975e-01 4.007648e+00 -8.196333e+00 2.623037e+00 -1.358177e+00 -4.114463e+00 2.305634e-02 -3.896348e+00 2.007161e+00 6.498423e+00 -1.099786e+00 6.028908e+01 1.364008e+00 2.331241e-01 9.263890e-02 2.299459e-01 2.560131e-01 -1.867708e-02 -3.211287e-02 -3.448078e-01 -2.692291e-01 2.713860e-01 1.620564e-01 4.240038e-01 1.108310e+00 5.113261e-01 6.599956e-01 -1.645680e-01 5.693673e-01 -1.744399e-02 5.073613e-02 3.129443e-01 -1.691222e-01 -1.510396e-01 -2.804578e-01 -5.207396e-01 2.462679e-01 -3.586994e-01
<VARIANCE> 39
 2.723524e+01 3.101984e+01 1.970526e+01 2.919596e+01 3.829006e+01 4.169563e+01 2.897964e+01 3.172110e+01 2.251334e+01 2.474003e+01 2.389022e+01 1.771995e+01 2.339553e+01 5.539352e+00 3.801657e+00 2.232329e+00 4.509362e+00 3.234001e+00 3.595528e+00 3.547813e+00 2.712817e+00 2.557382e+00 2.212744e+00 3.039075e+00 2.135474e+00 3.446233e+00 7.224281e-01 8.582921e-01 4.126378e-01 8.250716e-01 6.974262e-01 6.977560e-01 6.354096e-01 6.590495e-01 4.939450e-01 5.246830e-01 5.633829e-01 4.035342e-01 6.015849e-01
<GCONST> 1.229228e+02
<TRANSP> 5
 0.000000e+00 1.000000e+00 0.000000e+00 0.000000e+00 0.000000e+00
 0.000000e+00 5.713499e-01 4.286501e-01 0.000000e+00 0.000000e+00
 0.000000e+00 0.000000e+00 2.847653e-01 7.152348e-01 0.000000e+00
 0.000000e+00 0.000000e+00 0.000000e+00 5.364417e-01 4.635583e-01
 0.000000e+00 0.000000e+00 0.000000e+00 0.000000e+00 0.000000e+00
<ENDHMM>
~h "u"
<BEGINHMM>
<NUMSTATES> 5
<STATE> 2
<MEAN> 39
 -3.834059e+00 5.765159e+00 1.661250e+00 -1.634937e+00 -1.047366e+00 2.137037e+00 -1.440633e-01 -6.125381e+00 -7.419650e+00 -5.609272e+00 -9.267635e-01 2.682018e+00 5.726329e+01 5.804041e-01 7.415995e-01 1.276511e-01 4.907053e-01 -1.169738e-01 3.519676e-02 2.737231e-01 -1.236164e-01 -4.335309e-01 -4.053025e-01 -6.788779e-01 2.320464e-01 -2.631124e-01 -1.956897e-01 -1.503354e-01 5.921374e-02 7.571153e-02 1.352741e-01 -1.321498e-01 -1.219107e-01 1.976943e-02 9.000784e-02 1.171799e-01 6.151991e-02 -1.703714e-01 3.531211e-02
<VARIANCE> 39
 2.714105e+01 1.757012e+01 2.214758e+01 3.535625e+01 3.187421e+01 2.935073e+01 2.721512e+01 3.403177e+01 2.299090e+01 2.772777e+01 3.308919e+01 2.061005e+01 1.630484e+01 2.898898e+00 2.254627e+00 2.157759e+00 3.257094e+00 2.815075e+00 2.400185e+00 2.553654e+00 3.312611e+00 2.051735e+00 2.280217e+00 2.530284e+00 1.922469e+00 1.634363e+00 4.402774e-01 3.843387e-01 3.426807e-01 6.187623e-01 4.778049e-01 4.434955e-01 3.677411e-01 6.135295e-01 3.570777e-01 3.642093e-01 5.067594e-01 3.604953e-01 2.497304e-01
<GCONST> 1.139477e+02
<STATE> 3
<MEAN> 39
 -3.829160e+00 6.619076e+00 2.587435e+00 3.545400e-01 3.906621e-02 1.993429e+00 -7.412732e-01 -6.332258e+00 -7.683619e+00 -5.392330e+00 -1.546825e+00 2.725020e+00 5.649493e+01 -1.010139e-01 -1.347319e-02 2.056458e-01 3.630428e-01 5.310668e-01 5.255606e-02 -2.733597e-01 -3.118929e-01 -1.382916e-01 1.226831e-01 1.070701e-01 -1.045915e-01 6.986819e-03 -3.931257e-01 -3.983610e-01 7.779603e-02 -1.174028e-01 1.975597e-01 -1.160841e-01 -1.979396e-01 6.699292e-02 2.145914e-01 2.501218e-01 2.881516e-01 -2.245581e-01 1.569081e-01
<VARIANCE> 39
 2.152211e+01 1.422794e+01 1.594287e+01 2.503160e+01 2.788353e+01 3.195729e+01 3.026519e+01 3.805296e+01 2.429648e+01 2.551995e+01 2.499265e+01 2.026149e+01 1.818178e+01 3.063295e+00 2.021365e+00 2.163101e+00 3.535365e+00 3.308655e+00 2.757268e+00 2.610002e+00 3.487793e+00 2.855688e+00 3.178049e+00 2.565986e+00 1.779500e+00 2.047827e+00 4.835642e-01 3.771454e-01 2.819756e-01 6.082831e-01 6.209368e-01 6.541677e-01 5.274883e-01 6.241663e-01 4.583377e-01 4.976265e-01 4.653776e-01 3.802408e-01 3.269011e-01
<GCONST> 1.157030e+02
<STATE> 4
<MEAN> 39
 -5.935971e+00 5.254756e+00 3.724216e+00 1.757230e+00 2.591096e+00 2.332083e+00 -2.286660e+00 -6.508018e+00 -6.920699e+00 -3.716050e+00 -3.000294e-01 1.080394e+00 5.613126e+01 -8.824512e-01 -9.108225e-01 3.141778e-01 -1.563664e-01 5.598117e-01 -4.962447e-01 -4.470094e-01 1.344510e-01 2.387434e-01 4.772519e-01 4.443453e-01 -5.768098e-01 4.542085e-01 -2.601734e-01 -2.733246e-01 6.460033e-02 -2.292182e-01 -1.722466e-01 -3.814559e-01 4.512802e-02 1.732557e-01 1.586417e-01 7.641158e-02 1.072116e-02 -8.141267e-02 2.353132e-01
<VARIANCE> 39
 2.107368e+01 1.775313e+01 1.653393e+01 2.666715e+01 3.100066e+01 3.161795e+01 3.024859e+01 3.482764e+01 2.352560e+01 2.734852e+01 2.344155e+01 1.950882e+01 2.354862e+01 3.406536e+00 2.713388e+00 2.258241e+00 4.433517e+00 6.157585e+00 3.199065e+00 3.561760e+00 2.557470e+00 3.535669e+00 2.857652e+00 2.534875e+00 2.172460e+00 1.967036e+00 3.772693e-01 3.855735e-01 3.429665e-01 6.831180e-01 8.615432e-01 6.383232e-01 7.213916e-01 5.685287e-01 5.021163e-01 6.731665e-01 5.280656e-01 4.124376e-01 3.819093e-01
<GCONST> 1.192626e+02
<TRANSP> 5
 0.000000e+00 1.000000e+00 0.000000e+00 0.000000e+00 0.000000e+00
 0.000000e+00 5.834951e-01 4.165049e-01 0.000000e+00 0.000000e+00
 0.000000e+00 0.000000e+00 4.499370e-01 5.500630e-01 0.000000e+00
 0.000000e+00 0.000000e+00 0.000000e+00 4.274725e-01 5.725275e-01
 0.000000e+00 0.000000e+00 0.000000e+00 0.000000e+00 0.000000e+00
<ENDHMM>
~h "v"
<BEGINHMM>
<NUMSTATES> 5
<STATE> 2
<MEAN> 39
 -4.772372e+00 5.066988e+00 1.814409e+00 -4.577115e-01 2.707878e+00 -1.798497e-01 -1.004955e+00 -3.407511e+00 -4.905659e+00 -1.484612e+00 3.130362e+00 9.384823e-01 5.839888e+01 2.587537e-01 2.546841e-01 -2.495069e-02 1.095614e-01 6.578081e-02 1.193837e-01 1.212808e-02 3.000477e-01 9.465767e-02 -3.075266e-02 1.048161e-02 -3.901699e-02 -1.195862e-01 2.719844e-01 -1.946389e-01 -1.599706e-02 -1.683149e-01 -1.325843e-01 -4.506239e-01 -1.463054e-01 1.118417e-01 1.571263e-03 1.916484e-01 -6.292312e-02 -7.725944e-02 4.710792e-01
<VARIANCE> 39
 3.356247e+01 1.542952e+01 1.725633e+01 3.728890e+01 2.122571e+01 1.725107e+01 3.048188e+01 3.214082e+01 2.004822e+01 1.785838e+01 1.705013e+01 1.468984e+01 1.815767e+01 3.271990e+00 1.737049e+00 2.016111e+00 2.379043e+00 1.824731e+00 2.111543e+00 2.184806e+00 2.535757e+00 1.810497e+00 2.351811e+00 1.500584e+00 1.437811e+00 1.764286e+00 4.463012e-01 2.834111e-01 3.595353e-01 4.111870e-01 3.296961e-01 3.740410e-01 3.691787e-01 4.894845e-01 3.660156e-01 4.407308e-01 2.726666e-01 2.829067e-01 2.296544e-01
<GCONST> 1.069981e+02
<STATE> 3
<MEAN> 39
 -3.817896e+00 5.320569e+00 1.724794e+00 -5.504710e-01 2.676904e+00 -4.243829e-01 -1.284182e+00 -3.087982e+00 -4.740665e+00 -1.214015e+00 2.882907e+00 8.673323e-01 5.889278e+01 7.234517e-01 -1.703704e-01 -1.687731e-01 -2.581852e-01 -2.135714e-01 -7.193902e-01 -2.195923e-01 3.508927e-01 8.249824e-02 3.204249e-01 -1.535875e-01 -1.327556e-01 7.003652e-01 1.591785e-01 -2.198721e-01 9.788265e-03 -1.547377e-01 -1.625090e-01 -3.968596e-01 -1.078091e-01 1.346122e-02 -5.220573e-02 1.809134e-01 -5.984874e-02 -5.563787e-02 4.035823e-01
<VARIANCE> 39
 2.913011e+01 1.338102e+01 1.935557e+01 3.925040e+01 2.183594e+01 1.757194e+01 2.892946e+01 2.998952e+01 1.864418e+01 1.846798e+01 1.763898e+01 1.629327e+01 1.720384e+01 3.275156e+00 1.638326e+00 2.482549e+00 2.796650e+00 2.009123e+00 2.111769e+00 2.526819e+00 2.728313e+00 2.080952e+00 2.354936e+00 1.614754e+00 1.592933e+00 1.649887e+00 4.463277e-01 2.649998e-01 3.784795e-01 4.109737e-01 3.480834e-01 3.685744e-01 3.626500e-01 4.755774e-01 3.504480e-01 3.843851e-01 2.713128e-01 2.419154e-01 2.445923e-01
<GCONST> 1.074243e+02
<STATE> 4
<MEAN> 39
 -2.246742e+00 4.651657e+00 1.145034e+00 -1.184626e+00 2.145816e+00 -2.198335e+00 -1.923514e+00 -2.370380e+00 -4.436008e+00 -5.113010e-01 2.276104e+00 5.064369e-01 6.066578e+01 6.909829e-01 -3.982642e-01 -2.955113e-02 -3.365155e-01 -3.452024e-01 -9.932174e-01 -3.313261e-01 2.917539e-01 6.056292e-03 4.571486e-01 -2.107243e-01 -1.892830e-01 1.003025e+00 -8.013864e-02 -5.320361e-02 1.513064e-01 -2.769201e-03 -7.038815e-02 -4.375896e-02 3.196863e-03 -5.051915e-02 -1.133268e-01 4.471803e-02 -1.242814e-02 -4.516105e-02 6.402774e-02
<VARIANCE> 39
 2.701563e+01 1.260930e+01 2.597742e+01 4.666783e+01 2.150472e+01 1.768480e+01 3.881879e+01 3.631792e+01 2.086174e+01 2.186423e+01 1.866954e+01 1.922467e+01 1.744209e+01 2.468718e+00 1.499499e+00 3.035865e+00 3.351582e+00 2.379008e+00 1.973134e+00 2.515156e+00 2.681795e+00 2.072511e+00 2.030159e+00 1.635305e+00 1.559523e+00 1.426000e+00 4.747120e-01 2.666661e-01 3.733687e-01 4.101318e-01 3.857187e-01 3.785647e-01 3.657450e-01 4.406268e-01 3.499534e-01 3.526077e-01 3.229570e-01 2.725851e-01 2.741102e-01
<GCONST> 1.089678e+02
<TRANSP> 5
 0.000000e+00 1.000000e+00 0.000000e+00 0.000000e+00 0.000000e+00
 0.000000e+00 2.525477e-01 7.474523e-01 0.000000e+00 0.000000e+00
 0.000000e+00 0.000000e+00 2.277679e-01 7.722321e-01 0.000000e+00
 0.000000e+00 0.000000e+00 0.000000e+00 2.586544e-01 7.413456e-01
 0.000000e+00 0.000000e+00 0.000000e+00 0.000000e+00 0.000000e+00
<ENDHMM>
~h "x"
<BEGINHMM>
<NUMSTATES> 5
<STATE> 2
<MEAN> 39
 -1.167720e+01 -1.869135e+00 6.022056e+00 -1.603011e-01 5.647392e+00 -2.475609e-01 -5.735522e+00 3.192844e-01 -2.602293e+00 -8.539111e-01 6.025592e+00 -3.441992e+00 5.800274e+01 -7.051752e-01 -5.292294e-01 -7.056131e-01 -7.472015e-01 1.583025e-01 7.268541e-02 -4.782776e-01 -3.139856e-01 9.401727e-04 1.787915e-03 5.193743e-01 -1.823162e-01 -1.562047e-01 1.811134e-01 2.366000e-01 5.462058e-02 1.428684e-01 -1.704426e-01 -7.290148e-02 1.350259e-01 -2.250749e-02 2.302135e-02 1.329056e-01 -2.068923e-01 7.675889e-02 -3.942643e-03
<VARIANCE> 39
 2.288897e+01 2.061954e+01 1.015164e+02 4.342509e+01 3.037730e+01 4.598945e+01 4.089194e+01 3.208560e+01 4.738091e+01 2.628080e+01 2.681032e+01 2.200010e+01 7.197440e+00 7.688490e-01 1.081539e+00 1.943298e+00 2.442846e+00 1.735391e+00 2.646736e+00 3.017198e+00 3.133889e+00 2.848836e+00 2.167650e+00 1.898864e+00 1.599533e+00 4.432601e-01 1.319942e-01 2.237249e-01 3.716920e-01 4.435352e-01 3.900334e-01 4.811213e-01 5.586972e-01 5.194695e-01 4.959256e-01 5.100697e-01 3.607248e-01 2.616614e-01 7.313566e-02
<GCONST> 1.088040e+02
<STATE> 3
<MEAN> 39
 -1.301743e+01 -1.907387e+00 4.836952e+00 -7.450691e-01 6.284575e+00 -7.501625e-01 -6.059507e+00 -4.646219e-01 -3.221771e+00 -6.267920e-01 6.548725e+00 -3.071912e+00 5.750278e+01 2.215070e-01 8.202626e-01 -6.736861e-01 1.692576e-02 1.108450e-02 3.511423e-01 6.071187e-01 1.598174e-01 3.839901e-01 5.527004e-01 -8.577152e-01 3.017225e-01 -4.547808e-01 3.633521e-01 3.805580e-01 6.963529e-02 1.074960e-01 -2.133589e-01 -5.802950e-02 1.803761e-01 7.808710e-02 1.889904e-02 -1.888197e-02 -4.071105e-01 1.767189e-01 4.467405e-02
<VARIANCE> 39
 2.356181e+01 2.763632e+01 8.831995e+01 3.861930e+01 2.812749e+01 4.319614e+01 3.597965e+01 4.384501e+01 4.150417e+01 2.593809e+01 3.510322e+01 2.349032e+01 1.155359e+01 1.698627e+00 1.427987e+00 1.873266e+00 2.263525e+00 1.617488e+00 3.073376e+00 3.245167e+00 2.973908e+00 1.930764e+00 2.206244e+00 2.677881e+00 1.751286e+00 8.545569e-01 2.367579e-01 2.661744e-01 3.145197e-01 2.398861e-01 3.936086e-01 5.378512e-01 5.944916e-01 7.129312e-01 4.556642e-01 4.089723e-01 5.739453e-01 3.498357e-01 1.554926e-01
<GCONST> 1.130326e+02
<STATE> 4
<MEAN> 39
 -1.222846e+01 1.630370e+00 2.074269e-01 7.406651e-01 4.585755e+00 2.301813e+00 -1.281362e+00 1.997450e+00 2.426562e-01 1.290852e+00 2.995770e+00 2.599117e-01 5.203762e+01 2.330104e-01 4.135499e-01 -1.264919e-01 -7.761065e-02 -2.200113e-01 -5.422598e-02 2.365524e-01 1.134989e-01 4.495799e-02 1.655276e-01 -4.036509e-01 2.057724e-01 2.060576e-02 5.987234e-02 -4.669447e-02 4.387320e-02 -9.494536e-02 -6.179541e-02 -1.181444e-01 -6.658157e-02 5.058634e-03 -1.230159e-01 -4.065650e-02 8.937620e-02 -1.962471e-02 1.469206e-01
<VARIANCE> 39
 2.518869e+01 1.320212e+01 2.813771e+01 2.023157e+01 1.875691e+01 2.536467e+01 2.741453e+01 2.357345e+01 2.637802e+01 1.841727e+01 2.076043e+01 1.759679e+01 2.433407e+01 1.794409e+00 1.423033e+00 1.229558e+00 1.750105e+00 1.208668e+00 1.783986e+00 1.971995e+00 1.865774e+00 2.065981e+00 1.766119e+00 2.963577e+00 1.564808e+00 1.132552e+00 1.578286e-01 2.034457e-01 1.698311e-01 3.577499e-01 2.130933e-01 3.818393e-01 3.718058e-01 3.609968e-01 3.701957e-01 3.218960e-01 3.651446e-01 3.133754e-01 1.893212e-01
<GCONST> 1.017550e+02
<TRANSP> 5
 0.000000e+00 1.000000e+00 0.000000e+00 0.000000e+00 0.000000e+00
 0.000000e+00 7.473452e-01 2.526548e-01 0.000000e+00 0.000000e+00
 0.000000e+00 0.000000e+00 4.722309e-01 5.277691e-01 0.000000e+00
 0.000000e+00 0.000000e+00 0.000000e+00 7.869977e-01 2.130023e-01
 0.000000e+00 0.000000e+00 0.000000e+00 0.000000e+00 0.000000e+00
<ENDHMM>
~h "z"
<BEGINHMM>
<NUMSTATES> 5
<STATE> 2
<MEAN> 39
 -8.983539e+00 8.369028e+00 1.019222e+01 -7.779472e+00 9.200317e+00 -3.703313e+00 -5.521843e+00 -1.436258e+00 -7.079081e+00 -4.147750e+00 6.681449e+00 1.496150e+00 6.291192e+01 -3.475021e+00 9.851011e-01 2.025973e+00 -1.536868e+00 2.499251e+00 -2.988925e-01 -2.072835e-01 2.421080e-01 3.495423e-02 -6.335566e-01 6.392034e-01 -8.191844e-01 3.843260e-01 -8.077752e-02 -2.823223e-01 -4.000793e-01 3.054970e-01 -5.023287e-01 6.162935e-03 3.233171e-01 1.482602e-01 1.515304e-01 3.989223e-01 -3.096048e-01 -1.801131e-01 8.416327e-03
<VARIANCE> 39
 3.347508e+01 7.826022e+00 2.564333e+01 3.996484e+01 2.962942e+01 3.961041e+01 1.865516e+01 2.931844e+01 2.029194e+01 2.828827e+01 2.064341e+01 2.385742e+01 7.414476e+00 2.326132e+00 1.398606e+00 2.184930e+00 2.500937e+00 2.821037e+00 2.568337e+00 2.454524e+00 2.444376e+00 3.101637e+00 2.636866e+00 2.206635e+00 1.597788e+00 9.860744e-01 7.407944e-01 2.171261e-01 4.023371e-01 3.928807e-01 6.651878e-01 3.924395e-01 3.885715e-01 3.560916e-01 4.936110e-01 4.629508e-01 4.367502e-01 3.528349e-01 1.170773e-01
<GCONST> 1.096190e+02
<STATE> 3
<MEAN> 39
 -1.791611e+01 9.461143e+00 1.236310e+01 -9.208260e+00 1.294714e+01 -4.920290e+00 -4.352893e+00 6.486411e-01 -6.362288e+00 -3.106448e+00 6.691318e+00 -1.684363e+00 6.375038e+01 -5.511616e-01 -4.357026e-01 -2.488800e-01 4.001151e-01 -2.680321e-01 1.045960e-01 3.103545e-01 2.160657e-01 1.730149e-01 5.234214e-01 2.971327e-02 -3.251137e-01 -1.081775e-01 1.295456e+00 -3.843766e-01 -5.180984e-01 5.496924e-01 -8.007699e-01 4.619082e-02 -6.016276e-02 -2.081071e-01 4.960017e-02 1.772981e-01 -1.268561e-01 2.918394e-01 -1.562845e-01
<VARIANCE> 39
 2.290924e+01 1.070577e+01 1.849640e+01 2.961795e+01 1.915612e+01 3.946968e+01 2.101849e+01 2.274118e+01 2.022931e+01 2.669743e+01 2.150267e+01 1.735973e+01 4.281156e+00 4.745918e+00 1.182452e+00 1.467034e+00 1.921129e+00 2.010106e+00 1.696692e+00 1.815476e+00 1.878884e+00 2.103453e+00 1.865219e+00 1.681319e+00 1.317645e+00 5.189838e-01 3.165478e-01 2.242009e-01 3.566873e-01 3.298654e-01 3.656904e-01 3.523966e-01 4.136584e-01 3.539041e-01 4.901678e-01 4.670147e-01 3.944786e-01 2.391862e-01 8.763115e-02
<GCONST> 1.016473e+02
<STATE> 4
<MEAN> 39
 -1.216032e+01 6.376862e+00 9.608366e+00 -5.289874e+00 8.277057e+00 -4.099022e+00 -4.130475e+00 -4.381878e-01 -5.762640e+00 -1.360868e+00 6.701952e+00 -6.633834e-01 6.229314e+01 2.625108e+00 -8.376371e-01 -1.073275e+00 1.007355e+00 -1.822224e+00 2.469538e-02 -1.682816e-01 -6.117478e-01 3.313742e-01 6.229237e-01 -4.477734e-01 4.427327e-01 -1.762704e-01 1.906584e-01 7.319905e-02 -6.155567e-02 -6.036208e-02 -1.122148e-01 -9.549468e-03 -2.785034e-02 -7.144944e-02 4.740270e-03 -4.874317e-02 -3.141140e-01 5.355269e-02 7.270610e-02
<VARIANCE> 39
 3.904105e+01 1.500330e+01 2.210854e+01 2.869264e+01 2.404026e+01 3.898856e+01 2.556291e+01 2.448793e+01 2.121867e+01 2.310510e+01 2.118191e+01 1.707839e+01 8.881843e+00 4.134757e+00 1.408732e+00 3.115382e+00 2.201773e+00 2.059191e+00 1.792367e+00 2.876758e+00 2.266829e+00 2.233443e+00 2.272028e+00 2.421827e+00 1.584865e+00 9.577311e-01 9.220596e-01 2.965861e-01 4.295579e-01 3.162838e-01 4.054490e-01 3.153686e-01 4.165986e-01 3.933884e-01 3.552761e-01 3.997525e-01 3.785489e-01 3.108526e-01 1.578980e-01
<GCONST> 1.087541e+02
<TRANSP> 5
 0.000000e+00 1.000000e+00 0.000000e+00 0.000000e+00 0.000000e+00
 0.000000e+00 5.939811e-01 4.060189e-01 0.000000e+00 0.000000e+00
 0.000000e+00 0.000000e+00 6.729654e-01 3.270346e-01 0.000000e+00
 0.000000e+00 0.000000e+00 0.000000e+00 6.593557e-01 3.406443e-01
 0.000000e+00 0.000000e+00 0.000000e+00 0.000000e+00 0.000000e+00
<ENDHMM>
~h "aa"
<BEGINHMM>
<NUMSTATES> 5
<STATE> 2
<MEAN> 39
 2.462887e-01 2.136036e+00 -4.537626e+00 -1.146274e+01 3.550003e+00 -1.688700e+00 6.418882e-01 3.874983e+00 -6.405525e+00 2.701424e+00 4.167268e+00 -1.971499e-01 6.647649e+01 5.707216e-01 -1.276853e-01 -1.110656e+00 -2.051746e+00 7.007144e-01 -2.276693e-02 9.867425e-02 1.568116e+00 -1.149180e+00 -1.598390e-01 2.401278e-01 -5.994893e-02 6.999577e-01 -3.728524e-01 6.712595e-02 3.771002e-01 3.963218e-01 -1.521219e-02 6.825269e-03 1.400769e-02 -3.389562e-02 -8.831534e-02 -2.530305e-01 8.970430e-02 -6.453568e-02 -3.708352e-01
<VARIANCE> 39
 4.762260e+00 1.437062e+01 1.227609e+01 2.235914e+01 2.475719e+01 1.896642e+01 2.893154e+01 3.031460e+01 2.474281e+01 1.932779e+01 1.988078e+01 2.194083e+01 9.459318e+00 1.201548e+00 1.137581e+00 1.397541e+00 2.277660e+00 2.614785e+00 1.644442e+00 1.881711e+00 1.766337e+00 2.200781e+00 1.343366e+00 1.631610e+00 1.139494e+00 1.016935e+00 2.322048e-01 2.214945e-01 2.537094e-01 3.513927e-01 4.525771e-01 2.688501e-01 3.282171e-01 3.715065e-01 3.733584e-01 2.482101e-01 3.453890e-01 2.113024e-01 1.107001e-01
<GCONST> 9.799976e+01
<STATE> 3
<MEAN> 39
 4.015571e-01 3.596321e+00 -5.356210e+00 -1.463744e+01 5.307812e+00 -4.374586e-01 1.806477e+00 8.210337e+00 -9.594808e+00 5.565656e-01 5.415752e+00 -5.192369e-01 6.532858e+01 -3.657974e-02 2.532571e-01 2.192792e-01 1.098357e-01 3.584400e-02 8.546340e-02 -3.382830e-02 1.830998e-01 -1.511178e-01 -2.016868e-01 1.126316e-01 7.898782e-02 -3.017168e-01 -1.104639e-01 3.845047e-02 2.385651e-01 4.264348e-01 -1.595835e-01 9.631088e-03 -9.134685e-03 -3.170808e-01 2.119263e-01 1.004694e-02 -8.174182e-02 4.562550e-02 -1.570205e-01
<VARIANCE> 39
 3.356088e+00 1.032034e+01 1.009107e+01 1.416735e+01 2.002473e+01 1.690996e+01 2.013390e+01 2.480465e+01 2.320669e+01 1.805050e+01 1.621626e+01 1.720640e+01 8.026532e+00 2.032796e-01 5.532021e-01 6.858426e-01 1.322239e+00 1.333380e+00 9.635425e-01 1.067974e+00 1.523321e+00 1.376668e+00 1.112169e+00 1.035933e+00 9.169439e-01 2.896346e-01 6.195549e-02 9.808923e-02 1.240501e-01 1.872402e-01 2.296235e-01 1.839076e-01 1.920382e-01 2.501347e-01 2.327796e-01 1.905960e-01 1.866505e-01 1.571909e-01 5.454974e-02
<GCONST> 7.894553e+01
<STATE> 4
<MEAN> 39
 -1.182835e+00 5.075960e+00 -2.426366e+00 -9.672264e+00 4.026998e+00 3.101258e-01 1.125579e+00 5.350871e+00 -7.939534e+00 -9.262473e-02 4.902394e+00 5.301239e-01 6.201295e+01 -1.055421e+00 3.179381e-01 1.111146e+00 1.794410e+00 -4.931261e-01 2.016338e-01 3.270367e-01 -1.159504e+00 7.396846e-01 -3.472878e-01 -5.355206e-01 6.822002e-02 -1.186865e+00 -3.400517e-01 -1.256333e-01 7.027973e-02 -3.329844e-02 3.578380e-02 -6.042627e-02 -2.144415e-02 -9.127199e-02 6.246047e-02 -5.235536e-03 -7.193066e-02 -1.419740e-01 3.608686e-02
<VARIANCE> 39
 8.220299e+00 1.180752e+01 1.557647e+01 2.294919e+01 3.305864e+01 2.631530e+01 2.642407e+01 2.570748e+01 2.722893e+01 2.264233e+01 1.790809e+01 1.877811e+01 2.037090e+01 1.131708e+00 1.199756e+00 1.998520e+00 1.920030e+00 2.830215e+00 1.821250e+00 1.790877e+00 1.935386e+00 2.385459e+00 1.715137e+00 1.919800e+00 1.347283e+00 6.594056e-01 2.429568e-01 1.887913e-01 3.518847e-01 4.939107e-01 4.331660e-01 3.572212e-01 3.499909e-01 4.050620e-01 4.234125e-01 3.386087e-01 3.102259e-01 2.484108e-01 1.767593e-01
<GCONST> 1.022637e+02
<TRANSP> 5
 0.000000e+00 1.000000e+00 0.000000e+00 0.000000e+00 0.000000e+00
 0.000000e+00 6.604910e-01 3.395090e-01 0.000000e+00 0.000000e+00
 0.000000e+00 0.000000e+00 8.366629e-01 1.633371e-01 0.000000e+00
 0.000000e+00 0.000000e+00 0.000000e+00 6.614755e-01 3.385245e-01
 0.000000e+00 0.000000e+00 0.000000e+00 0.000000e+00 0.000000e+00
<ENDHMM>
~h "aw"
<BEGINHMM>
<NUMSTATES> 5
<STATE> 2
<MEAN> 39
 -1.033038e+01 -2.974497e+00 -5.314780e+00 -2.961415e+00 4.544019e+00 4.018048e+00 -1.062242e+00 7.958248e-01 -1.443571e+00 -3.526524e-01 4.266084e+00 1.218194e+00 5.348566e+01 -3.732558e-01 -2.663363e-01 3.576843e-02 7.411250e-02 -1.706616e-01 1.307939e-01 -2.821256e-02 5.611438e-02 2.218618e-01 6.741381e-03 1.950304e-02 -3.352909e-03 -2.608177e-01 -1.471527e-02 1.424318e-01 1.324990e-01 7.251159e-03 -9.443150e-02 -1.062333e-01 1.932455e-02 -2.125752e-03 3.978357e-02 1.005596e-02 -5.718248e-02 -7.340402e-02 -2.110598e-02
<VARIANCE> 39
 5.629417e+00 3.744072e+01 2.234152e+01 1.250105e+01 1.846145e+01 2.480102e+01 2.647268e+01 2.410931e+01 8.293459e+00 9.118052e+00 7.063047e+00 2.057023e+01 7.564324e+00 4.230026e-01 1.213780e+00 1.288376e+00 1.059792e+00 1.447989e+00 2.578059e+00 1.817007e+00 2.544162e+00 1.348139e+00 1.469066e+00 7.903801e-01 1.524874e+00 5.574229e-01 5.686807e-02 1.302079e-01 2.279144e-01 2.259865e-01 2.652795e-01 4.442111e-01 3.546756e-01 6.076830e-01 2.156288e-01 2.427852e-01 1.862517e-01 4.239374e-01 4.998083e-02
<GCONST> 8.932252e+01
<STATE> 3
<MEAN> 39
 -1.510227e+01 2.585840e+00 4.518732e-02 1.727346e+00 2.604825e+00 5.577710e+00 3.093411e+00 2.724943e+00 1.700468e+00 2.533267e+00 2.613301e+00 2.087110e+00 4.760363e+01 -1.945198e-01 3.429678e-02 1.547504e-01 1.550103e-01 1.023187e-01 -8.958042e-03 2.126176e-01 2.157049e-01 1.072192e-01 8.403020e-02 2.963323e-02 1.697687e-02 -1.638839e-01 6.879777e-02 -3.513775e-02 -4.467459e-02 -7.297746e-02 -1.833686e-02 -5.855083e-02 -3.800833e-03 5.159194e-03 -7.392047e-02 -5.301912e-02 -3.891515e-03 -1.269323e-02 8.264128e-02
<VARIANCE> 39
 4.664218e+00 4.290439e+00 4.362803e+00 8.919999e+00 8.007936e+00 1.042202e+01 1.105230e+01 1.305822e+01 9.068462e+00 1.348177e+01 1.353200e+01 1.152034e+01 2.517174e+00 2.262899e-01 5.626377e-01 5.755682e-01 1.202504e+00 8.031261e-01 8.558213e-01 8.726258e-01 1.258016e+00 9.522708e-01 1.837940e+00 1.389381e+00 1.512722e+00 2.538821e-01 4.844277e-02 9.224045e-02 1.354920e-01 2.881117e-01 1.460720e-01 1.988836e-01 1.578450e-01 2.132128e-01 1.423122e-01 3.223378e-01 3.321991e-01 3.372270e-01 9.233090e-02
<GCONST> 7.249316e+01
<STATE> 4
<MEAN> 39
 -1.439032e+01 2.127989e+00 -6.205148e-02 7.048378e-01 2.904715e+00 6.133396e+00 5.130938e+00 4.901889e+00 1.778912e+00 1.781452e+00 3.464015e+00 3.732913e+00 4.820469e+01 1.623252e+00 -2.228238e-01 6.884978e-02 -2.188097e+00 -1.409674e+00 -2.204661e-01 -1.300061e-01 6.227120e-01 -1.435238e+00 -9.694638e-01 3.816857e-01 -3.985569e-01 1.921499e+00 7.107173e-01 -1.266963e-01 2.216917e-02 -5.750971e-01 -4.289137e-01 -2.139709e-01 -3.000835e-01 -3.396721e-01 -6.465057e-01 -1.473425e-01 6.238211e-02 -1.619569e-01 9.292595e-01
<VARIANCE> 39
 9.235854e+00 3.506256e+00 2.326619e+00 1.832233e+01 1.203908e+01 5.803506e+00 1.326528e+01 6.256063e+00 1.225416e+01 7.184956e+00 6.710677e+00 6.553676e+00 7.994003e+00 2.246631e+00 2.525338e+00 1.430144e+00 8.054815e+00 2.865440e+00 1.671415e+00 1.996451e+00 3.560589e+00 3.059262e+00 1.698512e+00 3.286138e+00 1.560746e+00 3.387277e+00 1.724777e-01 2.341761e-01 2.269949e-01 8.592416e-01 4.766672e-01 4.976496e-01 1.261658e-01 1.727993e-01 3.751351e-01 4.977462e-01 4.102819e-01 1.654648e-01 1.993529e-01
<GCONST> 9.403436e+01
<TRANSP> 5
 0.000000e+00 1.000000e+00 0.000000e+00 0.000000e+00 0.000000e+00
 0.000000e+00 9.043655e-01 9.563455e-02 0.000000e+00 0.000000e+00
 0.000000e+00 0.000000e+00 9.256686e-01 7.433144e-02 0.000000e+00
 0.000000e+00 0.000000e+00 0.000000e+00 6.470646e-01 3.529354e-01
 0.000000e+00 0.000000e+00 0.000000e+00 0.000000e+00 0.000000e+00
<ENDHMM>
~h "ch"
<BEGINHMM>
<NUMSTATES> 5
<STATE> 2
<MEAN> 39
 -1.344788e+01 -1.355012e+00 9.650223e+00 4.891302e-01 -1.801707e+00 -2.161208e+00 2.733959e+00 -5.342685e+00 -4.955135e+00 -1.049288e+00 2.036639e+00 -2.196150e+00 5.826319e+01 -2.889177e+00 -2.678039e+00 2.147685e+00 -3.548554e-01 -6.621120e-01 -2.164605e+00 1.936871e+00 -2.321289e-01 -2.571414e-01 -2.139305e-01 4.205191e-01 -5.241268e-01 1.897811e+00 -1.955116e-01 -1.038096e-01 2.441320e-01 2.786993e-01 4.317472e-01 -6.008905e-01 -2.132290e-01 3.097468e-01 1.767202e-01 2.178962e-02 7.525857e-02 1.135568e-01 3.368924e-01
<VARIANCE> 39
 2.715966e+01 3.699923e+01 3.478794e+01 3.249118e+01 3.605246e+01 3.878024e+01 3.580514e+01 3.032239e+01 2.761315e+01 2.408310e+01 1.392392e+01 1.499913e+01 2.080397e+01 2.128237e+00 2.637233e+00 2.986329e+00 2.886289e+00 3.421324e+00 4.512836e+00 2.291719e+00 2.921994e+00 2.119820e+00 2.205489e+00 1.456354e+00 1.242311e+00 2.100106e+00 4.922616e-01 7.595623e-01 6.822313e-01 6.171899e-01 7.218408e-01 8.245145e-01 7.364236e-01 5.649267e-01 5.490815e-01 4.909910e-01 3.265688e-01 2.780530e-01 5.662897e-01
<GCONST> 1.186010e+02
<STATE> 3
<MEAN> 39
 -2.350758e+01 -8.957654e+00 1.680088e+01 2.368900e+00 1.867200e-01 -1.252912e+01 5.489425e+00 -3.367612e+00 -4.916981e+00 -2.740238e+00 3.405809e+00 -2.409734e+00 6.453013e+01 -6.755502e-01 -1.006473e+00 2.812617e-01 4.498699e-01 9.179276e-01 -1.642102e+00 -5.860510e-01 1.264051e+00 9.393948e-01 -8.587436e-02 2.059062e-01 4.081816e-01 4.809336e-01 1.346676e+00 8.864198e-01 -8.691254e-01 -5.197025e-02 2.001696e-02 9.901044e-01 -6.141036e-01 3.618114e-02 2.488471e-01 2.582998e-01 -1.977308e-01 1.408609e-01 -7.842771e-01
<VARIANCE> 39
 8.572608e+00 1.070116e+01 1.475612e+01 1.812883e+01 2.056775e+01 2.156369e+01 2.014733e+01 2.210207e+01 1.862342e+01 2.344801e+01 1.780923e+01 1.508850e+01 6.144270e+00 3.771725e+00 1.939768e+00 2.701702e+00 1.951008e+00 2.163055e+00 3.998143e+00 2.015522e+00 1.948064e+00 2.039358e+00 2.090064e+00 1.356269e+00 1.367636e+00 1.537325e+00 3.755368e-01 2.889697e-01 3.799435e-01 3.222362e-01 4.052040e-01 4.791590e-01 3.598794e-01 4.290508e-01 3.328504e-01 3.532847e-01 2.887599e-01 2.708853e-01 1.413248e-01
<GCONST> 1.026685e+02
<STATE> 4
<MEAN> 39
 -1.715059e+01 -6.688879e+00 1.271779e+01 2.657032e+00 2.007524e+00 -1.030595e+01 1.701229e+00 3.032135e-01 -6.190689e-01 -5.249539e-01 2.824366e+00 -8.532230e-01 6.129615e+01 3.043034e+00 2.093738e+00 -1.205754e+00 3.400952e-01 5.223682e-02 1.887012e+00 -1.169323e+00 4.389009e-02 3.963735e-01 7.211137e-01 -3.540565e-01 3.426958e-01 -1.024739e+00 3.075691e-01 3.991494e-01 -8.004840e-02 -3.051098e-02 -1.976441e-01 3.537084e-01 7.257625e-02 -3.944715e-01 -4.073587e-01 -9.648579e-04 -6.976594e-03 -1.090479e-02 1.334036e-01
<VARIANCE> 39
 3.178164e+01 2.173873e+01 1.827224e+01 1.678961e+01 2.261556e+01 4.087550e+01 2.800320e+01 2.510837e+01 1.700939e+01 2.288037e+01 1.997970e+01 1.271171e+01 1.118230e+01 2.998796e+00 1.835550e+00 1.798946e+00 1.912199e+00 1.770624e+00 2.732431e+00 2.771911e+00 2.663411e+00 1.881464e+00 1.934670e+00 2.084931e+00 1.463918e+00 1.046425e+00 7.691040e-01 4.672306e-01 3.127241e-01 3.184599e-01 3.902708e-01 8.022838e-01 4.683263e-01 4.719310e-01 3.527702e-01 3.686313e-01 4.201275e-01 3.277316e-01 3.199757e-01
<GCONST> 1.090485e+02
<TRANSP> 5
 0.000000e+00 1.000000e+00 0.000000e+00 0.000000e+00 0.000000e+00
 0.000000e+00 7.125682e-01 2.874318e-01 0.000000e+00 0.000000e+00
 0.000000e+00 0.000000e+00 6.869655e-01 3.130345e-01 0.000000e+00
 0.000000e+00 0.000000e+00 0.000000e+00 7.250336e-01 2.749664e-01
 0.000000e+00 0.000000e+00 0.000000e+00 0.000000e+00 0.000000e+00
<ENDHMM>
~h "dj"
<BEGINHMM>
<NUMSTATES> 5
<STATE> 2
<MEAN> 39
 -5.754953e+00 4.867403e+00 7.431297e+00 2.852013e+00 8.920439e-01 7.480763e-01 -6.258794e+00 -7.163307e+00 -5.203872e+00 2.083267e-01 -8.444731e-01 -2.993250e+00 5.854306e+01 -6.598124e-01 -3.992125e-01 2.108148e+00 1.712745e-01 -9.790473e-01 1.104692e-01 -2.351377e-01 -6.852646e-01 -1.512873e-02 2.153853e-01 -1.258964e-02 -9.664102e-01 5.479955e-01 -1.556153e-01 -1.370660e-01 2.571912e-01 1.098141e-02 -7.648063e-02 -6.056464e-02 3.138176e-01 1.977334e-01 1.102550e-01 -3.587158e-02 1.847887e-01 9.959352e-03 1.018028e-01
<VARIANCE> 39
 4.048322e+01 2.691324e+01 5.354622e+01 4.034857e+01 3.685530e+01 3.566298e+01 3.399070e+01 4.189980e+01 2.476402e+01 4.353259e+01 1.880382e+01 3.484629e+01 2.972589e+01 3.786704e+00 3.627244e+00 3.216924e+00 5.536651e+00 3.484374e+00 5.474716e+00 5.686321e+00 5.094659e+00 3.137550e+00 4.700935e+00 2.664971e+00 3.298463e+00 3.293085e+00 8.014901e-01 6.064165e-01 9.789955e-01 1.162526e+00 9.034159e-01 1.450327e+00 1.131881e+00 1.023198e+00 7.212277e-01 9.973478e-01 4.610643e-01 8.343410e-01 7.003784e-01
<GCONST> 1.337064e+02
<STATE> 3
<MEAN> 39
 -1.138390e+01 2.091490e+00 1.697276e+01 1.367587e+00 -3.646691e+00 1.491146e+00 -2.732680e+00 -6.386329e+00 -5.882889e+00 -7.436000e-01 1.897367e+00 -4.585363e+00 6.043204e+01 3.168106e-01 -4.591867e-01 8.980967e-01 1.291718e+00 3.045227e-01 -1.813872e+00 -1.236024e-01 2.378237e-01 1.747173e-01 1.103135e-01 7.367663e-02 -4.871212e-01 7.183219e-01 8.412954e-01 2.935421e-01 -1.005551e+00 4.981405e-01 4.435755e-01 -5.769671e-01 -4.376812e-01 -1.276439e-01 2.079128e-01 5.391151e-02 -3.144352e-01 2.008866e-01 -1.087520e-01
<VARIANCE> 39
 3.280618e+01 1.485305e+01 2.043543e+01 4.760419e+01 2.272946e+01 3.475481e+01 3.132395e+01 3.911648e+01 1.371062e+01 1.773478e+01 2.266267e+01 2.043745e+01 9.230767e+00 5.214690e+00 1.818159e+00 3.692412e+00 5.257933e+00 3.756123e+00 7.137807e+00 4.027840e+00 3.614635e+00 1.291792e+00 2.373596e+00 2.323734e+00 1.853357e+00 1.619615e+00 6.367564e-01 3.595197e-01 6.428594e-01 9.530037e-01 7.743753e-01 1.324229e+00 6.742610e-01 7.676040e-01 2.854975e-01 4.444187e-01 4.640419e-01 3.695951e-01 3.049168e-01
<GCONST> 1.190154e+02
<STATE> 4
<MEAN> 39
 -5.968832e+00 2.469539e+00 1.425149e+01 7.471091e+00 -1.207565e+00 -6.649344e+00 -6.393944e+00 -6.799768e+00 -4.570020e+00 -4.344718e-01 -1.939992e-01 -5.087206e+00 6.193330e+01 1.177779e+00 1.213695e-01 -2.054750e+00 5.006759e-01 9.442773e-01 -8.359653e-01 -1.004804e+00 -3.700930e-01 5.812977e-01 -1.136099e-01 -2.727956e-01 6.134683e-01 -1.273696e-01 -3.260152e-01 2.295371e-01 -3.512565e-01 -6.884764e-01 -9.195336e-03 9.735373e-01 2.673006e-01 -1.100199e-01 -1.571377e-01 -1.819603e-01 9.483804e-02 2.592573e-01 -4.609273e-01
<VARIANCE> 39
 2.338982e+01 1.651996e+01 3.410963e+01 2.799839e+01 3.010027e+01 2.738851e+01 1.999732e+01 2.758374e+01 1.184452e+01 2.177951e+01 1.372057e+01 1.324170e+01 1.253362e+01 4.381572e+00 1.582000e+00 4.253785e+00 4.617381e+00 3.488092e+00 5.666792e+00 2.569547e+00 4.052502e+00 1.747351e+00 2.426291e+00 2.082730e+00 1.874680e+00 2.205763e+00 6.856389e-01 3.624843e-01 9.499538e-01 5.970759e-01 7.677096e-01 9.399085e-01 5.604846e-01 6.503263e-01 2.869424e-01 4.666702e-01 3.463537e-01 3.049250e-01 3.291109e-01
<GCONST> 1.159805e+02
<TRANSP> 5
 0.000000e+00 1.000000e+00 0.000000e+00 0.000000e+00 0.000000e+00
 0.000000e+00 7.442213e-01 2.557788e-01 0.000000e+00 0.000000e+00
 0.000000e+00 0.000000e+00 6.746523e-01 3.253477e-01 0.000000e+00
 0.000000e+00 0.000000e+00 0.000000e+00 6.235344e-01 3.764656e-01
 0.000000e+00 0.000000e+00 0.000000e+00 0.000000e+00 0.000000e+00
<ENDHMM>
~h "ee"
<BEGINHMM>
<NUMSTATES> 5
<STATE> 2
<MEAN> 39
